0.097133
-0.118895
0.253505
0.277687
0.454187
0.031820
-0.469248
-0.072617
-0.189699
0.288794
0.329326
-0.274185
0.051215
-0.317477
-0.509102
0.278696
0.297879
-0.278613
-0.330857
-0.010482
-0.061840
-0.457305
-0.383394
0.469330
-0.340369
-0.570061
0.071129
0.318049
-0.268749
-0.225415
0.594427
-0.276083
-0.368023
0.615959
0.339005
0.157864
0.168718
-0.160536
-0.469693
0.219276
-0.272191
0.019489
-0.249445
-0.157886
0.364175
-0.367827
-0.422006
-0.170419
0.350824
0.216316
-0.193094
-0.358093
-0.143810
0.327902
0.081193
0.516925
-0.163422
-0.344613
-0.031484
-0.363444
0.015173
-0.193844
0.090090
-0.183422
-0.451342
0.235946
-0.665638
-0.354707
0.181031
-0.502528
0.342144
-0.446760
0.047199
-0.009136
-0.144235
0.162550
0.253013
0.493868
0.592479
-0.402664
0.016288
-0.326539
0.325540
0.487146
0.474165
0.539143
-0.322763
-0.402688
-0.490826
-0.014545
-0.108629
-0.104188
-0.364420
-0.143480
-0.006536
-0.210262
0.259292
-0.610041
-0.156873
0.341546
-0.172853
-0.156869
0.088287
0.236278
0.323536
-0.074499
-0.269132
-0.344837
0.724294
0.063509
0.461056
-0.321619
-0.053150
-0.098322
0.283152
0.047828
0.303125
-0.516678
-0.563462
-0.034852
-0.499579
-0.253166
0.004933
-0.213663
0.132633
-0.303972
-0.417880
0.210823
-0.518363
0.201025
-0.239630
0.262920
0.180247
0.141371
0.215390
0.091424
-0.117871
-0.317937
0.315301
0.204433
0.185710
0.034465
-0.241290
-0.027007
-0.699131
0.267096
-0.380724
-0.210616
0.520025
0.228060
0.170899
-0.258345
0.235836
-0.098415
-0.213684
-0.062750
0.088981
-0.210956
0.269565
-0.387969
-0.435627
-0.223495
-0.096181
0.308166
0.053479
-0.635299
-0.125159
-0.360138
0.422054
-0.029482
0.024110
0.340257
0.084447
0.431488
0.671075
-0.258386
0.063862
-0.139473
0.095284
-0.382699
-0.143558
-0.157619
-0.271971
-0.456056
0.259440
0.425633
-0.331686
-0.025646
0.260273
0.187649
0.173876
0.435149
-0.252499
0.172649
0.381792
-0.362897
-0.403093
0.179206
-0.157188
0.312427
0.368640
0.013709
0.326371
0.021593
0.128851
-0.295093
0.393348
0.194195
-0.239064
-0.324935
0.360164
-0.163195
0.169457
0.319731
0.514958
0.096659
0.082215
-0.289896
-0.527952
0.002588
-0.217342
-0.022946
-0.405056
0.581219
0.057406
0.363300
0.315027
0.082078
0.224014
-0.463013
0.022993
0.319756
0.020237
-0.294445
-0.324525
-0.391781
0.642494
-0.397987
-0.003798
-0.389906
-0.441739
-0.147453
-0.407280
-0.379950
0.603553
0.403678
-0.496090
0.245574
-0.089084
0.154717
-0.030344
-0.216971
0.288643
0.005069
-0.135955
-0.082929
-0.638118
0.096284
0.625736
0.121616
0.371578
0.304152
-0.300586
-0.375049
0.453419
0.565074
0.328336
0.610767
0.625262
-0.302141
-0.258785
-0.281779
0.169727
0.112026
-0.117528
-0.044844
0.098811
-0.010365
0.411858
-0.004819
0.059633
0.247581
0.336629
0.036246
0.139795
-0.524910
-0.428137
-0.570200
-0.518438
-0.147243
0.157686
-0.535620
0.508614
-0.163427
0.574918
0.103898
0.648394
-0.574117
-0.358052
-0.187191
-0.018682
-0.305997
-0.017321
0.108893
-0.037162
-0.337021
0.046452
0.386690
-0.391570
0.409213
0.067078
-0.565517
0.111250
-0.062065
0.434163
-0.293003
-0.126976
0.246628
0.021774
0.479227
-0.487119
0.420627
-0.173461
0.086147
-0.582518
-0.583145
0.193996
-0.222479
-0.173537
0.343790
0.496246
0.158315
0.025896
-0.087793
-0.119388
0.034752
0.026613
0.386943
0.168297
0.181707
0.152207
-0.171335
-0.176024
0.531099
0.332924
-0.643758
-0.014348
0.285695
-0.354951
-0.268316
-0.272158
0.399960
0.184799
-0.131629
-0.458847
0.203827
0.360805
-0.279451
-0.016001
0.137729
0.068879
-0.279025
-0.412834
0.012698
0.318222
-0.117664
0.156671
-0.105938
-0.075646
0.083354
-0.045999
0.471403
-0.025852
0.489062
0.354848
-0.335704
0.295689
-0.012898
-0.030192
-0.012719
-0.233580
-0.371775
-0.145053
0.542753
-0.721693
-0.044649
0.035263
-0.171453
-0.156653
0.394952
-0.001761
-0.139388
0.082572
0.037887
0.532424
-0.021756
0.254699
0.227885
-0.097047
0.103093
-0.146614
-0.114555
0.284343
0.234242
-0.129718
-0.262528
0.030215
-0.450769
0.044791
0.269454
0.531907
0.399061
-0.472108
-0.065944
0.130379
-0.268214
0.004174
-0.248966
-0.383963
0.134317
0.247312
-0.434543
0.018771
0.169469
0.031787
-0.044298
-0.306619
-0.297145
-0.052025
-0.307159
0.135491
-0.251777
-0.449040
-0.047866
-0.031316
-0.004361
0.061303
-0.133816
-0.014734
-0.873029
0.059476
0.238635
-0.264301
0.806616
-0.042843
-0.325915
0.230206
-0.630275
-0.063105
0.172787
0.196743
0.070751
0.012095
-0.630401
-0.298635
0.424942
-0.299438
0.117567
-0.122859
0.477159
0.466624
0.364605
0.241484
0.072568
-0.149985
0.102737
-0.043747
0.336425
0.308582
-0.038740
0.391341
0.250811
0.141086
-0.176167
0.611335
-0.320477
0.131370
0.256938
0.476913
-0.424995
-0.184173
-0.291612
0.043659
0.051627
-0.295350
0.444552
0.096638
0.015778
0.051447
-0.200136
0.113438
-0.549197
-0.297775
0.414510
-0.101080
0.128872
-0.170851
-0.475797
-0.106667
0.038563
0.063549
0.260299
0.451458
-0.060999
0.443826
0.193409
-0.062255
0.183114
0.193000
-0.007095
0.171980
0.029516
-0.714788
0.494169
-0.458477
0.445281
-0.438463
0.289828
-0.439635
0.256364
0.327526
-0.332975
-0.534588
-0.140998
-0.010343
0.208384
0.188921
0.020679
0.493041
-0.447214
-0.284217
0.028798
-0.484304
0.091824
0.392044
0.371129
-0.508152
-0.325646
0.046458
-0.489050
-0.690490
-0.586229
-0.280917
0.199719
-0.150359
0.080393
-0.293131
-0.090531
-0.485293
-0.524180
0.018505
0.517750
0.167417
0.034271
-0.207831
-0.253552
-0.418887
-0.448803
-0.237713
0.200262
0.464805
0.020891
-0.066221
0.504488
-0.133628
0.144763
-0.225935
0.337403
-0.548973
-0.411922
-0.037859
0.514430
-0.025587
0.037145
-0.433864
-0.392818
-0.466904
-0.044037
-0.445914
-0.419852
0.207624
0.142754
0.636159
-0.185666
-0.409056
-0.227970
-0.569232
-0.200285
-0.626697
-0.180408
0.456618
-0.381226
0.229312
0.554348
-0.491335
-0.168456
-0.155315
0.310763
-0.475983
-0.212305
-0.025623
0.258761
0.362013
0.408488
-0.235529
-0.104370
-0.080599
-0.080534
0.223643
0.323754
-0.783083
0.126035
0.282256
-0.418521
-0.111917
-0.390981
-0.283171
0.165624
-0.669570
0.363522
0.426437
0.224904
-0.128826
0.260410
-0.486734
0.316791
-0.017952
0.498097
-0.300601
0.282921
-0.127857
0.291598
0.161630
-0.475599
0.613997
0.262524
-0.474952
0.189622
-0.439779
0.124298
0.154853
0.126543
-0.352850
0.283841
-0.593005
0.474868
-0.082844
0.254397
0.370017
-0.498298
-0.388586
-0.170965
0.554369
-0.026384
-0.077011
-0.372803
0.422094
0.255120
-0.235582
0.057359
-0.247577
-0.070782
0.712875
-0.182294
0.155649
0.220159
0.327401
0.337204
-0.149151
-0.226828
0.166807
0.120951
-0.331702
0.634984
0.147357
-0.496020
-0.052672
-0.016278
-0.001095
0.021715
-0.101241
0.480335
0.078932
0.114593
0.306959
-0.522857
-0.371063
0.586151
-0.160250
0.235441
-0.069413
-0.104176
-0.062839
0.149754
-0.347691
-0.401132
0.051409
-0.221064
0.158717
0.250660
0.109072
0.023182
-0.018917
0.168306
0.454212
-0.279668
-0.607561
-0.394591
-0.299532
-0.187083
-0.028736
0.079421
-0.027162
-0.238737
0.219673
0.000233
0.243674
-0.625748
-0.204365
-0.046910
-0.301290
0.141167
0.149997
-0.034032
-0.552272
0.563672
0.402765
-0.545949
-0.297622
0.078816
-0.098491
0.037735
0.038506
0.529677
-0.477147
0.436402
0.100963
0.022121
0.432726
-0.272845
-0.083967
-0.031243
0.572947
0.148871
0.334821
0.525095
0.495441
0.321654
0.385069
0.284766
-0.601146
0.315782
0.083818
-0.156622
-0.300940
-0.437857
-0.576456
-0.382713
-0.070161
0.311954
-0.205196
-0.044715
0.547758
-0.237838
-0.402343
-0.040550
0.172974
0.060755
-0.490475
-0.403640
-0.656815
-0.184298
0.024409
-0.390470
0.419882
-0.156869
-0.443357
-0.112474
0.048415
-0.177905
-0.188382
-0.023802
-0.288444
-0.058270
0.170004
-0.312547
-0.097077
0.237719
0.311215
-0.217575
-0.155532
0.121083
-0.026119
-0.390084
-0.002900
-0.628963
0.241883
0.096244
0.055415
0.523597
0.213412
-0.168470
0.597705
-0.055706
-0.121150
-0.017170
-0.466827
-0.048516
-0.183081
0.091755
0.460743
-0.109827
-0.614577
0.477879
0.142659
0.253574
