0.169133
-0.231096
0.128562
-0.571313
0.045785
-0.015636
0.139038
0.116171
0.480863
0.283447
0.013763
-0.337328
-0.296954
-0.429652
0.271401
0.414646
-0.168427
-0.297629
0.038479
0.184559
0.121733
0.174700
-0.447352
-0.390294
-0.576492
-0.459940
-0.296437
0.268554
0.470095
-0.081487
-0.326824
0.479338
-0.483562
-0.252220
0.008515
-0.195762
0.206649
0.240473
0.042623
-0.266486
0.294120
-0.068905
-0.231465
0.109482
0.007026
-0.412407
0.242319
0.346754
0.042462
-0.093197
-0.047893
-0.206013
0.218387
0.083104
-0.415355
-0.449659
0.216083
-0.250491
-0.347698
-0.382254
0.132033
-0.324997
-0.438615
-0.245787
-0.460711
0.375591
0.043111
0.048183
0.231009
-0.317162
0.573952
0.316298
-0.125604
-0.269975
0.400944
0.042438
-0.381333
0.140212
0.300892
0.126374
0.139325
0.344117
0.231560
-0.447570
0.243462
-0.538709
0.345826
0.499667
-0.182270
0.490457
0.013925
0.182392
-0.258771
-0.150862
0.110712
0.158839
0.239362
-0.380022
-0.647654
0.189967
0.398959
0.441505
-0.303395
0.191477
0.414994
-0.435118
0.695290
0.127930
-0.224901
-0.224244
-0.083612
0.427441
-0.441918
0.105295
0.284923
-0.693249
0.146405
0.166208
0.111927
-0.494279
0.395011
-0.645463
-0.304795
-0.279992
0.358662
0.329453
-0.075433
0.100618
0.081179
0.402608
-0.583714
-0.288062
-0.167134
0.253356
0.188200
0.252898
0.011566
-0.097715
-0.482881
-0.170854
0.457369
-0.015882
-0.025833
-0.716742
-0.622260
-0.317167
-0.367709
0.009352
-0.242164
-0.373633
0.007580
-0.546210
0.487760
-0.078521
-0.168841
0.059369
-0.209253
-0.219057
-0.175509
-0.237161
-0.633053
0.344334
0.172725
0.455579
-0.134562
0.772604
-0.134986
-0.399560
-0.215913
-0.593650
-0.367845
0.027154
0.117330
-0.155573
-0.494999
-0.250673
0.442954
0.005877
-0.222444
0.334980
-0.019839
-0.657916
0.153537
-0.353646
-0.306350
0.268584
-0.115801
0.610628
0.170024
0.196884
0.508573
0.434660
-0.330391
0.161517
-0.309832
0.060842
0.140961
0.212578
-0.175905
0.461699
0.609274
-0.523055
-0.559712
-0.358426
0.018783
0.394684
-0.203825
-0.368744
0.353148
0.201777
0.145987
-0.248460
0.078445
-0.129698
-0.022935
-0.350888
-0.000989
-0.046302
-0.109786
0.429016
0.368739
-0.564409
0.604071
-0.562962
-0.092547
-0.118322
0.417070
-0.360315
-0.260988
0.369649
0.181142
-0.113651
-0.237948
-0.028640
0.214491
0.230958
0.219197
-0.189252
-0.186956
0.036149
0.084396
0.008909
0.016921
0.087837
0.286263
-0.352569
0.269376
0.038757
0.261694
-0.123837
0.124826
-0.242009
-0.306365
0.237563
0.215309
-0.302662
-0.444533
0.412787
0.058301
-0.177019
-0.019817
-0.086183
-0.558423
0.538512
-0.182296
0.163881
0.137717
0.569430
-0.013332
-0.426808
0.352774
-0.286539
0.460236
-0.324985
-0.210129
-0.182236
0.145866
-0.075477
0.237914
-0.237619
0.738554
-0.265831
-0.538178
0.166670
0.532206
-0.209922
-0.508513
0.428086
0.586706
-0.478110
-0.826248
0.499422
0.107781
0.148203
-0.418577
-0.236096
-0.623306
0.151443
-0.400488
0.521908
0.015546
0.079583
0.001756
-0.334787
-0.401608
-0.351056
-0.130694
0.256118
-0.047369
-0.194843
0.255289
-0.456725
-0.315007
-0.210966
-0.165942
-0.206112
-0.609022
-0.239745
-0.366106
0.289212
0.065878
0.132110
0.105061
-0.480789
-0.160020
-0.124540
0.273675
-0.193352
-0.560520
-0.555156
0.126038
-0.281837
-0.422856
-0.228292
-0.105615
-0.280046
0.495045
-0.451978
-0.172520
0.164150
0.073985
0.109788
0.424473
0.398057
-0.402471
0.164298
-0.055727
-0.118218
-0.279458
-0.237705
0.378060
-0.123382
-0.370260
-0.165353
-0.319463
0.250979
0.233511
-0.318094
0.561966
0.387492
0.334399
-0.522478
0.033668
0.220201
0.220643
-0.139817
0.250448
0.276765
0.095661
-0.301153
-0.051022
0.497406
-0.149335
0.306711
-0.090485
0.337636
0.190788
-0.138979
-0.311924
0.217934
-0.455421
-0.497756
0.105239
-0.517044
-0.572035
0.221005
-0.153004
0.478826
-0.511027
-0.426332
0.215690
-0.154698
0.415666
0.677155
0.497790
-0.044768
0.301854
-0.201628
-0.150246
0.346209
-0.376622
-0.197371
0.210559
-0.091852
0.667506
-0.655892
0.006577
-0.081302
0.284683
0.265586
0.019797
0.682226
0.503207
0.213155
-0.149140
0.099395
-0.006288
-0.275468
-0.280505
-0.116058
0.357574
-0.088714
0.059269
0.340271
-0.124449
0.018071
0.434766
-0.403541
-0.591322
0.105967
0.182114
-0.023618
-0.517338
-0.178360
0.212586
0.100896
-0.087747
-0.344406
-0.422527
0.323788
0.159925
0.064195
0.305804
0.191375
-0.150317
0.359594
0.164282
-0.439576
0.477688
-0.072292
0.293690
-0.192904
-0.369105
0.307445
0.396701
-0.015929
-0.003927
0.142640
-0.729633
-0.230510
0.080178
-0.007259
-0.149010
-0.462293
-0.175914
-0.142096
-0.494760
-0.589368
-0.066202
-0.349154
-0.132996
-0.172016
-0.005299
-0.031714
0.852773
-0.196391
0.497749
0.255460
-0.323978
-0.373670
-0.462577
0.041259
0.003195
0.361611
-0.199407
-0.035079
-0.291390
-0.369338
-0.474048
-0.206801
-0.457917
0.259715
-0.210597
-0.357181
0.065437
0.374527
0.270363
-0.438631
-0.056555
-0.405695
0.230347
-0.091063
0.322105
0.163118
-0.605636
-0.382779
-0.513263
0.193938
-0.012773
0.433925
-0.264312
0.266229
-0.219849
-0.058863
0.033470
-0.135573
0.118429
0.281913
0.222256
-0.439648
0.485067
-0.632052
0.275872
-0.242442
-0.173513
0.090516
-0.529961
-0.131727
-0.166814
-0.558776
0.079817
0.162253
0.081151
0.581372
0.120629
-0.439606
-0.538510
0.341177
0.381226
-0.221999
0.145174
0.554628
0.012463
-0.130315
-0.071552
0.666350
0.775292
-0.315817
-0.453869
-0.037407
-0.034437
0.352312
0.101315
-0.554748
0.089435
-0.197714
0.592837
-0.086304
0.016442
-0.183022
-0.556861
-0.099825
-0.180825
-0.046274
-0.485044
0.226006
-0.196794
-0.320485
-0.666227
0.200481
-0.286736
-0.379193
0.044184
-0.155077
-0.501642
-0.099939
-0.038687
-0.209647
0.159026
0.041911
0.652605
0.088310
-0.224568
0.418816
-0.238415
0.166885
-0.063495
0.293246
-0.341877
-0.132952
0.269904
0.435399
-0.382036
0.024926
0.329694
-0.212517
0.458146
-0.347446
0.341034
0.194144
0.571315
0.128766
-0.312313
0.382546
0.331430
-0.263528
-0.369244
-0.421463
0.033960
-0.293780
-0.286862
0.404181
-0.598291
-0.047495
0.438675
-0.408128
0.432164
0.209870
-0.234221
-0.061216
0.049156
-0.267573
-0.052313
-0.521958
0.028116
0.281035
-0.119447
-0.476880
-0.218976
-0.093891
-0.117398
-0.243209
0.107519
-0.482106
0.553818
0.039779
0.442326
-0.403117
-0.046151
0.433885
0.364788
0.377609
-0.307634
-0.087189
0.335645
0.172436
0.666456
0.115038
-0.035610
0.142316
0.658643
-0.337710
-0.212111
-0.701039
-0.358078
-0.216128
-0.376451
-0.508274
0.521530
-0.857223
0.431022
0.197300
-0.375595
0.619875
0.191456
0.086221
-0.039558
0.204421
0.052296
-0.053022
0.128157
0.234870
-0.043228
-0.327330
-0.116119
0.291879
0.083984
-0.143187
0.113293
0.238701
-0.476256
0.462067
0.074411
-0.385068
0.275919
-0.619170
0.213738
0.009286
0.346614
0.385180
0.124605
-0.208313
-0.346890
0.101387
-0.151744
0.478395
-0.099114
0.314676
0.099088
-0.349239
0.092648
-0.234284
-0.047088
-0.562004
0.265143
-0.552976
-0.228140
-0.312821
-0.179157
0.477452
0.020138
0.036222
-0.073444
0.150097
-0.071320
0.590495
0.284280
-0.360262
0.214021
0.109017
0.647117
0.202825
-0.078163
0.267217
0.183847
-0.227248
-0.004318
0.393282
-0.190699
0.516056
0.332635
0.130546
0.266338
0.268937
-0.612681
0.561050
-0.181948
0.369191
0.105314
-0.283610
-0.363887
-0.703003
0.471801
0.383938
0.116338
0.514980
0.295812
-0.287619
-0.154769
-0.107508
-0.145658
0.032308
-0.378314
0.498661
-0.635198
-0.207418
-0.104905
0.185107
-0.102746
0.520736
0.180704
-0.023965
0.804900
-0.060955
0.006462
0.043128
0.493048
0.366641
-0.069487
0.114687
-0.397545
-0.529808
-0.038595
0.355259
-0.074254
-0.612315
-0.524645
-0.098367
0.346574
0.289392
0.689348
0.028580
0.245139
0.201615
0.209877
-0.054410
0.006063
0.366815
0.208024
0.222674
0.251895
-0.260397
-0.283931
-0.005860
-0.815515
-0.114593
-0.265100
0.009810
-0.231377
-0.576995
0.345055
0.310105
-0.544928
0.315451
0.196547
-0.289412
-0.596604
0.305409
0.447218
-0.363910
-0.053538
0.072155
-0.119082
-0.201591
0.006585
0.104235
