-1.665668
1.351716
-1.661997
-1.225537
1.236269
-0.129155
-0.117629
-2.289355
2.171350
1.180730
1.025347
-2.238604
-4.624906
-2.250215
2.689458
-3.203946
0.543831
-2.054598
0.913815
1.994293
-0.706498
2.300546
0.993313
-1.344957
-2.025130
1.518447
2.902636
3.999939
0.824419
1.974268
1.118539
3.017896
-2.001776
-1.763813
1.662450
-1.266634
-4.524060
-1.824357
1.063422
0.728400
-0.594225
0.739190
2.000977
-1.647970
-3.764449
-2.132614
0.466802
-0.177718
-1.398900
-0.769932
0.798819
-1.231085
4.074794
2.245575
-2.329048
-0.873321
-0.388498
-0.979702
-2.712658
-1.330820
-2.171888
1.089283
2.003388
2.037218
1.602700
1.107219
3.614544
-0.338822
-3.986067
1.661063
2.271014
0.023167
2.750778
-0.125369
-1.077738
-2.182555
0.510574
0.430367
1.144487
-1.147963
1.198606
0.393544
-0.900161
-1.131031
1.024350
3.877303
-1.723981
1.456972
-0.892100
-2.646622
-0.546778
1.196387
-0.922951
-2.194356
-0.434854
0.717545
0.918191
2.342254
-0.465074
0.860365
-2.202904
-2.088830
2.339780
0.011847
-1.627138
-1.199103
1.780819
-0.637308
1.734911
3.818719
-3.111539
-2.839379
-0.437689
0.763114
-2.797449
-1.336829
1.512681
-3.090135
2.376475
-1.765219
-1.674269
-3.652014
-0.695266
1.418841
0.065583
0.312706
-2.171747
-2.455757
-1.794055
-1.573020
1.597283
-0.379835
2.156254
4.907367
-0.630515
-2.421794
-0.141517
-0.881561
-1.006023
2.453576
2.299916
-2.477278
0.067172
1.998173
-0.359516
1.108011
5.015508
-0.823241
-0.112153
-2.151047
-0.795965
-0.064641
-0.995791
3.162117
-4.035088
-0.959250
0.818999
2.282495
1.269751
-0.366266
-1.747798
-0.976071
-0.712792
1.687821
-0.820166
4.140729
3.904035
-3.581029
1.110797
4.159415
-0.232148
-0.883380
-1.599911
0.169943
-0.122573
0.785999
0.631880
0.465765
-0.759395
0.242709
-1.272879
0.699558
-0.446440
2.244064
-1.676907
2.442150
-3.714466
3.705045
-2.508374
-0.683453
-1.094788
1.578599
1.840869
1.035935
-1.161046
1.260291
-4.097834
1.246971
-2.485674
-2.918171
0.603872
2.361670
-0.342559
-1.173578
-4.704741
-0.800708
2.807372
2.927779
0.552769
-1.050392
1.614941
-0.768480
-2.757699
-0.108675
-0.750584
-0.362133
1.860127
0.681501
2.307556
-1.676233
-0.790000
-4.154481
3.455012
-1.407740
-0.593760
-0.009875
-4.609245
0.475681
-2.941046
-2.399136
-3.352063
0.747844
1.944680
0.101051
-0.083198
0.046902
-0.551513
-0.042492
-2.967172
0.876736
-0.415685
0.758428
0.464466
0.645609
-0.101182
2.189000
4.207764
-5.004744
4.157248
0.143262
-1.645815
-0.257966
-1.776197
1.521606
-1.916203
-1.328797
0.442236
1.882244
-1.970421
-2.339219
-2.125231
-1.486919
0.394056
-0.719310
5.001260
-1.287385
-0.372768
1.403326
0.647700
3.233476
-3.041182
0.446182
-1.850390
-1.284159
2.779390
-1.341405
-0.606030
3.854162
-1.398018
-0.063544
0.557565
-0.731070
0.270390
1.067736
1.122296
0.331110
2.345000
-1.665838
1.321953
0.239897
-0.389567
-2.285585
1.401934
3.603287
3.640932
0.752772
0.634400
-5.208509
-4.267241
2.083019
-0.172064
-0.956255
0.968636
0.487737
3.164755
-1.648503
-3.464902
-1.385734
-0.461868
-0.822505
5.661016
-3.839400
-2.891786
-0.829388
3.521885
2.949562
0.573739
-5.785298
4.195404
-4.157051
-1.709013
-0.261029
0.263959
-1.220018
1.351597
-0.062960
-0.059937
2.219606
-3.185065
1.707253
-3.108290
-3.733236
-1.440680
-2.256296
0.755090
1.547104
0.061683
-5.410255
-0.178299
-2.646787
-0.576173
-1.151785
0.063701
0.794886
4.689070
1.550609
0.084480
1.285735
-0.765285
-1.647399
1.464392
1.851685
-3.436312
-1.486812
-1.078681
2.531008
-1.017453
-3.942107
-2.242787
-0.689441
0.394081
-1.379642
-2.555699
3.142246
0.204091
3.327699
0.528669
0.408888
6.110301
-0.312286
-0.728409
-0.535339
-1.233872
1.144695
-0.313684
3.054311
0.136168
-2.598987
1.239440
-0.034832
2.217164
-0.574496
-0.875590
-1.430695
-1.765593
-0.393209
5.824459
2.075352
2.566136
0.208653
-0.816462
3.228284
0.628626
2.658775
2.523880
-0.127982
-4.054994
0.230296
2.418387
3.887190
-1.748942
-0.621864
2.411088
-1.732158
1.782152
-2.809666
-0.075402
1.403887
4.129660
1.088836
-2.736769
-0.129590
-0.288267
-2.991843
-1.498311
0.593550
2.045574
-3.282619
0.123435
1.487215
-0.218703
-4.368039
0.567953
2.181811
0.968249
0.041269
1.850692
-1.988816
-1.167872
-0.835103
-2.276308
1.929410
2.015445
-0.556176
-3.063761
2.582744
4.637732
2.124262
0.126949
-3.439632
3.328977
0.702829
-0.547672
0.614445
0.869593
-2.207108
-1.796878
-1.499158
0.220823
2.964692
-2.213198
1.250457
-0.569727
3.165815
1.312305
-0.458289
0.626244
-0.274358
-2.563159
1.510026
0.515965
-3.603161
-2.020072
0.092540
0.150324
1.179138
-0.472820
1.405584
3.020518
0.195887
1.455361
-2.311511
-0.379897
-0.107923
1.547590
1.256581
-1.727185
1.129932
0.834502
-0.187660
1.140306
0.116966
1.949316
-2.053372
0.911647
-2.400735
-1.412757
-2.602710
-2.322407
-2.478536
-1.176099
-2.103809
-0.685739
-0.945023
1.191917
-0.835810
2.847700
2.435991
0.285462
-0.294651
1.285878
-1.169255
-0.245900
0.516821
0.963008
1.552256
-2.288385
0.653044
1.574154
0.720356
1.108662
-1.217373
-3.294082
-1.752147
-1.329757
1.421168
1.716894
0.875514
1.423047
1.073838
-1.807574
0.077955
3.025851
-0.936714
1.103344
1.823109
-0.042862
-0.451223
-1.248153
3.264976
-3.520053
1.431910
0.964949
-1.142256
-0.284551
-1.379898
-2.802059
-4.282752
1.501614
0.939379
1.277858
2.402965
0.136344
2.176658
-1.226504
2.123075
-0.716801
-3.027843
0.847751
-0.483018
-1.695430
-0.965164
-2.421551
1.071418
-0.020577
-2.522796
0.370101
-1.080258
-0.457045
0.535309
2.004334
-4.020374
-1.180158
1.541657
1.127822
-1.842909
-2.289344
-0.504734
-0.403624
-1.118010
-1.370384
-0.477999
2.118315
-1.888961
0.992348
2.091349
0.963808
-0.658202
1.890685
2.138466
-1.550300
0.996738
1.244033
-1.357106
2.189826
1.437912
-1.611518
-1.364560
1.594916
0.962288
-2.116363
-2.355233
-0.502971
2.757298
-1.095597
0.639506
0.951675
-3.734844
0.002453
1.596373
3.257668
-0.521633
-0.374299
3.008279
-2.024686
-0.336787
2.715257
1.284596
2.610052
2.028685
0.542336
4.267844
-1.295567
-2.537120
0.718515
-0.729670
0.307242
3.442278
2.664830
0.354542
2.881258
4.678402
2.483740
-0.601397
1.246553
1.769702
-0.899522
-3.568253
-0.505174
-1.087935
-1.405437
-1.807218
-2.714248
3.235798
3.079660
2.097948
1.882783
-3.078464
0.132729
-0.192319
-0.183977
-1.648109
-0.621626
-0.057686
-0.992033
0.729001
1.087961
-1.707137
1.337519
-2.423707
0.457059
-1.474192
-1.284100
-0.268387
0.208238
-0.928895
-4.059554
4.838143
-0.187831
0.741055
-0.550909
1.257818
1.024917
0.941472
0.237478
-3.212906
1.399745
0.349980
-1.950344
3.855024
1.131414
1.519725
0.882355
-3.050743
1.475550
-0.940760
-1.673109
0.884308
-0.755788
-0.056723
3.751655
1.226528
0.199679
1.190748
0.455423
-1.916633
1.147104
-0.073103
-1.320507
0.375564
-0.771317
-0.261454
0.459507
0.428048
1.342547
2.253500
0.487556
-1.795304
-1.829660
-3.178236
-0.041998
-3.135688
1.648575
-0.012000
1.165497
-1.779036
0.170566
-2.233179
0.304554
0.628066
-0.841651
-2.866388
-1.244509
0.531052
0.033173
-0.648800
0.125498
-1.495913
-0.071865
-2.369491
-1.319795
3.951162
1.484226
-0.321398
-0.406174
-0.671218
-0.006464
1.014016
-1.782246
-1.738396
0.471200
2.231444
-0.915016
1.764933
2.331803
0.073654
0.801104
-0.368672
-2.008898
-0.045477
-2.363263
-1.375175
-0.012378
-0.829170
-0.349218
-1.585875
-1.456045
0.145007
0.034932
-0.483067
1.683887
-1.467540
-1.940977
3.022164
2.729258
0.402946
1.657441
0.367691
0.399170
-0.926808
-1.796181
-2.059612
-1.448248
-0.532871
-1.292499
0.997409
-3.359177
-0.136111
3.353922
0.536724
-1.024935
