-0.235459
0.529728
0.077857
0.201512
0.454187
-0.108014
-0.409709
0.182833
-0.244179
-0.219217
-0.299047
-0.016986
0.024203
0.419778
-0.051359
0.302527
-0.326376
0.317377
-0.333419
-0.104883
-0.016788
-0.050430
-0.326337
-0.284688
-0.171043
0.251544
0.273946
0.121234
-0.046044
-0.234596
-0.088163
0.046504
-0.061010
0.244242
0.841922
-0.142676
-0.014775
0.206741
-0.081485
-0.028344
-0.084763
-0.251628
0.274105
-0.213639
0.608827
-0.401312
0.097822
0.165634
-0.030463
-0.509753
0.409066
0.000576
0.116689
-0.422977
-0.020750
0.059075
0.041964
-0.133664
-0.027697
0.224314
-0.339241
-0.195115
0.565788
-0.495723
-0.474701
-0.434819
0.343231
0.322959
0.188221
-0.258423
0.083612
0.252565
-0.118320
-0.264034
0.283340
0.025754
0.165032
0.071208
-0.035245
-0.490970
-0.126604
0.446624
0.441055
0.596185
-0.216994
0.512698
-0.391794
0.392475
0.122450
0.245850
-0.108629
-0.695673
0.229547
-0.093182
-0.591738
-0.317636
0.037404
-0.394802
-0.487470
0.381238
-0.163585
-0.322677
0.047899
0.062186
0.509495
0.233253
0.444036
-0.344837
-0.093567
-0.423620
-0.180880
-0.196011
0.085106
-0.225802
-0.297921
-0.094405
0.247723
-0.108718
0.156757
0.181077
-0.709394
0.559679
-0.424484
-0.137655
-0.023210
-0.287121
0.118174
-0.189992
-0.157375
-0.415960
-0.781221
0.475584
0.123491
0.340667
-0.338988
-0.385511
-0.520888
0.458800
-0.160054
0.418076
0.217611
-0.582803
-0.117783
0.157522
0.012993
0.134514
-0.358189
0.358159
-0.231327
0.287990
-0.060006
-0.241964
0.330701
-0.166328
0.014334
0.519453
-0.294535
-0.304918
-0.179187
-0.353634
0.221064
0.142185
0.462298
0.029056
0.155757
-0.391918
0.434311
0.289065
0.189966
0.153419
-0.045187
0.050875
-0.479139
-0.443783
0.283810
-0.210595
0.112810
-0.139473
-0.411221
0.324696
0.531003
-0.446035
-0.382817
-0.359359
0.211613
-0.222249
-0.108719
0.465883
0.088534
-0.410347
0.476240
-0.430507
-0.184105
-0.151830
-0.178517
-0.393708
0.412310
-0.354948
-0.111218
-0.438349
0.577272
-0.000545
0.251054
0.170744
-0.351250
-0.437377
0.382342
-0.500865
-0.528329
-0.105603
0.261767
-0.120504
0.428825
-0.676664
0.419581
0.179134
0.118566
-0.335054
-0.247431
-0.620990
-0.070581
-0.635059
0.117907
0.156308
0.260500
0.053061
-0.495044
0.090569
0.096045
-0.211922
-0.115750
-0.056435
0.285687
0.353657
0.557366
0.118007
-0.294038
-0.019828
-0.609493
0.616137
-0.295612
0.104156
-0.534941
-0.008834
-0.300554
0.116191
-0.463334
-0.338081
-0.395316
0.225518
0.408178
-0.368130
-0.068343
0.239889
0.291567
-0.154880
0.516139
0.510245
-0.420389
-0.410549
0.432587
0.045751
-0.292826
0.169299
0.066344
-0.379560
-0.609617
0.473024
0.176136
0.715361
-0.400941
-0.332997
0.037518
-0.320410
0.392828
-0.589342
0.098811
-0.069631
-0.044413
-0.293940
-0.214521
0.006516
0.071796
-0.040071
0.075136
0.157403
-0.153883
-0.103521
-0.209158
0.416995
-0.315011
-0.339689
0.326198
-0.383414
0.201130
0.287642
-0.264994
-0.459921
0.139435
0.418308
-0.538583
0.103037
-0.510767
-0.478042
-0.264033
0.551203
-0.136137
0.432907
-0.497243
0.472368
-0.021589
-0.351398
0.126860
-0.236251
0.155289
-0.533895
0.572561
-0.168621
-0.040899
-0.431058
-0.227938
0.315682
0.556358
0.423486
-0.038813
0.121938
-0.301010
-0.549592
-0.147456
-0.312391
0.327778
-0.450310
0.070973
0.019874
-0.089135
0.261716
-0.326234
-0.082174
-0.266195
-0.029089
-0.401445
0.454203
-0.493067
0.079943
-0.159745
-0.034603
-0.165630
-0.126123
-0.437912
0.413885
0.221456
-0.105731
0.403375
-0.429259
-0.200268
-0.411227
-0.034629
0.145093
-0.359997
-0.470475
0.160596
0.860258
-0.115628
-0.343899
0.289884
-0.043529
-0.737910
-0.106044
-0.136851
-0.270576
0.228850
0.255271
0.279004
-0.352559
-0.256682
-0.019740
0.366042
0.467698
0.259279
0.256734
-0.171598
-0.109238
-0.315287
0.754788
0.187852
-0.139752
-0.416520
0.296428
0.400125
-0.088120
0.410086
0.046267
0.340595
-0.052791
0.454485
-0.436848
0.023397
0.329847
0.082288
-0.299706
-0.155454
-0.188545
-0.153600
0.220659
-0.061437
0.536493
0.223352
-0.182568
0.122518
0.415930
0.102008
0.118963
-0.507888
0.549446
-0.042274
-0.164560
0.239787
-0.185218
-0.295321
-0.132279
0.462182
0.141912
0.272331
0.571868
-0.060571
0.352587
-0.198628
0.253328
0.254679
0.364856
0.063691
0.269725
-0.186267
-0.362416
0.111936
-0.364206
-0.234231
0.522999
0.068527
0.421648
0.212598
0.419522
-0.040744
-0.410098
0.482121
-0.005248
-0.284176
-0.149290
0.062234
-0.292716
-0.216136
0.195263
-0.005306
0.519402
0.319465
0.027426
0.017266
0.167045
-0.106209
0.442000
-0.383532
-0.406866
-0.339923
-0.316387
0.310240
-0.058980
-0.165972
-0.116375
0.537097
-0.105175
-0.260679
-0.085939
0.189875
-0.299957
0.310236
0.398665
0.374847
0.326055
-0.263032
-0.604503
-0.063773
-0.122645
-0.148255
-0.011684
0.445281
-0.738352
0.222552
-0.307262
-0.404792
-0.396312
-0.222878
0.462304
0.114256
0.084404
0.025062
0.012117
-0.266849
-0.105471
-0.374754
-0.206352
-0.344352
0.333569
0.072855
-0.268992
-0.098538
0.325615
-0.106434
-0.165097
-0.309014
-0.278238
-0.362002
0.202864
-0.462962
-0.624001
-0.430927
-0.238512
-0.459052
-0.350234
0.263483
0.227357
0.339543
0.197123
-0.606072
0.145820
-0.345072
-0.007117
-0.519884
0.331523
-0.590087
0.226954
0.018812
-0.203470
0.147202
0.212597
0.212015
-0.075320
-0.025394
0.263375
0.371217
0.033369
0.390662
-0.479779
-0.198710
-0.269757
-0.038645
-0.077789
-0.389813
0.156588
0.400490
0.528144
-0.553024
-0.401590
-0.523306
0.291761
0.162613
0.431459
-0.287287
0.108770
0.519214
-0.366338
0.528966
0.356602
-0.082446
-0.071326
-0.568891
0.285903
0.301296
-0.303134
0.279699
-0.119559
0.000936
-0.106845
0.281029
0.291471
-0.340172
0.296129
0.095397
-0.219160
0.190997
-0.055967
0.379385
-0.484885
-0.414409
0.586511
0.092425
-0.227970
-0.134088
0.546201
0.230575
-0.089994
-0.116069
-0.095559
0.075814
0.246755
-0.022927
-0.003097
0.077139
-0.482292
0.078909
-0.399067
0.034815
-0.514699
0.523290
0.112961
0.112267
-0.063604
-0.220396
-0.301318
0.128062
0.459627
0.804785
-0.148180
0.238409
-0.340291
0.280149
0.516367
-0.163845
0.142206
-0.071851
0.065820
-0.050475
0.126280
-0.007968
-0.337467
-0.031132
-0.080618
-0.463087
-0.446610
0.408999
-0.235635
-0.404524
0.007439
0.192893
-0.161281
-0.247001
0.301655
-0.631101
0.538508
0.031076
-0.083569
-0.595868
-0.218112
0.468526
0.467366
0.185510
-0.125561
0.514890
0.288005
0.456102
0.329393
0.184369
-0.441662
-0.007846
-0.207901
-0.314163
0.579855
0.150573
-0.185448
-0.211035
-0.062144
-0.404029
-0.377309
-0.284042
-0.265645
0.228602
0.087161
0.431727
0.047560
-0.127738
0.297613
0.250363
0.252660
-0.276534
-0.532697
0.405551
0.407860
0.649264
0.093586
0.051384
-0.345872
0.156183
-0.264154
-0.126942
0.099735
0.024163
-0.174791
0.332872
0.438021
-0.144247
-0.007635
0.019641
0.095087
0.061230
0.128441
0.505232
-0.141349
-0.221831
-0.078146
0.315372
-0.047872
0.549453
-0.029558
0.212143
0.511944
0.929646
0.099108
-0.158513
-0.392057
-0.323882
-0.336178
0.407565
-0.088982
0.235888
-0.204359
-0.701047
-0.280700
0.290544
-0.014815
0.076375
-0.457476
0.122944
-0.228929
0.149997
0.450333
-0.527047
-0.402606
0.361334
-0.497207
-0.026266
0.019163
0.284756
0.489871
0.331226
-0.546152
0.099782
0.344422
-0.223976
-0.008015
0.091877
-0.263915
-0.191188
-0.231729
-0.156665
0.566891
0.211082
0.578024
-0.166985
-0.092759
-0.539831
0.191549
-0.115769
-0.301520
-0.044550
0.417189
-0.271247
-0.694246
0.191418
0.035732
-0.003678
-0.196023
-0.350789
0.526107
-0.158586
-0.398102
-0.228359
-0.219600
-0.103161
0.410693
-0.412386
0.083489
-0.343690
-0.767986
-0.455343
-0.232520
-0.142591
-0.654837
-0.377715
-0.457488
-0.212657
-0.255199
0.094617
0.031787
0.829438
0.393318
-0.526640
-0.346793
-0.358274
0.261737
-0.009454
-0.278025
-0.162847
-0.452950
0.005849
0.554817
-0.152324
-0.544397
0.229201
-0.351264
0.252846
-0.492864
0.023228
-0.269122
0.275445
0.355257
-0.303044
0.127320
-0.566823
0.261833
-0.099147
-0.299208
0.023406
0.215214
0.156994
-0.012482
-0.592009
0.243335
