0.435152
-0.209448
-0.049595
-0.629785
-0.352167
-0.570593
-0.015129
0.268153
0.397832
0.343742
0.265425
0.170662
-0.050692
-0.213791
0.589106
0.489706
-0.427712
0.004760
0.258042
-0.543071
0.114365
0.051739
-0.181187
-0.407731
-0.618948
-0.331488
0.574314
-0.253732
-0.440505
0.601864
0.493162
-0.389063
0.446282
-0.016846
0.185137
-0.147942
-0.112847
0.351269
0.050313
-0.196752
-0.457113
0.592609
0.049205
-0.197165
-0.660248
-0.197421
0.066029
-0.107943
0.546928
0.372487
0.318608
0.132144
0.031489
0.095405
0.208091
0.139094
-0.266771
-0.147122
0.225752
-0.314507
0.049669
-0.277726
0.089345
-0.385523
-0.554391
0.375562
0.403103
-0.506507
-0.146896
-0.228044
-0.159339
-0.470811
0.491526
-0.364667
0.620889
-0.382690
0.026388
-0.294206
0.362601
-0.173178
-0.027092
0.283263
-0.280913
-0.354052
0.346096
0.038857
0.032555
-0.623135
0.130456
0.049852
-0.079050
0.342680
0.445695
0.422112
0.289795
0.554938
-0.178976
-0.732638
-0.535229
0.367349
0.464182
0.597433
0.063196
-0.311026
0.400037
-0.085659
-0.072780
-0.371779
0.413397
0.088321
-0.129038
-0.341644
-0.531391
-0.306615
0.159215
0.021541
0.329059
0.450795
-0.152113
-0.285504
-0.035736
0.579992
0.043204
0.095711
0.354170
-0.319307
-0.250702
-0.294710
-0.018785
0.523281
-0.127677
-0.237208
-0.240081
0.052578
0.064609
-0.733264
-0.637694
-0.683230
0.137278
0.196524
0.604773
-0.068986
0.067871
0.102353
-0.367899
-0.348083
0.179530
0.174611
0.297382
0.326167
0.268844
-0.379005
0.131427
0.655542
0.413273
0.758748
-0.097076
0.022739
-0.031254
-0.206681
0.256807
-0.044820
0.789243
0.336493
0.136373
-0.182136
-0.460284
-0.409195
-0.203137
-0.498794
0.170639
0.269332
-0.547872
-0.090463
0.454855
-0.185147
0.145014
0.245778
0.262560
0.069828
0.038353
-0.156251
-0.378597
-0.282732
0.177506
0.241926
0.173415
0.109282
-0.180322
0.175086
-0.382360
-0.670360
-0.185036
-0.238720
0.580893
-0.513783
-0.405582
0.005656
0.094591
0.484808
0.455732
-0.567061
0.205355
0.484330
-0.233828
-0.169247
0.020994
-0.063355
-0.052050
-0.262042
0.553772
0.421830
0.256248
0.016010
0.591244
0.342297
0.234344
-0.467897
-0.127971
-0.071555
-0.177079
-0.057834
0.613068
-0.800224
0.013767
-0.529649
0.060846
-0.149408
0.258468
-0.211922
0.148063
0.470594
0.331132
-0.621118
-0.091739
0.383980
-0.137218
0.017188
0.460290
-0.261283
0.021771
-0.358860
-0.600555
0.098366
-0.525203
-0.190532
-0.633612
-0.221730
0.593957
-0.003818
0.211594
-0.167408
0.348125
0.326535
0.367886
-0.090650
0.276395
-0.080852
0.450602
0.316154
-0.039829
-0.603974
-0.022336
-0.346162
-0.013329
0.054584
-0.166421
0.548964
-0.252609
0.667139
-0.379837
-0.235163
-0.444546
0.435111
-0.356896
-0.116055
0.001002
0.433512
-0.520400
0.265259
0.358544
0.078504
0.309397
0.142809
-0.035941
-0.346564
-0.213484
0.337467
-0.408221
-0.309367
-0.024691
-0.487140
0.405433
-0.205316
-0.477907
0.028446
0.093335
-0.009930
-0.273974
-0.023780
-0.244220
-0.133735
0.121555
0.358288
0.065428
-0.083927
0.060847
0.236831
0.128832
-0.260366
0.059914
-0.003382
-0.127424
0.246731
-0.437685
-0.776509
-0.341200
0.129676
0.393269
-0.234860
0.245290
-0.112284
-0.191222
0.106064
-0.479040
-0.139885
-0.212778
-0.195833
-0.060885
-0.004513
0.290335
-0.059809
-0.189402
-0.094674
-0.080778
-0.583498
0.523890
0.038026
0.097231
0.139083
-0.428203
0.705546
-0.047356
0.412505
-0.097990
0.394737
0.519179
-0.123077
0.173666
-0.397239
0.092376
-0.144715
-0.082163
-0.257426
-0.068108
0.113758
-0.416120
0.032173
0.374271
-0.094960
-0.128396
0.290302
0.296950
-0.251963
0.204661
-0.102922
0.034246
-0.390087
-0.088730
-0.264263
0.116677
-0.019116
0.242937
0.408373
0.050606
-0.274941
0.403354
-0.346641
-0.399665
0.475941
0.378029
0.079482
-0.067848
-0.283496
-0.382223
-0.158406
-0.098688
0.296428
0.185171
0.434587
-0.009781
0.020426
0.378446
-0.537017
0.583665
-0.476761
-0.100558
0.116744
0.109053
-0.023550
-0.242534
-0.065055
0.319886
0.165349
0.406637
-0.178060
0.108180
-0.008208
-0.036895
-0.420654
-0.161569
0.481031
0.513180
0.375137
-0.471598
0.667589
-0.082915
0.030866
-0.690117
-0.218113
0.401032
0.398407
-0.147229
-0.317686
0.567601
0.089049
0.415629
-0.578547
-0.418983
0.178456
0.257226
0.247037
-0.385566
-0.298626
0.147955
-0.073280
-0.110150
0.532259
0.082222
-0.388582
-0.136313
0.424511
-0.287182
-0.308370
-0.065537
-0.301754
0.269509
0.054653
-0.304841
-0.310767
-0.199525
-0.200868
-0.323073
-0.456746
-0.358965
-0.292453
0.321540
-0.377395
0.644996
-0.126495
0.196747
0.440198
0.178406
-0.273049
-0.339509
0.495566
-0.249292
-0.585725
-0.140687
0.004391
0.018306
-0.198773
-0.026129
-0.205965
-0.393717
-0.058533
-0.089595
-0.461377
-0.669096
-0.313179
0.147274
0.151889
-0.347133
-0.048551
0.282120
-0.309208
-0.116387
-0.285725
0.153162
0.309584
0.137966
0.135103
-0.047577
-0.026874
0.152403
0.110121
-0.516965
-0.194679
0.402489
-0.405866
-0.453828
0.235610
0.333000
-0.328034
0.359982
-0.744034
-0.869722
0.024330
0.578690
-0.051645
0.191794
-0.120770
-0.609490
0.070370
-0.088295
-0.042135
0.242230
-0.643784
0.168609
0.375103
-0.107833
0.232354
0.396764
-0.501679
0.289763
0.263263
0.271247
0.346062
0.203127
0.176323
0.216101
0.303458
-0.429826
0.427134
-0.020935
-0.699648
0.330113
-0.215466
-0.041049
0.034100
-0.090775
0.308153
-0.381602
0.239463
0.042750
-0.050854
-0.205865
0.236377
-0.216525
-0.398073
0.511450
-0.660929
0.060336
-0.041216
0.387767
-0.367093
0.346737
-0.255664
-0.337899
-0.120408
-0.256452
-0.157070
0.494977
-0.587268
-0.039569
0.221342
-0.641604
0.007533
-0.283740
-0.458965
-0.061891
0.331540
-0.101424
0.033431
0.218296
-0.199807
-0.588042
0.143477
-0.229265
0.267602
0.087114
0.497140
-0.018235
-0.094536
-0.424889
-0.234038
0.846102
0.991001
-0.341643
0.554287
-0.227667
-0.080291
0.232254
-0.122350
-0.511623
-0.778152
0.339995
0.260956
0.355070
0.242267
-0.307868
0.458946
-0.373929
0.312400
0.202841
0.402522
0.291342
-0.211073
0.076704
0.440935
0.109161
0.381353
-0.179727
0.099843
0.097908
-0.294932
0.091681
0.323656
0.014738
0.338283
0.343874
0.404243
-0.220407
0.051878
0.136371
-0.232444
0.475762
-0.635526
0.447072
0.139182
-0.046393
0.063907
0.005116
-0.339506
-0.400745
0.609548
-0.616985
0.088873
0.362937
-0.252326
-0.609847
-0.145026
0.495583
0.472386
-0.578843
0.646332
0.046686
-0.070738
0.186007
-0.024670
0.178628
0.319135
-0.310102
-0.534457
-0.264197
0.513671
0.107036
0.102140
-0.313078
0.052693
-0.526374
-0.762573
0.064937
-0.244947
0.235390
-0.461062
-0.314073
0.063696
-0.090699
-0.249029
0.083150
-0.519885
0.068186
0.444307
0.001113
-0.065508
-0.068037
-0.329051
-0.036563
0.105924
0.012027
-0.009701
0.052101
-0.583623
-0.051606
-0.376274
0.169039
0.361879
0.058865
0.034517
-0.096898
0.429871
-0.423392
-0.120701
-0.206461
-0.253521
0.057329
-0.098714
-0.456832
0.308920
0.680849
-0.281927
-0.258825
0.255420
0.574622
-0.067065
0.333833
-0.088479
0.019935
-0.522544
-0.018702
0.100482
-0.154108
-0.196144
-0.073536
0.172201
-0.473383
0.051040
-0.235708
0.272779
-0.323145
0.092115
0.410365
0.246245
-0.552272
0.362113
-0.079621
-0.199950
-0.211547
0.195405
0.219899
-0.095900
-0.227663
-0.089054
-0.053431
-0.332634
-0.567338
0.338636
0.211548
0.497890
-0.372968
-0.286031
0.360581
-0.479971
-0.572184
0.552265
-0.027626
0.148274
0.552834
-0.426350
0.158927
0.268363
0.132713
0.398004
-0.057606
-0.318837
0.274878
-0.340580
0.116833
-0.236229
-0.200231
-0.019288
0.222691
-0.576662
0.381453
-0.160941
0.484694
0.183990
-0.122539
0.258157
0.433791
-0.214032
0.198798
0.469456
-0.158397
-0.368914
-0.267845
-0.488319
-0.092235
0.483104
0.405108
0.392386
0.411072
-0.178114
-0.248919
-0.084002
-0.238113
0.284799
-0.257485
0.215792
0.054241
-0.022493
-0.038047
0.332195
-0.228789
0.455397
-0.364196
0.434482
-0.103060
-0.434646
-0.609784
0.175906
-0.412007
0.135481
0.306803
-0.295250
-0.080489
-0.047862
-0.755158
-0.408499
0.339377
0.027148
0.328156
0.114882
-0.098775
0.438692
