0.464662
0.185244
-0.246933
0.119223
-0.392475
-0.123388
0.400118
0.495780
0.512907
-0.049502
0.134889
-0.278775
0.783660
-0.552543
0.076754
0.204931
-0.207509
-0.357328
0.208414
0.191234
0.169771
-0.139076
-0.524756
0.463763
0.108635
0.292460
-0.203587
0.037807
0.138012
-0.315516
0.260003
-0.431369
-0.475061
-0.227925
-0.222034
0.524614
0.730357
-0.241832
-0.506818
0.204320
-0.603502
0.433215
0.226965
0.207729
-0.213990
-0.021407
-0.053629
-0.039149
-0.308694
0.378872
-0.081419
-0.074109
0.075201
0.420988
0.109260
0.211380
0.368049
0.802233
-0.466964
0.496797
0.055422
-0.496686
-0.023007
-0.276802
0.056201
-0.337433
-0.422550
-0.251297
0.452215
-0.485192
0.119546
0.427697
0.125181
-0.480004
0.048256
-0.155863
-0.102942
-0.298672
-0.045780
-0.619728
0.106319
0.058186
-0.486359
-0.386912
-0.361308
0.339123
0.259023
-0.235991
-0.142496
0.496791
-0.200838
0.104385
-0.276430
0.107779
-0.480411
0.022343
0.261825
0.732807
-0.366759
0.381238
0.209897
0.179032
-0.318028
-0.128229
-0.431984
0.668248
0.163481
-0.335170
0.357354
-0.171066
-0.269754
0.275422
0.075595
0.284193
-0.258407
0.419541
-0.207796
0.387155
0.512307
-0.356369
-0.023155
-0.327102
-0.117218
0.142012
-0.346234
-0.121396
-0.178360
-0.355413
0.070325
0.164650
-0.302709
0.304340
-0.035964
-0.534805
0.119006
-0.292596
-0.133298
-0.424297
-0.149249
-0.349601
-0.006656
-0.352007
0.224573
0.104874
0.344359
0.300353
0.069214
-0.069125
-0.018809
-0.358163
-0.256375
0.457168
-0.080468
-0.263217
-0.173608
0.287859
-0.266570
0.300518
0.032673
-0.425630
-0.571435
0.163525
0.764873
0.389601
-0.152330
-0.411336
-0.104185
-0.239252
-0.143264
-0.525038
-0.040464
-0.105019
-0.061155
0.481789
0.307879
-0.637522
0.150473
-0.122249
0.225433
0.224475
-0.225084
0.061173
-0.116266
-0.460673
-0.046647
0.193075
0.688969
-0.105695
0.172140
0.265970
0.168531
0.658575
0.036580
-0.206399
0.360904
-0.297360
-0.255438
0.235372
-0.197994
-0.544925
0.487745
0.042894
-0.655973
-0.464798
-0.419695
0.322664
0.360682
-0.123543
-0.319535
-0.661997
0.432123
-0.071441
0.154753
0.301526
-0.017688
-0.327125
-0.142817
0.240965
0.035978
0.556616
-0.455801
-0.061170
0.144393
-0.466904
-0.464954
0.566787
0.760480
-0.331474
-0.315240
-0.481280
0.231245
0.501240
0.028018
0.247022
-0.419799
-0.312392
-0.088051
-0.594011
0.166846
-0.277217
-0.404013
-0.163630
-0.440910
-0.050809
-0.472267
0.449928
-0.092499
-0.127965
0.040343
0.140868
0.212862
0.301569
-0.543085
0.353168
-0.300059
0.430793
-0.414916
-0.435597
-0.168763
-0.403193
0.118882
-0.601815
-0.302306
-0.193183
0.587000
0.282027
0.338542
0.389729
-0.076832
0.079484
-0.169672
-0.652034
0.477638
0.542383
0.499878
-0.369155
0.127070
0.067289
0.457474
0.049693
0.519316
0.003915
0.539583
0.250659
0.204017
-0.315158
-0.558655
0.390653
0.782788
-0.195870
0.122011
0.384039
0.095095
0.235770
-0.330168
-0.002466
0.579072
-0.468278
-0.401496
0.003558
0.446856
-0.244100
0.429399
-0.367102
-0.341514
-0.139148
0.283986
0.383241
-0.099740
-0.071484
0.124439
-0.147881
-0.219009
-0.269838
0.265950
0.289364
0.002211
-0.463202
-0.122588
0.324145
0.064371
-0.085956
-0.015570
-0.058514
-0.162450
-0.488217
0.256324
-0.366488
0.225547
0.378233
0.288423
-0.336610
-0.425318
0.335297
-0.261708
-0.505869
0.481812
-0.419874
0.276304
0.033383
0.376847
-0.167631
0.331882
-0.233236
-0.504491
0.494269
-0.156571
0.338510
0.169019
0.454624
-0.078924
0.191830
0.392189
0.596819
0.179471
-0.041409
0.160042
-0.436157
0.420188
0.006665
0.433946
0.363715
-0.426038
0.201095
-0.146023
-0.524662
0.370832
0.154874
0.163528
-0.477986
-0.474633
-0.455036
-0.263410
0.447165
-0.373865
-0.213928
0.431112
-0.301204
-0.134950
0.466610
-0.469357
-0.237368
-0.192588
0.370056
-0.499642
-0.217566
-0.105872
0.675804
-0.148521
-0.001948
-0.301929
-0.588270
0.351478
0.251217
-0.439022
-0.236697
-0.214871
0.217412
0.255741
0.419586
-0.371243
0.345245
0.465194
-0.035054
0.188394
0.295837
0.676289
0.132017
0.493198
0.428993
-0.460982
0.138750
-0.254652
0.590748
0.103332
0.224106
-0.294005
-0.340036
0.382109
0.427002
0.529979
-0.111468
-0.278467
-0.555009
-0.070964
0.369258
-0.299986
-0.489321
-0.080107
0.212443
-0.089948
-0.049642
-0.269904
0.103568
-0.462407
-0.064737
0.366874
-0.092605
-0.452749
0.395260
-0.007484
-0.313643
-0.217016
0.657123
-0.291535
-0.159995
-0.100477
-0.371531
0.171614
0.653195
0.195743
0.226481
0.145874
0.141116
-0.466811
0.163819
0.079657
-0.619388
-0.338923
-0.249286
0.464494
-0.598189
-0.087816
-0.350767
-0.245097
-0.527792
-0.319052
-0.164555
-0.277960
-0.257798
0.366471
0.048657
-0.016552
0.098153
-0.256916
-0.246145
-0.065293
0.351995
0.103451
0.143581
-0.149627
-0.252030
0.331576
0.271058
0.087987
-0.490802
0.409020
0.360012
0.070420
0.004633
-0.614492
-0.270954
-0.024732
-0.101353
0.139495
-0.267440
-0.100351
-0.018357
-0.543839
-0.431329
-0.517227
0.357324
-0.087896
-0.360751
0.359982
-0.111134
-0.143762
0.032695
0.224122
-0.368354
0.077604
0.169706
-0.230511
-0.082708
0.384263
-0.257757
-0.420634
0.227412
-0.511240
-0.311757
0.437274
-0.139747
0.396544
0.676105
0.053707
-0.281717
-0.256611
-0.302141
-0.143494
0.358469
0.037744
0.040822
-0.316201
-0.171716
0.100021
0.053260
0.265805
-0.321960
-0.242983
-0.000978
-0.111890
0.196189
0.284807
0.430055
0.085114
-0.041388
-0.190703
-0.088187
-0.573264
-0.124858
0.334589
0.327496
0.342864
-0.226498
-0.368698
-0.263074
0.123569
0.760393
-0.460295
0.197727
-0.473417
0.207030
-0.335372
-0.176547
0.237222
-0.159417
-0.220902
-0.068339
0.600735
0.105206
-0.288055
0.404783
0.498976
-0.488420
-0.416117
0.285696
-0.286407
-0.276683
0.376581
-0.416430
-0.423923
-0.573282
-0.179341
0.150579
-0.443093
-0.132984
-0.331062
-0.512995
-0.096864
0.634943
0.164510
0.375075
-0.352463
0.211663
-0.407549
-0.216351
-0.443131
-0.298047
0.445822
0.215785
-0.176594
0.550497
0.133505
-0.399701
0.070893
-0.135861
-0.582889
0.197932
-0.395877
-0.408293
0.169433
0.284852
0.165127
0.022285
0.046782
-0.490500
-0.088013
-0.321665
0.054539
0.343760
0.304008
-0.303721
0.092524
0.067222
0.234199
0.271230
0.519452
0.462819
-0.475570
-0.425694
0.179124
-0.261918
-0.435714
-0.192615
0.268437
-0.474942
0.381745
-0.181680
0.162327
-0.022157
-0.575449
-0.293735
-0.432311
0.344594
-0.501692
-0.412364
-0.178497
-0.391643
0.213701
0.214310
0.093050
-0.073395
-0.067061
-0.044504
-0.066011
0.433266
0.428978
0.450839
-0.418094
0.435013
0.138298
-0.441931
0.337863
-0.156309
-0.259064
0.276718
0.592828
0.084296
-0.452633
0.661306
-0.596951
-0.159418
0.265458
0.101937
-0.503622
0.042017
0.004192
-0.181924
-0.153516
-0.085466
-0.289141
0.167278
-0.356271
-0.408455
-0.240912
-0.437893
0.280012
0.192091
0.255066
-0.048367
0.290756
-0.045553
-0.315216
0.342911
-0.244517
-0.290190
0.077651
0.002042
0.475211
-0.184248
-0.045932
0.084981
-0.606717
-0.325524
-0.209282
0.085978
0.018572
-0.481410
0.343155
-0.408786
0.535169
-0.388834
0.184317
-0.334915
0.311603
-0.068846
0.269157
0.102824
0.030547
-0.273915
0.643708
0.294024
-0.296820
0.252272
0.327906
-0.193184
-0.329204
0.168713
0.043698
0.556851
0.137130
-0.005438
-0.041096
0.340213
-0.572572
0.414920
0.005504
-0.243442
-0.555634
0.155615
0.012207
0.570372
-0.202648
0.489128
-0.376037
-0.281763
0.078683
0.039797
-0.469153
-0.475579
-0.481426
-0.137625
-0.197805
0.564142
-0.474228
-0.030438
0.273058
-0.271596
-0.233929
0.223180
-0.177366
-0.044965
0.356881
-0.034380
-0.283277
0.463012
-0.239406
-0.019230
0.267074
-0.403640
-0.397545
-0.000439
-0.389509
0.155402
0.488375
-0.720846
0.557592
-0.457488
-0.453185
0.155037
-0.105981
0.449374
0.020277
-0.683375
-0.540699
-0.202711
0.222641
-0.358979
-0.389960
0.382419
0.322653
-0.491710
-0.270714
0.609390
-0.171937
0.034162
0.318697
0.011066
-0.123476
0.375008
0.123499
0.172505
0.112982
-0.702644
0.153551
-0.301448
0.524302
0.295554
0.619718
-0.392610
0.643608
0.039589
-0.073132
-0.166717
0.289454
0.189283
