0.028885
0.533530
-0.010135
0.002430
-0.332989
-0.652786
-0.053501
-0.081492
-0.005737
0.329685
-0.042050
0.220140
-0.474833
-0.039949
-0.121517
0.274891
-0.002335
0.205405
-0.084535
-0.718933
0.240761
-0.284750
0.301957
-0.381452
0.060092
-0.375029
-0.085121
-0.479096
-0.049523
-0.144369
0.336983
-0.213835
0.172778
0.078102
-0.423061
0.160255
0.351216
-0.183835
-0.549076
-0.649128
-0.479970
0.229704
-0.179151
0.159869
0.213195
0.350444
0.044956
0.144553
0.337116
0.017566
-0.334794
0.030020
0.154156
-0.231963
0.354225
-0.267183
-0.183755
-0.076747
0.205353
0.489022
-0.296062
0.058464
0.046413
-0.174661
-0.019371
-0.306602
-0.566114
0.055614
0.257826
-0.248198
0.238975
-0.385406
-0.366914
0.130748
0.447605
0.235628
-0.312755
0.478057
0.013717
-0.281859
0.026586
0.175659
0.073417
-0.067142
0.111173
-0.055389
-0.496174
0.580564
-0.130386
-0.387449
-0.353031
-0.472368
-0.635414
-0.020774
0.119220
0.090369
-0.131039
-0.675157
0.693604
-0.667045
0.465704
0.465568
0.198727
-0.330826
0.204133
0.053370
0.247257
-0.464229
-0.052457
-0.215304
-0.126958
0.409572
-0.359199
-0.077924
-0.285088
-0.146572
0.059493
-0.260499
0.071544
0.621374
-0.512766
0.050567
-0.039526
-0.526469
-0.518209
0.577881
-0.139764
0.169148
-0.076428
0.274051
-0.046667
0.374155
0.240418
-0.069471
0.445242
-0.445655
-0.459602
-0.488967
0.383110
0.030945
0.341255
-0.375471
-0.229317
-0.181834
-0.011518
0.231163
0.097383
-0.092155
0.538097
0.315581
-0.391501
-0.518397
0.219340
-0.177012
0.146106
0.412529
-0.355715
0.225202
0.295120
-0.359495
-0.452292
0.367827
-0.220833
0.450226
-0.132652
0.181468
0.135077
-0.482565
0.102055
-0.179508
0.484085
0.265674
0.192546
-0.067356
0.307126
0.440197
0.019134
-0.748154
0.147156
0.234490
-0.058645
0.358929
-0.024161
-0.543941
-0.499001
-0.138364
0.450894
0.199307
0.521719
0.121846
-0.026402
-0.211216
-0.171835
0.540593
-0.092463
0.200431
0.233009
-0.042189
-0.052849
-0.461908
0.165781
0.047109
-0.373930
0.093917
-0.362410
0.284474
0.175703
0.591625
-0.474832
0.448037
0.415922
-0.005713
-0.243119
-0.198278
0.081509
-0.269081
-0.203503
-0.249027
0.424244
-0.531784
-0.217626
-0.162477
0.448867
-0.456282
-0.047524
0.239436
-0.259941
-0.329795
-0.219882
0.089729
-0.049080
-0.091915
-0.928671
-0.029353
-0.299860
-0.379392
-0.065297
-0.345986
0.040399
-0.118067
0.376384
-0.130492
0.110499
0.398741
-0.303717
0.372055
0.115039
0.195219
-0.142547
-0.170798
-0.180944
-0.115422
0.280496
0.154869
0.462849
0.246755
-0.362924
0.303423
-0.476346
-0.626366
-0.243791
0.081225
-0.507975
0.551507
-0.283665
0.057989
-0.453408
0.406913
-0.132054
0.369314
0.249771
0.409862
0.317395
-0.193302
-0.339063
0.120796
0.073365
-0.221437
0.313980
-0.057339
-0.258320
-0.526156
0.408757
-0.259474
0.290623
-0.154306
-0.306384
-0.132011
-0.361690
-0.412446
-0.223123
0.356865
-0.310124
0.345718
-0.353976
-0.237527
-0.087906
0.067112
-0.152037
-0.013034
0.291441
0.352765
-0.333367
-0.342742
0.071215
-0.264103
-0.314781
0.653985
0.075350
-0.013632
-0.206685
0.615461
-0.523329
-0.183275
0.137673
-0.442440
0.442442
0.053351
0.464282
0.139977
0.331223
-0.033768
-0.318457
0.088472
-0.434690
-0.296332
0.784404
-0.040690
0.205748
-0.201158
0.393881
-0.068294
-0.018516
-0.373618
0.053331
-0.068116
-0.348189
0.279544
-0.159764
0.024236
0.005848
-0.437817
0.205049
0.182102
0.362885
-0.482588
-0.127189
0.326630
-0.394277
-0.319211
0.031844
0.799682
0.481020
-0.150054
0.259478
0.146933
0.284230
0.314194
-0.168002
-0.554640
0.553769
0.368957
-0.289719
-0.138629
-0.533320
-0.402429
0.342375
0.196473
-0.061547
-0.269093
-0.025120
0.284962
-0.607549
0.117456
0.112418
-0.318709
-0.525395
0.167218
-0.013144
-0.185732
-0.190719
0.092953
-0.027111
0.552921
-0.023742
0.243746
0.028384
-0.216417
0.056825
-0.065876
0.499297
0.005971
0.366793
0.113424
-0.146569
-0.077091
-0.418274
0.488755
0.257840
0.084322
-0.499010
-0.365058
-0.195021
0.295413
-0.503335
0.165814
0.191870
-0.124507
0.044121
0.044170
-0.003097
0.187948
0.608894
0.689027
-0.398235
-0.341842
-0.078538
-0.219789
-0.346446
0.048519
0.551093
0.004010
0.184809
0.122595
-0.302273
0.462267
0.367271
-0.080414
0.003188
0.249848
0.053894
-0.111965
-0.275167
-0.416646
-0.103480
-0.258797
0.017672
0.833119
0.210705
0.053319
0.055774
0.552733
-0.647687
-0.385140
0.492534
-0.392517
0.225365
0.030639
0.351725
-0.934412
-0.167995
0.260663
0.014568
0.184246
-0.726085
0.296357
0.154117
-0.568619
-0.161172
0.252447
0.125844
-0.036612
0.359396
-0.031051
-0.241597
0.142650
-0.170754
-0.483506
0.304251
-0.363193
0.294966
0.036650
-0.270453
-0.063790
-0.096889
0.375120
0.047187
0.300013
0.594989
0.276107
-0.443622
-0.417789
0.012003
0.422749
0.059141
0.024982
0.360822
0.109609
0.188034
-0.510615
0.143990
-0.190398
-0.008672
-0.280171
0.234089
-0.534665
-0.403155
-0.203226
0.197108
0.531357
0.163997
-0.341365
0.143649
-0.224887
0.739859
-0.239085
-0.283506
-0.384527
0.089412
0.441828
0.052509
0.126218
-0.450978
-0.485726
-0.337078
0.550259
0.214220
-0.283486
0.004715
0.326063
0.191210
-0.137911
-0.417615
-0.287739
-0.410349
0.747971
0.134396
0.188216
0.248868
-0.397754
-0.518654
-0.204909
-0.131655
0.091320
-0.154794
0.293583
0.229351
-0.338341
-0.078612
-0.041914
-0.312509
0.102292
0.012972
-0.405879
0.312727
-0.535071
-0.120213
-0.214378
0.466549
-0.233001
-0.072860
0.349978
0.198641
0.462537
-0.087989
-0.223336
0.310731
-0.185710
0.307955
-0.432757
-0.731876
0.384978
0.079857
0.337967
-0.495364
-0.197589
-0.427024
-0.130235
-0.171398
0.109800
0.029671
0.350466
-0.173472
0.180567
-0.059076
-0.127463
0.114615
-0.333197
0.500214
-0.324232
0.523020
-0.031705
-0.631457
0.207471
-0.009780
-0.344094
0.209119
-0.227837
-0.382331
-0.192960
0.112901
0.152381
0.373312
-0.487171
0.217524
-0.093044
-0.154618
0.154960
0.208849
-0.393123
-0.300841
0.074514
-0.276462
-0.503777
-0.798283
0.157769
0.448257
-0.058612
-0.230676
0.168284
0.187493
0.238321
0.193616
0.223615
0.186146
-0.291447
0.591091
-0.468915
0.113682
0.347753
0.030949
0.272714
-0.007968
0.002032
-0.502824
-0.329941
-0.329306
-0.501722
-0.104619
0.012342
-0.178727
-0.401540
0.039479
0.502211
-0.584230
-0.315814
0.494815
0.028209
0.108443
0.474127
-0.642528
-0.341640
0.085445
0.244859
0.020373
0.489048
0.006415
0.020492
-0.434666
-0.097796
0.289648
-0.324315
-0.210496
0.050316
-0.066011
0.684712
0.219508
0.220670
-0.362104
0.598071
-0.304651
-0.280426
0.046701
0.620058
-0.330233
0.086221
0.739252
-0.293759
0.062358
0.612027
-0.103518
-0.403973
0.034988
-0.309382
0.469202
0.076074
0.114705
-0.179357
0.049350
0.342637
-0.126974
-0.255462
-0.398128
-0.346823
0.408191
-0.331254
-0.306252
-0.180750
-0.310009
-0.099242
-0.094044
-0.215149
0.165865
-0.389798
0.307613
0.017500
-0.440632
-0.274392
0.190361
-0.152595
0.318594
-0.726083
0.291661
-0.001446
0.350604
0.319410
0.250619
0.247041
0.321951
0.265809
-0.254997
-0.335613
0.213098
0.504444
-0.668085
0.179902
0.343520
0.158886
0.208537
0.432522
-0.449569
-0.261196
-0.261208
0.313886
-0.416261
0.222158
0.093158
0.218791
-0.631425
0.372384
0.415874
0.209864
0.099076
0.263991
0.002956
0.146672
-0.086999
0.138523
-0.382108
-0.189932
-0.315363
0.048417
0.001313
0.527443
0.522219
0.160765
-0.161848
0.118725
0.662857
0.283244
0.074035
0.582739
-0.384058
0.549941
-0.138286
0.054342
0.369096
-0.496122
0.690779
-0.455834
0.522518
0.116057
0.098893
-0.589494
-0.392095
0.173707
0.039333
-0.056987
0.517708
-0.288098
0.467103
-0.135253
0.491111
0.384642
-0.275714
-0.220554
0.302536
-0.498428
-0.493115
0.533261
0.573874
-0.360548
-0.195813
-0.512965
-0.210892
-0.213993
0.040944
0.254086
0.227864
-0.217575
-0.110960
-0.431676
-0.034756
-0.372471
0.303851
-0.175691
-0.285408
0.641521
0.215736
0.175956
-0.087893
-0.153262
0.192022
0.469427
0.021786
0.340713
-0.484920
-0.142322
-0.592035
-0.368958
0.775450
0.496263
0.143959
0.304742
0.488362
-0.087714
