0.159897
0.347091
-0.170582
0.288945
0.201396
-0.373940
-0.633966
-0.113174
-0.172205
0.326259
-0.226513
-0.552586
-0.329651
-0.619572
-0.269628
0.208492
-0.156664
-0.483194
-0.622927
-0.148740
-0.148470
-0.288130
-0.501405
0.355169
0.403420
0.160182
-0.148953
0.415379
-0.270635
-0.309135
-0.112850
-0.104543
-0.195881
-0.139428
0.289994
0.155782
0.296950
-0.508663
-0.532080
-0.523691
0.275248
-0.423695
-0.415093
-0.205622
-0.601157
-0.206456
0.503859
0.325893
-0.392981
0.009568
-0.073842
-0.089903
0.290054
0.447062
-0.597745
-0.359505
0.278912
0.349334
0.268514
0.496797
0.523685
-0.474214
0.205871
-0.203371
-0.180982
0.304900
0.247716
0.088671
0.257826
-0.357727
0.194328
-0.501144
0.108171
-0.297951
0.431137
0.309236
0.360921
-0.247367
0.153513
-0.477217
-0.434462
-0.337440
-0.432523
0.096563
-0.411611
-0.611312
-0.050827
0.625078
-0.301210
0.480744
0.227837
-0.150143
-0.214654
0.299291
-0.157897
-0.564328
0.318997
0.265411
-0.125876
0.216642
0.027625
-0.386353
0.019058
-0.165405
-0.062255
-0.395455
-0.299179
-0.394877
-0.338816
0.274646
-0.048103
0.343294
-0.359199
0.177626
-0.224759
-0.173705
0.527004
-0.098772
0.207144
-0.399054
-0.543776
0.762697
-0.456781
-0.309078
0.280797
-0.208091
-0.288791
0.174565
0.117395
0.422136
0.035158
-0.240889
0.296845
-0.415482
-0.367005
-0.171589
0.095823
0.380221
0.331378
-0.460105
-0.619632
-0.537712
0.139917
-0.552016
-0.696460
0.011091
-0.242217
0.111682
-0.123361
0.007948
0.341405
-0.276061
0.480651
0.070317
-0.277028
0.157520
-0.210378
0.884265
-0.114320
-0.359607
-0.100080
0.356665
0.102188
0.238485
-0.544459
0.429518
0.304422
0.027755
0.132700
0.190201
0.155677
0.452138
-0.161805
0.320583
0.123887
0.079175
0.529385
-0.126585
-0.086248
0.085581
0.081281
-0.282540
0.012869
0.268727
0.273461
0.068850
0.032217
-0.432202
-0.102318
-0.451586
-0.345804
0.557242
-0.170561
-0.461515
0.396942
0.601670
0.570151
-0.043787
-0.227775
0.671654
0.402824
0.209810
0.274282
-0.076708
-0.651057
0.046666
0.304987
0.003930
-0.024052
0.516369
0.749910
-0.114834
-0.331335
0.207127
0.282436
-0.172197
0.208436
-0.244769
-0.025152
0.229437
0.356643
0.125495
-0.268600
-0.553739
-0.079263
0.229467
0.373042
-0.544550
-0.123762
-0.190863
-0.332056
-0.429800
-0.177003
-0.016393
0.604118
0.266771
-0.368322
0.030020
-0.439236
0.239538
-0.400381
-0.270315
0.284016
-0.035034
-0.562235
-0.067992
0.048545
0.098984
0.567193
-0.008260
0.124134
0.784533
0.267458
-0.377287
-0.457057
-0.442695
0.196765
0.094629
0.424419
0.170763
0.375200
-0.530112
-0.434440
0.443879
-0.202732
0.084611
-0.480203
0.418868
0.064861
-0.458759
-0.310562
0.412087
0.145624
-0.024322
0.263452
-0.685406
0.042731
0.171817
0.449579
-0.043909
0.070461
0.396281
-0.108363
0.146485
-0.404734
0.484995
-0.292828
-0.146220
0.030130
-0.197446
-0.198213
0.412676
0.434611
0.309662
0.349177
-0.214286
-0.340014
-0.180481
-0.209523
0.055698
0.553248
-0.185612
0.252513
0.062027
-0.298584
0.016210
0.437990
-0.048640
-0.171890
0.326147
-0.223600
-0.089197
0.537292
0.408145
-0.300235
-0.172868
-0.345071
-0.637425
-0.277529
0.502135
-0.037007
0.035707
-0.228768
0.216061
0.346953
-0.045883
-0.348478
-0.197952
-0.242978
-0.073377
0.273108
-0.460465
-0.063952
0.145923
0.168090
0.183267
-0.058706
0.358830
0.436422
-0.025742
-0.147464
-0.324050
0.190838
-0.154067
0.094095
0.198670
0.322791
-0.288118
-0.467955
0.358173
-0.296943
-0.178069
0.009878
-0.150054
-0.149426
-0.161350
-0.149298
0.217963
0.237675
-0.017465
-0.125960
0.345424
0.355825
0.149993
-0.584183
-0.171113
-0.509838
-0.351191
-0.073914
-0.062721
0.404502
0.371307
-0.323198
0.421826
0.331782
0.009136
-0.648335
-0.187999
-0.047663
-0.479785
0.009853
-0.028725
-0.475926
0.041355
-0.490476
0.117121
-0.082194
-0.018202
0.292098
0.111910
0.316338
-0.563092
0.271575
-0.316849
0.258472
-0.520506
0.089696
0.387820
0.228574
0.224888
0.155196
0.193747
0.062293
-0.109329
0.108466
0.256403
-0.004016
0.081500
0.285325
0.326628
0.156190
0.397467
0.453458
0.349451
0.130891
0.388543
0.007529
-0.203206
-0.385757
-0.299334
0.057431
0.183492
0.148154
0.205308
-0.185367
-0.052534
-0.112240
-0.120574
0.275431
0.272454
0.117791
0.475988
-0.422806
-0.043108
0.307282
0.171214
-0.155275
0.492319
-0.190725
0.207040
0.300398
0.284756
-0.427492
-0.268045
0.193207
-0.126447
0.139076
-0.550590
0.039838
0.049632
0.563437
-0.178573
-0.182947
-0.184396
-0.440701
-0.226744
-0.271268
0.072424
-0.431884
0.050601
0.312526
0.121888
0.077120
0.002959
-0.797940
-0.398242
-0.227229
-0.260597
-0.361744
-0.488604
0.378800
0.382576
0.289081
-0.155637
0.399712
-0.137104
-0.238453
0.439928
-0.655081
0.641517
-0.275026
0.026636
-0.077881
0.052153
-0.272827
-0.519699
-0.197853
0.223503
-0.569021
-0.489650
-0.655121
0.081148
0.571281
-0.092105
-0.259530
-0.155390
0.256523
-0.222314
0.038638
0.536519
0.034976
-0.489112
0.097033
0.296726
0.265896
0.547619
-0.182521
-0.467095
-0.490977
-0.031410
-0.469303
-0.169375
-0.594058
-0.500127
-0.478041
0.468110
0.281280
-0.367285
-0.187593
0.033600
-0.123644
0.608834
0.605758
0.455080
-0.105605
0.130205
-0.209792
0.016964
-0.138091
0.161580
-0.219624
-0.120973
0.105384
0.272984
0.315283
0.452132
0.333174
-0.420394
-0.020948
0.248313
-0.394616
0.397909
0.079648
-0.670401
0.509167
0.285247
-0.322894
0.055474
-0.532775
0.423962
-0.029988
-0.488062
-0.182175
-0.598000
0.378067
-0.014293
0.293232
-0.071603
-0.362206
-0.306681
-0.449927
0.147221
0.474443
-0.151784
-0.411145
-0.347937
-0.159442
0.428069
-0.305465
0.209529
-0.328240
-0.139528
-0.393091
-0.153131
0.488149
0.069850
-0.313633
0.441862
-0.198941
0.570169
0.214690
-0.165141
-0.331598
0.029791
-0.542892
0.415187
0.205566
-0.094669
0.611361
-0.242775
0.521754
0.175505
0.263179
-0.216737
0.718081
-0.203987
0.119689
0.295181
-0.013960
-0.043075
-0.211202
0.236912
0.264770
0.198914
0.171728
-0.480122
-0.227411
0.227740
0.360797
0.303978
0.233099
0.577113
0.418616
-0.113652
0.153733
-0.468365
-0.122375
0.119382
0.049249
0.319927
-0.399118
-0.036171
0.464497
-0.194440
-0.556606
0.009296
-0.212301
-0.430540
-0.497960
-0.118832
0.026846
-0.320288
0.123223
-0.069516
0.408403
-0.266449
-0.623217
0.387669
-0.388581
-0.041874
-0.087372
-0.266173
0.016488
-0.510311
0.628231
0.007515
0.386880
0.310304
0.508720
0.054879
-0.039284
-0.550631
0.731129
-0.039833
0.371248
-0.240709
-0.645308
0.184675
-0.235582
0.593188
0.195074
-0.362054
-0.256525
0.279836
0.369322
0.084795
0.080540
0.159594
0.177014
0.010792
0.604931
0.183059
-0.364700
0.461651
0.170134
-0.040444
0.652511
-0.210604
0.242104
0.005711
-0.383589
-0.044105
-0.356271
0.266604
0.419652
-0.361341
-0.135611
-0.455130
-0.218529
0.378906
-0.032802
-0.279775
-0.210925
0.142526
-0.646604
-0.316674
-0.177264
-0.183613
-0.414493
-0.302414
0.049592
-0.603763
-0.605528
0.064779
0.366687
-0.503834
0.268293
0.091198
0.297832
0.191357
0.563334
0.072759
0.068336
-0.280443
-0.333108
-0.141868
0.312220
-0.308618
-0.267125
0.008784
-0.334818
0.031935
-0.353931
0.377102
-0.442254
0.056594
0.516150
-0.111866
-0.411286
0.168374
-0.117522
-0.024229
0.607833
0.203507
-0.443603
-0.441015
0.145728
0.010154
0.083152
0.522904
-0.051749
0.293043
0.105285
0.402909
-0.396824
-0.105045
-0.196956
0.188802
0.358033
-0.181267
-0.378253
-0.366157
-0.051242
-0.285746
0.004528
-0.239469
-0.375363
0.052557
-0.061200
0.232502
-0.022536
0.088940
-0.218911
0.429332
0.096966
0.725204
0.156534
0.641240
-0.272430
-0.184261
-0.142263
0.373918
-0.166724
0.300698
0.632800
-0.009830
0.557895
-0.271036
-0.037304
-0.310756
-0.106746
0.329201
0.058730
-0.599819
-0.703757
0.292079
-0.455719
0.424497
0.431344
-0.040098
0.279097
-0.802056
-0.346606
0.494632
-0.115230
-0.425308
0.147640
0.264987
-0.026556
-0.091788
0.179463
-0.075514
0.457659
-0.269292
0.185063
0.361343
-0.269094
-0.480736
-0.296763
-0.241778
-0.013968
-0.035900
0.554573
0.026167
-0.094605
0.395819
