-0.467319
-0.112108
-0.102467
0.227798
-0.452720
-0.258508
-0.073525
-0.161667
0.211994
0.417316
-0.016090
0.257107
-0.368753
-0.085812
-0.381780
0.365780
-0.173352
-0.058997
-0.328667
-0.558502
-0.173911
0.020869
0.089561
0.146869
0.341720
-0.218595
0.522658
-0.266434
-0.074677
0.507703
0.176692
-0.296419
0.214982
-0.118659
0.197348
0.135382
0.525531
-0.131132
-0.231562
0.314447
0.114166
-0.074439
0.197735
-0.341470
-0.311442
0.199380
0.458407
-0.125065
0.334631
0.790245
-0.013460
-0.140096
-0.283627
0.592737
0.084650
0.184742
0.302637
0.108639
0.195956
0.419765
0.243210
-0.248840
0.043705
0.282888
-0.056176
0.151870
-0.215564
-0.534047
0.146145
-0.593976
-0.104127
-0.359570
0.174457
0.443476
0.496805
0.371975
-0.100716
-0.295355
0.513042
-0.516879
0.052585
-0.270121
-0.195254
-0.529959
-0.284703
0.268268
-0.415946
0.210003
-0.277634
-0.578754
0.289589
0.625606
0.351131
0.402659
0.168171
0.010413
0.269359
-0.305479
-0.276346
0.407838
-0.224267
0.239496
-0.049556
0.197321
0.461324
0.022630
0.450918
-0.469686
0.063288
0.197200
0.023398
0.459773
0.319825
-0.143933
0.367490
-0.418318
0.074489
0.100108
-0.154222
-0.092745
-0.433704
-0.140040
-0.151281
-0.471640
-0.753522
0.344732
-0.193364
0.157133
0.023936
0.111544
0.276356
-0.691154
0.240418
0.167748
-0.281770
-0.686065
0.486625
-0.456928
0.647892
-0.544164
-0.606205
0.194894
-0.271872
0.009964
-0.074593
0.616217
-0.264118
-0.582517
0.514405
0.547048
0.006651
0.375676
-0.052583
-0.076744
0.058579
-0.494594
-0.104117
0.146036
0.306943
-0.538142
-0.435627
0.024448
0.292985
-0.213311
0.151102
0.523432
-0.363731
-0.158000
-0.203137
-0.084101
-0.030567
0.018579
0.008039
0.005837
0.189238
-0.085630
-0.043491
0.281370
-0.057630
0.463562
-0.292441
-0.173130
-0.284401
-0.376049
-0.316342
-0.197794
-0.345757
0.294555
-0.176945
0.010139
-0.337169
0.449041
0.026835
-0.362290
-0.328001
-0.551366
-0.088472
0.212413
-0.286055
-0.506586
-0.503239
-0.413162
0.468836
-0.297984
-0.349144
0.395436
-0.134530
-0.237825
0.416820
-0.066948
0.214693
-0.139791
0.151544
0.100699
0.254527
0.192209
0.208436
0.107526
-0.109786
0.523664
0.044059
0.487618
0.604071
0.257148
-0.096220
0.855354
-0.049996
-0.158427
0.145189
-0.199188
-0.415644
-0.032662
0.148260
-0.152164
0.156858
0.415197
-0.183626
0.462213
-0.026264
-0.485946
0.428105
-0.445348
-0.325020
0.117786
-0.408612
0.538796
0.615985
0.645953
-0.156425
-0.138817
-0.271288
-0.011912
0.123823
-0.040881
-0.117652
0.273078
-0.199153
-0.011853
-0.148487
-0.414135
0.435242
0.106966
-0.212981
-0.565182
0.133840
-0.212703
-0.520382
0.515406
-0.415542
-0.402570
0.566661
0.254735
0.489607
0.502073
-0.531316
0.533477
-0.420476
0.072442
-0.320566
-0.180431
0.245865
-0.442621
-0.439569
0.377589
0.014218
-0.420568
-0.097276
-0.306915
0.408347
0.450862
0.031022
-0.333815
0.361005
0.378803
-0.495438
-0.008727
0.664872
0.086731
0.501645
-0.510344
0.115357
0.462738
0.442486
-0.024472
-0.072140
-0.342369
0.571974
-0.434284
-0.532471
0.421783
-0.278811
-0.230735
0.205101
-0.052317
0.233156
-0.721947
-0.062001
0.234305
0.220545
-0.161923
0.347609
0.531746
-0.410878
-0.127175
0.197589
0.712841
-0.359800
-0.350348
0.194567
0.226334
0.105490
0.008941
0.061290
0.432196
-0.099053
0.197293
0.015717
0.521644
0.260517
0.073602
-0.296628
-0.708306
0.572501
0.153400
-0.059662
0.463196
0.070478
0.487495
-0.443440
-0.280660
-0.383777
-0.259000
-0.077813
0.449429
0.247930
-0.207852
-0.112233
-0.080989
-0.378296
0.118573
-0.178446
0.061562
-0.407069
0.379158
0.486509
-0.069851
-0.717917
-0.348498
0.412666
-0.026345
-0.657721
-0.552392
-0.034240
0.475471
0.024929
-0.237928
-0.485160
0.377112
-0.419728
0.202729
0.181439
-0.084868
-0.168958
0.046280
-0.418833
0.294385
-0.100452
-0.240045
0.196034
0.512917
0.248018
0.176012
-0.311286
0.415527
0.542822
-0.115188
0.237106
0.444763
0.236918
0.228031
0.044704
0.347414
0.319886
-0.111928
-0.232847
-0.486818
0.039481
-0.144594
0.329741
0.432581
0.057601
-0.756979
-0.154341
0.492858
-0.287923
-0.289334
0.124901
-0.143218
0.073193
-0.710016
0.427568
0.398407
0.306068
-0.153776
0.668385
0.245086
0.047795
-0.107666
0.025297
-0.055924
0.283113
-0.035980
-0.603299
0.329792
0.173944
0.136260
-0.111547
0.334265
0.384518
0.267366
0.132754
0.380334
-0.614603
-0.439896
0.405343
-0.159995
-0.441163
0.054653
0.512632
0.059872
0.215616
-0.044715
0.387901
-0.122918
0.118819
-0.122810
0.147821
-0.372148
0.073281
0.225104
0.207848
0.410875
0.183310
0.552709
-0.149477
-0.451090
0.361099
-0.160515
0.604153
-0.202660
0.026741
0.140992
0.515812
0.268627
-0.136369
-0.488734
-0.173560
0.321010
0.355208
-0.114196
0.233257
-0.642704
-0.189651
0.033333
-0.188793
-0.496191
0.026567
-0.029414
0.102682
-0.007304
-0.319263
-0.291217
0.064809
-0.160489
0.081806
0.691530
0.284031
0.292630
-0.395156
-0.255596
0.511331
-0.529413
0.509100
-0.034932
-0.385063
-0.156381
-0.547639
-0.274272
0.281543
0.034896
-0.358233
-0.190487
-0.592828
0.089436
-0.275550
0.539937
0.164084
0.196595
-0.419526
0.196642
0.475003
0.306930
-0.338696
0.568184
0.109492
0.217318
0.539690
-0.296659
0.101617
-0.207001
-0.016560
-0.008859
-0.420799
-0.295527
-0.057220
0.496172
-0.164599
0.281936
-0.110862
-0.616286
0.160355
0.468543
-0.087971
0.454810
-0.414385
-0.094682
-0.525399
-0.367709
0.040138
-0.289378
0.316593
-0.341860
0.322199
-0.542919
0.176118
-0.599649
0.526894
-0.296229
-0.315848
-0.305986
0.263161
0.387197
-0.417159
0.251821
0.027302
0.169760
-0.170475
-0.371850
-0.080375
0.539665
-0.082524
0.292149
0.380641
-0.050559
0.250691
-0.123093
0.279754
-0.138899
-0.539518
0.284313
0.046315
0.565918
0.362440
-0.066051
-0.450116
0.039933
-0.415166
-0.618545
-0.140857
0.534994
0.273347
0.315491
-0.161324
0.193166
-0.020271
0.070360
0.234885
0.263738
-0.103970
-0.312327
-0.135450
0.289219
-0.398443
0.240761
-0.418084
-0.380352
0.480515
-0.006381
0.153430
0.251361
0.315021
-0.263693
-0.392653
0.071041
0.351246
-0.147206
-0.458201
0.353012
-0.233586
-0.283570
-0.307807
-0.181941
-0.009866
0.074477
-0.210721
0.354650
-0.110501
0.361680
-0.527463
-0.166856
-0.129427
0.062592
0.208392
0.138937
-0.114181
0.199552
0.209869
-0.063575
-0.210165
0.217076
-0.652868
-0.229446
-0.376244
-0.113297
0.081440
-0.199501
0.379247
-0.032106
0.186007
-0.421463
0.303803
0.110768
-0.197658
0.332217
0.570941
-0.611603
-0.166572
0.475637
-0.532459
-0.264250
-0.505453
-0.758052
0.132353
0.285622
-0.330233
-0.320518
0.691254
0.095459
-0.432448
-0.147238
-0.644002
-0.053518
0.127144
-0.101951
-0.116119
0.045178
-0.213998
-0.636619
0.294002
0.454201
-0.262383
-0.245552
-0.528232
-0.575556
0.043922
-0.572676
0.116528
0.004252
-0.179823
-0.388478
0.031832
-0.326485
-0.035536
-0.328168
-0.477397
-0.275299
-0.343386
-0.273556
0.029007
0.376287
-0.100851
0.411993
0.425083
-0.528146
-0.530501
-0.445486
-0.248280
0.308784
-0.434508
0.233929
0.110447
0.454552
0.109412
-0.051641
-0.091823
-0.252190
0.569446
0.227802
0.347290
-0.497480
0.275232
0.174747
-0.483666
0.374127
-0.130871
-0.226122
0.234295
-0.031201
0.107529
0.519670
0.304230
-0.357774
0.355705
-0.071928
0.135271
-0.375962
0.096073
0.143151
0.315546
-0.133360
-0.430160
-0.291038
0.137677
0.222389
-0.195943
0.666952
-0.204276
-0.095541
0.635114
-0.183634
0.308206
0.485626
-0.629815
-0.447474
-0.275526
-0.062481
-0.445606
-0.389765
-0.186515
0.079074
0.254682
0.191157
0.525530
-0.482135
0.395598
-0.231042
0.013694
0.376336
0.753263
-0.004932
0.179952
0.352247
-0.294249
0.523983
-0.100438
0.716278
-0.352371
-0.389916
-0.092235
0.274350
-0.258104
-0.544608
0.151458
0.077222
-0.114011
-0.233290
0.314860
0.696804
-0.184331
-0.661246
0.510529
-0.332906
-0.308731
0.419843
-0.273115
0.116479
0.380500
0.187360
0.055201
0.271345
-0.284943
-0.309135
0.164455
-0.380533
-0.666613
0.118531
-0.191539
0.116802
-0.972808
-0.447893
-0.093946
0.252273
0.254672
-0.059407
0.262151
0.169450
