-0.014368
-0.133990
-0.072290
-0.119014
0.454187
0.059555
-0.308709
0.064059
-0.028037
-0.103207
-0.115593
-0.241234
0.112291
-0.410337
-0.084647
-0.232352
0.125674
-0.104494
-0.214675
0.119575
-0.221071
-0.145591
-0.003972
-0.238911
0.157158
-0.191603
0.127454
-0.271429
-0.149689
0.061798
0.238259
-0.347039
-0.187693
0.249036
-0.299231
0.445803
0.255890
-0.575981
0.008525
-0.605729
0.279507
0.343150
0.154749
0.182503
-0.433429
0.416843
0.200753
0.186275
0.345355
-0.132947
-0.178268
-0.031751
0.160248
0.031783
0.334292
-0.319031
0.319274
-0.515114
0.233228
-0.573516
-0.218850
0.085879
0.424118
-0.155665
-0.446327
0.262202
-0.336107
-0.294911
0.290566
-0.345545
-0.046178
-0.364725
-0.407463
0.610026
0.295632
0.101519
-0.488412
0.230365
-0.121848
-0.461266
0.119628
0.630404
-0.525476
-0.381910
-0.411611
0.160759
-0.195551
-0.371750
0.103234
-0.133738
-0.197002
0.214446
-0.214043
-0.098594
-0.291029
-0.290378
-0.430058
-0.478557
-0.263894
0.166413
0.392428
0.019730
0.290669
0.128491
-0.494117
0.250569
0.252277
-0.566406
-0.038316
0.184339
-0.100600
-0.299223
-0.351235
0.297447
-0.190434
0.302504
0.345851
0.127153
-0.131211
-0.321851
-0.356272
0.555678
0.375236
0.435362
-0.355829
-0.146882
-0.185500
0.483113
-0.019140
0.611928
0.143822
-0.433224
0.791435
0.234252
-0.593616
-0.157391
0.382556
0.254700
-0.195712
0.085190
0.173525
-0.132934
-0.404879
0.065344
0.019302
0.126432
-0.348735
-0.485169
-0.160485
-0.168587
0.141107
-0.294851
0.279276
0.442222
-0.370496
0.430053
-0.291741
-0.168565
0.261286
-0.401860
0.056573
-0.042324
-0.047207
-0.219300
0.240177
-0.200685
0.125294
0.669402
-0.248081
-0.159294
0.217582
-0.295996
0.096739
0.075498
0.227358
-0.255788
-0.278100
0.229567
0.660929
0.115093
0.442333
0.517528
0.078861
-0.385248
-0.137269
-0.215001
0.133555
-0.602947
-0.251208
-0.135739
0.548308
-0.514287
-0.308423
-0.572764
0.500306
-0.608016
-0.255438
-0.523230
0.288559
-0.276844
0.326735
0.554564
-0.549904
-0.060627
0.424806
0.547076
-0.250992
-0.477307
-0.119160
0.080218
-0.153436
-0.101413
0.239761
-0.355554
-0.191508
0.051423
-0.043385
-0.259146
0.368026
-0.235147
-0.296264
-0.338753
0.689210
0.202295
0.077786
0.641136
0.320495
-0.399117
-0.321501
0.488692
-0.059236
0.127513
-0.182206
0.070996
0.645944
0.216133
-0.142248
-0.303439
0.075746
-0.351276
-0.136402
-0.554086
-0.347572
-0.177479
-0.449497
0.428107
-0.252878
-0.298987
-0.612591
-0.080792
-0.046664
-0.216971
-0.633582
0.082643
-0.199228
0.368693
0.229635
0.135208
0.080453
0.527098
0.531577
0.088088
0.378412
-0.249144
-0.182500
0.159980
0.163153
0.605201
0.156469
-0.342598
-0.178681
0.053145
0.029282
0.009362
0.441158
0.483648
-0.009364
0.155906
0.438787
0.614862
0.583229
0.435572
0.338922
0.326828
0.107475
-0.296180
-0.001632
0.270197
-0.042540
-0.135900
-0.244872
-0.291593
0.184820
0.306294
-0.454706
0.099607
-0.351809
0.094100
-0.256100
-0.265534
0.031299
-0.072341
-0.209064
-0.027084
-0.575414
0.020227
0.174264
-0.067536
-0.244935
0.156238
-0.311488
0.387331
-0.342501
-0.333373
-0.090157
0.405456
0.121565
-0.393412
-0.366160
0.282998
0.145240
-0.573650
-0.091063
0.086147
-0.657193
-0.521555
-0.325183
-0.518806
0.002719
-0.332914
0.340220
-0.210956
-0.102346
-0.440722
0.102524
0.206592
-0.485257
-0.474828
0.217204
-0.247737
0.274865
0.021449
0.471019
0.365736
0.342173
0.450109
0.386860
-0.169883
-0.400217
-0.698490
0.250598
-0.292962
-0.405954
0.089121
0.030689
-0.024709
-0.352197
0.111940
0.187751
0.002786
0.020144
-0.104938
0.234979
-0.241136
0.153573
-0.207594
0.567151
-0.219763
0.240049
-0.091274
0.224642
0.439112
-0.171970
-0.419836
0.549605
0.086705
-0.141281
-0.226034
-0.144728
0.104729
-0.156855
0.574543
0.413357
-0.153807
-0.411349
-0.219671
0.169772
0.173062
-0.502324
0.413249
0.006819
-0.245800
-0.248743
-0.850555
0.499235
-0.612263
-0.190893
-0.453725
-0.678985
-0.433177
-0.138883
-0.348859
-0.175030
0.407909
-0.574165
-0.538749
0.192804
-0.294854
0.573029
0.436360
0.442842
-0.457898
0.385836
0.203417
-0.435103
-0.387158
-0.067643
0.182935
-0.576427
0.386143
0.611052
0.281635
0.228112
-0.557136
-0.489015
-0.384867
0.206398
-0.356486
0.060165
-0.160707
0.149480
0.272076
-0.370614
-0.249596
0.122115
-0.402226
-0.184167
0.646058
-0.560052
-0.316103
-0.009080
0.399450
-0.382659
0.657123
-0.018779
0.362167
0.090020
-0.397885
0.014819
0.009635
0.625652
0.041566
-0.305195
-0.789225
0.287271
0.301819
-0.510084
0.390713
-0.040502
0.224134
-0.163229
0.288668
-0.276387
-0.368673
-0.576452
-0.103228
-0.127804
-0.290908
0.355212
-0.782585
0.028846
0.549564
0.344402
-0.469371
0.161708
0.301101
0.231725
-0.349190
-0.125975
-0.304520
0.089351
-0.016805
-0.348925
-0.004285
0.430044
-0.488907
0.369913
-0.221856
0.290254
-0.200136
-0.093731
0.067343
-0.297775
-0.265545
-0.194187
0.155727
0.196050
-0.580665
0.109578
0.452930
0.549246
-0.272921
-0.261373
-0.125524
0.250102
-0.296608
0.193012
-0.520702
0.382566
0.255779
0.267407
0.042315
0.008786
0.141559
-0.262096
0.403451
0.055504
-0.066721
0.161045
-0.139471
0.494530
0.511637
-0.669161
0.052082
-0.372317
-0.066176
-0.355120
0.318796
-0.180691
-0.166425
0.387154
0.229394
-0.151797
-0.021654
-0.033850
0.464805
0.265805
-0.294877
0.032260
0.040284
-0.235650
0.217735
0.421810
-0.659827
0.158365
-0.198941
-0.217408
0.185451
-0.566225
-0.272631
-0.131065
-0.327878
-0.064287
-0.183553
-0.270010
-0.133869
0.029764
0.367287
-0.359001
-0.219035
-0.120381
0.244505
0.069672
0.474550
-0.482269
0.144763
-0.426566
-0.119467
-0.635434
-0.146232
-0.404391
0.473500
0.363730
0.359166
0.035554
0.172841
0.190614
-0.369935
0.007706
0.086755
0.010696
-0.199466
0.258103
-0.228886
-0.046785
0.214156
0.841749
-0.372549
-0.061689
-0.143942
-0.141045
-0.599182
0.130194
-0.154658
-0.574845
0.129290
0.031021
0.211914
-0.108283
-0.127295
-0.072058
0.592546
0.116331
-0.482533
-0.418084
-0.284304
-0.030806
-0.175100
-0.230328
-0.415121
-0.376623
0.124239
0.119726
0.234691
0.401527
-0.532995
-0.136736
0.370835
0.354894
0.049277
-0.407356
-0.024656
0.002168
-0.092630
0.625116
-0.028287
0.637374
-0.738543
-0.182304
-0.180351
-0.028733
0.029194
-0.569280
0.205098
-0.268860
-0.410146
0.019099
0.277168
0.175893
0.618741
0.307134
-0.222444
-0.490551
0.501284
0.030787
0.421035
0.631045
0.301277
0.491777
0.282448
0.183456
-0.309067
-0.060787
-0.732513
-0.212462
-0.602503
-0.361213
-0.239889
-0.279267
-0.070751
-0.280999
-0.142668
0.094174
-0.240084
0.029958
-0.166012
-0.640066
0.144318
0.024926
-0.452752
-0.489430
0.442913
-0.262898
-0.533940
0.372766
0.072912
0.031861
-0.065049
0.084379
-0.042823
-0.023994
-0.149339
-0.458593
-0.006214
0.026480
0.180899
0.278580
-0.371609
-0.111967
0.453850
-0.210012
0.554309
-0.429363
-0.139128
0.143750
-0.152652
0.392955
-0.281608
-0.176170
-0.009455
0.403234
0.102844
0.091446
0.547855
-0.113742
-0.434105
-0.563398
-0.426856
-0.368584
-0.290061
0.313334
-0.566692
-0.233695
-0.324640
-0.048454
0.062817
-0.432825
0.333005
0.099174
0.291233
0.391739
0.043630
-0.124406
0.049889
-0.285554
-0.064034
0.263521
-0.333685
0.311398
0.508127
-0.634909
0.455911
0.269905
-0.378595
0.065748
0.433532
0.217801
0.342978
-0.176725
-0.390017
-0.078921
0.015701
-0.324136
0.374494
-0.627263
0.583181
-0.105760
0.237983
-0.387112
-0.569552
0.283826
0.180637
0.120165
0.497129
0.190243
-0.285618
-0.289492
-0.044072
0.424396
0.321512
0.020488
-0.946369
-0.083057
-0.002333
0.524596
-0.210099
0.003429
0.358921
-0.468872
-0.080578
0.392279
0.134462
-0.217592
0.277646
0.520139
-0.565909
-0.390203
-0.385182
-0.448745
0.207904
0.889310
-0.223337
0.227110
0.330760
-0.399298
0.485176
-0.033433
0.495220
-0.294150
-0.129439
-0.092807
0.006841
-0.118412
0.287448
-0.202147
0.115359
0.186646
0.110943
0.171896
0.532075
0.304018
0.056725
0.451953
-0.657610
-0.216810
0.324839
0.283570
0.035389
0.116295
-0.248294
0.034214
-0.067677
0.243431
-0.518276
0.149615
0.223745
