-0.227312
0.529728
-0.333193
0.155515
0.454187
-0.072798
-0.480377
0.182833
0.364954
-0.096388
0.024119
-0.009893
0.081414
-0.436735
-0.051359
0.318453
-0.099877
0.317377
0.269874
0.022154
0.188099
-0.300502
-0.326337
-0.264703
0.244955
0.251544
-0.079885
-0.305434
0.001428
-0.245899
0.315802
-0.198239
-0.037273
-0.312762
0.181631
-0.142676
-0.311539
0.206741
-0.279374
-0.541558
0.076598
-0.251628
-0.214692
0.151058
0.603394
-0.604663
0.097822
0.165634
-0.275483
-0.301722
0.360636
-0.191942
0.394607
-0.422977
0.160132
-0.443045
0.282437
-0.220624
-0.120226
0.224314
-0.048457
-0.343658
-0.304636
-0.410598
-0.459025
0.353617
0.303699
0.322959
0.188221
-0.293720
-0.151648
-0.434988
-0.209700
-0.224044
0.260634
0.199703
0.165032
0.060069
-0.147211
-0.348050
0.164374
0.020027
0.499373
-0.349383
-0.124481
0.146543
-0.118208
0.506849
0.351197
0.375338
-0.108629
-0.695673
0.316925
-0.156115
-0.591738
-0.317636
-0.640664
0.225671
-0.508941
0.237271
-0.163585
-0.323011
0.139023
0.062186
-0.054587
0.100215
0.444036
-0.344837
-0.093567
-0.423620
-0.175681
-0.083648
0.153123
-0.026145
-0.284414
-0.025832
0.247723
-0.570342
0.302426
0.037606
-0.709394
0.534182
-0.461331
-0.205939
0.114414
0.534865
-0.087172
0.210823
-0.168205
-0.415960
-0.781878
0.475584
0.209930
0.340667
-0.068097
-0.385511
-0.555387
0.458800
-0.160054
0.491790
0.005366
-0.507205
0.439335
0.157522
-0.438050
0.134514
-0.332198
-0.410163
0.476218
0.287990
0.122002
-0.241964
0.330701
-0.116756
0.000774
0.519453
-0.244873
-0.304918
-0.104216
-0.383430
0.221064
0.283734
0.462298
0.515686
0.096301
0.439818
0.434311
-0.244297
-0.203137
0.090706
0.024110
0.047510
0.134847
-0.035544
0.293387
-0.258386
0.318089
-0.139473
-0.411221
0.209742
-0.181681
-0.322289
0.194381
-0.359359
0.308893
-0.150403
0.102797
0.195043
0.105146
-0.410347
0.457342
-0.403050
-0.584902
0.235401
-0.178517
0.034457
0.398170
0.172722
-0.494979
-0.586187
-0.112902
0.011840
0.230196
-0.375987
-0.607333
0.238160
0.399983
-0.437593
-0.106475
-0.489095
0.261767
-0.749653
-0.108998
-0.586184
0.419581
-0.362506
0.244990
-0.405324
-0.065556
-0.166958
-0.526066
-0.448678
0.286451
0.139002
-0.508504
0.053061
0.597818
0.067464
0.096045
-0.489808
-0.476612
-0.056435
0.285687
0.353657
0.557366
0.069333
-0.321529
0.217785
-0.447200
0.563739
0.117622
-0.092631
-0.534941
0.121486
-0.398671
0.135659
-0.112585
-0.366526
0.410161
0.256619
0.600153
-0.283068
-0.068343
0.184900
0.291567
-0.109420
0.425137
0.621460
-0.262378
-0.454518
0.013656
0.045751
-0.240782
0.813237
0.109135
-0.289219
-0.489983
0.316416
0.631312
0.419406
-0.088766
-0.018943
0.061904
0.264845
-0.078652
-0.034457
0.023407
0.316075
-0.520400
-0.137043
0.144253
0.006516
0.013829
0.397264
0.086623
-0.370546
-0.010613
-0.338984
-0.250553
-0.093146
-0.263462
-0.339689
0.208063
-0.383615
-0.439195
0.371425
-0.296354
-0.038754
-0.547907
0.418308
-0.111246
-0.102865
-0.468095
-0.464546
-0.033254
0.612112
-0.113570
0.230121
0.085063
0.528947
-0.047300
-0.351398
0.126860
-0.081961
0.331908
-0.065784
0.572561
-0.168621
0.023232
-0.163001
-0.227938
0.234525
0.555936
-0.060959
0.440286
0.461821
0.384108
-0.549592
-0.144021
-0.363508
0.064963
-0.004132
0.416220
0.019874
-0.273891
-0.377088
-0.310746
-0.235554
0.647229
-0.029089
-0.401445
-0.264828
-0.412585
0.079943
-0.665730
-0.015216
-0.080795
0.065593
-0.361720
0.363251
-0.390469
-0.536126
0.551849
-0.096886
-0.255910
-0.468074
0.217635
0.201045
-0.380798
-0.067905
0.119639
0.592168
0.248304
0.486585
0.365193
-0.055000
0.141371
-0.106044
0.201390
-0.136845
0.385052
0.255271
0.279004
-0.201420
-0.077175
-0.069239
-0.799385
0.119435
-0.120948
0.229238
0.089077
-0.092261
-0.345941
0.401318
0.245324
-0.180314
0.095875
-0.304994
0.400125
-0.565804
-0.142773
0.096264
0.271287
-0.052791
0.316065
-0.371081
0.087583
0.379206
-0.155258
0.520068
-0.495925
-0.611857
-0.153600
0.235703
-0.061437
0.445861
0.223352
-0.244692
-0.065059
0.362508
-0.421463
0.096921
-0.521007
0.081163
-0.459818
-0.164560
0.125542
-0.121718
-0.503596
-0.053478
0.261000
0.141912
0.272331
0.030593
-0.060571
0.217447
-0.036003
0.200733
0.687500
0.364856
0.502264
0.115483
-0.123543
-0.278034
0.111936
0.074364
0.291578
-0.124989
-0.166122
0.235512
0.089934
0.336867
-0.218872
-0.281061
0.438599
-0.080465
-0.123132
-0.154757
0.032643
0.298686
-0.216136
0.195263
0.014568
0.482308
0.237930
0.016300
0.017266
-0.389617
-0.027187
-0.501935
-0.428573
-0.242573
-0.274688
-0.345442
-0.576452
-0.038433
-0.161329
-0.116375
-0.007483
0.019320
-0.250740
-0.380619
0.460608
-0.299957
0.310236
0.398665
0.445905
0.153338
-0.263032
-0.604503
-0.063773
0.077148
0.228757
0.055863
-0.271741
-0.440741
0.149726
-0.273997
-0.233181
-0.379618
0.078330
0.462304
0.114256
-0.455917
-0.304691
0.102988
0.320634
0.170499
-0.272566
-0.250637
-0.499119
0.224607
0.107633
-0.573512
-0.552532
-0.590471
-0.005879
-0.274272
-0.309014
-0.478702
-0.355066
0.263167
0.165678
0.450296
-0.559767
-0.231077
-0.115534
-0.290688
0.263483
-0.200108
0.437888
-0.678295
-0.035660
0.229408
-0.345072
0.328165
-0.278115
0.286348
-0.590087
0.240067
0.092485
-0.164832
0.147202
0.054634
0.181116
-0.235423
-0.002964
0.263375
0.371217
0.033369
-0.071429
-0.479779
-0.031357
-0.269757
0.430601
-0.077789
-0.353133
-0.047541
0.007128
0.110226
-0.097291
0.349206
-0.523306
0.350806
-0.150297
0.389370
-0.248411
0.108770
-0.326756
-0.416756
0.464381
0.356602
0.411056
0.310848
-0.568891
0.278283
0.291477
0.415882
-0.275082
0.026796
0.000936
0.021305
0.235922
0.116597
-0.358164
0.348751
0.095397
-0.219160
0.432577
-0.239964
0.445302
0.415265
0.006875
0.263599
0.092425
-0.213398
0.235797
0.556722
0.106725
-0.089994
0.296463
-0.115481
0.075814
0.124839
-0.022927
-0.003097
0.501560
0.438890
0.253979
0.191394
-0.254883
0.101171
-0.288568
0.042342
0.121077
-0.063604
-0.569692
-0.301318
0.128062
0.402553
-0.280951
-0.106566
0.285634
-0.418521
0.240507
-0.179013
-0.482900
0.036143
0.208937
0.291841
0.711309
-0.222418
0.042665
0.274067
-0.031132
0.499161
-0.017952
-0.446610
0.379392
0.297296
-0.127857
0.055414
0.192893
-0.251130
-0.208288
-0.428697
-0.122470
0.439064
-0.015411
-0.083569
0.141807
0.044179
-0.197646
0.485970
0.267399
-0.133546
-0.048840
0.288005
0.209846
0.329393
-0.184464
-0.156862
0.451983
-0.323399
-0.119765
0.579855
-0.100554
-0.185448
0.336225
-0.062144
-0.323875
-0.024224
-0.284042
0.377516
0.232776
0.087161
-0.298425
0.047560
-0.309558
0.344758
-0.187792
0.252660
0.375551
-0.514906
0.330233
0.463889
0.104216
-0.074900
0.151020
-0.263061
0.156183
0.067376
-0.558630
0.099735
0.024163
0.222401
0.405258
0.577360
-0.192959
0.372845
-0.080840
-0.050411
0.717722
0.155944
-0.221963
-0.076603
0.455596
-0.079207
0.013258
-0.047872
0.400657
0.239006
0.242599
0.136673
0.929646
0.509664
-0.158513
-0.380547
-0.267617
0.522042
0.353092
0.430596
0.296868
-0.402907
-0.031164
-0.273553
0.403799
-0.118078
0.076375
0.017989
0.086779
-0.228929
0.290795
0.190296
0.000009
-0.417001
0.071867
0.453538
0.049959
0.316399
0.093836
0.489871
0.345551
-0.071928
-0.069209
0.344422
0.461703
0.099972
0.091877
-0.272845
-0.191188
-0.263544
-0.156665
0.328373
0.298348
0.131800
0.215040
-0.132923
-0.539831
0.284766
-0.560881
-0.387022
0.050689
0.417189
-0.377615
0.222221
0.191418
0.104100
-0.092326
-0.181383
-0.350789
-0.044965
0.274402
0.003474
0.487450
-0.219600
-0.196864
0.390742
-0.407620
0.114024
0.169435
0.414361
-0.349786
0.546997
-0.131905
-0.446956
-0.245501
-0.057694
-0.523895
-0.353463
0.332121
-0.038443
0.148385
0.393318
-0.456526
-0.304103
-0.258773
-0.030954
-0.127550
-0.227269
-0.232964
-0.452950
-0.104221
-0.119309
0.105426
-0.465107
0.229201
0.220897
0.437391
-0.573242
-0.573371
-0.251288
0.275445
0.355257
-0.189558
0.031989
0.364498
0.221767
0.345628
-0.234306
-0.697532
0.244742
0.156994
-0.014792
-0.592009
0.243335
