0.522281
-0.556818
0.168843
-0.571313
-0.210873
-0.559649
0.142715
-0.197304
-0.101787
0.103867
0.123763
0.195831
0.033351
0.534262
0.415445
0.602756
-0.485603
-0.213391
0.392693
-0.672170
0.470103
-0.206532
0.216889
-0.390294
0.395393
-0.303817
0.751172
-0.348476
0.459346
-0.178723
0.538363
-0.544707
-0.418992
-0.203278
-0.088391
0.119710
0.434842
0.004074
-0.068028
0.154536
0.076491
-0.069705
-0.320541
-0.450861
-0.311442
0.484112
0.434023
0.073268
0.160853
-0.386958
-0.057826
-0.216270
-0.711775
-0.528289
-0.102419
-0.416010
0.302637
-0.406399
-0.347698
0.282184
-0.296388
-0.179969
0.342953
-0.476291
0.397272
-0.432813
0.286153
-0.306641
-0.387125
-0.428610
0.084267
0.219459
0.225774
-0.303477
0.496805
0.222121
-0.363037
0.389620
0.296554
-0.490970
0.195421
0.001226
-0.334025
0.195414
-0.024787
-0.169424
-0.058604
-0.148639
0.138929
0.238458
-0.062494
0.616686
-0.157591
-0.178443
0.156841
-0.643310
0.097739
-0.411980
0.399441
-0.257054
-0.389032
-0.387848
0.052268
-0.160333
0.331062
-0.262038
0.450918
-0.181733
0.366557
-0.307557
-0.254034
0.173042
-0.332974
-0.153959
0.210136
0.489732
0.209201
0.100108
0.111927
-0.437883
-0.389645
0.341842
0.041187
-0.159164
-0.367923
0.410380
0.165878
0.115858
-0.170574
0.026785
0.714087
-0.288062
0.233025
-0.008125
-0.343047
-0.261328
0.254307
-0.089789
-0.166937
0.585715
0.082120
-0.070550
0.361904
0.400406
-0.374184
-0.137121
0.545849
-0.519205
-0.117996
-0.678397
0.091740
-0.330268
0.649363
-0.133560
-0.168841
0.455407
0.121005
-0.227810
-0.404563
-0.285868
-0.435627
0.010586
0.515025
0.152984
0.056798
-0.321035
-0.242429
-0.264633
-0.234466
0.051575
0.297784
0.360261
0.107467
0.472351
0.040123
-0.099720
0.188063
0.317312
-0.222444
-0.279556
0.585546
0.065592
-0.249996
-0.278386
-0.532932
0.231345
0.072368
0.339001
0.294575
0.279888
0.508573
0.414974
-0.542001
0.000512
0.314868
-0.056610
0.140961
0.729691
0.127627
-0.445392
0.199212
-0.193710
-0.539418
-0.272077
-0.423568
0.004051
-0.312992
0.163295
-0.212200
-0.092268
0.061551
0.325897
0.128975
0.457900
0.418433
0.505566
-0.060187
-0.041203
-0.109241
-0.411172
-0.247892
-0.496040
0.589066
0.168442
-0.160957
-0.059271
0.237290
-0.391250
0.168026
-0.459021
0.706504
-0.117178
-0.334186
-0.143183
0.623600
-0.298925
0.144882
-0.243987
-0.186956
-0.217888
0.371396
0.005305
0.103786
0.252278
0.738826
-0.257403
0.574533
0.001092
-0.292952
0.080968
0.127097
-0.359224
0.136342
0.271406
-0.117652
0.231884
0.521873
-0.202445
0.470780
0.281378
0.098533
0.241126
-0.417888
0.015306
-0.347388
-0.170308
-0.465909
0.659503
-0.009192
-0.349011
0.070743
-0.549233
0.029282
0.263339
-0.531316
-0.443007
-0.206512
0.072442
-0.030471
-0.192718
-0.426123
-0.327704
0.196754
0.184195
-0.022149
-0.241079
-0.247765
-0.075638
-0.588443
0.141205
-0.212719
0.586725
0.178066
-0.479609
0.332749
-0.051167
0.287192
-0.472704
0.416718
0.413516
0.295395
0.462738
0.001756
-0.250470
-0.346614
0.036588
0.048048
-0.388389
0.139555
0.294456
0.550033
-0.528380
0.216781
-0.104818
0.601107
-0.002713
-0.068463
0.142571
0.082362
0.008715
-0.055503
0.521679
0.022142
0.016302
0.060571
0.712841
0.601025
-0.266937
0.010029
0.521459
0.249952
-0.120880
-0.564774
0.636368
-0.044605
0.209422
-0.047815
0.181776
-0.391453
0.462953
-0.256793
0.325911
0.007044
0.178024
0.503493
0.031724
-0.178454
-0.478385
0.284262
-0.100181
0.237093
0.181070
-0.077813
-0.611381
0.115099
-0.041077
-0.211030
0.037653
0.561966
0.118573
0.166654
0.443440
0.243691
0.220201
0.397798
0.252174
0.110823
-0.207710
-0.117226
-0.018420
0.604462
0.497406
-0.455570
-0.311619
0.049666
0.088460
-0.600229
-0.142378
-0.538169
-0.578318
0.089077
-0.025154
0.190502
-0.135636
-0.135366
-0.443826
0.509147
-0.509792
0.196034
0.033699
-0.064613
-0.124954
-0.263180
0.022122
0.308948
-0.059183
0.172488
0.583380
0.403135
-0.340315
0.239696
-0.224445
0.158688
0.004036
-0.019182
-0.486818
-0.283059
-0.482624
0.052050
0.317704
0.133389
-0.171589
0.549456
0.348986
-0.233653
-0.296810
0.124901
-0.165674
-0.027407
-0.354758
0.277367
-0.145085
-0.020012
0.193540
0.579602
-0.369870
-0.339377
0.223215
-0.223482
0.247493
0.364902
0.295851
-0.531909
0.329792
0.331185
-0.006779
-0.068563
-0.318778
0.073203
0.365329
-0.029682
0.048003
-0.382325
-0.333582
0.038329
0.344392
0.113025
-0.022030
-0.202105
0.242605
0.230364
0.114473
-0.473103
-0.108697
0.110817
0.206663
-0.606444
0.217498
-0.129875
-0.161653
0.501127
0.352339
0.140692
0.299193
-0.241597
-0.178853
-0.126068
-0.135319
-0.052223
0.329095
-0.019836
0.055134
0.346385
-0.134217
-0.631759
0.043592
0.167135
0.200320
0.420511
-0.358421
0.348318
0.221499
0.395660
0.289363
-0.188793
-0.455231
-0.339083
-0.284104
0.137223
-0.206801
0.211575
-0.534376
-0.211397
-0.089948
0.724940
-0.516396
-0.147149
-0.213732
-0.146358
-0.332561
-0.130708
0.324956
-0.308123
-0.054689
0.264794
0.602979
-0.646946
0.598475
-0.243404
0.168164
0.367083
0.134557
0.056166
-0.114382
-0.426227
0.388675
-0.486934
-0.369820
0.380253
-0.346187
0.476116
0.645570
0.126927
0.049783
-0.173513
-0.390892
-0.264962
-0.174377
0.035592
0.044342
-0.059744
0.121566
0.527284
0.048332
0.347614
-0.401429
0.107288
-0.406678
0.025760
0.381685
0.064605
0.410755
-0.138370
-0.134832
-0.277880
0.030764
-0.094353
0.039390
0.011761
0.609630
0.524948
-0.285391
0.101315
0.742274
0.182321
-0.380333
0.349886
0.367742
-0.479923
-0.216726
-0.368517
-0.545797
-0.262074
-0.005367
-0.366826
0.169760
0.237880
-0.269101
-0.666227
0.535768
-0.384910
0.233284
-0.522764
0.089067
0.488149
0.471984
0.369366
-0.175024
-0.457903
-0.092263
0.652605
0.088310
0.380346
0.610494
-0.200714
0.187484
0.458529
-0.287067
0.607179
0.534994
0.269904
0.315491
-0.306238
0.084243
0.679915
-0.212517
0.722900
-0.077362
-0.103970
0.288824
-0.089247
-0.303910
-0.188470
0.367968
-0.382939
0.492339
-0.592594
-0.421463
0.782071
-0.431030
-0.553923
-0.276694
-0.267947
0.451120
-0.614050
0.370780
-0.247940
-0.220474
-0.429642
-0.115325
-0.000528
-0.124729
0.308668
0.071620
-0.686906
0.190131
-0.129961
0.348084
-0.381974
-0.093891
-0.480586
-0.253149
0.327697
0.138937
-0.561941
0.196119
-0.240243
0.302491
-0.297027
0.325890
0.377094
-0.134022
-0.086816
-0.168444
-0.098452
-0.528464
0.263909
0.290212
0.130370
-0.400296
0.303803
-0.518206
-0.197658
-0.511105
-0.490475
-0.611603
0.301905
0.144321
0.061671
0.402117
0.314167
-0.081182
0.258954
-0.411850
0.096730
0.036611
0.501823
0.302701
-0.585903
0.046634
-0.125946
-0.173784
-0.234800
0.084041
-0.116119
0.150551
0.083984
0.004129
-0.032426
0.489384
-0.316899
-0.319820
-0.512426
0.250545
-0.142567
0.725047
0.460965
-0.321807
-0.418063
0.331831
0.266479
0.094298
-0.296888
0.237117
-0.125942
0.416194
-0.713197
-0.484872
0.029007
0.092712
-0.198703
-0.710734
-0.047088
0.693073
0.683888
0.064921
0.219938
0.385341
-0.179157
0.356919
-0.136078
0.338064
-0.295956
0.037350
0.367231
0.701424
0.317447
-0.042043
-0.136464
-0.147369
-0.587427
0.450743
0.127668
0.205304
-0.566205
-0.141366
-0.406134
-0.228585
-0.083699
-0.414247
0.025873
0.035815
0.384223
0.304285
-0.442460
-0.251734
-0.052859
-0.307650
-0.246377
0.601429
-0.363052
-0.181689
-0.352419
-0.540665
0.116338
0.080684
-0.127869
0.271497
0.062911
0.264166
0.368292
-0.203922
-0.668387
-0.410621
-0.114405
-0.337891
-0.376436
-0.805013
-0.434226
-0.409236
0.020488
0.101603
0.005545
0.342777
-0.094951
0.012327
-0.023523
0.367876
0.436097
-0.004932
0.154826
0.241700
-0.506557
0.437921
0.504915
0.554187
0.397876
0.360397
-0.054560
-0.588617
-0.200507
-0.319106
0.545699
-0.156128
-0.095661
-0.321549
0.133622
0.264081
0.349736
-0.423560
-0.064586
-0.424513
0.343668
0.531053
-0.728236
-0.083637
0.487954
-0.138718
-0.059509
-0.473159
-0.366212
-0.126540
0.589926
0.076500
0.072349
0.015490
-0.629579
0.240471
0.341304
0.111515
0.023406
0.318494
0.654388
-0.189499
-0.071302
0.261625
