0.184555
-0.135876
-0.089500
0.119223
-0.313259
-0.123388
-0.163630
-0.110948
0.424858
-0.009668
-0.108658
0.101282
0.039851
-0.308948
-0.370186
-0.316919
-0.264165
-0.188533
0.208414
0.186620
0.311844
-0.595028
0.050978
0.603489
0.132927
0.292460
0.380418
0.037807
0.286852
0.503523
0.243393
0.285448
0.153388
0.136602
0.180174
0.282796
0.543699
-0.566284
-0.713621
0.112971
0.095637
0.595530
-0.142783
0.210973
-0.385869
0.380837
-0.292140
0.262419
0.306962
-0.472259
-0.059357
0.583647
0.277165
-0.266348
-0.030170
-0.440110
-0.345508
0.157139
0.191680
-0.365664
0.057697
0.073562
0.167557
-0.159990
0.557525
0.341596
-0.587952
-0.153733
0.351326
-0.225214
-0.156676
-0.391895
0.314180
-0.180940
0.480933
-0.065410
0.211768
-0.247367
0.101255
-0.447281
0.258104
0.304231
0.167701
-0.121607
0.515038
-0.422942
-0.092965
0.506849
-0.039308
0.138448
-0.195159
0.342680
-0.755492
-0.260290
-0.293854
-0.420619
0.261825
0.732807
0.658596
-0.157197
0.778190
0.267572
0.238194
0.281355
-0.197859
-0.383566
0.536754
0.211391
0.072757
0.286241
0.139580
-0.418656
-0.092987
0.047683
-0.111252
-0.173705
0.221303
0.144508
0.322968
0.565308
-0.525343
-0.329234
-0.117218
-0.019569
-0.252671
-0.308990
-0.088826
-0.056701
0.291721
-0.118705
-0.302709
-0.516330
-0.352491
0.363363
-0.582540
-0.451192
0.007571
-0.460677
0.462688
0.012996
-0.601214
-0.412497
-0.078747
0.067971
-0.054182
0.292172
-0.525961
0.632004
0.503713
0.517311
-0.320713
0.161726
0.041481
-0.127213
-0.340438
-0.408879
-0.227147
0.126881
0.394392
-0.077960
-0.186497
-0.222573
0.199621
0.489075
0.322602
-0.249919
-0.303017
-0.282837
-0.146255
0.348954
-0.150169
-0.092083
0.020929
0.566709
0.176030
-0.223789
0.529385
-0.122249
-0.170903
0.224475
-0.131651
-0.446581
-0.049102
0.540260
0.384982
0.193075
0.509165
0.541298
-0.296739
0.219489
0.515717
-0.162744
-0.394837
-0.296360
-0.279187
-0.053399
-0.387374
-0.378137
0.021706
-0.579244
0.359790
-0.003063
-0.201557
-0.174796
0.333639
0.194725
0.207238
-0.544133
0.346133
0.296158
0.552751
-0.314608
0.154753
-0.478009
-0.037191
-0.216280
-0.076449
-0.155264
0.118756
0.229437
-0.166721
-0.616415
-0.392225
0.028902
-0.593417
0.220217
0.706363
-0.350513
0.245138
0.094257
0.561726
-0.722468
0.248221
0.023013
-0.347521
0.298273
-0.136167
0.030020
-0.215880
-0.344793
-0.526415
-0.277137
-0.639910
-0.258245
0.845638
-0.134395
-0.112585
-0.106626
0.106931
0.207346
-0.310188
-0.057531
-0.346725
-0.177539
0.571176
-0.227589
0.216237
-0.435597
0.421032
-0.403193
0.516422
-0.415615
-0.410189
0.443879
0.501375
-0.322941
-0.480203
0.342544
0.160157
0.403923
-0.045509
-0.220675
-0.211264
0.273938
-0.402738
0.028592
0.094351
0.005288
0.173261
0.277216
0.197705
0.315206
0.479458
-0.178020
0.212593
0.000847
-0.059538
-0.079057
-0.356265
-0.171480
-0.131740
-0.344453
-0.417095
-0.010319
-0.566124
-0.155563
-0.309876
-0.610990
-0.021171
0.248675
-0.094690
-0.329726
-0.168344
0.413935
0.086106
0.314603
-0.198352
-0.499271
0.213684
-0.162525
-0.439444
-0.062624
0.273302
0.390517
0.186849
-0.278760
0.079391
-0.326164
-0.305553
0.042939
-0.100587
0.132069
-0.188975
0.144610
-0.178800
0.291820
0.729290
-0.075777
-0.083128
-0.537063
0.039606
-0.062118
0.254915
0.452076
-0.064339
0.086922
-0.426614
-0.166935
-0.331380
-0.045697
-0.374064
0.270602
0.319056
-0.007141
-0.003149
0.332280
0.167733
0.037144
-0.531874
0.032990
-0.442643
-0.241045
-0.415492
-0.242960
-0.190949
-0.265324
-0.289114
0.003446
0.061278
0.007060
-0.221629
0.371447
-0.281950
-0.104558
-0.584183
-0.089283
0.221146
-0.324526
-0.068999
0.160157
-0.439442
0.427947
-0.019180
-0.340384
0.542363
-0.003091
-0.173197
-0.293473
0.066296
-0.185732
-0.237822
-0.304070
0.637279
-0.864618
-0.498581
-0.063291
0.571702
-0.344614
-0.245724
-0.024459
0.034346
-0.419673
-0.360673
0.228611
0.254172
0.616772
0.132995
0.070526
-0.459060
-0.177166
0.307990
-0.448533
-0.227131
-0.529845
-0.304355
-0.442297
-0.005527
-0.450769
-0.168946
0.428993
-0.390948
-0.032591
-0.246560
0.589646
-0.557016
-0.001981
-0.294005
0.312777
-0.237091
0.337913
0.246062
0.059802
0.089890
0.058983
0.566530
0.369258
-0.717023
-0.723452
0.153247
-0.318358
0.398133
-0.117088
-0.590989
-0.637841
-0.073774
0.039574
0.165499
-0.080939
0.399501
0.153422
-0.217634
-0.313643
-0.495814
0.398177
-0.187934
-0.137590
-0.263210
0.106158
-0.459882
0.126417
0.325282
0.481698
0.304843
0.224059
-0.466811
0.372066
-0.351673
-0.042612
0.137101
-0.039962
0.251154
-0.221566
-0.274688
-0.276090
-0.507347
0.504532
-0.073724
0.356192
-0.471060
-0.636068
-0.064306
0.128507
-0.068866
-0.599216
0.254632
-0.260137
-0.235135
0.360209
0.225961
-0.043917
-0.420697
-0.307860
0.302458
0.158544
-0.282252
0.441167
0.335458
0.209569
-0.301262
-0.151631
0.194061
-0.388845
-0.040967
-0.013685
0.310707
-0.276935
-0.236005
-0.076062
0.306179
0.531547
0.539135
0.064465
-0.445224
0.661595
0.438117
0.047190
0.274434
-0.115156
0.284040
-0.462983
-0.124778
0.183580
-0.237598
-0.046678
-0.298211
0.468110
0.425955
0.200155
-0.198356
-0.322039
-0.168455
0.402371
0.259065
0.140266
-0.207043
0.260627
-0.427794
0.577934
0.074279
0.358469
0.037744
-0.252199
0.081151
0.436605
0.164160
0.364989
0.218944
-0.201817
-0.235372
-0.092366
-0.427013
0.196189
0.007419
0.353393
-0.021978
0.366809
-0.674289
0.216012
-0.621089
0.253992
0.336281
-0.529828
0.369639
-0.064611
0.002355
-0.274452
0.049979
0.436166
0.375181
-0.326585
-0.449927
-0.310007
-0.063440
0.656628
0.252935
-0.323345
-0.322504
-0.210836
-0.432541
0.105206
-0.214629
-0.155702
0.264897
-0.104657
0.188063
0.063139
-0.167308
-0.108530
-0.226983
0.010847
-0.423923
-0.126932
-0.253118
0.049600
-0.454235
-0.132984
0.196177
-0.512995
-0.072034
-0.076991
0.164510
-0.066043
-0.305998
0.211663
-0.407549
-0.216351
0.458146
0.473856
-0.145954
0.232391
-0.223627
-0.152613
-0.305201
-0.090723
0.134678
0.462197
0.063506
0.304653
0.118604
-0.408293
-0.329829
-0.294886
-0.118542
-0.120644
-0.417128
-0.412121
-0.085599
-0.321665
-0.184702
0.153458
-0.207189
0.069373
-0.356144
-0.308580
-0.590148
0.264966
-0.044241
0.209456
-0.189390
-0.344500
-0.045769
-0.349524
0.117216
0.573542
-0.525725
0.451954
0.442003
-0.089783
0.635761
-0.045234
-0.509668
0.000367
-0.104272
-0.065470
0.380975
0.225437
0.425778
-0.340207
0.427426
0.214310
0.519469
-0.624506
-0.300203
-0.067507
-0.347572
0.433266
-0.223686
0.153170
0.032734
-0.060416
-0.203912
-0.279039
0.064850
-0.027058
0.128154
0.363813
0.413691
0.028444
-0.083510
0.048047
0.304314
-0.146969
0.061172
-0.545784
0.047689
0.052903
-0.285787
-0.046454
0.535447
-0.086754
-0.405189
0.312194
-0.893577
0.050062
-0.139950
-0.437893
0.163412
0.254289
0.126066
0.414658
0.194240
-0.021292
-0.540032
0.342911
0.286698
-0.290190
0.450280
0.002042
-0.645809
-0.086952
0.583486
-0.009828
0.008535
-0.352502
0.387769
-0.022893
0.018572
0.316124
0.405276
-0.267298
-0.066036
-0.457173
-0.043004
0.195576
-0.286318
0.278478
-0.501223
0.127340
0.089232
0.170870
-0.398196
0.855100
0.268557
0.256616
-0.416662
-0.498056
-0.329204
0.446807
-0.141019
-0.361486
0.168549
0.482627
0.259359
-0.069782
-0.023550
-0.363761
0.141034
0.256966
-0.631481
-0.461359
-0.232124
-0.166085
0.111175
-0.029834
0.428109
-0.019260
-0.135462
0.241762
-0.458447
-0.465224
-0.383930
0.175741
0.566447
0.564142
-0.248212
0.045274
-0.576456
0.201833
-0.318539
0.240220
0.629017
-0.044965
-0.482328
-0.078678
-0.283277
0.077378
0.022160
0.193017
0.665425
0.238314
0.055485
0.111103
-0.338718
0.300698
0.163679
0.218360
-0.290083
-0.458549
-0.116244
-0.277201
0.380697
0.102963
0.107775
-0.525636
-0.311619
-0.267127
-0.052935
0.390424
0.033765
-0.252941
-0.220931
-0.512992
-0.194299
0.609390
-0.636365
0.169136
0.236951
0.553104
0.497398
-0.452219
0.259994
0.319882
-0.187789
0.129293
0.255435
0.013342
-0.732142
0.522128
-0.205934
-0.434615
0.704744
0.321794
-0.199338
-0.131563
0.056969
-0.239742
