0.041650
-0.425641
-0.497536
-0.040956
0.082978
-0.070313
0.459611
0.281548
0.396185
0.239946
-0.228021
-0.278717
-0.119709
-0.019374
-0.067012
0.312737
-0.485730
-0.276461
0.133660
-0.150208
0.416094
0.290247
0.122482
0.455969
0.413306
0.267283
0.166447
0.696722
-0.274286
0.429158
0.293742
0.338318
0.153388
-0.045681
0.180174
0.017821
0.635398
-0.503901
0.366093
0.158503
0.569027
0.403771
0.104343
0.085238
-0.447624
-0.545074
-0.292140
-0.217355
0.320581
0.052553
-0.426196
-0.107345
0.274416
-0.346919
-0.101554
0.467662
0.078835
-0.231446
0.337351
-0.485936
-0.307151
0.108211
0.231000
-0.145265
-0.446327
-0.299831
0.507647
0.058551
0.453377
0.246386
0.261737
0.089196
0.464301
-0.098559
0.150645
0.095811
0.211768
-0.150169
0.020937
-0.395199
-0.490605
0.325198
-0.446907
-0.423116
0.374595
-0.341349
-0.175521
-0.162256
0.319866
-0.063904
-0.188788
0.432738
-0.476769
-0.162260
0.043087
0.188616
0.106156
-0.309715
-0.541163
0.300389
0.031321
0.078019
-0.123446
0.281355
-0.178741
0.141509
0.737486
-0.414368
0.853258
0.326315
0.253073
0.114814
-0.115478
0.040323
0.054607
-0.128394
0.242592
0.386390
-0.131211
-0.190432
0.301852
0.345439
0.018087
-0.274782
-0.342016
0.093280
-0.044987
-0.200704
0.271062
0.282767
0.618973
0.233773
0.113009
0.279213
-0.510789
0.300654
0.044581
-0.391850
-0.363355
0.029640
0.166432
-0.419407
-0.198252
0.120856
0.349085
0.133904
0.588622
0.466967
-0.304470
-0.043449
0.265373
-0.139199
0.430353
-0.247292
-0.212643
-0.669583
-0.070335
-0.294713
0.228272
-0.362659
0.142244
0.364490
0.632194
0.482480
0.295481
0.726985
-0.134986
0.213826
-0.284082
0.299275
0.030803
-0.094341
-0.097780
0.546237
0.106755
0.453382
-0.353790
-0.182178
-0.136567
0.337691
0.010785
0.019871
-0.353134
0.507688
-0.152052
0.182699
0.006877
0.426357
-0.028950
0.035506
0.515717
-0.162744
0.152969
0.050441
-0.328001
-0.014397
-0.472439
-0.044475
0.211953
0.112906
0.136892
0.553991
-0.375358
-0.359110
-0.320650
0.273168
-0.276625
-0.121539
-0.333642
0.138165
-0.332318
0.398262
-0.311722
-0.500105
-0.507590
0.161605
0.180701
0.157592
0.012792
0.106048
-0.526066
0.128774
-0.392225
0.028902
-0.426893
0.341411
0.875812
0.267008
-0.290036
0.062551
0.161109
-0.420184
-0.123799
0.105042
0.562528
0.036024
-0.019727
0.063017
-0.591616
0.195811
0.152123
0.008957
-0.540557
-0.147069
-0.508374
0.370420
0.556549
-0.263254
-0.625699
-0.570927
0.235692
0.329147
0.215048
0.265430
-0.178291
-0.227589
-0.520391
0.575942
0.364186
-0.492525
-0.129993
-0.483864
-0.371737
0.606206
0.015115
-0.309664
-0.086507
0.418868
0.139475
-0.131252
-0.045509
0.085679
0.532562
-0.197506
-0.215303
0.069692
0.094351
0.138996
-0.424713
0.347346
0.169455
-0.149672
0.390082
-0.008781
0.167868
0.467930
-0.443147
-0.101360
0.340896
-0.171480
-0.051928
-0.251848
-0.335332
0.341258
0.562682
-0.044011
-0.209754
-0.170368
-0.247897
-0.174273
-0.574666
0.049387
0.260474
-0.128763
-0.352580
0.118436
-0.374584
0.044145
0.091963
-0.249207
0.327961
0.045678
0.232744
-0.068481
0.253422
-0.185840
0.229707
-0.394201
-0.298942
-0.160621
-0.542509
0.655152
-0.370187
0.322605
-0.512974
-0.218933
0.349572
-0.071063
0.039052
0.213344
-0.010483
-0.073154
0.250183
0.442079
0.339145
0.248015
-0.396278
-0.495705
-0.388951
-0.148522
0.376593
-0.326626
-0.231242
-0.061176
-0.019702
0.040239
-0.052033
-0.631248
-0.511744
-0.561983
-0.543500
-0.178069
-0.739249
-0.151190
0.460305
-0.265324
-0.492431
-0.026378
0.692928
-0.302036
0.384069
0.135349
-0.506369
0.201095
-0.458370
-0.123786
0.201066
-0.105938
0.491560
0.160157
0.095138
0.154754
0.080611
0.062576
-0.115655
-0.200119
-0.217152
-0.129341
0.061075
0.225236
0.433107
-0.254786
-0.231072
-0.290587
-0.377257
-0.055918
0.112526
-0.301790
0.049076
0.029477
-0.227510
-0.516447
-0.104576
0.202590
0.344586
0.529178
0.588850
-0.192663
-0.168975
-0.026950
0.250682
-0.423436
-0.286691
0.232217
0.703061
0.015063
-0.014137
-0.236876
-0.184150
0.453119
-0.117869
-0.139559
-0.246560
0.311423
-0.439410
-0.009224
0.187278
-0.320447
-0.139086
0.397570
-0.470127
0.335049
0.065298
-0.322674
0.741592
0.289185
0.318328
0.226437
0.242976
-0.251972
0.398133
-0.280627
-0.410201
-0.033265
-0.461932
-0.268067
-0.192368
-0.301039
-0.569089
-0.293933
-0.122754
0.664387
-0.273967
-0.501527
-0.187934
-0.400485
0.130762
-0.669522
-0.178260
-0.605954
0.650732
0.103295
-0.078610
0.211802
0.388859
0.007545
0.252947
0.123906
0.450993
0.005538
0.090995
-0.447862
-0.274688
-0.221467
-0.559719
0.031507
0.037660
-0.228623
-0.510304
-0.297826
-0.130976
-0.262891
-0.103348
0.491129
-0.025689
0.040229
-0.173101
-0.257332
-0.161407
-0.114196
-0.511085
-0.271821
0.331576
-0.262461
-0.026894
-0.520296
0.180287
0.125292
0.144788
0.526292
0.098190
-0.212795
-0.052056
-0.013685
-0.158879
-0.323804
-0.126322
-0.102509
-0.472441
-0.334406
-0.441657
0.277968
0.542106
0.462327
0.340340
0.080868
-0.055801
0.296378
0.189116
0.549525
0.633701
0.018105
0.058520
-0.056005
0.069462
-0.366807
0.045325
0.200155
0.186825
0.517051
-0.048311
0.545512
0.023490
0.112111
-0.347093
0.239838
-0.455524
0.200717
0.248097
-0.274642
0.185214
-0.195004
-0.303907
0.051469
0.100867
0.271113
0.405054
-0.191346
-0.003403
0.000775
-0.361022
0.582351
0.145555
-0.724320
0.313912
0.143725
0.325365
0.113423
0.525705
-0.332440
0.406991
-0.615729
0.108463
-0.064611
-0.018260
-0.064517
0.056673
-0.495922
-0.347312
-0.394794
-0.449927
-0.241269
0.130885
0.634544
0.252935
0.403209
0.148121
-0.093324
-0.060805
-0.523588
0.028158
-0.177257
0.310959
-0.176054
0.063663
-0.062916
-0.251956
-0.357769
-0.113468
0.457696
0.087114
-0.118765
-0.486926
-0.094536
-0.009363
0.241258
-0.031182
-0.067168
-0.105411
0.145422
0.156718
-0.319195
-0.153757
-0.267316
-0.511623
0.281275
-0.347506
0.452439
0.253979
-0.393123
0.467347
-0.079619
0.622043
0.279309
-0.164880
0.249914
-0.722227
0.304653
-0.037640
0.147792
-0.171176
0.532905
-0.262193
-0.180455
0.184600
-0.304900
0.492006
-0.300795
0.268147
-0.194773
-0.309233
0.070938
0.480220
0.361860
-0.097022
0.364242
0.577182
0.162697
-0.197965
0.157075
-0.050635
0.405691
-0.278562
0.501398
0.235352
-0.178303
-0.575553
0.190972
0.068796
-0.616933
0.391907
0.111505
0.585527
0.527988
-0.530665
0.422043
0.508393
0.351156
0.372795
-0.030636
0.358137
-0.562304
-0.058323
-0.505622
-0.317979
0.613408
-0.141144
-0.228644
-0.235582
0.533911
-0.261402
-0.058520
-0.302308
-0.468621
0.050710
-0.336214
0.033756
-0.339790
0.066368
0.048047
-0.078403
-0.326858
0.061172
-0.247481
0.047689
0.406514
-0.052672
-0.046454
-0.068988
0.452071
-0.354824
-0.561229
0.653939
-0.488279
-0.399504
-0.289832
0.163412
-0.060001
0.329594
0.414658
0.267867
0.296144
-0.610806
-0.605641
0.308334
0.381709
-0.074155
0.511465
0.259841
-0.232937
0.191616
-0.131660
0.033359
0.287724
0.273731
0.070316
0.397821
0.329305
-0.032803
-0.214267
-0.145488
-0.068695
-0.043004
-0.526740
0.022999
-0.168566
0.034364
-0.133437
0.350505
0.190336
-0.156856
0.083377
-0.233982
0.023231
0.277828
-0.045736
0.121219
-0.453827
-0.265719
-0.098493
0.115528
0.333134
0.067627
0.066293
0.227017
0.151806
0.203122
0.210154
0.212522
0.297522
-0.166989
-0.221255
0.044894
0.031334
-0.515820
0.016814
-0.368997
0.191365
-0.519649
-0.187175
-0.483877
0.060410
0.489958
0.270477
-0.321253
0.126259
0.205733
0.201833
0.135158
0.331442
0.136537
-0.465578
-0.103658
0.109479
0.348934
-0.026989
0.095560
0.029726
0.509558
-0.328223
0.113102
-0.516688
-0.132552
0.209337
-0.167808
0.232613
0.377878
-0.464221
-0.134989
0.223074
-0.154818
0.248837
-0.333331
-0.465602
0.132113
-0.084002
-0.380777
0.325108
-0.276393
-0.713321
-0.253028
0.051963
-0.554249
0.565033
-0.623822
-0.361216
0.272298
0.147579
-0.174616
-0.358412
0.129366
-0.666434
-0.141030
0.200419
-0.210342
-0.143602
-0.732142
-0.207027
0.342330
0.109013
-0.013968
-0.082958
0.250994
-0.090213
0.309889
0.431512
