0.208900
-0.377500
-0.065241
-0.240804
-0.253025
0.077291
0.325716
0.445726
-0.189699
0.051623
0.268982
-0.397451
-0.378537
0.461249
-0.653356
0.593495
0.253042
-0.449276
0.261360
-0.035122
0.375511
-0.025368
-0.086012
-0.059502
-0.096284
0.264847
0.569983
-0.255323
-0.007311
0.394923
0.451033
-0.234509
-0.187931
-0.080073
0.108650
0.437142
-0.541649
0.273922
0.198434
-0.514760
0.323346
-0.539584
-0.297100
-0.198291
0.212140
0.064086
-0.443584
-0.169010
-0.207751
-0.589315
0.321489
-0.318146
-0.081528
0.101532
0.442995
-0.574833
-0.199498
-0.177348
0.397975
0.402648
0.059559
0.273269
-0.318823
-0.114853
-0.625672
0.108732
-0.477071
-0.030560
0.298095
-0.152003
0.117815
-0.176902
0.392175
0.104518
0.383858
0.195496
-0.347842
0.269239
-0.224746
-0.296605
-0.254709
0.178401
-0.359950
0.016688
0.050609
0.040295
-0.101726
0.249342
0.036485
-0.400670
0.354731
0.342336
-0.008655
-0.490460
0.147397
0.625212
0.082274
0.755369
-0.534743
0.318762
-0.564251
-0.391537
0.139024
0.281355
0.289275
0.071430
0.301215
0.020361
0.233858
-0.075403
0.301916
0.217027
0.372588
-0.067396
0.060202
-0.064641
0.324773
-0.305703
-0.071253
0.681612
0.032333
0.193941
-0.222651
0.257849
-0.355829
0.635726
-0.318764
-0.030841
0.510204
-0.501985
0.447600
-0.855892
0.156634
0.279213
0.356278
-0.296977
-0.400837
0.216217
0.098702
0.024080
0.026975
-0.405535
-0.496939
-0.307399
0.168659
0.368504
0.524364
-0.477821
-0.516857
0.333047
-0.247320
-0.217327
-0.254801
-0.273615
-0.306284
0.524108
-0.221773
-0.320253
0.561880
-0.285868
-0.434374
0.100596
0.557986
-0.381121
-0.152330
0.343687
-0.300378
-0.443484
0.261672
0.455753
0.280071
0.077445
0.010499
-0.286287
0.083369
-0.141265
-0.285313
-0.132088
0.071350
0.337691
0.530602
0.236996
0.101437
0.176153
-0.107014
-0.417889
0.035820
0.244954
-0.010247
-0.408786
0.415883
0.576107
-0.372114
0.452629
0.037274
-0.075819
-0.231756
0.180851
-0.106331
0.508475
0.341782
-0.036621
-0.528199
-0.120574
-0.362410
-0.073670
0.171880
-0.038329
0.266803
0.314564
0.035484
-0.170247
0.507827
-0.168913
-0.103960
0.174189
0.050389
-0.250382
0.697113
0.421025
-0.177079
0.059670
-0.376121
-0.628195
-0.103594
0.582113
-0.407238
-0.139589
-0.022853
-0.057021
-0.072986
-0.470280
-0.386530
-0.443669
0.387079
-0.482225
-0.280627
-0.068467
-0.524385
0.831882
-0.538613
0.020733
-0.325020
-0.220010
-0.464767
0.102454
0.290459
0.084985
-0.371085
0.281996
0.124098
-0.343097
-0.135240
-0.413463
0.196451
-0.474016
0.330244
0.532058
0.213014
0.428150
-0.015257
0.248074
-0.255628
-0.342687
0.544622
0.170152
-0.159125
0.079948
-0.046829
-0.314186
-0.391354
-0.823703
0.489607
0.463282
-0.332547
-0.244175
0.090683
0.531335
0.543694
-0.024498
0.583229
-0.294350
-0.295277
0.143391
0.128097
-0.239163
-0.235428
0.030075
0.342630
-0.236653
-0.512991
-0.304619
0.127524
0.371664
0.004125
0.009689
-0.711072
-0.109310
0.378962
-0.049649
-0.184583
-0.541343
-0.460890
0.084831
-0.097814
0.076993
-0.336515
0.035230
-0.376619
0.546401
0.018507
-0.553064
0.147439
-0.143846
-0.393498
-0.102108
-0.166100
-0.233490
0.455102
0.435923
0.129327
-0.101073
-0.161124
0.616603
0.201841
-0.169330
0.624946
0.494136
-0.427331
-0.203894
0.232634
-0.345622
0.425302
0.228490
0.031005
0.248015
0.136885
0.273872
-0.347288
0.498189
0.155381
0.325911
0.486960
0.180197
-0.190600
0.308018
-0.098657
-0.166460
-0.189913
0.136051
-0.437920
-0.288768
0.148943
0.646309
0.001982
0.040534
-0.214339
0.541705
0.527625
-0.151074
-0.019397
0.334799
-0.175244
-0.447833
-0.719015
-0.398887
-0.426394
0.336452
0.261064
-0.674609
-0.134186
-0.371848
0.007403
0.534363
0.094457
0.043642
0.579871
-0.558871
-0.040372
0.346760
-0.020524
0.092953
-0.185364
-0.078255
-0.473570
-0.004177
-0.015296
-0.216417
0.035548
0.489128
0.313515
-0.065326
0.293900
0.746183
0.333444
-0.513561
-0.264314
0.560784
-0.181671
-0.494789
0.246986
-0.359619
-0.084561
0.210790
-0.120235
0.336981
-0.241933
-0.163756
-0.245348
0.166104
0.442842
0.151563
0.126305
0.689027
-0.311127
0.034869
0.031343
0.244177
-0.447273
0.608395
-0.133662
0.097434
-0.076122
-0.161127
-0.302273
-0.121733
0.241655
-0.661233
0.721728
-0.203466
0.061086
0.109553
-0.394970
-0.730422
0.337254
0.107899
0.173497
-0.382713
0.329330
-0.481222
0.534437
0.003154
0.237405
-0.304976
0.240268
-0.144624
0.056744
-0.011659
0.351725
0.059872
0.133043
-0.076545
0.251252
-0.410609
0.217522
-0.660323
0.353948
0.234207
-0.268377
-0.275704
-0.151085
-0.112141
-0.604195
0.648563
-0.140318
0.006639
-0.483634
-0.064088
-0.113785
-0.274181
-0.048159
0.200883
0.586442
0.356656
-0.025689
0.132138
-0.321657
0.292103
-0.081710
0.401986
-0.326076
0.016625
0.027215
0.188882
-0.404023
0.260689
-0.130824
-0.149753
-0.394579
0.449263
0.155056
-0.329478
-0.387783
0.500793
-0.070906
-0.148310
0.326188
-0.059353
0.125253
-0.334237
-0.634088
0.416684
-0.013206
0.462226
-0.491453
-0.159395
-0.283506
-0.499362
-0.436522
0.590142
0.695243
0.093488
-0.039755
0.035903
-0.458477
-0.457349
0.400117
-0.541697
0.511211
0.202949
-0.315711
0.352015
0.308039
-0.011894
0.174539
0.247909
0.572416
0.213975
-0.112634
-0.325527
0.223484
-0.034222
-0.539888
0.335778
0.250224
0.080008
0.265805
0.633115
0.215336
-0.071424
-0.610765
0.220921
0.615350
-0.037926
0.114732
0.400601
0.325365
-0.306575
0.100902
0.195519
-0.043592
0.446156
-0.574079
-0.198812
-0.140080
0.026371
-0.484831
0.211541
-0.347312
-0.183156
0.220434
0.173499
0.041272
-0.290667
0.092032
0.244498
-0.426566
-0.170937
0.249078
-0.525407
0.385667
-0.073051
-0.184599
0.023254
-0.254211
-0.094799
0.127750
-0.394104
0.502315
0.041911
0.046315
-0.170047
-0.568807
0.398566
-0.106385
0.354941
-0.457723
-0.192267
-0.170229
0.489190
-0.074803
0.240394
-0.111933
0.140603
0.080269
-0.462344
0.273330
0.473817
0.158116
0.455688
-0.230466
-0.315771
-0.356438
0.474717
-0.300174
-0.658263
-0.755710
-0.389969
0.037951
0.338257
0.104612
0.412163
-0.267947
-0.094309
0.137372
-0.429653
-0.539642
0.127808
-0.366515
-0.438361
-0.282937
0.058647
0.327907
0.021973
0.239777
0.208070
0.009728
0.407683
-0.347506
0.012483
-0.315988
0.391521
0.125661
-0.351048
0.073289
0.523041
0.483575
-0.470348
0.016702
-0.023196
0.375277
-0.129194
0.043096
0.427542
-0.332301
0.547062
-0.264076
-0.525391
0.292983
0.575032
0.177777
-0.679431
-0.032200
0.632480
0.019735
0.189371
-0.312901
0.202255
0.309425
0.117540
-0.315109
-0.650918
0.037735
0.458434
0.438507
-0.141058
-0.571274
-0.044201
-0.009373
-0.387233
-0.022052
0.564336
0.361568
0.104211
0.003736
0.480922
-0.198750
-0.016692
-0.318332
-0.300544
-0.282694
-0.045586
-0.577354
0.704088
-0.009168
-0.331818
0.498631
-0.396000
-0.054524
-0.333081
-0.174452
-0.150857
0.155639
-0.030821
-0.008191
-0.081550
-0.388362
-0.044976
-0.425799
0.049548
0.528760
0.082644
-0.428030
0.423500
-0.293756
0.105963
-0.648463
0.156846
-0.699715
0.640269
0.131790
0.040836
0.281605
-0.372535
0.270631
-0.724431
0.257255
-0.758041
-0.495740
-0.217978
0.192111
0.180403
-0.226170
0.284466
0.277828
0.015145
0.223351
-0.001074
-0.229344
0.458076
0.284756
0.576735
0.236209
0.173650
0.124172
-0.393541
-0.575726
0.055536
-0.512256
0.426081
-0.376939
0.207497
-0.446688
0.329257
-0.427152
-0.252625
-0.052172
0.478620
0.502674
0.106453
-0.396209
0.315197
0.175864
0.234068
-0.279966
0.006186
-0.470443
-0.462064
-0.399222
-0.109163
0.020488
-0.689431
-0.346769
-0.188276
-0.083958
0.252486
0.110186
0.416172
0.421472
-0.361849
-0.383881
0.313676
-0.277888
-0.367843
-0.269601
-0.095982
0.327558
-0.451682
-0.315218
-0.614940
-0.125258
-0.124806
0.542242
-0.618541
0.241466
-0.217717
-0.168464
-0.457746
-0.524465
0.100491
0.444984
-0.316869
-0.078731
0.281846
0.144181
-0.361216
0.322780
0.054018
0.101480
0.193521
-0.229171
0.077378
0.175290
-0.132548
-0.232953
0.302497
-0.267904
-0.476941
0.467555
-0.364430
-0.187275
0.089534
0.155017
-0.596480
-0.317178
0.195784
