-0.138242
-0.552643
0.019082
-0.227000
-0.111973
-0.052534
0.489249
-0.061920
-0.205312
0.426129
-0.096014
0.239703
-0.392067
-0.009511
0.002087
0.376494
-0.673029
0.322909
-0.333362
-0.018214
-0.153551
-0.438696
-0.313590
-0.019195
0.364098
-0.036908
0.031263
-0.241870
-0.214392
-0.157515
0.022586
-0.087432
-0.295930
0.022354
0.671542
0.150463
0.008883
0.328161
0.002585
0.394878
0.083229
-0.238434
0.126262
-0.388487
-0.485686
0.108258
0.338909
-0.018117
-0.102363
-0.347387
-0.028536
-0.038165
-0.109972
0.382599
0.245003
0.475991
0.293805
0.272912
0.144648
-0.363444
-0.136783
0.108211
0.276910
0.616668
-0.156055
0.208111
0.162092
-0.221169
-0.336518
-0.225400
-0.330059
0.108335
0.463817
0.347453
0.096191
0.026200
-0.355278
0.416557
0.552785
-0.317153
-0.042957
-0.160627
0.238049
-0.344186
-0.146250
0.075143
0.333777
0.759575
-0.134564
-0.446302
0.127422
-0.012309
-0.464408
0.395409
-0.083823
-0.472871
0.228637
-0.481029
-0.060645
-0.557001
-0.104939
-0.014570
0.167441
0.148394
-0.146422
0.027664
0.123796
0.353259
0.089583
-0.110465
-0.085150
0.152773
-0.010605
0.434683
0.149371
0.121246
0.291770
-0.315609
-0.229329
0.053171
-0.160391
0.599530
-0.328829
-0.386491
0.105153
0.284883
-0.234600
-0.079788
0.725277
0.321558
0.438102
-0.383803
0.012518
0.290138
-0.393038
-0.104996
0.065874
0.241558
0.229277
0.567059
-0.606205
0.034465
-0.241290
-0.540366
-0.695847
0.141554
-0.090622
-0.002026
-0.344523
-0.463982
0.164237
-0.176014
0.235836
-0.374955
-0.227627
-0.603160
-0.210378
0.253858
-0.444467
-0.014982
0.039877
-0.134613
0.000546
0.471814
0.056798
0.339455
-0.334749
-0.216294
0.168892
0.224842
-0.251348
0.425398
0.068103
-0.175886
0.244576
0.067548
-0.250870
-0.589148
0.435853
0.058694
-0.134642
-0.118195
-0.213376
-0.210162
0.458775
-0.295691
0.132181
-0.025646
0.445673
-0.256486
0.386711
0.492627
-0.492804
0.008743
0.309748
0.116608
-0.405434
-0.532784
-0.508343
0.227307
-0.284993
-0.240640
0.707430
-0.240411
0.050190
-0.240887
-0.389105
-0.321555
-0.036492
-0.164650
0.088434
0.445814
0.561612
0.210105
-0.453779
0.567043
-0.131913
-0.481183
0.078791
0.591367
-0.012631
0.059718
0.089909
-0.709929
-0.404737
-0.093571
-0.577797
-0.146186
-0.040479
-0.395520
-0.291341
-0.311128
-0.080282
0.362393
0.038403
0.318562
-0.355277
-0.386573
-0.134041
-0.419969
0.431235
-0.118676
-0.684000
0.223349
-0.333093
-0.305506
-0.096141
-0.188370
-0.528458
0.268859
0.026100
0.396245
0.302458
0.000141
-0.279503
-0.379072
-0.542995
0.114380
0.259702
0.073180
0.370606
0.406159
-0.218816
-0.401591
0.289531
-0.072344
-0.055801
-0.253235
0.304029
0.307542
-0.258785
-0.299576
0.406301
0.107345
0.267089
-0.117933
-0.177525
0.401591
-0.164946
-0.004819
-0.232962
0.000800
-0.436144
-0.108891
-0.040934
0.316284
-0.315249
-0.554817
-0.430821
-0.114269
0.767578
-0.566568
0.246686
0.077069
0.496283
-0.162409
0.579072
0.022530
0.111592
0.465370
0.358633
0.267341
0.416205
-0.389169
0.040723
-0.609340
-0.046434
0.257112
0.005734
0.278438
0.036485
0.468629
-0.317970
-0.016635
-0.503177
-0.357781
0.106031
0.257767
0.578402
0.431619
-0.550648
0.038676
-0.277240
-0.462192
-0.102602
0.263936
-0.229916
0.338872
-0.539046
-0.152727
-0.349791
0.156079
0.110832
0.216167
-0.074209
0.037460
-0.261856
0.329909
-0.036788
0.132995
0.331699
0.400750
0.274013
0.022258
-0.100094
0.506208
-0.001314
-0.036304
-0.325221
0.377657
-0.318741
-0.667981
-0.406168
0.442630
-0.086862
0.363533
0.344569
-0.287915
0.059753
-0.067623
-0.001957
0.209336
0.237601
0.065001
0.332567
0.383172
0.261637
-0.208005
0.192507
-0.541274
-0.129512
0.315121
-0.399701
0.294137
0.546719
-0.315074
-0.419687
0.122520
-0.184779
0.223400
-0.153229
-0.038207
0.130439
-0.500166
-0.151994
0.028014
-0.219804
-0.423982
-0.088120
0.357547
0.036037
0.126067
0.034239
0.123383
-0.325738
0.775407
0.291774
0.086996
-0.392690
-0.437266
-0.138935
-0.311232
-0.227626
0.236864
-0.073947
-0.345763
-0.071437
-0.243823
-0.259289
0.208112
-0.123364
0.313772
-0.389769
0.349368
0.424973
-0.289783
-0.145750
-0.240966
0.456480
0.291828
-0.412193
0.046056
-0.000776
0.265129
0.376561
-0.109975
-0.413866
0.222927
-0.052025
-0.196190
0.104229
-0.344681
-0.439027
-0.384537
-0.547922
-0.348533
0.310375
0.050341
0.163293
-0.358497
0.231293
0.465578
-0.264301
-0.288618
-0.098820
-0.211364
0.341644
-0.530125
0.047730
0.042513
0.466048
0.070751
-0.166035
0.282976
-0.205719
0.016300
-0.018326
-0.453117
-0.252767
0.099888
-0.073679
0.214527
-0.104283
-0.074943
-0.568867
-0.296182
-0.226367
-0.233168
0.002097
0.329095
-0.037064
0.080225
0.142239
0.105964
0.682646
0.142766
0.549972
0.520640
0.487237
-0.394351
-0.461633
0.130273
0.070929
0.514497
-0.362463
-0.554139
0.333636
0.049705
-0.084466
-0.383083
0.338466
-0.035151
-0.162913
0.019006
-0.404805
-0.292785
0.406709
-0.581474
0.091561
-0.556232
-0.374817
0.260299
0.358808
-0.061848
-0.518720
-0.263398
-0.337185
-0.290694
0.404029
-0.169439
0.718119
0.078449
-0.668880
0.521422
-0.692848
-0.353740
0.474517
0.278114
-0.340131
0.124408
0.164234
-0.210653
0.062844
0.530459
-0.435230
-0.053809
0.346552
0.415032
-0.668927
0.078562
-0.192046
0.537577
-0.588164
0.014544
0.200047
-0.241936
-0.400445
-0.375683
-0.035368
-0.026294
-0.756992
-0.149850
0.242243
-0.487708
-0.007743
-0.327675
-0.484700
-0.192480
-0.127862
0.148480
-0.052797
-0.527646
0.238839
-0.142008
0.047233
0.224656
-0.274061
-0.425916
-0.437919
0.283968
-0.064520
-0.007798
0.400924
-0.117559
-0.576178
0.136540
-0.301244
-0.222909
0.236436
-0.186624
-0.233528
0.529167
0.300761
0.121010
-0.549714
0.371995
-0.539562
-0.399165
-0.457711
-0.222208
-0.046630
-0.553901
-0.092118
-0.093896
-0.028864
0.345881
0.846102
-0.152637
0.303791
-0.089052
0.214119
0.434591
-0.247641
-0.107096
0.043161
0.256664
-0.119940
0.364488
0.360733
-0.041329
-0.174294
0.291486
0.461284
-0.448253
0.247301
-0.577135
-0.080599
0.477569
0.081107
-0.280171
0.301135
0.021198
0.321207
0.448672
-0.468825
-0.087904
0.586202
0.064006
-0.112195
0.142983
0.451915
0.599580
-0.517672
0.157146
0.247393
-0.008607
-0.131811
0.460481
-0.715519
0.264666
-0.127857
0.043840
0.269635
-0.414880
-0.268860
0.427604
-0.370578
0.560290
0.120290
0.319828
0.066044
0.000367
0.510141
0.554258
0.099973
0.278707
0.672579
-0.188082
0.170979
0.266487
0.659515
-0.399337
-0.007688
-0.398117
0.061982
-0.314982
0.240404
-0.406709
-0.307460
0.134974
-0.600923
-0.070782
0.623535
0.252346
0.159663
0.164580
0.294257
-0.121063
-0.390872
0.439479
0.169887
0.598615
-0.591423
0.110574
0.092624
-0.128156
0.394713
-0.015664
0.113293
-0.760284
0.020472
-0.280855
0.073624
-0.152861
0.141401
-0.204435
-0.281458
0.542532
-0.161690
0.508283
-0.163662
0.552741
0.054441
0.239921
0.305913
-0.442046
0.083994
-0.066221
0.614531
-0.198580
-0.035507
0.576371
-0.058800
0.296927
0.426234
-0.056542
-0.508082
-0.374676
0.188055
-0.173440
0.042668
-0.285098
0.420771
0.235925
-0.188222
0.184868
0.188291
-0.390119
0.447274
0.254740
-0.376354
0.239521
-0.472319
-0.107177
0.122898
0.390867
0.060672
-0.540096
-0.349523
0.009059
-0.033796
-0.170914
0.474889
0.274785
-0.035465
0.063256
0.187267
0.496490
-0.308322
-0.388577
-0.090573
-0.323415
-0.446111
-0.384438
-0.353156
-0.298716
-0.120823
0.465591
0.180977
-0.514718
-0.622428
-0.113196
0.188058
0.197272
-0.300940
-0.429304
-0.656581
0.052557
-0.291247
-0.287226
0.279916
-0.036886
0.605292
0.070369
0.180199
-0.229393
0.058873
-0.369755
-0.280630
-0.102582
0.206800
0.262014
0.549812
-0.028506
0.294736
-0.289097
-0.443357
0.255309
-0.495488
-0.177905
0.644142
-0.602454
0.214078
-0.781617
-0.617888
-0.295077
-0.072428
0.218173
0.728500
-0.217575
0.340534
-0.488518
-0.305040
-0.480203
-0.636365
0.051597
0.000639
-0.537160
0.332119
-0.477963
0.089348
0.331196
0.336068
-0.463898
0.286533
0.094028
-0.175016
0.481150
-0.404820
0.251638
-0.175771
0.038618
0.044489
-0.656439
0.142659
0.388595
