0.021121
-0.534494
-0.142563
-0.220969
0.346848
-0.044058
0.256570
-0.174619
0.418855
0.091277
-0.255624
-0.494417
0.009640
0.389846
-0.092569
0.309353
-0.060523
0.236890
0.305630
0.415646
0.500163
-0.142932
-0.637237
0.449045
-0.618962
0.482473
0.490138
-0.447002
0.090710
0.524599
-0.092793
0.223962
0.459052
-0.426514
-0.177305
-0.130938
0.304995
0.147886
-0.206403
-0.320511
-0.041596
0.104505
-0.129264
-0.265043
-0.262582
-0.411605
0.109878
-0.039149
-0.152796
-0.358431
0.432810
-0.273542
-0.081647
-0.274287
0.023376
-0.494082
-0.114262
-0.439472
-0.314764
-0.345522
0.381075
0.066988
-0.178736
0.776704
0.415116
0.294195
-0.488069
-0.477632
0.288197
0.103168
-0.406882
0.031528
0.515095
0.475549
0.164935
0.239296
0.269655
0.254348
-0.458269
-0.401221
0.135616
-0.455766
-0.478330
0.412827
-0.412928
0.220739
-0.524757
0.629716
-0.219674
-0.082514
-0.085017
-0.067324
-0.755492
-0.250796
0.565230
0.125285
0.027017
-0.391892
0.569539
0.365343
-0.000355
0.151751
0.065087
-0.142498
0.332470
0.295715
0.719233
-0.259036
-0.128691
-0.206853
0.393915
0.219198
0.076215
-0.133403
0.240706
-0.232319
0.258600
0.007501
0.036725
-0.263875
0.212343
-0.253166
0.163626
-0.617786
-0.023210
-0.285138
-0.180940
0.216334
0.098864
-0.554403
0.622570
-0.201583
0.304705
0.221206
-0.042686
0.539612
0.213950
0.160946
-0.228975
-0.115046
-0.035486
-0.601306
-0.193451
0.229318
-0.127839
0.125362
0.588622
0.260040
0.314200
-0.168707
-0.371335
-0.138896
0.334494
0.070212
-0.193792
0.541266
-0.248769
-0.236684
-0.679983
0.102558
-0.447998
-0.545019
-0.114611
-0.306181
0.367669
-0.045371
0.126918
0.017039
-0.232853
0.288927
-0.145922
0.508780
-0.222814
-0.410790
0.239448
-0.266226
0.309110
-0.151452
0.337165
-0.482261
-0.020638
0.612813
-0.023328
0.439147
0.141954
-0.311329
0.478847
0.347274
-0.096748
0.009216
-0.096125
-0.477551
-0.186635
-0.267155
0.252132
-0.608016
0.247404
0.217066
-0.330894
-0.023335
0.045769
0.463359
-0.481697
-0.170603
0.728594
-0.575433
0.143001
-0.477307
-0.316442
0.357663
0.016642
-0.186728
-0.168333
0.156574
0.152422
0.449276
-0.236585
0.192184
-0.179090
-0.162516
0.077501
0.543244
0.039885
-0.606555
-0.227025
0.283726
0.219171
0.027859
0.426715
0.130187
-0.250724
-0.397847
0.205461
-0.529273
0.191046
-0.441179
-0.019727
-0.456433
0.213446
-0.304173
0.376384
0.270738
-0.658492
-0.011935
-0.479605
0.240369
-0.439666
-0.329136
-0.270779
0.583233
0.222526
-0.344005
-0.179085
0.360250
-0.480503
-0.137023
-0.074682
0.127735
0.264122
0.160178
-0.087382
-0.112791
0.695503
-0.130132
0.187975
0.144292
0.012974
0.141790
-0.400490
0.424591
0.114515
-0.572490
0.361105
0.522793
0.233587
-0.211123
0.353508
0.422889
0.005608
-0.413134
-0.217669
0.409040
0.510790
-0.136077
0.068202
-0.627858
-0.670908
-0.215626
-0.380847
-0.168332
0.373119
-0.686329
0.212903
0.285457
0.522862
0.046577
0.287778
-0.595161
-0.404013
-0.203222
0.412584
-0.220235
0.191804
0.084831
-0.483875
0.575072
-0.424308
-0.370519
-0.274823
0.743388
-0.268795
-0.366443
-0.453847
-0.182782
0.457370
-0.434991
0.398115
0.596104
0.008063
0.473846
-0.162910
0.595899
-0.411123
0.089412
-0.657193
0.406044
-0.155198
0.135955
-0.362040
-0.462970
-0.006763
-0.004511
0.135544
0.116451
0.129586
-0.029727
-0.137318
0.368192
-0.036788
0.370081
0.442906
0.446794
0.339617
0.420937
0.342173
-0.142058
0.269923
0.242404
-0.257302
0.445117
-0.320614
0.211776
0.039934
0.420169
-0.117787
0.349179
-0.033148
0.151896
0.362593
-0.309001
0.099661
-0.097963
0.197539
0.277127
-0.517816
-0.431332
0.110493
-0.109217
0.159393
-0.743577
0.527638
-0.638551
0.487640
-0.395755
0.059262
0.043619
0.013189
-0.428592
-0.031699
0.353247
0.104526
0.155414
-0.148836
-0.401980
-0.274543
0.439802
0.610788
-0.120724
-0.129722
0.210776
0.319345
0.088495
0.114136
0.467454
0.536301
0.458334
0.085972
0.420456
0.144605
-0.225705
0.013600
-0.428289
-0.185582
0.142156
-0.319283
-0.538749
0.097508
-0.088648
0.035890
0.129180
0.077014
0.324164
0.463514
-0.467755
-0.411596
0.294766
-0.214423
0.339308
-0.242672
0.129594
-0.117718
-0.170048
-0.346774
0.058233
0.311425
0.102259
-0.346749
-0.444874
0.058530
0.384649
0.020147
-0.185368
-0.200998
-0.251210
0.280250
-0.116229
0.056317
0.164359
-0.178123
0.161174
-0.075973
0.326629
-0.162295
0.293822
-0.102209
0.511662
-0.100477
0.009426
0.485847
0.100048
-0.102257
0.405827
-0.200589
-0.486400
-0.274952
-0.160335
0.215856
-0.357607
-0.085363
-0.259584
-0.108363
0.190456
0.422983
0.017484
0.328906
-0.379286
-0.099560
0.086570
0.146429
-0.318531
0.341903
-0.079395
-0.219345
-0.265703
-0.237947
0.220166
0.047187
0.070123
0.238361
0.128554
-0.524366
-0.026349
0.395660
-0.031205
-0.202632
0.603597
-0.112746
-0.656582
0.407316
-0.227484
-0.484348
0.274157
0.635009
0.500793
0.266221
0.151817
-0.067604
-0.457400
-0.170538
0.388513
-0.025480
-0.705606
0.451822
0.566603
-0.389054
0.096869
-0.586142
0.791520
-0.069795
0.465184
-0.451868
-0.149756
0.098685
0.068280
-0.021306
-0.514341
0.549717
-0.297094
-0.368031
-0.597867
-0.264343
-0.029019
-0.030435
-0.123166
0.001696
-0.030853
-0.171433
-0.243155
0.643492
-0.846295
-0.386862
-0.132728
0.221720
-0.175726
0.072920
0.393268
0.348263
0.353210
0.307553
0.257720
-0.045911
-0.495458
-0.160115
0.403316
0.085363
-0.536928
-0.165463
0.515864
-0.085222
-0.486023
0.310508
-0.549509
0.249569
-0.308766
0.447188
-0.349796
-0.170085
0.044278
0.718674
-0.100009
0.426627
0.509265
-0.632048
0.543873
-0.577854
-0.245887
0.152318
-0.530437
0.336639
0.184429
0.045851
0.510000
0.105017
-0.315447
0.101945
-0.079988
-0.339316
-0.357769
0.168516
0.515389
0.664071
0.283135
-0.720531
0.361121
-0.080464
-0.362487
-0.583142
-0.292481
-0.055696
0.390907
0.511825
-0.273008
0.167376
-0.656873
0.679915
-0.210531
0.065968
0.367497
-0.202260
-0.229409
-0.356539
-0.118884
0.205709
0.367968
-0.581900
0.293322
-0.135056
-0.400780
-0.230328
0.590772
-0.194722
-0.033923
0.335441
-0.213241
-0.644471
0.042783
-0.447939
-0.053097
0.173641
0.431171
0.431146
-0.432667
0.474240
-0.106697
0.551311
0.190131
0.085962
0.429683
-0.202556
0.237998
-0.194773
0.117005
0.126888
-0.025451
0.263903
-0.388939
0.018503
-0.528726
-0.556005
-0.699076
-0.542679
-0.168813
0.175380
-0.158329
0.037762
0.195990
-0.014831
0.109287
-0.076349
-0.048852
0.260674
-0.336739
0.413767
-0.250468
-0.245629
-0.806269
0.240802
-0.322516
-0.495874
0.495631
-0.152613
-0.096179
-0.295815
-0.339335
0.150148
-0.398303
0.647997
0.070711
-0.599321
-0.264003
0.217251
0.005023
-0.241222
-0.598211
0.036927
0.328154
0.075200
0.353503
-0.142543
0.115319
-0.296077
0.324319
-0.279167
0.510644
-0.160687
0.365962
0.302755
-0.138456
-0.024004
0.414658
0.058020
-0.337848
0.139547
0.028151
0.101874
0.252409
0.236546
-0.127313
-0.176170
0.439744
0.315550
-0.361359
0.301003
0.547855
0.331311
-0.491505
-0.108559
-0.337311
-0.447967
0.460200
-0.007535
-0.330760
-0.061788
0.484719
0.097995
0.115265
0.217816
0.479467
0.195301
0.330571
-0.066484
-0.099127
-0.144358
-0.153147
0.352017
-0.536310
0.040762
0.273513
-0.598024
-0.360323
0.483532
-0.291637
0.248083
0.504330
0.063431
0.077478
0.065210
-0.093982
0.090187
0.137331
-0.465947
-0.144930
-0.087875
-0.017620
-0.242708
0.109080
-0.374097
0.096986
0.463248
0.401384
0.477004
0.147950
-0.199482
-0.788380
-0.310445
-0.128906
-0.612652
-0.615501
-0.167555
-0.334332
-0.326042
-0.598654
0.021948
0.478807
-0.289227
0.594856
-0.033604
-0.138745
-0.106603
-0.262476
0.296346
-0.256216
0.267302
-0.487035
-0.020881
-0.330051
0.103296
-0.075963
-0.444822
-0.154511
-0.047067
-0.203749
0.299395
-0.483340
-0.503642
-0.249733
-0.235055
-0.058179
-0.383104
0.664497
-0.042386
0.532674
-0.195162
0.653577
-0.047742
0.075147
0.217150
0.006281
0.230728
-0.681858
-0.248605
0.460852
0.507779
-0.707965
0.075176
0.183785
-0.108755
-0.048516
0.011185
-0.350475
0.530515
0.388741
0.155017
0.159968
0.101952
0.448333
