0.323391
-0.276678
-0.251413
0.447140
-0.427709
-0.052534
-0.166312
-0.081903
0.380712
0.067047
0.111692
-0.717023
0.385534
0.631090
-0.062541
0.267776
0.416943
-0.354646
0.033883
-0.299954
0.416094
-0.359445
-0.479997
0.471100
-0.160726
0.298997
-0.208561
0.017525
0.466610
0.040305
-0.028184
-0.573560
-0.370842
-0.140729
-0.092785
-0.086624
-0.221401
-0.207165
-0.219383
-0.129954
-0.447000
-0.405998
-0.395941
-0.179297
0.178709
-0.267400
0.360051
0.432005
0.166197
-0.383512
0.351185
-0.296387
0.199611
0.235004
0.693647
-0.151144
0.285212
-0.152054
0.363703
-0.469638
0.040865
0.373371
-0.648043
0.480536
-0.198243
-0.550482
-0.398579
0.126190
0.206679
-0.365302
0.267015
-0.324848
-0.042924
0.418922
0.349917
-0.219378
0.180187
0.052852
0.428861
-0.651998
-0.124928
0.288068
-0.346286
0.424572
-0.087740
0.026929
0.335829
0.435937
-0.302143
0.229368
-0.395583
0.378908
-0.240948
-0.138602
0.094804
0.241969
0.265662
-0.402595
-0.268146
0.320226
0.068792
0.151470
-0.211700
0.230220
0.020113
-0.110337
-0.273146
-0.991336
-0.208111
-0.175830
0.425291
0.497762
-0.495303
-0.220809
0.049355
-0.250350
-0.391553
-0.288875
-0.075669
-0.455677
0.378526
-0.319220
0.052281
-0.300698
0.186807
-0.247834
0.036899
0.434775
-0.266614
-0.499554
0.390451
-0.148410
0.194398
0.221206
-0.583060
-0.173040
-0.056482
0.046977
-0.551624
0.556712
-0.685038
-0.467070
-0.388493
-0.530563
-0.517954
-0.024562
-0.598831
-0.316103
0.476955
0.145627
0.204122
-0.552992
-0.612673
0.076704
0.321965
0.553142
-0.364573
-0.082399
-0.222323
-0.377282
-0.111840
0.565182
0.602961
-0.028279
-0.062836
0.515624
-0.127918
0.103534
0.147958
0.580043
0.127635
0.380541
0.259430
-0.407921
0.192209
-0.758901
0.526589
-0.115816
-0.178992
-0.021982
0.120812
0.244576
-0.205485
0.412857
0.363908
0.477221
-0.558184
0.010097
-0.389671
-0.051881
0.442722
0.092944
-0.591442
0.072144
0.039510
0.397881
-0.158049
-0.603311
-0.462119
0.552188
-0.231727
-0.319852
-0.515791
0.199814
-0.036648
0.005097
0.085955
-0.506998
0.344545
-0.196193
0.571642
-0.276218
-0.266658
-0.030092
0.372865
-0.322789
0.326475
-0.191385
0.057149
0.577562
0.548170
-0.069219
0.081569
-0.538793
-0.077215
0.557350
-0.112704
-0.368759
-0.216174
0.425198
0.130917
0.036161
-0.217884
0.025396
-0.628848
0.359868
0.026757
-0.368318
0.170207
-0.143062
0.141769
0.072612
-0.669358
0.087837
-0.199022
-0.605201
-0.256842
-0.016523
0.527743
0.080968
0.468216
0.012897
-0.063458
-0.074094
-0.517459
-0.615723
-0.269723
0.439293
0.487292
0.446126
0.803747
0.106966
-0.041673
0.390975
-0.427378
-0.001089
-0.076027
-0.127833
-0.233939
-0.541181
-0.422715
0.688435
0.376208
-0.208142
0.297990
0.235671
0.237128
0.620882
0.430184
0.154856
0.010343
-0.296464
-0.077721
-0.380848
0.186158
0.562567
-0.358845
-0.044763
0.187090
0.064420
-0.307485
0.295996
0.416026
-0.156189
0.177769
-0.256698
-0.438353
0.079150
-0.410633
0.502370
0.521770
-0.303311
-0.690004
0.047513
-0.454380
0.579720
0.028350
-0.462231
-0.214581
0.076124
-0.105651
-0.032014
-0.378235
-0.045244
0.068821
-0.279250
-0.437679
-0.326164
0.365129
-0.036835
0.040397
0.595198
-0.206491
-0.348054
0.436708
0.537717
0.194537
-0.288335
0.448818
-0.186857
0.395484
-0.223065
0.000203
0.478922
0.089289
-0.091698
-0.268037
-0.038782
-0.097344
-0.099432
-0.006017
0.399760
-0.108106
0.155896
0.207996
-0.613906
0.464026
-0.082743
0.233863
-0.362057
-0.186167
-0.235128
-0.329874
0.364417
0.138717
-0.225665
0.178573
0.476082
0.593521
-0.131774
-0.248510
0.367724
0.139243
0.800852
0.350667
-0.662850
0.165706
0.668937
0.204042
0.019336
-0.027688
0.070258
-0.222044
-0.078070
0.549605
-0.387264
-0.588520
-0.207678
0.168001
0.274850
-0.036449
-0.449361
-0.202368
-0.044568
-0.223374
0.102849
0.562354
0.256690
0.402106
0.486915
0.079092
-0.047760
0.785072
0.134873
0.515104
-0.406480
-0.214871
0.457227
0.171698
0.164251
-0.086728
-0.370405
0.582311
0.456266
-0.121720
-0.468755
0.109760
-0.040232
0.028650
-0.177814
-0.052240
-0.293196
-0.444629
0.133782
0.396773
-0.259434
-0.061427
-0.229502
0.357859
0.063875
0.273180
0.294473
0.023461
0.088396
-0.217768
-0.261314
-0.310249
-0.270023
-0.301045
0.406048
0.157930
-0.452235
-0.470376
-0.441595
0.185350
0.112357
-0.228970
0.417333
-0.222534
0.097202
0.616036
0.483188
0.479946
-0.615672
-0.178471
-0.157641
-0.199991
-0.103218
-0.518317
-0.485756
-0.360173
0.389923
-0.095682
-0.130471
0.156609
-0.084825
-0.027982
0.037378
-0.244944
-0.213972
-0.387109
0.254865
-0.297479
0.040860
0.410371
-0.067195
-0.240263
-0.457370
0.170932
0.262513
-0.467105
-0.364710
0.053372
0.378252
0.233723
0.236671
-0.514070
0.759951
-0.314063
-0.358851
-0.547630
0.021901
0.091245
0.312153
0.019379
-0.490069
0.062458
-0.676208
-0.438766
0.165942
-0.174033
0.259715
0.681945
-0.088100
0.008252
0.059739
-0.184817
-0.203057
0.068346
-0.298345
0.035464
-0.193304
-0.505167
0.367335
-0.365350
-0.247154
0.279580
0.274716
0.038603
-0.179468
0.484377
0.266229
0.112010
-0.416044
0.278142
-0.006612
-0.248422
-0.254704
-0.407117
0.337110
0.171577
0.074985
-0.668938
0.055487
0.218075
0.334889
0.847322
0.708608
-0.068131
0.016645
-0.584773
0.154183
0.261064
0.010044
0.087197
-0.532848
0.375814
0.050079
0.140939
-0.328383
0.192783
0.445167
-0.061182
-0.287175
-0.084855
0.100736
-0.515000
-0.216632
-0.328426
0.392607
-0.145079
-0.384865
0.119366
-0.304829
0.048615
-0.045711
-0.312643
-0.495899
0.191028
-0.036537
0.172965
-0.060416
-0.053240
-0.265806
-0.528348
-0.222568
0.358510
-0.100856
-0.591492
-0.409680
-0.094125
0.143540
-0.151136
0.114791
0.315922
-0.365295
-0.042736
0.384110
0.097513
-0.126414
0.206281
-0.016642
-0.164279
-0.345366
-0.245909
0.241854
-0.257127
-0.382052
-0.050550
0.050055
-0.031851
0.243336
0.241711
-0.459846
0.207780
-0.675479
0.299767
-0.362926
0.306384
-0.331741
-0.245283
0.307221
0.448670
-0.525159
-0.609174
0.214836
-0.265855
-0.381981
-0.016473
-0.208687
-0.196047
0.162817
-0.202369
0.320587
0.288305
-0.344385
0.341488
0.437287
-0.040384
0.336712
-0.461637
0.643384
-0.295376
0.118983
-0.145172
0.079232
-0.432560
0.498097
0.487492
0.215440
-0.127006
0.230389
-0.045537
-0.263150
0.439770
0.588835
-0.538740
0.440908
0.334327
-0.074139
-0.077118
0.410673
0.371291
-0.494626
-0.625235
0.446055
0.404922
0.167718
0.215542
0.072264
-0.073870
-0.125382
0.515178
-0.486447
0.146570
-0.212895
-0.364136
-0.075599
0.371585
-0.308117
-0.185329
0.089795
-0.200122
0.383393
0.051500
-0.074651
-0.086645
-0.569934
-0.418317
-0.758308
-0.413461
0.023784
-0.151189
0.107709
0.408849
-0.561798
0.460825
0.466132
0.668089
0.388483
-0.349533
0.183915
-0.389681
-0.238566
-0.360491
0.175010
-0.183660
0.261598
0.249970
-0.186221
-0.238735
-0.125395
-0.382191
-0.752924
-0.248888
0.239879
-0.224626
-0.095099
-0.180861
-0.329743
0.845379
0.342454
0.091446
-0.092171
0.273731
-0.464961
-0.009966
-0.465171
-0.232169
-0.418372
0.023349
0.244939
0.417721
-0.074830
-0.570666
0.031466
-0.216854
0.468510
0.182117
0.181129
0.234330
0.141167
-0.121460
-0.146333
0.039995
0.233184
0.440161
-0.230146
0.389730
0.186892
-0.371344
0.405898
-0.287145
0.433395
-0.544276
-0.325742
0.533585
0.048111
0.476246
-0.624050
-0.166989
-0.464746
-0.104492
-0.477186
0.011614
0.183456
-0.447415
-0.103759
-0.429005
0.279789
0.715688
-0.026541
-0.071396
-0.318250
-0.300940
-0.087190
-0.398975
-0.466326
0.245914
0.187509
-0.327186
0.114808
-0.013960
0.003528
-0.240058
0.591556
0.176929
-0.239206
-0.054185
-0.188131
-0.431335
0.162169
-0.263476
-0.002390
-0.293382
0.138510
0.077432
0.267402
0.493830
0.153010
0.031449
0.001833
0.433428
-0.549730
-0.458859
-0.420050
-0.129095
0.346751
-0.400361
0.326714
-0.138277
0.110659
-0.306523
0.607102
0.035129
0.372343
-0.183503
0.118010
0.195842
-0.234067
0.272001
-0.584494
0.016196
-0.186710
0.410909
0.291953
-0.269094
0.212983
-0.296181
0.371508
-0.194414
-0.456755
-0.262617
0.043983
0.162671
0.427890
