-0.184348
0.006180
-0.285990
-0.602201
-0.352167
-0.296921
-0.004952
0.495780
0.400794
0.419762
0.137520
0.076196
-0.387926
-0.334479
0.400301
0.281260
-0.248664
-0.310630
0.023124
-0.457842
0.320110
-0.338500
-0.524756
0.541726
0.327085
0.058157
-0.355626
-0.213392
-0.430678
-0.018444
-0.035471
0.572420
-0.046754
0.120449
0.352033
0.021870
0.501395
-0.120675
-0.264259
0.371818
-0.583822
0.025178
-0.326447
-0.264549
-0.213990
-0.497570
-0.582093
-0.039149
-0.308694
0.385145
0.100083
0.425380
-0.327694
-0.382864
0.143973
0.458787
-0.286886
-0.390335
0.235376
-0.505876
0.161915
-0.521997
0.306029
-0.293204
-0.617966
-0.668410
-0.682059
0.473297
0.264130
-0.366862
0.104978
-0.002326
0.097993
-0.389540
0.048256
0.045217
-0.024422
0.059706
0.453460
0.134862
0.027866
0.412232
-0.350093
-0.386912
0.269071
0.119432
-0.074095
-0.458743
0.216834
0.300924
0.254139
0.330852
-0.353280
-0.327393
0.167377
0.055454
0.222286
-0.280676
-0.435211
-0.504286
0.011637
-0.034160
0.370362
-0.043685
0.430399
-0.318080
-0.171310
0.033720
0.238558
0.213868
0.423758
0.219198
-0.128266
0.360220
0.034501
0.426446
0.426862
0.387155
-0.085391
-0.492882
0.081620
0.177840
0.052103
-0.206196
-0.319214
0.456021
-0.244669
-0.575312
-0.369656
0.164650
0.640910
0.302749
0.170360
0.203272
-0.024558
-0.237443
-0.366679
-0.556438
0.395994
0.095556
0.380333
0.405059
0.080644
0.196845
0.435637
-0.319557
-0.321807
0.105976
0.489227
-0.358163
0.079929
-0.144414
-0.159957
-0.374955
-0.261746
0.436109
-0.148166
0.214406
0.691603
-0.252747
-0.571435
-0.094916
0.683028
-0.104454
0.351429
0.183109
-0.511358
-0.509401
-0.263944
0.152149
0.008452
0.046956
0.028451
0.504366
0.423824
0.045978
-0.365467
-0.253236
0.263463
-0.368328
-0.165584
-0.238243
0.078410
0.534786
-0.046647
0.141733
-0.147208
-0.415869
-0.466732
-0.230369
0.452664
-0.652921
0.177848
-0.206399
0.255159
-0.415214
-0.150935
-0.604800
-0.381691
0.606272
-0.043468
-0.199713
-0.655973
-0.174796
0.040081
0.322664
0.084169
-0.530636
-0.242682
0.045046
0.360662
0.414209
0.269830
0.464559
-0.017688
-0.239845
0.163565
-0.467897
0.446840
0.465675
-0.455801
-0.061170
0.295924
-0.033081
0.098104
0.022885
0.311499
-0.230918
-0.281988
-0.337476
0.381648
-0.263888
0.356929
-0.164546
0.613718
-0.355052
0.202040
-0.161914
0.128357
-0.077268
0.267172
-0.445348
-0.657348
-0.035034
0.304577
0.580802
0.115039
-0.490890
0.516478
0.080968
0.351174
0.301569
0.289078
0.460186
-0.215981
-0.065569
-0.066558
0.309802
-0.239489
-0.365615
0.367696
-0.559370
0.634853
-0.285980
-0.283665
-0.087870
-0.490175
-0.070604
0.356184
-0.305230
0.114515
-0.558728
0.142523
-0.312338
0.363866
-0.254802
0.106402
0.323162
-0.316142
0.049693
0.583966
-0.332265
-0.354745
-0.204190
-0.198428
-0.248243
0.076234
0.435344
-0.375674
0.141205
-0.719587
0.526790
0.276820
0.246227
-0.195577
0.136572
-0.387024
-0.112498
-0.267859
0.425684
0.295196
-0.300813
0.491197
-0.022056
-0.191229
0.453832
0.274147
0.188802
-0.167746
-0.575854
-0.220838
-0.391673
-0.127424
0.239922
-0.518728
-0.343086
-0.244575
-0.463202
0.463463
-0.068459
0.064371
0.048634
-0.021339
0.171822
-0.318008
0.312753
0.256324
0.253890
-0.336380
-0.228921
-0.026020
-0.304726
0.346239
0.311640
-0.026497
-0.764541
-0.476798
0.016809
-0.397101
0.116156
-0.338818
-0.325050
-0.347193
0.324396
-0.097990
0.270688
-0.156571
-0.063918
0.169019
-0.150292
-0.039520
0.191830
0.392189
-0.151190
-0.168312
0.492591
0.196828
0.457527
0.320137
0.708702
-0.257204
-0.265519
-0.073524
-0.338178
-0.504292
-0.219095
0.163951
-0.332597
0.414725
0.473953
0.047031
-0.107492
-0.413274
-0.667718
0.442131
-0.213928
-0.379587
0.248396
0.019617
0.291588
-0.152064
-0.293622
-0.145089
-0.659925
0.143610
0.445698
-0.020897
-0.125685
0.068051
0.115525
0.052011
-0.179727
-0.425100
0.073311
-0.439022
0.484757
-0.214871
0.387820
0.147832
0.419586
-0.049867
-0.515216
-0.543987
0.281314
-0.489895
0.295837
0.657756
-0.114845
0.409375
0.290676
-0.075996
-0.130941
0.545275
0.342145
-0.582884
-0.314637
0.060131
-0.311722
-0.277282
0.074835
0.202728
-0.111468
-0.190083
-0.283357
0.387247
0.363936
0.053160
-0.196803
-0.441201
-0.520579
0.132572
-0.289137
-0.436687
-0.287597
0.390609
-0.270911
0.366874
-0.311277
-0.212705
0.395260
0.059476
0.200868
-0.215443
-0.547944
-0.219554
-0.159995
0.107933
-0.097205
-0.003558
-0.200851
0.204066
-0.012172
0.110427
-0.043054
-0.570695
0.163819
-0.476434
-0.436848
-0.012020
0.230434
0.251847
-0.598189
0.179503
0.056344
0.328906
0.159046
-0.350320
-0.503518
-0.420472
-0.124154
0.207073
-0.016557
0.418127
-0.233268
-0.025689
0.026686
0.454386
-0.622161
0.268109
0.143581
-0.149627
-0.150695
-0.367631
0.510889
0.544173
-0.210339
0.407580
-0.504816
0.005072
-0.520275
0.153801
-0.197860
0.558920
0.281946
0.031040
0.040021
0.345074
0.246206
-0.543839
-0.075198
-0.438450
0.357324
0.268935
0.405584
0.359982
0.545366
-0.286935
-0.333775
0.160911
-0.368354
0.116697
0.070019
-0.424999
0.097891
-0.549209
-0.422466
0.409842
-0.158958
0.628390
0.308434
0.184041
-0.408691
-0.270590
0.017013
-0.292749
0.572930
0.793080
0.436803
0.078740
0.363786
-0.303605
0.246593
-0.538511
0.461366
0.081730
-0.504292
-0.336838
-0.289864
0.173006
-0.000978
-0.111890
-0.534966
0.037305
-0.274457
-0.164535
0.231263
-0.205865
-0.046124
0.191002
0.060664
-0.196654
0.327496
-0.108563
-0.423008
0.398513
0.113659
0.215427
-0.282199
-0.348216
0.200262
0.260802
0.210890
-0.723592
0.504927
-0.760097
0.158402
-0.220902
0.285976
-0.264476
-0.450777
-0.074558
0.340273
0.363499
-0.200620
0.320240
-0.449020
-0.170597
0.351699
0.127197
0.519900
-0.088568
-0.340603
-0.197879
-0.529798
-0.299707
-0.286138
0.934806
-0.297158
0.372284
0.373432
-0.084805
-0.223033
-0.197102
-0.552796
0.347834
-0.005578
-0.304086
0.229622
-0.332199
0.368731
-0.361754
0.379314
0.375690
-0.329008
-0.529309
-0.240032
-0.710547
0.492366
0.170259
0.078068
0.474529
0.234951
0.254197
0.428426
0.170776
-0.406043
-0.505656
0.118643
-0.021586
0.305039
0.412763
-0.459308
-0.174112
-0.439276
0.376386
0.029777
-0.252613
0.645643
-0.383619
-0.275135
-0.347788
-0.320288
0.372662
0.234378
-0.561941
-0.474942
-0.111475
0.411848
-0.556005
-0.162593
0.035061
-0.204150
0.013386
-0.407646
0.617765
-0.018011
0.462815
-0.268314
0.277084
0.158377
0.180830
-0.297971
-0.215456
-0.625653
0.205164
-0.255123
0.145117
0.537426
-0.292900
0.817367
0.138298
-0.531154
-0.497166
0.391619
-0.259064
0.076129
-0.608468
-0.101600
0.121191
-0.580199
-0.447133
0.061778
-0.377556
0.029519
-0.503622
0.401451
0.386512
-0.181924
0.601758
0.349133
-0.317129
-0.001360
0.051446
0.138693
0.124146
-0.200263
-0.176209
0.722263
-0.024004
0.007814
-0.129472
-0.185400
-0.315216
-0.046248
-0.152730
0.018508
-0.077521
0.335981
-0.499420
-0.454756
0.336777
-0.252854
0.116510
0.227539
0.371676
-0.069087
0.009584
-0.222736
-0.094112
0.381018
-0.140421
-0.392426
-0.150386
-0.690476
0.301267
-0.084335
0.497593
-0.409016
-0.168974
0.445064
-0.045754
0.174747
-0.067642
0.008951
-0.425494
-0.259891
-0.243657
0.283742
-0.209453
0.186892
0.364203
0.286935
0.274990
0.219595
-0.376396
-0.397776
0.136268
0.596250
-0.263334
0.184538
-0.317808
-0.088044
-0.432600
-0.045948
0.428109
0.531648
-0.204276
0.307298
-0.331015
0.206430
0.096479
0.062440
-0.112330
0.618745
0.071472
-0.289494
0.192103
0.288650
0.241575
-0.311762
-0.099597
-0.036968
-0.137061
0.237225
0.184421
-0.951043
-0.369954
0.543661
0.120421
0.043799
-0.557915
-0.387120
-0.524092
-0.201327
-0.141956
0.294705
0.387158
-0.427906
-0.619174
0.226084
-0.204908
-0.078167
-0.016389
-0.589620
-0.599993
-0.362313
-0.078142
-0.030235
0.423409
-0.107715
-0.015198
-0.040509
-0.272289
0.004432
0.193470
-0.418506
0.318697
0.535363
-0.123476
-0.059057
0.216432
-0.122750
-0.297777
0.311342
-0.020876
0.372172
-0.423081
-0.068329
-0.212506
-0.449242
0.111356
0.089099
0.554573
-0.596635
0.289454
0.259850
