0.093257
0.349335
0.587817
-0.231798
-0.085435
-0.018057
0.016525
0.529831
-0.040380
0.115267
-0.150435
0.061346
0.035146
-0.019374
0.209762
-0.066674
-0.133958
-0.098660
-0.162445
-0.405843
-0.066606
-0.388015
-0.265637
0.109412
0.111495
-0.540046
-0.267966
-0.281204
-0.315693
0.008932
-0.174968
-0.358517
-0.452869
-0.040887
-0.189796
0.081924
-0.007657
-0.207165
0.037541
-0.200291
-0.108338
0.341352
-0.655085
-0.265235
0.021774
-0.267400
0.459800
0.051636
-0.102556
0.400438
-0.017206
-0.305181
-0.282111
-0.463958
0.081287
-0.231517
0.506580
0.026213
-0.307672
0.568606
0.106882
-0.468918
0.024020
-0.155665
0.087320
-0.630193
-0.057909
0.418334
-0.421604
-0.573639
0.033982
0.145081
0.226070
0.108312
0.461953
-0.040179
-0.173915
-0.533487
0.503147
-0.152669
-0.503062
-0.225122
0.541911
0.350790
-0.268076
0.126074
0.276977
-0.059305
0.532847
0.116569
-0.104965
-0.758574
0.217517
0.144125
-0.554300
-0.018388
-0.375892
-0.061051
0.334550
0.152442
-0.389310
0.168858
0.366683
0.306504
-0.228618
-0.109008
-0.343294
0.281754
-0.344349
-0.365162
0.002952
0.085010
0.019568
-0.027987
0.218491
-0.187371
-0.410179
0.190700
-0.477361
-0.336287
-0.635334
0.235461
0.031289
-0.141393
-0.319263
0.691489
0.378870
-0.051892
-0.003804
0.435700
0.046092
0.061365
-0.112807
0.152576
0.050696
0.050048
-0.118821
-0.361397
-0.391964
-0.073463
0.299296
-0.039409
-0.374749
-0.076198
-0.571440
0.034289
-0.281564
-0.055024
0.476955
0.118546
0.130564
-0.238024
-0.612673
0.022790
0.399069
0.656501
-0.395232
0.409092
0.102621
0.357405
-0.114128
0.565182
0.058517
-0.184677
0.378623
0.083048
0.349963
0.137550
-0.329783
-0.606573
0.182675
-0.156009
-0.045551
0.008094
0.408860
0.044460
-0.208156
0.035442
-0.110259
0.374795
0.073056
0.244576
0.361416
0.341429
0.028916
-0.258292
-0.517297
-0.025646
0.073343
-0.148540
0.124949
-0.200315
-0.235577
-0.205007
-0.258729
-0.076139
0.029448
0.266038
0.146515
-0.387230
0.030530
0.131356
-0.718677
0.192039
-0.318587
-0.249140
-0.165733
-0.150465
-0.492507
-0.197188
0.495321
-0.249867
-0.010111
0.026030
0.504601
0.003918
0.326475
-0.217088
0.134529
0.348451
0.312845
-0.367240
0.187266
-0.250344
-0.077215
0.578729
-0.404246
0.168942
0.031111
0.413231
0.438163
-0.098180
0.400931
-0.504859
0.040238
-0.605959
0.206700
-0.238095
0.488203
-0.051629
-0.196181
-0.451840
0.185171
-0.148134
-0.198746
0.376278
-0.313517
-0.261809
-0.441408
0.122332
0.006898
0.012897
-0.172875
0.346456
-0.075181
0.226569
-0.202678
0.221498
-0.145509
0.136459
0.109049
-0.580476
-0.323686
-0.306586
0.335918
0.309682
-0.528485
-0.337944
-0.179629
-0.541181
0.261233
0.619365
0.477247
-0.128284
0.620014
-0.154843
0.250153
0.620882
-0.472904
-0.043909
-0.450549
-0.708139
0.318043
-0.096120
-0.003799
0.404091
-0.251794
0.257585
-0.348475
-0.108544
-0.531873
0.066502
0.468990
-0.707996
-0.219698
0.186781
0.029683
-0.182273
-0.431572
-0.131645
0.153081
-0.194210
0.080579
-0.290492
-0.231811
0.412453
-0.103689
0.657074
0.475990
0.476699
-0.075841
-0.079160
-0.325236
-0.045244
-0.450583
-0.025018
-0.117511
0.115584
0.383778
-0.024176
-0.598925
0.462916
-0.130615
0.334818
0.474047
-0.381007
0.261412
0.331028
0.014020
-0.572476
0.443420
0.324497
0.124425
0.542897
-0.193724
0.174206
0.174861
-0.520243
-0.180840
-0.025408
0.197668
0.479728
-0.159381
-0.109810
-0.329646
0.311480
0.271044
-0.008799
-0.634711
0.427842
-0.336358
0.455212
0.007631
0.012367
-0.195046
-0.140400
0.178573
-0.290787
-0.467540
0.019570
0.335349
-0.271860
0.009255
0.014201
-0.249996
-0.398887
0.289212
0.006129
-0.065271
-0.595889
-0.091048
-0.364173
0.028604
0.020084
0.514077
-0.336057
-0.008597
-0.286839
0.230817
-0.417433
0.049905
-0.654167
0.350614
-0.344037
-0.086220
0.021805
-0.151723
0.549982
0.296502
-0.265833
-0.169023
-0.134768
0.327384
0.263303
0.348244
-0.494084
0.305690
0.038271
-0.027132
-0.060426
-0.023121
-0.299878
0.548622
0.173999
0.451579
0.047595
-0.240334
-0.040232
-0.397669
0.421489
0.219140
0.512301
-0.561326
0.427896
-0.268570
0.000262
0.187278
-0.217955
0.430679
-0.117991
-0.172688
-0.284704
0.508965
-0.184189
-0.079206
-0.075713
0.368011
-0.534024
-0.412649
0.384649
-0.169960
0.074370
0.050149
-0.001840
0.096302
0.054525
-0.289001
0.044949
-0.013407
-0.299934
0.242975
0.152070
-0.091290
-0.510794
-0.264109
-0.244144
-0.114498
-0.255963
0.300232
0.129660
0.094727
-0.012172
-0.156579
-0.122213
-0.343158
-0.291200
0.184502
0.095331
-0.444368
0.315062
0.358974
-0.331090
-0.355785
0.071579
-0.279217
-0.190706
-0.064069
0.200396
-0.223747
-0.198944
0.216093
0.375747
-0.484465
-0.018326
-0.014149
0.014942
-0.570444
-0.268407
0.175107
-0.152523
0.072597
-0.071798
0.299851
-0.072408
0.436033
-0.642005
-0.005604
0.617399
0.476540
-0.427303
0.225368
-0.234846
-0.672851
0.570625
0.076487
0.089930
-0.175160
0.315761
-0.604372
-0.298345
-0.061396
-0.186892
-0.081491
0.224230
-0.247379
0.157261
0.342941
0.503757
0.282975
0.545141
-0.465618
0.070183
0.371524
-0.444255
-0.430718
-0.446395
-0.466803
-0.504342
0.405258
0.397191
-0.100731
0.103488
0.110020
0.153163
0.084603
0.380135
-0.491238
0.108713
0.002811
0.128204
-0.486264
-0.195735
-0.205761
-0.388122
0.261072
0.156264
-0.158914
-0.312756
0.018787
-0.350184
0.192783
0.278414
-0.064392
-0.747613
0.031475
-0.147499
-0.288877
0.337248
-0.041549
0.021699
0.170091
-0.647221
0.092076
-0.335291
0.343239
-0.211842
-0.274061
-0.295550
0.191028
-0.156899
0.471454
-0.127137
0.433368
0.385572
0.641674
0.284506
0.079252
-0.345233
-0.005941
0.035709
0.041570
0.143540
-0.141232
0.351326
-0.493975
0.503973
0.168486
0.419401
-0.087150
-0.504343
0.849239
-0.088549
-0.188829
-0.294779
-0.475209
-0.242945
-0.115781
-0.382052
-0.524760
0.585302
-0.119345
0.343031
0.208338
-0.280887
0.105031
0.320256
0.204320
0.495328
0.437314
0.160272
-0.136695
0.307221
0.448670
0.479757
0.197447
-0.281310
-0.323991
-0.286415
0.069345
-0.292251
-0.118172
-0.237399
0.288732
0.511533
0.201078
0.136513
0.351456
-0.187325
0.268147
0.186970
-0.408640
-0.219025
-0.143355
-0.789916
0.222289
-0.350352
0.511938
0.371200
0.383504
-0.559052
0.179692
-0.037569
0.362509
-0.025669
0.231686
0.009120
-0.187609
0.283762
0.161089
0.283946
-0.494872
-0.704696
0.379213
0.644728
0.069365
-0.345982
0.556423
-0.019488
0.270613
0.005362
0.709392
0.176823
-0.129806
0.082223
-0.422391
0.508148
-0.312901
-0.182012
0.401714
-0.142608
-0.315109
0.337300
0.048792
0.273141
0.070843
-0.103600
0.343184
-0.096148
0.371551
0.563167
-0.013039
0.089794
-0.151189
-0.545642
0.314293
-0.028124
0.437928
-0.032686
0.388536
-0.044490
0.098010
-0.004799
-0.322110
-0.035044
-0.336858
0.017212
-0.297693
0.545293
0.243523
0.268362
-0.238735
0.275997
0.180896
0.420328
0.029560
0.209589
-0.003052
-0.196874
0.085322
-0.329743
0.315954
0.467933
-0.566946
0.469159
0.007402
-0.277339
-0.098701
-0.134494
-0.232169
0.331686
0.102362
-0.150480
-0.276059
-0.074830
-0.097751
0.254119
-0.290222
0.138249
-0.381102
-0.565753
0.368510
0.337815
-0.387020
-0.068204
0.407252
-0.236227
-0.186084
0.369484
-0.157105
-0.584578
-0.249358
0.663909
0.457376
0.122536
-0.404563
-0.203144
0.533585
-0.204837
-0.098892
-0.375850
0.106093
-0.242695
-0.058357
-0.225231
0.056419
-0.225863
0.499080
0.097283
0.461641
0.549659
-0.577438
-0.282111
0.186092
-0.326403
-0.325776
-0.112298
0.200989
-0.376283
0.095298
-0.352017
-0.309588
-0.200669
-0.013960
-0.314553
0.054818
-0.254067
-0.008899
0.171205
0.404568
-0.015457
-0.499709
0.690856
0.602352
-0.118805
-0.207897
-0.281089
-0.421914
-0.392162
-0.005897
-0.488796
0.320752
0.040534
0.303775
-0.117777
-0.217273
-0.068698
-0.215034
0.751546
-0.292025
-0.621118
-0.208974
0.087943
-0.409167
0.239605
-0.699116
0.398448
0.072061
-0.054096
0.127387
-0.358749
-0.002429
0.231486
0.295387
0.024327
-0.269362
-0.054423
-0.465438
0.130382
0.584461
0.410741
-0.194414
-0.030015
0.072142
-0.493058
-0.051458
0.404311
