0.268754
-0.567704
-0.510250
0.028550
-0.492257
-0.377940
0.169074
0.194745
-0.143355
0.426129
0.152324
-0.399440
0.126286
-0.633026
0.370487
-0.198659
-0.355521
-0.431157
0.296398
0.622682
-0.055856
0.128371
-0.487553
0.193326
-0.787069
0.424651
0.017283
0.352938
0.118041
0.133234
-0.377918
0.291282
-0.178546
-0.277291
-0.361471
0.243630
0.094575
0.328269
-0.251075
0.455135
0.289153
-0.573571
-0.292696
0.295650
-0.387450
0.333368
0.553961
-0.089883
-0.133130
-0.469918
0.293266
-0.120248
0.443321
-0.291815
0.116041
0.035916
0.025995
-0.123911
0.464370
0.459798
0.119699
-0.194174
-0.104235
-0.295972
-0.494414
-0.396586
-0.194500
-0.510974
-0.016984
-0.366862
-0.524023
-0.521976
0.088504
0.281280
0.065821
0.232583
0.341763
0.231262
0.486355
-0.546440
0.005766
-0.208631
-0.594758
0.612230
0.337959
0.615709
-0.222635
0.420394
0.217620
0.147235
-0.114138
0.158227
0.038018
-0.287953
-0.487224
-0.082532
-0.152830
-0.411948
0.245766
-0.085663
0.199697
-0.025813
-0.074683
0.264241
-0.131942
0.553921
-0.216126
-0.572431
-0.017755
0.181628
-0.361004
0.333917
0.129696
-0.113978
-0.063140
0.088704
-0.169971
-0.240832
0.219775
0.155584
-0.183046
0.693787
-0.414964
-0.269654
-0.337829
0.276285
-0.301763
0.259618
0.670019
0.459046
0.275782
0.538903
0.157621
0.311989
-0.390072
0.433059
-0.445898
0.511961
-0.047856
0.056114
-0.185065
-0.090076
-0.146082
0.233107
-0.292807
-0.348083
-0.396681
-0.368952
-0.131954
-0.389734
-0.315679
-0.241964
0.200003
0.182811
-0.160482
0.793363
-0.257535
-0.317044
-0.239028
-0.233573
0.194314
0.404350
0.479820
0.247592
0.302852
0.518438
0.078522
0.371755
-0.242322
-0.230193
0.556251
-0.129204
0.266189
0.071978
0.128691
-0.302925
-0.217010
0.047074
0.202036
-0.014973
-0.105169
-0.534631
-0.007835
0.078675
-0.289289
0.322954
0.444295
0.245334
-0.414740
0.324362
-0.265731
-0.440151
0.269937
-0.087295
0.437027
-0.176518
-0.403093
-0.191023
0.404324
0.312427
0.743593
0.554564
0.195020
-0.174796
-0.150194
-0.232892
0.217717
-0.319514
-0.259410
0.003306
-0.018637
-0.071257
-0.201802
-0.178816
0.302378
0.180480
0.618993
-0.455657
0.690402
-0.518271
-0.358809
0.285826
0.217075
-0.452494
0.263348
-0.054424
-0.406332
0.111963
-0.007291
-0.336878
-0.173988
-0.034943
0.277106
-0.336068
-0.410874
-0.375888
-0.105485
-0.013365
-0.265149
-0.445305
0.085526
-0.588997
-0.416913
0.018595
-0.430514
0.341479
0.238816
-0.327265
-0.395316
0.093151
-0.019897
0.337468
-0.490780
-0.173624
-0.175297
0.441916
-0.174801
0.461782
0.069490
-0.460722
0.803747
0.079250
-0.340253
0.007155
0.430940
0.312696
-0.093053
0.114588
0.154416
0.068536
-0.173718
0.199367
0.403761
-0.144838
0.189654
0.373940
-0.591555
0.538914
-0.204686
-0.321880
0.469743
0.179758
-0.073961
0.349128
0.121936
-0.075627
-0.059538
-0.192102
0.564355
-0.418477
0.349876
-0.505602
0.388438
-0.561055
0.004927
0.272646
-0.595300
0.060456
0.621113
0.004751
0.307254
-0.186119
-0.302366
-0.250470
-0.072140
-0.061995
0.163285
0.080156
-0.071685
0.418702
-0.107620
0.403909
0.415320
0.027094
0.436640
-0.489412
-0.448851
0.597598
-0.311023
0.325856
0.193354
-0.351652
-0.085988
0.735618
-0.584041
-0.022175
-0.134712
-0.075096
-0.491262
-0.408346
-0.244132
-0.267799
0.000203
0.341169
-0.006297
-0.329929
-0.464630
-0.717828
0.284011
0.040303
0.197668
-0.321497
-0.109281
-0.130214
-0.276002
0.352718
0.030742
0.054074
-0.700242
0.187472
-0.059118
0.184179
-0.282710
0.364743
-0.178771
0.419918
-0.025397
0.226830
0.243905
0.206230
-0.120248
0.419533
-0.165494
-0.336875
0.372357
-0.374565
0.351082
0.357025
-0.036797
-0.490622
0.275050
0.385502
-0.424697
0.399372
0.104706
0.002020
-0.282662
-0.038661
-0.084048
0.408443
0.020333
-0.005993
-0.470196
0.331004
-0.188271
0.283843
-0.598215
0.522342
-0.062434
0.325338
-0.012140
0.035830
0.082572
-0.338196
0.049669
0.028048
-0.376372
0.169300
0.403491
-0.525675
0.049254
-0.420057
-0.286691
-0.180409
0.287398
-0.502461
0.548451
-0.144956
-0.071236
0.276208
0.583405
-0.752693
0.201635
-0.186975
-0.391029
0.180823
0.251118
-0.179627
-0.436046
-0.595290
-0.078933
-0.249866
0.300499
0.167389
0.656506
-0.204806
-0.057432
0.299783
-0.224436
-0.110153
0.436542
0.176683
-0.832649
0.042882
-0.390882
-0.369060
-0.002231
-0.613910
-0.047300
0.075062
0.058323
0.203992
0.452151
0.573903
0.384858
-0.025257
-0.278960
-0.580445
0.412579
0.330171
-0.095437
-0.196363
0.041046
-0.113106
0.107490
-0.220347
-0.177033
0.013965
-0.217124
0.290313
-0.077693
-0.261500
-0.722335
0.078167
0.488285
0.023834
0.287273
0.117685
0.143901
-0.249270
-0.026875
0.561495
0.225159
0.543048
0.173110
-0.321241
0.576600
0.553828
-0.345638
-0.446299
0.809674
0.156639
-0.468760
0.350947
-0.276962
-0.458607
0.588072
-0.097361
-0.440330
-0.051777
-0.293984
0.196253
-0.326512
-0.212929
-0.009124
-0.573372
-0.553846
0.232824
0.312232
0.388513
-0.358145
-0.170768
0.360468
-0.261639
-0.496462
-0.530461
-0.301852
0.250388
-0.390065
0.086834
-0.111798
-0.018680
0.013027
-0.696625
-0.341852
-0.307068
0.466265
-0.331751
-0.020942
0.487539
-0.099660
0.458063
-0.331263
-0.172064
-0.029197
0.158867
-0.382761
0.235080
-0.255685
-0.529455
-0.496272
0.207612
-0.446565
0.522409
0.429109
-0.550680
0.199438
-0.356762
0.166805
-0.358415
-0.144661
0.305703
-0.119964
-0.659827
0.637314
-0.084552
-0.229130
0.258449
-0.279771
-0.172309
0.013573
0.320880
0.146387
-0.124899
-0.186420
0.038760
0.188840
0.003418
0.412589
-0.002488
0.437405
0.560589
0.382911
0.440044
0.051771
0.310641
-0.055221
-0.258393
0.203221
0.551376
-0.300983
-0.037089
0.409064
-0.132151
-0.344224
-0.009610
0.000664
-0.689406
0.430863
-0.021846
-0.023687
-0.552677
-0.204337
0.027076
-0.180692
-0.151739
0.391341
0.604258
-0.524760
0.189325
0.396016
0.361669
0.516615
0.243855
-0.287367
-0.486982
0.311039
-0.434480
0.427439
-0.290498
0.182565
-0.469951
0.412632
-0.482533
-0.529249
-0.371570
-0.706305
-0.374144
-0.212795
0.387588
-0.522319
-0.078914
0.149370
0.169933
0.322457
-0.649578
-0.420803
0.101564
-0.639374
0.153458
0.431621
-0.071174
-0.401293
0.057538
0.307910
-0.197556
-0.203582
-0.721977
0.443520
-0.530966
0.223702
0.405691
-0.141601
0.321756
0.306664
0.138147
-0.306216
0.329229
0.082623
0.247534
0.624183
-0.319806
-0.453542
-0.138112
0.666531
-0.099517
-0.027493
-0.026262
0.088258
-0.329000
0.161982
-0.277696
0.064600
0.113296
0.410949
0.157191
-0.562657
0.373453
0.038397
0.227941
-0.316972
0.388033
0.101161
0.479874
-0.214658
-0.146229
0.637082
-0.336530
0.070309
0.533008
0.190629
-0.223834
0.003171
-0.512212
0.023906
0.404570
0.010953
-0.038919
-0.094732
-0.111107
0.358174
0.712043
0.062937
-0.603335
-0.122383
-0.347705
-0.241602
-0.473274
-0.141941
0.155937
0.199037
-0.054248
-0.272607
0.073601
-0.274118
-0.492299
-0.390461
0.401475
0.175755
-0.505316
-0.438764
0.056052
0.175484
0.652452
-0.341631
-0.546882
-0.255871
-0.376990
0.035232
0.651768
0.019409
0.208889
-0.143046
0.159913
0.146506
-0.231794
-0.429539
0.102824
-0.019035
-0.130556
-0.443905
0.009398
0.260365
0.891229
-0.156416
0.444365
0.284757
0.393282
-0.286450
0.024274
-0.042840
0.065787
-0.150880
0.412535
-0.444082
-0.062738
-0.420032
0.332932
-0.502331
-0.331774
0.533185
0.194341
0.043554
-0.110853
0.498634
-0.327623
-0.206253
0.090457
-0.736675
0.171328
-0.548199
-0.115869
-0.009553
0.323631
-0.186385
-0.436395
-0.333068
0.006884
-0.096804
0.382917
0.591960
0.075110
0.483798
0.070369
-0.289790
-0.044346
0.110186
0.582385
0.426756
-0.378807
0.088434
-0.643442
-0.195156
-0.139607
0.029033
-0.337860
0.458108
-0.547911
-0.673958
-0.054306
0.847413
-0.088707
0.137336
0.478207
-0.322340
0.130635
0.151266
0.359611
0.181906
-0.193820
-0.250188
-0.337420
-0.077131
0.372927
0.075914
0.340050
0.318697
0.520953
-0.063882
-0.069823
0.297339
0.222583
0.389076
-0.151564
-0.226400
-0.083202
-0.507168
0.273681
-0.125442
-0.492234
0.007651
-0.036052
-0.284033
-0.159685
0.427941
0.240798
