-0.011528
0.295899
-0.107508
-0.041991
0.234038
0.077291
0.240178
0.499629
-0.065244
0.426129
-0.048133
0.185052
-0.430166
0.534262
-0.469561
-0.015093
0.242483
-0.239154
0.224565
0.681632
-0.255342
-0.047085
-0.088412
-0.324691
0.031686
-0.401840
0.522723
-0.093466
-0.132274
0.048690
0.255828
0.584012
-0.413142
0.093310
-0.282592
-0.004253
0.207793
-0.112246
0.207115
0.184937
0.267142
0.309871
-0.286201
0.053489
-0.615155
-0.450438
0.090574
-0.073566
0.378652
-0.713769
-0.212507
-0.197350
-0.166723
-0.528289
0.463517
-0.574833
-0.517175
0.030463
-0.033652
0.549117
-0.207934
0.173430
0.295442
-0.339819
0.243986
0.450040
-0.576896
-0.154774
-0.134653
-0.278434
-0.114758
-0.228664
0.180105
0.460611
0.397195
0.156360
-0.418369
0.366788
-0.142317
-0.372141
-0.356604
0.325198
-0.393886
-0.451641
-0.147497
0.211619
-0.308562
0.806116
-0.274481
-0.012058
0.295375
-0.426028
0.514221
-0.268577
0.126145
-0.577819
-0.536041
-0.216513
-0.611818
0.202468
-0.490666
-0.295408
-0.074657
0.233257
0.070725
-0.387064
-0.069113
0.210406
0.053142
0.088321
0.303150
0.296254
-0.362049
-0.459432
-0.297921
-0.142350
-0.200261
-0.359594
-0.479365
0.717625
-0.393683
0.368304
0.110612
0.406663
-0.214581
0.637641
0.265690
0.050017
-0.168205
0.438789
-0.018085
0.415655
0.304798
-0.087826
-0.462809
0.829097
0.486619
0.312961
0.395994
-0.060347
0.193015
-0.228541
-0.719699
-0.140551
0.151176
0.174533
-0.142302
0.565307
0.599984
0.334235
-0.148061
-0.355044
0.078251
0.103288
-0.107360
0.220010
-0.210378
-0.205563
-0.597184
-0.489876
-0.515743
0.183794
0.435529
0.515686
0.322602
-0.469618
-0.353509
0.347566
-0.423625
-0.283465
0.042456
-0.346635
0.047647
0.566709
0.030895
-0.109909
0.502672
-0.589148
0.291397
-0.053476
-0.128644
-0.713250
0.242608
0.203710
-0.004186
0.375076
0.107519
0.195456
0.103521
0.111439
-0.306484
-0.200315
-0.169381
-0.040556
0.294564
-0.014262
0.248771
-0.503315
0.075790
-0.541273
-0.138734
0.146461
-0.440961
-0.436657
-0.083032
0.040814
-0.163703
0.192237
0.129250
0.123413
0.006350
0.446660
0.569621
0.037976
0.438141
-0.173066
0.076123
-0.253789
0.342775
0.479224
-0.177079
0.041496
-0.451674
-0.671515
0.319529
0.294034
0.274112
-0.400730
0.011126
0.074358
0.106956
0.108955
-0.423703
0.228605
-0.171118
-0.022811
-0.319599
-0.107949
-0.530444
-0.425154
-0.498037
-0.068731
0.031591
0.050310
-0.573368
0.044523
-0.143241
0.078297
-0.488296
0.570209
-0.297114
-0.343568
-0.489426
-0.046176
0.088836
-0.630088
-0.104834
0.483725
0.199945
0.217224
0.127544
-0.599047
0.302199
0.600396
0.015094
-0.138804
-0.650660
-0.337944
-0.298776
0.420195
-0.343983
-0.531248
0.272376
-0.296011
-0.062903
-0.012685
-0.658432
-0.286505
0.461512
-0.101784
0.556485
-0.292377
0.063236
0.010270
0.012481
0.290771
0.271851
0.102699
0.106671
0.689588
-0.801233
-0.505602
0.351194
-0.545131
0.197128
0.495048
0.282238
-0.038754
-0.587872
-0.049649
-0.538583
-0.106737
0.440164
0.011706
-0.063307
-0.312138
-0.463028
0.021165
-0.265392
-0.198983
0.048797
-0.140503
0.147439
-0.337295
0.428182
-0.155145
-0.085298
0.606118
0.273670
-0.275701
-0.211601
0.014609
-0.534030
0.688911
-0.126864
0.278726
0.404910
0.173202
-0.367680
-0.161613
0.323980
-0.211548
0.382916
0.231000
0.233125
0.301430
-0.363661
0.166265
-0.451625
-0.272561
0.328159
-0.504967
0.659205
0.440366
-0.019702
-0.337654
-0.098657
-0.210908
-0.645003
-0.615848
-0.495048
-0.384465
-0.276864
0.616877
-0.216416
-0.320421
-0.265179
0.674095
-0.168002
0.030035
0.198842
0.697169
-0.076590
0.140856
-0.748767
-0.398887
-0.440031
-0.629029
0.455495
-0.711213
-0.025120
-0.044735
-0.240782
0.534363
0.019435
0.299550
0.417917
-0.497009
-0.165914
-0.693678
-0.241540
0.344174
0.081279
-0.342262
-0.473570
-0.013422
-0.068595
0.612321
0.196034
0.063048
-0.164945
-0.516447
0.306070
0.588585
-0.083035
-0.209206
-0.381787
-0.349089
0.322553
0.009553
-0.595645
0.152648
-0.319462
0.296695
-0.100285
0.155709
0.039481
-0.000262
-0.245822
-0.040122
0.001974
-0.392114
-0.323913
0.405776
-0.344744
-0.051682
0.007529
0.264908
-0.572507
0.176835
0.452187
-0.163246
-0.236215
-0.015874
0.363132
0.171294
0.414151
0.237641
0.267484
0.275081
0.178061
0.228944
-0.410138
0.308380
-0.317375
-0.230673
0.017672
0.522999
0.029932
-0.115133
0.381783
0.233939
0.218422
0.610383
0.438599
-0.142994
-0.487058
-0.468767
0.062049
0.668484
0.281170
0.233886
0.573725
0.086125
0.117152
-0.292160
-0.506319
0.209720
-0.122859
-0.120305
0.126036
0.030962
-0.451227
0.249059
-0.162884
0.486087
-0.277651
-0.312985
-0.036589
0.357980
0.391341
0.663105
-0.605257
0.293182
0.005992
-0.106359
0.458934
0.347744
0.700225
-0.113947
-0.454649
0.245792
-0.560300
0.155429
-0.272827
0.501851
-0.245255
-0.284104
0.444031
0.368835
0.113438
0.533192
-0.387783
-0.095332
-0.134853
0.058108
0.111596
-0.160435
0.074019
-0.436494
-0.522709
0.458741
-0.177971
0.043718
0.215437
0.376278
-0.204548
-0.094071
-0.243518
0.450492
0.661547
0.001920
-0.018260
0.016236
-0.278612
-0.159769
-0.013318
0.068121
0.057522
0.135881
0.476416
0.014404
0.479363
0.428431
-0.666290
-0.390892
0.560780
0.157018
-0.091447
-0.236158
0.251467
0.282999
-0.588164
0.515292
0.006577
-0.441848
0.287773
0.074089
0.040113
0.017224
-0.062067
0.274633
0.498149
-0.330145
0.261461
0.013696
-0.386795
0.522440
-0.514075
0.582887
0.097978
0.120062
-0.555962
0.654818
-0.031117
0.109554
0.145615
0.265626
-0.322303
0.043385
-0.285486
0.376353
-0.513391
-0.315833
0.332567
0.547233
-0.304763
0.407608
0.020186
0.505862
-0.149301
-0.059587
-0.559189
0.043956
-0.280010
0.479385
-0.566312
-0.140534
0.408649
0.041911
-0.517812
-0.059324
0.062754
0.497373
-0.449332
0.327074
0.189990
-0.459803
-0.010029
-0.012403
-0.077723
0.001594
-0.289556
-0.126739
-0.365055
-0.074462
0.427444
0.008446
0.337924
0.425731
-0.164856
-0.252528
0.132569
-0.582854
0.578987
-0.147786
0.046021
-0.270966
0.227692
0.231601
-0.088354
-0.071870
0.265422
-0.119739
0.401527
-0.033947
-0.108128
0.259279
0.350284
0.154897
-0.353724
-0.113799
-0.137175
-0.104065
-0.212825
0.399995
0.076112
-0.079354
-0.261430
-0.155613
0.304220
0.336266
0.171289
-0.447611
0.330108
0.543366
-0.298723
0.138817
0.169489
0.285681
0.544796
-0.062926
0.045777
0.521755
0.282684
0.573712
0.268702
0.081894
0.519508
0.288704
0.226105
-0.544621
-0.082042
-0.195513
-0.004694
0.401600
-0.331182
-0.292675
0.107197
0.727265
-0.081501
-0.507854
-0.378807
0.330135
0.168832
0.507445
0.625040
-0.425551
-0.257119
-0.537944
0.514453
-0.393666
-0.239811
-0.202914
0.356251
-0.094636
0.664201
-0.023661
0.121890
0.113251
-0.357458
0.698138
0.076461
0.159734
-0.181273
0.725047
-0.080323
-0.219536
0.419371
-0.289232
-0.160143
0.159120
0.107183
0.398652
-0.055477
-0.052464
-0.338079
0.461554
-0.209105
0.300431
-0.197020
0.040823
-0.465789
0.019620
-0.399140
0.094996
0.021028
-0.533039
-0.190614
0.476352
-0.118268
-0.605209
0.032093
-0.497602
-0.008992
-0.581043
0.161753
-0.803815
-0.317330
0.704485
-0.587427
-0.482510
-0.560611
0.271188
-0.292072
0.489493
-0.533360
0.029787
-0.305657
0.295477
-0.120106
0.489871
0.319856
0.532917
0.349506
-0.362810
0.117911
-0.191286
-0.608647
-0.168026
-0.122030
-0.489133
0.365490
0.195300
0.298348
-0.170996
0.190863
-0.281232
0.118483
0.182870
-0.460739
-0.103048
0.050689
0.330022
-0.335067
0.191181
-0.470322
-0.510281
-0.134088
-0.378789
0.117713
0.460814
-0.436430
-0.113500
0.216934
0.118921
0.241260
0.060018
0.288334
-0.384845
0.291375
0.244318
-0.477106
0.585061
-0.286307
-0.241957
0.348548
-0.482841
0.113241
0.182724
0.067842
-0.075271
-0.177534
-0.225706
0.289800
0.375863
-0.127308
0.483711
-0.564286
-0.278025
0.378694
-0.310597
0.190563
0.189280
0.005280
0.244877
0.257338
-0.139145
0.108464
-0.431552
0.165627
0.456629
-0.433062
-0.091933
-0.238835
0.013342
-0.566823
0.157566
0.444842
-0.312742
-0.273171
0.252484
-0.634195
0.102955
0.130395
0.387360
