-0.161603
-0.466951
-0.169063
-0.037667
-0.065614
-0.025699
-0.072225
-0.109366
0.041345
0.215328
0.170852
0.013461
-0.124524
-0.500441
-0.529624
0.043601
-0.214991
-0.310630
0.056333
0.321241
0.169064
-0.043822
-0.526234
0.621944
-0.505926
-0.377433
-0.043171
-0.399610
-0.220772
0.102223
-0.092793
-0.133672
-0.252591
0.567320
0.044043
0.108546
-0.452506
0.144591
0.227620
-0.315304
0.060799
-0.429938
-0.120957
-0.007869
-0.563662
0.019018
-0.362160
-0.557514
0.345355
0.057373
0.060790
-0.240746
-0.138161
-0.360314
0.024154
0.183253
-0.479118
-0.001249
0.031920
0.633842
-0.320294
-0.554285
0.579293
-0.086824
0.445038
-0.487900
-0.166997
0.558907
0.338423
-0.179189
-0.323615
-0.434988
0.131677
-0.284231
-0.457431
0.122187
0.086003
-0.318320
0.027573
-0.473150
-0.118007
0.351196
-0.297034
0.594682
0.090820
0.137488
0.333189
0.499556
-0.514081
-0.400670
0.296510
0.344597
-0.658734
-0.203553
0.152336
-0.245806
-0.540810
-0.347571
-0.397672
0.210011
0.024400
0.129033
-0.009040
-0.437810
-0.096707
-0.497201
0.125012
0.470069
0.234269
-0.421607
-0.267401
0.486968
0.276219
-0.343733
-0.210702
-0.209313
0.021923
-0.358703
0.187048
-0.409527
0.565935
0.575218
-0.151281
-0.387143
-0.170520
-0.194515
0.078074
0.018193
0.054018
-0.259076
0.544561
0.171745
0.489710
0.052578
-0.434831
0.488129
-0.149882
-0.174201
-0.183965
-0.263624
-0.039838
-0.263968
-0.013775
0.269142
0.005055
-0.194574
-0.135586
-0.189415
0.409878
-0.352539
0.185370
-0.306743
-0.254801
-0.075180
0.428796
0.588639
-0.438371
0.070560
-0.173327
-0.355374
-0.560471
-0.152775
0.666966
0.047759
-0.368028
-0.012683
-0.411920
0.668215
-0.259336
-0.295466
0.212089
-0.282391
0.143360
0.738597
0.104306
-0.299692
-0.103521
0.228832
-0.053540
-0.373611
0.441107
0.333397
0.051431
-0.291384
-0.598820
0.051153
0.568818
0.136454
0.088473
-0.552484
0.576825
0.328362
-0.231314
-0.220117
0.363619
-0.176518
0.332425
-0.462992
-0.338149
0.276976
0.214263
0.418472
0.827430
0.282541
-0.288093
-0.306630
0.239548
-0.234398
0.162460
0.314564
-0.364611
-0.100552
-0.085723
-0.247133
-0.017688
0.258892
0.270619
0.257796
0.166631
-0.089282
-0.318862
0.488311
0.556060
-0.066103
0.205312
0.368963
0.701424
-0.355314
-0.108415
0.508281
0.044689
0.375325
0.489553
-0.172011
0.613718
0.165577
0.161982
-0.068467
-0.594337
0.051480
-0.558426
-0.165020
0.204634
0.028478
-0.418088
0.503133
0.001827
-0.106626
0.412783
-0.027026
0.163898
0.437340
0.232047
0.211262
0.521366
0.181398
-0.159428
-0.329717
-0.179903
-0.283418
0.277409
-0.779298
0.031425
-0.189496
-0.544184
-0.352842
-0.373679
-0.065785
-0.122659
-0.305230
-0.459554
-0.243274
0.375921
-0.136359
0.374769
-0.123505
0.153650
-0.135831
0.350381
0.046351
-0.051322
0.320354
0.125885
-0.135162
0.202179
-0.246512
0.057055
-0.499948
0.451220
-0.190703
-0.719587
-0.414422
0.420427
0.073201
0.619962
0.014559
0.455678
0.094401
0.310554
-0.167146
0.261026
-0.255878
0.457621
0.254056
-0.071345
-0.328413
0.639967
-0.082861
-0.219264
-0.761107
0.073255
-0.004726
0.172225
0.150556
-0.567430
0.105398
0.366640
-0.264723
0.393925
-0.064590
-0.323156
0.118105
-0.021339
0.297324
0.301250
-0.276616
0.148456
-0.411062
-0.196786
-0.323334
0.217219
-0.523008
-0.629850
-0.459029
-0.089135
-0.462015
-0.500867
-0.158238
0.273768
-0.358784
0.460659
-0.327267
0.271482
0.027989
-0.042431
0.363862
0.022062
-0.288139
-0.499773
0.168537
-0.039112
-0.300303
0.389978
0.307091
0.037467
0.101297
0.338149
0.285605
-0.405780
-0.072201
-0.555763
-0.228154
-0.339825
0.136957
0.221111
0.108208
0.106607
0.429958
-0.029758
-0.320293
0.077658
-0.107492
0.192958
0.188876
0.434535
0.159031
-0.098855
-0.041925
0.088146
-0.053417
-0.312862
-0.301261
0.239365
-0.184011
-0.430963
0.381378
-0.027035
0.096742
-0.021328
-0.039963
0.518944
0.046267
0.084343
-0.477033
-0.242914
0.484757
-0.301939
-0.450600
-0.529828
0.006859
0.134362
-0.035919
0.036112
0.585330
-0.436259
-0.485653
0.155456
0.016507
-0.380606
0.191956
0.107658
0.031239
0.639615
0.437377
-0.389396
-0.278425
-0.016862
0.566838
0.388498
-0.252701
0.013180
-0.047722
0.308523
0.394080
0.396618
-0.451840
-0.413866
-0.352979
0.498254
-0.313732
0.149480
0.003990
-0.670970
0.383926
0.328216
0.301035
0.025131
0.390454
0.185574
0.194487
0.017077
0.470468
0.177039
-0.262139
-0.242362
-0.083717
0.268645
-0.451568
-0.002354
0.561461
0.744583
0.233459
-0.485067
-0.113106
0.305936
-0.422505
-0.033264
0.339608
0.944260
0.505379
0.236841
-0.248640
-0.572331
-0.490702
-0.573734
-0.142457
-0.350320
-0.281506
0.449928
-0.409763
0.000295
-0.463364
-0.229813
0.143957
0.032321
0.193343
-0.105108
0.155325
-0.025837
-0.307135
-0.298243
0.244036
-0.200640
0.179514
0.097789
0.001712
0.084974
-0.081526
-0.492433
0.109291
-0.224824
-0.165531
-0.282392
-0.123159
-0.006027
0.246709
-0.241470
-0.116146
0.176027
-0.180975
0.076775
0.169411
-0.324387
-0.357214
0.782586
-0.258347
-0.438583
-0.315696
0.300832
0.075788
0.459145
0.038502
0.142905
0.176240
0.512446
-0.149316
0.433257
-0.037009
-0.314979
-0.173853
0.438714
-0.369016
0.122134
-0.180514
0.416716
0.173254
-0.106256
0.229680
0.594117
-0.261577
-0.138074
-0.077428
-0.501495
-0.574467
0.366329
-0.293825
0.229351
-0.505042
0.395731
-0.281596
-0.132608
0.308153
0.570498
-0.375402
0.233461
0.553497
-0.093235
-0.034624
-0.015698
-0.161174
-0.133744
0.347646
0.578252
-0.312100
0.287987
-0.011283
-0.151259
-0.191775
0.385055
-0.718195
0.137089
-0.027873
-0.153730
0.617480
-0.495364
-0.121698
-0.523438
-0.173333
-0.418479
-0.439598
-0.174213
-0.026836
-0.546757
0.280590
-0.380187
0.451492
-0.122423
-0.454618
0.389206
-0.235751
-0.020554
-0.239205
0.224268
0.491579
-0.400916
0.114028
0.140769
0.035126
0.238201
-0.021111
0.311165
-0.020454
0.576531
-0.062257
0.181136
-0.149922
0.409893
0.246138
-0.622668
0.321465
0.241114
0.223472
-0.518662
0.022822
0.370236
-0.343081
-0.154316
0.280591
0.464429
0.180737
-0.267889
0.280051
0.397121
0.011264
-0.248229
-0.167935
-0.394610
-0.122241
0.078164
0.294541
0.247704
-0.187161
-0.244032
0.009454
0.183713
0.203493
0.578645
-0.174730
0.465607
-0.445754
-0.421809
0.249952
-0.339038
0.296331
-0.176435
-0.370589
0.148572
0.174401
-0.423015
-0.269095
0.035061
0.553667
0.195211
-0.407646
0.471940
0.198003
0.478346
0.569362
-0.068835
-0.129114
-0.301092
-0.297971
0.598345
0.162692
-0.036943
0.526433
0.015991
-0.127684
-0.012840
-0.194375
-0.248880
0.012944
-0.124264
0.400278
0.207089
0.045851
-0.547341
-0.101600
-0.087189
-0.319286
-0.352559
0.097317
0.282473
0.605650
0.042607
-0.331840
-0.187024
0.057009
-0.076057
-0.003901
0.280851
0.047368
-0.443599
-0.227774
0.329382
-0.204435
-0.165147
0.347600
0.488006
0.291263
-0.140794
-0.069224
-0.132109
0.146813
0.255720
-0.011240
0.498512
0.391979
-0.052858
-0.467858
0.465016
0.592316
-0.018234
-0.070447
0.172494
-0.012537
0.407161
0.464122
-0.266656
-0.403784
0.216571
0.059284
0.319421
-0.769059
0.382650
-0.664529
0.205470
-0.254663
0.138738
-0.556677
0.136435
0.266431
-0.026225
0.436408
-0.317273
0.025765
-0.418790
-0.232113
-0.247556
-0.187894
-0.311506
0.286935
-0.528050
0.069710
-0.041818
0.575117
-0.420032
0.052637
-0.213004
0.341687
-0.121724
-0.088044
0.204669
-0.424095
-0.057842
-0.482519
0.436840
0.215236
0.078401
-0.521589
-0.509923
0.321180
-0.580823
0.534368
-0.438590
0.344033
0.017757
0.142776
0.245678
-0.334332
-0.279788
0.288435
-0.179686
-0.042204
-0.353087
-0.290793
-0.204656
-0.176998
0.010820
-0.403640
-0.754290
-0.431390
-0.661455
-0.404674
-0.112619
-0.499458
0.478473
0.068231
-0.027802
0.260972
0.530931
-0.455710
-0.039260
0.453797
-0.042461
0.393888
-0.420030
0.589480
0.202933
-0.107715
-0.121240
-0.222125
-0.443635
0.183921
0.261864
-0.418506
-0.512457
0.535363
-0.057612
-0.042670
0.110189
-0.252050
-0.195228
0.051449
-0.457239
0.324978
-0.570044
-0.594366
0.451406
-0.449242
-0.008037
-0.202427
0.529429
-0.388262
-0.227364
0.230985
