-0.078612
-0.066186
-0.006348
-0.610442
-0.371746
0.598920
-0.015129
0.301693
-0.299886
-0.259558
-0.305427
0.026010
-0.023880
-0.167949
0.440659
-0.126368
-0.494256
-0.184156
-0.208975
-0.453352
-0.302664
-0.293604
-0.526234
-0.104358
-0.619313
-0.388551
-0.346052
-0.265743
-0.480930
0.646932
0.209152
0.334767
0.105060
-0.305028
-0.271610
0.287990
0.252906
0.108917
-0.166769
-0.084130
0.133416
-0.346019
-0.262331
-0.197165
0.729743
0.397147
0.452390
0.346754
0.229225
0.114953
0.424265
0.000576
0.160248
0.535147
-0.052603
-0.403006
0.113491
-0.649740
0.329086
0.117129
0.563113
0.598081
-0.507041
-0.263411
0.419401
-0.233905
0.546879
-0.516332
-0.274919
-0.353709
-0.644892
-0.304681
0.108707
-0.126731
0.620889
0.065456
0.086044
-0.316134
0.489420
-0.173178
-0.113260
-0.294609
0.233741
0.277752
0.173367
0.306541
-0.118208
0.389209
-0.540491
-0.525671
-0.050996
0.413595
-0.490731
-0.063979
-0.018205
-0.551291
0.067804
-0.350717
-0.437315
-0.667045
0.402442
-0.393855
-0.001957
0.039913
-0.118243
-0.252696
0.316041
-0.376781
0.605228
-0.342958
-0.126991
-0.799266
-0.063606
-0.151102
0.429963
0.112440
0.051471
-0.084669
-0.082183
-0.310539
0.301852
0.142028
0.054116
-0.388753
-0.203448
0.456021
0.129760
0.553031
-0.055608
0.077476
0.166495
0.608648
0.352963
0.052578
0.064609
-0.455821
0.181105
-0.586176
0.242888
-0.305584
0.660291
-0.026186
-0.195956
0.151779
0.344359
0.095247
0.026487
-0.479397
-0.134221
0.231128
0.206639
-0.314031
0.192197
0.004099
-0.278030
0.430243
-0.508907
0.099117
-0.658747
0.346013
-0.398942
-0.094916
0.639024
0.336493
0.388651
0.501990
-0.327016
-0.178100
0.152717
-0.197205
-0.079162
0.269576
-0.251183
-0.087807
0.193232
-0.155875
-0.783373
0.474459
0.522455
0.006223
-0.349990
0.686678
0.230706
-0.376233
-0.523901
0.233859
-0.450398
-0.793049
-0.150309
-0.486064
-0.244304
-0.162744
-0.234078
-0.545045
0.369060
0.116608
0.386477
0.791465
0.058231
0.160308
-0.299498
0.772940
-0.474535
0.248715
0.598954
0.259246
-0.451961
-0.359665
-0.148074
0.098228
0.178804
-0.175059
0.154761
0.064016
-0.032969
-0.133215
-0.531993
-0.024588
0.041571
0.008378
-0.177079
-0.272861
0.291240
0.285594
0.325621
0.378081
-0.429304
0.423479
-0.290171
0.132575
-0.183672
0.127513
0.239564
0.287130
-0.588727
0.383980
-0.076633
0.311208
-0.055251
-0.077268
-0.371022
-0.426792
-0.544171
-0.056756
0.418970
0.486898
-0.454377
-0.542083
0.140602
0.082815
0.484614
0.009372
0.127843
0.244859
0.304885
-0.111922
0.105750
0.535936
0.349965
-0.626366
-0.240390
-0.151464
-0.248126
0.553037
0.051311
0.159432
-0.484334
0.586401
-0.122659
-0.010177
0.114515
-0.325940
0.378702
-0.357477
-0.443150
0.427985
0.188961
-0.069625
-0.669472
0.164910
0.140889
0.398874
-0.104957
-0.018678
-0.209195
0.136795
0.217315
-0.224264
0.613238
-0.419191
-0.431230
0.334982
-0.105682
-0.262842
0.350700
-0.068061
0.409321
-0.447421
-0.261181
0.260047
0.115116
-0.268974
0.191804
-0.027084
-0.575414
0.443441
-0.118801
0.323671
0.036018
0.476699
-0.192351
-0.411408
-0.316453
0.246731
-0.039920
-0.232300
-0.652254
0.203136
0.290774
0.014877
0.413225
-0.078578
-0.670668
0.432832
-0.129600
-0.252524
-0.212778
-0.027992
0.225547
-0.227753
0.148691
-0.126708
0.294222
-0.153342
0.063960
0.352232
-0.219116
-0.096428
-0.194337
0.181707
-0.419784
0.486373
0.380777
0.058668
-0.097990
-0.412114
0.372107
-0.391390
-0.373796
0.270080
0.116669
-0.284873
0.041629
-0.151190
0.257623
0.245799
-0.521909
-0.192734
0.401279
0.198555
0.035985
-0.021109
-0.413565
0.119247
0.284616
-0.285105
0.353197
-0.261507
-0.032793
-0.451464
0.143364
0.366040
0.244800
-0.357860
0.464154
-0.211331
0.133810
-0.596504
0.060089
-0.000931
-0.229579
0.079482
0.375057
-0.283496
0.314966
-0.246271
0.040419
0.266300
0.381979
0.150289
-0.116625
-0.245800
-0.506079
-0.312254
0.456999
-0.428530
-0.176651
0.038271
-0.213432
-0.023550
0.328313
-0.135454
0.093695
-0.211741
-0.473630
-0.713807
-0.147257
-0.406583
0.001406
0.371779
-0.116980
-0.038788
-0.426340
0.349682
0.099362
-0.297103
-0.162022
0.036352
-0.346446
0.045359
0.018326
0.207293
0.364674
-0.031601
-0.270572
0.011247
0.249288
0.230208
0.381151
0.205168
0.115236
-0.021992
-0.439027
0.171965
0.331185
-0.195799
0.056317
0.186516
-0.301756
0.652473
0.052472
0.263091
0.369227
0.497702
-0.151883
-0.126412
0.142669
-0.111889
0.230232
0.009921
-0.299629
-0.200868
0.003453
0.367132
0.032549
0.165438
0.243033
0.198525
-0.301227
-0.296118
-0.218556
-0.441966
0.222289
0.329424
0.266343
0.082037
0.374938
-0.096209
0.444646
0.329875
0.242284
0.243206
-0.219345
0.420103
-0.335075
0.375120
-0.339390
-0.337800
-0.016377
-0.041020
-0.253172
0.021901
0.395660
0.093025
0.482649
-0.203192
0.110566
-0.100688
0.153162
-0.065162
-0.515596
0.320533
-0.223223
-0.659355
-0.602875
-0.090380
-0.132714
-0.111561
-0.081496
0.492802
-0.390948
-0.385314
0.115413
-0.224887
0.301455
-0.349118
-0.601774
-0.373033
-0.418163
0.292977
-0.353727
0.259760
-0.109222
0.149333
-0.188065
-0.514341
-0.369856
-0.643784
0.117618
-0.207731
0.078047
0.191870
-0.251501
-0.259153
-0.029012
-0.415177
0.419194
0.315848
0.204709
0.279314
-0.154513
0.485357
0.370674
0.477990
-0.020935
-0.239642
0.367080
-0.367957
0.026798
0.699410
-0.025818
0.247426
-0.130560
0.344574
-0.422494
-0.141637
-0.151245
0.002602
0.170895
-0.063445
0.265236
-0.327878
0.484549
-0.225053
0.148133
-0.245660
-0.332954
-0.330725
0.282140
0.105079
0.188285
0.625581
-0.029753
0.542092
-0.449942
0.226006
0.328536
-0.387871
0.121200
0.238119
-0.187992
-0.022971
-0.240293
0.089067
-0.418341
0.479385
-0.190478
-0.113050
-0.353556
0.495804
-0.070467
-0.207859
0.060069
-0.231636
-0.424889
0.065308
-0.479011
-0.183192
-0.164935
0.074968
0.143206
-0.204921
-0.077680
-0.154658
-0.182780
-0.780196
0.048950
0.548183
-0.185574
-0.064435
0.532022
0.357573
0.132569
0.282277
-0.561821
-0.434139
-0.687929
-0.012199
0.122782
0.404474
-0.517662
0.176458
-0.415541
0.166264
0.329145
-0.580443
-0.325564
-0.245543
-0.041444
0.064631
0.280250
-0.095378
0.111454
-0.321452
0.243737
0.173835
-0.353647
-0.345316
-0.383619
0.157075
0.275082
-0.113330
-0.553098
-0.166606
-0.594409
0.674204
-0.122470
0.189622
-0.609413
0.474127
-0.609847
-0.235693
0.245865
0.420293
0.021764
0.035455
0.620163
-0.242328
0.013270
0.117534
0.002775
-0.441662
-0.215456
-0.156267
-0.066011
-0.301502
0.223281
0.184180
-0.203453
0.842387
-0.529248
-0.231909
0.192009
0.081102
-0.141061
0.357735
0.625040
0.282693
0.273733
0.728483
0.278221
-0.501797
-0.382732
-0.326149
0.449408
0.425365
-0.068037
-0.060187
0.154067
0.070547
-0.179837
0.239191
-0.377172
0.240364
0.419652
0.120159
-0.201269
0.013303
0.245278
-0.508157
-0.171010
0.173402
-0.376556
-0.424176
0.248660
-0.335823
0.329341
0.187814
0.373877
-0.042166
-0.476976
0.016335
0.315701
0.150290
0.309211
0.116620
-0.456765
0.460566
0.073659
0.274832
-0.131085
0.291876
0.188294
0.306249
0.565330
0.369427
0.594782
-0.113786
0.271709
0.118253
-0.347445
0.128456
-0.004719
-0.042449
-0.027869
-0.378027
0.172237
-0.791427
-0.146629
-0.222338
-0.523179
-0.186355
0.326621
-0.177640
0.041131
-0.069947
-0.097885
0.291814
0.549029
-0.158418
-0.105829
0.024673
-0.297016
0.487176
0.521813
0.531648
0.008528
0.222777
0.452802
-0.379768
-0.238246
0.268363
-0.182631
0.342456
0.112685
-0.226129
0.306044
-0.384891
0.603487
-0.082451
-0.326042
-0.527456
-0.013960
-0.529283
0.067783
0.112670
0.555510
0.561704
-0.209561
0.170845
0.486094
0.722968
-0.201046
-0.355355
-0.243230
-0.261942
-0.250803
-0.765362
-0.518418
-0.240267
0.535709
-0.223337
0.014410
-0.701403
-0.484887
0.754699
-0.080334
0.424356
0.227864
-0.303266
-0.042386
0.174546
-0.303438
0.239321
0.067642
-0.103599
0.192062
-0.078961
0.067994
0.547401
0.106548
-0.208938
-0.334979
0.078772
-0.433045
0.274864
0.374597
-0.672936
0.546103
0.178359
-0.469505
0.177781
0.332423
0.395590
-0.402757
0.560445
