0.001703
3.435871
-4.463457
-2.669800
-2.985468
1.462290
-4.003077
1.085049
-1.695972
0.710484
-1.134487
-1.009474
-1.818509
-2.578797
-3.327803
-0.367552
5.446231
-1.206703
-0.937898
-1.002943
2.424059
0.867389
-0.244227
-0.823710
-3.272141
4.891617
-2.173881
2.911614
-0.238271
2.167779
-4.880115
-5.808087
-0.156560
0.718402
0.264068
0.586337
-1.045680
-0.070593
-3.560659
-0.074087
-4.082205
-0.924581
2.627168
-0.624892
-1.438881
-0.539372
-11.507700
0.387394
12.523058
-0.307455
0.429055
-0.106785
-0.420438
0.138524
-0.002418
-0.272991
-6.052812
0.268231
2.819251
-2.661903
0.517826
0.210289
-2.466340
4.508115
2.832548
0.804554
-3.835688
-0.939254
-1.484563
3.658907
0.844591
-1.007745
-1.431389
-1.636818
-0.860989
-0.270258
-2.340975
-0.838782
0.926830
0.225610
-0.808349
-2.164946
-3.883526
-0.250708
-5.397299
-1.839748
-9.310757
-1.060364
2.937338
-2.579001
0.074916
-1.738758
1.609160
-0.114769
-1.454890
6.265859
-6.600379
-2.788680
-2.685590
-1.567750
-2.951788
-1.499564
3.674808
0.355151
-0.435217
-0.912545
-0.055198
2.652726
-0.075710
-3.394587
-2.173028
2.205014
1.519262
-3.164061
0.478660
-6.440531
0.368107
1.151813
1.866661
0.872446
7.439699
2.350393
-2.115097
1.061228
7.754097
1.808921
0.479368
1.861039
-2.410105
-1.427704
-2.656413
-2.477427
-0.151378
0.932116
2.846587
0.794252
-2.792129
-0.735287
-3.012626
-0.572216
3.919750
1.459219
-2.568899
-3.000454
2.523918
3.333286
-3.422937
-0.349585
2.736626
5.984000
3.377182
-0.529788
2.201511
-0.710654
3.478336
1.794226
1.058531
1.495742
7.942278
2.991832
-0.077204
-3.350796
5.347188
-3.054729
-0.702244
-0.891844
0.704572
4.394809
-1.874331
1.100545
0.708138
-0.664877
3.048427
6.554546
-2.059821
-2.247642
2.422427
-1.778170
2.087817
4.328824
-1.235664
3.337463
0.354214
1.676795
-2.689472
1.286615
1.127564
-0.995755
-0.408261
1.008513
1.510041
1.638361
3.367372
-0.785362
-6.025547
-0.621972
3.658770
0.754622
-4.201255
0.942827
4.796914
-2.800992
-2.929069
-2.663422
-4.270512
1.785757
-2.558532
-2.899334
-0.337611
2.541703
0.715215
4.109360
2.475391
4.693142
-3.257547
-5.101623
-2.979438
2.047994
-3.057541
0.088746
4.822923
-1.346969
-4.524171
-3.645371
-0.957255
-7.315108
3.898610
-5.402149
-2.901652
0.035990
-3.531393
5.030542
-7.214616
-0.852346
-5.771146
-2.638040
1.287457
2.783548
-2.434557
4.444251
-1.978012
-0.886249
-0.623363
-0.432631
-4.728991
4.558723
1.774047
-10.095009
-2.047633
-2.142522
2.695171
3.079268
-0.500906
0.051637
4.406528
3.367266
2.054733
0.404164
-2.208341
-0.816671
2.932497
-1.034252
6.820727
2.487585
-8.067995
0.245064
-5.710578
5.592977
0.192961
-2.998009
-4.631835
0.632735
1.752313
4.516854
3.424612
5.043691
-4.771464
-1.038213
-3.760309
-4.925229
-2.932758
-3.901364
6.718708
-0.042217
-0.232885
-3.584797
3.849222
0.200145
1.124407
-0.206425
-3.307929
3.903288
1.560437
5.416625
2.591309
2.943042
-0.818199
1.793620
-0.092942
3.133195
14.443478
2.407018
3.404404
-0.228515
1.041114
-0.786474
-2.061994
2.577321
-3.051143
-0.000091
0.468947
2.644232
-5.294968
-0.839286
0.377876
-1.718892
2.143698
-2.265589
0.324915
2.003550
0.348553
0.599266
-1.361388
-2.972174
-6.600399
1.268977
-6.019705
3.575449
-2.613353
0.578374
0.677912
-1.132889
-8.821200
5.436411
4.567974
-0.717936
-2.569653
-3.221762
-1.789015
-2.737157
2.202339
-1.531588
0.976484
1.688019
-1.306926
4.107842
0.900228
1.550506
0.425378
4.171355
-4.533573
-0.056889
-1.665793
-5.773669
-2.243157
-0.898202
5.194039
3.032026
4.020279
-4.844644
-1.592151
-2.525058
1.528330
-2.044584
2.816043
1.381123
1.678631
6.003222
-4.852300
1.789480
1.726634
-2.566118
0.986453
3.246440
5.066078
-2.364170
-0.195475
-3.379554
-1.847593
-2.317159
3.304585
1.052714
1.518914
-4.021337
-2.014788
2.505993
-1.294199
1.556900
-0.847634
-2.215273
-4.970296
-0.660403
0.263224
0.575882
-7.443532
1.396601
-0.740551
1.309129
-5.755656
-2.770857
0.575437
3.334599
-3.435031
-3.483066
1.879788
0.425178
-6.599468
-1.628106
1.562944
-1.415826
-1.145849
-0.174939
-0.666875
-2.821076
-8.057978
4.735533
5.622343
4.645146
-0.796324
1.781228
0.891270
5.726101
2.310989
-1.138711
-4.614948
-6.022093
-8.286367
-3.172811
-6.774196
-1.601833
2.400982
0.959963
-4.390467
9.091384
2.920721
-9.183829
-0.314201
-2.699286
-2.256141
2.631187
3.020059
-1.560489
0.847602
3.878609
1.884762
0.162176
5.548495
-2.505699
1.519575
-2.382057
2.956390
0.569853
4.510968
0.127663
-2.929261
-1.521593
4.093183
-3.447373
-0.151303
1.197860
2.946982
-3.478186
4.314385
-4.546710
-2.334754
-2.773642
5.869300
-4.387486
0.083703
-2.287546
-1.936777
-3.783968
-4.270519
-1.169626
-1.180972
1.143396
-1.533090
-1.789538
4.986126
-2.338184
-0.455388
-1.706669
5.320675
0.083191
-7.149805
2.950426
-1.616200
5.594446
-0.896430
1.334217
-0.469474
3.787824
1.879300
-1.068479
-5.852850
1.805501
1.607836
-0.087852
3.003738
-0.577000
-3.398148
1.666319
0.367021
2.681405
0.579880
-2.809376
-1.440906
4.694000
3.387110
2.092869
0.968929
-0.252334
-0.680972
2.297146
6.672326
-1.291378
1.424555
1.424706
1.863939
4.976773
1.381866
3.163739
2.924291
-0.360423
-3.984002
-0.826321
-3.900268
-2.587742
3.342701
5.161739
-1.352559
1.691625
4.854834
-2.068931
7.564040
2.096200
-5.819555
-2.400892
-4.728123
1.605821
-4.153256
-1.416665
-8.467918
-4.608727
-1.549584
0.645898
-4.768751
3.210405
4.979835
-1.864573
-5.846460
2.407196
-4.898068
-9.614372
2.337465
4.802414
-6.005649
-0.735078
2.123077
-1.033290
5.135980
-0.289583
-2.863504
4.361226
-1.097736
2.566585
-3.830351
2.136177
2.092885
0.370988
-0.706015
3.503946
2.098081
-5.936299
4.370360
-0.941134
1.362650
-3.424336
-0.542192
-0.996969
-0.779327
2.413760
-0.690921
-0.548964
2.047876
-1.546184
-9.625836
-0.942562
-3.777909
-3.735129
-6.171459
-0.936730
-2.828311
4.898125
0.763158
4.073517
-4.348663
0.845439
-0.326975
1.454851
-5.820072
1.219301
0.362619
0.522519
-1.930007
3.177982
3.507520
2.299772
-1.500366
1.811368
2.356206
1.186422
0.630354
0.773449
-0.194396
0.128706
-0.320289
-0.026837
-3.031079
-5.776980
-4.469329
-2.225069
2.457171
4.434524
-1.505940
1.298037
-0.544870
-1.882916
-2.905633
-0.443917
2.948198
-0.319509
4.558926
-3.467191
-4.951819
1.960409
0.067235
-1.812964
-1.072508
-1.678589
0.500294
-0.553482
-0.399934
8.136759
-2.682825
-1.202488
3.493713
-1.504963
1.148803
-2.583427
-1.957292
4.997066
0.302888
3.257536
0.142339
0.343328
-1.452487
-3.104358
-1.166051
1.744463
9.558990
-0.146697
2.083422
-1.612217
-2.004094
-0.317261
-2.449563
-0.648839
-0.514901
-1.518174
2.156044
4.424667
-3.030381
3.216800
3.301723
2.375084
4.158968
5.222767
-2.699374
-6.413010
2.347897
2.100130
-1.213734
-3.679699
-2.198815
3.732216
-4.007137
-3.546668
3.167538
2.462462
-8.049521
0.744330
1.750813
-0.838870
2.116973
3.424797
5.091281
2.070270
5.910995
3.101474
-3.482702
5.081622
-0.200651
-6.756547
3.388818
-1.505433
-1.166644
-2.259405
-4.952336
-1.987479
1.975920
-0.837034
-4.472511
3.983736
1.592331
2.530010
-3.211779
-7.598376
7.614077
-0.855446
-3.593046
3.367471
4.436125
2.921634
-0.468453
-3.576054
4.171967
-4.028019
-4.827035
2.721154
-1.036520
-7.773626
0.297813
-0.138461
0.231155
-1.024408
11.333145
-0.775531
2.336588
4.263154
-1.597662
-0.875624
1.755377
-3.532137
-2.118906
2.941465
-3.969488
-3.242096
-2.827125
-1.167502
5.837240
6.419959
2.386034
-2.689959
-0.871921
-0.116922
0.804791
2.085100
-3.188531
0.351381
4.404703
-0.474858
2.566565
2.752191
-2.209028
-5.099254
2.074004
2.037147
-1.342126
-0.920543
-5.313534
