0.028885
0.533530
-0.010135
0.002430
-0.332989
-0.240209
0.045872
-0.081492
-0.001775
0.329685
-0.042050
0.220140
-0.474833
0.014254
-0.142609
0.274891
-0.002335
0.205405
-0.084535
-0.718933
0.314240
-0.284750
-0.072393
-0.303369
0.060092
0.256206
-0.061282
-0.479096
-0.016394
-0.144369
0.336983
-0.213835
0.261744
0.078102
-0.423061
0.080341
0.412657
-0.183835
-0.549076
-0.649128
-0.479970
0.229704
0.039953
0.159869
0.213195
0.350444
0.523901
0.144553
0.337116
0.017566
-0.334794
-0.326203
0.154156
-0.155651
0.044573
-0.168669
-0.183755
-0.076747
0.205353
0.489022
-0.026683
-0.393456
0.046413
-0.174661
-0.019371
-0.306602
-0.566114
0.055614
0.483362
-0.248198
0.238975
-0.385406
-0.366914
0.104518
0.590329
0.221090
0.111963
0.478057
0.243284
-0.281859
-0.254464
0.175659
-0.563401
0.016589
0.111173
-0.046361
-0.496174
0.580564
-0.052484
0.254038
-0.353031
-0.209094
-0.635414
-0.020774
0.119220
0.145752
-0.131039
-0.603604
0.693604
-0.667045
0.465704
0.290787
0.198727
-0.330826
0.204133
0.053370
0.452316
-0.464229
0.061512
-0.215304
-0.126958
-0.566408
-0.359199
-0.023332
-0.275049
-0.146572
0.059493
-0.260499
0.071544
0.621374
-0.512766
0.050567
-0.039526
-0.358092
-0.518209
0.577881
-0.139764
0.152395
-0.076428
0.274051
-0.046667
-0.819009
0.132151
-0.069471
0.445242
-0.445655
-0.459602
-0.488967
0.383110
0.212325
0.341255
-0.375471
-0.229317
-0.181834
-0.011518
0.231163
0.097383
-0.092155
0.514405
0.414140
-0.391501
-0.541663
0.305043
-0.113287
0.146106
0.412529
-0.362287
0.225202
0.295120
-0.359495
-0.452292
0.367827
-0.220833
-0.386744
-0.132652
0.181468
0.135077
-0.482565
0.102055
-0.179508
0.463192
0.384774
0.192546
-0.067356
-0.288477
0.440197
0.019134
-0.084941
0.147156
0.234490
-0.058645
0.358929
-0.434764
-0.000980
-0.499001
-0.138364
0.450894
0.199307
0.521719
0.019212
0.047275
-0.239605
-0.221004
0.540593
-0.083854
0.200431
0.233009
-0.042189
-0.052849
-0.461908
0.165781
0.526473
-0.503930
0.093917
-0.362410
0.284474
0.175703
0.591625
0.020300
-0.307175
0.415922
-0.005713
-0.243119
-0.198278
0.051473
0.079391
-0.403906
-0.249027
0.424244
0.421025
-0.217626
-0.162477
0.448867
-0.456282
-0.047524
0.239436
-0.259941
-0.329795
-0.219882
0.089729
-0.049080
0.462689
-1.009403
-0.077961
-0.299860
-0.379392
0.029490
-0.358914
0.040399
-0.198280
0.376384
-0.130492
0.110499
0.398741
-0.359063
0.372055
0.115039
0.264478
-0.220926
0.211654
-0.180944
-0.115422
0.188548
0.154869
0.462849
0.246755
-0.743870
0.303423
-0.476346
-0.626366
-0.243791
0.102219
-0.507975
0.641091
-0.418455
0.057989
-0.129314
0.406913
-0.132054
0.369314
0.168874
0.409862
0.317395
-0.153410
-0.339063
0.120796
0.073365
-0.221437
0.400413
-0.057339
-0.258320
-0.526156
0.408757
-0.259474
0.290623
-0.154306
-0.306384
-0.132011
-0.361690
-0.191883
-0.601053
-0.444685
-0.310124
0.345718
-0.353976
-0.237527
-0.087906
0.067112
-0.152037
0.081362
0.291441
0.293052
-0.333367
-0.342742
0.071215
-0.264103
-0.306592
0.653985
0.065992
0.027154
-0.018317
0.615461
-0.530268
-0.183275
0.137673
-0.442440
0.442442
0.053351
0.464282
0.139977
0.331223
-0.033768
-0.380476
0.088472
-0.088767
-0.296332
0.764553
-0.040690
0.206684
-0.201158
0.460065
-0.068294
-0.018516
-0.373618
0.053331
-0.068116
-0.759517
0.252088
-0.159764
0.024236
0.005848
-0.437817
0.271482
0.182102
0.362885
-0.464216
-0.158176
0.326630
-0.486801
-0.319211
-0.283752
-0.112634
0.481020
0.217230
0.173132
-0.291880
0.284230
0.395845
-0.168002
-0.554640
0.553769
0.313987
-0.289719
-0.138629
-0.533320
-0.402429
-0.479781
0.189060
-0.061547
-0.511313
-0.025120
0.284962
-0.522055
0.117456
0.112418
-0.318709
-0.525395
0.167218
-0.234638
0.221528
-0.190719
0.017085
-0.027111
-0.098832
-0.023742
0.268056
0.028384
-0.216417
0.056825
-0.065876
0.434723
0.265613
0.301967
0.113424
-0.242206
-0.077091
-0.418274
0.488755
0.257840
0.084322
-0.494907
-0.365058
-0.195021
0.295413
-0.503335
-0.511077
0.249764
-0.124507
0.044121
0.138757
-0.003097
0.137849
0.608894
0.090762
-0.127524
0.282391
-0.146694
-0.219789
-0.346446
0.048519
0.479899
0.004010
0.184809
0.122595
-0.302273
0.462267
0.367271
-0.080414
0.003188
0.323756
0.053894
-0.131385
-0.364696
-0.416646
-0.103480
-0.258797
0.017672
0.142627
0.210705
0.061469
-0.032758
0.552733
-0.647687
0.735030
0.451648
-0.392517
0.240029
-0.000667
0.351725
-0.934412
-0.167995
0.014261
0.014568
0.219183
-0.789912
0.296357
0.154117
-0.568619
-0.161172
0.252447
0.125844
-0.036612
0.273429
-0.031051
-0.241597
0.142650
-0.170754
-0.483506
0.304251
-0.362264
0.294966
0.020814
-0.270453
0.213752
-0.096889
0.375120
0.047187
0.300013
0.594082
0.276107
0.300438
-0.417789
0.199733
0.422749
0.059141
0.024982
0.443665
0.109609
0.188034
-0.379323
0.143990
-0.092869
0.180442
-0.280171
-0.176823
-0.534665
-0.448533
-0.203226
0.197108
0.531357
0.249228
-0.341365
0.143649
-0.224887
0.739859
-0.239085
-0.283506
-0.358012
0.176073
0.441828
0.052509
0.126218
-0.450978
-0.323996
-0.089472
0.550259
0.263273
-0.294705
0.004715
0.413707
0.255435
-0.137911
-0.417615
-0.287739
-0.410349
-0.302228
0.084322
0.188216
-0.264897
-0.397754
0.187370
-0.204909
-0.104468
0.091320
-0.079662
0.293583
0.229351
-0.338341
-0.078612
-0.041914
-0.312509
0.102292
0.012972
-0.405879
0.312727
-0.094942
-0.120213
-0.214378
0.466549
-0.233001
-0.179680
0.349978
0.198641
0.676878
-0.087989
-0.223336
0.310731
-0.185710
0.307955
-0.432757
-0.731876
0.198617
0.079857
0.337967
-0.495364
-0.148451
-0.427024
-0.130235
-0.171398
0.109800
-0.407486
0.350466
0.432915
0.180567
-0.059076
-0.127463
0.085364
-0.333197
-0.433064
-0.324232
0.523020
0.419621
-0.631457
0.207471
-0.009780
-0.344094
0.209119
-0.227837
-0.382331
-0.192960
0.479459
0.152381
0.373312
-0.487171
0.276827
-0.093044
-0.154618
0.154960
-0.145350
-0.393123
-0.300841
0.074514
-0.276462
0.789017
-0.744333
0.157769
0.509212
-0.274212
-0.170456
0.168284
-0.640726
0.238321
0.193616
0.223615
0.186146
-0.291447
0.313057
-0.468915
0.113682
0.304934
0.030949
0.175846
0.310116
0.002032
-0.502824
-0.338768
-0.329306
-0.501722
-0.104619
0.012342
-0.196274
-0.401540
0.039479
0.502211
-0.533630
-0.315814
0.466853
0.028209
0.108443
0.474127
-0.642528
-0.341640
0.085561
0.244859
0.008514
0.489048
0.006415
0.014997
-0.434666
-0.084817
0.289648
-0.324315
-0.210496
-0.039797
-0.066011
-0.206899
0.219508
0.220670
-0.362104
0.598071
0.702381
-0.280426
0.046701
0.620058
-0.330233
-0.327462
0.493497
-0.370626
0.273733
0.369568
-0.045474
-0.403973
0.034988
-0.309382
0.469202
0.076074
-0.145135
-0.179357
0.049350
0.342637
0.280851
-0.255462
-0.398128
0.046319
0.421154
-0.331254
-0.306252
-0.180750
-0.310009
-0.099242
-0.094044
-0.176880
0.165865
-0.091180
0.235041
0.017500
-0.440632
0.034353
0.190361
-0.152595
0.318594
0.091558
0.291661
-0.001446
0.350604
0.319410
0.250619
0.197876
0.321951
0.265809
-0.060571
-0.410686
0.213098
0.504444
-0.668085
0.435161
0.343520
0.124847
0.208537
0.432522
-0.365179
-0.261196
0.413915
0.313886
-0.416261
0.222158
0.093158
0.218791
-0.631425
0.372384
0.415874
0.209864
0.099076
0.263991
0.002956
0.220339
-0.506680
0.138523
-0.101871
-0.189932
-0.315363
0.048417
0.001313
0.527443
0.522219
0.160765
-0.161848
-0.325663
0.648529
0.283244
0.074035
0.582739
-0.384058
0.339569
-0.138286
0.054342
-0.556397
0.201833
0.690779
-0.455834
0.522518
0.116057
-0.148930
-0.589494
-0.392095
0.173707
0.232310
-0.056987
-0.286260
-0.288098
0.486094
-0.135253
0.491111
0.384642
-0.275714
-0.220554
0.302536
0.009437
-0.493115
0.533261
0.573874
-0.360548
0.199596
-0.227127
0.122307
-0.213993
0.040944
0.010731
0.227864
-0.131132
-0.110960
-0.431676
-0.078731
-0.286871
0.303851
-0.175691
-0.285408
0.641521
0.252846
-0.489552
-0.482890
-0.145453
0.192022
0.469427
0.021786
0.340713
-0.452739
-0.142322
-0.592035
0.395900
0.775450
0.429131
0.143959
0.365822
0.488362
-0.087714
