0.161235
0.581866
0.587817
0.046672
-0.294390
-0.019722
0.231953
-0.168492
-0.040380
0.196148
-0.150435
-0.274675
0.035146
-0.019374
0.164694
0.504016
-0.406737
0.000583
-0.210593
-0.405843
-0.789599
0.095499
-0.201395
0.041826
0.044483
-0.540046
-0.274106
-0.010154
-0.274629
0.234030
0.005186
-0.455362
-0.445915
-0.040887
0.315590
0.201351
-0.007657
0.207710
-0.103625
-0.254003
-0.108338
0.341352
-0.655176
-0.103496
0.216162
-0.069271
0.517755
0.011704
-0.102556
0.153492
0.060790
-0.268002
-0.236657
-0.528928
-0.154518
0.374911
0.158957
0.026213
-0.274397
0.574448
0.025671
-0.449513
0.523070
0.593272
-0.198243
-0.373509
-0.434283
0.418334
-0.421604
-0.567543
0.067018
0.005322
0.175127
0.108312
0.042837
-0.040179
-0.121752
-0.432352
-0.425204
-0.071014
-0.066215
-0.132866
0.544156
0.350790
-0.268076
0.047968
0.276977
0.603436
0.178996
0.116569
-0.104965
-0.758574
0.071790
0.110659
-0.615629
-0.018388
-0.380571
0.241776
0.235936
0.244646
-0.340582
-0.363737
0.366683
0.306504
0.624054
-0.147052
0.163694
-0.141387
-0.310999
-0.099198
0.391060
0.594437
-0.002733
0.539576
0.120322
-0.071538
0.362980
-0.238077
-0.381105
0.262496
0.170323
0.235461
-0.023528
0.269120
-0.336972
0.592684
0.378870
-0.051892
0.090356
0.258733
0.120745
0.061365
-0.053862
0.152576
0.050696
-0.579454
-0.229275
0.380284
-0.327987
-0.451291
0.299296
-0.199826
-0.240226
-0.116628
-0.571440
0.024252
0.385499
-0.055024
-0.150748
0.043913
-0.189951
-0.238024
0.283284
0.016092
0.399069
0.656501
-0.395232
0.344546
0.075226
0.357405
-0.018105
-0.064971
0.403657
0.115215
0.104455
-0.192416
-0.529012
0.050974
-0.329783
-0.606573
0.172603
-0.156009
-0.045551
0.416073
0.311166
-0.125114
0.271886
0.025382
-0.110259
0.291160
-0.127365
-0.054369
0.361416
0.260353
0.028916
-0.202175
0.531981
-0.015735
-0.065433
0.361714
0.121405
-0.244288
-0.235577
-0.271901
-0.323217
-0.091897
-0.058441
0.222362
-0.031788
-0.387230
0.030530
0.131356
-0.718677
0.192039
-0.321402
-0.376364
0.263152
0.555768
0.240992
0.029897
0.040616
-0.166849
0.731589
0.013530
0.210225
-0.303218
0.124686
0.216562
-0.211809
-0.265436
0.312845
-0.380395
0.187266
-0.235225
0.156098
0.156695
-0.404246
0.168942
-0.141120
-0.384266
0.438163
-0.162611
-0.147601
-0.541454
-0.014528
-0.605959
-0.398874
-0.318010
0.487178
-0.051629
-0.196181
0.010194
0.135504
0.217672
0.418970
0.010054
0.397189
-0.073797
-0.321620
0.122332
0.006898
-0.014352
-0.134684
0.346456
0.304885
0.048316
-0.202678
0.501172
0.069490
0.155488
0.464685
-0.580476
-0.323686
-0.306586
0.355285
0.344870
0.295400
-0.249834
-0.347166
0.035512
-0.259687
0.064835
0.477247
-0.070966
0.620014
-0.154843
0.333861
-0.106177
-0.472904
-0.341972
0.371077
-0.708139
0.239481
-0.018678
0.053493
-0.347519
-0.165846
0.319218
-0.409400
-0.117191
-0.508471
-0.106862
0.390261
0.351391
0.432232
0.195601
-0.447150
-0.267426
-0.132310
0.281615
0.108922
-0.194210
0.043077
0.162651
0.091639
0.058727
-0.103689
0.044813
0.045210
-0.126378
-0.075841
-0.150690
-0.325236
-0.315205
-0.450583
-0.045945
-0.117511
-0.234218
0.316732
-0.024176
-0.598925
0.411186
-0.068668
-0.140085
0.487217
-0.243114
0.314520
0.392487
-0.100317
-0.475693
0.148691
-0.551009
0.311170
0.542897
-0.196619
0.152383
0.212233
0.544305
-0.315754
-0.025010
0.197668
0.229476
-0.036926
-0.056686
-0.414073
0.445677
0.626317
0.166758
-0.634711
-0.449815
-0.292361
0.455212
-0.088949
0.012367
0.174137
0.255943
0.198252
0.403686
0.259720
0.766173
-0.054946
-0.271860
0.058174
-0.326284
-0.755721
-0.322128
0.289212
-0.188012
0.550294
-0.555388
-0.091879
-0.551605
0.274053
0.020084
0.538374
0.138238
0.263965
-0.238185
0.002139
-0.405808
-0.276292
0.308285
-0.052712
-0.263522
-0.262328
0.484688
-0.111399
0.549982
0.315935
0.186036
-0.169023
-0.761156
-0.035453
0.263303
-0.316321
-0.588449
0.305690
0.619523
0.021772
0.674636
-0.117060
-0.382613
-0.107777
0.078402
0.486542
0.047595
-0.177917
-0.388702
-0.388188
0.454334
-0.576788
-0.275965
-0.552958
0.492565
-0.441711
-0.131608
-0.011901
-0.043383
0.430679
-0.056203
-0.337276
-0.180216
0.508965
-0.184189
0.274979
-0.177615
0.331244
-0.534024
-0.412649
-0.267179
-0.169960
-0.290759
0.050149
-0.001840
0.096302
0.002523
0.231913
0.120718
0.139119
0.102959
0.402645
0.360757
-0.091290
-0.578546
0.111108
-0.290878
0.126458
-0.167534
0.277517
0.129660
0.094727
-0.012172
0.380867
0.313242
-0.319488
-0.386681
0.184502
0.525857
-0.444368
-0.197427
0.256498
-0.329746
-0.385120
0.071579
-0.191153
-0.227974
-0.043747
0.284775
-0.223747
-0.230456
0.227816
0.375747
-0.124206
-0.018326
0.548792
-0.086378
-0.570444
-0.292320
-0.124781
0.180775
0.371141
-0.137194
0.262826
-0.072408
-0.514237
-0.308746
-0.177715
-0.063201
0.415828
-0.427303
0.225368
-0.497748
-0.599653
-0.119066
0.111741
-0.087045
-0.337370
-0.453244
-0.579549
-0.213392
-0.426984
0.232426
-0.081491
0.158435
-0.247379
0.157261
0.329115
0.503757
0.282975
0.538451
0.695243
0.070183
0.371524
-0.109938
-0.397990
-0.309308
0.484099
-0.370739
-0.123892
0.394852
-0.100731
0.103488
-0.324898
0.153163
0.080084
-0.317937
0.213266
0.108713
0.089633
-0.277771
0.061659
-0.151713
-0.205761
0.328698
0.354544
0.156264
-0.193781
-0.325135
-0.003403
-0.375098
0.135468
0.278414
-0.064392
-0.747613
-0.140846
-0.222950
-0.288877
0.337248
0.100902
0.470900
0.254644
0.479165
0.115744
-0.335291
-0.088696
-0.271426
-0.274061
-0.314215
0.191028
-0.799451
-0.238279
-0.127137
0.424456
-0.131360
0.608971
-0.331322
0.079252
-0.530437
-0.082510
-0.246150
-0.423281
0.459580
-0.123181
-0.005334
0.092481
-0.163486
0.070882
0.246614
0.173008
-0.504343
0.612863
0.563748
-0.188829
0.486204
-0.216608
-0.333097
-0.125771
0.397507
0.381326
-0.134429
-0.020629
0.343031
0.208338
-0.209017
0.121530
0.312024
-0.339927
0.495328
0.445822
0.160272
-0.136695
0.328926
0.429708
0.429390
-0.291898
-0.275299
-0.265084
-0.423604
0.069345
0.085839
-0.118172
0.501823
0.255591
0.793211
0.252571
0.044189
0.351456
-0.268649
-0.040677
0.186970
0.144544
-0.501688
-0.053060
-0.789916
0.361525
-0.421167
0.511938
-0.076202
0.512638
-0.570341
0.267304
0.435837
-0.733085
-0.093740
0.231686
-0.090372
-0.187609
0.283762
0.181866
0.283946
-0.494872
-0.074475
0.519713
0.608924
0.150821
-0.389901
0.556423
0.144574
0.303608
0.177450
0.709392
0.166610
-0.129806
-0.735824
0.050472
0.508148
-0.266882
-0.182012
0.326462
0.759625
-0.315109
0.364769
0.126982
-0.385059
0.070843
0.072021
0.297052
-0.096148
-0.041013
0.563167
-0.363642
0.325040
0.018477
0.068434
0.003736
-0.028124
0.449459
-0.032686
-0.073912
0.086417
-0.219187
-0.068731
-0.349671
0.040614
-0.336858
-0.634031
0.442677
0.250514
0.235684
-0.439139
-0.134627
0.275997
0.162849
0.181919
0.036194
-0.062516
-0.038732
-0.128776
0.441141
0.367557
-0.045932
0.176137
-0.566946
-0.452333
0.184895
-0.279668
-0.132901
-0.134494
0.273146
0.278871
0.049997
-0.150480
-0.276059
0.488188
-0.038720
0.254119
0.160998
-0.330604
-0.479300
-0.565753
-0.468478
-0.732262
-0.387020
0.101905
-0.716933
0.051732
-0.186084
0.270094
-0.157105
-0.002736
-0.324890
0.663909
0.451984
-0.293967
0.151142
-0.212506
-0.208617
-0.204837
-0.098892
0.196831
0.106093
-0.259839
-0.058357
-0.225231
0.056419
-0.281556
0.415476
0.593496
0.560139
0.549659
-0.555372
0.047059
0.186092
-0.326403
-0.325776
0.027834
0.200989
-0.376283
-0.118836
-0.352017
0.343473
-0.200669
-0.069282
0.019446
0.130068
-0.167669
-0.008899
0.280739
0.337183
-0.015457
-0.452691
0.435683
0.580787
0.524931
-0.207897
0.158091
-0.421914
-0.332941
-0.005897
-0.488796
-0.213254
-0.124806
0.302652
0.292227
-0.217273
0.624840
0.343172
0.103368
-0.292025
-0.633920
-0.250168
0.112949
-0.328344
0.239605
-0.340067
-0.386847
0.134924
0.116159
0.127387
-0.284006
-0.012396
0.222583
0.313270
0.024327
-0.438529
-0.083057
-0.465438
0.481150
0.504666
0.410741
-0.086100
0.280890
0.072142
-0.468574
0.084730
0.404311
