0.307789
-0.094293
-0.624412
0.201939
-0.331357
-0.077658
-0.117684
0.145581
-0.012443
0.123951
-0.372699
0.195831
-0.123159
0.280553
-0.271957
-0.492169
-0.190267
-0.618394
-0.495447
0.479749
0.219240
0.124098
-0.464161
0.515353
0.179813
-0.335789
0.026984
0.198599
0.085940
-0.121032
-0.124724
-0.117274
-0.395674
0.002766
-0.669311
0.297914
-0.215335
0.388505
0.417083
-0.632079
-0.337843
-0.085038
-0.330063
0.386149
0.317620
0.010100
0.474177
0.505796
0.251071
0.221885
0.150234
-0.389515
0.333556
-0.289769
0.368692
-0.319031
-0.506121
0.068854
-0.429398
-0.228703
0.095574
0.494571
0.342543
-0.099394
-0.251159
-0.373509
0.022547
0.325972
0.265088
-0.278434
0.470134
-0.635278
0.261942
0.196904
0.237501
0.163133
-0.218371
0.006015
0.337175
-0.205200
0.155166
-0.549870
-0.165403
-0.472143
-0.310322
0.274854
-0.225990
-0.220139
-0.348821
0.123813
-0.135219
0.260683
-0.407885
-0.084584
0.223118
-0.195411
0.106156
-0.616477
-0.579960
0.272729
0.613338
0.412023
0.540584
-0.088843
-0.304327
-0.363316
-0.443969
-0.603976
0.131629
0.228718
0.227514
0.187273
0.171199
-0.143933
-0.109879
0.049431
0.079759
0.175421
-0.123206
0.410001
0.224148
-0.050207
-0.077002
-0.168558
0.002937
0.377905
0.181961
-0.295080
0.457700
0.230933
0.371087
0.243698
0.306115
-0.386719
-0.520991
-0.054973
0.078466
-0.291762
0.537177
-0.214287
-0.414669
0.138011
-0.275716
-0.131386
0.454174
-0.069711
-0.142302
0.329355
-0.368640
-0.095119
0.021527
-0.370465
-0.071545
-0.235218
0.318748
-0.573208
-0.227147
0.746732
-0.600720
-0.365191
0.454740
-0.460469
0.794926
-0.205650
-0.111440
-0.012493
0.011565
-0.195591
-0.296772
-0.321052
0.300981
-0.334569
0.028236
-0.067356
-0.398805
0.200838
0.394382
0.106196
-0.024291
0.016142
-0.122963
0.708361
-0.119536
0.488555
0.272014
-0.069887
-0.516252
0.288588
-0.089400
0.176748
0.494210
-0.139922
-0.123301
-0.502050
-0.265790
0.571419
0.597720
-0.277386
0.061893
-0.628626
-0.001849
0.299799
-0.201557
-0.145884
0.202619
0.570695
0.197978
-0.302660
-0.096674
0.374216
0.026586
-0.113798
0.087696
0.248250
0.319529
-0.457262
-0.125656
-0.176582
0.393208
-0.160861
-0.556785
0.402481
0.597722
-0.211833
0.267447
0.223414
0.074059
0.223936
0.069199
0.084956
-0.128631
-0.511513
0.589391
0.082890
-0.167578
0.094571
0.194836
-0.349811
-0.367518
-0.282428
-0.357074
-0.105040
-0.274850
-0.027551
-0.449497
0.105357
-0.648735
-0.003774
-0.088319
0.192429
-0.269272
-0.304768
0.433192
0.237807
0.147184
0.643448
-0.733092
0.008234
0.313120
-0.099999
0.264832
-0.374646
0.347884
-0.363414
0.033184
0.159980
-0.535888
0.042797
-0.233465
-0.197198
-0.295050
-0.336010
0.625136
-0.109012
0.238370
-0.318841
0.204945
0.478521
0.304823
0.253509
0.116244
-0.463153
0.484811
-0.518825
0.603237
0.360595
0.102342
-0.054297
0.324120
-0.171480
-0.299513
0.276257
0.361005
-0.351724
0.074047
-0.043060
-0.236430
0.091790
-0.139747
0.091527
0.007252
-0.268631
0.266384
-0.106369
-0.052785
0.137531
-0.424308
0.372011
0.139555
-0.774070
-0.210089
0.067007
0.074270
0.456630
0.504695
-0.155145
-0.382353
0.117779
-0.381083
-0.277310
-0.074054
0.467734
0.078857
0.777779
-0.131819
0.206437
0.173017
-0.484866
-0.325278
0.619326
0.275968
-0.314140
-0.026210
-0.577110
0.311335
0.052878
0.110391
0.369823
-0.476400
0.070068
-0.109531
-0.324622
0.298492
0.369149
-0.274098
-0.428495
0.394702
0.002938
-0.445465
0.482466
0.289086
-0.177741
0.376350
0.526557
-0.201421
0.231625
0.080043
0.252320
-0.332000
0.210134
-0.213408
-0.270799
-0.268822
0.465654
0.301731
-0.210754
-0.244678
-0.254630
-0.057802
-0.855176
0.019979
0.082327
-0.626873
0.068092
0.446685
-0.445468
0.394304
0.187448
-0.252097
0.125851
-0.275618
-0.067813
-0.095341
0.098469
-0.569414
0.271305
-0.086889
-0.349243
-0.031625
-0.240259
0.024619
-0.402451
0.501801
0.098673
0.126251
-0.424105
0.072792
0.350182
-0.313797
0.228519
-0.257079
-0.210344
-0.160616
0.263141
-0.066317
0.250366
0.147274
-0.252987
0.264361
0.521463
-0.390948
-0.462270
-0.175392
0.482861
-0.541104
-0.400826
0.253980
0.181637
-0.345843
-0.304251
-0.084372
-0.293527
-0.497220
0.386429
0.300796
0.099199
0.223839
-0.108022
-0.019568
-0.171149
0.128303
-0.084615
-0.035496
-0.451576
0.114190
-0.198047
0.512462
-0.505855
0.391512
-0.066797
0.460093
0.360475
0.078473
0.332900
-0.042307
-0.185668
0.081077
-0.090342
0.343300
-0.108073
0.514230
-0.323260
0.078353
-0.109069
-0.221244
-0.005571
-0.052693
0.189290
0.431599
0.186187
0.241481
-0.413280
0.156685
-0.300971
0.236267
-0.205370
-0.267253
-0.209485
0.305607
-0.363838
-0.075355
-0.348240
-0.646646
-0.204710
-0.233609
0.040229
0.007864
0.467974
-0.179913
-0.027784
0.413181
0.357746
-0.529678
0.413331
0.013257
0.209717
-0.096129
-0.160966
-0.184773
-0.118066
-0.404660
0.052730
0.694884
-0.150016
-0.142374
0.488517
0.095181
-0.537841
0.038696
-0.054264
-0.389660
-0.146349
-0.175086
-0.246130
0.714713
-0.310428
0.497553
0.049490
0.324211
-0.107049
0.423045
-0.041883
-0.401808
0.042345
-0.244633
-0.183998
-0.571010
-0.061912
0.501843
0.397619
-0.168455
-0.440055
-0.002001
0.408969
0.398799
-0.360735
0.030891
0.112700
-0.568619
0.302531
0.202780
-0.191586
-0.127536
0.014441
0.370597
-0.351948
-0.402730
-0.208349
0.017000
-0.583606
-0.364439
-0.505292
0.174619
-0.246962
-0.349035
-0.112092
0.072360
-0.196275
0.015601
0.216511
0.398583
-0.258855
0.243441
-0.311570
0.251632
0.088108
0.028695
0.775660
-0.335790
0.022778
0.795010
0.060330
0.041305
0.574243
-0.459111
-0.075524
-0.102484
-0.344362
0.532812
0.403324
-0.283550
0.170683
-0.279167
-0.048377
0.115097
0.509197
-0.130706
0.324252
-0.328344
0.662156
0.504932
-0.045961
-0.726122
-0.164078
-0.338105
-0.285166
0.098366
-0.248028
-0.588677
0.365058
0.411975
0.407772
-0.448595
0.195583
-0.401586
-0.560882
-0.221352
-0.405050
-0.651067
0.280626
-0.245161
0.196807
0.407236
0.069335
0.446423
-0.518259
0.401035
-0.129366
-0.453440
-0.409734
0.536762
0.349196
0.188161
-0.028737
0.238800
-0.422769
-0.248079
-0.227440
0.403221
0.407255
-0.632759
0.352779
0.563263
0.117123
-0.268691
0.284715
-0.012084
-0.110383
0.521273
0.151138
0.439664
-0.093390
0.244589
-0.714891
-0.352495
0.089938
1.034832
-0.440180
-0.429982
0.086957
0.318653
-0.202442
0.522267
-0.281608
-0.021578
-0.163921
-0.071397
-0.024937
0.118533
-0.001506
-0.100042
-0.047778
0.679220
0.183272
-0.492297
0.190325
0.220900
0.486437
-0.300911
-0.129589
0.240508
-0.159899
0.214573
-0.190422
0.187175
0.222325
0.513212
-0.007972
-0.087351
-0.301825
-0.211525
0.117183
0.233072
0.157642
0.094069
0.041018
-0.001916
0.166206
0.003923
0.268465
0.067567
0.655824
-0.761591
0.327165
-0.075407
-0.310082
-0.177349
-0.472652
-0.257054
0.271124
-0.623568
0.022255
-0.213200
0.429416
-0.075020
-0.427987
-0.273346
-0.306974
0.111810
-0.220374
0.195129
0.268588
0.028882
0.360542
-0.630783
-0.098618
0.371537
-0.482318
-0.393175
0.108122
0.365908
-0.381475
0.039279
0.327252
-0.102547
0.377431
-0.302497
0.133021
0.284452
0.554693
0.000913
-0.778594
-0.112704
0.054062
0.149621
0.233184
0.186078
-0.377686
-0.302598
0.385144
-0.174064
-0.325390
-0.092678
0.151460
0.001386
0.220339
-0.467831
0.260242
0.281228
-0.235462
0.621190
-0.114400
-0.189098
-0.025961
0.195997
-0.209398
0.502189
-0.278759
0.544765
-0.224126
0.324070
-0.561116
0.008274
-0.221017
-0.304530
0.380650
0.018422
-0.385461
-0.102343
-0.407117
-0.063684
-0.562730
-0.022002
0.035530
-0.183698
-0.046735
0.029558
0.288764
0.434409
0.020407
0.332797
0.136836
-0.037937
0.326764
-0.109538
-0.468250
0.250708
0.240024
-0.529512
0.092514
0.032956
0.013179
0.160143
0.041978
0.311078
0.326843
-0.190567
0.243837
0.133959
-0.047278
-0.539634
0.335255
0.152256
0.050344
-0.074707
0.330185
0.380915
0.167009
0.501682
-0.360572
-0.013857
0.078551
-0.506370
-0.413895
-0.503121
0.350758
-0.151310
0.187151
0.038149
-0.038457
0.050929
0.442410
-0.450511
-0.022999
-0.260764
0.311807
