0.011600
-0.497446
0.195068
-0.065963
0.326012
-0.076476
0.195315
0.210921
-0.344552
-0.116598
0.073084
-0.381731
0.081955
-0.202663
-0.102547
0.377941
0.010018
-0.024683
0.218775
0.087684
0.460730
0.124343
0.101707
-0.283635
-0.609377
0.297292
-0.031385
-0.326133
-0.370528
-0.103939
0.024191
0.532985
-0.800815
-0.281326
-0.215463
0.403121
-0.262893
-0.218132
-0.094144
-0.101223
0.189629
0.019489
-0.570254
-0.420166
-0.387450
-0.497575
-0.408795
-0.060261
-0.349124
-0.043518
0.117230
-0.057375
-0.008650
-0.382647
-0.170401
0.465860
0.144532
0.051499
0.676223
-0.418207
-0.099645
-0.437014
0.191441
-0.177924
-0.162048
-0.642994
-0.767820
-0.532405
0.288197
-0.395753
0.108027
0.249738
0.097610
-0.385729
0.411760
0.213753
-0.159707
0.145482
-0.330951
-0.468033
-0.283175
-0.470550
-0.538859
-0.473213
0.116609
0.056798
0.002446
0.768937
-0.679205
0.185175
-0.124276
0.079082
0.223156
-0.086654
0.056973
-0.245376
0.123423
-0.119745
0.821007
0.378929
0.642065
0.165038
-0.051384
-0.275187
0.097345
-0.054648
0.161191
0.452158
0.154665
-0.445758
-0.149372
0.247220
0.101244
0.288595
0.205066
-0.151319
0.190290
0.309589
0.180719
-0.488438
0.467864
-0.316711
-0.281269
-0.347507
-0.335139
-0.238713
0.318794
0.112469
0.098864
-0.310256
0.548773
-0.190127
0.209750
0.208832
0.805225
0.692349
0.278496
-0.443143
0.119260
-0.011659
-0.606205
-0.155315
-0.029266
0.366252
-0.134383
0.188629
-0.257194
0.111606
0.307889
0.130081
0.268449
-0.507428
0.266673
-0.076314
-0.486664
-0.119273
-0.508052
-0.249706
0.375837
-0.288439
0.142244
0.103746
0.498581
-0.048140
0.053686
-0.051503
0.028349
-0.002981
-0.178777
-0.377123
0.150179
-0.091012
-0.400286
0.435271
0.283810
-0.352831
-0.089538
-0.118460
-0.168156
-0.263093
-0.165247
0.201665
0.362361
0.679461
-0.379600
0.074026
-0.457112
-0.543221
-0.096457
0.212472
-0.337169
-0.119269
-0.540691
-0.293047
0.055438
-0.473856
0.184186
0.106365
0.108879
0.205417
-0.394837
-0.481159
0.304066
0.166241
-0.309803
0.585635
-0.504867
-0.457139
-0.121985
-0.118713
-0.416670
-0.294120
0.267573
-0.434973
0.252824
-0.634834
-0.464409
0.034674
-0.064663
0.100971
0.221953
-0.103086
0.190070
0.093644
0.198078
-0.125280
-0.380644
-0.085451
-0.159364
0.158349
-0.321045
-0.149242
0.005019
-0.252113
0.578825
-0.472706
-0.116120
-0.127900
-0.534901
-0.304173
-0.506549
-0.003463
-0.272889
0.044455
0.201279
0.194062
-0.196217
-0.253638
-0.369295
-0.226527
-0.125064
0.193142
0.123513
-0.114883
0.291567
-0.595082
0.299419
0.535936
0.373708
0.202852
-0.069947
-0.625372
0.631162
-0.223128
0.175448
-0.290803
0.028584
0.430861
0.209856
0.327095
0.338483
-0.528908
-0.231060
-0.143538
-0.411011
-0.443859
0.071895
0.513172
0.024923
0.051183
0.330303
0.151504
-0.293542
-0.009006
-0.301196
0.200564
-0.774231
0.372693
0.486106
-0.533949
0.370491
-0.494217
-0.417095
-0.002883
-0.185004
-0.093511
0.280033
-0.111215
0.303654
0.357754
0.309372
-0.047636
-0.428582
0.143217
0.387232
-0.337668
-0.189733
0.002753
0.037245
-0.660343
-0.112584
0.579446
-0.373357
0.029943
-0.450583
-0.317358
-0.084509
-0.156702
0.319825
-0.175142
-0.309406
0.312577
-0.681270
0.216469
-0.520446
0.363550
-0.344133
-0.307727
-0.173537
-0.130070
0.227968
-0.349422
0.110832
0.283227
-0.010662
-0.054080
-0.474164
0.118710
0.037386
0.181707
-0.523256
0.186238
0.203348
-0.114821
-0.012992
-0.418494
-0.181881
-0.037001
-0.456218
0.232640
-0.399083
0.628504
-0.415492
-0.143048
0.286487
0.197994
-0.497765
-0.076560
0.076688
-0.339520
-0.143176
-0.176705
0.142086
-0.237452
-0.260296
0.438748
0.115164
-0.406929
0.181577
-0.476003
-0.303165
0.343879
0.493170
-0.006270
0.441127
-0.166405
-0.086372
-0.221301
0.156693
-0.088600
0.094957
-0.695337
-0.075939
0.453557
-0.524580
0.427539
-0.247246
-0.322325
-0.319937
-0.100000
-0.312815
0.299340
0.273081
-0.248177
0.299328
0.458334
-0.473643
0.129939
0.382287
-0.586866
-0.220917
0.178722
0.497240
0.077647
0.502828
0.083362
-0.094599
-0.378861
-0.267906
0.295341
-0.336237
0.229916
0.332625
0.588042
-0.361765
-0.280041
-0.120899
0.164118
-0.399581
0.426124
0.113426
-0.180201
-0.481156
-0.013013
-0.105939
-0.187605
0.451983
0.253941
-0.662737
-0.110153
-0.176287
0.311376
0.174222
-0.148106
-0.476536
-0.428573
-0.491896
0.682818
-0.004171
-0.299435
0.162886
0.047843
0.347325
-0.484441
-0.111238
0.044409
-0.254913
-0.226094
-0.500366
0.074705
0.194095
-0.245812
-0.369105
-0.478930
-0.617900
-0.038640
-0.360005
-0.630286
0.048198
-0.111261
0.516313
-0.080993
0.177457
0.237231
-0.409750
0.085312
0.057049
-0.055773
0.264444
-0.416839
-0.260065
-0.080556
-0.095623
0.225300
0.270944
-0.045475
-0.152645
0.237420
0.565484
-0.340354
-0.459362
-0.192201
-0.559750
0.307746
0.094285
-0.065745
-0.034333
-0.563817
0.316805
0.256042
0.225368
-0.068584
0.156460
-0.062172
-0.358885
-0.087517
-0.374593
0.376011
-0.103870
-0.268553
-0.322514
0.058078
0.370634
-0.311382
0.490676
-0.343790
-0.458857
-0.469519
0.353774
0.305353
-0.471029
-0.431312
0.008786
-0.012090
0.584044
0.153791
0.113843
-0.047240
-0.421840
0.459117
-0.387056
0.039781
-0.092021
0.383251
0.246415
0.218773
0.213047
-0.181224
0.211871
0.192779
0.077343
-0.096398
0.323273
0.026241
0.430941
-0.269057
0.031686
0.295646
-0.109313
-0.273056
-0.621528
-0.439591
0.348258
0.388064
-0.175935
0.162820
0.291035
0.391256
0.287252
-0.137667
-0.047630
0.348159
-0.006111
-0.033630
0.031687
0.199637
-0.737479
-0.749505
0.191028
0.064063
-0.344797
0.423616
-0.061000
0.024443
-0.582275
-0.189427
-0.594676
0.057299
-0.334394
-0.451626
0.323541
0.244007
-0.145936
-0.070543
-0.036108
-0.022938
-0.055227
0.219817
-0.132382
-0.307735
0.053285
-0.336907
0.156188
0.011073
-0.330020
-0.159425
0.254122
0.663100
0.109231
0.499332
0.621913
0.343031
0.240807
0.550723
0.075361
0.418383
-0.095226
0.508359
0.381430
0.237827
-0.277613
0.328926
0.461284
0.715831
0.197447
-0.350425
-0.018655
0.380160
0.000286
0.175005
-0.637473
-0.074687
0.323602
-0.124986
-0.056167
-0.256410
0.552228
0.110214
0.002695
-0.087791
0.553074
0.042064
0.308668
-0.052134
-0.530844
-0.242489
-0.384683
-0.092321
-0.150846
0.220345
-0.045434
-0.044505
0.247748
0.178049
-0.092323
0.100394
-0.102754
0.434342
0.030373
0.021947
0.051048
-0.059400
-0.125649
0.536730
-0.045492
0.474235
0.457893
0.085353
0.460432
0.314909
0.255615
-0.429723
-0.041607
-0.175763
-0.514209
0.189371
0.303977
0.061852
-0.441675
-0.071508
-0.153908
0.365747
0.128513
0.331474
0.095040
0.127645
-0.191941
-0.257763
0.062358
0.497285
-0.015367
0.190165
-0.057884
0.181100
0.278481
0.463695
0.042518
-0.018400
0.036414
-0.073794
0.384111
0.620449
-0.322110
0.226438
0.058561
0.158034
0.462079
0.148894
0.449215
0.464378
-0.162676
-0.278537
-0.060516
-0.167126
-0.182183
0.280030
-0.411615
0.120642
-0.336765
-0.358635
0.403784
0.273577
0.410252
0.089970
-0.442623
-0.003717
0.313107
-0.332123
0.148917
-0.150973
0.076500
-0.150480
0.386970
0.436298
0.575553
-0.293058
-0.527375
0.029555
0.614906
-0.425545
0.402226
-0.001976
0.359127
0.151671
0.233522
-0.436543
-0.088250
-0.545064
-0.470338
-0.290748
0.120602
-0.030766
-0.191478
0.335923
0.088567
0.388482
0.009060
0.133519
0.285261
0.075414
0.011792
-0.534925
0.206171
0.066007
-0.110027
-0.303069
0.438763
0.338602
-0.099680
-0.465224
-0.407223
-0.022406
0.381626
0.215104
0.229610
0.321720
0.171178
-0.261428
0.189829
-0.334332
0.508910
0.028029
0.684003
-0.257359
0.459624
-0.010500
0.041454
0.055555
0.471967
-0.305502
0.235259
-0.615634
-0.250562
-0.370643
-0.259170
-0.132820
0.224882
-0.332941
-0.097090
-0.392858
0.585095
0.408652
0.404938
-0.512965
-0.428394
-0.127878
0.476146
0.230711
-0.487361
0.028972
-0.042386
-0.023761
-0.293283
0.385238
-0.188511
-0.084839
-0.308024
-0.064210
-0.301615
-0.642987
0.167111
-0.054837
-0.182518
-0.806483
0.379411
0.049231
-0.469336
-0.038663
-0.219679
0.444776
-0.135547
0.031111
0.105992
0.257716
-0.027983
0.335277
