-1.569100
1.914216
-1.626390
-1.269544
1.077984
-0.295038
-0.436494
-2.025036
2.107710
1.212630
0.702555
-1.805978
-4.583998
-2.210074
2.591055
-3.034354
0.516413
-2.125498
1.443151
2.199399
-0.759249
2.258483
0.978437
-1.809826
-2.021389
1.340531
3.090092
4.222854
0.841404
2.291346
1.130526
3.263364
-1.942569
-1.825170
1.413562
-1.312720
-4.481543
-1.824357
1.167199
0.544120
-0.516179
0.902675
1.969274
-1.470211
-3.828653
-1.888207
0.759011
-0.085710
-1.525611
-0.690601
0.875265
-0.666360
3.775534
2.245647
-2.408385
-0.743913
-0.493960
-0.574789
-2.666412
-1.197869
-2.363496
0.985190
2.029027
2.563519
1.654365
1.036157
3.898479
-0.398242
-4.018086
1.579381
2.442498
0.377114
2.818490
-0.159255
-1.128232
-2.090433
0.093633
0.406351
1.214064
-1.393986
0.740116
0.564483
-0.812122
-1.404595
0.768988
4.213900
-1.740964
0.657351
-0.731383
-2.885318
-0.569083
1.692778
-0.996376
-2.138672
-0.580841
0.687502
0.643755
2.226572
-0.503689
0.827120
-1.611976
-2.221090
2.339780
0.014794
-1.692382
-1.954004
1.721733
-0.562866
1.869955
3.401566
-3.062107
-3.313090
-0.522413
0.817505
-2.755157
-1.057232
1.430200
-3.378486
2.455572
-2.004483
-1.943760
-3.688468
-0.695266
1.530417
0.059661
0.285403
-2.090824
-2.400335
-1.994813
-1.860910
1.668976
-0.407967
2.204292
4.953401
-0.673232
-2.316541
-0.080480
-1.419639
-1.344982
2.167708
1.809144
-2.530417
-0.028171
1.937493
-0.486664
0.869134
5.117805
-0.727808
-0.042040
-2.081075
-0.868876
-0.207246
-0.852182
2.860876
-4.217501
-0.955822
1.076266
2.027746
1.313741
0.157135
-1.741626
-0.946493
-0.848207
1.551461
-0.583488
4.149110
3.827828
-3.612102
0.719916
3.709721
-0.401563
-0.417246
-1.153448
0.118516
-0.413762
0.060993
0.785263
0.150430
-0.843901
0.321450
-1.407186
0.146699
-0.501695
2.429683
-1.651447
2.533528
-4.060231
3.722320
-2.508432
-0.422644
-1.039236
0.530447
1.658712
1.349953
-1.098730
1.598907
-3.824396
1.171499
-2.031317
-2.580141
0.533719
2.380908
-0.230793
-0.757831
-4.432173
-1.046820
2.650559
3.385125
0.722998
-1.272289
1.705938
-0.961097
-2.705234
-0.034383
-0.891672
-0.542376
1.468701
0.393378
2.243177
-1.780801
-0.644805
-4.285554
3.447805
-1.514427
-0.526899
-0.061440
-4.843961
0.618523
-2.934432
-2.180503
-3.766874
0.069916
1.655691
0.111622
-0.104796
0.240113
-1.048605
-0.257866
-3.013214
0.853041
-0.783263
0.700636
0.484378
0.502101
-0.223398
2.533714
3.792877
-5.247817
4.270817
0.178159
-1.739605
-0.205420
-1.919153
1.562890
-1.829260
-1.238436
0.592148
1.460596
-1.970421
-2.311302
-2.116435
-1.508932
0.600206
-0.508126
4.914904
-0.807901
-0.480001
1.104045
0.616021
3.036581
-3.341966
0.158557
-2.092228
-1.256966
2.812129
-1.246812
-0.543651
3.936165
-1.449555
-0.090238
0.359781
-0.920868
0.313057
1.505976
1.243892
0.494527
2.004507
-1.454709
1.571431
0.355399
-0.521514
-2.698440
1.339365
3.560747
3.487607
0.833638
0.489139
-5.095726
-4.462219
2.257429
-0.177766
-0.980874
1.098539
0.481511
3.300892
-1.807861
-3.109546
-1.359799
-0.111555
-0.661232
5.569694
-3.754219
-2.891677
-0.814324
3.441325
3.029998
0.023598
-6.014976
4.658097
-3.918772
-1.771640
-0.563514
0.126054
-1.050075
1.382832
-0.281185
0.230007
2.295738
-3.148837
2.070670
-3.024075
-3.761426
-1.667052
-2.256296
0.668316
0.525849
0.079940
-5.216908
-0.299021
-2.813216
-0.617361
-1.390604
0.205606
0.602633
4.910247
1.804809
0.142323
0.980947
-0.816450
-1.799862
1.266647
1.978441
-3.253724
-1.735263
-0.937686
2.755321
-0.966414
-3.436923
-2.441610
-0.619031
-0.078267
-1.249197
-2.712912
3.005267
0.422262
3.178746
0.715241
0.676619
6.032502
-0.463190
-0.806782
-0.493935
-1.027125
1.116753
-0.330836
3.242758
0.080675
-2.269656
1.251933
-0.314112
2.175271
-0.425606
-0.778420
-1.542055
-2.017078
-0.361340
5.911641
2.103747
2.504390
-0.049422
-0.896142
3.200725
0.682166
2.750091
2.594151
0.071074
-4.008713
-0.030953
2.298555
3.983812
-1.846221
-0.799354
2.411088
-1.821076
1.661404
-3.168674
-0.354205
1.476406
4.129660
1.036804
-1.882264
0.163979
-0.763027
-2.895365
-1.315312
0.567827
1.999763
-3.073562
0.604671
1.638490
-0.262246
-4.574369
0.572684
2.081151
0.291481
-0.242844
1.926050
-1.824418
-1.146172
-0.929148
-2.289148
2.045480
2.040169
-0.400634
-3.030421
2.802010
4.637844
1.632256
0.295936
-3.553380
3.164371
0.653352
-0.522680
0.458417
0.987963
-2.184558
-1.859306
-1.654226
-0.144447
3.405405
-2.381219
1.454853
-0.727921
3.029558
1.446812
-0.414370
0.671884
-0.232024
-2.600559
1.510026
0.543593
-3.501923
-1.881363
-0.089340
0.475730
1.561754
-0.412289
1.127943
3.240011
0.070499
1.437214
-2.332661
-0.250159
-0.038783
1.479855
1.284921
-1.987286
1.016468
0.808481
0.173469
1.161073
0.015825
2.316959
-2.014775
1.302516
-3.316402
-1.817776
-2.388025
-2.638808
-2.428311
-1.221006
-1.691589
-0.902453
-1.220917
1.078796
-1.108934
2.890578
2.426690
0.404768
-0.196690
1.349796
-1.389436
-0.308575
0.519333
1.107786
1.513257
-2.544905
0.691436
1.606620
0.588819
0.552295
-1.315729
-3.294082
-1.287742
-1.128192
1.430653
1.699877
0.449314
1.330845
1.175339
-1.815863
0.177887
3.025851
-0.843842
1.177982
2.071007
-0.020311
-0.379160
-1.335427
3.242416
-3.543330
1.288649
0.769269
-0.901719
-0.123157
-1.354053
-2.486410
-4.130823
1.443291
1.187357
1.033031
2.622696
-0.153072
2.249263
-2.166907
2.097073
-0.716801
-2.486965
0.833331
-0.700644
-1.415589
-0.782838
-2.138285
1.172444
0.061322
-2.658102
0.036094
-1.021703
-0.454978
1.463891
1.854491
-3.686349
-1.180158
1.438483
1.274928
-1.763051
-2.188525
-0.681506
-0.599684
-1.160835
-1.198435
-0.321156
1.932622
-1.846213
0.948231
1.773570
0.712754
-0.768979
2.264458
2.339426
-0.970881
0.991102
1.421447
-1.417549
2.347337
1.333900
-1.713146
-1.127033
1.645885
1.270629
-1.982462
-2.437310
-0.545891
2.873567
-1.047157
0.589737
0.975098
-3.902186
-0.434791
1.596373
3.225240
-0.454797
-0.425956
3.504141
-1.663325
-0.200603
3.236912
1.226223
2.540050
1.995483
0.104583
3.968741
-1.346652
-2.858754
0.703573
-0.821231
0.273545
3.332876
2.484096
0.171605
2.725123
4.673244
2.480943
-0.699871
1.213275
1.768625
-0.981161
-3.549158
-0.601270
-0.886992
-1.444751
-1.946882
-2.339042
3.392508
3.071257
1.895541
1.668898
-3.299444
0.359769
-0.222885
0.022691
-2.414092
-0.243500
-0.512978
-0.888498
0.389667
1.164705
-1.664398
0.890092
-2.371584
0.450342
-1.184758
-1.339913
-0.429496
0.531292
-0.998727
-4.062005
4.614501
-0.307850
0.563084
-0.757774
1.208769
0.471695
0.907421
-0.165820
-3.509527
0.822889
0.700641
-1.820621
3.586718
1.084333
1.594310
1.093427
-2.821490
1.329052
-1.112978
-1.748564
0.795665
-0.959917
-0.347331
3.838542
1.342329
0.253590
1.660173
0.521487
-1.942986
1.146154
-0.150174
-0.678495
0.504737
-0.875112
-0.282334
0.725435
0.481595
1.076796
1.933816
0.270158
-1.806338
-1.631234
-3.165139
-0.152953
-3.109316
1.466402
-0.012000
1.313405
-1.709237
0.459765
-2.510543
0.502139
0.866466
-0.948653
-3.525691
-1.424411
0.260976
-0.007917
-0.298676
0.342991
-0.953380
-0.064014
-2.189572
-1.582272
3.714689
1.583183
-0.142108
-0.292977
-1.017199
0.116511
0.914253
-1.868646
-1.829142
0.329066
2.485623
-0.761738
1.649887
2.334567
0.019561
0.321745
-0.755396
-2.717325
0.352968
-2.546015
-1.421034
0.022835
-0.637962
0.016103
-1.268737
-1.400777
-0.280867
0.379967
-0.161367
2.074475
-1.575827
-2.222205
2.779252
2.844243
0.397175
1.288248
0.553452
0.561686
-1.104844
-1.392015
-1.974662
-1.506732
0.154053
-1.501266
0.684900
-3.325500
-0.282451
3.492366
0.687942
-0.989775
