0.293978
-0.098079
-0.122114
0.039323
-0.102100
-0.490837
0.405154
-0.092907
0.370490
0.146608
0.252145
-0.172015
0.055215
0.540371
-0.542780
0.204931
-0.449397
0.400423
0.292695
-0.137591
0.007080
0.162917
0.320532
-0.187531
-0.059076
-0.386952
0.526895
0.155993
-0.113347
0.693019
-0.172050
0.513698
-0.341844
0.384738
-0.297503
0.344508
-0.217892
-0.234174
0.305719
0.255608
0.187589
0.104505
-0.236699
-0.194517
-0.433429
-0.049516
-0.255467
-0.169010
-0.076259
0.521052
0.298408
-0.127026
0.312399
0.144274
0.513343
0.453170
0.106592
0.826526
-0.075262
0.135514
-0.045961
0.209825
0.518684
-0.220001
-0.543504
-0.281411
-0.175756
-0.473375
0.290994
-0.215450
0.088890
-0.022949
0.012575
-0.381105
0.459473
-0.138445
-0.347842
0.006015
0.356305
-0.276170
-0.254464
-0.089916
0.369107
0.439223
-0.410575
0.026929
0.475079
0.616432
0.259740
0.101500
-0.135219
0.153457
0.391887
0.000017
0.415078
0.007744
0.097739
0.831925
0.106322
-0.253124
0.605773
-0.227281
0.364488
0.230220
0.005528
-0.031654
0.207798
0.309881
0.094426
-0.214780
0.255323
0.417634
0.052259
-0.040497
-0.257365
0.086265
0.079759
-0.487754
-0.041130
0.003105
-0.339059
0.133855
0.359896
-0.272565
0.119301
-0.107887
-0.034149
0.319594
0.591539
0.515367
0.468251
0.195970
-0.352491
0.214258
-0.466295
-0.054973
-0.147215
-0.262756
0.145755
0.223178
0.051838
-0.171651
0.204842
-0.209514
0.004792
0.428759
-0.389172
-0.351031
0.146817
0.454800
-0.404136
-0.255707
0.353239
0.074865
0.159330
-0.008788
0.163053
0.746732
-0.142148
0.344990
-0.254653
-0.373496
0.633858
-0.291761
-0.050968
-0.200685
-0.146780
0.108633
0.558925
-0.224608
0.263685
0.383893
-0.095321
0.484081
0.161482
0.105106
0.397722
-0.444120
0.344390
0.205354
-0.233114
-0.229246
-0.085370
-0.125401
-0.080229
0.243003
-0.147849
0.288588
0.471045
-0.408786
-0.380754
0.252922
-0.220682
-0.282469
0.244721
-0.086324
-0.230330
0.111540
-0.037113
-0.489336
0.487421
0.097881
-0.378920
-0.014020
-0.463535
0.745162
-0.370823
-0.474745
0.214987
0.314564
0.264934
-0.272064
-0.122669
0.271205
-0.599058
0.185606
0.089508
0.432972
0.181314
0.089486
-0.065528
-0.087170
0.390950
-0.219726
0.314299
0.725155
-0.143788
-0.390256
0.124170
-0.115771
-0.045397
-0.663295
-0.858181
-0.164546
-0.158098
0.401955
0.153808
-0.353544
-0.511697
-0.297018
-0.233021
-0.307356
-0.429966
0.291999
-0.572343
0.371079
-0.515357
0.312353
0.476330
0.180069
0.599721
0.127820
0.428046
0.430982
-0.365892
-0.446795
0.198537
0.320560
-0.304341
0.656757
0.337748
-0.625372
-0.323686
-0.410746
0.002104
-0.225026
-0.365012
0.613675
-0.321471
0.702491
-0.379837
-0.645034
-0.223330
-0.471463
0.319325
0.172201
0.063650
-0.028312
0.314042
-0.073884
-0.009509
-0.406960
-0.565662
0.380692
-0.277317
-0.013740
0.102342
0.364608
0.679377
-0.062918
-0.182991
0.066498
0.351194
-0.602153
-0.052146
0.322209
-0.398607
0.192220
0.407050
-0.324610
-0.455903
-0.141203
0.099918
0.427377
-0.575414
0.464673
0.140517
0.361106
-0.179568
-0.587984
-0.211508
0.331826
-0.403879
-0.093271
0.384674
-0.771510
-0.154430
0.082445
-0.085461
-0.228485
0.283965
0.111488
-0.597026
0.721244
-0.229849
0.363550
0.430930
0.050324
0.235963
-0.422819
0.120483
-0.402346
0.026733
-0.050824
-0.324212
0.099993
-0.319728
-0.493692
0.150674
-0.021678
0.030589
0.321964
-0.203868
0.253859
-0.115934
-0.482453
-0.161978
0.016748
0.028462
-0.299596
0.654489
-0.332722
-0.243738
-0.152205
0.304299
0.536386
0.178573
-0.247679
-0.361381
-0.119277
-0.305418
0.268061
0.505404
-0.111328
0.504913
-0.605844
0.489304
-0.185094
-0.001223
0.063097
0.356334
-0.334157
-0.226413
-0.107074
-0.155263
0.138757
0.353945
-0.250220
0.396937
-0.613311
-0.020524
-0.028725
-0.534310
0.147893
-0.569414
0.154378
-0.086889
-0.337199
-0.296514
-0.324241
0.146554
-0.263855
0.263505
0.131408
0.318699
0.301712
0.316903
-0.551206
0.019769
-0.226763
-0.310209
-0.136247
-0.203642
-0.369884
-0.229478
-0.182371
0.222826
-0.294854
0.459087
0.413491
-0.390948
0.587712
0.044538
0.332352
-0.384462
0.150750
0.350180
-0.209345
-0.184477
-0.270566
0.130524
0.281635
0.084158
0.360649
0.741592
-0.471325
0.568397
-0.476318
0.224184
-0.467328
0.069724
-0.140416
0.192314
0.198844
-0.052188
0.158865
0.330699
0.348400
-0.153237
0.737992
-0.298865
0.238635
-0.458097
0.671566
0.412911
-0.392302
-0.143212
-0.488737
-0.298498
-0.289770
0.665761
0.301850
0.195021
0.070076
0.282347
-0.334646
-0.434697
0.178800
-0.039334
-0.486711
0.247564
-0.567252
0.049556
0.058456
-0.319347
0.627061
-0.055926
0.146411
-0.539050
-0.125183
-0.450343
-0.276688
-0.017128
-0.163965
-0.435232
0.207358
0.325853
0.388678
-0.171399
-0.294066
-0.564698
0.314738
0.201026
0.025314
0.603013
0.210418
-0.392198
-0.144381
-0.573802
0.113235
-0.301234
-0.427149
0.067827
-0.388310
0.142083
0.161717
0.567887
-0.054932
0.388598
-0.229639
-0.302088
0.171182
0.408836
-0.391859
-0.341093
-0.009518
-0.529778
-0.021325
0.374041
-0.020638
-0.081034
-0.040765
-0.078076
0.042345
-0.098787
0.349962
0.228878
-0.524068
-0.109226
0.150042
0.491977
0.328003
-0.160666
-0.194748
-0.340108
-0.255777
-0.248365
0.388446
0.478480
0.223688
0.295553
-0.091522
-0.351464
-0.013830
0.314025
-0.293825
-0.411527
0.177548
-0.041664
0.020257
0.446908
0.273273
0.229442
0.229045
0.815274
0.464298
0.303315
-0.183180
-0.485293
-0.162791
0.333621
0.046003
-0.622560
-0.220994
0.556212
0.348510
-0.276290
-0.286208
0.173274
-0.122622
0.268964
0.226071
-0.080477
-0.201373
-0.561208
0.297012
-0.674696
-0.279775
-0.327817
-0.377943
-0.328240
0.515723
-0.160724
0.036344
-0.279207
0.424331
0.128414
-0.351330
-0.370217
-0.099976
0.258913
0.517299
0.303707
0.508454
-0.453929
0.479491
0.003073
-0.247706
-0.587533
0.344191
0.082605
-0.361731
-0.142537
0.334157
0.316210
-0.281647
0.263237
-0.484854
-0.014368
-0.320507
0.261766
0.366230
0.166221
-0.293836
-0.157782
-0.457240
-0.405467
0.396486
0.400015
0.306905
-0.377195
0.284852
0.128007
-0.304982
-0.230779
-0.412679
0.407819
0.272305
0.208937
0.338283
-0.346544
-0.372996
-0.046584
-0.628529
0.016375
0.194008
0.576732
-0.205172
-0.152096
0.034481
0.434141
-0.554892
0.078103
-0.257903
-0.600977
0.013981
0.910495
-0.253175
0.335623
0.022325
0.375277
-0.011275
-0.514670
-0.275551
-0.009261
-0.190000
-0.100258
0.317732
0.267921
-0.416796
-0.039284
-0.498855
-0.365787
-0.617557
-0.084295
0.284619
-0.028816
-0.736033
-0.279267
-0.329113
-0.346936
0.388033
0.288493
-0.345710
0.300440
0.248279
0.561242
0.309515
0.024926
-0.758308
-0.401253
0.517318
-0.014538
0.539037
-0.114679
-0.251018
0.003692
0.206647
-0.191098
0.308728
-0.297966
-0.175058
0.042544
-0.357448
-0.427627
0.151910
0.343940
-0.491783
0.264290
-0.217110
-0.483421
0.232595
0.158371
0.213955
-0.058271
0.350398
0.061100
-0.021888
0.116849
-0.526297
0.179696
-0.558227
-0.158711
-0.456067
-0.402602
0.279829
0.407768
-0.134494
-0.403514
0.366350
0.130594
0.002908
0.184317
0.369379
-0.211650
0.434594
-0.289286
-0.158829
-0.014541
-0.029232
-0.393664
0.408991
-0.050630
0.393025
-0.317273
-0.283690
0.178501
0.531321
0.164580
-0.266347
-0.302892
0.482627
-0.429863
-0.174828
-0.457853
0.496979
0.284895
0.405460
-0.593783
-0.655977
-0.506646
-0.144930
-0.338959
-0.658743
-0.191608
-0.114454
0.438659
0.640796
-0.527649
-0.455068
-0.593338
-0.243080
-0.553813
0.486812
-0.111760
0.321929
0.439477
0.069741
0.031719
-0.344648
-0.323953
0.039251
-0.478594
-0.643210
0.404180
-0.143617
-0.214545
0.281982
-0.390808
-0.310799
0.307758
0.091757
0.684192
-0.367004
-0.016367
-0.249843
-0.429829
0.173156
0.341887
0.101529
0.910790
-0.453477
0.434222
-0.178114
-0.228201
0.484950
-0.017671
0.243837
-0.314318
0.549161
0.335175
0.302238
0.055621
0.645373
-0.582630
0.427739
-0.462261
0.261192
-0.148971
-0.837910
0.209137
-0.551539
-0.487596
-0.211969
-0.304353
0.350758
0.431751
0.032323
-0.301024
0.097196
-0.023404
0.548564
0.588340
0.317293
0.385958
-0.082208
