-0.098334
-0.156599
0.170133
0.587029
-0.237798
-0.005654
-0.073525
0.585110
-0.011252
-0.056222
-0.027843
0.196524
0.044512
-0.533078
-0.355633
-0.605897
-0.456328
-0.109004
-0.247714
-0.574290
0.428434
0.142302
-0.526234
0.373968
-0.394235
0.342970
-0.035087
-0.068848
0.470095
0.070279
-0.042274
0.167503
0.259579
0.068448
-0.669311
0.128912
-0.188413
0.027518
0.091531
0.291443
0.006493
-0.357628
-0.570254
0.131087
-0.286018
-0.353087
0.510923
-0.080349
0.276838
0.017467
-0.143330
-0.113264
0.226969
0.097019
0.723041
0.606592
0.331962
-0.280499
0.514672
-0.409544
-0.227748
0.153962
0.148430
-0.279785
-0.140497
0.549318
0.541558
-0.599748
0.266190
-0.016993
-0.031593
0.238406
0.471391
-0.254208
0.457686
0.074995
0.171262
-0.042567
0.244482
-0.544830
-0.068870
-0.318738
-0.694287
0.258694
0.328694
0.208698
0.303853
0.568300
-0.162243
0.036644
-0.189299
0.281719
0.296394
-0.408089
-0.405869
-0.616316
-0.378198
0.515137
0.749899
0.456503
0.384309
-0.215542
-0.515040
-0.070530
-0.449158
-0.442007
-0.445357
-0.048916
0.583454
0.134007
0.162554
0.036414
-0.303876
-0.025105
0.284923
-0.646992
0.036628
-0.084669
0.386950
-0.226795
0.084664
-0.411410
0.489337
-0.208208
-0.039754
0.496533
0.056979
0.234205
0.026966
0.305703
-0.056778
-0.359916
-0.352491
0.256490
0.343408
0.186113
0.136012
0.170152
-0.594469
0.176179
-0.056790
0.116644
-0.338578
0.050834
0.081572
0.189168
0.353828
-0.378313
-0.606720
-0.413967
0.267737
-0.439568
-0.050425
0.031032
-0.199299
-0.045541
0.048847
-0.130905
-0.531403
-0.322835
-0.040797
0.678571
0.258507
-0.048140
-0.031896
-0.141950
-0.456910
-0.156519
-0.210014
0.337478
0.199523
-0.091012
0.200224
-0.429238
0.256811
-0.358223
-0.290150
0.121168
0.322300
-0.160644
-0.167315
-0.039302
0.241766
-0.205959
0.465118
-0.285041
-0.021367
-0.468651
0.172946
0.158772
-0.650559
0.058025
-0.126966
-0.036813
-0.309832
0.116608
0.269411
-0.468707
-0.096489
-0.600035
-0.089049
0.035406
0.111576
0.021593
-0.350868
0.263372
-0.203825
-0.237825
0.037038
0.296171
-0.153626
0.446660
0.206478
-0.527904
0.488583
0.244337
0.004968
-0.221612
-0.132678
-0.166462
-0.246867
-0.078574
0.556952
-0.197181
-0.090688
0.611881
-0.351691
-0.312129
0.493620
-0.211922
-0.081225
-0.127923
-0.402879
0.048876
-0.432214
0.054935
-0.079928
-0.245680
0.479192
-0.093640
-0.220058
-0.135372
0.284016
-0.176245
0.140706
0.571492
-0.258993
-0.454729
-0.488296
-0.441206
-0.178188
0.349089
-0.107713
0.230082
-0.151001
-0.028685
-0.255716
0.273372
0.417998
-0.095451
0.265519
0.085524
0.435453
0.603342
0.175448
0.028087
0.286587
0.514344
0.147392
0.112927
-0.313957
0.104240
0.462053
-0.270606
0.147872
-0.084359
0.126896
0.161328
0.503976
-0.260133
-0.240843
0.078504
0.265440
0.207811
0.216969
-0.689116
-0.335703
0.124218
0.506554
-0.432303
-0.398133
-0.356154
-0.073866
-0.027127
0.332327
0.019913
0.493778
-0.407415
-0.423000
-0.587413
0.548676
-0.183242
0.309383
-0.389169
-0.217552
0.400931
0.489382
0.292899
-0.155261
-0.726215
-0.090539
-0.453944
-0.275586
-0.109264
-0.020108
-0.340361
-0.238737
0.130459
0.454802
0.350584
0.038333
0.336558
0.075538
0.304524
-0.067024
-0.505844
-0.373036
0.330042
0.210478
-0.424120
-0.309828
-0.366502
0.000203
0.116451
-0.202777
-0.327637
0.580848
-0.018090
0.169296
0.086849
-0.815413
-0.029799
0.018998
0.155896
0.579099
-0.478455
0.678588
0.065593
-0.517529
0.221973
-0.310375
0.442743
0.109521
-0.256913
-0.333029
0.241411
0.147104
0.105354
0.451595
-0.417906
0.551302
-0.171391
0.417118
0.049381
0.385558
-0.126536
0.320881
0.090505
0.552915
0.184189
0.466998
0.012394
-0.149335
0.154423
-0.191652
0.000546
-0.131138
0.173517
0.020713
-0.177039
0.089077
0.320066
-0.095341
-0.184011
-0.478775
-0.313187
-0.144556
-0.385680
-0.196812
0.063048
-0.205236
0.355620
0.260852
0.308140
0.358004
0.017152
-0.002600
0.344248
0.089746
-0.045320
-0.285059
-0.143199
-0.473476
-0.025788
-0.398814
-0.602442
-0.147257
-0.120036
-0.373234
0.031525
0.052336
0.222167
0.038571
-0.054514
0.129389
-0.249240
0.245756
-0.223215
-0.579899
-0.059255
-0.133976
0.059802
-0.340018
-0.107234
-0.043818
0.174857
-0.307633
-0.258953
0.001531
-0.379989
0.086070
0.359780
-0.645960
0.155506
-0.015401
0.085652
0.064820
0.001542
0.050503
0.341013
0.378840
0.064195
0.308157
-0.788837
-0.200364
-0.161874
0.022703
-0.041833
-0.515030
-0.512828
0.539006
-0.200868
0.195176
-0.122918
0.091992
-0.099571
0.037369
-0.532234
0.917692
-0.197427
0.396463
-0.069695
-0.015910
0.177902
-0.432718
0.082037
0.356648
-0.136665
0.090162
0.003736
-0.137330
-0.380967
0.686552
0.313907
0.139257
-0.160020
-0.239802
0.457313
-0.040665
0.397449
-0.132965
0.675361
-0.486511
0.204633
0.356052
-0.216555
0.272964
0.088032
0.420475
-0.396926
-0.516309
0.169320
-0.110695
0.464168
-0.138502
0.377521
-0.188042
0.256879
-0.170538
-0.176792
0.119279
-0.422508
0.475479
0.566603
0.701660
-0.165342
-0.350404
0.347897
-0.125328
-0.386532
0.280850
-0.160339
-0.668880
-0.426818
-0.176552
0.360257
-0.587189
-0.205997
0.117618
0.512037
0.472586
0.391681
0.562251
-0.072173
0.261973
0.334889
-0.029480
0.112700
0.019262
-0.354224
-0.220580
0.250656
-0.070019
0.211604
0.152842
-0.532848
-0.164599
-0.310895
-0.135984
-0.278203
0.138777
0.542329
-0.111221
-0.471629
-0.152613
-0.074094
0.510262
-0.197944
-0.441241
0.343617
-0.140884
0.219230
0.405938
-0.532732
0.068736
-0.112949
-0.151259
-0.219744
-0.247790
-0.138033
-0.005335
0.444755
0.014474
0.086123
0.281160
-0.346235
-0.035636
0.007533
-0.635725
-0.126419
0.036965
0.410006
0.044184
-0.193368
-0.061054
0.479385
-0.042736
0.149211
-0.287397
-0.199848
0.128487
-0.047450
-0.161281
0.688765
-0.148406
-0.183466
-0.282359
0.458208
-0.001060
-0.025823
0.222353
-0.257952
-0.189013
0.158732
-0.543398
0.255654
-0.420969
0.292178
0.460999
-0.127515
0.166599
0.341454
-0.228882
-0.559982
-0.077045
0.486399
-0.618236
-0.489728
0.027961
0.336707
-0.234237
0.385366
0.421816
-0.542064
0.438675
-0.374073
0.495170
0.032083
0.047294
-0.074631
-0.139269
-0.080432
-0.011534
-0.339528
-0.525217
0.126893
-0.100391
0.276260
0.379392
-0.097220
0.061485
0.337466
0.015434
-0.234260
-0.908559
0.632018
-0.475693
0.128073
0.565079
0.382494
0.311564
0.151384
-0.582077
0.580646
0.136953
0.416423
0.123683
0.029297
0.032003
0.005633
0.290831
-0.125382
-0.154447
-0.572938
-0.021404
0.507013
0.169836
0.021826
0.542556
0.716337
-0.503194
-0.005749
-0.260208
-0.201681
0.481616
-0.301510
0.192301
0.493671
0.532598
-0.420829
0.012889
-0.131756
-0.050998
0.132645
0.050756
-0.194391
0.274009
-0.274703
0.347260
0.078544
0.048545
0.344687
-0.042931
0.181649
-0.321568
0.189787
0.241100
-0.313251
-0.359832
0.385180
-0.221969
-0.021292
-0.485092
-0.452206
-0.248888
-0.027771
-0.126670
-0.224686
-0.180861
-0.144734
0.144193
0.688476
-0.020231
-0.027478
-0.174119
0.025963
-0.456765
0.008386
-0.384466
0.315044
0.023349
0.245659
0.319194
0.523271
0.136925
0.078274
0.634674
-0.376946
0.250849
0.014548
-0.226467
-0.003979
-0.359576
0.161590
-0.012605
-0.068174
0.334339
-0.138779
0.408117
0.060969
0.105941
0.600163
0.177485
0.514969
-0.395824
0.161932
-0.130519
-0.373580
-0.026556
-0.377462
-0.229985
-0.419046
-0.452565
-0.355194
0.244872
-0.385156
0.108930
0.464619
0.190543
0.394970
-0.526143
-0.115869
0.039145
-0.724825
0.144647
-0.014875
0.196852
0.559081
-0.597355
0.132114
0.672329
-0.022611
-0.582252
-0.527783
0.083147
0.270816
0.526273
-0.290618
-0.216182
-0.254511
0.280532
0.403955
-0.178374
0.210629
-0.092979
-0.312592
0.231037
0.338873
-0.155523
-0.289464
0.619352
0.001833
-0.224549
-0.717853
-0.435815
-0.247282
-0.072428
0.298369
-0.220445
0.590990
-0.057221
-0.434494
-0.237197
-0.375514
-0.145756
0.056768
0.087886
0.756694
-0.043276
0.114089
-0.046288
0.098946
0.367734
-0.243351
-0.312535
0.433468
-0.373539
0.445116
0.546103
-0.524483
-0.145035
-0.456755
-0.634195
0.462755
0.309889
0.474059
