0.078729
-0.305950
-0.110297
0.207463
-0.352716
-0.396388
-0.053359
-0.110941
-0.112975
-0.180573
0.216628
0.008558
-0.100012
0.008588
0.342417
-0.069439
0.024939
-0.399051
-0.503644
0.403386
-0.302664
-0.293604
-0.043988
0.410511
-0.023716
0.058157
0.787706
-0.351716
-0.363689
0.383735
0.095803
-0.590523
0.259579
-0.150608
0.034893
-0.224470
0.210982
0.551497
-0.468108
0.057277
-0.036675
0.184708
-0.044715
-0.190065
0.695860
0.008743
-0.021446
0.376909
-0.078777
0.725177
-0.198080
0.000576
0.075201
0.286770
-0.052603
0.059075
-0.218494
0.003061
0.412047
0.090176
0.537533
0.484216
-0.275221
-0.352378
0.499928
0.220256
0.456773
0.044667
-0.323808
-0.344470
-0.229729
0.000421
0.536029
-0.308776
0.340407
0.085110
-0.177127
-0.316134
0.371252
-0.379374
0.171043
-0.366376
-0.263898
-0.543138
-0.080470
-0.113005
0.047540
0.772539
-0.070895
-0.045635
-0.193333
-0.105661
0.371889
-0.032045
-0.354212
0.008045
0.220648
-0.045222
-0.471836
-0.504286
0.041950
-0.132071
-0.098589
0.074753
-0.022275
-0.516648
-0.116500
0.315128
-0.389342
-0.445024
-0.201423
-0.799266
-0.063606
-0.091276
0.540714
0.112440
-0.166298
-0.257596
-0.216866
-0.303367
0.463627
0.142028
0.070692
-0.292056
0.053189
-0.368050
0.144611
-0.271428
0.644626
0.087053
-0.196783
-0.429406
-0.040698
0.316128
-0.024558
-0.370247
-0.030088
0.199420
0.555491
-0.219577
0.323714
-0.481185
0.140694
-0.308870
-0.141072
0.099848
0.574176
0.137746
-0.283189
0.231128
0.274907
-0.407427
0.546020
0.004099
-0.203867
0.588639
0.124521
0.168350
0.006511
0.311582
0.041433
-0.381767
-0.096181
-0.104454
0.401056
0.522531
-0.386756
-0.156519
-0.378315
-0.609297
-0.257659
0.046956
-0.225444
-0.277317
0.209304
-0.266226
0.065779
0.475461
-0.209717
-0.518834
-0.078054
-0.153305
0.195164
-0.371263
0.177506
0.152297
0.460653
0.266843
0.288692
-0.163599
0.474795
0.220185
-0.126966
-0.545045
0.283801
0.116608
-0.191786
-0.608408
-0.322406
-0.447994
0.092895
0.082313
-0.566423
0.162146
0.543083
0.263372
0.692833
-0.241996
-0.244165
0.590651
0.399265
0.290093
-0.147602
0.036738
-0.453779
-0.239845
-0.609617
-0.153325
-0.134469
0.008378
-0.296264
-0.086957
0.150184
-0.005282
0.325621
0.322486
-0.461727
-0.281544
0.243139
0.062551
-0.191978
0.525598
0.366148
0.140909
0.448275
0.271006
-0.171182
0.060004
-0.671653
0.521259
-0.430266
0.059902
-0.481888
-0.056756
0.008696
0.486898
-0.016813
-0.241169
0.080639
-0.547413
0.527486
0.437092
0.392890
0.153263
0.253691
0.032503
0.105750
0.023635
0.287370
-0.290762
0.409185
0.225435
-0.292826
0.616956
-0.099834
-0.049323
-0.507126
0.514344
-0.109960
-0.221277
0.309854
0.466482
0.029282
-0.325342
0.414842
0.508871
0.195347
0.333748
0.487325
0.350608
0.380459
0.417476
0.473270
0.289834
0.093020
0.165576
0.218279
-0.163913
0.401348
-0.489905
0.337948
0.143649
0.158755
-0.351724
0.343124
-0.129132
-0.307830
-0.307983
0.241198
-0.266559
0.448684
0.243650
0.191804
0.353678
-0.575611
-0.283946
-0.335801
0.060056
0.277179
0.482523
-0.078236
-0.453944
-0.300389
0.434218
-0.018590
-0.181615
-0.431403
0.000428
0.552273
-0.335673
-0.553703
0.509627
-0.219356
0.432832
-0.466584
-0.252524
-0.168997
0.011331
-0.408002
-0.040585
-0.043169
-0.230606
0.077364
-0.659534
0.063960
0.275892
0.409620
0.118376
-0.012996
0.122070
-0.710453
-0.455977
0.381412
-0.355268
-0.112880
-0.435424
0.196114
-0.327609
0.300973
-0.615848
0.036030
0.667456
0.506690
-0.036708
0.095973
0.149980
0.139743
-0.192734
0.017083
0.021191
-0.393826
0.592168
-0.505699
0.181709
0.265045
-0.371197
-0.290395
0.311767
0.375811
-0.518258
0.452977
-0.008685
0.192958
0.520459
0.558563
-0.535569
-0.339709
-0.110336
-0.060993
0.432546
0.033266
0.383161
-0.118691
-0.131065
-0.497223
-0.692248
0.210022
0.350774
0.039436
0.115525
0.446112
0.078085
-0.028875
-0.312254
0.475728
-0.455836
0.072792
0.038271
-0.719676
0.189638
0.039157
-0.135454
0.105367
-0.037420
-0.505098
-0.720508
-0.147257
-0.404958
-0.420357
-0.420654
-0.282088
0.079466
-0.444243
-0.054514
-0.236761
-0.216105
0.060131
0.501570
-0.237091
0.272020
-0.007399
-0.264707
0.349272
-0.031601
-0.270572
-0.034516
0.178874
0.173080
0.429726
0.199137
-0.163958
0.069227
-0.425164
-0.333866
-0.302641
-0.217835
-0.216704
-0.159198
-0.323199
0.407775
-0.013283
0.365733
0.125877
0.588622
0.142486
-0.126412
0.018038
-0.111889
0.228261
0.556145
0.227511
-0.200868
0.282892
0.249477
0.170808
-0.037935
-0.104459
-0.483222
-0.653149
-0.528357
-0.362509
-0.305165
0.318562
0.399141
0.040090
0.064782
0.405334
-0.070741
0.223713
-0.263466
-0.293602
-0.144415
0.006266
-0.302631
0.592270
0.161593
-0.725625
0.184368
-0.137889
-0.003451
-0.472964
0.582791
0.395660
0.129482
-0.347059
-0.491669
0.035471
-0.513313
0.211014
-0.336127
0.114715
0.201222
-0.223223
0.435370
-0.316973
-0.275526
-0.038882
-0.460856
-0.254257
0.046661
-0.097787
-0.385314
-0.302797
-0.043981
0.307628
-0.401904
0.268235
-0.520837
-0.346859
0.133451
-0.305015
0.311481
0.185210
0.074297
-0.466318
0.477801
-0.443976
-0.205997
0.175233
-0.167602
0.151000
0.502376
-0.251501
-0.266667
0.020375
-0.339185
0.490855
0.107692
0.196325
-0.725537
-0.337251
0.485357
0.465109
0.368940
0.316422
-0.252247
0.416558
0.173356
-0.355535
-0.300485
-0.139693
0.217735
0.450605
0.278172
-0.518254
-0.147412
-0.262849
0.134708
-0.411620
-0.063445
0.353184
-0.521470
0.498348
0.376387
0.023580
0.187527
0.168024
-0.420992
0.024344
-0.340569
0.220434
-0.251269
0.045754
0.542092
0.404051
0.253910
0.528324
-0.372399
0.121200
-0.378987
-0.266915
-0.021249
-0.211042
-0.199480
0.024106
-0.290724
-0.000381
-0.188232
-0.401293
-0.549271
-0.059921
-0.095524
0.020734
-0.231250
-0.382054
0.240293
-0.063724
0.245717
-0.059411
-0.010203
-0.001369
-0.332800
-0.069892
-0.023327
-0.182780
0.016440
0.107272
-0.470771
-0.211629
-0.335022
-0.234841
0.357573
-0.302524
0.400722
0.077563
0.232741
0.311050
-0.308104
0.040624
0.336707
0.271894
-0.019691
-0.382446
0.244526
0.103571
-0.549332
-0.311165
0.039424
-0.041444
0.401825
0.516944
-0.350355
-0.185556
0.112804
0.141587
0.288967
0.368676
0.545348
-0.383619
0.250284
0.364026
-0.113330
-0.328320
0.580687
-0.594409
0.320425
-0.102914
0.268179
-0.501182
-0.262054
0.572874
0.337729
0.195211
-0.158329
0.150509
-0.015930
-0.015805
0.163749
0.013270
0.056735
0.292153
-0.000787
-0.222364
-0.572938
-0.293486
-0.469652
-0.405792
0.198391
0.281798
-0.062529
-0.568007
-0.624413
0.401051
0.179399
-0.295868
0.369503
0.679449
-0.024829
-0.169964
0.140154
0.312621
-0.582510
-0.429963
-0.353371
0.408123
0.531564
0.053549
-0.046454
0.117488
-0.289503
-0.225489
0.265109
-0.646626
0.240364
-0.405097
0.333171
-0.254795
-0.002394
0.426556
-0.427158
-0.130998
-0.258843
-0.346801
-0.545284
0.309394
-0.347218
0.237451
0.186327
0.013258
-0.063919
0.621880
-0.303933
0.053046
0.275477
0.332393
-0.089051
-0.431276
-0.279984
0.038589
0.274832
-0.174539
0.484825
0.386257
-0.443674
0.103448
-0.125691
0.663752
-0.182578
0.224839
-0.445682
-0.331712
-0.564939
-0.144358
-0.426144
0.014706
-0.378027
0.044346
-0.497643
-0.096725
0.060969
-0.213790
-0.235292
0.318490
0.071018
0.067159
-0.387154
0.347978
0.272215
0.269533
-0.273390
-0.105829
-0.031243
-0.361290
-0.132097
0.474757
0.540279
-0.010760
0.229051
-0.145081
-0.420260
0.114659
-0.080989
-0.363672
0.481902
-0.581102
-0.022098
0.113308
0.039339
0.605977
-0.333873
-0.168738
-0.523126
-0.112085
-0.602503
-0.027719
0.036912
0.017141
0.489079
-0.124257
-0.252638
0.490434
-0.276576
0.189830
-0.355355
-0.199523
-0.271745
0.577042
-0.765362
-0.037146
-0.054306
0.447642
-0.425891
0.154791
0.453797
-0.418423
0.654844
-0.714560
0.589763
-0.017960
-0.126203
-0.042386
-0.366856
-0.237862
0.069640
0.147954
-0.609461
0.216441
-0.078961
0.030901
-0.527737
0.005508
0.292203
-0.392811
-0.172641
-0.333930
0.046888
-0.702339
-0.538407
0.546103
-0.343856
0.348211
0.318494
0.607218
0.320475
0.560914
0.502900
