0.011600
0.529728
0.103307
0.119722
0.454187
-0.108014
-0.022541
0.280629
-0.604940
-0.219217
-0.230989
-0.034009
-0.458726
0.454024
-0.051359
0.257027
-0.041865
0.284211
-0.333419
-0.092474
-0.016788
-0.050430
-0.283063
-0.264703
-0.171043
0.251544
-0.193118
0.121234
-0.046044
0.004771
-0.092793
0.046504
0.169431
0.217478
0.109945
-0.142676
-0.014775
0.206741
-0.050219
0.334049
0.123325
-0.251628
0.274105
-0.172394
0.608827
-0.401312
0.097822
0.165634
-0.349124
0.311918
0.485184
0.000576
-0.008650
-0.422977
-0.018856
-0.259441
0.144532
-0.156784
-0.027697
0.151696
-0.339241
-0.195115
0.543210
0.416067
-0.474701
0.358180
0.303699
0.322959
0.188221
-0.258423
0.083612
0.160544
-0.118320
-0.264034
-0.203977
0.025754
0.165032
0.200904
0.203608
-0.205464
-0.126604
0.446624
0.422153
0.547358
-0.160015
0.146543
-0.379421
0.516279
0.316247
0.403380
-0.227543
-0.621082
0.229547
-0.086654
-0.591738
-0.317636
0.123423
-0.394802
-0.536073
0.381238
0.033692
0.044981
0.047899
0.062186
0.509495
0.136050
0.444036
-0.344837
-0.093567
-0.423620
-0.149372
-0.196011
0.153123
0.160778
0.205066
-0.036523
0.247723
-0.108718
0.103253
0.004474
-0.709394
0.647519
-0.424484
-0.307975
-0.023210
-0.395016
0.059894
-0.189992
-0.157375
-0.415960
-0.709320
0.475584
0.179345
0.270160
0.017428
-0.385511
-0.555387
0.458800
-0.160054
0.483957
-0.557923
-0.582803
-0.242237
0.099850
-0.201875
0.134514
-0.332198
0.276818
0.540351
0.287990
-0.260353
0.499776
0.330701
-0.166328
-0.053959
0.568386
-0.294535
-0.304918
-0.179187
-0.353634
-0.423260
0.295581
0.462298
0.515686
0.155757
-0.391918
0.012999
0.201113
-0.286631
0.546512
-0.045187
0.050875
0.159690
0.435271
0.283810
-0.210595
0.356795
-0.139473
-0.168156
0.225832
-0.141169
0.578359
0.195092
-0.359359
-0.590964
-0.222249
-0.108719
0.465883
-0.201080
-0.410347
0.471918
-0.430507
-0.184105
-0.075283
0.055438
-0.393708
0.412310
-0.354948
-0.100539
-0.438349
0.577272
-0.082444
0.251054
-0.097780
-0.351250
-0.437377
0.382342
-0.500865
-0.528329
-0.489095
0.380066
-0.120504
-0.144938
-0.676664
0.419581
0.179134
0.118566
-0.335054
0.126155
-0.240363
-0.007864
-0.464549
0.117907
0.170874
0.260500
0.705804
-0.087418
0.090569
0.096045
0.037924
-0.115750
-0.056435
0.285687
0.353657
0.557366
0.149892
-0.294038
0.339138
-0.609493
0.478624
0.117622
0.104156
-0.534941
-0.008834
-0.321748
0.116191
-0.463334
-0.258360
-0.474016
0.100985
0.408178
-0.283068
-0.068343
0.184900
0.333013
-0.154880
0.609235
0.519850
-0.420389
0.202852
0.371578
0.045751
0.599687
-0.037961
0.216291
-0.324251
0.028584
0.476942
0.176136
0.715361
-0.470650
-0.332997
0.061904
-0.320410
-0.062903
-0.034457
0.098811
0.446293
-0.117865
-0.293940
0.523498
-0.077380
0.071796
-0.135162
0.053493
0.005247
-0.153883
-0.176883
0.540397
0.416995
-0.313335
-0.339689
0.326198
0.468111
0.157717
0.287642
0.280033
-0.111215
-0.385639
0.418308
0.379491
-0.118789
-0.510767
0.192498
0.387232
0.584156
-0.113570
0.449915
-0.123312
0.472368
-0.047300
-0.351398
-0.373624
-0.053625
0.155289
-0.533895
0.572561
-0.164907
0.023232
-0.003691
0.107744
0.315682
-0.276427
0.423486
-0.434258
-0.194505
0.405645
-0.644350
-0.468210
-0.308204
0.327778
-0.450310
0.070973
0.283227
-0.010662
0.275892
-0.326234
-0.082174
-0.266195
0.337349
-0.401445
-0.264828
-0.493067
0.058149
0.026310
0.119288
-0.165630
-0.126123
-0.437912
0.413885
0.221456
0.628504
0.481020
-0.429259
-0.170317
-0.411227
0.217635
0.145093
0.076688
-0.369204
0.160596
0.770264
-0.131067
0.486585
0.375566
-0.043529
-0.737910
-0.106044
-0.203064
-0.096621
0.228850
0.255271
0.279004
-0.283898
-0.210703
0.081060
0.329737
-0.303835
0.259279
0.313080
0.017430
-0.109238
-0.315287
-0.776690
-0.345953
-0.139752
0.034183
-0.291934
-0.319937
-0.088120
0.410086
0.148429
0.340595
-0.089671
0.342731
-0.111074
0.030127
0.415640
0.382287
-0.299706
-0.495925
-0.188545
-0.153600
0.238960
-0.131575
0.536493
0.223352
-0.182568
0.283516
0.362508
-0.336237
0.161207
-0.507888
0.588042
-0.361765
-0.233581
0.251118
0.459082
-0.295321
-0.132279
0.060435
0.141912
0.272331
0.571868
-0.060571
0.352587
-0.198628
0.253328
0.254679
0.364856
0.063691
-0.331454
-0.186267
-0.362416
0.111936
-0.428573
-0.234231
0.522999
0.068527
-0.345730
0.212598
-0.051045
-0.040744
-0.410098
0.575060
-0.005248
-0.284176
-0.149290
0.025885
-0.292716
-0.216136
0.332311
-0.018449
0.519988
0.319465
0.041828
0.017266
0.167045
-0.122859
-0.149288
0.008263
0.004534
-0.336470
0.297197
0.310240
-0.058980
-0.004625
-0.081043
0.476188
-0.105175
-0.260679
-0.411291
-0.095623
-0.299957
0.115862
0.398665
0.374847
0.176893
-0.263032
0.599077
-0.063773
-0.128170
0.194391
0.041058
0.527308
-0.061417
0.222552
-0.299783
-0.527102
-0.396312
-0.190819
0.543742
0.114256
0.084404
-0.304691
-0.007370
-0.266849
-0.222314
-0.374754
-0.154387
-0.301724
0.393179
0.072855
-0.268992
-0.123463
0.230819
-0.377187
-0.274272
0.353774
-0.440798
-0.471029
0.178679
-0.462962
-0.088680
-0.559767
-0.284904
-0.459052
-0.350234
-0.421840
0.456101
-0.245576
0.112415
0.100304
0.158424
-0.345072
-0.027668
-0.519884
0.109942
0.296904
0.226954
-0.011393
-0.096398
0.147202
0.212597
0.450041
-0.040695
0.031686
0.263375
0.371217
-0.350184
0.390662
-0.444772
-0.198710
-0.269757
-0.175935
-0.077789
-0.389813
-0.216006
0.400490
0.608742
-0.510525
-0.472599
-0.523306
0.451318
0.031687
0.389370
-0.737479
0.108770
0.519214
-0.416756
-0.371823
0.356602
-0.082446
0.275124
0.031314
-0.232783
0.195331
0.407608
0.279699
0.046868
0.000936
-0.176121
0.332430
0.373764
-0.418341
0.077541
0.095397
-0.215021
0.192308
-0.055967
0.413722
-0.484885
-0.414409
0.383210
-0.333554
-0.227970
-0.134088
0.556722
-0.060511
-0.089994
-0.116069
-0.099319
0.075814
0.246755
-0.022927
-0.003097
-0.472572
-0.350954
0.089754
0.191394
0.130285
0.405683
0.523290
0.019062
-0.427743
-0.063604
-0.220396
-0.334896
0.128062
0.402553
0.886394
-0.089062
0.238409
-0.340291
-0.300440
0.483710
0.455575
0.039424
-0.071851
0.237607
-0.034745
0.126280
-0.007968
0.274067
-0.031132
-0.080618
-0.017952
-0.428143
0.379392
-0.235635
-0.423683
-0.253149
0.249050
0.518410
-0.247001
0.340978
-0.538249
0.439064
-0.033810
-0.083569
-0.681670
-0.027291
0.468526
0.467366
0.085753
-0.487149
0.514890
0.288005
0.361997
0.329393
-0.184464
-0.441662
-0.074522
-0.226085
-0.226999
0.579855
0.290172
-0.315996
-0.124194
-0.062144
-0.404029
-0.377309
-0.284042
-0.265645
0.254405
0.087161
-0.191941
0.047560
-0.081484
0.445857
0.584483
0.252660
0.375551
-0.447179
0.184255
0.407860
0.649264
-0.106391
-0.056002
-0.345872
0.156183
0.655824
-0.069934
0.099735
0.024163
-0.116265
0.332872
0.672724
0.377373
-0.007635
-0.162676
-0.050411
-0.060516
0.118150
0.467844
-0.141349
-0.221831
-0.079207
0.259841
-0.047872
0.549453
0.193246
0.212143
0.142901
0.929646
0.099108
-0.149653
-0.392057
0.050458
-0.247919
0.407565
0.340857
0.386970
-0.204359
-0.701047
-0.336643
0.346648
-0.040166
0.614906
-0.412347
0.086779
-0.228929
0.149997
0.543079
-0.527047
-0.402606
-0.233763
-0.545949
-0.122317
0.316399
0.284756
0.405626
0.326120
0.335923
0.059237
0.388482
-0.223976
-0.008015
0.091877
-0.272845
-0.191188
-0.231729
-0.156665
0.485632
0.211082
-0.188998
-0.166985
-0.173454
-0.539831
0.284766
-0.183971
-0.316287
0.050689
0.417189
-0.271247
-0.694246
0.158902
0.035732
-0.003678
-0.289129
-0.350789
0.453194
0.274402
-0.398102
-0.268288
-0.323894
-0.103161
0.410693
-0.316974
0.175952
-0.473674
0.093235
-0.382836
0.533221
-0.142591
0.544266
-0.377715
-0.457488
-0.273677
-0.255199
0.248985
-0.381147
0.829438
-0.426017
-0.456526
-0.346793
0.400800
0.261737
-0.069874
-0.278025
-0.162847
-0.452950
0.005849
-0.073443
-0.178505
-0.544397
0.276411
-0.145499
0.507316
0.480896
0.047818
-0.269122
0.275445
0.355257
-0.303044
0.031989
-0.566823
-0.503502
-0.098353
0.444776
-0.567551
0.215214
0.212520
-0.012482
-0.621909
0.243335
