0.163699
-0.209448
-0.124581
-0.045638
-0.352167
0.278132
0.119689
0.494553
0.360308
0.357500
-0.372699
-0.346724
-0.024009
0.620143
-0.278297
0.310390
0.104034
0.096859
0.248797
-0.611368
0.398949
0.152807
-0.470393
-0.077648
-0.408565
-0.036333
-0.036393
0.096486
0.481975
-0.357466
-0.149077
0.109964
0.128667
-0.302320
0.241238
0.313915
-0.112847
-0.508663
0.414004
0.197028
0.135044
-0.285021
-0.216517
-0.219297
-0.267328
-0.048454
0.142507
0.228339
-0.143279
-0.136391
0.163136
-0.031751
0.327999
0.189727
0.112397
0.583218
0.132613
-0.215001
0.213259
0.184485
-0.206306
-0.102314
0.204421
-0.351307
-0.509982
0.398864
-0.411995
-0.518962
0.178572
-0.322637
0.319277
-0.412366
0.581584
-0.451199
0.358211
0.034934
-0.452093
0.304364
0.420632
-0.173178
0.202019
0.603215
-0.208574
0.074532
-0.448462
-0.098664
0.012581
0.689744
-0.128692
0.300674
-0.071445
0.393993
0.024382
-0.524451
0.488403
0.260118
0.448780
-0.496645
-0.153544
0.352955
0.461026
-0.456400
0.220301
0.382845
-0.431984
-0.114576
0.472851
0.496540
0.442633
-0.276623
-0.276620
-0.587400
0.361388
0.130508
0.405787
0.260807
0.077033
-0.184264
-0.086451
0.211690
-0.035736
-0.516046
-0.185253
-0.113064
0.393900
0.041305
-0.080085
0.350214
0.106764
0.030237
-0.574217
0.206150
-0.040698
0.233137
0.596676
0.392381
-0.417542
-0.643645
0.395018
0.225940
0.165444
-0.602722
-0.159434
0.024804
0.111381
-0.400285
0.069214
0.170053
0.212772
0.390215
-0.218803
-0.063986
0.176721
-0.084342
-0.036416
0.814304
0.048847
0.227973
0.362524
-0.094487
0.159990
-0.042524
0.056429
0.219968
-0.374058
0.363833
0.275502
-0.141228
-0.233799
0.414454
-0.334166
0.088477
0.669503
0.101593
0.119493
0.186736
0.622814
0.381938
0.016988
0.131347
0.349789
0.797223
0.141672
-0.305969
0.034859
0.246287
0.056997
0.412051
0.429433
0.175086
0.466803
0.053096
-0.162309
-0.277789
0.357931
-0.014262
-0.275109
-0.651642
-0.523745
-0.305748
0.559061
-0.514354
0.187305
0.185227
0.382835
0.098755
-0.160830
-0.303666
0.532082
-0.262042
-0.297236
-0.388284
-0.228454
-0.177478
0.494199
0.567043
0.302841
-0.426254
-0.201799
-0.351296
-0.056212
0.404756
0.340826
0.168442
0.846375
0.016688
-0.175554
-0.330711
-0.061060
-0.236583
0.148063
-0.212980
-0.197201
-0.621118
-0.015784
-0.093311
0.300709
0.233474
-0.233351
-0.098416
-0.520362
0.721594
-0.600555
0.340838
0.386350
0.359096
-0.306176
0.263946
0.308122
0.098025
-0.040688
0.340391
0.365863
0.068666
-0.141452
0.553906
0.168741
-0.213322
-0.242503
0.228775
0.455236
0.330496
-0.131422
-0.342154
0.289531
0.013309
-0.223701
0.175026
0.115847
0.286146
0.372029
-0.492388
0.057053
0.543630
0.383286
-0.156711
0.253538
0.380737
0.531870
0.064482
-0.423180
0.245012
-0.422864
-0.121306
-0.152170
-0.346564
0.271851
-0.416073
0.370941
-0.309367
-0.330759
0.117864
0.362930
0.333142
0.386173
0.267530
-0.400653
0.166522
0.389760
0.308332
0.236675
-0.457124
0.315173
0.116702
0.131848
-0.246935
0.369474
-0.023540
0.216493
-0.688164
0.311797
-0.393116
-0.147113
-0.498118
0.128585
-0.491049
-0.382353
0.516784
-0.272870
-0.303484
-0.116207
-0.442376
-0.445062
0.357888
-0.624897
0.314544
0.337173
-0.399043
0.116489
0.025091
0.269057
-0.176041
0.263972
-0.729058
-0.176843
-0.654200
-0.336564
-0.336158
-0.089155
-0.165261
0.162723
0.486570
-0.140909
-0.348958
-0.312313
-0.530514
0.123532
-0.123077
-0.531874
0.628765
-0.075068
-0.377814
0.020421
0.106591
-0.268214
0.378441
0.455424
0.080232
-0.289658
0.425651
-0.305056
1.013452
0.236031
0.512058
-0.615036
0.501667
0.359874
0.551874
0.089459
-0.350367
0.555327
0.475159
-0.090011
-0.197754
0.104862
-0.207362
-0.751352
-0.096636
0.281572
-0.050490
0.062720
-0.237368
-0.178643
0.083720
-0.053647
-0.107417
0.691125
0.296428
-0.009394
0.183795
0.091382
-0.547121
-0.567922
-0.238590
-0.204931
-0.592741
-0.033116
0.365830
-0.103418
-0.355446
0.015107
0.330792
-0.299164
-0.007918
0.617543
0.112058
-0.032389
-0.089735
0.297883
0.243173
0.204707
0.354940
-0.075579
0.338422
-0.200962
0.171183
0.197775
-0.094181
0.214520
-0.565658
0.551358
0.398407
0.074869
-0.011180
-0.498498
-0.037697
0.402975
-0.119373
-0.230349
0.413513
-0.028775
0.064327
-0.186267
0.516559
0.451677
-0.234504
0.237492
0.079070
0.002200
0.292384
-0.549669
0.316242
-0.452755
-0.288760
-0.105389
-0.162819
-0.100477
-0.006110
0.321691
-0.099497
-0.155179
0.218694
0.329843
-0.209125
0.423661
0.434344
-0.400584
0.293996
0.391487
0.162848
0.186051
-0.832655
-0.066085
-0.082814
-0.626069
0.032890
0.078604
0.255611
0.003148
-0.368172
-0.038037
-0.038132
-0.335728
0.020170
0.583175
-0.197478
-0.089595
0.469728
-0.215575
-0.173364
0.349251
-0.047014
-0.233785
0.056467
-0.392976
-0.541255
0.315291
-0.065577
0.067503
0.254963
-0.454748
-0.266149
0.052685
-0.256981
0.156358
0.520882
-0.560561
-0.147935
-0.300699
-0.534839
0.172532
-0.079717
0.031113
0.658772
0.286720
-0.609520
-0.835999
0.398054
0.578690
-0.208428
0.219522
-0.284237
-0.082560
-0.469131
-0.479818
-0.386480
0.400441
0.200157
-0.700196
-0.263151
-0.218068
0.400472
0.510678
-0.372140
0.237115
0.248898
-0.297551
0.217174
-0.040433
-0.173898
-0.084382
-0.228409
0.135514
0.591497
0.413539
-0.185843
-0.115156
-0.080031
-0.019360
0.166193
0.055659
-0.496017
-0.126239
0.385588
0.076727
-0.092632
0.213236
0.174164
0.185395
-0.398073
0.325422
0.244187
0.145729
0.069090
0.164900
-0.103359
-0.032448
0.009708
-0.391830
-0.940665
-0.634491
0.147221
0.222712
0.409691
-0.558834
-0.355405
-0.386511
0.007533
-0.599132
0.138392
-0.202645
0.404419
-0.374485
0.071694
0.339830
0.492216
0.258080
0.341873
-0.201385
-0.079438
0.247699
-0.018331
-0.033260
-0.231636
-0.359817
0.482057
0.179095
-0.372807
0.135980
-0.211417
0.078194
-0.080291
-0.443708
-0.442454
0.384676
0.296076
0.193185
0.345888
0.460999
0.219718
-0.056096
0.121681
0.100369
-0.412176
-0.587228
0.222081
-0.766663
-0.101132
-0.201705
0.209414
-0.468643
-0.051873
0.237013
0.370782
0.076341
-0.225968
0.378346
0.175512
-0.096165
0.430542
0.330015
0.059779
-0.173009
0.287286
-0.159726
0.164422
-0.254289
0.347548
0.212593
-0.112159
0.443313
-0.112432
0.006018
-0.008532
-0.482971
0.353337
-0.621206
0.506946
0.353731
0.328127
0.344650
0.272816
-0.139051
0.018059
-0.034650
-0.051168
0.302035
-0.281380
-0.000270
-0.217849
0.163659
0.319135
0.536187
0.122515
0.015762
0.574801
0.213174
-0.220630
-0.346373
0.694926
-0.458445
0.484333
0.046701
-0.251404
-0.250178
-0.517587
0.351554
-0.369417
0.013602
0.048047
-0.395342
-0.011920
0.240751
0.182703
-0.164567
0.276795
0.012441
0.288605
0.234593
-0.090537
-0.124538
0.692762
-0.102821
-0.645537
-0.279476
-0.293512
-0.142069
-0.338253
0.297178
0.266637
-0.186176
-0.184548
-0.462336
0.148784
0.028784
0.324569
-0.377039
-0.170839
-0.249446
0.308920
-0.243020
0.441222
-0.243487
0.474626
0.715599
-0.177209
0.699404
0.156545
0.298377
0.186969
0.162281
0.100482
-0.327929
0.262747
0.372510
-0.118033
-0.379669
-0.350866
-0.155639
-0.067965
-0.017423
0.155345
-0.137814
-0.569659
0.202952
-0.325086
0.074472
-0.277856
-0.139925
0.436797
-0.069770
0.078775
-0.065937
-0.250694
-0.291455
-0.235535
-0.252632
0.275401
0.393686
0.104993
-0.387558
-0.068176
-0.102790
0.085722
-0.572184
0.576235
0.378022
0.127865
0.304384
-0.654861
-0.217654
0.012962
-0.439182
-0.487112
-0.057606
0.376241
0.274878
-0.133749
-0.210664
0.234493
0.173267
-0.305253
-0.011505
0.558624
0.274216
-0.774566
0.146513
0.183990
-0.034609
-0.160565
0.164070
-0.183881
-0.098858
-0.704609
-0.283632
0.716278
-0.317304
0.042449
0.293280
-0.413819
-0.263036
-0.049614
-0.116279
0.407717
-0.580430
-0.057651
-0.249479
-0.173410
-0.394483
-0.269261
0.119652
-0.017732
-0.438737
0.189280
-0.384310
0.145043
-0.212427
0.333750
0.590582
-0.091391
-0.386555
0.613558
0.176440
0.311342
-0.189558
0.415171
-0.299700
0.515460
-0.205934
0.224268
0.723261
-0.024630
-0.541927
-0.210480
0.036997
0.317161
