0.203459
0.375711
0.148210
-0.097096
0.234038
0.085961
-0.000192
-0.121409
-0.202314
0.508898
-0.183683
-0.066545
-0.137192
-0.548075
0.440659
0.093051
-0.150477
0.638349
-0.221365
-0.180925
-0.252887
0.233285
-0.088412
-0.299150
0.304614
0.364328
0.104951
-0.508020
-0.149689
0.061798
-0.291739
-0.154448
-0.320036
-0.050499
0.109945
0.150463
0.435925
-0.251852
0.402697
0.098647
0.285062
0.165909
0.087736
-0.216698
0.379593
0.050544
-0.021639
-0.238181
-0.182606
0.385145
-0.013460
0.024026
0.596549
0.543979
-0.179546
0.245149
0.054788
-0.118155
-0.318865
0.395731
-0.174926
-0.055310
-0.486613
-0.307397
-0.022027
0.198722
0.269878
-0.268262
0.178572
-0.269045
0.007337
-0.332087
-0.452580
0.443476
0.325722
-0.403554
-0.203344
-0.011291
0.281420
-0.376591
0.091662
-0.622347
-0.791220
0.121821
0.529330
0.188094
-0.333181
0.517888
-0.251099
0.071778
-0.088480
-0.172371
0.199876
-0.063036
0.168171
-0.021513
0.476492
-0.603604
-0.077140
0.424327
0.661200
0.290787
0.187299
-0.114726
0.161045
0.657004
-0.090179
-0.566406
-0.017510
0.228067
-0.059444
0.494031
0.290073
0.277465
-0.079082
0.085662
0.223553
-0.080229
0.550783
-0.187273
0.161249
-0.117026
-0.021084
-0.034516
-0.229280
-0.174983
-0.201183
0.433166
0.079993
-0.340856
0.299438
0.356981
0.296845
0.370697
0.172734
-0.581410
-0.540930
0.174765
0.499743
0.253905
-0.298751
-0.639560
0.070666
0.176290
-0.698109
0.091589
-0.123751
-0.437466
-0.387688
0.360522
-0.429630
-0.269251
-0.021304
0.004099
-0.270290
0.516042
-0.101081
-0.062703
0.294808
-0.252701
-0.448119
-0.012142
0.711645
0.015757
0.286687
0.523432
0.061640
-0.257655
-0.437059
-0.328907
-0.208879
0.400433
0.329500
0.454368
0.337852
-0.295517
0.434307
0.220609
-0.106640
-0.047533
0.236329
0.021074
0.200319
0.178668
-0.111824
-0.402978
0.203394
-0.345837
-0.174196
-0.235763
-0.245112
0.023514
-0.133631
0.572578
0.500306
0.436468
-0.124332
0.130452
-0.184700
-0.314447
0.397260
-0.562525
0.419753
0.031783
-0.478331
-0.150615
-0.228294
-0.116889
-0.071483
0.336671
0.112928
0.403981
-0.233356
-0.320967
0.461428
-0.180144
-0.508985
0.098855
0.368026
0.001288
0.251327
0.000854
-0.459491
0.378273
-0.322868
-0.008832
0.283688
-0.227090
-0.182646
0.089729
-0.119181
0.419209
0.163636
0.295224
-0.262568
-0.203493
-0.142248
-0.362182
-0.296480
-0.453648
-0.493358
-0.414234
-0.100512
0.223800
-0.250814
0.372055
0.115039
-0.348695
0.384767
0.464404
-0.316506
-0.055518
0.035395
-0.400561
0.184587
0.410948
0.139259
-0.282877
0.253828
-0.236347
0.351162
-0.221313
-0.266349
-0.565182
-0.243048
0.121790
0.168489
0.507461
0.275168
-0.196016
0.228061
-0.354072
0.348022
-0.447805
0.448208
-0.082530
-0.148405
0.155906
0.005608
0.184547
-0.258320
-0.234550
-0.056885
0.079173
-0.279583
-0.296180
-0.097276
0.198612
0.477425
0.146003
-0.535673
-0.090520
-0.449254
-0.364910
0.390503
0.003493
0.280033
-0.067885
-0.354810
-0.107932
0.169562
0.162981
-0.125452
-0.481231
0.099827
-0.229401
-0.524271
0.222015
0.530569
-0.588775
0.354133
-0.229040
0.155362
-0.549044
0.172016
-0.178981
0.472840
0.467009
-0.267903
0.350584
-0.000515
0.509627
0.105061
-0.023159
-0.580237
0.197840
0.132851
-0.558943
0.099907
-0.428043
0.260937
-0.296732
0.047566
0.116451
-0.319582
-0.517937
-0.060730
-0.306314
-0.036260
-0.376984
0.343615
-0.162359
0.591606
0.119469
0.015816
-0.638539
0.131920
-0.222691
-0.688334
-0.455157
-0.446673
-0.619101
0.443224
-0.221834
0.075955
0.567992
0.055688
0.083278
-0.309962
-0.010942
0.027637
0.173094
-0.413565
0.084470
-0.346483
-0.165737
0.530198
0.345009
0.414725
-0.034268
0.065911
-0.126095
-0.288678
0.609849
0.600538
-0.297158
0.345244
-0.129416
-0.144540
0.189684
0.162319
-0.343309
-0.187753
-0.184011
-0.400031
0.454546
-0.235139
-0.262505
0.386402
0.651404
-0.124215
-0.070786
0.280883
-0.674053
-0.441554
0.211348
0.309471
0.588738
0.185835
-0.075684
-0.515380
-0.348859
0.176282
0.075407
-0.232847
0.162223
0.305445
-0.251216
0.306165
0.432581
-0.393076
0.001110
0.390145
0.560883
0.189407
0.090705
0.018191
-0.244748
-0.178572
-0.423789
0.357574
-0.137718
-0.280709
0.053218
0.120872
0.530905
0.552823
0.039335
0.302039
-0.146506
0.326001
0.112663
-0.385350
0.155506
-0.158965
-0.038923
-0.022303
0.425916
0.054390
0.207256
0.392204
0.350057
0.310394
0.314606
-0.264109
-0.198700
0.278885
-0.484459
0.199922
-0.501407
-0.373267
-0.149056
0.044959
0.546178
0.211786
0.407792
0.044836
-0.004389
0.880214
0.225104
-0.025084
0.207938
0.421174
0.425866
-0.143849
-0.414921
-0.529778
0.182546
0.263556
-0.450332
-0.093474
-0.320551
-0.139797
-0.024075
0.326680
-0.160020
0.128683
-0.337800
0.269947
-0.090633
0.161482
0.284144
-0.177470
0.154254
0.361887
0.508203
0.355095
0.023065
-0.084466
-0.310574
0.263240
0.111811
-0.278625
-0.346878
-0.615931
0.143187
-0.414983
-0.385937
0.242993
-0.249394
0.382175
0.172101
0.573817
-0.134385
0.766664
-0.475127
0.415677
-0.307840
0.154848
-0.241420
0.052509
0.081929
0.010413
0.336296
-0.418717
-0.280733
0.593976
0.209146
-0.639946
0.145690
0.560444
-0.043322
-0.354714
0.157873
0.248607
0.415790
-0.141600
0.119388
0.243845
-0.397209
-0.498195
-0.120973
-0.352668
0.140547
0.282408
-0.239858
0.406610
-0.364623
0.049731
-0.555615
0.075200
0.344131
-0.245452
0.369320
0.467010
-0.012067
-0.608757
-0.127962
-0.217144
0.641779
-0.616569
-0.276297
0.354660
-0.348636
-0.555161
-0.075893
-0.276290
0.245420
-0.385971
-0.272758
-0.212274
0.600557
0.305175
0.018312
0.418424
0.206950
-0.180113
-0.194898
0.210651
-0.208829
-0.328240
0.387838
0.056747
0.142491
0.015292
0.225533
-0.198278
-0.152727
-0.398283
-0.492842
0.128487
-0.067847
-0.158549
0.155937
-0.393203
-0.407150
-0.044553
0.321198
0.506019
-0.220769
0.038281
-0.539322
-0.316599
-0.417929
0.379055
-0.620688
0.362350
-0.470771
-0.094100
0.027791
-0.464731
0.341454
0.078446
0.487084
-0.142558
0.148104
0.377808
-0.280072
0.464429
-0.371594
-0.450054
-0.374495
-0.065924
0.077338
0.125884
-0.351673
-0.267696
-0.021960
-0.301281
-0.551169
-0.388775
0.065406
0.199045
-0.090032
-0.212080
0.058465
0.006155
-0.052563
-0.193087
0.091310
0.443313
0.228522
-0.023884
-0.088067
-0.428530
0.009665
-0.045034
0.540974
-0.178955
0.266030
-0.691997
0.317110
-0.639006
0.053735
0.476320
-0.376589
0.123683
-0.348080
0.148528
0.309785
0.217941
-0.130727
-0.102680
-0.622123
0.013356
-0.399973
0.286690
0.161705
-0.362104
0.085934
-0.304651
0.207465
-0.358743
-0.243858
-0.330233
-0.281186
0.694795
0.009585
0.090429
0.146213
0.115007
-0.515650
0.075368
-0.269994
0.141726
0.601817
0.042996
0.147428
0.094211
-0.015259
-0.147224
0.058243
-0.383056
-0.068958
-0.496848
-0.436081
-0.411206
-0.024525
0.356311
-0.082053
-0.306365
-0.062780
-0.612163
-0.272263
0.132744
0.291348
-0.114782
-0.355796
0.430125
-0.300108
0.251020
-0.295959
0.375990
-0.341955
0.452608
-0.427662
-0.120169
-0.253854
-0.433016
0.183335
0.037078
-0.145739
-0.219339
-0.205623
0.077901
0.021286
0.445483
-0.474448
0.371667
-0.521882
-0.374875
-0.018193
0.010735
0.350371
-0.044376
-0.220191
-0.171639
-0.568191
-0.023380
0.578780
-0.037805
-0.317901
0.292365
0.108469
-0.186476
0.478666
0.049078
0.054868
0.098644
0.104993
-0.198404
-0.020617
-0.603581
-0.355194
0.522219
-0.110905
0.351347
-0.095541
-0.366707
-0.549720
-0.306616
0.012962
-0.629815
-0.317762
0.075017
-0.059163
-0.470090
-0.389765
0.460324
0.422223
0.525058
0.147699
-0.209681
0.383228
-0.392095
0.226313
-0.375022
-0.016162
-0.453008
-0.116850
-0.106153
-0.014357
0.261583
-0.315639
-0.000117
0.052749
-0.390029
0.009913
-0.493115
0.552476
-0.152866
-0.296538
0.176672
0.461483
-0.217662
0.083377
-0.130645
-0.110148
-0.139309
0.224117
-0.155468
-0.332906
-0.070856
-0.375514
-0.531271
0.398448
-0.183503
0.736974
0.124378
-0.489552
0.172494
0.603860
-0.401267
-0.698750
0.255435
0.340713
-0.191539
-0.566195
-0.273711
-0.339697
0.169943
0.299691
-0.089020
0.286675
-0.152198
0.333365
