0.078729
-0.477925
-0.571661
0.094124
-0.084849
-0.240209
-0.074845
0.203249
-0.040672
0.458883
-0.072213
0.483366
0.586717
0.234857
-0.254906
-0.019785
0.464836
-0.142484
-0.241215
0.550740
0.228296
0.527515
-0.045408
0.630429
-0.372473
-0.130416
-0.039397
-0.345460
-0.200985
-0.026782
-0.092793
-0.122911
0.263203
-0.220645
-0.073126
0.531579
0.182218
0.049629
0.224547
0.124735
-0.294257
0.249395
-0.543394
-0.152335
-0.495580
-0.116505
-0.358401
0.287198
0.487798
-0.111249
0.288335
-0.124646
-0.219560
-0.561877
0.156939
0.470136
-0.123593
0.035676
-0.455890
0.489525
-0.299443
-0.324464
0.304465
-0.127824
0.067804
0.155574
0.376322
0.299220
-0.046210
-0.160656
0.292710
-0.248968
0.259562
0.450398
0.439280
0.380454
-0.255483
0.102895
0.200840
-0.277303
-0.182939
-0.621448
0.354375
0.486351
-0.055054
0.573306
0.040023
0.731742
-0.609731
-0.354629
-0.016349
0.044678
-0.127972
0.057335
0.510816
-0.527325
0.049160
-0.002040
-0.246038
0.386202
0.152854
0.491916
0.349481
-0.513381
-0.318574
0.038926
-0.453589
-0.381625
0.626091
0.084545
-0.041170
0.397253
-0.197986
0.360220
-0.134869
0.022085
0.136028
0.037904
0.098853
-0.046885
-0.007205
0.293164
0.337846
-0.030208
-0.217735
0.055257
-0.238553
0.251150
0.201822
0.203102
-0.261950
0.338929
-0.352491
0.029444
-0.544508
-0.636964
0.393971
-0.157382
0.716291
-0.040860
-0.036271
-0.235685
0.445327
-0.469038
0.001123
0.368504
-0.381608
-0.364614
-0.292149
0.006982
0.122002
-0.375656
0.460691
-0.311479
-0.459899
0.549600
-0.005201
-0.199063
-0.590664
-0.524798
0.182426
0.513487
-0.384169
-0.244773
0.088574
-0.540597
0.024204
-0.156664
-0.016733
0.347682
0.301090
0.018294
-0.387627
-0.221218
-0.307780
-0.681051
-0.102163
0.205759
-0.365712
0.283148
-0.144135
-0.032325
-0.081069
-0.168288
0.177506
0.287349
0.740139
0.308484
-0.165717
-0.550401
-0.353592
0.275738
-0.039390
-0.355514
0.424345
-0.034187
-0.276239
-0.557199
-0.312991
-0.271793
0.541517
0.029581
-0.449784
0.299961
0.163548
0.446562
0.140194
-0.112499
0.566819
0.372794
0.149285
0.394946
-0.124201
-0.505606
0.146451
0.281009
-0.083412
-0.563055
-0.296929
0.038715
0.266839
-0.010593
0.396821
-0.107342
-0.133855
0.610776
0.204529
-0.476952
0.746225
-0.013894
-0.414692
-0.038386
0.215941
-0.070231
-0.317832
-0.344771
0.037642
0.093062
-0.447503
-0.594088
-0.032984
-0.026350
0.100382
-0.154234
-0.550044
0.010054
-0.114766
-0.391549
-0.094618
0.226809
-0.242105
0.123035
-0.340402
0.195281
-0.394577
-0.292531
-0.822787
-0.206161
0.436463
0.325937
0.225836
0.000393
-0.215512
-0.313510
0.570672
0.057989
-0.589684
0.390423
0.406246
-0.176894
-0.363548
-0.155615
-0.256503
-0.118655
0.114029
0.373940
-0.108462
0.365394
0.191989
-0.076869
0.382899
-0.296123
-0.516281
0.317560
-0.261116
0.089559
-0.106636
-0.190742
0.453455
-0.480597
-0.244240
-0.366177
0.228854
-0.115125
0.394003
-0.134924
-0.412913
-0.119893
-0.291572
0.031068
0.115620
-0.385380
0.266420
-0.296903
-0.349484
-0.107286
0.158705
0.323048
0.432396
-0.349677
-0.113550
-0.202641
0.199063
-0.624227
0.511003
0.350786
-0.506175
0.082445
-0.395678
0.250115
0.537699
0.061078
-0.374142
0.531135
-0.439389
0.447101
-0.258013
0.663832
0.154897
0.514937
0.218923
0.083165
0.264281
-0.118417
0.311335
0.395310
-0.520541
0.243451
0.172520
-0.099432
0.085773
-0.669284
0.610793
-0.338803
0.356564
0.304994
-0.037313
0.380073
-0.023918
-0.499758
0.517102
0.657406
0.252097
0.411124
0.295567
-0.295792
-0.157137
-0.121204
-0.204912
-0.269232
0.432193
0.292409
-0.225875
0.641176
0.419409
0.497371
0.193190
0.305431
0.079887
-0.116092
0.489112
0.231348
0.288007
0.408120
-0.153061
0.008847
-0.372869
0.071605
0.056471
-0.311403
-0.375249
-0.177404
-0.034325
0.067979
-0.441706
-0.524222
0.089726
-0.153623
0.199893
0.413249
0.160695
-0.266081
0.550472
-0.330688
-0.059285
0.559269
0.086263
-0.464212
-0.063218
-0.634734
-0.261728
-0.115854
0.356467
-0.385132
0.136385
0.164121
0.051073
-0.321321
0.057178
0.191104
0.178151
-0.102202
0.810034
0.797574
-0.128598
-0.107874
-0.539474
0.518591
0.123636
0.225184
-0.132320
0.251036
0.129813
-0.719143
0.296081
-0.235511
-0.064963
-0.403764
-0.049370
0.205127
0.331968
-0.173374
0.028180
-0.319262
-0.052188
-0.289577
0.096027
0.365461
0.558930
0.027300
-0.018762
0.614857
-0.301327
-0.499779
-0.155815
0.574289
0.002732
-0.600903
0.020168
0.009635
0.718067
-0.044715
0.106496
-0.660908
0.300917
-0.696933
0.458654
0.140576
0.100953
-0.154292
0.410965
-0.104447
0.168257
0.171295
0.328906
0.056373
0.265507
-0.087715
0.547893
-0.299349
-0.049414
-0.528768
0.718065
-0.469371
0.721744
-0.021255
0.280908
0.280135
0.355208
0.654231
0.451242
0.692883
0.201026
-0.025788
-0.306736
0.270822
0.352927
-0.056970
-0.243820
-0.328510
0.131725
-0.050227
-0.013757
-0.052701
0.059394
0.260844
-0.491430
-0.509568
0.022833
-0.322452
-0.119932
0.158040
-0.475606
-0.313132
-0.385047
-0.232755
-0.802686
0.161264
-0.386069
-0.090907
0.638986
-0.180645
-0.341115
0.089436
-0.237540
-0.159769
-0.060973
-0.447806
0.061310
0.135881
-0.164624
0.280635
0.193710
0.545699
0.151504
0.418393
0.105392
0.094200
0.137652
-0.162888
0.255330
0.031964
-0.466803
-0.166575
0.146977
0.473210
0.251498
-0.400712
-0.125870
-0.635848
-0.095301
0.196189
0.113948
0.441531
0.065921
-0.077789
-0.153019
-0.390812
0.002021
-0.398073
-0.113361
-0.471518
0.449542
0.432596
0.238557
-0.467690
-0.409773
0.346301
0.248029
-0.697868
0.220434
-0.611285
0.056381
0.474986
0.667762
0.670568
-0.663989
-0.290100
0.503585
-0.122362
-0.300983
0.169127
0.412680
0.039460
-0.514180
0.075378
-0.073070
-0.192177
0.387665
-0.256555
0.240839
0.539397
-0.492559
0.580831
-0.275214
-0.350832
-0.444764
-0.576518
-0.059411
0.055172
0.258702
-0.128264
0.159292
-0.440788
0.113752
0.460423
0.306243
-0.247841
0.107042
0.528131
0.491179
-0.003351
0.176927
0.278816
-0.469638
0.411700
-0.016710
-0.449716
0.101212
0.391014
-0.270196
-0.104371
0.179909
-0.358724
0.720845
-0.079711
0.526445
0.335128
-0.007443
-0.519600
-0.447390
-0.431632
0.519070
0.183715
0.409738
0.048003
-0.364334
0.080065
0.210871
-0.415542
-0.613641
0.198055
0.198709
-0.437071
0.435624
0.290268
0.156252
0.369187
0.001256
-0.262054
-0.546347
0.088335
-0.189845
0.333955
-0.420435
-0.335002
0.305773
-0.323509
-0.195873
0.223479
-0.456284
-0.522257
-0.018736
0.292832
-0.013362
-0.644618
0.324486
-0.359594
0.154694
-0.210569
0.390599
-0.041361
0.334977
-0.006571
0.188251
0.547151
0.470968
-0.204815
-0.527090
0.046179
0.151456
-0.504791
-0.210097
0.332640
0.330151
0.045953
-0.142979
-0.026525
0.097352
0.326105
-0.150145
0.500897
-0.686171
-0.565654
0.419652
0.309100
-0.358876
-0.383776
0.126224
0.026208
-0.221969
-0.185243
-0.210207
0.365190
0.280013
-0.546936
0.068740
0.005345
0.190436
0.327394
0.513549
0.407913
0.392204
-0.229188
0.398661
-0.215576
-0.118897
-0.482318
0.255516
-0.267077
-0.201647
-0.210687
0.093383
0.140428
-0.067594
-0.347961
0.045735
0.263142
-0.009306
-0.377924
0.524646
0.219052
0.061551
0.277008
0.196661
-0.019569
0.456763
-0.306483
-0.124019
-0.094569
0.260106
-0.293848
-0.343546
0.081476
-0.413587
-0.321335
-0.248731
-0.417031
0.277947
-0.432360
0.429701
0.650278
0.341944
0.454615
0.185070
0.648679
-0.192870
0.222777
0.493895
-0.017224
0.174161
-0.033063
-0.441840
0.335104
-0.160820
-0.059920
0.219734
-0.181820
-0.282078
0.006192
0.020488
-0.283430
0.072958
-0.012619
-0.242282
0.208099
-0.036352
0.370999
-0.144124
-0.260618
0.096761
-0.413255
-0.150562
0.556517
-0.290369
-0.670747
0.259824
0.309979
-0.208620
0.170534
0.910790
0.180596
0.139137
0.138938
0.211437
0.518090
-0.166318
0.258193
-0.276295
0.290686
0.147350
-0.026857
-0.122132
-0.390084
0.074625
-0.197469
0.219442
0.137703
0.294019
-0.131749
-0.305571
-0.062078
0.164455
-0.205999
-0.233674
0.422770
-0.772515
0.597754
-0.412352
0.277627
-0.010636
-0.029200
-0.162107
-0.173338
0.437265
-0.410467
