-0.254066
-0.511039
-0.186873
0.038965
-0.308837
-0.182193
0.191187
0.354441
0.400794
0.419762
0.004604
0.046599
-0.480868
0.397482
-0.437187
0.277720
0.071350
0.336449
0.205938
0.460282
0.344435
-0.393670
-0.047487
0.289592
0.193412
-0.327908
-0.163943
-0.017060
-0.399738
0.141362
-0.023979
-0.048500
-0.581295
0.120449
0.352033
0.427065
-0.203098
-0.185088
-0.466187
0.374175
-0.571898
-0.360721
-0.304941
0.380107
-0.184731
0.062275
0.036079
-0.107991
-0.188431
0.171803
0.300971
-0.078414
-0.040101
-0.398420
0.208164
0.305728
-0.271509
-0.374799
0.181958
-0.309853
-0.223830
-0.365657
0.459662
-0.125283
0.220592
-0.204698
-0.662921
-0.022559
0.208931
-0.152671
0.018327
0.399869
0.121065
0.030486
0.063197
-0.222582
0.215916
-0.249958
0.481555
0.134862
-0.113260
-0.657799
-0.341476
-0.241641
-0.298914
0.190833
0.003611
0.516930
-0.304090
0.137381
-0.404114
0.344597
0.255578
-0.371280
0.179977
0.079504
0.186980
-0.312263
-0.276346
-0.193637
-0.347447
-0.074422
-0.588475
-0.044010
-0.179948
-0.155579
-0.332080
0.131161
0.279598
-0.118302
0.503064
0.077303
0.067333
0.200672
-0.210702
0.401703
-0.263786
0.404371
0.367216
-0.423968
-0.429307
0.194201
0.052762
-0.213663
-0.584604
-0.396929
-0.277481
0.269546
0.291721
-0.514732
0.584674
0.233773
0.231686
0.154103
-0.340607
-0.160492
0.071811
-0.463983
-0.431960
0.299336
0.015532
-0.287326
0.192739
-0.124747
0.338722
0.277699
-0.253873
0.040167
0.338381
-0.206321
-0.052615
-0.096638
0.253324
0.116841
0.410624
0.745206
0.123990
0.099117
-0.537298
-0.332740
0.228311
0.155131
0.569903
-0.368886
0.166508
0.057319
-0.141717
-0.242136
-0.482610
0.228206
0.407692
-0.031261
0.132449
0.002564
0.423824
0.418908
0.453091
0.163994
-0.328705
-0.232452
-0.131651
-0.148244
-0.044718
0.267151
-0.046647
0.014027
-0.147208
-0.425755
-0.109447
0.111439
0.668800
-0.093778
0.273205
0.535447
-0.044651
0.420028
-0.255438
-0.712599
-0.278877
0.507551
0.569622
-0.162674
-0.028185
0.230070
-0.430298
0.273168
0.138486
-0.511424
-0.042670
0.019736
0.138089
-0.214564
-0.350508
0.100699
0.526104
0.173681
-0.009433
-0.019616
-0.450914
-0.357534
0.589935
-0.061170
0.370512
-0.130929
-0.356871
-0.637058
0.188294
-0.230918
-0.225601
-0.289470
0.132323
-0.213964
0.196624
-0.048418
0.613718
0.298273
0.016886
0.145692
0.213822
-0.232073
-0.411771
-0.445348
0.206125
0.214775
0.300964
0.643388
0.637953
-0.354043
0.645212
-0.252213
0.163898
0.342189
0.179442
-0.212342
0.475065
-0.065569
0.300204
0.266255
-0.080570
-0.365032
0.075552
-0.573416
0.333080
-0.334434
-0.517915
-0.359451
-0.010731
-0.020323
-0.258651
-0.324178
0.318081
-0.337559
-0.333542
-0.210151
0.390820
-0.013896
0.016343
0.317802
-0.361507
0.008364
0.583966
-0.332265
-0.470865
0.048365
0.366446
-0.248243
-0.001632
0.198393
-0.474871
-0.329809
-0.719587
0.186397
-0.057474
0.339082
0.451479
-0.141036
-0.296354
-0.110925
-0.643666
0.570361
0.327794
-0.413253
-0.102110
-0.147580
0.095353
0.142499
0.055930
0.055854
-0.419731
-0.538440
0.151293
-0.392915
0.261255
0.114146
-0.313750
-0.197596
0.008742
0.063704
0.037831
-0.137971
0.141205
0.505571
0.372223
0.163034
0.425244
0.389949
0.501304
-0.403801
0.029820
0.514937
-0.021818
-0.030935
0.320727
-0.260559
0.178706
0.134947
-0.118543
-0.060096
-0.170730
-0.659052
0.077185
-0.386858
-0.193251
0.463479
-0.025392
0.423822
0.097997
0.380992
-0.425332
-0.141288
-0.126831
-0.627189
0.028219
-0.151190
0.010981
0.343213
0.413042
0.466627
0.387462
0.638140
-0.200800
0.213301
0.305787
0.181619
0.140312
0.342549
0.163951
-0.236987
-0.032406
-0.209978
-0.074601
0.067685
-0.201897
0.520459
0.533031
0.127505
-0.398181
-0.003610
-0.520089
0.723160
-0.160247
0.568412
-0.174295
-0.561812
-0.556784
0.374535
0.112526
-0.429158
-0.424884
0.076758
0.273360
-0.154843
0.289520
0.362861
-0.083035
0.484757
0.176886
0.350182
-0.040335
0.520068
-0.241554
0.001875
-0.212727
-0.408757
0.661959
0.415586
0.114997
-0.286471
0.018629
0.208520
0.018370
-0.171585
0.037033
0.293471
0.131923
-0.313952
-0.153926
-0.223215
0.221185
0.014398
0.242453
0.442368
0.065298
0.386429
-0.401230
0.262533
0.172338
-0.350225
0.609236
0.023238
0.289215
-0.314056
-0.681082
0.217185
-0.237378
-0.230720
0.366874
-0.085646
-0.014374
0.363363
-0.253833
0.291301
0.308157
0.337750
0.107161
-0.047659
-0.335677
-0.077863
0.005226
-0.605954
-0.157481
0.279030
-0.152860
0.048132
0.279616
0.106383
0.200278
-0.426208
0.220399
0.017697
0.185001
0.050175
-0.163619
0.240024
-0.188737
-0.520421
-0.288937
-0.368059
-0.314438
-0.375349
0.188097
-0.119412
-0.589156
0.140744
-0.053145
-0.145641
0.162352
0.355596
-0.165601
-0.206624
0.011786
-0.196202
-0.307086
0.510889
-0.272827
-0.600525
0.408759
0.136441
-0.067100
0.044349
-0.490889
-0.306639
0.029371
-0.127454
0.301384
0.079474
0.040079
0.253225
-0.543839
-0.131983
-0.441657
-0.705606
0.084428
0.372649
0.831361
0.207220
-0.185979
0.170466
0.073761
-0.396789
-0.683017
-0.711973
-0.182466
0.242855
-0.136080
0.130729
0.060670
-0.378752
0.332601
0.257939
0.300619
0.059214
-0.198857
0.066883
-0.292749
0.409654
0.825640
0.383680
0.078740
-0.292768
-0.134246
-0.311466
-0.500456
-0.366167
0.139905
-0.539207
-0.273509
-0.233023
0.279283
-0.000978
-0.301093
-0.502218
0.580754
0.191027
0.234907
0.271521
-0.176353
-0.169956
0.181585
0.059886
-0.104471
-0.276297
-0.074931
0.554071
-0.225477
-0.053756
0.215427
0.204163
0.451400
-0.300713
0.315050
0.332045
-0.315499
0.634544
0.252935
-0.084215
-0.310117
-0.136402
0.583543
0.261297
-0.074558
0.340273
0.227190
-0.192679
0.000452
0.115607
-0.223015
-0.054492
-0.513818
-0.407819
0.078197
-0.045961
-0.297502
-0.526554
0.629991
-0.347947
-0.009341
-0.117096
-0.128782
-0.192960
0.239548
0.063039
-0.419858
-0.575957
0.333684
0.351860
-0.251964
-0.352915
0.362696
0.112829
-0.252679
-0.347701
-0.380565
0.639358
-0.488165
0.471335
-0.821306
-0.483054
0.095770
-0.158115
0.253337
0.327071
0.234070
-0.059827
-0.179908
0.396192
-0.305685
-0.290361
0.039398
0.265466
-0.001288
-0.418892
-0.174112
-0.439276
0.286133
0.093563
-0.238576
-0.486646
0.369793
-0.097220
-0.347788
0.231558
-0.023296
0.150685
0.420736
-0.459139
-0.580628
0.124395
0.079951
0.049700
0.035061
0.116924
-0.133927
-0.407646
0.573111
0.083559
-0.071244
-0.223777
-0.195873
0.101683
0.256960
-0.359284
-0.142594
0.285467
-0.313905
-0.634127
-0.286923
0.521380
-0.259186
0.691561
0.482213
-0.531154
-0.365769
0.167252
-0.105031
0.076129
0.367999
-0.379548
0.017269
-0.525992
-0.132789
0.040879
-0.420861
-0.087887
-0.563124
0.351767
0.274009
0.505797
-0.449516
-0.300888
-0.085590
-0.014403
-0.293309
0.240331
-0.044376
-0.058776
0.055243
-0.057090
0.013131
0.577476
-0.167041
-0.065614
0.109205
-0.317245
-0.332062
0.119616
-0.066241
0.396188
-0.414429
0.518690
-0.188999
0.267592
0.021271
0.771096
0.336689
0.510186
-0.046351
-0.334947
0.039242
0.353825
0.452270
0.472355
-0.150386
0.483546
-0.160373
0.220515
0.640900
-0.369682
0.297445
0.387890
-0.552973
0.290358
-0.360035
-0.001300
-0.421581
-0.406431
-0.243657
-0.309479
0.389730
-0.078615
-0.129463
-0.246669
-0.408254
0.272515
-0.659936
-0.396418
0.577024
-0.400610
-0.568134
0.106790
-0.132051
-0.392776
-0.438074
-0.566761
0.296186
0.550011
-0.132133
0.134864
0.102742
-0.176112
0.051855
0.218893
-0.693809
0.486395
-0.537793
-0.289494
-0.551608
-0.238005
-0.465503
0.016288
-0.099597
0.230513
-0.133415
0.013422
-0.356067
0.227207
-0.496202
-0.178038
0.117594
-0.177041
-0.255419
-0.341498
-0.296146
-0.206806
-0.324439
0.272138
-0.309364
0.306682
-0.663995
0.136463
0.534855
0.178885
0.050074
0.347841
-0.540103
-0.487949
-0.281376
-0.006615
-0.259288
-0.392433
-0.199870
0.382411
0.117550
0.289223
0.190895
-0.487798
0.018901
0.535363
-0.113532
-0.071571
0.069323
0.153195
-0.492162
-0.215297
0.135532
0.274864
-0.732142
0.206858
0.012256
-0.449242
0.047236
0.213474
0.472953
0.092589
-0.237962
0.172779
