-0.053822
0.069890
-0.102467
-0.094918
-0.339500
-0.018057
0.176440
0.307112
-0.174748
0.050617
-0.266585
-0.287765
0.134914
0.209113
-0.062541
0.569788
-0.084124
-0.472208
-0.230170
0.151901
0.496875
0.319185
0.018042
-0.178632
-0.420831
0.328221
0.608859
0.061699
0.147588
0.040358
0.375717
-0.025678
0.206507
-0.252326
-0.233854
0.290877
-0.287993
0.084584
-0.512666
0.397091
-0.009519
-0.455728
-0.325821
0.090146
0.111293
0.108258
0.264517
-0.125065
-0.002283
0.430304
0.432810
-0.215875
0.401018
-0.251464
0.022386
-0.145178
-0.336461
-0.156003
-0.368493
0.383166
-0.242836
-0.264376
0.089345
-0.271150
-0.017312
0.407925
0.282448
-0.323508
0.281430
0.184897
0.043699
0.586329
0.236974
0.365371
0.303991
0.057209
-0.017255
0.100732
0.346001
-0.516879
0.463282
0.328578
-0.050196
-0.429749
0.414751
0.152781
0.444398
-0.146873
-0.174375
-0.028193
0.343610
0.296474
-0.178081
0.072153
0.224534
-0.437886
0.312393
-0.401501
-0.465084
0.341442
-0.020998
-0.502952
0.428208
-0.535068
-0.170053
-0.048580
0.452316
0.381413
-0.296845
0.046923
0.063572
0.270296
-0.441173
-0.143933
0.374635
0.121246
0.286219
-0.426466
0.197258
-0.379282
0.256401
0.514212
0.648252
-0.093752
0.169825
-0.377779
-0.620433
0.404252
0.444923
0.203102
-0.620375
0.503453
-0.532966
-0.052201
0.125135
-0.673534
-0.128992
0.033529
0.508484
0.242886
0.232550
-0.323962
0.171827
0.000891
-0.367899
0.017498
-0.273577
0.112448
-0.261820
-0.362434
-0.352995
0.296882
0.639759
0.130930
0.247329
0.766367
0.048847
0.188612
0.271803
-0.348739
-0.619854
0.504019
-0.406886
0.428908
0.192911
-0.549296
-0.460284
0.480480
-0.184007
-0.099890
0.274645
0.394651
0.294267
-0.511831
0.142573
-0.382067
0.099962
0.335488
-0.384039
0.247009
-0.251587
-0.098069
0.355856
-0.499815
0.319376
-0.475542
0.069745
0.565289
0.373257
-0.367596
0.590718
0.433227
-0.679597
-0.133872
-0.332036
-0.362897
0.262091
-0.554466
-0.452905
0.064301
-0.021498
-0.242258
-0.459001
-0.185399
0.522008
-0.218300
-0.262665
-0.422473
-0.151897
0.164782
0.138595
-0.315852
0.011996
-0.175833
0.471695
0.518487
0.264095
-0.244769
0.241344
0.372683
-0.519456
-0.122669
-0.353371
-0.324949
0.820344
0.526071
0.390025
-0.009150
-0.329928
-0.269709
0.224007
-0.310575
0.544905
0.326973
-0.190228
0.377039
0.934901
0.096549
-0.280051
-0.348827
0.221537
-0.382298
-0.510135
0.355536
-0.341929
0.025636
-0.115438
-0.172588
0.492285
0.522324
0.181441
0.876316
-0.097700
-0.403632
-0.139946
-0.276356
0.351433
0.583240
0.089867
-0.493815
-0.462975
0.079250
0.349980
-0.337755
0.538243
0.079892
0.180071
0.191974
-0.472270
-0.197198
-0.409505
-0.205305
0.469318
0.593124
-0.065538
0.459596
0.195347
0.351178
-0.520400
-0.180431
-0.443567
-0.415102
0.471976
0.142809
0.264301
0.420380
0.146950
0.231843
-0.476917
0.444235
0.533062
0.028348
0.060062
0.019675
-0.063508
-0.140557
0.093335
0.101908
0.298913
0.342074
0.115357
-0.053616
0.377804
-0.348781
0.243020
-0.211199
-0.270382
0.490868
-0.192090
0.251517
-0.397562
-0.013198
0.123946
-0.300094
-0.532087
0.599212
0.121701
-0.150543
0.023526
0.362903
-0.638648
-0.069369
-0.041637
-0.140700
-0.396286
-0.361045
-0.120077
0.633911
-0.029553
0.226334
0.185856
-0.059809
-0.037386
0.563005
0.190376
0.283240
-0.202380
0.633521
-0.470113
0.578924
-0.543346
-0.408597
-0.431144
-0.445963
-0.074837
-0.516929
0.202988
0.391359
0.252381
-0.094787
-0.393639
-0.092486
0.156619
0.056600
0.013268
0.274355
-0.245381
-0.229757
-0.131242
-0.276725
0.636124
0.011324
0.565156
0.433189
-0.268366
-0.603252
0.022646
-0.545303
-0.019862
-0.070208
0.353724
0.175665
0.492942
0.317502
0.096365
-0.274941
-0.543095
0.131482
-0.429348
0.475941
-0.186200
0.245818
0.270384
-0.130023
-0.388208
-0.267779
-0.487447
-0.282843
0.484682
-0.270852
0.464289
-0.461412
0.307810
-0.263778
-0.270540
-0.564802
0.237147
0.176049
-0.719676
0.329944
0.338072
0.597527
-0.274561
-0.149326
0.027866
0.573205
0.172717
-0.095442
-0.375462
0.309078
0.064534
0.155976
0.673787
-0.565654
-0.433387
-0.086881
0.010906
0.210992
-0.193568
-0.307714
-0.084372
0.537984
-0.510285
0.538057
0.035991
0.224856
-0.431693
0.098673
0.025297
0.069976
0.417631
0.490411
-0.512788
-0.376020
0.015500
0.076120
0.103513
-0.394001
0.139119
0.160728
0.437581
0.468342
0.204006
0.507260
0.111931
-0.045148
0.279344
-0.120014
0.431021
0.429982
0.177222
-0.300444
0.421791
-0.130471
-0.137262
0.030024
-0.549146
0.163245
0.438372
-0.412974
0.251847
-0.246520
0.222289
0.269070
0.282504
0.006024
0.005350
-0.263364
0.293663
-0.369247
-0.231583
-0.160546
0.269016
-0.224486
-0.483070
0.156184
-0.085021
0.360717
-0.742766
0.669047
-0.565009
0.682243
-0.585044
-0.386632
0.354521
-0.642005
0.556631
-0.297017
0.028919
-0.076725
-0.776647
0.133648
-0.189745
-0.055997
-0.316973
0.345913
-0.178846
-0.049371
-0.093966
-0.377606
-0.499710
0.357324
0.047483
-0.093179
0.359982
0.164981
0.027898
-0.501549
-0.108110
0.096450
-0.391484
-0.376157
0.514264
-0.195455
-0.209706
-0.076564
-0.466848
-0.223474
-0.125584
0.099082
0.400109
-0.015375
0.116500
0.339013
-0.457277
-0.440933
0.510110
0.342058
-0.507359
0.270486
0.393737
-0.417038
-0.214223
0.199194
0.247885
-0.370564
-0.305234
0.193102
-0.263525
-0.244027
-0.127802
0.370798
0.315715
0.454810
-0.269640
0.218655
0.223723
0.336173
0.133977
0.357943
0.190189
-0.587069
0.345981
0.194913
0.340751
0.020494
-0.092158
-0.003336
0.412589
-0.077901
-0.376675
0.470497
-0.608302
0.086123
-0.287415
0.143463
0.365996
0.190982
-0.006508
0.390694
-0.503929
0.295534
0.286226
-0.379148
0.397320
-0.061557
0.445732
-0.403815
-0.500813
-0.459090
0.695887
0.551074
-0.233077
-0.233952
0.344708
0.747778
-0.151068
0.826178
-0.198420
0.298417
-0.501407
-0.040585
0.208821
0.111425
0.438790
-0.191927
0.072265
-0.088888
-0.145350
-0.016135
0.320658
0.300830
-0.309374
0.612324
0.342802
-0.441100
-0.783070
-0.306048
0.282855
0.338317
-0.492278
0.139121
0.265422
-0.113652
0.232152
-0.044208
-0.507692
0.165126
-0.650764
0.125098
-0.217415
-0.429347
-0.006632
0.157146
-0.457742
-0.092100
0.517241
0.108545
-0.628713
0.161003
0.404139
0.044175
-0.118793
0.550431
0.519611
0.331034
0.439413
0.099018
-0.203266
0.037545
0.501276
-0.175830
-0.550562
-0.300660
0.103447
-0.181843
-0.299231
0.141636
0.189164
-0.137747
0.181532
-0.096579
-0.156916
-0.253648
-0.402181
-0.276175
-0.254025
-0.226255
-0.313078
-0.174849
-0.261402
-0.525825
-0.302308
0.431959
-0.095142
-0.517587
0.204236
0.433587
-0.499698
0.124430
0.688524
-0.471809
-0.460807
-0.198242
0.401073
-0.128768
-0.037076
0.090953
-0.067508
0.091061
-0.101241
0.228193
-0.299430
0.126042
-0.247522
-0.200420
-0.400164
-0.059101
-0.090361
0.135084
-0.142473
-0.088139
-0.667939
-0.094594
-0.181300
-0.062516
-0.065688
-0.009836
0.009547
-0.554992
0.063613
-0.817573
0.375990
-0.322021
-0.615506
-0.445486
0.009178
0.286520
-0.208900
-0.453207
-0.055355
-0.257728
0.068336
0.302224
0.356950
-0.569827
0.187098
-0.353908
0.409354
0.498794
-0.231944
-0.545755
-0.288332
0.003567
-0.597758
-0.213977
0.156366
-0.287400
0.267236
-0.042068
-0.418595
-0.357774
0.446740
-0.006507
-0.110495
-0.202048
0.141034
-0.402673
0.118132
-0.350452
0.522290
-0.396426
-0.430570
-0.513947
-0.115118
-0.489980
-0.268203
0.438297
-0.327688
-0.232141
0.133807
-0.226708
-0.363672
0.118740
-0.038036
0.569061
0.119807
-0.256350
0.075104
-0.120548
0.237169
0.076358
-0.553541
0.436524
-0.273361
0.664259
0.278032
0.443469
-0.077818
-0.252638
0.090644
-0.321513
-0.326094
0.169679
-0.270932
-0.634861
-0.212595
-0.349149
-0.092235
-0.281504
-0.073228
-0.019795
-0.237794
0.370124
0.305709
-0.566071
-0.352222
0.184409
0.133959
0.215792
0.047435
-0.452715
-0.043861
-0.381757
-0.062827
0.450142
0.311352
0.106871
0.285909
-0.723627
0.278658
-0.498083
-0.287687
-0.380533
0.149357
0.008915
-0.035946
0.323821
-0.240735
0.513935
0.528796
0.047223
-0.045456
0.171357
0.349597
0.279144
