0.208900
0.440392
-0.032352
-0.093773
0.013071
-0.408934
0.237792
-0.309941
-0.120205
0.146608
0.243923
0.068727
0.137775
-0.251858
-0.730928
0.033215
-0.220071
-0.213391
-0.251971
-0.523367
0.261627
-0.268038
-0.104737
-0.238911
-0.135213
-0.191603
-0.091564
0.189478
-0.551395
0.535126
-0.092793
-0.419694
-0.325508
0.623583
0.713154
0.437142
-0.438803
0.127606
-0.460206
0.085704
0.279507
-0.539584
-0.491792
-0.188558
-0.433429
0.416843
-0.071485
-0.179553
0.414022
0.038643
-0.447473
-0.031751
-0.024511
0.101532
0.253141
0.230428
0.028068
-0.177348
0.397975
0.645420
0.144702
0.239098
0.438954
-0.157386
-0.251159
-0.269635
0.318294
-0.030560
0.298095
0.035470
0.117815
-0.437367
0.392175
-0.335992
0.301559
-0.042330
-0.347842
0.027799
0.101255
-0.569180
0.752650
0.178401
-0.359950
-0.276824
0.050609
0.026929
-0.092965
-0.162256
0.241880
-0.400670
-0.188605
0.325120
-0.238098
-0.177934
0.392318
0.096102
0.082274
-0.334518
-0.581303
0.381238
0.057455
0.030483
-0.160087
0.281355
0.004653
0.283833
-0.332080
-0.335170
-0.354392
-0.139326
0.234508
0.434182
-0.228880
-0.271612
-0.190434
0.139600
-0.676870
0.127153
0.205234
-0.206767
-0.184441
0.411960
-0.100997
0.395081
-0.229280
-0.027417
-0.234600
0.258369
0.108539
0.241183
0.669295
0.476562
-0.272745
0.287136
-0.631579
-0.161431
0.013678
0.176163
-0.038494
-0.131304
0.197632
-0.457626
0.207348
0.096047
-0.097688
0.368504
-0.357769
-0.391978
-0.160485
-0.501599
0.247762
-0.150291
-0.254801
-0.361345
-0.281645
0.500901
-0.066370
-0.320253
-0.406622
0.299236
-0.107905
-0.670250
0.568645
-0.138943
0.331795
-0.242989
-0.260459
-0.049024
-0.332252
-0.194471
0.109445
-0.023017
-0.196492
-0.175886
0.167556
-0.716354
-0.633228
-0.018140
-0.228516
0.043098
-0.181486
0.076720
0.155109
-0.291384
-0.152052
-0.166988
-0.551079
0.119916
0.157189
-0.143886
0.438197
-0.476587
-0.175618
0.293067
-0.275788
-0.176518
-0.303017
-0.742347
-0.330132
0.409194
0.311315
0.037981
-0.347300
-0.120574
0.065245
0.547076
-0.463007
-0.038329
-0.528329
0.314564
0.035484
-0.101413
0.117043
-0.168913
0.575763
0.086088
-0.137166
-0.279931
0.166631
0.171227
0.404465
-0.019580
0.763150
0.321755
-0.052079
0.641136
0.524318
0.469457
-0.073294
0.247994
-0.059236
0.367221
0.351164
-0.166007
-0.230892
0.188257
-0.017018
-0.068467
0.463003
-0.351243
0.112869
-0.368408
0.301682
-0.020676
0.034222
0.361483
-0.092499
-0.483573
0.433489
0.165552
-0.065520
-0.043773
-0.690118
0.157332
-0.223109
0.090467
-0.054272
0.336942
-0.432289
0.459311
0.398266
-0.458210
-0.378391
-0.342687
0.048788
0.170152
-0.392656
0.605201
-0.044214
0.741883
-0.343983
-0.823703
-0.223330
0.037235
0.332407
-0.216493
0.304775
0.538466
-0.142094
-0.329207
0.583229
-0.311004
0.578490
0.363417
-0.001063
0.425112
0.359031
-0.349115
0.405590
-0.082219
-0.091920
-0.304619
-0.417095
0.376489
0.051326
0.009689
-0.317873
0.135846
-0.040173
-0.184785
-0.538583
-0.114575
-0.265155
-0.320174
-0.350745
-0.063061
0.099394
0.139595
-0.169340
0.174425
0.237903
-0.553064
-0.228287
-0.443606
0.337227
0.131395
-0.184575
-0.371006
-0.113926
0.266687
0.129327
-0.079735
-0.091063
-0.507849
-0.428095
-0.271472
0.430930
0.002305
-0.037252
-0.415904
0.039606
-0.523008
0.080298
-0.542914
-0.089135
0.248015
-0.311199
0.354489
-0.252503
0.498189
0.120447
0.542791
0.182886
0.535802
-0.115934
0.359680
-0.277565
0.032410
0.027139
-0.388066
-0.355669
-0.192138
-0.186699
-0.119281
0.400432
-0.398585
0.178573
0.541705
0.321778
-0.151074
0.170636
0.168557
0.247840
-0.303570
-0.686092
0.443931
0.037784
-0.175214
0.194598
-0.729546
0.460867
-0.432909
0.285647
0.217781
-0.256682
0.072974
0.367894
-0.346536
-0.350236
0.150238
-0.020524
-0.092261
-0.398162
-0.203221
-0.019882
-0.174381
-0.084681
0.290404
-0.162521
0.413249
0.364792
-0.084576
0.472534
-0.029453
0.534535
-0.656253
-0.264314
-0.453725
-0.259191
0.572118
-0.055590
-0.199838
-0.258391
0.237809
0.661959
-0.131043
0.254566
-0.325447
0.480529
0.229357
0.442842
0.460000
0.126305
0.700445
-0.163034
-0.344727
0.220125
0.173965
-0.137735
-0.344171
0.176029
0.389488
0.001960
-0.472986
0.715543
0.116191
-0.276206
-0.370691
-0.172941
-0.530843
0.198647
0.158762
-0.269904
-0.647948
0.282009
-0.039309
0.330699
0.365461
0.380839
0.363095
0.043207
0.219842
0.178760
0.416177
-0.174477
0.512208
-0.534405
-0.451568
-0.051812
-0.269070
0.744583
0.327576
-0.071499
0.080023
-0.521583
-0.422505
0.255912
0.234207
0.289842
-0.054629
0.298908
0.288668
0.181710
0.648563
-0.201939
-0.389502
-0.161329
0.024201
0.442751
-0.308566
-0.321694
-0.276688
-0.417213
0.118668
-0.079797
0.179845
0.292456
0.371935
-0.120317
-0.357531
-0.611002
-0.271821
0.300507
0.188882
0.455031
0.244171
0.227094
0.119168
-0.465556
-0.001168
-0.643932
-0.274313
0.427666
-0.119644
0.282390
-0.097025
-0.421862
-0.482422
-0.133791
-0.180975
0.583976
0.294685
-0.060384
-0.031051
-0.491453
-0.250355
0.378647
-0.499362
0.424728
0.138650
-0.129417
0.109740
-0.039755
-0.010830
-0.145808
-0.390127
-0.567416
-0.243628
-0.251007
0.500020
0.511427
0.252937
0.200616
-0.198635
0.198094
0.118617
-0.455524
0.004590
0.467389
0.199790
0.152459
-0.526576
-0.501495
-0.199130
0.444711
-0.293825
0.265805
-0.279941
-0.030469
0.095587
-0.240838
0.283196
0.085232
0.448603
-0.209469
-0.146152
0.311393
-0.279823
0.060450
0.195519
-0.043592
-0.322924
0.011160
-0.542181
-0.618310
0.024668
-0.276290
0.286438
-0.347312
-0.729057
0.220434
0.278642
-0.065296
-0.280638
0.479303
-0.348692
-0.426566
-0.100856
-0.418479
-0.525407
-0.352432
0.256894
0.369448
-0.155812
-0.428909
0.538445
0.128414
-0.453249
0.421164
-0.000567
-0.047446
0.565918
-0.288937
0.404659
-0.059368
0.100144
0.133460
0.877750
0.144432
0.196232
0.485046
0.240394
-0.142537
0.140603
-0.131642
-0.149922
0.273330
0.472350
-0.102024
0.516655
0.214667
-0.208899
0.270083
-0.396598
-0.300174
0.359698
-0.784184
-0.085750
0.037951
0.188025
-0.413841
0.284852
0.161361
-0.115792
-0.321493
-0.429653
-0.395033
0.047480
-0.123435
-0.519600
0.467834
0.070938
-0.505649
0.030387
0.244163
0.409739
0.636600
-0.498153
0.378594
0.012483
-0.442870
-0.108772
0.163140
-0.562408
0.474673
0.523041
-0.110550
0.189622
0.016702
-0.023196
-0.699412
-0.244795
-0.501332
0.281550
-0.198519
0.230786
0.049948
0.310196
0.292983
-0.001506
-0.039284
-0.679431
-0.129806
-0.665520
-0.389343
-0.634127
0.380102
0.316035
-0.368559
-0.293180
0.225365
-0.411975
-0.556229
0.458434
0.300440
0.248279
-0.571274
-0.569934
0.024926
-0.734735
-0.341527
0.138663
-0.062697
0.525931
-0.325226
0.406514
-0.221826
0.320661
-0.067267
0.001308
0.239838
0.459304
-0.680021
0.151251
-0.009168
0.074392
0.245505
-0.319617
0.227394
0.354958
-0.294634
0.508873
0.112556
0.207995
0.064571
-0.081550
-0.027590
-0.135296
-0.052858
-0.479054
-0.348258
0.082644
0.106576
0.423500
0.236078
0.105963
0.332212
0.464122
-0.373612
-0.451149
-0.029165
-0.620489
0.184317
0.429962
-0.445709
-0.724431
-0.432825
0.108486
0.224839
-0.556677
-0.337606
0.196636
-0.092190
-0.132703
-0.317273
0.015145
0.167338
0.407788
-0.360189
-0.076882
0.340003
-0.130134
0.057541
0.173650
0.644891
-0.393541
-0.040177
0.331889
-0.578645
0.505038
-0.321786
0.570372
-0.331459
0.472531
-0.294853
0.602700
0.355259
0.383720
-0.021475
-0.150025
-0.065453
0.315197
-0.536684
0.632898
0.285344
0.092967
0.367641
-0.552240
-0.399222
-0.242363
0.020488
0.403948
-0.013960
-0.601214
0.487450
0.029853
0.169017
0.325736
-0.468872
-0.307202
-0.497155
0.262014
-0.141119
-0.413310
0.083393
0.449024
-0.390203
-0.248095
0.367688
0.089610
0.910790
-0.356891
0.411072
0.285392
0.241466
-0.389113
-0.033433
-0.079821
0.089758
-0.239350
0.235242
-0.222125
0.025430
0.281846
0.057694
0.062944
0.234992
0.206792
0.152965
0.375008
0.106548
-0.551539
-0.130972
-0.312470
-0.432867
-0.143296
0.436196
0.035389
-0.316293
-0.249397
-0.196413
0.437055
0.177724
-0.181755
-0.090402
-0.314764
