-0.303506
-0.190884
-0.054612
-0.050425
-0.235531
-0.147603
-0.004952
0.357656
0.418855
0.000799
-0.077753
-0.274185
-0.075234
-0.188463
0.164694
-0.185533
-0.248664
-0.047369
-0.260176
-0.115001
0.424677
-0.405884
0.024149
0.289592
-0.442733
-0.441947
0.533969
0.323169
-0.074136
0.525442
-0.382007
-0.264849
-0.283162
0.181362
0.043717
0.220405
0.027035
0.362426
-0.192524
-0.645989
0.244771
-0.509221
-0.251000
-0.200593
0.143480
-0.497575
-0.088260
-0.172256
0.201279
0.213709
-0.073842
-0.296387
0.075201
0.233835
-0.001285
0.503298
-0.407935
0.026213
0.033293
0.496797
0.563113
0.159776
-0.121541
-0.005734
0.318007
-0.285429
0.206232
-0.383505
-0.016302
-0.064340
-0.211844
-0.370113
0.090727
-0.457881
0.096191
0.505952
-0.026491
-0.316134
-0.141280
-0.468652
0.011937
0.288068
-0.635065
-0.437534
0.136969
0.147123
0.276977
-0.151249
-0.634502
0.047287
0.121986
-0.458056
-0.372256
-0.319370
-0.037111
-0.420499
-0.020179
0.240080
0.235936
0.325170
-0.431413
0.489459
-0.000541
-0.075264
0.064732
-0.387870
0.643025
0.269911
-0.261437
-0.225153
0.253875
0.201660
-0.340368
0.199958
0.161063
-0.191497
-0.171766
-0.278706
-0.003198
-0.472627
-0.178634
-0.241884
0.328579
-0.274782
-0.400316
-0.258701
-0.146769
0.252579
-0.368262
-0.397928
0.315116
-0.393249
0.221630
-0.589358
-0.581387
-0.126587
0.352041
0.509193
0.000125
0.556712
-0.667146
0.405059
0.249775
-0.404026
0.389887
-0.003649
0.446996
0.111606
-0.296814
0.564859
0.073157
-0.079758
-0.102429
0.004099
-0.197142
0.500666
0.141080
0.109676
0.032156
-0.189563
0.167533
-0.528124
-0.384481
0.154303
0.071173
0.018754
0.154961
0.098944
0.320423
-0.059932
-0.065927
0.426849
0.392609
0.053366
0.299686
0.079175
-0.326312
0.475461
0.144244
-0.096651
-0.213596
0.189149
-0.209948
-0.222099
0.150905
0.290217
0.253438
-0.323775
0.172140
0.325273
0.512830
0.123357
0.292650
0.314775
0.039510
-0.314344
-0.456841
-0.591775
-0.311205
-0.508680
0.368495
-0.224609
-0.582479
0.379602
0.186691
0.451157
-0.494795
-0.296025
0.450324
0.238166
0.065164
-0.353170
-0.331335
0.261735
0.230424
0.253511
0.200045
-0.196611
0.478253
-0.050066
0.587628
-0.273753
-0.287711
0.329867
-0.433734
0.002938
-0.595699
-0.387225
-0.261112
0.339500
0.234784
-0.351083
-0.188478
-0.166007
-0.419799
0.422912
0.380673
-0.458944
0.438257
0.575323
-0.309850
-0.426792
0.073833
0.045473
-0.462495
0.517578
-0.417754
-0.284183
-0.525356
0.080968
0.351174
0.184517
0.145512
0.411224
-0.395353
-0.083806
-0.638118
0.525927
0.052921
-0.222055
0.232043
0.095813
-0.300586
-0.120034
-0.166050
-0.194423
0.154860
0.418868
0.064861
0.005162
-0.312473
-0.473360
0.165628
-0.320863
-0.534296
0.552037
0.356844
0.379801
0.463898
-0.501023
0.314937
-0.090714
0.007532
-0.004804
-0.206716
0.132396
-0.109730
0.037502
0.547495
0.619093
0.460461
0.553488
-0.137936
0.314098
0.408544
0.450997
0.542700
-0.180481
0.226619
0.466895
-0.293977
-0.366164
-0.102110
-0.095387
-0.175844
0.063903
0.452736
0.362820
-0.114471
0.294456
-0.038602
-0.006865
-0.423254
0.349420
0.437949
-0.263168
-0.582775
-0.637425
-0.206309
0.284047
-0.308658
-0.024775
-0.334297
0.216238
0.123348
-0.243114
0.219472
-0.117324
0.029820
0.196414
0.476323
-0.318052
0.143591
0.430292
0.459484
0.178731
-0.305049
0.612675
-0.312790
-0.257188
-0.466801
-0.166855
-0.347193
-0.060393
0.099504
0.268767
-0.072956
-0.098547
-0.399358
-0.255892
-0.212966
-0.668079
0.009878
0.334504
-0.087859
0.049608
0.067751
0.236590
-0.441511
0.043723
-0.241723
-0.344056
0.300147
0.149993
0.255829
0.382572
0.163292
-0.147616
-0.424753
-0.616379
0.487754
0.173580
-0.530647
-0.395755
-0.080553
0.081060
-0.420267
0.311916
0.099603
0.448482
-0.094770
0.590866
-0.058039
0.330106
-0.086220
0.021410
0.405736
-0.017404
0.211394
-0.480120
-0.377763
-0.207322
-0.647736
-0.385675
0.429901
-0.339745
-0.214871
0.272961
-0.508828
0.177191
-0.329324
0.429520
-0.013727
0.017268
-0.398814
0.236893
0.066079
-0.404958
0.348175
0.433820
0.378009
-0.100535
-0.076366
0.427896
-0.120426
0.072470
0.251118
0.312330
-0.184507
0.028884
0.018326
0.036530
-0.171735
-0.218400
0.055356
-0.171662
0.281551
0.397530
-0.186134
-0.281927
0.163988
-0.303743
-0.333194
0.107389
-0.143216
-0.038923
0.130675
-0.360596
-0.598049
0.324491
-0.075973
0.250763
-0.338027
-0.165857
0.281282
-0.230621
0.185816
-0.188512
0.155985
-0.205949
-0.276853
0.183639
-0.112220
-0.476405
0.170808
-0.118767
-0.486504
-0.436848
0.590938
-0.151592
0.266984
0.215149
-0.087816
-0.245382
-0.298583
-0.500441
0.405334
-0.062606
0.183778
-0.377513
0.226484
0.021005
0.053372
-0.333504
-0.029639
0.154772
0.170740
-0.297513
-0.393516
-0.069457
-0.511085
-0.075462
-0.621381
0.131672
0.271513
-0.753346
-0.287359
0.154559
0.178369
-0.520275
0.282532
-0.310490
-0.092585
0.260141
-0.353239
0.064518
-0.428085
0.000181
0.200304
-0.359351
-0.475624
-0.580024
0.061985
0.118259
0.331300
0.575817
0.321851
-0.355100
-0.261872
0.034329
-0.308015
0.346722
0.250020
0.124569
-0.073081
-0.129862
0.202735
-0.504342
0.404323
0.033600
0.259940
-0.388096
-0.254813
0.138236
0.310658
-0.339185
-0.488629
0.526584
0.106215
-0.261577
-0.107435
0.428143
0.061444
0.199194
-0.396222
0.308070
-0.140097
-0.342798
0.538858
-0.646606
-0.429439
0.287619
0.145555
-0.747613
-0.314025
0.131329
-0.025629
0.419089
-0.689338
0.423962
0.250316
0.479165
0.314617
-0.050386
-0.040359
-0.125437
0.370642
-0.357947
0.288561
-0.149827
0.111134
0.293976
0.096896
-0.151784
-0.530989
0.221342
0.095116
0.011485
-0.074334
0.209529
-0.082268
0.165843
0.408334
-0.106964
-0.592019
-0.222811
-0.112955
-0.234193
-0.402449
0.354844
-0.000338
-0.307985
-0.233005
-0.396954
-0.416636
0.100557
-0.547124
-0.063953
-0.053119
0.007000
-0.084805
-0.707588
-0.352283
-0.443290
-0.258847
0.698016
-0.347506
-0.223126
0.472864
0.300740
-0.175144
-0.036528
0.679320
-0.324885
-0.415048
-0.281310
0.295663
-0.468934
0.200094
0.079297
0.367920
0.351662
0.342040
0.359547
0.014693
0.388445
0.637339
0.079435
0.097042
0.335064
-0.150219
0.486666
0.204104
0.215828
0.381812
-0.392453
0.487800
0.218069
-0.472768
-0.001950
0.018671
-0.418533
0.062410
-0.260200
-0.594409
-0.599273
0.459682
0.259517
0.228225
0.021947
0.107844
-0.196261
0.530124
-0.234714
0.190021
0.254935
0.442640
-0.434854
0.248828
0.477245
-0.358887
0.451843
-0.337166
-0.405751
-0.341660
-0.321634
0.193937
-0.228644
0.297438
0.610902
-0.210341
-0.268971
0.013341
0.486236
-0.259064
-0.264277
-0.585084
0.063530
-0.036922
-0.243818
-0.401795
-0.111388
0.002485
0.531248
0.450878
0.517183
-0.507541
-0.060187
-0.298534
-0.219040
-0.383589
0.550192
-0.326225
-0.483116
-0.338000
-0.361341
0.396540
-0.486904
0.432311
-0.071013
-0.696536
-0.801083
-0.315216
-0.752924
-0.543183
-0.044199
-0.045751
0.394395
-0.483853
-0.177247
-0.284371
-0.279735
-0.057014
0.110045
-0.284672
-0.108234
-0.076100
-0.514009
0.397484
0.278871
-0.096502
0.191136
-0.299372
0.026603
0.383344
0.287448
0.753443
-0.322542
0.224839
-0.483356
0.261552
-0.494895
0.283261
0.313633
0.425015
-0.237666
-0.233289
-0.273229
-0.303483
-0.065742
-0.027345
0.003857
0.239687
0.103821
0.194313
-0.139188
0.300321
-0.289857
-0.580122
0.210888
0.259880
-0.492447
0.436567
-0.026554
-0.057849
0.602700
0.395742
0.086907
-0.502543
-0.093688
-0.378253
0.067241
-0.116702
-0.391017
-0.408118
0.270732
0.174999
-0.182007
-0.354135
0.223180
0.123574
-0.175736
-0.164035
0.176490
-0.158323
-0.833715
0.052834
0.274168
0.647643
-0.142798
0.171252
0.341455
0.351853
-0.206806
-0.162261
-0.144615
-0.141647
0.402678
0.093336
-0.382677
-0.025747
-0.638582
0.353525
-0.189627
-0.399067
-0.020618
-0.473393
-0.030235
-0.017960
-0.080195
-0.042386
0.349879
-0.032231
0.264807
-0.754815
-0.069391
-0.314992
0.086091
0.091595
-0.626185
-0.076415
0.175765
0.226531
-0.235476
0.416715
0.040172
0.374597
0.321990
0.584461
0.394976
-0.117188
0.073242
0.464724
0.132588
-0.147127
0.395819
