0.271355
-0.202990
0.033495
-0.175472
-0.235531
0.169514
0.319497
0.408926
-0.132453
0.343458
-0.207290
0.008558
0.344030
0.484578
-0.449481
0.692353
-0.154192
-0.528006
0.226311
0.493750
-0.420510
-0.336112
-0.080740
-0.059502
-0.164890
-0.408614
0.538996
-0.010154
-0.047819
0.053764
0.315530
-0.435348
0.451728
-0.080073
0.344515
0.124803
-0.126106
-0.175024
0.186645
-0.451099
-0.057239
-0.285021
-0.251000
-0.334958
0.150029
-0.497575
-0.220209
0.232040
0.019105
-0.448505
-0.104360
-0.296387
-0.128591
0.101532
0.346608
0.230428
0.142842
0.103381
-0.016056
-0.559254
-0.147233
0.162079
0.429119
-0.416058
-0.187063
0.383648
-0.015488
0.359350
0.231009
-0.201783
0.116286
-0.351324
0.205924
-0.452562
0.352877
-0.231707
0.269655
0.296477
-0.116597
-0.569180
-0.144720
0.260375
-0.226789
-0.276824
0.157516
0.099754
-0.461538
-0.162256
0.081301
-0.400670
0.343523
0.059723
-0.220449
-0.401083
0.353024
-0.210137
-0.462859
-0.421750
0.450446
0.427155
0.053408
0.060311
0.096036
0.225003
0.395450
0.088355
-0.183231
-0.728456
-0.128691
-0.139326
0.080287
0.459182
-0.024369
-0.485233
-0.347876
-0.245616
0.375920
-0.508036
0.332014
0.619449
-0.413062
-0.334665
-0.151281
-0.208924
-0.280529
0.576706
0.100216
0.050017
0.521501
0.140629
0.524212
0.154779
0.288833
-0.280274
-0.575964
-0.161431
-0.037928
0.192332
-0.529637
-0.030700
-0.725958
-0.021520
-0.399086
0.298363
0.207901
-0.189936
-0.394226
-0.036232
0.412391
0.424831
-0.195042
-0.109985
0.018021
0.090078
0.228144
0.224622
0.470393
0.137119
-0.506210
-0.314206
-0.191043
-0.064601
0.421399
-0.323188
-0.321080
-0.585747
0.246545
-0.420078
-0.332252
-0.542326
0.279919
0.032178
-0.196492
-0.121386
0.195317
-0.086521
0.493872
0.141203
-0.228516
0.369539
-0.404288
0.268854
0.029527
-0.291384
0.062336
0.194121
-0.014683
-0.239639
-0.017749
0.141293
0.187532
-0.573515
-0.271903
0.332137
0.278005
-0.381906
0.247404
-0.742347
-0.031788
0.400387
-0.259691
0.116205
0.484309
0.337525
-0.347310
0.066473
0.278804
0.179365
0.155054
0.289250
0.300022
-0.087896
-0.125236
-0.402500
0.432857
-0.350888
0.334572
-0.279931
0.614756
-0.096663
0.404465
-0.019580
-0.398023
-0.606555
0.381641
0.393074
0.189179
0.469457
-0.148687
0.247994
-0.489899
-0.459344
0.353153
-0.238024
-0.319691
-0.611506
0.219197
0.154866
-0.546173
-0.351243
-0.433132
0.139245
0.301682
-0.050809
0.201279
0.244923
-0.769243
0.386249
0.428974
-0.153356
0.067318
-0.343568
-0.039333
-0.071274
0.050723
0.441916
0.269588
0.352252
0.251753
0.007893
0.277769
-0.714931
-0.118058
0.614992
0.109737
0.136183
0.229782
-0.337944
0.174151
0.478993
-0.397691
-0.139079
0.703583
0.037235
-0.181830
-0.216493
0.304775
0.322067
0.486221
0.399250
0.583229
-0.392991
0.053968
0.435649
0.070055
-0.239163
-0.380916
-0.499948
-0.486460
-0.167481
-0.091920
0.553488
-0.073866
0.376489
0.051326
-0.300108
0.512480
-0.180481
0.462141
-0.466536
-0.538583
-0.421199
-0.379220
-0.389169
0.010936
-0.063061
0.031689
0.022244
-0.010093
0.149700
0.237903
-0.089431
0.073289
-0.183275
0.039579
0.105398
-0.022156
0.391274
0.503562
0.240402
0.248322
0.014609
0.417309
0.541376
-0.449543
-0.078498
0.624946
0.254730
-0.505812
-0.111551
0.233403
-0.523008
0.034427
0.774197
-0.128640
0.178731
0.040902
0.239981
-0.252503
0.130023
0.042265
-0.633044
-0.103560
0.230967
-0.211220
-0.469413
-0.277565
-0.306449
-0.128314
0.317954
-0.237711
-0.288768
-0.578297
-0.118774
-0.086862
0.135978
-0.212382
0.216395
-0.232772
-0.151074
-0.285358
0.354183
-0.077989
0.149993
-0.140557
-0.577296
-0.419026
-0.109217
0.360899
-0.743577
-0.082125
-0.329071
0.139093
-0.386330
-0.256682
0.072974
0.473088
-0.428592
-0.101356
0.202639
-0.142038
-0.202477
-0.129312
0.479472
0.507162
-0.149311
-0.107843
-0.233730
0.211394
-0.012899
-0.186986
0.002949
-0.251150
-0.287777
0.503269
0.175621
-0.442831
0.253422
-0.020166
0.224888
-0.055590
0.359185
0.066711
0.225413
-0.031405
0.026316
0.018656
-0.294854
0.435791
0.309078
0.139207
0.096964
0.530426
0.700445
-0.074542
0.055622
0.220125
0.316200
-0.610118
0.298084
0.176029
-0.081494
-0.270420
-0.218400
0.715543
-0.304689
-0.472648
-0.504640
0.500701
-0.203466
0.255412
0.327521
-0.176484
0.351318
-0.148690
0.187568
0.041004
-0.327261
0.055421
0.208416
0.433992
0.257337
-0.399649
-0.268045
0.111108
-0.251570
0.031598
-0.106569
0.321691
-0.548110
0.215616
-0.095349
-0.060543
-0.547291
0.152104
0.002472
-0.055940
-0.417467
-0.225565
0.548246
-0.598447
-0.005214
-0.371536
-0.164723
-0.201939
-0.450806
-0.523020
-0.439362
0.303017
-0.397992
-0.329000
-0.505727
-0.564065
0.302077
-0.095169
0.263855
0.588401
0.010079
-0.196455
0.454400
-0.524366
-0.027900
-0.435468
-0.206599
-0.282963
-0.768465
-0.251185
0.023896
0.569122
-0.520275
-0.431188
0.089655
-0.407681
0.064991
-0.208773
0.155904
0.033644
0.071639
-0.337120
-0.490541
-0.557927
0.458741
-0.199055
0.318252
-0.491453
-0.186463
-0.203177
-0.126534
0.304352
-0.154878
-0.458575
-0.275923
-0.039755
0.124569
-0.145808
0.215255
0.090668
-0.222963
0.372298
0.341085
-0.449469
-0.388096
-0.241837
-0.509264
-0.588362
0.173254
-0.455524
-0.120508
-0.175171
0.242180
0.216037
-0.046245
0.402827
0.037303
0.345797
-0.316271
0.265805
-0.416995
-0.092060
-0.199689
0.446007
0.274633
0.232947
0.084591
0.258979
-0.040303
0.311393
0.052253
-0.090911
0.195519
0.097978
-0.499890
0.011160
0.348756
-0.131878
-0.047723
-0.276290
-0.231071
-0.322303
-0.264826
0.023477
0.027419
-0.637935
0.256298
-0.426845
-0.008446
-0.196794
-0.255145
0.046362
0.143744
-0.238436
-0.130273
0.230109
-0.086878
0.155587
-0.073081
-0.014841
-0.450391
-0.109427
-0.150933
0.123619
-0.189095
-0.228590
0.509977
0.755512
0.298484
-0.357410
0.391984
0.382263
0.017375
-0.092248
0.144003
0.623376
0.140603
-0.293002
-0.858780
-0.096828
-0.567007
-0.102024
0.390145
0.214667
-0.037227
-0.335837
0.449992
-0.123194
-0.194352
0.109559
-0.085750
-0.159245
0.364977
-0.435499
0.127536
0.106199
0.359547
-0.321493
-0.105644
-0.783099
0.271894
0.084671
0.153458
0.467834
-0.077141
-0.609551
0.070527
0.173010
-0.143171
0.487800
0.334100
0.378594
0.241640
-0.086121
-0.197792
-0.108765
-0.077821
-0.497902
-0.337874
0.816878
0.189622
0.286865
0.316077
0.179286
-0.244795
0.036887
-0.369363
-0.108100
0.734241
0.049948
0.310196
0.292983
0.275039
0.051851
0.050408
0.070390
-0.089706
0.082032
-0.723755
-0.402942
-0.228644
-0.429287
0.307813
-0.380279
-0.268971
0.100714
-0.152627
0.300440
0.143016
-0.641943
-0.059510
-0.209404
-0.566326
-0.264838
0.266179
-0.147236
0.627301
0.223297
0.157682
-0.221826
-0.338382
0.212346
-0.586185
0.005430
0.235018
-0.462887
-0.209682
-0.158062
-0.619170
0.253720
-0.075435
-0.144187
-0.248360
-0.084832
-0.284749
0.276732
0.196470
-0.253710
-0.118037
-0.362429
-0.117850
-0.291682
0.565160
-0.231350
-0.556855
0.087501
-0.510493
0.236078
-0.089051
-0.219358
0.143540
0.199415
0.516608
0.188249
0.315860
-0.140353
-0.533664
-0.650339
0.287448
0.369452
0.411928
0.569344
0.295936
0.216368
0.294056
-0.251815
0.170082
0.268732
0.015145
-0.181808
0.407788
-0.233415
-0.102186
-0.256413
-0.130134
0.175233
0.554913
-0.328643
-0.251734
-0.505996
-0.191493
-0.566299
0.447275
-0.321786
-0.569851
0.500913
-0.444400
0.218679
0.602700
0.231922
0.248189
-0.502543
-0.388439
-0.317724
0.226178
0.132713
0.150512
-0.275968
0.234643
0.164518
-0.387288
-0.215444
-0.349516
-0.118640
0.403948
-0.018528
0.521810
0.322632
0.154498
0.081528
-0.218840
0.572950
-0.160565
0.217997
0.262014
-0.424920
0.394142
-0.286307
-0.368318
0.097701
-0.127608
0.367688
-0.587915
-0.178082
0.376469
-0.156304
0.269685
-0.292781
0.075856
0.092739
0.316136
-0.550024
-0.697813
-0.150467
0.060075
-0.215823
-0.372196
0.152324
-0.326046
-0.057261
0.162095
0.564497
-0.626185
0.110853
-0.006526
0.402631
-0.413895
0.416715
0.302497
-0.191539
-0.734302
-0.314841
-0.382230
-0.196413
-0.067677
-0.634195
-0.181755
-0.179607
0.343579
