0.223520
-0.089125
-0.095225
0.266318
-0.002711
-0.161966
-0.635392
-0.130853
-0.252407
0.317893
-0.368197
-0.396257
-0.364421
0.631090
0.226435
0.474777
0.277469
-0.483194
0.080485
-0.225626
0.351548
0.058320
-0.008410
-0.453108
-0.862710
0.063616
-0.198730
-0.075280
-0.128938
-0.309135
0.010867
-0.199299
0.151316
0.327459
0.289994
-0.010166
0.176037
0.382723
-0.211927
0.153821
0.394965
0.321365
-0.303158
0.288483
0.414359
-0.600746
-0.218380
0.298256
-0.043255
0.333309
0.351185
-0.168687
0.290054
0.328012
-0.018856
-0.281475
0.042164
0.081416
0.372994
-0.363444
-0.117868
-0.472773
-0.270617
-0.335396
-0.522417
0.292746
0.278498
-0.063394
0.235542
-0.362981
-0.050088
0.165206
0.077112
-0.391417
0.378544
0.060169
0.253013
0.283927
0.513070
0.122722
-0.252370
0.288068
-0.040990
0.141802
-0.266959
-0.083389
-0.311424
-0.104145
-0.122354
0.096176
-0.311430
-0.263132
-0.490675
0.460786
0.072793
0.061023
0.422876
0.267072
-0.153544
-0.231132
0.073325
-0.525403
-0.302287
0.435873
0.036012
-0.410537
0.574084
-0.511308
-0.050576
-0.252497
0.425291
0.364538
-0.553313
-0.609695
0.013022
-0.250350
-0.351232
0.358800
-0.029020
-0.199008
0.288074
-0.545052
-0.243101
-0.420297
0.282427
-0.299417
-0.048765
0.162219
0.315315
-0.374775
-0.140843
0.648054
0.296845
0.061132
0.568068
0.225773
0.470084
0.501557
0.280445
-0.465999
-0.065792
-0.174866
0.063546
-0.533581
-0.519459
0.228432
-0.091550
0.067614
-0.111679
0.126546
-0.276464
-0.167702
0.240084
-0.352470
-0.504018
0.759450
-0.032794
0.188756
0.455676
-0.171246
0.105997
0.342288
0.683581
0.419580
-0.628839
-0.065611
-0.390353
0.178646
0.289523
0.293616
0.000050
0.380541
-0.554921
0.014505
0.266067
-0.034040
0.709011
-0.097282
-0.012931
0.088660
0.043755
-0.319395
0.291930
-0.133544
0.144854
-0.617061
-0.000961
-0.408739
0.095051
0.336391
0.421845
-0.428228
0.263285
-0.112389
0.387002
-0.052384
-0.309054
0.216114
-0.103677
-0.760059
0.156155
0.129461
-0.456809
0.092417
0.204085
-0.033414
0.281958
-0.130982
0.576160
0.463086
-0.415117
-0.663335
-0.289530
0.206587
-0.595297
-0.165029
0.402961
-0.196611
-0.279220
0.229437
-0.381398
-0.005424
0.153510
0.329069
-0.500742
0.646191
0.445176
-0.460745
0.480979
-0.213191
-0.318230
-0.351083
0.000312
-0.143183
0.557366
0.241258
-0.102872
-0.012963
-0.244190
0.638643
0.014689
0.429356
0.365148
0.046741
-0.488791
0.413972
-0.274643
-0.285558
0.648550
-0.146836
0.396054
0.143053
0.446067
0.200574
-0.048128
-0.021404
-0.180684
0.065348
0.353657
-0.371748
-0.129993
-0.144338
0.395695
-0.069284
-0.404852
0.127699
0.455889
0.236325
-0.014602
0.034004
-0.210211
-0.282591
-0.249245
0.300545
-0.056899
0.243883
-0.199218
0.247259
0.062726
-0.026944
-0.531272
0.052922
0.403477
-0.332827
-0.020592
-0.505322
-0.620305
0.204055
0.342630
-0.260510
-0.307485
-0.041117
0.468007
0.032977
0.001781
-0.184260
-0.022940
-0.042557
-0.372847
0.281680
0.368037
-0.049713
0.332725
-0.044581
-0.325540
-0.093002
0.521792
-0.012942
0.094939
0.326147
0.102473
-0.426325
-0.523925
-0.130940
-0.267994
-0.074866
-0.053816
-0.087957
-0.187674
0.199733
-0.326928
-0.447349
-0.445062
0.624062
-0.204872
0.462851
-0.183738
0.088084
0.287689
-0.023302
0.091568
-0.285828
-0.009285
-0.396222
0.172330
-0.261626
-0.412463
0.388580
0.436422
0.089025
0.425792
0.589642
0.221871
-0.219599
0.347896
0.494269
0.057053
-0.184293
-0.405852
0.587654
-0.242437
-0.538710
0.506690
-0.096886
-0.293125
-0.381739
0.038949
0.045062
0.396550
0.013521
-0.466232
0.116876
0.093400
-0.671073
0.254261
-0.581372
-0.300236
0.287566
0.002403
-0.653545
0.452351
0.068213
0.368882
0.393770
-0.136102
0.226245
-0.543095
-0.207678
0.007688
0.121440
0.454649
0.151140
0.459268
-0.126405
-0.456182
-0.001833
0.628193
0.077711
0.222221
0.104766
0.368649
-0.530516
0.142703
-0.351389
0.424504
-0.513161
-0.351959
-0.201628
0.097004
0.030910
-0.302648
-0.384130
-0.286702
0.006505
-0.455454
0.500941
0.639010
-0.163756
0.148320
0.290731
-0.357589
0.397467
-0.546904
0.435528
0.110420
0.149425
-0.020930
-0.196945
0.026340
-0.114816
0.473267
0.581439
0.359304
0.107529
-0.355628
-0.222918
-0.200950
-0.101258
-0.168094
0.353755
0.027115
-0.185696
-0.640743
0.022714
0.229679
0.348492
-0.213551
0.527585
-0.038406
-0.174668
-0.290911
0.302425
0.086854
-0.516485
0.164142
-0.184640
-0.274609
-0.249366
0.147305
0.615304
0.098346
0.484828
-0.182947
0.116101
0.142760
-0.320050
-0.104459
-0.358176
0.161432
-0.249704
0.275824
-0.294851
0.218402
-0.103953
-0.412703
-0.160928
-0.218996
0.190855
0.133289
-0.777018
-0.223848
-0.463886
0.207590
0.265276
-0.146997
-0.101597
-0.019551
-0.337593
0.199991
-0.149256
0.301852
-0.053219
0.086921
0.483517
-0.091050
-0.549329
-0.153026
0.033970
-0.507861
0.101706
-0.227067
-0.233326
0.379232
0.013981
0.451908
0.482457
-0.170866
0.170499
0.322150
-0.001262
-0.374817
0.172995
0.028373
-0.231462
-0.468527
0.583343
0.265209
-0.311913
-0.273079
-0.387904
0.124824
-0.006104
-0.205281
0.228489
-0.538151
-0.427367
0.349819
-0.253915
0.448573
-0.497658
0.369446
0.457732
0.617367
0.221950
0.323568
0.212186
0.164708
0.299305
-0.532941
0.036396
0.278869
0.217921
0.161683
0.451226
0.576130
-0.076940
0.194018
0.148282
-0.327849
-0.661669
-0.694034
-0.296775
-0.502419
0.490339
-0.231165
0.108443
-0.553046
-0.253575
0.338468
0.580701
-0.420838
-0.487458
-0.379450
-0.179193
0.461583
0.403522
-0.010612
-0.408442
-0.225342
-0.219329
-0.016213
0.203904
0.198109
0.311717
0.436409
0.221342
-0.386511
-0.159655
-0.082424
-0.647414
-0.583240
0.365598
-0.282375
-0.439809
-0.131162
0.168884
0.496477
-0.423221
0.202539
0.161015
0.552593
-0.090393
-0.078575
0.064597
0.092425
0.440801
-0.112821
0.237391
0.321470
0.442897
0.606190
-0.178844
0.521195
-0.539932
-0.334842
-0.182489
0.302465
0.079509
-0.013960
0.117504
-0.321467
0.275553
0.364255
0.421235
-0.295525
-0.238356
-0.669861
0.324556
0.433921
-0.688506
0.461682
0.522145
0.311517
0.350836
0.186146
-0.327608
0.365965
0.039424
-0.415885
0.249321
-0.083217
-0.142796
0.144514
0.221930
-0.029026
0.460605
-0.125844
0.209456
0.470144
-0.234941
0.249959
0.117005
-0.338365
-0.039105
-0.453123
0.381074
0.063007
0.348595
-0.301302
0.026427
0.467508
-0.158543
0.100867
0.052894
-0.160165
0.092343
-0.252673
0.125474
0.215542
-0.011355
0.386436
-0.297840
0.392326
-0.553334
0.004131
0.491816
0.299986
0.301915
0.506660
-0.159021
0.103075
-0.263908
-0.176601
0.160534
0.293415
0.337059
0.068641
0.080656
-0.004542
-0.117237
0.647211
-0.109429
0.202065
-0.360345
-0.199532
-0.514884
0.148967
-0.122817
0.085943
-0.467937
0.320809
0.534660
-0.289437
0.153132
-0.118114
-0.430903
0.296245
-0.559024
-0.091756
0.118926
-0.057652
-0.196826
0.373194
-0.446448
-0.220948
0.336995
0.163534
0.263238
0.255593
0.528132
-0.242421
0.333193
-0.212018
-0.256007
0.333348
0.005154
0.107440
0.077519
-0.196335
-0.318200
0.041468
0.072759
0.505104
-0.005062
0.350737
-1.009988
0.340034
-0.447714
0.104673
0.256858
0.081598
0.245882
-0.422414
0.254263
0.028555
0.056594
0.178501
-0.317333
-0.378751
0.498655
0.032548
-0.447611
0.538384
0.132473
0.240196
-0.028248
0.252772
0.183975
0.278545
-0.187978
-0.025830
-0.483378
0.361410
0.148871
0.419643
-0.220945
0.173007
0.173961
0.410418
-0.258866
-0.228917
-0.157310
0.066159
-0.252396
-0.006287
0.477129
-0.428069
0.052557
0.074538
0.311954
0.602493
0.103418
0.780424
0.544852
-0.056186
0.141982
0.230828
0.550762
-0.158379
-0.509865
-0.297052
-0.552005
-0.608325
0.264832
-0.225406
-0.263595
-0.141647
-0.506894
-0.116244
-0.301757
-0.056940
0.165124
-0.381920
-0.510533
-0.475840
-0.227472
-0.391407
0.251819
-0.074149
0.440835
0.650456
-0.690302
-0.040836
0.028468
-0.046108
-0.467209
0.430570
-0.418289
0.063874
-0.091391
0.295247
-0.160208
0.480829
-0.108750
0.084084
0.274762
-0.643501
0.077300
0.438637
0.279459
0.168308
0.170475
-0.243138
0.171291
0.263708
-0.299188
