0.184555
-0.469603
-0.365935
0.028550
-0.211435
-0.406352
0.384107
-0.197304
-0.030168
0.426129
0.310656
0.259344
-0.021046
-0.623064
-0.062541
0.103772
-0.002169
-0.310630
0.073861
0.148376
0.114365
-0.085926
-0.393270
0.206353
0.381446
0.244014
0.240004
-0.462316
-0.616357
0.176009
0.361983
0.291282
-0.515259
-0.222677
-0.246997
0.148758
0.433031
0.445380
-0.002036
0.132756
-0.205126
-0.370410
0.140641
0.179834
-0.342357
-0.191644
-0.051356
-0.093296
0.388322
0.139850
-0.212507
-0.409543
0.312399
-0.440755
0.105279
0.454829
-0.111817
0.044652
0.170815
-0.199250
-0.196978
-0.266004
-0.573473
-0.417635
0.072664
-0.556952
0.403103
-0.176504
0.305814
-0.348189
0.032136
-0.173582
0.345512
0.082161
0.065821
0.207534
-0.259957
0.182891
-0.293599
-0.564143
0.082245
0.208681
-0.782483
0.162588
-0.640941
0.220739
-0.193302
0.847029
0.161842
-0.481001
0.229847
0.177934
-0.214121
-0.029817
0.054617
-0.507435
0.243029
0.349753
-0.530259
0.132969
-0.000355
0.169197
-0.204416
-0.022953
-0.126151
-0.387064
0.370029
0.213566
-0.201864
0.247919
0.344847
0.071160
0.254290
-0.597231
0.039472
0.537989
-0.134761
0.068483
0.012460
0.465439
-0.397523
0.207563
-0.477972
-0.104031
-0.584604
0.334780
0.012717
0.353577
0.120460
0.459046
0.035592
-0.072591
0.268736
0.218776
-0.438301
0.887345
0.460567
0.312961
-0.081701
0.097480
-0.062442
0.180188
-0.193451
0.158113
0.420309
0.348811
-0.525961
-0.737511
-0.296814
0.221942
-0.198704
-0.125173
0.186458
0.514251
-0.217715
-0.232393
-0.062807
-0.217118
-0.289676
-0.407180
0.253269
-0.045645
0.301650
0.119235
0.391203
0.332693
-0.559481
-0.536891
0.110219
-0.292625
0.336070
0.300181
-0.437254
-0.023168
0.571526
0.149914
-0.200247
-0.211285
0.382014
-0.396009
-0.267648
0.478830
0.192905
0.538288
-0.613256
-0.168178
-0.307059
-0.141529
0.183241
0.111439
0.612161
-0.498267
-0.185036
-0.211707
0.597413
0.476028
0.559589
-0.423010
-0.011694
0.582855
-0.241355
0.224930
-0.411962
-0.166623
-0.259859
0.338905
-0.221093
-0.063355
0.256367
-0.588686
0.243860
0.215807
-0.162638
-0.233422
0.351517
-0.344116
0.266963
-0.108591
-0.065256
0.080237
-0.366796
-0.126669
0.731282
0.419660
-0.088901
0.199370
-0.344526
-0.143942
0.059844
0.130187
0.293203
-0.135705
0.580005
-0.140098
0.199792
-0.603545
-0.167971
-0.330772
-0.246657
-0.397183
0.550393
-0.525733
-0.692393
0.252345
-0.162537
0.112073
0.299422
0.252910
0.009437
0.308627
-0.006910
0.251740
-0.081039
-0.660178
0.465916
-0.205657
-0.449099
0.309802
0.332499
0.353134
0.418001
-0.164803
0.245015
0.186038
0.102375
0.203899
-0.112786
0.066134
0.145547
0.420195
-0.431411
-0.210458
0.216250
0.533522
0.229204
0.579970
0.071652
0.480262
-0.083985
0.329850
0.584794
-0.292925
0.385767
-0.043566
-0.304554
-0.373905
-0.661963
0.109846
0.049193
0.596347
-0.130282
-0.505602
0.413545
-0.526530
0.352668
-0.093511
0.125570
-0.634962
0.160198
-0.128158
0.120922
-0.076943
-0.168344
-0.022056
-0.266967
-0.323497
-0.270382
-0.016296
0.139555
0.385544
-0.619992
-0.188148
0.154684
0.163804
-0.010114
-0.246119
-0.047554
-0.066865
-0.311023
0.568151
-0.387200
0.394388
-0.076660
-0.215986
-0.477004
0.447101
0.219651
0.453908
0.146914
-0.410912
-0.093454
0.179648
-0.200125
0.117306
0.065829
0.206592
0.280537
0.445055
0.133049
-0.190170
-0.530066
-0.313367
-0.056794
0.506497
-0.539808
0.428559
-0.079337
0.140009
0.376664
-0.544477
0.219817
0.167455
-0.088949
-0.065482
-0.160341
0.577812
-0.263875
0.121068
-0.178450
0.391951
0.160596
0.533203
-0.352793
0.442365
-0.089456
0.062163
-0.306762
0.177391
0.072465
0.034321
0.327276
0.246471
0.089650
0.353981
-0.339190
0.461312
-0.607835
0.026966
0.197908
-0.431190
0.017430
-0.612176
0.042231
0.299853
-0.696335
-0.258475
0.290727
-0.164007
-0.419588
-0.126851
-0.059900
-0.516447
0.200996
-0.248177
0.512868
-0.511808
0.308319
0.062114
0.470193
-0.267676
-0.032776
-0.681261
-0.543987
-0.074949
-0.090573
0.528138
0.536655
-0.287443
-0.272284
0.093249
-0.390948
-0.658500
0.417490
-0.055879
-0.041389
0.079316
0.196246
-0.076445
-0.351852
0.114953
0.019291
0.514249
0.306769
0.144611
-0.415522
-0.329476
-0.035665
-0.084289
0.194231
-0.136774
0.392860
-0.299135
-0.502140
-0.303768
-0.224397
-0.395734
0.121297
-0.400024
-0.058780
0.179898
-0.086163
0.222094
-0.425077
-0.339788
0.294098
0.004602
0.074987
-0.118786
-0.529542
0.150410
-0.020382
0.146052
-0.208341
0.226752
0.170808
-0.099571
0.193042
-0.407163
0.161156
-0.196509
-0.245376
-0.682381
0.065099
-0.168404
0.359641
-0.369630
0.274821
0.087395
0.269538
-0.500746
0.015534
-0.249557
0.289054
0.352828
0.258677
0.017733
-0.163155
0.541427
-0.226716
-0.331225
-0.438737
0.221499
-0.336082
-0.169066
-0.199407
0.005251
0.022612
-0.438207
-0.610281
-0.118471
-0.555994
-0.351522
-0.040967
0.435370
0.722462
-0.419330
0.087157
0.315761
0.220693
0.294863
0.015977
0.013796
0.607195
0.417890
-0.658444
-0.580859
-0.421033
0.194689
0.358244
0.096562
-0.094787
0.276549
-0.359755
-0.147442
-0.371166
-0.333993
-0.574382
-0.257526
-0.010515
0.534581
0.573238
0.009707
-0.299753
0.046403
-0.489236
0.293559
-0.340899
0.444142
0.576812
-0.397810
-0.484321
-0.081090
0.199011
-0.134846
-0.410766
-0.421293
0.452875
-0.161977
0.049731
-0.385576
-0.361257
0.512563
0.091035
-0.674238
0.151080
-0.354764
0.604020
-0.356191
-0.271530
-0.216762
0.321949
0.318525
0.326804
0.561336
0.269183
-0.090609
0.577884
-0.053690
0.430089
0.043385
0.247789
0.443943
-0.143149
-0.248889
0.521878
-0.310924
-0.173268
-0.242080
-0.289802
-0.523588
0.323541
-0.196538
-0.443924
-0.204498
-0.354505
-0.303176
-0.108820
-0.170176
0.294784
-0.204371
0.113211
-0.380832
0.358094
-0.067607
-0.262994
-0.088963
0.105344
-0.533150
-0.524760
0.108747
-0.198945
-0.319195
-0.394557
0.167332
-0.371947
-0.772194
0.155801
0.039328
0.012411
-0.208822
0.166599
-0.059510
-0.202238
0.273293
0.415248
0.359550
-0.598992
0.135552
0.170561
0.137187
-0.724913
0.168143
0.320907
-0.207375
-0.072855
-0.281149
-0.780628
0.199820
-0.043055
0.275009
0.431146
0.008203
0.563263
0.463792
-0.728975
-0.273695
-0.120089
-0.447745
-0.227879
-0.066245
-0.650935
0.266479
0.121027
-0.396692
-0.450440
0.138147
0.186223
0.223993
-0.163387
0.483588
0.654104
-0.114550
-0.107600
-0.364629
-0.499604
0.324783
0.172276
0.004181
0.300496
0.256823
0.161982
0.140920
-0.228178
-0.194408
-0.201172
0.241235
0.309726
-0.054046
-0.479223
0.237854
0.351121
-0.096179
0.123490
0.489480
0.085019
-0.435495
-0.767742
0.079972
0.106289
0.321858
0.046528
0.063273
0.039764
-0.499340
-0.142670
0.444145
-0.036350
-0.084386
-0.019074
0.326847
-0.422159
-0.137276
-0.402483
0.171152
-0.365557
-0.193823
-0.050318
-0.182305
-0.080062
0.074927
-0.185013
-0.329061
-0.402812
0.171960
-0.111052
-0.272700
-0.294251
0.048080
0.122743
-0.372710
-0.152995
-0.437666
0.126226
0.329711
-0.418990
-0.533574
0.129338
-0.413374
-0.017144
0.564733
0.404027
-0.264065
-0.144422
0.130437
-0.766464
-0.377283
-0.551755
-0.215908
0.359233
-0.164179
0.224869
0.366401
-0.518720
-0.153969
-0.374747
0.234440
0.287494
0.487155
-0.124019
0.515542
-0.369596
0.484527
-0.140861
0.136707
-0.312091
-0.041284
-0.420032
0.141104
-0.593783
0.658771
0.486567
0.022813
0.365490
0.483267
-0.100697
-0.182960
-0.345423
-0.404160
-0.651646
-0.490055
-0.620155
-0.444119
-0.344729
0.271807
-0.185178
-0.437857
0.060936
0.164500
-0.313783
0.440287
-0.039051
-0.044965
0.331047
-0.086719
0.107342
0.156155
0.022160
0.500738
-0.372255
-0.053828
0.429820
-0.303351
0.189465
0.389824
0.391752
-0.223091
0.280747
0.294956
0.090374
0.188703
0.018225
-0.157651
-0.045096
-0.462931
-0.611674
0.637497
-0.079776
-0.258759
0.197112
0.219048
-0.705439
0.114670
0.176624
0.414689
-0.000606
-0.338759
0.415210
0.038779
-0.065006
0.078212
0.343044
-0.422645
0.482061
0.118129
0.235344
0.586553
-0.363484
0.333180
-0.192616
-0.387373
-0.257961
0.119860
-0.214637
0.099607
0.400519
0.083684
