-2.607045
1.853843
-1.784235
-1.214265
1.279966
-0.165738
0.071348
-2.270312
1.962470
1.123527
0.708573
-2.093894
-4.409571
-2.448062
2.606456
-2.808858
0.714989
-2.138565
1.514742
1.892941
-0.706498
2.476467
1.258388
-1.691351
-2.075128
1.491841
3.289601
4.036291
0.586145
1.949090
0.944336
3.142275
-1.907792
-1.691078
1.512607
-0.838119
-4.511144
-1.933201
1.136733
0.697217
-0.831118
0.854922
2.003040
-1.979170
-3.878409
-2.229988
0.683768
-0.079360
-1.832273
-0.312912
0.394420
-1.182388
4.074794
2.519168
-2.344767
-1.005872
-0.568588
-0.768762
-2.697012
-1.735414
-2.126566
1.057725
1.956451
2.436900
1.672486
1.175879
3.655879
-0.105463
-3.694957
1.591273
2.445091
0.627550
3.048719
-0.227796
-0.704093
-2.486428
0.342032
0.555819
1.435202
-1.502308
0.871545
0.482266
-1.038778
-1.381768
1.022365
4.234664
-1.451997
1.010398
-0.531566
-2.744995
-0.541117
1.409438
-1.097378
-1.987840
-0.434854
0.558266
0.968865
2.300163
-0.193488
1.041170
-1.893825
-2.187170
2.709365
-0.157263
-1.665868
-1.152646
1.677098
-0.639279
1.744597
3.874284
-3.028234
-2.866482
-0.182450
0.923011
-2.858163
-1.336829
1.399866
-3.026978
2.247453
-2.059121
-1.737798
-3.565839
-0.532342
1.284018
0.339148
-0.199793
-2.120780
-2.462094
-1.893644
-1.562164
1.597283
-0.612084
1.985091
5.033451
-0.679038
-2.376162
-0.086981
-0.693952
-1.056216
2.104853
2.088862
-2.501474
0.115917
1.851116
-0.326063
1.143749
5.207434
-0.727808
-0.145195
-1.989215
-0.723620
-0.071927
-1.072556
2.960899
-3.915572
-0.964180
0.914479
1.985599
1.432035
-0.420057
-1.742343
-0.864396
-0.698148
1.789452
-1.016200
4.095995
3.828058
-3.912931
0.632204
3.875379
-0.551011
-0.488198
-1.281666
0.271038
-0.534104
1.043786
0.619125
0.066928
-0.978808
0.479418
-1.444112
0.712103
-0.229426
2.330839
-1.517232
2.393549
-4.039428
3.721762
-2.236297
-0.406312
-0.790285
0.722290
1.983197
1.405278
-1.093007
1.336602
-4.002556
1.201754
-2.220194
-2.637828
0.832711
2.314634
-0.070698
-0.840536
-4.507625
-1.149347
2.706632
3.217559
0.403421
-1.296699
1.598865
-0.826615
-2.705595
-0.171281
-1.085907
-0.362133
1.875275
-0.296612
2.431641
-1.702129
-1.003390
-4.066561
3.599054
-1.097175
-0.511829
-0.054483
-4.783986
0.528308
-2.635310
-2.007458
-3.572089
0.648801
2.284592
0.150741
-0.239977
0.220227
-0.882400
0.262952
-3.126090
0.957210
-0.484452
0.431482
0.704662
0.427371
-0.305895
2.237554
4.021518
-5.039404
3.939076
0.433155
-2.074950
0.021948
-1.876998
1.601937
-1.789520
-1.613946
0.323893
1.901451
-2.013304
-2.559071
-2.292975
-1.340855
0.459080
-0.989174
4.985882
-1.180052
-0.395087
1.064605
0.717273
3.253984
-3.041182
0.257948
-2.101742
-1.539199
2.880968
-1.147936
-0.207577
3.900841
-1.462623
-0.065130
0.382570
-0.681702
0.076066
0.979995
1.342449
0.454697
2.225090
-1.481070
1.801895
0.453489
-0.926757
-2.285585
1.283230
3.640570
3.722223
0.752772
0.701899
-5.010217
-4.470467
2.205743
-0.154594
-1.376678
1.078541
0.473818
3.139026
-1.451223
-3.032791
-1.215034
-0.330371
-0.728454
5.510876
-3.956925
-2.919575
-0.767745
3.502644
3.005913
0.025590
-5.570380
4.116038
-4.303851
-1.934299
-0.352154
0.393403
-1.007721
1.178876
-0.109979
0.128889
2.332546
-3.254279
1.654973
-3.082800
-3.515228
-1.415617
-2.097104
0.993060
1.168085
0.125865
-5.649716
-0.509137
-2.704739
-0.547923
-1.255925
0.187380
0.925472
4.774991
1.558169
-0.006165
0.532041
-1.029729
-2.101071
1.556597
1.814661
-3.391527
-1.816511
-0.748367
2.685723
-0.907003
-3.789518
-2.251681
-0.616714
-0.307366
-1.171439
-2.554233
2.837399
0.120113
3.342016
0.449469
0.509167
5.932965
-0.301904
-0.725014
-0.590620
-0.789962
0.997365
-0.250441
3.037202
0.335610
-2.568790
1.239440
-0.343167
2.155619
-0.509300
-0.700157
-1.416212
-1.767668
-0.132499
5.539893
2.149941
2.504390
-0.059916
-0.910845
3.168617
0.666139
2.879889
2.465739
-0.294857
-4.017280
-0.013232
2.271287
3.930952
-1.708379
-0.511294
2.165329
-1.654766
1.661404
-2.447548
-0.481287
1.273093
3.978011
1.185222
-2.736769
0.145891
-0.470511
-2.796263
-1.456669
0.688152
1.999763
-2.480232
0.521507
1.423245
-0.126921
-4.401162
0.807664
2.317367
0.995428
-0.307702
1.770979
-2.009799
-1.073861
-0.808679
-2.278226
2.180990
2.124056
-0.807206
-3.120655
2.750295
4.427386
1.710371
0.235946
-3.515138
3.463417
0.625568
-0.728070
0.425575
1.078178
-2.053918
-1.866103
-1.759928
0.040985
3.289451
-1.980633
1.331440
-0.862326
3.009939
1.367184
-0.572552
0.786334
-0.555688
-2.200490
1.189128
0.280369
-3.608149
-1.467819
-0.112208
0.364151
1.541943
-0.104653
1.128882
3.183663
-0.154196
1.307477
-2.158527
-0.288389
-0.179732
1.639495
1.366183
-2.031378
1.093808
0.622945
0.202618
1.140306
0.141314
2.067892
-1.950733
1.212138
-2.400735
-1.648591
-2.325389
-2.454217
-2.500627
-1.220891
-1.718720
-0.685739
-1.211062
0.890134
-0.892775
2.901651
2.468786
0.285462
-0.293375
0.968652
-1.152055
-0.273870
0.740748
1.391305
1.582604
-2.299041
0.653044
1.689580
0.582896
0.608677
-1.189219
-3.379400
-1.287742
-1.387814
1.282064
1.829560
0.986315
1.392214
1.287776
-1.752226
0.255695
3.006883
-0.540685
0.979509
1.904267
0.029159
-0.348368
-1.392264
3.388530
-3.533300
1.561005
0.769269
-0.826871
-0.290822
-1.493779
-2.395274
-3.844098
1.544366
0.898210
1.011276
2.369783
0.196642
2.110522
-1.305579
2.219349
-0.881247
-2.793788
0.834327
-0.839345
-1.621844
-1.048268
-2.182969
1.136145
-0.039953
-2.713257
0.297724
-1.371522
-0.441104
1.380517
1.846177
-3.834815
-1.115467
1.583709
1.119866
-1.967628
-2.233673
-0.422042
-0.367818
-1.277503
-0.819761
-0.321238
1.932622
-1.874793
1.272106
1.529714
0.851353
-1.115336
2.206159
2.406248
-1.269344
1.126161
1.618795
-1.023963
2.514413
1.311680
-1.774445
-1.295497
1.593292
1.059574
-1.976637
-2.309365
-0.549446
2.715935
-1.095597
0.658477
1.459274
-3.905569
-0.335880
1.551673
3.315345
-0.657428
-0.328192
3.171903
-1.498434
0.125740
2.994513
1.297879
2.617510
1.769640
0.129638
4.021897
-1.283522
-2.600340
0.756477
-0.867902
0.636100
3.350227
2.889263
0.003243
2.771405
4.454774
2.675507
-0.631753
1.187581
1.859208
-1.136382
-3.604043
-0.595543
-1.440600
-1.744414
-1.715692
-2.334077
3.367419
3.179098
2.061773
1.918809
-3.159766
0.276470
-0.160259
0.208566
-2.240663
-0.294042
-0.388685
-1.038627
0.381900
1.249087
-1.605757
1.339461
-2.504342
0.625105
-1.474192
-1.248214
-0.985192
0.561517
-0.634505
-4.077427
4.588077
0.056967
0.691620
-0.638909
1.450971
0.587005
0.337742
-0.120451
-3.486018
0.883858
0.642235
-2.053747
3.643474
0.977996
1.607456
1.023817
-3.007030
1.811815
-0.916972
-1.747309
0.934705
-0.461457
-0.238692
3.797418
1.208760
-0.139036
1.516928
0.735351
-1.942986
1.123159
-0.173631
-1.080151
0.013113
-0.681714
-0.272664
0.722216
0.372338
1.332892
1.927003
0.463972
-1.795304
-1.897246
-2.992247
-0.090313
-3.059637
1.629744
0.066057
1.360240
-1.702534
0.302482
-2.706380
0.592540
0.683594
-0.911687
-2.861683
-1.380238
0.700938
0.072785
-0.678261
0.182142
-1.380891
-0.228970
-2.231326
-1.560834
3.945461
1.593600
-0.123931
-0.574119
-0.672011
0.245507
0.882531
-1.782246
-2.002427
0.464053
2.451178
-0.802985
1.764933
2.329057
-0.052747
0.480799
-0.517752
-2.723410
-0.047080
-2.406901
-1.290324
-0.222914
-0.773577
0.109739
-1.397738
-1.032625
0.086097
0.375358
-0.062600
2.075246
-1.536969
-2.144517
2.995981
2.753484
0.195909
1.266253
0.364473
0.173064
-0.972469
-1.710490
-2.208370
-1.314844
-0.413271
-1.624682
0.846960
-3.377609
-0.499289
3.355896
0.661824
-1.023728
