-1.742473
1.760517
-1.660847
-1.286294
1.279002
-0.197691
-0.379673
-2.024012
2.075291
1.310794
0.791596
-1.917377
-4.560284
-2.116415
2.500443
-3.190416
0.543831
-2.125498
1.027143
1.812902
-0.700855
2.528300
1.518995
-1.768130
-2.025130
1.302031
3.275100
3.998500
0.625144
1.942872
0.922252
2.934951
-2.008365
-1.656308
1.363162
-1.343485
-4.488869
-2.016235
1.116248
0.764346
-0.836398
1.094609
1.927328
-1.939491
-3.713316
-1.970561
0.780286
-0.496039
-1.796516
-0.563189
0.900498
-1.104432
3.798515
2.519168
-2.329048
-0.781587
-0.257446
-0.593798
-2.666412
-1.750176
-1.990189
1.071514
1.617574
2.470716
1.561258
1.081117
3.801103
-0.354693
-4.037247
1.356674
2.232505
0.623838
2.762843
-0.335361
-1.118021
-2.269858
0.502388
0.315276
1.329300
-1.398176
1.272000
0.177891
-1.061225
-1.131031
1.045818
4.321618
-1.757319
1.437157
-0.545689
-2.630892
-0.452068
1.088570
-1.080501
-2.167094
-0.666020
0.568265
0.978153
2.426550
-0.216457
0.856027
-1.631162
-2.261218
2.663750
0.050532
-1.627138
-1.906442
1.700088
-0.561991
1.729780
3.309768
-3.014790
-3.075517
-0.244257
1.055062
-2.881285
-1.273921
1.396798
-2.984681
2.451910
-1.987144
-1.737798
-3.531542
-0.242911
1.316570
0.259202
-0.187080
-2.153355
-2.508727
-1.667493
-1.717969
1.987204
-0.474141
1.996721
5.233952
-0.969018
-2.353398
-0.321271
-0.926774
-1.383547
2.338200
1.971568
-2.530417
0.067172
1.735881
-0.387418
0.708783
5.370679
-0.881974
0.073775
-2.098231
-0.760200
-0.258733
-0.883155
2.750002
-4.190546
-0.877585
0.884431
2.044057
1.492203
0.237150
-1.741626
-0.976071
-0.697422
1.632538
-0.762986
3.944304
4.039851
-3.883508
0.920686
4.159415
-0.275668
-0.488198
-1.214198
0.029745
-0.619370
0.522183
0.846477
0.617188
-0.618092
0.394217
-1.434822
0.742937
-0.503005
2.327883
-1.532391
2.450502
-3.815944
3.638927
-2.673937
-0.422644
-0.602866
0.650306
1.784307
1.468912
-1.151307
1.361119
-3.956027
0.920968
-2.428941
-2.637828
0.582271
2.397372
-0.231312
-1.253798
-4.446738
-0.844673
2.742816
3.156940
0.742316
-1.181299
1.376340
-0.874385
-2.701093
-0.034383
-1.110859
-0.458705
1.468701
0.328052
2.421197
-1.948795
-0.898885
-4.070534
3.704496
-1.481846
-0.808557
-0.206242
-4.744215
0.679056
-2.872466
-1.878987
-3.483984
0.665862
1.968604
0.061713
0.054834
0.094102
-0.984035
0.262952
-2.993318
0.957210
-0.552639
0.720873
0.394926
0.681102
-0.282127
2.245088
3.716178
-5.083883
4.335501
0.194831
-1.983720
-0.095471
-1.608273
1.482052
-2.571917
-1.238436
0.516492
1.509363
-1.970421
-2.430734
-2.116435
-1.508991
0.558832
-0.508126
5.081244
-1.261934
-0.301577
1.306734
0.365546
3.070445
-3.128627
0.257948
-2.160871
-1.256966
2.813163
-1.485320
-0.108873
4.027920
-1.370181
-0.127633
0.640102
-0.901003
0.312042
0.979995
1.259676
0.498747
2.133957
-1.454709
1.801383
0.429279
-0.342664
-2.698440
1.380386
3.550540
3.185347
0.755433
0.614421
-5.037889
-4.514079
2.007379
-0.221677
-1.377054
1.294376
0.404276
2.956409
-1.733181
-3.097371
-1.359799
-0.329823
-0.739946
5.834125
-4.037308
-3.014409
-0.051538
3.441325
3.128481
0.502089
-5.977489
4.571464
-4.624116
-1.842506
-0.357287
0.157922
-1.413127
1.355157
-0.233219
-0.093471
2.235954
-3.169300
1.670576
-3.330101
-3.785360
-1.300516
-2.038936
0.504398
0.751500
0.198729
-5.135409
-0.495747
-2.728811
-0.553988
-1.465268
0.169308
0.544618
4.630423
1.925179
-0.070254
0.986560
-0.849612
-1.800443
1.464392
1.836789
-3.253724
-1.787627
-0.780444
2.545163
-0.854587
-3.383581
-2.274945
-0.586020
-0.234824
-1.249197
-2.823743
3.002690
0.081428
3.253242
0.755172
0.537502
5.849537
-0.304952
-0.797842
-0.591826
-1.266626
1.082653
-0.327793
2.395216
0.174396
-2.592887
1.591539
-0.099274
2.200581
-0.405929
-0.474352
-1.510558
-1.858453
-0.091527
5.807320
2.103747
2.482684
-0.020729
-0.911714
3.242791
0.583185
2.710342
2.622736
-0.388639
-3.949447
0.150111
2.362403
3.979521
-1.726341
-0.511294
2.660717
-1.863370
1.661404
-2.110609
-0.258496
1.483912
4.195150
1.203298
-2.666747
0.152020
-0.497639
-2.895365
-1.247397
0.765154
1.999763
-2.998109
-0.002475
1.547550
-0.046603
-4.348116
0.643470
2.214342
0.291481
-0.140010
1.950824
-1.768008
-1.326003
-0.956179
-2.420260
2.133472
2.264748
-0.659116
-3.055340
2.789670
4.586869
2.156468
0.054514
-3.437361
3.245496
0.661333
-0.458095
0.498070
1.001288
-2.103802
-1.848015
-1.699675
-0.000837
3.378259
-1.875458
1.331440
-0.994862
3.009148
1.297754
-0.476988
0.455048
-0.031928
-2.450662
1.510026
0.985996
-3.673679
-1.448068
0.061300
0.503761
0.980197
-0.452932
0.989857
3.203556
0.070499
1.089508
-2.332661
-0.250159
-0.034753
1.587515
1.393071
-2.147394
1.286999
0.877869
-0.187660
1.226751
0.148142
2.321433
-1.984976
1.250198
-3.316402
-1.635406
-2.850365
-2.606366
-2.531639
-1.189542
-1.993973
-0.689637
-1.046578
0.656057
-1.064902
2.956022
2.289861
0.373464
-0.351171
1.357809
-1.114592
-0.168314
0.437221
1.103610
1.484149
-2.371019
0.922481
1.567446
0.678861
0.552295
-1.058614
-3.424869
-1.221317
-0.732132
0.669537
1.699877
0.524854
1.234212
1.058083
-1.821741
0.146761
2.974971
-0.703686
1.229496
2.131493
-0.022974
-0.418127
-1.249558
3.306248
-3.655923
1.252728
0.956122
-0.846704
-0.123157
-1.386966
-2.428814
-4.470232
1.544366
0.939379
0.706548
2.610970
0.022567
2.236122
-1.429849
1.856291
-0.716801
-3.034772
0.820394
-0.873236
-1.538545
-0.738301
-2.038213
1.129939
-0.111530
-2.584712
0.109429
-1.361483
-0.299159
1.266866
1.886709
-4.092009
-1.358068
1.591287
1.465604
-1.844162
-1.918172
-0.767885
-0.367818
-1.076015
-1.070111
-0.567721
2.074095
-1.888961
1.033328
1.549287
1.022380
-1.155415
1.988930
2.428971
-1.642821
0.932511
1.505686
-1.382123
2.374489
1.356117
-1.896498
-1.136852
2.083520
1.208474
-2.017707
-2.336207
-0.824037
2.715468
-0.990993
0.946833
1.297686
-3.845139
0.033792
1.906259
3.406854
-0.514878
-0.369903
3.171903
-2.018979
0.034201
3.069455
1.081694
2.481462
2.081447
0.129638
4.036514
-1.430416
-2.604129
0.714620
-0.611843
0.229960
3.405538
2.848891
0.084203
2.926252
4.646638
2.593846
-0.571081
1.211474
1.526171
-0.929149
-3.437617
-0.520501
-0.770722
-1.687275
-2.018108
-2.707262
3.279357
3.189163
1.724154
1.930983
-3.061900
0.292871
-0.295942
0.216742
-2.330600
-0.281348
-0.384256
-0.991813
0.696382
1.164705
-1.696747
1.339461
-2.423707
0.524475
-1.579196
-1.086411
-0.615255
0.173645
-0.945568
-4.157391
4.618475
-0.209719
0.497614
-0.653046
1.335326
1.135052
0.971081
-0.203304
-3.240185
0.822889
0.669826
-2.345759
3.811438
1.157301
1.536198
1.043544
-2.894589
1.330571
-0.994477
-1.506176
0.767542
-0.748585
-0.158977
4.076629
1.504211
-0.033674
1.660173
0.674817
-1.597588
1.559104
-0.136303
-1.037931
0.121764
-0.771317
-0.424811
0.766247
0.584201
1.076796
2.112744
0.408186
-1.995196
-1.816684
-3.000441
-0.156018
-3.126878
1.944021
0.210615
1.363055
-1.847834
0.444647
-2.438763
0.734697
0.646379
-0.882614
-3.061951
-1.400959
0.765901
0.168693
-0.380334
0.342991
-1.344273
-0.348401
-2.667342
-1.446746
4.027640
1.622887
-0.142108
-0.675811
-0.921252
0.379615
0.886837
-1.649022
-1.841478
0.421797
2.532340
-0.802985
1.680372
2.334734
-0.108625
0.440415
-0.544292
-1.994867
0.108920
-2.480369
-1.290324
0.063338
-0.697443
-0.014955
-1.559212
-1.376431
-0.237368
0.217583
-0.062600
2.074475
-1.410052
-2.222205
2.955342
2.784019
0.462833
1.283673
0.448000
0.454126
-0.992050
-1.335021
-2.025897
-1.453013
-0.519324
-1.414048
0.939642
-3.315854
-0.248134
3.392378
0.661824
-0.963237
