-0.059635
-0.133990
0.001291
0.266318
-0.002711
-0.250562
-0.234372
-0.083056
-0.252407
0.317893
-0.368197
-0.396257
0.081414
0.631090
0.358674
0.503462
0.277469
-0.380426
0.175853
-0.225626
0.351548
0.058320
0.212342
-0.455651
-0.072871
-0.525323
-0.198730
-0.120306
-0.128938
-0.309135
0.010867
-0.199299
0.151316
0.420424
0.289994
0.124803
0.088025
0.337242
-0.211927
0.154536
0.394965
-0.435220
-0.303522
-0.164373
0.414359
-0.344303
0.347328
0.298256
-0.103331
0.333309
0.351185
-0.267494
0.290054
0.328012
-0.018856
-0.264030
0.133891
0.081416
-0.428164
-0.363444
-0.193428
-0.506094
-0.270617
-0.377509
-0.163569
0.292746
0.286153
-0.063394
0.235542
-0.362981
-0.075779
0.159786
0.170029
-0.388409
0.378544
0.073791
0.137004
0.283927
0.513070
-0.291289
-0.252370
0.288068
-0.040990
0.179341
-0.220815
0.096370
-0.373028
0.768937
-0.122354
-0.095045
0.204251
-0.292812
-0.490675
-0.542234
0.147789
0.061023
0.385296
0.267072
-0.144031
0.216642
0.073325
-0.325462
-0.302287
0.230220
0.036012
0.117279
0.502826
-0.511308
0.024638
-0.252497
0.414008
0.160930
-0.618336
0.177626
-0.172414
-0.480045
-0.410179
-0.365652
-0.029020
0.313992
0.456008
0.559679
-0.243101
-0.265512
0.282427
0.394583
0.302494
0.162219
0.260124
-0.374775
-0.140843
0.648054
0.296845
0.156437
0.379394
-0.323067
-0.165711
0.566254
0.403359
-0.465999
-0.065792
0.340823
-0.295259
-0.533581
-0.519459
0.483703
-0.142302
0.224238
-0.171355
0.126546
-0.276464
-0.167702
-0.109130
-0.351303
0.242623
0.747520
-0.032794
0.188756
-0.151201
-0.267072
0.054410
-0.170062
0.683581
0.314015
-0.628839
-0.065611
-0.480038
0.192445
0.289523
0.215574
0.000050
0.445701
-0.554921
0.098743
-0.460802
-0.034040
0.377200
-0.027712
-0.173230
0.159301
0.043755
0.244576
0.291930
-0.133544
-0.080229
-0.617061
-0.174429
-0.343046
0.190658
0.061936
0.421845
-0.428228
-0.400452
-0.112389
0.387002
-0.052384
-0.309054
0.216114
-0.103677
-0.760059
0.252926
0.129461
-0.456915
0.092417
-0.384441
0.564684
0.281958
-0.135226
-0.114430
-0.368062
-0.415117
-0.120504
-0.289530
0.206587
-0.595297
-0.162789
0.402961
-0.196611
-0.279220
0.229437
-0.404330
-0.005424
0.153510
0.329069
0.332022
0.546499
0.445176
-0.411548
0.480979
-0.213191
-0.083586
-0.395842
0.000312
-0.105371
-0.194850
0.323279
-0.102872
-0.104577
-0.115709
-0.350820
0.436475
0.113020
0.365148
-0.019385
-0.527323
0.413972
-0.172507
-0.106626
0.547500
0.133730
0.396054
-0.428709
0.403405
0.200574
0.350739
-0.092048
-0.018488
0.065348
0.353657
0.405295
-0.129993
-0.389430
0.395695
-0.069284
-0.314370
-0.231065
0.455889
0.418868
-0.014602
0.715361
-0.343983
-0.450755
0.286021
0.342197
-0.080750
0.188542
0.115309
0.171817
0.143608
-0.026944
-0.531272
0.105736
0.403477
-0.332827
0.554111
-0.466248
-0.565538
0.204055
0.342630
-0.309387
-0.307485
-0.535620
0.389831
0.032977
0.001781
-0.164558
-0.022940
-0.231103
0.134197
0.518306
0.509638
-0.007786
0.332725
-0.011655
-0.390541
-0.093002
0.521792
-0.012942
-0.192575
0.326147
-0.091462
-0.426325
-0.478956
-0.130940
0.426693
-0.278760
-0.031808
-0.087957
-0.187674
0.359484
-0.370465
-0.075376
-0.445062
0.624062
-0.425674
0.462851
-0.183738
0.147271
0.222421
-0.023899
0.091568
-0.285828
-0.353509
-0.396222
0.172330
-0.064600
-0.412463
0.416080
0.436422
0.089025
-0.744898
0.589642
0.221871
-0.325897
0.347896
0.494269
0.001139
0.037144
-0.405852
0.560429
-0.242437
-0.538710
0.506690
-0.408609
-0.293125
-0.337009
-0.268731
0.045062
0.588403
0.013521
-0.245065
0.367724
-0.278970
-0.119883
0.231628
-0.117664
-0.266030
0.287566
0.025103
-0.702784
0.380524
0.068213
-0.388254
0.293946
-0.100654
0.143713
-0.511017
-0.207678
0.068233
0.121440
0.444878
0.151140
-0.363635
-0.126405
-0.456182
-0.313187
-0.431326
-0.252798
0.222221
-0.030321
0.368649
-0.530516
0.203279
-0.226494
0.424504
-0.513161
-0.307375
-0.201628
0.109617
0.030910
-0.354251
-0.320107
-0.227131
0.111644
-0.077657
-0.209756
0.639010
-0.190957
0.148320
-0.470775
-0.357589
0.397467
-0.546904
0.435528
0.110420
0.095463
-0.020930
-0.070264
0.026340
-0.114816
0.043345
0.581439
0.349272
0.107529
0.393673
-0.222918
-0.158842
-0.101258
-0.168094
0.468113
0.076721
-0.249981
0.429486
0.022714
0.229679
0.440240
0.117949
-0.291894
0.281989
-0.174668
0.029018
0.355044
0.086854
-0.516485
0.164142
-0.184640
-0.274609
-0.492223
0.485640
0.601487
0.129336
0.427803
-0.182947
0.177387
0.142760
-0.320050
-0.082693
0.199200
0.161432
-0.249704
-0.047841
0.285697
0.218402
-0.103953
-0.412703
-0.172661
-0.194445
-0.415571
0.039057
-0.692607
-0.223848
-0.276362
0.207590
0.346591
-0.164388
-0.197478
-0.019551
-0.337593
0.154247
-0.125969
0.301852
-0.646121
0.216347
0.483517
-0.091050
0.339250
-0.158353
0.115261
-0.351477
0.234458
-0.516309
-0.233326
0.241747
-0.013685
0.379903
-0.164452
-0.170866
-0.324987
0.322150
0.044101
0.231344
0.212405
0.049935
-0.231462
-0.545488
0.592187
0.254256
-0.411853
-0.408746
-0.387904
-0.023583
-0.006104
-0.205281
-0.389482
-0.455472
-0.427367
-0.587189
-0.253915
0.448573
-0.569486
0.369446
0.369646
0.617367
0.383251
0.323568
-0.417929
0.164708
0.299305
-0.435200
0.073798
0.278869
0.190832
0.115120
0.451226
0.576130
-0.076940
0.370368
-0.248817
0.042900
-0.661669
-0.694034
-0.343601
-0.571261
0.424985
-0.173034
-0.473360
-0.605598
-0.207309
0.305876
0.343617
-0.420838
0.046003
-0.106909
-0.179193
0.461583
0.447932
-0.124382
-0.408442
-0.300418
0.152421
-0.072138
0.147221
-0.161471
-0.054609
0.436409
0.307543
-0.352441
-0.028186
0.009308
-0.738586
0.073098
0.339565
-0.220990
-0.144566
-0.088133
0.168884
0.496477
0.377245
0.202539
0.161015
0.552593
-0.090393
-0.078575
0.064597
-0.075361
0.440801
0.148075
0.237391
0.413692
-0.180408
0.606190
-0.209877
0.305636
-0.448206
-0.451155
-0.182489
0.280737
-0.255829
-0.013960
0.117504
-0.266415
0.249798
0.364255
0.367968
-0.235529
-0.238356
-0.664856
0.350528
0.125232
-0.688506
0.461682
0.522145
0.353807
0.359547
-0.352243
-0.214598
0.279852
0.039424
-0.009536
-0.441175
0.461829
0.078551
0.058363
-0.022042
0.052531
-0.043772
-0.157843
-0.279208
0.379392
-0.234941
-0.459066
0.111605
-0.315680
0.198393
-0.453123
0.381074
-0.112398
0.295240
-0.301302
0.026427
-0.725726
0.349749
0.100867
0.052894
-0.160165
0.092343
0.313649
0.125474
0.215542
-0.011355
0.180726
-0.297840
0.025816
-0.553334
0.004131
0.491816
0.290172
0.301915
0.506660
-0.159021
0.022921
-0.263908
-0.230371
0.160534
0.293415
-0.170506
0.068641
0.080656
-0.004542
-0.117237
0.506412
-0.109429
0.331221
-0.375820
-0.263733
-0.355367
0.152287
0.057517
0.060516
-0.417859
0.417166
-0.633290
-0.289437
0.147754
-0.118114
-0.430903
0.392185
0.071054
-0.091756
0.118926
-0.078390
-0.196826
0.373194
-0.446448
-0.220948
0.344722
-0.330590
0.328886
0.357936
0.499875
-0.143447
0.333193
-0.212018
-0.256007
0.238421
0.005154
0.144509
0.077519
-0.227886
-0.469065
0.216286
0.072759
0.410821
-0.005062
0.515358
0.265861
0.340034
-0.132765
0.104673
0.162629
-0.383770
0.245882
-0.436685
0.326262
0.039995
0.035868
0.266561
-0.353664
-0.378751
0.498655
0.032548
-0.447611
0.405299
0.132473
0.209130
-0.028248
0.197292
0.183975
-0.535601
-0.187978
-0.025830
-0.501745
0.361410
0.148871
0.337725
0.576235
-0.178040
0.139421
0.410418
0.284766
-0.228917
-0.105873
0.066159
-0.252396
-0.006287
0.477129
-0.513837
0.052557
0.037336
0.263264
-0.020718
0.241569
0.157702
0.544852
-0.056186
0.141982
0.230828
0.550762
-0.216182
-0.509865
-0.746411
-0.604623
-0.611250
-0.336067
-0.225406
0.544266
-0.141647
-0.270485
-0.143941
-0.301757
-0.218230
0.243508
-0.389579
-0.510533
0.138300
0.029241
-0.003977
0.346751
-0.074149
0.129324
0.650456
-0.690302
0.018178
0.266156
-0.049232
-0.467209
0.241883
0.031140
-0.110917
-0.159899
0.278658
-0.160208
0.533301
-0.108750
-0.001837
0.093818
-0.643501
0.234119
0.447218
0.279459
0.168308
0.560319
-0.243138
0.346721
0.263708
-0.333938
