0.362307
-0.404081
-0.569914
0.520860
0.332436
-0.421128
0.070571
-0.002322
-0.198090
0.103342
-0.193523
0.005562
0.060573
0.367496
-0.165408
-0.479497
0.001147
-0.070562
0.355659
-0.143598
0.320110
-0.264893
-0.448699
0.069913
0.503982
-0.404607
0.330951
-0.221367
-0.007146
0.003762
0.239067
-0.145424
-0.331505
-0.219305
-0.359987
0.279079
-0.206386
0.546949
0.113522
0.154794
-0.114993
-0.004896
-0.310651
-0.054355
0.125776
-0.401312
0.048829
-0.059624
0.331878
-0.151358
-0.283765
-0.583322
-0.173669
-0.452876
0.117170
0.401892
0.365487
0.217470
-0.613596
0.151353
0.330736
-0.204026
-0.370024
-0.343973
0.131580
-0.365458
0.108843
-0.011544
0.293916
-0.121338
-0.322627
-0.200118
0.452375
0.108312
0.453422
0.335032
-0.343120
0.519941
0.327139
-0.270171
0.198014
0.091218
-0.196225
0.670599
0.230914
0.465894
-0.379951
0.743556
0.144914
0.484686
-0.151393
-0.144364
0.393292
-0.250796
-0.129819
0.426153
0.249822
-0.306156
0.364147
0.057715
-0.079228
0.284560
0.047899
-0.348650
-0.012394
-0.367066
0.704039
-0.503133
0.496320
-0.218434
-0.111513
0.217991
-0.316937
0.050000
-0.280774
-0.093237
0.103347
-0.406671
0.118698
0.201143
0.324655
0.260373
-0.252691
0.272159
-0.446035
-0.143625
-0.304072
0.199997
-0.228158
-0.116558
-0.023807
-0.163106
0.263859
0.221206
-0.470877
0.539612
-0.140533
-0.323653
0.191159
0.522734
0.639032
-0.259106
-0.581698
-0.041633
0.338722
-0.078189
0.358718
-0.320929
0.001327
-0.603787
0.320726
-0.552874
-0.011441
-0.087248
-0.181932
0.487834
-0.497076
-0.077031
-0.295525
-0.159319
-0.434374
0.043163
0.648457
-0.005981
0.531956
-0.122463
-0.510573
0.220345
-0.145915
-0.656996
0.032213
0.223699
0.014581
0.360995
-0.435081
-0.171902
-0.266832
0.073607
-0.012118
-0.436182
-0.344791
-0.457534
-0.088886
-0.401170
0.085659
0.109345
0.040166
-0.135840
-0.024068
-0.232778
0.475808
0.414112
-0.510713
-0.519171
0.309748
-0.103497
-0.187625
-0.576844
0.004581
0.151942
0.577272
0.138315
-0.095709
0.253379
0.430990
-0.071979
0.317543
-0.052104
-0.419327
-0.143196
0.229800
-0.191199
-0.125456
0.179392
-0.514688
0.028836
0.008971
0.031831
-0.127971
0.024850
-0.012574
-0.128094
0.369083
-0.297952
-0.098930
0.163716
-0.329943
0.007797
-0.379593
0.082182
0.026826
-0.103295
-0.143705
-0.185115
0.008044
-0.034024
-0.179089
-0.179953
-0.667090
0.870942
0.638468
0.291698
0.155004
-0.177479
-0.466294
0.001629
-0.350878
-0.324207
-0.311823
0.438780
0.363366
0.251740
-0.063458
0.186484
-0.120146
-0.489742
0.070376
0.325160
-0.117780
0.353861
0.349583
0.096457
0.047282
-0.240992
0.289531
0.228810
-0.202808
0.547649
-0.338765
0.401747
-0.093961
-0.450321
0.607801
0.522793
-0.218446
0.092421
-0.267683
-0.357544
-0.450782
-0.488931
-0.305657
0.225863
0.572054
-0.097303
-0.042429
-0.135406
-0.566285
0.004923
0.317372
-0.117180
-0.257805
0.041235
0.470750
0.365210
0.201130
0.506643
0.522439
-0.016577
-0.100744
-0.158353
-0.296617
-0.539819
0.605998
0.274376
0.133241
-0.090073
0.188626
-0.280802
0.459284
0.103610
-0.196609
0.019861
-0.288792
-0.235506
0.137057
-0.661702
-0.271990
-0.024259
-0.211954
0.126993
-0.304125
-0.143075
0.016478
0.097379
-0.108572
0.336278
0.325605
0.280343
-0.364864
-0.213601
-0.541988
-0.005091
0.059690
0.145825
0.189974
0.085197
0.046309
-0.235554
0.252100
0.085884
0.191843
-0.138795
-0.325970
0.494017
0.278621
0.252771
0.066497
-0.211853
0.264441
-0.627918
-0.334919
-0.383226
0.074810
-0.328365
0.081654
-0.129877
0.253385
0.403686
0.176646
-0.467218
-0.071671
0.499053
0.129004
-0.010519
-0.039252
0.119013
0.123882
-0.523529
0.556996
0.175964
0.340093
0.442286
-0.105022
0.408120
0.015913
-0.463192
-0.638441
0.260028
0.384314
0.330735
0.030707
0.539591
0.315968
-0.401980
-0.115646
0.127454
-0.442843
-0.162636
0.111253
0.115525
-0.076274
-0.171314
0.080269
0.131546
0.061552
0.282870
0.118851
-0.249361
0.081535
-0.183671
0.140657
-0.078625
0.179130
-0.042160
-0.407244
-0.480992
-0.177286
-0.078433
0.227736
0.015238
-0.254416
-0.275965
-1.052337
0.018635
0.272684
0.445046
0.217532
0.308273
0.352003
0.127758
0.472050
-0.491741
0.140631
-0.582605
0.608507
-0.070430
0.394110
-0.032078
-0.505668
0.083956
-0.029450
-0.448495
-0.426597
-0.487376
-0.375380
-0.185387
0.184041
-0.146577
-0.155300
-0.215440
0.631544
0.099265
0.136588
-0.330273
-0.194886
-0.328378
0.248416
-0.254117
0.571282
-0.312734
-0.527308
-0.225388
-0.095682
0.026264
-0.709176
0.360783
0.020226
0.077064
-0.668123
-0.258073
0.007632
-0.224299
0.152199
0.242433
0.274794
-0.260791
-0.403405
-0.374790
-0.821648
-0.357919
0.301692
-0.536787
-0.265125
-0.437017
-0.034334
-0.183524
0.477458
0.469728
0.104514
0.006365
0.430912
0.227858
0.103393
0.200623
0.297447
-0.524788
-0.057214
0.093331
-0.519658
-0.207096
0.357660
0.178148
-0.108754
-0.122440
-0.429761
0.151897
-0.126530
0.236938
-0.150420
-0.154247
-0.357556
0.137655
-0.036782
-0.386731
0.149846
0.399893
-0.708803
-0.030516
0.161142
-0.426198
0.058323
-0.120770
-0.383543
0.525227
-0.021306
-0.612684
-0.427073
-0.438368
0.133432
-0.322660
-0.103629
-0.014752
-0.371509
0.399734
-0.809103
-0.031116
-0.469577
-0.268216
-0.057326
-0.657793
0.099543
-0.182637
0.170175
0.474693
0.019536
-0.357460
-0.296398
0.218563
0.036970
0.418453
-0.633737
0.476689
-0.255699
0.242183
-0.305349
0.225076
-0.000674
0.092014
0.750954
-0.430262
0.261404
0.569444
0.288572
-0.565899
0.214431
-0.477137
0.354398
0.044278
0.759137
0.300185
0.263095
-0.053533
-0.145473
-0.007018
-0.174985
0.248561
-0.101560
-0.449324
0.356410
-0.006835
-0.214540
0.247734
0.197219
-0.366274
0.529660
-0.156714
-0.073070
-0.173149
-0.316789
-0.053856
0.043285
0.565918
-0.433781
0.361121
-0.360187
0.110621
0.234162
-0.512995
0.375186
0.366705
-0.089391
-0.283791
-0.153289
-0.504924
0.170739
-0.722761
-0.624398
-0.173012
0.446057
0.169324
-0.298897
0.010114
-0.264285
-0.448253
0.433826
0.148972
0.539040
-0.365356
-0.037951
0.395964
0.118516
0.426984
0.139211
-0.212318
0.268363
-0.129876
-0.574545
-0.184282
0.104415
-0.436127
0.235591
0.350661
-0.225564
-0.106697
-0.606114
0.356195
-0.392465
-0.703037
0.164397
-0.072784
-0.404524
0.208969
0.262782
-0.388339
-0.075422
0.023646
-0.336113
-0.361825
0.082375
-0.099882
-0.502527
0.044179
-0.113230
-0.106613
-0.110938
-0.350091
0.103015
0.345440
0.290172
-0.014005
0.229423
0.319135
0.671031
-0.487430
-0.158297
-0.086621
0.421921
0.255297
-0.235582
-0.371495
0.365389
0.196440
0.361029
-0.234421
0.530634
0.069529
0.564235
0.040434
0.108399
-0.152102
0.086423
-0.448856
0.058849
0.633178
0.216058
0.045953
0.238276
0.048582
0.058756
-0.237070
-0.032766
0.616253
0.009104
-0.175844
-0.464063
-0.260795
-0.324869
-0.548687
-0.228318
-0.233490
-0.774057
0.018472
-0.090341
0.350473
0.308334
-0.008902
-0.094571
-0.159818
0.106476
0.439744
-0.070104
-0.167120
-0.088933
0.662962
0.412997
0.076607
0.056911
0.376827
-0.033663
-0.143362
-0.325951
-0.648185
-0.061788
0.549040
-0.832078
0.434821
0.072781
0.039793
0.068348
-0.051727
-0.404083
-0.228661
0.198298
0.171972
0.284360
-0.225827
-0.016320
0.186500
-0.074083
-0.181926
-0.415082
-0.051673
-0.513858
-0.106088
0.352228
-0.203509
0.314483
-0.083203
-0.367741
0.253851
-0.004176
0.716045
-0.104492
-0.125268
-0.246381
0.624387
-0.017853
0.315909
0.632023
0.407019
-0.474343
0.288991
-0.582759
0.472722
0.611481
-0.514765
-0.508143
0.004314
0.009744
-0.175974
0.625284
0.175784
-0.473912
-0.660655
0.383878
0.467969
0.061832
0.256219
-0.016562
0.225460
0.258081
-0.208621
-0.194469
0.278198
0.348349
-0.185248
0.247155
-0.247705
-0.197798
0.175513
-0.392702
-0.274227
0.601557
-0.654688
-0.343101
0.019472
-0.143151
0.609473
0.114454
0.527831
-0.113334
0.051707
-0.209288
0.353914
-0.118985
-0.140354
0.449478
0.104429
-0.012646
-0.171919
-0.277936
0.265629
-0.233607
0.304777
-0.374533
0.108148
-0.570044
-0.138085
0.448779
-0.570620
0.058652
-0.158192
0.093471
0.407091
0.199943
-0.088190
