-0.254066
-0.511039
-0.186873
0.038965
-0.308837
-0.182193
0.191187
0.354441
0.400794
0.146608
0.200985
0.105255
-0.480868
0.397482
-0.437187
0.277720
0.071350
0.336449
-0.355173
0.460282
0.291585
-0.409533
-0.047487
0.289592
0.093639
-0.327908
-0.163943
-0.020593
-0.399738
0.141362
-0.191067
-0.048500
-0.400015
0.120449
0.352033
0.427065
-0.314774
-0.238115
-0.466187
0.374175
-0.540607
-0.455728
-0.304941
0.380107
-0.184731
0.062275
-0.606432
-0.039149
-0.188431
0.171803
0.293935
-0.078414
-0.087428
-0.398420
0.208164
0.305728
-0.142974
-0.374799
0.181958
-0.309853
-0.223830
-0.365657
0.459662
-0.125283
0.220592
-0.648854
-0.662921
-0.022559
0.208931
-0.136970
0.161758
0.399869
0.121065
0.007154
0.063197
-0.222582
0.215916
-0.249958
0.453460
0.134862
-0.113260
-0.854460
-0.341476
-0.241641
-0.021247
0.190833
0.003611
0.516930
-0.304090
0.137381
-0.194564
-0.005261
-0.384027
0.066645
0.179977
0.079504
0.233607
-0.312263
-0.276346
-0.193637
-0.347447
-0.074422
-0.679389
-0.044010
-0.179948
-0.155579
-0.332080
0.131161
0.244861
-0.136206
0.364247
0.077303
0.067333
0.118880
-0.388280
0.401703
-0.263786
0.404371
-0.381105
-0.253502
-0.360780
0.146355
0.052762
-0.213663
-0.584604
-0.323142
-0.277481
0.269546
0.291721
-0.574248
0.584674
0.233773
0.231686
0.154103
-0.437442
-0.160492
0.071811
-0.463983
0.014869
0.299336
-0.098818
-0.077124
0.192739
-0.190615
0.019302
0.277699
-0.253873
0.040167
0.338381
-0.261182
-0.052615
-0.096638
0.253324
0.116841
0.410624
0.344111
0.123990
0.099117
0.131054
-0.429073
0.182426
-0.080390
0.557986
-0.147260
0.166508
0.057319
-0.141717
-0.242136
-0.332252
0.228206
0.407692
-0.031261
0.132449
0.002564
0.423824
0.418908
0.453091
-0.390250
-0.328705
-0.232452
-0.180588
-0.197230
-0.044718
0.267151
-0.046647
0.014027
-0.147208
0.697592
0.099433
0.111439
0.668800
-0.093778
0.273205
0.535447
-0.024918
0.420028
-0.255438
-0.719046
-0.278877
0.507551
0.569622
-0.162674
-0.075589
0.230070
-0.430298
0.273168
0.004432
-0.511424
-0.086080
0.107966
0.138089
-0.214564
-0.350508
0.100699
0.526104
0.245757
-0.009433
-0.019616
-0.450914
-0.357534
0.589935
-0.061170
0.370512
-0.130135
-0.321648
-0.637058
0.188294
-0.230918
-0.225601
-0.289470
0.132323
-0.213964
0.288516
-0.132014
0.613718
0.298273
0.014651
-0.068467
0.213822
-0.232073
-0.411771
-0.445348
0.206125
0.141281
0.300964
0.643388
0.637953
-0.354043
0.645212
0.165552
0.163898
0.350897
0.179442
-0.212342
0.475065
-0.065569
0.300204
0.266255
-0.080570
-0.365032
0.075552
-0.665914
0.284764
-0.334434
-0.517915
-0.339424
-0.010731
0.001901
-0.258651
-0.274234
0.318081
-0.373720
-0.333542
0.755822
0.390820
-0.253658
0.016343
0.317802
-0.266533
0.008364
0.583966
-0.332265
-0.470865
0.048365
0.366446
-0.248243
-0.001632
0.198393
-0.474871
0.141205
-0.719587
0.186397
-0.057474
0.339082
0.451479
-0.141036
-0.142265
-0.110925
-0.643666
0.655458
0.327794
-0.329726
-0.102110
-0.353238
0.017823
0.142499
0.055930
0.055854
0.687600
0.221107
0.021728
-0.341234
0.246578
0.139960
-0.313750
-0.197596
-0.666714
0.198561
0.462314
-0.137971
0.064371
0.505571
0.433587
0.216061
0.103703
0.389949
0.501304
-0.403801
-0.039190
0.514937
-0.021818
-0.030935
0.320727
-0.260559
-0.089135
0.134947
-0.118543
-0.060096
-0.170730
-0.624819
0.077185
-0.386858
-0.193251
0.463479
-0.025392
0.439910
0.097997
0.380992
0.098966
-0.141288
-0.126831
0.119554
0.028219
-0.184961
0.010981
-0.116910
0.325980
0.466627
0.387462
-0.504663
-0.200800
0.213301
0.425728
0.181619
0.159090
0.321216
0.163951
-0.236987
0.317616
-0.113540
-0.074601
-0.028865
-0.269131
0.520459
-0.092414
0.241598
-0.398181
-0.003610
-0.520089
0.760705
-0.153413
0.568412
-0.174295
-0.561812
-0.131757
0.374535
0.112526
-0.429158
-0.424884
0.076758
0.273360
-0.154843
0.289520
0.362861
-0.083035
0.484757
0.176886
-0.606466
-0.040335
0.520068
-0.241554
0.065272
-0.212727
0.112566
0.000404
0.415586
0.114997
-0.066669
0.018629
0.208520
0.036414
-0.171585
0.037033
0.293471
-0.143254
-0.313952
-0.153926
-0.223215
0.515249
0.014398
0.242453
-0.026744
0.065298
0.386429
-0.401230
0.262533
0.172338
-0.350225
0.609236
0.023238
0.289215
0.086081
-0.400917
0.217185
-0.306952
-0.230720
0.366874
-0.085646
-0.014374
0.363363
-0.253833
0.227939
-0.465379
0.337750
0.107161
-0.047659
-0.335677
-0.077863
0.005226
-0.605954
-0.102257
-0.016227
-0.152860
0.091654
0.279616
0.097200
0.200278
-0.405613
0.220399
-0.067698
0.185001
0.050175
-0.163619
0.240024
0.387425
-0.520421
-0.288937
-0.368059
-0.314438
-0.346038
0.188097
-0.056963
-0.589156
0.140744
-0.053145
-0.145641
0.162352
0.355596
-0.165601
-0.357531
0.199463
-0.150695
-0.307086
0.510889
-0.272827
-0.648452
0.227094
0.136441
-0.067100
0.044349
-0.490889
-0.323678
-0.032899
-0.113915
0.031040
0.079474
0.040079
0.253225
-0.543839
-0.422830
-0.441657
-0.705606
0.084428
-0.087197
0.822120
-0.669293
-0.185979
0.170466
0.073761
-0.295178
-0.683017
0.187943
-0.182466
0.242855
-0.430318
0.130729
0.257361
-0.378752
0.332601
0.355161
0.300619
-0.545330
-0.198857
-0.053969
-0.292749
0.409654
0.825640
0.383680
0.078740
-0.292768
-0.119223
-0.230958
-0.500456
-0.350684
0.173253
-0.623163
-0.273509
-0.233023
-0.054763
-0.000978
-0.241318
-0.502218
0.580754
-0.037791
0.234907
0.271521
-0.176353
-0.169956
0.181585
0.059886
-0.045782
-0.255886
-0.074931
0.554071
-0.225477
-0.053756
0.215427
0.204163
0.451400
-0.188204
0.328430
0.332045
-0.315499
0.634544
0.252935
-0.077005
-0.310117
-0.136402
0.583543
0.261297
-0.074558
0.340273
0.227190
0.124802
-0.097601
-0.267620
-0.223015
-0.054492
-0.344191
-0.407819
0.017366
0.649560
-0.297502
-0.526554
0.629991
-0.303152
-0.009341
-0.117096
-0.128782
-0.192960
0.311293
0.063039
-0.142537
-0.575957
-0.430477
0.351860
0.041155
-0.197131
0.391946
0.112829
0.261766
-0.347701
-0.380565
0.664877
-0.428456
-0.500174
-0.454002
-0.577263
0.095770
-0.158115
0.253337
0.327071
0.234070
-0.059827
-0.179908
0.396192
-0.297037
-0.290361
0.039398
0.265466
-0.001288
-0.409978
-0.174112
0.183715
0.376386
0.338533
-0.238576
-0.486646
0.432050
-0.272448
-0.347788
0.231558
-0.023296
0.150685
0.420736
-0.459139
-0.580628
0.124395
-0.423012
0.049700
0.035061
0.116924
-0.133927
-0.407646
0.573111
0.083559
-0.040581
-0.223777
-0.108445
0.092758
0.256960
-0.359284
-0.142594
0.285467
-0.313905
-0.634127
-0.300060
0.521380
-0.235582
0.057359
0.063538
-0.531154
-0.463359
0.167252
-0.105031
0.076129
0.414482
-0.379548
0.017269
-0.525992
-0.135492
0.040879
-0.110533
-0.087887
-0.563124
0.351767
0.167258
0.505797
-0.449516
-0.300888
-0.017557
-0.014403
-0.293309
0.240331
-0.044376
-0.058776
-0.176209
-0.057090
0.013131
0.639646
-0.167041
-0.065614
0.109205
-0.317245
-0.253405
0.119616
-0.066241
0.396188
0.325667
-0.109053
-0.188999
0.369640
0.021271
0.771096
0.261582
0.510186
-0.046351
-0.334947
-0.032803
-0.428056
0.452270
0.472355
0.112555
0.483546
-0.160373
-0.043651
0.548214
-0.369682
0.200208
-0.556677
-0.552973
0.116530
-0.187821
-0.001300
-0.421581
-0.406431
-0.243657
-0.309479
0.389730
-0.094569
-0.129463
-0.342279
-0.362773
0.272515
-0.659936
-0.396418
0.577024
-0.400610
-0.566716
0.106790
-0.132051
-0.392776
-0.202648
-0.566761
0.296186
0.578743
-0.176195
0.134864
0.126989
0.264166
-0.286304
0.218893
-0.693809
0.486395
0.309642
-0.289494
-0.551608
-0.238005
0.025700
-0.399132
-0.099597
0.230513
-0.133415
0.013422
-0.328029
0.227207
-0.496202
-0.178038
0.117594
-0.177041
-0.255419
-0.412754
-0.234411
-0.226536
-0.324439
0.272138
-0.228761
0.241243
-0.663995
0.136463
0.534855
0.245658
0.044430
0.347841
-0.540103
-0.487949
-0.281376
-0.006615
-0.259288
-0.392433
-0.230703
0.382411
0.117550
0.289223
0.190895
-0.487798
0.595950
0.535363
-0.113532
-0.071571
0.069323
0.224774
-0.452699
-0.208382
0.135532
0.179305
-0.732142
0.206858
0.071158
-0.449242
0.047236
0.174416
0.472953
0.092589
-0.237962
0.172779
