0.031632
-0.478290
0.185167
-0.125769
0.230774
0.737901
0.204218
0.000153
-0.177135
-0.017108
-0.096508
0.016325
0.139544
-0.223789
0.146808
0.244326
-0.672809
0.635140
-0.327786
-0.214022
0.243961
0.195528
-0.376066
-0.076395
-0.397722
0.316106
0.038657
-0.461143
-0.169561
-0.299870
-0.129111
0.223962
-0.479229
0.088836
0.489040
-0.141175
-0.254463
0.312504
0.254580
0.065259
-0.479970
-0.303584
0.010956
0.148356
-0.342924
-0.367614
0.019874
-0.459129
0.169393
-0.155658
0.314655
0.671943
-0.058437
-0.250213
-0.341873
0.631581
-0.215772
-0.162854
0.397975
0.429469
0.653899
0.273269
0.523376
0.399681
0.516332
-0.316794
-0.524609
-0.499688
0.126878
0.170238
-0.048213
0.271370
-0.083218
-0.089987
0.325352
0.222121
-0.305587
-0.067551
-0.027637
-0.415229
0.010165
0.106756
-0.456973
-0.282630
-0.124535
0.042284
0.497868
0.034167
0.062479
-0.081715
-0.188605
-0.411753
-0.739116
-0.102532
0.203154
-0.705534
-0.130010
-0.337513
0.821007
0.322441
-0.506673
-0.477206
0.012088
0.046870
-0.118406
0.543909
0.422210
0.269911
-0.353203
0.111664
-0.173330
0.531171
-0.304126
-0.103729
0.165598
0.194136
0.111228
-0.333388
0.145687
0.262496
-0.430028
0.096467
-0.365699
-0.358766
0.235750
0.006915
0.047818
0.287038
-0.279966
0.217260
0.468251
0.455615
0.170718
0.457702
0.487616
0.172686
-0.003576
-0.418860
-0.342347
0.409677
0.197632
-0.602196
0.558357
-0.377436
-0.619693
0.063482
-0.390326
-0.391978
-0.260349
0.515869
0.247762
-0.259697
-0.079322
-0.097623
0.164066
0.105624
-0.269194
0.448320
-0.448995
-0.427007
-0.521963
0.211377
0.612228
-0.074340
0.225607
0.233012
-0.236534
-0.096605
-0.299769
-0.298266
0.023119
0.341576
0.112427
-0.295032
0.166019
-0.250673
0.483910
0.374308
-0.015547
0.467343
-0.415187
-0.215130
0.023637
0.083926
-0.086229
0.338878
0.183087
-0.109376
-0.084203
-0.367458
-0.323820
0.510765
-0.028979
-0.299607
0.324769
0.514421
0.579594
-0.608693
0.033673
-0.324872
0.527476
0.290310
-0.347300
-0.259903
0.413040
-0.437377
-0.411172
-0.241365
0.136887
-0.136396
0.164890
-0.233759
-0.078674
-0.366714
0.338848
0.225879
0.182623
-0.036813
0.092136
0.029124
-0.223411
0.059670
0.381997
0.404084
-0.120969
0.155634
-0.328400
-0.259895
0.145216
0.095617
-0.431111
-0.289610
-0.367584
0.295727
0.088577
-0.480162
0.184518
-0.353749
0.538881
0.064825
-0.513152
0.005761
0.125904
0.123782
0.504440
0.319441
-0.186475
0.415618
0.596522
-0.123991
0.124826
0.180098
0.295976
0.272944
-0.460185
0.254149
0.069084
0.430481
0.302070
0.352926
0.027134
-0.422466
-0.218989
0.113120
0.057597
-0.302564
0.032914
0.605201
-0.179771
0.132304
-0.040089
-0.397078
0.485148
-0.482555
0.351450
0.231139
0.052646
0.588844
-0.142094
-0.000320
0.776866
-0.602684
0.165270
0.243189
-0.055794
0.585322
-0.185753
-0.190155
0.014098
-0.085876
-0.091920
-0.070602
-0.346799
-0.410784
0.514995
0.287642
-0.542132
0.034795
-0.102234
-0.221057
-0.359051
0.442796
-0.143171
-0.320174
-0.077703
-0.016935
0.249125
0.146836
0.094939
0.277019
-0.071525
0.188074
0.028109
-0.137215
0.132444
0.098657
-0.588467
0.082445
-0.352580
-0.112927
-0.025135
-0.079735
-0.029906
-0.278664
-0.035539
0.491925
-0.213569
-0.342183
-0.359912
-0.237085
0.346032
0.811598
-0.409267
0.395445
0.179506
-0.195074
-0.522368
0.171297
-0.036490
0.267611
-0.269807
0.061619
0.519251
0.394156
0.389591
0.164298
-0.236168
-0.402724
0.243316
-0.151519
-0.453911
0.267916
0.112088
-0.267555
-0.570261
-0.282273
0.216520
-0.176565
0.225747
-0.144396
0.334399
0.166692
-0.006882
-0.383766
0.181703
-0.577553
0.094239
-0.687374
0.487601
-0.027226
-0.074601
0.000341
0.121180
0.270916
-0.161876
0.002432
-0.390207
-0.008718
-0.109970
-0.241544
-0.080765
0.529993
0.083295
-0.131065
-0.142516
-0.339131
-0.105872
0.451062
0.143065
-0.074948
0.528599
-0.255923
0.037458
-0.196428
0.174068
0.532367
-0.360222
0.429062
0.097004
-0.025122
0.024770
0.382537
-0.356608
0.374076
-0.169806
0.292254
0.455795
-0.202919
-0.319286
0.444660
0.150761
-0.568522
-0.367610
0.552274
-0.336945
0.181522
-0.012742
0.321851
0.271322
-0.491319
0.342092
0.365499
0.171959
0.163274
0.877160
-0.384867
-0.397813
0.037758
-0.198361
0.291355
0.138406
-0.263490
0.526994
-0.614646
0.167191
0.047610
-0.123020
-0.262028
0.227725
0.359720
-0.229171
0.227939
0.157868
-0.284694
0.140270
-0.119221
0.074987
0.580591
0.469627
-0.688117
0.607733
-0.168251
0.430691
-0.583427
-0.631682
-0.104406
-0.417817
-0.568355
-0.035547
-0.382512
0.358656
-0.063353
-0.320488
0.183938
-0.129104
-0.038433
-0.425211
0.272580
0.552160
0.190495
0.230698
-0.144415
0.235676
0.536900
0.476655
0.107459
-0.725625
0.109823
-0.323978
0.017105
-0.511085
-0.291730
0.050193
0.012319
0.336669
-0.688961
-0.149988
-0.314689
-0.340765
-0.484278
0.185085
-0.258450
0.441465
-0.092105
0.138221
-0.125256
-0.525218
-0.572711
-0.021642
-0.448019
-0.533603
-0.311912
-0.304190
0.550615
-0.371819
-0.368487
-0.122218
0.541770
0.220585
0.255779
-0.104952
-0.255312
-0.700180
-0.294217
-0.434250
-0.379023
-0.285708
-0.417013
-0.015123
-0.017665
0.506126
0.571912
0.616820
0.654059
-0.370212
0.000060
0.228140
0.249395
-0.598735
-0.410424
0.269788
0.425404
-0.476333
-0.182008
0.431797
-0.189002
0.363207
-0.356762
-0.235510
-0.675150
-0.235650
0.266994
-0.202115
0.490339
0.315142
-0.178392
-0.583067
-0.402496
0.106874
-0.297023
-0.083140
-0.341294
0.115566
0.606812
0.274308
-0.316335
0.402231
-0.106203
-0.178798
-0.210364
-0.159236
0.485055
-0.325004
0.013304
-0.678166
0.378864
0.528324
-0.038855
-0.470486
-0.404093
-0.198450
-0.402159
0.471103
0.381930
0.324264
0.089429
-0.068855
0.439521
-0.225618
0.077067
0.398160
-0.583815
0.225524
-0.012319
0.095212
-0.228953
0.031538
-0.503018
-0.059411
0.393230
0.058159
-0.120515
-0.339970
-0.539932
-0.451155
-0.149922
0.263237
-0.245502
0.440937
-0.179249
-0.321467
0.114713
0.455311
0.194789
-0.418608
-0.435647
0.298151
-0.486381
0.398987
-0.518494
0.514500
0.344541
0.439835
0.435950
-0.390470
-0.212612
0.553038
0.050285
-0.423218
-0.562891
0.159531
-0.295946
-0.058432
-0.380498
-0.267704
0.468363
0.245038
0.172799
0.212283
-0.155613
-0.099264
-0.554892
0.125661
0.462267
-0.207327
-0.316586
0.621149
0.051388
0.248451
-0.573313
-0.475165
-0.404238
-0.031718
0.404413
-0.039192
-0.246732
0.435443
-0.303671
0.201202
-0.281835
0.613890
-0.147027
0.550410
-0.172978
-0.034276
0.436890
0.436024
-0.094109
-0.295209
0.472276
0.232451
-0.808943
-0.302308
-0.053916
0.029802
0.170131
0.467639
-0.261136
-0.085335
-0.450092
0.649845
-0.106535
-0.348073
0.074536
0.474773
-0.233563
0.018469
-0.589958
0.233509
0.405378
-0.072296
0.160360
-0.751628
-0.590963
-0.036072
0.642533
-0.302788
-0.273781
-0.124266
-0.140448
0.521386
-0.367451
0.059848
-0.499681
0.177445
0.464348
0.050756
-0.227215
-0.682685
0.636539
-0.045314
-0.817573
0.061655
-0.098799
-0.169397
0.066831
0.279027
0.320562
-0.085922
-0.464915
-0.375780
-0.257728
-0.146931
-0.032155
-0.784423
-0.456630
0.239110
0.102824
0.089232
0.258009
-0.143597
0.245882
0.475493
-0.029112
-0.250679
-0.416476
0.168996
-0.515696
-0.222983
0.472287
0.082773
-0.273988
-0.070642
0.173650
-0.458213
0.443927
-0.187120
-0.182899
-0.495726
0.191327
-0.430160
0.696373
0.341944
-0.119259
-0.521533
-0.198084
0.381404
0.127346
-0.625668
0.289787
0.359725
0.126845
0.066159
0.536576
-0.230632
-0.519057
-0.492896
-0.388949
-0.093783
-0.430232
0.138773
-0.637358
0.053391
0.441581
0.457062
-0.009493
-0.009584
-0.111190
-0.075901
-0.304758
-0.334254
0.097672
-0.028354
-0.339979
0.083393
-0.886683
-0.327414
-0.317293
-0.345764
0.089610
0.066424
-0.524207
0.264860
0.232219
-0.525735
-0.268746
-0.593277
0.403103
0.101798
-0.410089
-0.105151
-0.186113
-0.378083
0.076818
-0.239946
-0.467209
0.229201
-0.490728
0.425382
0.282691
0.266522
0.119778
-0.276115
0.269203
-0.217512
0.067510
-0.482488
0.297455
-0.120971
-0.428740
-0.202851
0.299613
0.130170
0.405679
-0.506917
0.159794
