0.220050
-0.568200
-0.178226
0.511410
0.550438
0.254452
0.316064
0.078598
-0.297639
0.484452
-0.193523
0.154879
0.660829
-0.370275
-0.176643
0.045687
0.055347
0.380216
0.251379
0.193716
0.093081
-0.338087
0.227469
-0.203122
-0.175214
-0.030803
0.189615
-0.144696
-0.117296
-0.024967
0.666615
0.012023
-0.529153
-0.100169
0.585113
0.496051
-0.086277
-0.265507
0.326257
0.423124
0.334751
0.019489
-0.335941
0.457036
-0.410835
0.076957
0.048829
0.038936
0.512738
-0.335136
0.240592
-0.273542
-0.224490
-0.452876
0.174694
0.430097
0.285929
-0.249818
0.480090
-0.260061
-0.227748
0.148555
0.133441
0.229156
0.140296
-0.143697
-0.577415
0.420434
0.235567
-0.366862
0.099198
0.108661
-0.097526
0.108312
0.383931
0.008747
-0.381333
0.175710
0.392194
-0.621315
0.256275
0.072608
0.217483
0.351486
0.429311
0.153581
-0.397264
-0.039409
-0.079004
-0.191051
-0.092516
0.343772
-0.361757
-0.136444
0.056590
0.071821
-0.162163
-0.068933
0.202443
0.209685
-0.079228
0.400731
-0.120524
-0.226159
0.747055
-0.074499
-0.157508
-0.353168
-0.129239
-0.026205
-0.025142
0.599627
-0.303961
-0.042001
0.122904
-0.448528
0.119692
0.102319
0.495875
0.440379
-0.256158
-0.319220
-0.169479
0.138935
-0.360061
-0.113619
-0.060294
0.557953
-0.119243
-0.029088
-0.019515
0.002845
0.202537
0.262817
-0.289049
0.008473
-0.062985
-0.550489
-0.482361
0.483298
-0.606205
0.054810
-0.626395
-0.157204
-0.213195
0.549669
-0.098178
0.132595
-0.363965
0.170403
-0.246665
-0.552874
0.509149
-0.180964
-0.124190
0.590711
-0.399276
0.268710
-0.087810
-0.467265
-0.488817
0.352715
0.206006
-0.109206
-0.217556
0.424963
-0.345270
0.149956
-0.123558
-0.420228
-0.221088
0.223699
0.073879
-0.410790
-0.338127
-0.288795
0.502778
0.053811
-0.094229
-0.557823
0.401301
-0.313256
0.199301
-0.456056
-0.390894
-0.557427
-0.003797
0.483067
0.091995
-0.414363
0.423617
-0.570679
-0.137337
0.303928
0.403793
-0.368031
0.190464
0.195862
0.384247
-0.421254
0.577272
-0.448994
0.326371
0.022020
-0.346257
-0.077162
-0.538484
-0.124417
-0.125273
-0.175782
-0.258511
-0.191199
-0.063814
0.223028
0.342826
-0.029234
-0.089508
0.117152
-0.234874
0.019500
-0.217342
0.196994
0.023082
0.201447
0.160318
0.404285
0.237290
-0.296042
0.055928
0.280854
0.067578
0.431840
0.196708
0.105042
-0.432515
0.318342
-0.459151
-0.084983
-0.575617
0.322573
-0.216573
-0.195798
0.043830
-0.041781
-0.128463
-0.587786
0.462714
0.533082
0.126136
0.078311
-0.196829
-0.319088
0.200067
0.168321
-0.102024
-0.243444
-0.153361
0.452801
0.163945
-0.014356
0.257426
0.248074
-0.197228
-0.257725
0.171978
0.187364
-0.103932
-0.323397
0.136529
0.510306
0.004340
0.605711
0.435899
-0.491635
-0.152437
-0.122058
0.102737
-0.030329
-0.037612
-0.381015
0.396956
-0.090714
0.517681
0.488334
-0.106812
0.011451
-0.427399
-0.336369
0.017880
0.454822
0.485076
-0.671490
0.230965
-0.838237
0.338841
-0.223646
0.341177
-0.016577
-0.276694
0.045334
0.406513
-0.597696
0.605998
0.019547
-0.656036
0.586815
0.571392
-0.186817
-0.322689
-0.170632
-0.269473
0.088306
-0.236263
0.112767
0.203301
-0.480965
-0.336243
-0.482823
-0.195303
0.331827
0.044582
-0.028420
-0.410878
0.181752
-0.108572
-0.483334
-0.223618
-0.434217
0.076785
-0.066325
0.149214
0.493248
0.275837
0.281263
-0.091265
-0.118898
-0.332322
0.262687
-0.310584
0.111174
-0.149292
0.544429
0.139461
0.507657
0.488403
-0.142058
0.136735
-0.261866
0.264441
-0.020841
-0.258529
-0.474933
0.184799
-0.509216
-0.064572
0.089950
0.204448
0.146958
-0.546687
-0.060204
-0.214528
-0.362927
0.058864
0.591685
0.241418
0.016710
0.157578
0.284440
0.089459
0.016268
0.031910
0.652463
-0.088937
0.326105
-0.187237
-0.158598
-0.389927
0.160104
-0.007677
0.478390
0.021594
-0.108756
-0.289564
-0.307556
-0.204245
0.359444
-0.016491
0.047858
0.246137
0.495326
0.289260
-0.269953
0.271287
0.013263
0.126251
-0.475870
-0.338343
0.430127
0.087000
-0.211124
0.016578
-0.537422
-0.032662
-0.047882
-0.319283
0.228432
0.415355
-0.155884
-0.089944
0.231586
-0.254416
0.167417
-0.282697
0.396809
0.001071
0.060458
0.175428
0.252188
0.497698
0.310675
-0.037521
-0.362895
0.414757
0.319165
0.226717
-0.122510
0.489146
-0.560807
-0.134503
-0.502551
0.255619
-0.257749
-0.417741
0.446627
-0.069725
-0.135199
-0.150919
0.416884
0.567277
-0.096312
-0.302122
0.489890
-0.214513
-0.407394
-0.087598
-0.393861
-0.351122
0.437859
0.272644
-0.244464
-0.295619
0.165125
0.439451
0.039507
-0.511860
-0.030490
0.037369
0.219328
-0.653149
0.292731
0.086426
0.419606
0.033781
-0.326801
-0.157373
0.551035
0.284218
-0.150394
0.449928
-0.208073
-0.334386
-0.289361
0.547925
0.283083
0.173363
-0.065141
0.617809
-0.133405
0.074081
0.231634
0.206169
0.094342
-0.102156
0.347081
-0.065131
-0.045027
-0.333307
0.042731
-0.001189
-0.326620
0.063116
0.336059
0.763897
-0.267881
0.031325
0.048168
-0.519512
0.315761
-0.393047
-0.478216
0.258877
0.269875
0.263836
0.514753
-0.470590
-0.343840
-0.131811
-0.469519
0.495273
-0.182119
0.695243
0.299386
-0.199265
-0.118222
-0.458477
-0.386480
-0.355323
-0.383599
-0.109226
-0.344065
-0.084567
0.678830
-0.459140
-0.439013
0.199571
0.208384
-0.149236
0.182615
-0.057326
-0.338136
-0.402243
0.028798
0.406019
-0.121373
0.249432
-0.423670
-0.394103
-0.023359
-0.080871
0.052729
0.146953
0.370798
-0.250001
0.606674
-0.207889
-0.101049
0.382160
0.381100
0.087068
0.481378
-0.085666
-0.397175
0.046230
-0.361744
0.562723
-0.327166
0.201888
0.157677
-0.268892
-0.029349
0.191002
0.138953
-0.344623
0.462072
-0.333208
-0.122297
-0.364568
-0.169231
0.153153
-0.655316
0.036885
0.523368
0.285128
-0.359000
0.016261
-0.627954
-0.139974
0.377245
0.855616
0.409338
0.285133
-0.136125
0.593318
0.502251
-0.365052
-0.298721
-0.097060
-0.217640
-0.607358
0.371284
-0.098823
-0.133380
0.030603
-0.265373
-0.430183
-0.720735
0.280392
-0.173012
-0.354327
0.411951
0.465427
0.406924
0.254226
0.367968
0.504265
0.079116
0.518425
-0.101861
0.235670
0.068976
0.218345
0.440417
0.322270
-0.300581
0.405265
-0.106573
-0.142121
-0.236695
0.395932
-0.371712
-0.318852
-0.057188
0.665588
0.060798
0.144845
0.394262
-0.423747
0.210056
0.524040
-0.162842
-0.276017
-0.110327
-0.094092
0.454956
-0.279520
0.323510
-0.306065
-0.041734
0.082375
-0.317642
-0.540231
0.358601
0.605858
0.501207
0.299804
-0.528464
-0.096111
0.345440
0.108465
0.048875
0.360872
0.431228
0.012631
-0.287882
-0.405188
0.046424
0.439424
0.432894
0.291492
0.081181
-0.117827
-0.079903
0.254510
0.618957
0.438507
0.127645
0.376502
0.041447
0.086731
0.481894
0.096920
-0.448856
-0.020567
0.576259
0.311231
0.229084
-0.342684
-0.054723
-0.143031
0.334429
-0.339910
0.616253
-0.372803
0.397839
-0.051606
-0.185040
0.241100
0.628936
-0.109101
0.414559
-0.257928
-0.049174
-0.261166
-0.030821
0.521225
-0.078232
0.063909
-0.367798
0.163455
0.485343
0.676700
-0.237177
0.102221
0.630566
0.493663
-0.194709
0.076967
0.026500
0.018238
0.619782
-0.008396
-0.240856
-0.223743
0.524431
0.226704
-0.130866
-0.527375
0.220520
-0.436835
-0.066129
-0.252222
0.000925
-0.621143
0.168630
0.449063
0.175467
-0.078933
0.218138
-0.071877
0.538950
0.074119
-0.155692
0.320057
-0.436232
-0.516995
-0.313958
-0.128711
-0.061919
-0.367741
-0.457348
-0.163612
0.533875
-0.639469
0.097023
-0.247333
-0.303069
-0.154956
0.222103
-0.099680
0.584662
-0.474343
0.196757
-0.451628
0.215104
-0.614561
0.126887
-0.454964
0.044226
-0.085510
-0.103363
0.235623
-0.301490
0.382239
-0.237765
-0.268288
-0.092753
0.195412
-0.396541
-0.157599
-0.257371
0.283649
-0.367302
-0.158327
0.003274
0.000508
0.171375
0.250708
-0.000701
-0.093435
0.102265
0.024307
0.333092
0.394291
-0.267606
-0.105693
-0.213142
-0.292756
0.033894
-0.285730
-0.078495
0.054390
0.110758
-0.121944
0.090355
-0.136090
0.097077
0.441109
0.512304
0.558321
-0.239021
0.291536
-0.230235
0.229479
-0.258642
-0.236501
-0.500821
-0.419219
0.647615
0.411366
0.388750
0.460743
0.127359
-0.290367
0.447259
0.312280
-0.267011
