-0.431097
-0.231096
-0.483307
0.111286
-0.440384
0.145416
0.496537
0.116171
-0.103437
0.597819
-0.434227
0.353032
-0.208227
-0.157728
-0.392278
-0.025155
-0.553650
-0.087636
-0.047452
0.160182
0.368393
-0.209033
-0.431864
0.498496
0.092974
-0.212388
0.007893
-0.030999
0.373500
-0.633359
0.126804
0.223962
-0.418992
-0.100169
0.361789
0.338367
0.149986
-0.650861
-0.661786
0.312644
-0.531050
0.579034
-0.258488
-0.242938
0.050323
0.227560
0.300260
0.623610
0.355382
0.112105
0.146076
-0.073652
-0.208311
0.074002
0.253141
-0.164200
-0.560995
-0.139373
-0.240738
-0.522909
0.333217
0.106607
-0.122088
-0.095493
0.189070
-0.390238
0.343894
-0.287494
-0.118303
-0.140658
-0.229729
0.470830
0.400870
-0.414979
0.482652
0.085218
0.226982
0.211320
0.140404
0.176376
0.098273
0.462643
0.257091
0.563026
-0.270428
-0.060457
-0.122298
0.009764
-0.054677
0.079633
-0.114132
-0.021090
-0.254225
0.097181
0.242781
-0.057883
-0.089625
0.200004
-0.399816
0.353869
-0.369200
0.467516
-0.119007
0.435873
-0.254265
0.396267
0.385690
0.174745
0.219669
-0.286904
0.022734
-0.843716
0.222155
0.165278
0.254211
-0.292203
0.217305
-0.013967
0.228920
-0.482094
-0.368092
-0.071418
-0.063752
-0.181195
-0.378493
0.533808
-0.117441
0.291971
0.229510
0.320697
0.621052
0.056033
-0.094854
0.375317
-0.462597
-0.380589
0.115407
-0.279587
-0.260371
0.303226
0.049081
-0.132169
0.293337
-0.325699
0.160827
-0.168227
-0.053313
-0.329018
-0.175238
-0.246520
-0.286287
0.176166
0.526380
-0.234293
-0.259690
0.645961
-0.332380
0.188173
-0.095738
0.412167
-0.645823
0.234250
-0.539917
0.264392
-0.643021
0.412421
-0.039059
0.106851
-0.045694
-0.109545
0.520649
-0.038689
0.340801
-0.219608
0.238077
0.286585
-0.118601
0.310824
-0.339099
0.474061
-0.187547
-0.176260
0.288414
-0.011248
0.232293
0.363178
0.131566
0.607196
-0.111455
0.409218
0.120845
0.052661
0.178667
-0.301812
0.357931
-0.268878
0.084175
-0.209815
-0.498624
-0.297585
0.360270
-0.471822
0.326371
0.099384
0.443802
0.282235
0.300344
-0.259283
0.146743
-0.035643
0.334252
-0.004480
0.232210
0.037976
0.004064
0.139795
0.075002
0.176435
-0.037368
0.204217
0.341500
-0.219083
-0.336811
0.032887
-0.099882
0.310782
0.273387
-0.411079
0.170821
0.010424
-0.273067
0.374755
-0.395811
0.509014
0.510341
0.137879
0.623599
0.102822
0.259347
0.053558
-0.251611
0.522243
0.140401
0.054501
-0.481978
0.086185
0.330828
-0.158101
-0.456002
-0.392496
-0.019897
-0.201804
0.126621
-0.014671
0.424883
0.385208
0.028432
-0.365388
-0.156658
0.404404
0.175208
-0.433656
-0.266101
-0.538539
-0.225422
-0.054177
-0.376409
-0.052895
-0.258653
0.543353
-0.481004
-0.323154
-0.538567
-0.377349
0.266928
-0.011837
0.062084
-0.083531
0.241995
0.182994
0.200122
0.404095
-0.423565
-0.266880
-0.336175
0.494785
-0.084090
-0.444365
-0.348144
0.034536
-0.523193
-0.457541
-0.084439
-0.617980
0.533978
-0.247649
0.040755
-0.307983
-0.405359
-0.375353
-0.276740
-0.249995
0.278153
-0.128746
-0.072140
-0.006871
0.081853
-0.075731
0.441929
-0.028869
-0.528017
-0.426325
-0.216871
-0.032702
0.466395
-0.108627
0.607391
-0.576475
-0.221660
0.057974
0.483751
0.105516
-0.029035
0.011344
-0.575610
0.292296
0.050813
-0.124996
-0.521626
0.527810
0.383209
-0.330020
0.447239
-0.050824
-0.014098
0.074033
0.049825
0.403190
0.487376
0.266507
0.255810
-0.184064
0.445064
0.398057
0.301836
0.350026
0.611634
-0.111949
-0.573369
-0.443966
-0.424987
-0.152588
-0.002188
0.386143
-0.149284
-0.326037
-0.349884
-0.326343
-0.727403
-0.445717
-0.072123
-0.022189
0.549126
0.094380
0.459780
0.477707
0.138804
-0.176199
0.295444
-0.350367
-0.554830
-0.334361
-0.399701
-0.335784
-0.068519
0.073691
-0.648335
-0.302950
-0.311911
0.043999
-0.144809
-0.761214
-0.593317
-0.293480
0.397495
0.132456
-0.335818
-0.318753
0.431833
-0.093760
0.054026
0.274576
0.467792
0.520267
0.536301
0.422416
0.168969
0.541616
0.220862
-0.090363
-0.234541
-0.345182
-0.266929
0.120833
0.015447
-0.535112
0.674468
-0.450769
-0.209822
-0.367917
-0.333008
-0.043718
-0.311685
0.560883
-0.398202
0.120086
0.381706
0.637692
0.000114
0.074910
-0.178353
0.565759
0.302788
0.202467
0.715543
0.213824
-0.489359
0.015406
-0.591322
0.283601
0.073703
-0.173374
-0.518467
0.103568
0.275291
-0.121723
-0.184167
0.241898
0.045149
0.305281
-0.101002
-0.271565
0.332846
-0.211739
0.090969
0.431761
0.013048
-0.091298
0.307361
-0.044417
0.129336
0.370633
0.305682
-0.158617
0.451914
-0.179197
-0.152832
0.225919
-0.001602
0.246533
0.470111
-0.050972
-0.131006
-0.150337
-0.491884
0.541314
-0.563671
-0.284178
0.369192
-0.483786
-0.103449
-0.466719
0.221830
-0.054957
-0.229300
0.095654
0.196959
-0.034109
0.238361
-0.084438
-0.338545
0.449283
0.457659
0.599986
-0.058278
-0.337064
0.016692
-0.116346
-0.369973
-0.154612
-0.264833
0.208774
0.650466
0.016738
-0.018673
-0.434661
0.294017
0.395490
0.107476
-0.302064
-0.083031
0.166956
-0.015128
0.369577
-0.302000
-0.681904
-0.774490
-0.394800
0.095005
0.262898
0.075478
-0.503255
-0.077190
-0.116244
-0.144411
-0.441956
0.111827
-0.512569
0.171680
0.283636
0.275791
-0.749404
-0.448009
-0.184751
-0.567803
-0.121210
-0.229364
0.335046
-0.249188
-0.583617
0.342403
-0.147750
0.305573
0.033920
-0.011426
-0.041040
-0.174942
-0.247838
0.068824
0.377595
0.210260
0.327496
-0.246213
0.412461
-0.324134
-0.049329
-0.109965
0.796149
-0.313681
-0.469739
-0.026858
0.424507
0.409289
-0.228125
0.226173
-0.262941
-0.200732
-0.009352
0.412589
-0.244289
-0.134773
0.388212
-0.228578
0.398371
0.337695
0.491974
-0.536375
-0.303171
0.006287
0.511282
-0.557719
0.346815
0.364867
0.180567
0.288529
-0.110223
-0.500789
-0.157678
0.144805
0.235327
-0.176107
-0.215695
-0.662300
-0.515742
0.156859
0.200477
0.050679
0.973912
0.171576
-0.161248
-0.081162
0.240394
-0.314874
0.029400
-0.511623
-0.139669
0.227059
-0.084165
-0.093498
0.408007
-0.315552
0.502681
-0.256105
-0.535124
-0.236074
0.022466
-0.607367
-0.100435
0.070082
0.168744
0.378836
0.081187
-0.502472
0.489376
-0.408047
0.479905
-0.279078
0.165126
0.060194
0.501276
0.160612
-0.510641
-0.040390
0.157146
0.544719
0.287238
-0.203582
-0.007400
-0.347861
0.049411
0.089180
-0.492292
0.463558
-0.499254
0.233567
-0.214823
-0.054906
-0.057272
0.381609
0.248672
0.554801
-0.231878
0.100188
-0.019018
0.396165
0.400923
0.666456
0.179063
-0.359077
-0.475718
0.174228
-0.188338
0.010733
-0.443355
0.404106
0.337136
-0.606197
-0.098328
-0.452577
0.366804
0.301371
0.471894
0.317029
0.377516
-0.152217
0.212095
-0.600200
0.535276
0.139307
-0.093793
0.485629
0.113135
-0.121413
-0.424226
-0.299111
0.517183
0.456342
-0.118098
-0.094968
-0.057590
0.018117
-0.231954
0.050998
0.146976
-0.417352
-0.059571
-0.241602
0.268040
-0.129858
-0.384205
0.012727
0.210710
-0.429363
0.159297
0.331035
-0.401132
0.229735
-0.042587
-0.310003
-0.653446
0.469911
0.395679
-0.048793
-0.503745
0.443287
0.623503
0.002947
0.193629
-0.338712
0.631139
-0.253972
0.235748
0.383039
-0.063090
-0.090734
0.143276
0.149285
-0.420190
0.062315
-0.429402
0.157684
-0.269082
-0.301566
0.399857
0.072130
-0.426946
-0.503652
0.292349
0.361838
0.001615
-0.560545
-0.130134
0.301368
0.054517
-0.549333
0.002341
-0.416530
0.144431
0.101508
-0.277004
-0.430160
0.477608
-0.360708
0.011459
-0.263526
-0.196957
-0.456302
0.073543
0.346585
-0.384549
-0.060048
0.518868
0.078511
-0.165480
-0.431118
-0.134769
-0.576456
0.006884
-0.118836
0.187509
0.299878
0.356761
-0.200578
-0.540182
0.357073
0.151561
0.249125
0.414611
-0.071455
-0.123858
-0.270997
0.626554
-0.358010
0.524931
-0.138566
-0.171034
0.210828
0.353664
-0.216371
-0.096902
0.024448
-0.601006
-0.543340
-0.168734
-0.438203
0.314400
-0.190811
0.473786
0.084413
0.378622
-0.272353
-0.092661
-0.054833
-0.210127
-0.052095
-0.200611
0.476759
0.522312
-0.213952
-0.155196
0.270450
0.231827
-0.007672
0.308510
-0.387195
-0.061876
-0.007467
-0.572116
-0.257791
-0.351369
0.217858
0.143998
-0.550230
-0.171251
0.006585
-0.510750
