-0.280326
0.099044
-0.114671
-0.106580
-0.165365
-0.300618
0.057602
0.151529
0.418855
0.051623
-0.060430
-0.534861
-0.039503
-0.336793
-0.004781
0.190231
0.025237
0.271086
0.269027
0.054970
0.368905
0.135886
-0.431864
-0.114999
-0.524112
0.482473
-0.461019
-0.072978
-0.038391
0.337358
0.315530
-0.368517
0.196874
-0.472395
0.498070
-0.212714
0.304995
0.468161
-0.081485
0.189392
-0.033959
-0.786198
0.226965
-0.490407
-0.423916
0.230201
-0.017656
0.778261
-0.162552
-0.172460
0.039036
-0.218127
0.632792
-0.448844
0.386646
0.606054
0.166702
-0.129146
0.234268
-0.365664
0.276820
-0.280048
0.454482
0.092874
0.381830
-0.434819
0.403103
-0.092086
0.288197
0.306921
-0.458279
-0.424474
0.113907
0.418622
0.251687
0.058876
-0.013371
0.156011
-0.259034
-0.431384
-0.494768
-0.540860
-0.341476
0.432570
-0.160015
0.220739
-0.524757
-0.082010
-0.261213
0.314671
0.039912
-0.161398
-0.266880
-0.495329
0.221151
-0.276428
0.088930
-0.696193
-0.522058
0.039708
-0.000355
-0.400302
0.028067
-0.054937
-0.428497
0.461715
-0.575942
0.503270
0.174560
0.040930
0.381755
0.271644
0.212325
-0.167092
0.181921
-0.158108
0.094696
-0.082358
0.005304
-0.306363
-0.492067
0.354338
0.163626
-0.507208
0.293075
-0.391426
0.012717
0.280806
0.197846
-0.554403
-0.140843
-0.131196
-0.002740
-0.020693
-0.214291
0.193382
0.264054
-0.501973
-0.328173
0.333794
0.086220
-0.212511
-0.384850
-0.716742
-0.098502
0.338693
-0.443011
0.298876
0.515790
0.188912
-0.322046
-0.110373
0.556205
0.559197
-0.177604
0.387364
0.280670
-0.238954
-0.685903
-0.276615
-0.628691
0.233726
0.068255
0.293299
0.227196
-0.340224
-0.382964
0.037208
-0.252168
-0.051348
0.127635
0.384741
0.010499
-0.100388
-0.165629
-0.632436
-0.137060
0.310581
0.487097
0.235584
-0.055746
0.539394
0.036870
0.391058
-0.598820
0.217720
-0.499527
-0.547440
0.370993
0.342064
0.592958
-0.534359
-0.341286
-0.258432
0.007542
-0.608016
0.174226
-0.218529
-0.351688
-0.671674
0.221646
0.239845
-0.347741
-0.186620
0.816966
-0.566771
0.164508
-0.063355
0.303580
0.405916
0.447142
-0.258027
-0.038705
-0.275799
0.196527
-0.369070
-0.477888
-0.276711
-0.101679
-0.062740
0.368739
-0.107301
0.131484
-0.389192
-0.092513
0.194908
0.118708
-0.633481
0.361836
0.130187
0.022066
-0.135705
0.196187
0.476252
-0.075044
-0.441179
0.089361
-0.049267
-0.483541
0.050027
0.002099
-0.372210
-0.692393
-0.006996
0.005151
0.013566
-0.408602
-0.300284
-0.435837
0.253702
-0.211431
-0.344005
-0.512953
0.272944
-0.496736
-0.535256
-0.520954
0.550056
0.530224
-0.365076
-0.461740
-0.112791
0.629638
-0.369618
-0.269186
0.371536
0.320679
0.415662
0.543194
0.424591
-0.170912
-0.396839
0.477497
0.522793
-0.435688
-0.722940
0.353508
0.410754
-0.143397
-0.519869
0.429687
-0.198068
0.457218
0.067714
0.150349
0.087942
0.090671
-0.215626
-0.446531
0.079864
0.439290
-0.638676
0.212903
0.330870
-0.394802
-0.037131
0.309856
-0.546453
-0.252273
0.454858
0.236675
-0.330583
-0.265155
-0.342742
0.376004
0.575072
0.525293
-0.330429
-0.244935
-0.315488
0.073255
0.012136
-0.423254
-0.158613
0.351370
-0.434991
0.152672
-0.401936
-0.346661
0.005323
0.408582
0.392520
-0.384409
-0.093504
-0.032296
0.305125
-0.109297
-0.521816
0.238317
-0.183767
0.275204
-0.367178
-0.255039
-0.010581
0.036692
0.045420
-0.227096
0.416907
0.527817
-0.368991
-0.557538
-0.131980
0.673165
0.362489
-0.242158
-0.530514
-0.065320
0.278683
0.346696
-0.126505
-0.214022
-0.179502
0.084268
0.009369
0.109381
-0.064473
-0.112947
0.378859
-0.550565
0.179593
-0.003844
-0.132845
0.197539
0.627678
0.159265
-0.075051
0.418780
0.223550
0.117681
0.034334
-0.025477
0.128324
0.322717
0.353981
-0.371793
-0.141267
-0.077043
0.310021
-0.031699
-0.008431
0.148133
0.147877
0.042231
0.019419
0.049019
0.117121
-0.203961
-0.164007
0.265806
0.030536
-0.009781
-0.338246
-0.414722
-0.070562
0.447313
-0.269721
0.406291
0.012271
-0.199301
0.035615
-0.032776
-0.095638
-0.068906
-0.261765
-0.127668
-0.438269
0.204252
-0.081655
-0.480344
0.114499
0.127936
0.500425
-0.246714
0.256477
0.014328
0.250456
0.202045
0.402424
-0.112483
0.171989
-0.080540
-0.330646
0.099061
-0.196994
0.021372
-0.014830
-0.339377
-0.320552
-0.239072
0.052134
0.387631
-0.155454
0.123959
-0.161386
0.381776
-0.479073
0.005217
0.504599
-0.528304
-0.125142
0.597843
0.599280
-0.014801
-0.657993
0.194525
-0.419615
0.241023
-0.118786
0.221155
-0.042791
0.177654
-0.271019
-0.126899
0.226752
-0.810120
0.248313
0.149006
-0.368585
0.485166
0.219135
-0.114092
0.262092
0.337562
-0.448885
-0.450409
-0.346108
-0.099560
0.181274
-0.451395
-0.518369
0.448924
-0.301435
-0.007004
-0.069560
-0.420370
0.265868
0.077532
0.360209
-0.042646
0.026373
0.144226
0.024463
-0.262089
-0.210538
-0.105254
0.601470
0.394223
-0.603312
0.026047
0.462322
-0.472858
-0.233326
-0.143741
0.492228
0.270214
-0.434661
-0.216081
-0.509513
0.283741
-0.208906
0.022823
-0.507421
0.509423
0.414562
-0.303766
-0.189312
-0.462847
0.690774
0.266896
0.539433
-0.419217
-0.006623
-0.078299
-0.071549
-0.458477
-0.333993
0.549717
-0.706120
-0.331698
0.356657
-0.352739
-0.378515
0.128693
0.045040
-0.372317
0.187075
0.419194
0.306418
0.643492
0.140642
0.142233
-0.131306
0.483865
0.326503
0.348135
0.499070
0.113713
0.244879
0.042900
-0.303019
0.039240
0.107010
-0.006600
0.473733
0.076727
-0.480460
0.035413
-0.199860
-0.168000
-0.428499
0.648030
-0.549509
0.358402
-0.639936
-0.264752
-0.468440
-0.318009
0.684704
-0.176291
-0.033291
0.445869
-0.053533
-0.256632
0.385572
-0.574703
-0.018035
-0.179195
0.292756
-0.534575
0.073481
-0.004590
-0.008999
0.298664
-0.351084
0.234145
-0.062916
-0.059099
-0.357769
0.188051
-0.043383
0.664071
-0.133890
-0.342791
0.064597
-0.352966
-0.362487
-0.079558
-0.412376
0.036095
0.126971
0.618587
-0.261692
0.597552
-0.388652
0.211685
-0.202644
-0.092075
0.035976
0.390067
0.221230
-0.253499
0.155507
0.249305
0.449992
-0.197350
-0.253071
-0.014868
0.260671
-0.272422
0.443595
-0.194722
-0.033923
-0.171324
0.418384
-0.644471
0.042783
-0.566160
-0.461437
0.148840
-0.566241
0.399850
-0.003319
-0.405949
-0.106697
0.124979
-0.105563
-0.033467
0.015123
-0.202556
0.102152
-0.157040
0.099646
0.160931
-0.079506
-0.381986
-0.328759
-0.491468
0.167642
0.197311
0.254249
-0.619367
0.232809
0.143247
0.244859
-0.018028
0.151175
-0.097110
0.070110
0.292983
-0.121027
0.075077
0.588814
-0.250775
0.656077
-0.245629
0.081717
0.236786
0.040385
-0.194845
-0.431753
-0.301678
0.264504
-0.098067
-0.014141
0.233503
0.246848
0.555848
-0.293759
-0.588473
0.526369
-0.091836
-0.043699
0.165674
-0.428672
0.544185
0.558850
0.115606
0.459171
0.055436
0.376427
-0.296077
-0.226786
-0.602641
-0.018230
0.401425
0.175010
0.345047
-0.104559
0.150592
0.183044
-0.686790
-0.252912
0.202044
0.085586
0.143750
-0.072477
0.184752
-0.182508
0.159357
0.398226
-0.213109
0.349982
0.366615
0.547855
0.682605
0.510186
-0.046967
-0.010922
-0.516734
-0.544921
0.037793
-0.450091
-0.286847
0.581369
0.132984
0.055088
0.448725
-0.434019
0.195301
0.385999
0.283489
0.180403
0.194736
-0.075617
0.196270
-0.268825
0.043102
-0.216719
0.291353
-0.354137
0.483532
-0.005921
0.237344
0.036176
0.065748
-0.316755
0.045564
0.408413
0.091877
0.167991
-0.333278
0.022813
-0.038055
0.473872
0.018087
-0.140545
-0.012856
0.593496
-0.643350
0.326925
0.499171
-0.290516
-0.058163
0.461384
0.377855
0.392138
-0.421101
-0.574799
-0.251676
-0.334332
-0.428436
0.184012
0.021948
0.478807
-0.273499
-0.092753
0.232800
-0.130506
0.085088
-0.137447
0.302487
-0.060605
0.286616
0.682239
-0.020881
-0.089917
-0.255844
0.279473
-0.381686
-0.104463
0.916311
0.426339
-0.061267
-0.064782
0.316115
-0.293608
-0.215894
-0.469251
-0.236084
0.664497
0.721692
0.678933
-0.139463
0.494597
-0.185908
-0.261181
0.205855
0.734931
0.365204
-0.808987
0.508412
-0.126110
0.171627
-0.552476
0.452785
0.683117
-0.128084
0.274982
-0.179606
0.050554
0.460743
-0.120284
0.073023
-0.001528
0.040717
0.529706
