-0.548926
-0.497092
-0.229793
-0.160308
0.203980
0.105756
-0.068464
-0.286848
-0.013095
0.482383
0.272757
-0.612344
-0.474323
-0.019374
-0.565698
0.257027
-0.127179
0.298720
-0.315941
-0.284428
0.512750
-0.293611
0.004472
0.247444
-0.450471
-0.414953
0.270929
-0.132168
0.519979
0.037500
0.612485
-0.061711
-0.763093
-0.036504
0.274620
-0.039339
0.606539
-0.283084
-0.115508
0.154794
-0.236707
-0.474989
0.258670
0.286182
-0.536538
-0.401312
-0.139559
-0.135927
0.056221
0.415678
-0.100583
-0.055861
0.575102
-0.446353
0.306449
0.516925
0.252114
-0.219884
-0.345162
0.117129
-0.129429
-0.363785
0.306147
-0.282197
-0.440206
-0.005068
-0.531516
0.048886
-0.293779
-0.337215
-0.323615
0.090345
0.452375
0.046746
0.417885
0.409789
-0.381333
0.060167
-0.328667
0.243349
-0.182920
-0.414739
-0.395113
0.505146
0.631837
-0.362959
-0.466077
0.290516
-0.152245
0.398310
0.356520
0.393074
0.353816
0.337429
0.186693
-0.515441
0.015582
0.127164
-0.332195
0.402944
-0.488246
0.112759
0.420974
0.217400
-0.156158
-0.310425
0.719233
0.274208
0.275686
-0.381558
0.410296
0.194180
-0.576692
-0.706329
-0.314968
-0.413087
0.224697
0.037904
0.106881
-0.602981
0.492144
-0.176468
-0.072601
-0.609400
-0.219094
0.647259
-0.226954
0.132871
0.155795
-0.321857
-0.065453
0.406644
0.695353
-0.480576
0.182537
-0.521571
-0.051413
-0.391850
-0.348878
-0.387355
-0.648542
-0.142855
-0.581698
0.211576
-0.373514
-0.048890
0.101756
-0.389155
0.423600
0.163694
-0.053827
-0.245663
0.233186
0.143878
-0.030744
-0.433466
-0.221773
0.157644
-0.103867
-0.106251
0.170296
0.057276
0.609359
-0.438061
0.372639
-0.337854
0.307998
-0.261365
0.147958
0.150821
-0.158231
-0.172890
-0.083793
0.645134
0.095288
0.076147
0.212919
-0.046339
0.148953
0.428071
-0.176832
-0.102244
0.072944
0.638560
-0.168534
-0.384506
-0.163346
-0.001435
-0.149014
-0.450497
0.377766
0.526248
-0.521408
0.231580
-0.259061
-0.371212
0.070283
-0.568110
-0.018440
-0.254556
-0.231727
0.311967
0.770011
0.297982
-0.250008
-0.229045
-0.387342
0.512081
-0.374028
-0.011422
0.651849
-0.068626
0.202052
0.227496
0.259280
0.525513
-0.226689
-0.535031
0.440754
0.577562
-0.268020
-0.728734
0.508883
-0.507468
0.325621
0.231468
0.597604
-0.129424
-0.105531
0.082182
-0.446369
-0.478889
-0.500637
-0.043964
-0.342452
0.333034
-0.055477
-0.391251
-0.612784
-0.594088
0.346857
-0.445098
-0.325020
0.129472
-0.229642
-0.036498
0.330129
0.152427
-0.403254
-0.321193
0.408178
-0.167408
-0.613850
0.211262
-0.291858
-0.646022
0.120219
0.320408
-0.556786
0.473612
0.267497
-0.404075
-0.063318
-0.104869
0.727950
0.184357
-0.514492
-0.424967
0.057372
0.407139
-0.382485
-0.048208
0.419134
-0.144583
0.445834
0.216969
0.116560
-0.162825
0.070483
-0.180431
0.348522
-0.090714
-0.191954
0.341070
-0.177065
0.566798
0.280082
-0.158408
-0.442126
-0.445898
0.373119
-0.326875
-0.391462
0.290701
-0.537552
-0.324114
0.352476
0.055865
-0.379892
-0.504492
0.232586
-0.114575
-0.243420
-0.381278
-0.076492
-0.098067
-0.228115
-0.165211
-0.244273
0.294957
0.509882
-0.592326
-0.553519
-0.230015
0.021365
-0.638619
-0.207606
0.094022
0.147179
-0.004931
0.168489
-0.256989
-0.139430
-0.062461
0.014167
-0.281304
-0.331193
-0.616581
0.098070
0.005739
0.330393
-0.270745
0.605843
0.285638
0.390264
0.275892
-0.528566
0.046690
-0.493014
0.085884
-0.001051
-0.126138
-0.108106
-0.289466
-0.483427
0.173708
0.048649
-0.441146
0.111697
0.390199
-0.490243
-0.300303
-0.405954
-0.425091
0.304299
0.472477
-0.482988
0.412558
0.425069
0.342430
-0.393826
0.103306
-0.271923
-0.304219
0.109716
-0.437395
0.213755
-0.182924
0.572538
0.040140
0.050521
0.215904
0.114837
-0.500300
0.307836
-0.262154
-0.363158
-0.258048
0.546518
0.284568
-0.246793
-0.237293
-0.202341
-0.129792
-0.380610
-0.123298
0.387635
-0.240045
-0.183280
0.435549
0.232352
0.095421
-0.282074
0.694558
0.115429
-0.453353
0.205713
-0.007414
0.171698
-0.598602
0.640686
0.047718
0.065487
0.275145
-0.370004
0.487244
0.349323
-0.247402
-0.426555
0.395094
0.095820
-0.075424
-0.297131
0.018635
0.387552
0.208639
0.044799
-0.278277
-0.327596
-0.103637
-0.152535
0.370137
-0.320988
-0.371236
0.141776
0.031646
-0.453134
-0.513106
-0.075364
-0.179943
0.321307
-0.343902
-0.470376
-0.786711
0.161213
-0.657823
-0.255419
0.054572
-0.208632
-0.399955
0.059476
0.488631
-0.346931
0.570787
0.617362
-0.003707
0.035250
-0.545580
0.277059
-0.357705
0.210822
0.035259
-0.095682
0.381525
-0.243715
0.055632
-0.132836
0.073305
0.165120
0.378186
0.351508
-0.298426
0.256975
-0.334520
-0.556293
0.256905
-0.194445
-0.253679
0.117358
0.216045
0.246308
0.329970
-0.141498
0.356141
-0.448296
0.063209
0.509522
0.149322
0.074081
-0.062683
0.266978
0.109759
-0.200640
0.413331
0.363917
0.260689
-0.324152
0.027315
0.407316
0.451484
-0.019867
-0.048262
-0.546705
-0.149666
0.081806
-0.100042
0.414874
-0.061360
0.175831
0.406128
-0.482618
-0.203574
-0.472366
-0.188552
-0.414921
0.133900
0.274728
-0.377655
0.282975
0.164789
-0.445056
-0.164091
-0.706824
0.395301
-0.236883
-0.455876
-0.571197
0.058078
-0.517117
-0.475217
-0.059547
0.135416
-0.321984
-0.061319
-0.425962
-0.078856
-0.166156
0.611655
-0.180691
0.160808
0.293427
-0.141032
-0.453336
-0.164548
-0.059080
-0.013616
0.332419
-0.358028
0.106589
-0.016527
0.028231
0.482511
-0.485368
-0.031054
-0.330716
-0.261391
0.239350
-0.047793
0.007651
-0.409708
0.067567
0.340768
0.410259
-0.133129
0.028729
-0.319830
0.327490
0.670060
-0.402119
-0.409601
0.409011
-0.275535
-0.193992
0.018554
0.550767
-0.472518
-0.487742
0.076425
-0.552193
-0.635023
-0.209852
0.560389
-0.122091
-0.287636
0.315922
-0.047559
0.498470
0.290875
0.486446
-0.153228
0.148917
-0.031827
0.580661
0.023237
-0.235952
0.258658
0.451462
-0.232428
-0.140857
0.301589
0.146929
-0.085591
-0.389183
-0.542930
0.114182
-0.373608
-0.562265
-0.393971
-0.068298
0.157651
0.337558
-0.509274
-0.356438
0.436157
0.020270
-0.342880
-0.072362
0.008800
-0.016473
-0.604064
0.218120
0.453803
-0.202369
0.994602
0.169426
-0.184692
-0.186886
-0.217522
0.157056
0.334881
0.372300
0.131707
0.111454
-0.073764
0.517079
0.046639
0.545775
0.358753
0.334633
0.202930
-0.353284
0.565185
-0.457859
0.515203
-0.268539
-0.130973
-0.504351
-0.013387
-0.298416
-0.319160
0.395542
0.231879
0.696099
0.546558
-0.668571
0.526705
-0.041162
-0.193905
0.477020
0.473283
0.184369
-0.163281
0.515178
-0.189099
0.404203
0.279508
0.126853
-0.435714
-0.580910
0.034513
0.595297
-0.586083
-0.303741
0.309797
0.132104
-0.265642
-0.326206
-0.135851
0.083559
0.113123
0.616668
-0.412795
0.411261
0.107709
-0.037271
0.248850
-0.159614
0.424199
-0.013628
0.172213
-0.147224
0.425656
-0.654370
-0.452123
-0.182061
0.289543
-0.054146
-0.548687
0.033268
0.124290
0.288369
-0.137845
0.296052
0.188321
-0.055352
-0.615863
0.408683
0.468396
-0.148151
0.162714
-0.191468
-0.365091
-0.178699
-0.337148
0.412997
-0.019201
-0.144112
-0.114976
0.330928
0.163913
0.352550
0.621140
0.417713
-0.747483
-0.488252
0.783162
0.160998
0.179828
0.659437
0.292609
-0.267814
-0.791294
-0.403252
0.053158
0.522208
0.450171
-0.293174
-0.283236
0.012345
0.349919
-0.085600
0.083267
0.448357
-0.270981
-0.256665
0.185727
0.332037
-0.505327
0.281228
-0.273390
-0.220825
0.480381
-0.137150
0.490562
-0.045151
0.604101
-0.052172
0.259347
-0.458447
-0.379768
-0.483877
0.290123
0.447614
0.165708
-0.366462
0.140853
-0.465525
-0.322289
-0.470180
-0.254494
-0.086822
0.130771
-0.098060
0.251257
-0.260646
-0.005728
0.537030
0.250155
0.412050
-0.262476
-0.319608
0.590756
-0.100828
0.278198
-0.379786
0.028833
0.331726
0.249263
0.408498
0.000437
0.427798
0.185753
0.207723
0.305361
0.072026
-0.369546
0.050792
0.589763
0.257290
0.527831
0.540948
0.220859
-0.256646
0.353914
-0.729934
-0.008546
0.455742
-0.035188
0.147995
-0.343145
-0.065579
0.153684
0.694677
0.304777
-0.112769
0.185446
0.519183
0.256600
-0.015909
0.052906
-0.510946
0.105301
0.303798
0.243729
0.096492
0.217221
