0.296780
-0.221715
-0.066459
0.139157
-0.003522
0.598920
0.261059
-0.178265
0.025666
0.482383
0.086870
0.061561
0.015037
-0.414154
-0.537676
0.516204
0.326907
0.531821
0.201802
-0.479989
0.530768
-0.327937
-0.181187
0.332328
0.160880
-0.235747
0.704722
-0.186157
-0.278189
-0.245149
0.342697
-0.744890
0.413582
0.287068
-0.178130
0.030896
0.198070
0.296192
0.012858
0.140562
-0.180788
0.446895
0.168865
-0.197165
-0.660248
-0.060044
0.146446
-0.648724
0.546928
0.327683
-0.465223
-0.086125
0.624649
-0.623128
0.208091
-0.303273
-0.417547
0.198089
-0.278649
-0.416416
0.049669
-0.277726
0.270480
0.520049
0.002625
0.307768
0.333605
-0.301944
-0.146896
-0.281886
0.033524
-0.118164
0.328848
0.388038
-0.122394
0.115793
-0.054590
0.203834
0.140467
-0.101802
-0.504946
0.101196
-0.425820
-0.056540
-0.298914
0.003196
0.215010
0.565724
-0.484728
0.045139
-0.325432
-0.386177
0.369342
0.422112
-0.598154
-0.252231
-0.452282
-0.732638
-0.487829
0.369912
-0.313952
-0.377279
-0.016286
0.270943
-0.302170
-0.448039
-0.262782
0.325919
0.413397
0.274646
0.253073
-0.657547
0.330708
-0.306615
-0.239949
-0.187274
-0.021279
0.448153
0.176047
0.454845
0.336251
0.474613
-0.592376
0.298625
0.281476
-0.382929
-0.524034
-0.294710
-0.017009
0.258733
0.118307
0.270812
-0.410332
-0.132522
-0.437336
-0.304442
-0.115053
-0.063899
0.387644
0.277773
0.052014
-0.395655
-0.384718
-0.190392
0.752251
-0.030884
0.546852
0.049376
-0.109077
-0.233333
-0.065974
-0.546059
-0.131328
-0.126176
0.524995
-0.403732
-0.334523
0.174521
-0.314551
0.392713
-0.482173
0.362698
0.187326
0.450226
-0.111121
0.359774
0.008474
-0.043591
-0.870216
0.206990
-0.121240
0.040707
-0.448420
0.557513
-0.710108
-0.621406
-0.111804
0.050768
0.357749
0.118341
-0.010515
-0.732015
0.254547
-0.469746
-0.467860
0.311324
0.032823
0.155111
-0.057212
0.223597
0.233208
-0.207710
-0.251188
-0.499661
0.389471
-0.513783
-0.304929
0.005656
0.414295
-0.231544
0.415194
-0.567061
-0.290698
-0.145315
-0.496917
-0.266341
0.131666
0.604558
-0.244165
0.616773
0.140882
0.241272
0.617596
-0.177260
0.037437
0.175981
0.340027
-0.268158
0.010241
0.056051
-0.690556
-0.057834
0.387468
-0.598723
0.368489
0.333182
-0.203793
-0.325359
0.258468
0.077322
0.148063
0.421960
0.386955
-0.246352
0.555016
0.383980
0.399901
-0.300931
-0.013460
-0.242874
0.121019
0.194613
-0.600555
0.188558
-0.686247
0.049611
-0.718807
-0.461584
0.123792
-0.208388
0.791169
-0.454920
0.663100
-0.588387
0.330709
0.187576
-0.374180
0.124356
0.037541
0.240155
0.502985
0.377291
0.478806
-0.410600
-0.013329
0.098672
-0.256492
0.320020
-0.271601
0.112518
0.507200
-0.286152
-0.379528
-0.192993
0.598494
-0.772740
0.123050
0.397421
-0.300777
-0.156822
0.029435
0.078504
-0.521754
-0.148012
0.364645
-0.021617
-0.728371
-0.350349
-0.385761
0.209251
-0.081366
-0.427930
0.354775
-0.340484
0.460885
-0.141036
0.443325
-0.009579
-0.021171
0.369837
0.187341
-0.133735
0.109579
0.073105
0.051145
0.078031
-0.170879
0.029493
-0.546854
0.431185
-0.069819
-0.003382
-0.152440
-0.548922
-0.503177
-0.134862
-0.050739
0.129676
0.392542
-0.031004
0.177615
0.595899
-0.191222
-0.542915
-0.483328
-0.139885
0.112229
-0.192451
-0.072977
0.280148
0.201475
-0.545634
-0.118805
-0.228621
-0.553606
-0.654200
0.262309
0.600341
0.301459
0.168708
-0.548875
0.550440
0.005800
0.346627
0.328116
-0.506323
0.519179
0.241165
-0.051386
0.254955
0.116669
-0.674543
-0.488608
-0.220347
-0.081209
0.113758
0.033210
0.565285
0.401279
-0.044116
-0.034011
0.220114
-0.106500
-0.236392
0.239522
-0.375759
-0.178581
-0.472418
-0.011953
-0.194410
0.366368
0.223633
0.176736
-0.572294
-0.202866
0.018072
-0.358885
-0.085910
-0.112613
0.175978
0.071719
0.079482
-0.067848
-0.400852
-0.061322
0.130096
0.115816
0.114538
0.042382
0.434587
0.333318
-0.035526
0.163935
0.433977
0.429449
-0.109931
-0.148606
-0.092112
0.055713
-0.023550
-0.270395
0.339851
-0.163121
0.210708
-0.461936
0.047187
0.108180
-0.100190
-0.096255
-0.374493
-0.161569
-0.289006
-0.282354
0.422913
-0.235991
0.152793
0.203944
0.278642
0.525097
0.323268
0.421309
0.514143
0.208100
-0.192890
0.147023
-0.025160
-0.195417
-0.406816
-0.222094
0.149276
0.239516
0.373019
-0.432795
-0.000003
0.147955
-0.307068
0.465981
0.401392
0.139119
0.578715
0.004927
0.414484
-0.287182
0.487224
0.524170
-0.197028
0.054007
-0.627277
0.455923
-0.269070
-0.389715
-0.590233
0.379513
-0.456746
0.012609
-0.174165
0.105229
-0.106831
0.382992
-0.126495
0.350184
-0.335060
0.318590
-0.281397
-0.207476
-0.463710
0.325919
-0.249881
-0.119994
-0.392936
-0.487720
0.364668
0.243928
-0.154988
-0.122726
0.135875
-0.136432
0.728374
-0.601953
0.386269
-0.244253
0.096392
-0.571366
0.165051
0.410228
-0.339197
-0.116387
-0.555349
0.153162
0.061955
0.244001
-0.344987
-0.083044
0.014778
0.185950
0.443348
0.394774
0.042773
-0.309841
-0.405866
-0.409991
-0.208720
0.115728
0.547218
-0.625910
-0.219327
-0.519152
0.196883
0.056113
0.174528
0.276871
0.153725
0.101692
-0.450497
-0.301785
-0.477230
-0.571010
-0.499731
0.132123
-0.475217
-0.099897
0.176181
0.211390
0.303106
0.312080
0.206488
0.388728
0.259539
0.123142
-0.288559
-0.042777
-0.458599
-0.070019
-0.095579
0.005555
-0.333753
0.250505
-0.439595
0.016685
-0.089836
0.171606
0.481353
-0.191355
-0.478590
-0.389453
0.305909
-0.298981
0.469406
-0.363208
-0.345447
0.273749
0.047938
0.224230
0.591065
0.121615
0.422647
-0.351300
0.369055
-0.388044
-0.432757
0.437405
0.391706
0.184889
0.239189
-0.039569
-0.416140
0.000101
-0.159655
-0.289565
0.568588
-0.367273
0.207991
0.412680
-0.228654
0.735338
0.403563
-0.021281
-0.453448
0.208249
0.136810
0.331177
0.001364
-0.289957
0.304046
-0.306480
-0.310663
-0.487647
-0.480608
-0.058133
0.379759
0.289866
-0.096008
0.521195
0.434562
0.211685
-0.858780
0.013015
0.487511
0.285635
-0.238122
0.238438
0.488273
-0.002236
0.366735
-0.238679
0.590059
-0.735693
-0.019656
-0.378806
-0.444223
0.109161
0.381353
-0.179727
0.099843
-0.373451
-0.121377
0.591860
0.009916
-0.068211
0.265039
-0.247959
-0.402755
-0.080032
0.051878
-0.420507
-0.372188
0.444142
0.077246
-0.163812
-0.261627
-0.165366
0.401062
0.227749
-0.334775
-0.458314
-0.322915
-0.382900
0.265452
-0.025985
0.010998
-0.422140
-0.145026
-0.118766
-0.433622
0.095256
-0.305607
-0.160113
0.185183
0.264758
-0.317246
0.199844
-0.047607
-0.075831
-0.561577
-0.269107
-0.361609
0.246465
0.294181
0.324826
0.057359
0.573252
0.223043
-0.374753
0.126305
0.308935
0.222644
0.649623
0.116453
0.164346
0.274905
-0.320469
-0.703871
0.305957
-0.406723
0.340715
-0.065508
-0.068037
-0.329051
-0.078280
0.065047
-0.368623
0.633422
0.257292
-0.419596
-0.371261
0.064034
0.622899
-0.500940
0.194857
-0.146234
0.070993
0.146655
-0.107013
0.090200
-0.087140
-0.122533
-0.605736
-0.093312
-0.268584
0.214950
0.009302
0.018519
-0.089812
-0.069093
0.162308
-0.053934
-0.956825
-0.451168
0.607328
0.305775
0.283764
-0.295821
0.163510
0.454639
-0.195076
0.014681
0.506908
-0.326629
0.150777
-0.462641
-0.502335
-0.347131
-0.448334
0.039083
-0.456454
-0.189868
-0.171697
0.178392
-0.211547
0.030910
-0.049605
-0.244425
0.167157
0.309453
-0.602939
-0.429861
-0.313679
-0.221940
-0.398660
-0.308198
0.429701
-0.148473
0.111175
0.131407
0.060841
0.028345
0.322956
-0.041409
-0.262463
0.555926
-0.132991
0.038352
0.472701
0.188463
0.363094
0.091505
-0.497249
-0.227419
-0.163765
-0.544002
0.018106
-0.532539
0.228023
-0.377990
0.141009
-0.092274
0.484694
-0.255025
-0.453008
0.006308
0.031695
0.091757
0.111928
0.039866
-0.241203
0.242732
-0.336774
0.207237
0.035533
-0.569328
0.471088
0.405837
0.619152
0.137781
-0.540103
0.616813
-0.238113
0.137282
-0.257485
0.310516
-0.077379
-0.533194
0.102239
0.732451
-0.290803
-0.257662
0.040300
0.005057
0.159993
0.459947
0.314004
-0.087687
0.555173
-0.270778
0.239976
-0.000367
-0.490733
-0.047862
0.436633
0.607031
0.018009
0.303039
-0.199338
-0.042320
-0.660057
0.287156
