0.078729
-0.256454
-0.110297
0.207463
-0.352716
-0.289654
-0.075786
-0.110941
-0.112975
-0.180573
-0.434227
-0.082892
-0.100012
0.008588
0.342417
-0.069439
0.024939
-0.399051
-0.047452
-0.133087
-0.302664
-0.209033
-0.043988
0.410511
-0.004780
0.423188
-0.179085
-0.351716
-0.169561
0.413715
0.095803
-0.590523
0.259579
-0.150608
0.034893
-0.224470
0.210982
0.103739
-0.468108
0.057277
0.054344
0.184708
-0.044715
-0.190065
0.695860
0.008743
0.300260
0.376909
0.295553
0.719776
-0.198080
0.000576
0.075201
0.286770
-0.052603
0.059075
-0.218494
0.003061
0.412047
0.117129
0.537533
0.484216
-0.275221
-0.352378
0.499928
0.226294
0.456773
0.044667
-0.323808
-0.344470
-0.229729
0.537168
0.536029
-0.308776
0.340407
0.008747
0.226982
-0.316134
0.371252
-0.379374
0.171043
-0.366376
-0.263898
-0.536232
-0.103295
-0.113005
0.047540
0.429072
-0.070895
-0.045635
-0.193333
-0.071900
0.313371
-0.046904
-0.354212
0.008045
0.220648
-0.045222
-0.507306
-0.504286
-0.027152
-0.132071
-0.098589
0.074753
-0.068860
-0.516648
-0.154666
0.315128
-0.389342
-0.445024
-0.201423
-0.843716
-0.063606
-0.091276
0.254211
0.112440
0.173839
-0.271751
-0.216866
-0.303367
-0.368092
0.142028
0.070692
-0.343525
-0.350046
-0.368050
0.144611
-0.271428
0.644626
0.078209
-0.196783
-0.433232
-0.040698
0.316128
-0.024558
-0.370247
-0.030088
-0.543154
0.555491
-0.169550
0.323714
-0.481185
0.140694
-0.226270
-0.141072
0.099848
-0.053313
0.137746
-0.175238
0.231128
0.274907
-0.407427
0.546020
0.004099
0.079093
0.588639
0.124521
0.168350
-0.004238
0.412167
0.041433
0.199204
-0.096181
-0.104454
-0.594188
0.522531
-0.386756
-0.156519
-0.045694
-0.512929
-0.249916
0.347439
-0.225444
-0.277317
0.209304
-0.266226
0.065779
0.475461
-0.232498
-0.160644
-0.167315
-0.153305
0.195164
-0.011248
0.177506
0.152297
0.131566
0.183919
0.351620
-0.163599
0.499343
0.289000
-0.126966
-0.545045
0.283801
0.116608
-0.576468
-0.608408
-0.281643
-0.447994
0.092895
-0.471822
-0.635856
0.162146
0.367181
0.263372
0.692833
-0.327462
0.146743
0.590651
0.399265
0.290093
-0.147602
0.036738
-0.453779
-0.239845
0.128498
0.078754
-0.132678
0.008378
0.341500
-0.086957
-0.496593
-0.005282
0.268553
0.322486
-0.461727
-0.281544
0.243139
-0.020994
-0.273067
0.475947
0.366148
0.379082
0.448275
0.271006
-0.171182
0.071634
-0.671653
0.521259
-0.499445
0.522243
-0.575066
-0.056756
0.008696
0.486898
-0.034629
-0.241169
0.041624
-0.547413
0.527486
0.385446
0.333467
0.153263
0.253691
0.032503
0.105750
-0.007958
0.221338
-0.290762
0.409185
-0.433656
-0.292826
-0.538539
-0.125386
0.029642
-0.376409
0.514344
-0.109960
-0.221277
0.309854
0.466482
0.029282
-0.325342
0.414842
0.552037
0.195347
0.333748
0.487325
0.350608
0.371434
0.417476
-0.423565
0.289834
0.093020
0.494785
0.218279
-0.226080
0.401348
-0.489905
-0.523193
0.143649
0.158755
-0.351724
0.343124
-0.247649
-0.307830
-0.255747
0.241198
-0.266559
-0.327784
0.243650
0.191804
0.353678
-0.575611
-0.246935
-0.335801
0.060056
0.277179
-0.367440
-0.148505
-0.453944
-0.243630
0.434218
-0.018590
-0.232300
-0.431403
0.064359
0.552273
-0.335673
-0.553703
0.509627
-0.219356
0.432832
-0.466584
0.292296
0.123982
-0.459217
-0.408002
0.057703
-0.043169
-0.330020
0.077364
-0.577432
0.063960
0.275892
0.409620
0.049548
-0.092255
0.122070
-0.710453
-0.455977
0.381412
-0.273634
-0.112880
-0.435424
0.196114
-0.327609
-0.329758
-0.615848
-0.219849
0.667456
0.506690
-0.036708
-0.149284
0.149980
0.139743
-0.326343
0.058627
0.021191
-0.393826
0.592168
-0.505699
0.119247
0.280270
-0.281538
-0.290395
0.311767
0.375811
-0.455690
-0.554830
-0.334361
-0.023716
0.520459
0.558563
0.073691
-0.474193
-0.110336
-0.060993
0.432546
0.033266
0.383161
-0.118691
-0.131065
-0.497223
-0.014388
0.210022
0.296428
0.039436
0.115525
0.446112
0.078085
-0.040236
-0.312254
0.475728
-0.455836
0.072792
0.038271
-0.774560
-0.090363
0.039157
-0.135454
0.105367
-0.037420
-0.505098
-0.720508
-0.147257
-0.404958
-0.420357
-0.420654
-0.282088
0.079466
-0.381833
-0.054514
-0.236761
-0.278213
0.060131
0.458910
0.000114
0.272020
-0.007399
0.565759
0.302862
-0.031601
-0.270572
-0.034516
0.178874
0.173080
0.429726
0.173614
-0.163958
-0.173374
-0.425164
-0.416646
-0.302641
-0.217835
-0.142575
-0.159198
-0.323199
0.305281
0.034294
0.365733
0.369227
0.507260
0.142486
-0.126412
0.013048
-0.111889
0.247545
0.556145
0.227511
-0.200868
0.282892
0.249477
0.170808
-0.037935
-0.104459
-0.483222
-0.653149
-0.528357
-0.362509
-0.487435
0.318562
0.399141
0.040090
0.064782
0.405334
-0.168255
0.223713
-0.483786
-0.256565
-0.144415
0.048466
-0.316254
0.493815
0.161593
-0.725625
-0.552634
-0.137889
0.008366
-0.556064
0.582791
0.395660
0.129482
-0.347059
-0.491669
0.121117
-0.100688
0.256509
-0.081925
0.150381
0.201222
-0.223223
0.435370
-0.316973
-0.275526
-0.038882
-0.462300
-0.254257
-0.302064
-0.097787
-0.367659
-0.302797
0.369577
0.726666
-0.681904
0.268235
-0.345288
-0.346859
0.133451
-0.256466
0.311481
-0.310492
0.074297
-0.144411
0.477801
-0.443976
-0.205997
0.175233
-0.167602
0.151000
0.453525
-0.251501
-0.237322
0.020375
-0.339185
0.418284
0.107692
0.196325
-0.725537
-0.337251
0.485357
0.465109
0.033920
0.316422
-0.252247
0.416558
0.096095
-0.355535
-0.300485
-0.139693
0.217735
0.487445
0.278172
-0.422494
-0.147412
-0.262849
0.134708
-0.313681
-0.054923
-0.026858
-0.521470
0.498348
0.376387
0.023580
0.187527
0.168024
-0.420992
0.024344
-0.340569
-0.155117
-0.251269
0.045754
0.542092
0.400511
0.253910
-0.536375
-0.372399
0.121200
-0.378987
-0.266915
-0.021249
-0.294266
-0.144460
0.288529
-0.290724
0.030085
-0.188232
-0.401293
-0.549271
-0.176107
-0.095524
0.020734
-0.231250
-0.407310
0.240293
-0.063724
0.245717
-0.059411
0.074657
-0.001369
-0.673636
-0.069892
-0.023327
-0.182780
-0.151743
0.107272
-0.470771
-0.211629
-0.335022
-0.249417
0.357573
-0.302524
0.240884
0.121911
0.022466
0.311050
-0.388713
0.040624
0.336707
-0.517662
0.016268
-0.315776
0.489376
0.158802
-0.549332
-0.311165
0.224131
-0.041444
0.317007
0.516944
-0.350355
-0.185556
0.112804
0.183713
0.287238
0.368676
0.615783
-0.383619
0.049411
0.422328
-0.169534
-0.328320
0.580687
-0.594409
0.263060
-0.046971
0.268179
-0.501182
0.248672
0.572874
0.337729
0.195211
-0.158329
0.432500
0.192320
-0.015805
0.141636
0.013270
0.048956
0.292153
-0.000787
-0.222364
-0.572938
-0.293486
-0.469652
-0.460119
0.236798
0.281798
-0.149223
-0.568007
-0.494679
0.401051
0.179399
-0.152217
0.212095
0.756394
-0.024829
-0.169964
0.136344
0.296044
-0.582510
-0.429963
-0.424226
0.405551
0.531564
-0.060433
-0.046454
0.117488
-0.289503
-0.225489
0.265109
-0.646626
0.240364
-0.405097
0.333171
-0.254795
-0.002394
0.426556
-0.384205
-0.130998
-0.298445
0.084528
-0.545284
0.231544
0.434691
-0.114782
-0.042587
0.013258
-0.063919
0.621793
-0.303933
0.466190
0.275477
0.332393
-0.089051
-0.431276
0.460566
0.038589
0.274832
-0.174539
0.484825
0.386257
-0.433623
0.015708
-0.223131
0.663752
-0.136565
0.224839
-0.445682
-0.323145
-0.515657
-0.144358
-0.426144
0.014706
-0.378027
0.044346
-0.497643
-0.096725
0.060969
-0.560545
-0.235292
0.318490
0.071018
-0.048282
0.002341
0.359851
0.267292
0.269533
-0.273390
-0.105829
-0.031243
-0.339219
-0.130061
0.158796
0.540279
-0.010760
0.063248
0.346585
-0.420260
0.114659
-0.080989
-0.363672
0.481902
-0.581102
-0.022098
0.113308
0.039339
0.636472
-0.333873
-0.168738
-0.523126
-0.112085
-0.569162
-0.027719
0.008322
0.017141
0.391640
-0.100488
-0.123858
0.490434
-0.276576
-0.358010
-0.355355
-0.199523
-0.271745
0.577042
-0.771306
-0.340002
-0.054306
0.447642
-0.425891
0.066523
0.453797
-0.418423
0.654844
-0.643257
0.589763
-0.134508
-0.126203
-0.042386
0.119804
-0.237862
0.156347
0.147954
-0.609461
0.216441
0.522312
0.030901
-0.527737
0.005508
0.231827
-0.392811
-0.172641
-0.333930
0.046888
-0.702339
-0.538407
0.546103
-0.343856
0.419403
0.417474
0.607218
0.320475
0.560914
0.502900
