0.060311
-0.142374
-0.490248
-0.201439
-0.075017
-0.222490
-0.088237
0.530882
0.337310
0.247823
0.033227
0.376634
-0.448072
-0.228118
-0.013336
-0.154476
0.370895
-0.096445
-0.252418
0.262586
-0.344355
-0.439978
0.320532
-0.223681
0.250401
0.016292
0.737370
0.526403
-0.204006
0.020057
0.687329
0.144611
-0.358172
-0.472395
-0.038317
-0.013969
0.251203
0.303268
0.518729
-0.611975
0.183303
-0.081946
-0.496011
0.188675
-0.443688
-0.102940
0.021517
-0.302790
0.292851
0.489587
-0.243104
-0.183094
0.046378
0.127585
-0.107510
-0.371313
0.467057
-0.471901
0.065240
-0.433253
0.086953
-0.399131
0.487639
0.443562
-0.416603
0.257079
-0.543015
-0.054448
0.212196
-0.194625
0.220648
-0.220565
0.108523
-0.381507
0.289535
0.241604
-0.019867
0.060069
-0.211746
-0.274283
-0.217485
-0.441936
0.009617
0.524473
0.493987
-0.359803
0.412838
0.449757
-0.095248
-0.128608
-0.357351
-0.172916
0.160507
0.261811
0.189346
0.490088
-0.534424
0.698088
0.493650
-0.265967
-0.267375
0.095743
-0.157296
-0.243165
0.528099
0.133032
-0.198762
0.309881
-0.094684
-0.263835
-0.096223
0.440320
-0.474653
-0.032189
0.106623
-0.255398
0.450928
-0.145506
0.406381
-0.030904
-0.463597
-0.432282
-0.256899
-0.309100
-0.490896
-0.024120
0.133282
-0.016464
0.101238
0.287633
-0.252152
-0.098374
-0.136560
-0.202153
0.274787
-0.276606
0.063043
-0.385633
0.513096
0.030945
-0.348839
-0.096158
-0.480420
0.131559
0.004792
-0.161428
-0.035027
-0.182929
0.383385
-0.220211
0.143594
-0.341180
0.477345
-0.239733
-0.507556
0.408364
-0.000531
-0.458548
0.167932
-0.107802
0.135486
-0.000384
0.633858
-0.261654
0.129101
-0.171676
-0.308243
0.496364
0.330971
0.313811
-0.455505
0.455026
-0.059184
-0.206119
0.318487
-0.362250
0.477386
0.101047
-0.757023
0.071761
0.530602
0.597543
-0.330847
0.382244
0.080962
-0.146183
0.142352
-0.132509
0.489926
0.094651
-0.188000
-0.794678
-0.170561
-0.258432
0.266596
-0.339832
0.438071
-0.561873
0.149094
0.407979
-0.029817
-0.514923
-0.221421
0.224840
0.671346
0.383619
-0.276625
-0.241996
-0.215934
0.357663
0.649393
-0.210487
-0.119409
0.473044
0.441698
-0.506792
0.350659
-0.383485
0.054035
-0.493625
0.299883
0.338991
0.226864
0.122950
-0.488722
-0.016887
0.697227
-0.052149
0.480979
-0.279101
-0.027053
-0.046828
0.233705
0.362393
-0.417113
-0.067826
0.043761
-0.267704
-0.239174
-0.289425
0.014689
0.114838
0.207092
-0.168399
-0.303177
0.116898
-0.046323
-0.298516
-0.403590
0.440957
0.400746
0.379692
0.086066
0.321757
0.217208
-0.535256
0.307797
0.454830
0.141793
-0.371748
0.366779
-0.622297
-0.172840
-0.368115
0.631824
0.326855
-0.261777
0.566281
0.555633
0.323726
-0.086850
-0.416823
-0.277083
-0.537168
-0.440192
0.300163
0.402696
0.114353
0.050075
-0.085258
0.379618
0.192747
0.576964
0.289597
-0.453894
0.302143
-0.351819
-0.569894
0.249404
-0.094937
0.094480
-0.328423
0.164084
-0.010319
0.432232
-0.060704
-0.086559
-0.400709
-0.286303
-0.117116
0.109946
-0.537265
-0.174671
0.245682
-0.175844
-0.108944
-0.270382
0.346819
0.110044
-0.317981
-0.211508
-0.070926
-0.391958
0.014021
-0.088898
-0.299401
-0.563190
-0.034336
0.129899
0.260864
0.283965
0.407903
0.488834
-0.437950
0.346953
0.655609
-0.249184
-0.117324
0.218365
0.163441
0.272469
0.407979
0.320727
-0.010581
-0.162481
0.037460
-0.246814
-0.131876
0.121417
0.067497
0.267660
0.543640
-0.192647
0.091448
-0.487298
-0.723036
-0.006194
-0.199636
0.059292
-0.513570
-0.091025
-0.385185
-0.375696
-0.151190
0.081654
0.135978
-0.218358
0.268309
0.560000
-0.044452
-0.190832
0.308109
-0.506369
-0.455636
0.501294
-0.755927
-0.218211
-0.169106
0.105908
-0.282311
0.112957
-0.517616
-0.333595
-0.455286
0.124506
-0.065710
0.197684
0.216554
0.396937
-0.163729
-0.036042
-0.067992
0.031201
0.387280
0.032551
0.179915
-0.235880
-0.257776
-0.287980
0.618181
0.047772
-0.039418
-0.469741
0.446706
0.395062
-0.477339
0.139494
-0.138482
0.511122
-0.390325
-0.274428
-0.425337
-0.039124
0.258454
0.532737
-0.585377
0.135401
-0.216518
0.239837
-0.255754
0.389791
0.264951
-0.242317
-0.452581
0.165075
-0.017001
-0.159792
0.150093
-0.323321
-0.007790
0.032864
-0.187322
-0.171735
0.280948
0.162563
-0.070430
0.462947
-0.514410
0.019471
-0.152610
0.240939
-0.245429
0.012406
-0.390530
-0.293281
-0.395734
0.017146
-0.133816
-0.013946
-0.727348
-0.432809
0.267759
-0.137080
0.736128
0.281282
-0.121052
0.325682
-0.632771
0.229240
0.310240
0.650732
0.177989
0.191144
-0.043895
-0.130651
0.424942
-0.469046
0.162857
0.006748
-0.444971
0.536347
0.214527
-0.127895
0.281545
-0.482141
-0.127126
0.044594
0.033137
0.018990
-0.463668
0.164929
-0.356801
-0.456881
-0.274592
-0.473387
-0.325527
0.249053
0.403960
-0.023782
0.033291
0.137573
-0.020972
0.053577
0.190048
-0.129439
0.097714
0.333636
-0.152420
-0.573802
0.165465
-0.550997
-0.322460
0.463514
-0.641465
0.731602
-0.245119
0.295594
0.167591
-0.175998
-0.068982
0.287280
0.268703
-0.110355
-0.246490
-0.523120
-0.251691
-0.646946
-0.431972
-0.277720
0.346298
0.715185
0.298444
-0.639756
0.400073
0.797847
-0.156885
0.405319
-0.626115
0.553396
0.215628
0.363210
0.326092
0.647459
-0.305357
0.288818
0.208384
0.103743
-0.371594
0.625038
0.126627
0.161676
0.121566
-0.055993
-0.146527
0.300837
0.308070
-0.317434
-0.052559
0.035163
-0.193387
-0.533751
0.412510
-0.020926
0.439573
-0.267880
-0.051419
-0.394584
-0.130840
0.307259
-0.430262
0.469392
-0.639271
-0.478209
-0.335291
0.662806
-0.303957
-0.295889
-0.456867
-0.080307
0.034495
-0.125224
0.293976
0.209479
0.333358
0.371565
0.129105
-0.336657
-0.322813
-0.461154
0.311778
-0.052125
0.165843
0.298632
-0.297224
0.409160
-0.340789
-0.338737
-0.217172
-0.101025
0.434211
0.401356
0.565918
-0.235627
0.203284
-0.359067
0.295289
0.165430
-0.296290
0.375186
-0.027342
0.561022
0.387829
-0.151667
0.356999
0.343532
0.571579
0.092621
0.227731
-0.014368
-0.144716
0.202377
0.156662
-0.431427
0.198914
-0.153818
-0.339309
-0.186396
0.272166
0.888350
-0.436137
0.060081
0.499875
0.510563
0.375921
0.145500
-0.272773
0.407819
0.079862
-0.114068
-0.436306
0.432940
-0.267573
-0.254333
0.167443
0.160929
0.388376
0.487800
-0.031044
-0.350562
-0.549589
-0.540740
0.125775
0.542266
-0.040186
-0.488595
0.099428
-0.113378
-0.041734
-0.016512
0.022325
-0.230675
-0.254131
-0.348317
0.557261
0.394811
0.247755
-0.014831
0.257930
0.515734
0.289634
0.015298
0.710445
0.279504
-0.232222
0.026703
0.411564
0.371093
0.383097
-0.422130
-0.262762
0.744884
-0.433316
0.012726
0.208941
-0.383069
0.055730
0.596080
0.125976
0.185746
-0.569593
0.278917
0.017429
-0.298170
-0.400526
-0.114679
0.081339
0.191789
-0.029604
-0.628137
-0.133116
-0.302617
0.058243
-0.015021
0.240364
0.418489
0.151910
-0.355022
-0.286489
0.125600
-0.349757
0.281674
0.341129
-0.210925
0.075487
-0.189748
0.252409
-0.316973
-0.162278
0.436754
0.616044
0.630630
0.468765
-0.476635
0.198726
-0.281669
-0.323786
0.393507
-0.240920
-0.293840
0.358192
-0.109660
0.354213
-0.294755
0.484483
-0.249454
-0.055496
0.529070
-0.469384
-0.212215
-0.549212
0.019251
-0.002067
-0.230748
0.142046
0.134862
0.249718
-0.154607
-0.702361
-0.213455
-0.530934
0.122672
0.382090
0.257921
-0.300383
0.036374
0.221317
0.127302
0.442261
-0.311693
0.360010
-0.096773
-0.509404
-0.356378
0.133143
-0.285260
0.130047
0.438659
0.236175
0.219218
0.682710
0.048508
0.239234
0.188058
-0.332146
-0.309724
0.435884
0.350732
-0.631737
-0.283474
-0.370727
0.629691
0.136654
-0.377620
-0.601214
-0.405050
-0.154871
-0.013779
0.229646
0.258885
-0.198552
-0.497155
0.398733
-0.214189
0.374462
-0.194934
0.155144
0.392721
0.009446
-0.500433
0.101529
0.081318
-0.008957
-0.146132
-0.180627
-0.231379
0.617621
0.043021
-0.605368
0.063301
0.472238
0.331645
-0.517580
-0.169473
0.100901
0.048541
-0.466527
-0.229663
0.520444
-0.290199
-0.192570
0.399413
0.425072
-0.195228
-0.483992
0.122146
0.219656
0.425027
-0.176790
-0.210382
-0.099957
0.265583
0.615761
-0.182851
0.026167
0.191801
-0.126462
