-0.182906
-0.085626
-0.073295
0.207463
-0.218939
0.005227
0.291207
0.452895
0.451241
-0.140823
0.134602
-0.436629
-0.073563
0.454909
0.145372
-0.316919
0.088649
-0.018836
0.177010
-0.611368
0.326345
0.400343
0.128586
0.063331
-0.512915
0.139705
-0.448387
-0.234471
-0.047819
0.046736
0.371753
-0.353570
-0.496690
-0.026659
0.239973
-0.611310
-0.487391
0.089059
-0.279374
-0.240473
0.060799
0.023057
-0.369557
-0.410496
0.080127
-0.600810
0.426261
0.004105
0.002218
0.332062
-0.155623
-0.340687
-0.457958
-0.401171
0.168480
0.470825
-0.066950
-0.005330
0.226630
-0.305303
-0.359152
0.494571
0.432256
-0.416740
0.415116
0.384636
-0.479401
0.372774
-0.244831
-0.243611
-0.055392
0.310807
0.170583
-0.282553
0.374992
-0.170455
-0.615716
0.231262
-0.425204
-0.250718
-0.066340
-0.468744
-0.578425
-0.310555
0.007698
-0.359148
0.242921
-0.174790
-0.205659
0.393531
-0.292247
-0.239038
-0.575101
-0.360766
0.265601
0.539176
-0.478679
-0.587203
-0.047310
0.283331
0.701056
-0.312249
0.112182
0.002265
0.509495
-0.100300
0.134355
0.143343
0.075544
-0.237441
0.197456
0.219198
-0.120668
-0.485233
0.398311
-0.129523
-0.041475
0.124937
-0.024827
0.717625
-0.463597
0.534182
-0.291724
-0.294078
-0.163024
-0.113619
0.019813
0.365552
0.014250
0.116295
0.547131
0.081027
0.133359
0.405489
-0.500350
0.293302
-0.546767
0.254700
-0.364499
-0.635471
0.009200
-0.466811
-0.216421
-0.029394
-0.615898
-0.286988
0.623707
-0.233904
-0.082650
0.298220
-0.111623
-0.453458
0.290621
-0.434339
0.063691
0.094109
-0.414605
0.172672
-0.272869
-0.453004
0.106786
0.223186
0.602733
-0.335092
0.065035
0.618238
0.369226
0.099260
0.147958
-0.283505
0.198285
0.452138
0.149194
-0.318618
0.121792
-0.258386
0.202826
0.113419
0.076217
0.017836
-0.240233
-0.468394
0.135359
0.189873
0.322997
0.130263
0.416750
0.216171
0.064687
0.289661
0.535923
-0.167979
-0.163931
-0.468124
0.328811
0.051134
0.478134
-0.512424
-0.302045
0.211838
-0.042414
0.551702
0.732955
0.318745
0.224044
0.726308
0.170408
-0.172902
-0.464130
-0.242694
-0.334695
-0.123057
0.273781
-0.249055
0.319529
0.301570
0.158862
0.262721
0.039078
-0.036273
-0.243700
0.311067
0.626314
-0.447090
0.411610
0.439626
-0.375424
-0.564564
-0.184753
-0.203322
-0.170089
-0.206059
-0.197201
-0.033101
0.347705
0.094571
-0.004030
0.155509
-0.394321
-0.320308
-0.564476
-0.340899
0.092146
0.258341
-0.573368
-0.017486
0.357913
0.078297
0.278611
0.129741
0.634855
0.002638
0.179442
0.211262
-0.192831
-0.016682
0.398011
-0.351884
0.222065
0.204144
0.525885
-0.490388
0.032985
-0.407798
-0.046721
0.084220
-0.061925
0.437613
0.006093
-0.224110
-0.440544
0.704153
-0.197517
-0.017985
-0.260606
0.176818
0.153650
-0.257644
-0.271768
-0.101784
0.019680
-0.291809
0.126426
-0.010003
-0.290657
0.207106
-0.228230
-0.366757
-0.433520
0.366361
0.027463
0.176440
-0.309801
-0.351724
0.057921
0.412952
0.196873
-0.136531
0.360444
0.324157
-0.290911
-0.574113
0.344041
0.094924
0.636504
-0.460174
-0.409147
-0.178543
-0.235430
0.540064
0.014385
-0.603467
-0.684520
-0.579364
-0.341018
-0.519909
-0.620698
-0.334399
0.058853
0.233541
-0.026005
-0.369152
-0.108836
0.145982
0.346669
-0.173510
-0.068631
0.017684
-0.383090
-0.148420
-0.389712
-0.512964
0.185460
-0.652176
0.039939
0.235452
-0.585480
0.284135
-0.473676
-0.190170
0.150613
-0.131426
0.009159
0.077493
0.048802
-0.298425
0.062435
0.434060
-0.296803
0.314292
0.218727
0.211776
0.370867
0.288419
-0.529729
0.162631
-0.222150
0.286687
-0.332000
-0.477694
-0.221950
0.275192
-0.006918
-0.207306
0.096104
0.149014
-0.440031
-0.050703
-0.036797
-0.390876
0.255008
-0.289917
-0.643325
-0.377516
0.488933
0.489529
-0.906221
0.019396
-0.044190
0.284313
0.092131
-0.262702
-0.067747
0.490543
-0.095604
-0.113843
-0.043303
0.522342
0.196073
-0.061604
0.114584
0.046267
0.179061
0.033737
-0.386950
0.466103
0.118851
0.254338
0.072025
0.303192
0.204641
-0.491211
-0.055995
-0.180409
-0.144382
0.572230
0.424423
-0.354403
0.359673
0.346318
-0.353648
-0.302716
-0.279488
0.538753
-0.615024
0.156215
0.263792
-0.069115
0.568564
0.249258
0.178587
0.222673
0.285879
0.051896
0.361243
0.011247
0.398246
-0.468382
0.424003
0.151494
0.242997
0.324304
-0.465009
-0.425462
-0.417736
-0.291541
-0.291723
0.495911
0.102048
-0.389975
0.573299
0.208218
-0.031525
-0.177976
0.465889
-0.142352
-0.100451
-0.437065
0.178653
-0.175078
0.409630
-0.146680
0.275230
0.157030
-0.060594
-0.090850
-0.201148
0.141177
0.239522
0.281534
0.265091
-0.140461
0.172239
-0.246184
-0.351213
-0.386057
-0.029326
-0.144154
0.509797
-0.377161
-0.294072
-0.031959
0.308705
0.447120
0.397381
0.061762
0.069837
0.181099
-0.225275
0.083488
-0.420697
-0.350070
0.457659
0.416437
-0.162295
-0.147812
0.489210
-0.170328
-0.106858
-0.228677
0.057098
0.462304
0.600506
-0.239984
-0.275491
0.478344
-0.150136
-0.192615
-0.175998
0.192665
0.200069
-0.034926
-0.287632
0.329174
0.675662
-0.416474
-0.220338
-0.421666
0.282975
0.419937
0.386107
-0.294975
0.348510
-0.354790
0.094106
0.223860
0.045325
0.209146
-0.209145
-0.164359
0.469796
0.397227
-0.465301
0.005673
-0.569575
0.619627
-0.061406
0.426175
0.389710
-0.318584
-0.297684
0.035093
0.148066
-0.250743
0.281702
0.299546
0.028712
-0.208349
0.255267
-0.423385
-0.053417
0.452417
-0.083052
0.560252
0.179847
-0.333763
-0.133469
-0.208435
0.332527
-0.398311
0.295575
0.439402
-0.358763
-0.212539
0.573584
-0.395195
0.343616
-0.100026
-0.322303
-0.247521
0.471624
0.271353
0.274870
0.102192
-0.375136
0.276126
-0.394990
-0.185285
0.104363
-0.150004
-0.273105
0.622411
-0.078068
0.077225
-0.316251
0.008597
-0.103600
-0.177899
0.460634
-0.592860
0.009588
-0.234535
0.137690
-0.201237
-0.242914
-0.208398
-0.101264
-0.136265
0.074698
-0.394858
0.493929
0.069325
-0.243110
-0.067562
0.509780
-0.236926
-0.156044
-0.546656
-0.211629
0.444415
-0.393291
0.194539
0.461284
-0.400818
-0.145740
-0.239450
-0.121792
0.076534
0.018924
-0.527933
-0.194722
0.387560
0.322270
0.435288
0.225133
0.465492
-0.285070
-0.122241
0.146776
0.031145
-0.369931
0.571911
-0.145088
0.067536
0.237877
0.190173
0.076112
0.619512
-0.383067
0.410437
-0.020598
0.038143
-0.332087
-0.351048
-0.271929
-0.337874
-0.564275
-0.101254
0.322012
-0.616933
0.101426
-0.014746
0.328875
-0.494626
0.191396
-0.561069
0.323954
0.302426
0.250716
0.267169
0.184369
-0.008173
-0.340894
0.164105
0.456646
0.336473
0.169836
-0.108241
-0.346803
-0.062144
-0.478773
0.070716
-0.013155
-0.514080
-0.450606
0.205346
-0.676079
-0.457840
0.027541
0.283652
-0.133305
0.346406
-0.141448
0.136550
0.124681
0.462091
-0.068037
-0.157673
0.170888
-0.570341
-0.452981
0.692762
-0.367742
0.397839
-0.332201
-0.164333
-0.177349
0.531864
0.150592
0.155286
-0.586134
-0.210856
0.018061
0.398652
0.252177
-0.510721
0.363499
-0.282111
0.521551
0.300431
0.195129
0.127666
0.402342
-0.240911
0.278629
0.163576
-0.072322
-0.248865
-0.484407
0.089386
-0.027839
-0.366054
0.044137
-0.309667
-0.676528
0.115325
0.177036
-0.254663
0.569344
-0.490679
0.238327
-0.154880
-0.112488
-0.186923
-0.029840
-0.255399
-0.155924
0.099731
-0.209044
0.385144
0.032806
-0.026151
0.241971
0.471456
-0.492065
0.077478
0.492632
0.305703
-0.342006
-0.412209
-0.163612
0.134212
0.169358
0.176668
0.186208
-0.028090
0.254444
-0.126451
-0.452622
0.171328
0.560064
-0.308015
0.243774
0.604841
0.103934
0.376568
-0.585094
-0.385461
-0.173007
-0.331447
-0.088918
0.460814
-0.111000
-0.147707
0.226052
-0.092753
-0.346299
0.567623
-0.023937
-0.313098
0.296506
-0.144290
0.491111
-0.323479
-0.039441
0.704383
0.204721
-0.146631
-0.646366
0.358174
0.062390
-0.437128
0.252649
0.564841
0.532579
-0.245588
-0.316022
0.284799
0.066449
-0.093557
0.119652
-0.310597
-0.138127
-0.180546
-0.019715
0.571462
0.396850
0.502783
0.286897
-0.431552
0.062430
0.021905
0.176440
-0.413895
0.114054
0.026740
-0.191539
0.176832
0.448779
-0.004466
-0.353309
0.181770
-0.412041
0.233394
-0.260764
0.337568
