0.062738
-0.597430
-0.399832
-0.240804
-0.647307
0.059555
-0.361243
0.293957
-0.118233
-0.125777
-0.024544
0.016325
-0.531211
-0.309959
0.249251
0.457628
0.419156
-0.322958
-0.038034
0.150811
-0.668018
0.259330
-0.397510
0.363386
-0.096284
-0.377433
0.246245
-0.187220
-0.007311
0.304521
-0.692603
-0.147209
-0.296922
0.028505
0.347755
-0.020246
-0.301722
0.317438
0.198434
-0.510989
-0.452651
0.522834
-0.193034
-0.198291
0.248435
-0.581627
0.226669
-0.431560
0.041090
0.380582
0.226686
-0.301873
-0.266213
-0.476616
0.145645
-0.443584
-0.123593
-0.088536
-0.406221
0.164678
-0.047220
-0.264376
-0.820523
-0.392701
-0.625672
-0.357209
0.253384
-0.184968
-0.279905
0.085306
0.573952
0.330815
0.137650
-0.450422
0.499391
-0.382690
-0.375508
-0.272679
0.010414
-0.574232
-0.562026
0.272946
-0.436185
-0.354052
-0.632557
0.225566
0.342352
0.617857
0.177426
0.198731
0.232565
-0.064516
0.087847
0.072153
0.110712
-0.551291
0.200213
-0.547796
-0.035687
-0.500409
-0.178163
0.365416
-0.677574
0.200162
0.219590
0.181842
0.361950
-0.448462
-0.223321
0.012700
0.089598
0.077054
0.371476
-0.138504
-0.404903
0.049340
0.445356
-0.119175
-0.014931
0.136261
-0.077501
-0.328430
-0.065320
-0.279950
-0.753522
0.247058
0.115770
0.290148
-0.296092
0.341992
0.534381
-0.113415
-0.054030
0.240151
0.308398
-0.133663
-0.048310
0.082477
0.596978
-0.389329
0.107055
-0.135359
0.532811
0.004835
-0.517954
0.047085
-0.527007
-0.416797
0.085245
-0.363428
-0.199727
-0.155699
-0.380416
-0.273615
0.552965
0.161470
-0.298027
-0.232180
-0.198961
-0.108477
0.220943
-0.312712
0.364405
0.024883
-0.095001
-0.162870
0.242048
-0.483655
0.368941
-0.593650
0.095056
-0.091492
-0.087021
-0.019448
0.310812
-0.125087
-0.285313
-0.153944
0.071350
-0.082858
-0.019839
-0.071709
-0.378597
-0.295233
-0.260541
-0.328369
-0.252349
0.139346
0.189036
-0.204013
0.505572
-0.638153
0.263683
-0.176345
0.248374
0.083961
0.169969
-0.668893
0.090795
-0.250337
-0.352417
0.164441
0.589582
-0.553047
-0.309803
-0.356864
0.267309
-0.157889
0.214987
-0.035643
-0.497362
0.354039
-0.317310
-0.004981
0.591244
0.325896
-0.358593
-0.223821
0.185213
-0.050066
-0.292416
-0.057834
0.373588
0.014935
0.269575
-0.502849
-0.157192
-0.193600
-0.127954
-0.368148
-0.036017
0.440378
-0.236571
0.238675
-0.478462
0.263109
0.202040
-0.425613
-0.585079
-0.223026
0.105311
-0.372732
-0.566409
-0.220010
-0.370752
0.141775
-0.281664
0.385879
-0.031822
-0.050040
0.180175
0.307185
0.371943
0.137713
0.287467
0.286447
0.028432
0.222596
-0.111136
0.067068
-0.015257
0.106966
-0.323686
-0.076006
-0.013329
0.268480
-0.466993
0.407773
-0.421784
0.112518
-0.437670
-0.489899
0.489607
-0.049162
-0.228505
-0.446594
0.020003
0.116468
0.461512
-0.024498
-0.409664
-0.358607
0.432551
-0.042094
-0.241988
0.152781
0.232544
0.311780
-0.408221
-0.184809
-0.081366
-0.017261
0.414435
0.392086
0.267041
-0.615022
-0.475103
-0.190337
-0.586523
0.345810
0.327794
-0.072980
-0.296820
0.481414
-0.177667
-0.259983
0.274147
0.035230
-0.212521
0.196970
0.195159
0.216128
0.085052
-0.640171
-0.611031
-0.206112
-0.534427
-0.399367
0.306809
0.146169
0.219663
0.597918
0.457703
0.249515
-0.657193
-0.616063
0.624946
-0.146999
-0.151733
-0.422819
0.290335
0.196547
0.111102
0.214063
-0.059614
0.419306
-0.233622
0.392595
-0.172520
0.196804
-0.486621
0.530804
-0.136007
-0.045991
0.239298
0.352718
0.233820
0.381756
0.272621
-0.064469
-0.034746
-0.284401
0.016463
-0.143552
-0.311172
0.135978
0.371831
0.407229
0.582682
0.196185
-0.334456
0.127934
-0.056954
-0.262021
0.204661
-0.009055
-0.595072
-0.548230
0.239483
0.129894
-0.335983
-0.551605
-0.127007
0.218550
0.508421
0.120152
-0.691087
-0.198240
-0.308987
-0.000589
0.073176
0.417476
-0.031083
-0.068577
-0.531461
0.205231
0.215850
-0.331663
-0.613111
0.400589
0.118343
0.027613
-0.356959
-0.011040
0.331784
-0.045676
0.192240
-0.120023
-0.018533
0.008286
0.140657
-0.537422
-0.246214
0.112566
-0.085665
0.136353
0.070092
0.004721
0.297954
0.302697
-0.483440
-0.493310
-0.045883
0.045648
-0.308187
0.380965
-0.270317
-0.124988
0.214520
-0.116058
0.145958
0.107383
-0.245393
-0.554572
-0.160217
0.081795
-0.400883
-0.085539
-0.272586
-0.307159
0.436474
0.025584
0.208594
-0.637841
0.398049
0.104431
0.017672
-0.334915
0.139119
-0.017955
-0.026545
0.599280
0.036811
0.611510
-0.136538
0.374593
0.056744
-0.491200
0.392620
0.600482
0.311362
-0.026082
-0.252918
-0.046504
0.234174
-0.610832
-0.292776
-0.470312
-0.268377
0.145314
0.504535
-0.535858
0.349859
0.377430
-0.140318
-0.191188
-0.411559
-0.472125
-0.539841
-0.635960
0.502362
-0.470296
-0.216076
0.413794
-0.086343
0.078822
0.333041
0.294214
0.290511
-0.465574
-0.149627
0.037862
-0.213126
-0.338093
0.404304
0.571684
0.312102
-0.159003
-0.409041
0.449263
-0.537159
-0.629777
-0.353006
0.036349
0.178030
0.091592
-0.117396
-0.115102
-0.036802
-0.405695
-0.303522
-0.197807
0.074139
0.298388
-0.668343
0.503113
-0.513263
-0.439483
0.259636
-0.090907
0.107455
-0.255312
0.577717
0.242855
-0.545762
-0.481788
0.270649
-0.208524
0.336799
-0.083815
0.511584
0.578741
0.295992
0.530403
0.075704
0.252475
0.660060
0.386990
0.319613
0.089542
0.246740
-0.002030
0.071798
-0.301852
-0.359824
-0.373018
-0.193781
0.218563
0.262094
0.362729
-0.432917
0.220921
0.090838
-0.130315
0.314075
0.068939
-0.230506
0.262116
-0.388407
-0.398073
0.325422
0.254874
-0.302655
-0.259787
-0.335109
-0.248210
0.317892
0.044490
-0.224808
-0.240125
0.315361
-0.140435
0.421979
0.403038
-0.508849
0.006410
-0.364568
-0.159655
-0.287230
-0.000551
-0.023774
-0.119000
0.200000
-0.020387
-0.158254
0.621479
0.200993
0.213108
-0.046897
0.258045
0.273452
0.565918
-0.018848
-0.077453
-0.446488
0.453878
-0.009341
0.271633
-0.170229
0.277671
0.095001
0.315491
0.595326
-0.616467
0.319416
-0.615639
0.338646
-0.365049
0.257858
0.002398
-0.365526
0.495434
-0.447424
0.302103
-0.368054
-0.263528
0.005697
0.188323
0.238012
0.389416
-0.196047
-0.248173
-0.584359
0.397521
0.108939
-0.119346
-0.189859
-0.362877
0.492355
0.266032
-0.201560
0.191774
0.193293
0.070527
0.184522
-0.248028
0.119138
-0.164234
-0.361099
-0.559052
0.208907
0.392004
0.025463
-0.093740
-0.131100
0.123185
0.477984
-0.023799
0.358155
-0.252326
0.159864
0.159584
0.043096
0.427542
0.242488
-0.259253
0.093767
0.081894
-0.305266
0.181298
-0.345712
0.319135
-0.289475
0.415006
0.026969
0.502257
0.073152
0.075557
0.047719
0.688538
-0.528216
-0.083522
-0.371096
0.569062
0.191456
0.312686
-0.624178
-0.373252
0.176218
-0.040408
-0.232288
-0.418485
-0.198020
0.246973
-0.358760
0.483688
-0.219324
-0.065049
-0.006542
-0.596120
-0.150310
0.232849
-0.222356
-0.419596
0.014342
-0.619170
-0.151340
-0.037333
0.100740
0.076451
-0.098299
-0.169630
-0.432177
-0.026728
-0.151744
0.248723
0.015246
-0.139157
-0.022637
0.424959
-0.344472
-0.583136
-0.157481
-0.530607
-0.442371
-0.270446
-0.340005
0.156846
0.636184
0.183335
-0.242979
0.129745
-0.233695
0.586194
-0.179590
0.511053
0.631524
-0.867660
0.599161
0.261392
-0.087789
0.197836
-0.101603
0.207997
-0.233546
0.334892
-0.130313
-0.449259
0.041464
0.297113
-0.371344
0.291719
0.274990
0.245356
-0.199365
0.066909
-0.096521
-0.027288
0.565342
-0.329417
-0.289622
-0.703003
-0.097114
-0.386237
-0.564916
-0.337991
0.094686
0.272930
0.252713
0.483191
0.101859
-0.157679
-0.198657
0.404186
-0.099076
-0.437857
-0.028211
-0.398002
-0.324312
-0.438578
-0.069246
-0.138711
-0.374213
0.298253
0.447907
0.106701
0.362257
-0.218840
0.471967
-0.362690
-0.297157
-0.327946
-0.400929
-0.295228
-0.274700
-0.594438
-0.347565
-0.177913
-0.375119
0.209642
0.391684
0.383254
0.166145
0.063035
-0.104109
-0.399856
-0.114711
0.032884
-0.259915
-0.365457
0.019406
0.226901
-0.078731
0.014081
-0.739956
0.208573
0.381664
-0.262789
-0.145959
-0.643630
-0.289268
0.198555
0.463781
-0.813068
0.158854
0.485765
0.471749
0.243861
0.477289
-0.447893
-0.030288
0.173911
0.034627
-0.696372
-0.103577
0.169179
