0.402711
-0.388417
-0.066459
-0.114694
-0.253025
0.470328
-0.065422
-0.051244
0.572627
-0.054248
0.102957
0.061346
0.067176
-0.248499
0.160190
-0.510250
0.396687
0.207682
-0.491209
-0.136781
0.368905
-0.327937
-0.323131
-0.316385
-0.517560
-0.364748
-0.021820
-0.370811
-0.294593
-0.435585
-0.402400
-0.590523
-0.037383
-0.450996
0.125695
0.163699
0.304995
-0.023538
-0.079525
0.189392
-0.180788
-0.000348
0.002136
-0.294220
0.478738
0.230201
0.457078
-0.201289
0.503113
-0.448505
-0.073842
-0.142922
-0.131121
-0.319914
0.061922
0.627612
-0.513531
-0.195753
0.179814
-0.546107
0.065724
-0.367827
0.140630
-0.354069
0.327998
-0.470476
-0.278683
-0.176159
-0.263679
-0.197238
-0.458279
-0.180003
0.226070
-0.368260
0.321044
0.216311
-0.078733
0.369214
-0.088238
-0.020255
0.418411
-0.130556
-0.240827
-0.252086
-0.031174
0.184445
-0.524757
-0.085388
0.013729
0.489797
0.210055
-0.068236
0.297898
-0.483321
0.616318
-0.224400
0.173115
-0.481856
-0.026425
0.434623
-0.354324
-0.295408
0.154968
0.270943
-0.428497
0.461715
0.507361
0.518280
-0.276233
0.213868
0.438083
0.667784
-0.520509
0.007859
-0.312215
0.267315
0.089817
-0.210536
0.071648
0.454845
-0.061293
0.449693
-0.592376
0.384456
0.567291
-0.382929
0.207466
-0.182399
0.176633
-0.554403
0.570164
0.270812
0.075001
0.152576
-0.318385
-0.191238
-0.118206
-0.018724
-0.162101
0.509530
-0.632305
-0.357663
-0.593040
-0.249695
-0.109305
0.492658
0.085140
0.253775
-0.052244
0.579107
0.084501
0.202542
0.372151
-0.064554
0.313728
0.370106
-0.395232
0.109676
0.283024
-0.609414
0.093393
0.043488
0.402763
0.130297
0.104455
0.533015
-0.260134
-0.127448
-0.278344
0.115070
-0.039212
0.566616
-0.136747
-0.488410
-0.629599
-0.600200
0.208763
-0.147904
0.074257
0.369539
0.297176
-0.725625
-0.105115
0.378391
0.017633
0.228473
-0.098097
0.259736
0.370993
-0.153719
-0.068626
-0.430130
0.145587
-0.113482
-0.219925
-0.365499
-0.383241
-0.070575
0.212771
-0.243737
0.195382
0.222495
-0.267556
-0.506109
-0.178176
0.258125
0.208165
-0.123543
0.483752
0.427904
0.096877
0.295977
0.416904
0.410940
-0.415081
0.638255
0.340027
-0.276711
0.124719
0.024850
-0.101197
-0.260670
-0.496593
0.175266
-0.433734
0.153493
-0.203793
-0.364472
-0.172843
0.428698
-0.157253
-0.098180
0.193292
-0.083145
-0.244029
0.297587
0.399901
-0.049267
-0.183254
-0.248247
-0.449999
-0.336004
-0.399404
-0.006996
-0.339784
-0.017486
-0.134801
-0.300284
0.475895
-0.554681
0.634155
0.198548
-0.543085
-0.588387
-0.212195
0.077827
0.130413
0.033617
0.106080
-0.328966
0.107471
-0.596948
0.439449
0.093763
-0.090511
-0.022973
-0.390873
0.418868
0.057909
0.064439
-0.279248
0.161129
-0.094008
-0.138966
0.239681
0.373940
-0.059653
0.272381
-0.613685
0.335297
-0.480762
0.003915
0.044106
-0.358843
-0.045477
0.090777
-0.715788
-0.267096
-0.191647
-0.131374
-0.703657
0.056014
0.345353
-0.473691
-0.052146
0.251285
-0.446496
-0.546453
-0.567798
-0.538678
-0.322835
-0.569868
-0.265155
0.062574
-0.267274
0.575072
-0.272656
0.468322
-0.244935
0.431185
-0.170906
-0.047087
0.146490
0.052989
0.563368
0.278453
-0.204352
-0.401936
-0.448482
0.119436
0.283965
0.612327
-0.139430
0.669629
0.440661
-0.665154
0.449415
-0.304718
0.000821
0.409393
0.175037
-0.192544
-0.288260
-0.114415
-0.032550
-0.131484
0.262309
-0.294463
0.527817
0.315792
-0.016762
0.312612
0.180405
0.093786
0.312606
-0.560323
-0.403480
-0.253659
-0.501694
0.398543
-0.214022
0.458608
-0.100983
-0.257326
0.385108
-0.225665
0.283086
-0.176565
0.244532
-0.054343
-0.401106
0.209336
0.225478
0.644118
0.010416
0.172962
-0.298981
0.142572
0.399339
-0.385141
-0.108037
-0.443825
-0.026994
0.353981
0.380426
0.043038
-0.043511
0.558896
-0.243610
-0.229134
-0.392672
0.676454
-0.071800
-0.032060
-0.556123
0.102849
0.061787
-0.446428
0.085190
0.065026
0.006525
0.181309
-0.414722
0.263303
0.279830
-0.153029
-0.415290
-0.221944
0.200439
0.035615
0.186923
0.339851
-0.742481
0.180180
-0.398814
-0.013610
0.835999
0.027959
-0.480344
0.411469
-0.367958
-0.100535
-0.641628
0.219170
-0.092662
0.005571
-0.225966
0.306136
-0.516557
-0.453818
-0.006927
-0.379238
-0.825131
-0.030573
0.147023
0.492067
0.392414
-0.282380
-0.136318
0.323529
0.387631
-0.088238
0.122497
-0.161386
0.122945
0.399350
0.465981
-0.382713
-0.211044
0.128088
0.013277
0.299079
-0.036483
-0.254500
-0.051210
-0.121414
0.019558
-0.011659
0.300827
0.136133
0.025880
-0.168251
0.522316
0.416495
-0.545442
0.493376
0.279254
0.687935
-0.518078
0.323933
0.423301
-0.562355
-0.239012
-0.080832
-0.470460
-0.010540
-0.227044
0.031251
0.175694
-0.574242
0.293558
0.289126
0.531262
0.388063
0.080492
-0.193349
-0.619370
0.287940
0.517526
0.454400
0.306081
0.789595
0.012003
-0.169066
-0.455942
-0.312311
-0.354983
0.586173
-0.472141
-0.379876
-0.305975
0.230831
0.391384
0.067806
0.270214
-0.129742
-0.518169
-0.259923
0.324617
0.594162
-0.256202
0.177392
0.478837
0.547218
-0.312828
-0.276023
-0.685951
-0.525588
-0.303959
0.388768
0.367522
-0.006623
-0.420742
-0.506761
-0.555724
-0.336590
-0.015950
-0.236070
-0.234060
0.489088
0.634315
-0.145607
0.586246
-0.375022
0.238343
0.187075
-0.054875
0.118862
0.264190
-0.452858
-0.436316
-0.091522
0.048132
0.009073
0.583716
0.398684
-0.174056
0.031241
0.254853
-0.668750
0.058040
0.358023
-0.191204
0.473733
0.082803
-0.480460
0.181822
0.043245
0.151281
-0.353599
0.394609
-0.457567
0.358402
-0.380067
0.502256
0.439625
-0.318009
-0.276603
0.355061
0.017740
0.188285
0.206655
-0.207680
0.057363
-0.523835
-0.387261
0.275108
-0.368972
-0.193143
-0.015382
-0.280648
0.318369
-0.272178
-0.049916
-0.591238
0.120644
0.322764
-0.275173
0.373756
0.494332
0.664071
0.505478
-0.034397
0.391851
-0.356847
-0.339437
0.219853
0.618967
-0.127937
0.136379
-0.211963
-0.389861
-0.469522
-0.305103
-0.443111
-0.166260
0.355188
0.401566
0.409298
0.309498
-0.105840
-0.496412
0.321265
0.625881
-0.343060
0.404339
-0.477614
-0.405636
-0.380018
0.434677
0.438771
0.242659
0.180212
0.354163
0.225910
-0.636643
-0.112332
-0.401700
-0.039426
0.220898
-0.289723
-0.041221
-0.371904
0.125440
-0.185391
-0.372188
0.008784
-0.050964
-0.105831
0.271598
-0.002472
-0.301221
-0.298339
-0.351048
-0.219434
0.160738
-0.407529
0.062565
-0.442253
-0.150722
0.271672
-0.116854
-0.473511
0.244859
-0.135968
-0.332646
-0.097110
-0.172148
0.264758
-0.058528
0.624136
-0.218599
0.553173
-0.022633
0.082032
0.079311
-0.222958
-0.086319
0.521530
0.533911
0.438236
0.489183
-0.370156
-0.156309
0.013845
0.308673
0.193996
0.070636
0.164346
0.544580
0.719947
-0.115875
0.447745
0.031131
-0.197083
0.042017
0.162822
0.014775
-0.066146
0.494284
-0.085590
0.034589
0.083674
0.288741
-0.417352
-0.014812
0.374542
-0.192843
0.174286
0.180397
-0.738603
-0.750205
0.126157
-0.752924
0.002229
0.293355
-0.100571
-0.053970
0.492900
-0.240710
0.242086
0.131121
0.101776
-0.073051
0.338415
-0.189029
0.136331
-0.363955
-0.043798
-0.238214
0.611951
0.115367
0.213098
0.514185
0.138013
-0.298727
0.223633
-0.369054
0.209425
0.454429
0.283489
-0.781169
0.303369
-0.001270
-0.471084
0.413157
0.415681
0.505812
-0.163512
0.205553
0.483532
-0.280339
0.587259
-0.279515
-0.338620
0.373795
-0.075819
0.154463
0.643226
0.593162
-0.196572
-0.637995
0.553026
-0.443861
0.062137
-0.076404
0.154567
0.248189
-0.643350
-0.419187
0.328231
0.047378
0.472701
0.152895
-0.310445
0.218004
0.174087
-0.009508
-0.251676
-0.419873
0.204931
-0.672675
-0.380082
0.214805
0.168164
0.170691
0.499018
0.017832
0.085088
0.087437
0.230338
0.472931
0.269159
0.682239
-0.262425
-0.041609
-0.405765
-0.200151
0.041020
-0.412218
-0.025747
-0.417617
0.266356
-0.499819
-0.389170
-0.068238
0.108189
-0.170245
-0.112710
-0.024020
0.576269
0.452272
-0.242820
0.439383
-0.244981
-0.371705
-0.384299
0.095678
0.119585
-0.543236
0.331702
-0.066319
0.555173
-0.222071
0.145236
0.284032
-0.333720
0.298877
-0.144923
0.160555
0.309719
-0.159183
-0.648150
-0.493058
0.072448
-0.274885
