0.299508
-0.241798
-0.399832
-0.629785
-0.330321
-0.463371
-0.361243
0.170983
-0.202314
-0.116667
0.103760
0.170662
0.586717
-0.309959
0.266983
0.008013
-0.226860
-0.113201
0.258042
-0.577197
0.566214
0.071180
-0.207164
-0.264362
0.368662
0.000174
0.574314
0.333636
-0.249053
0.288517
0.171588
0.447577
0.362911
-0.249791
0.086712
-0.147942
-0.072346
-0.137267
0.254580
-0.196752
0.112873
0.522834
-0.300625
-0.137814
0.729743
-0.581627
0.279695
-0.089407
0.104498
0.380582
0.226686
0.451758
0.031489
0.517269
0.128473
0.114216
-0.168870
0.256365
0.187796
0.184485
-0.381278
-0.264376
0.459662
-0.287593
-0.655441
0.523695
0.364014
-0.134760
0.139678
-0.411931
0.374856
-0.470811
0.491526
0.006224
0.612821
-0.382690
0.063356
-0.297657
0.384793
-0.519553
-0.048996
-0.109958
0.369736
-0.354052
0.540435
0.543253
0.099043
-0.623135
0.115355
0.050206
-0.148842
-0.194994
0.364219
0.402659
0.070485
-0.507730
0.209981
-0.732638
-0.586567
-0.504286
0.155661
-0.179900
0.063196
-0.387026
0.169807
-0.252696
-0.054257
-0.448462
-0.508642
0.082769
-0.194146
0.279873
-0.063606
-0.350663
0.159215
-0.294905
-0.174041
-0.122086
-0.152113
-0.285504
-0.077501
-0.604792
0.126640
-0.526469
-0.753522
-0.406773
-0.253134
-0.294710
0.603806
0.284197
-0.225686
-0.405037
-0.197467
-0.308604
-0.437336
-0.733264
-0.683745
-0.376032
-0.591644
0.030945
0.604773
-0.144341
-0.451739
0.102353
-0.367899
-0.267775
0.179530
-0.437466
-0.269607
0.392342
-0.023880
-0.467356
0.234469
-0.176264
-0.196870
0.001271
-0.119531
0.196116
-0.079535
0.191995
0.156201
-0.115840
0.533640
-0.014148
-0.095001
0.523432
-0.460284
-0.504632
-0.194479
-0.417859
0.170639
0.296107
-0.187445
0.738597
0.358602
-0.257817
-0.376421
-0.748154
0.454329
-0.005328
0.039703
-0.456783
-0.024161
-0.236766
-0.344994
0.233859
-0.097110
0.139346
-0.084968
0.020123
0.549475
0.050302
-0.133631
-0.215230
-0.317664
-0.513783
0.208020
-0.428258
0.072928
0.498342
-0.148074
-0.301928
0.279183
0.340210
-0.419695
-0.184951
0.126105
0.006480
-0.114046
-0.252645
-0.065689
0.356131
0.364033
0.150498
0.507185
-0.362506
0.237841
-0.473749
-0.178453
0.657016
-0.559835
-0.048667
0.358173
0.108848
0.037184
0.247488
0.059341
-0.417897
-0.236834
0.082772
0.148063
0.468426
-0.264270
-0.567063
-0.094950
0.244684
0.202040
-0.425613
0.460290
0.127189
-0.374984
0.127604
-0.568484
0.285967
-0.296347
-0.251894
0.464264
-0.404182
-0.467801
0.398507
0.211594
-0.062001
0.288297
-0.643676
0.314856
-0.847070
-0.614724
-0.080852
-0.325260
0.371118
0.435445
-0.375562
0.405785
-0.120597
-0.013329
0.066351
-0.392811
0.490017
0.098053
0.736803
0.078912
-0.009985
0.371399
0.336445
-0.337055
0.646730
-0.101782
0.516605
-0.520400
0.326188
0.277400
0.078504
0.309397
-0.018678
0.186158
-0.660789
-0.213484
-0.285621
-0.408221
-0.309367
0.268920
-0.017261
-0.039713
-0.298214
-0.381526
-0.070818
0.077601
-0.417422
-0.273974
-0.023780
0.360607
-0.574113
0.224776
0.325482
0.080248
0.449140
0.331814
0.194193
0.075350
-0.317981
0.311797
-0.025380
-0.304749
0.101717
0.353540
-0.723867
-0.459385
-0.209574
0.188325
-0.254015
0.128510
0.627224
-0.065642
0.111600
-0.067024
-0.156414
0.659166
-0.282947
-0.060885
0.263250
-0.404404
-0.059809
-0.220197
0.056494
-0.080778
-0.487154
0.437410
-0.078672
-0.170730
0.182922
-0.351197
0.354816
0.180405
0.034214
-0.473698
0.426072
0.519179
0.065593
-0.337602
-0.321822
-0.290787
-0.257368
0.109521
-0.220347
-0.213124
0.221660
-0.130159
0.502167
0.206769
-0.201359
-0.030160
0.220114
0.296950
0.409360
0.266457
-0.024670
0.320881
-0.545303
0.589175
-0.329105
-0.620392
-0.019116
-0.550616
0.381377
0.050606
0.337636
0.493536
-0.346641
-0.157914
0.475941
-0.020856
-0.280661
-0.142426
-0.372804
-0.367847
-0.097859
-0.098688
-0.308691
0.397968
0.311354
0.185220
0.027613
0.393871
0.263303
0.331784
0.017152
-0.109044
-0.428233
0.170733
0.446926
0.124028
-0.315767
-0.244676
-0.025788
0.331833
-0.178060
0.332137
-0.120036
0.275353
0.478152
-0.114109
0.550074
0.550809
-0.029448
-0.308187
0.667589
-0.652157
0.092272
-0.295321
-0.226582
0.444983
0.626627
-0.598330
0.124326
0.467633
0.149186
-0.413866
-0.435265
-0.447441
0.193518
-0.044725
0.247037
-0.176257
-0.033265
0.123606
0.122339
0.330098
0.623910
-0.301756
0.652473
-0.136313
0.233939
0.418325
-0.346590
0.214886
-0.251570
0.282299
-0.558974
-0.290811
-0.242251
-0.199525
0.591727
-0.509623
-0.122918
0.251107
-0.292453
0.408548
0.019240
-0.552541
0.025062
-0.214721
-0.580161
0.178571
0.251507
-0.339509
0.498098
-0.147370
0.319206
0.449928
0.322454
-0.329132
-0.062464
-0.159442
-0.139410
-0.282982
0.019839
0.507355
0.787909
-0.137459
-0.041020
-0.443622
0.250034
-0.275042
-0.248492
0.315325
-0.309208
-0.258371
0.535632
0.053942
-0.129763
0.137966
0.593182
-0.008672
0.345182
0.152403
0.560154
0.174091
0.194096
-0.378054
-0.503639
-0.560528
0.357324
0.336430
0.109680
0.260521
-0.428082
-0.220161
0.347897
-0.537172
0.001259
-0.013029
0.187807
0.216067
0.070370
-0.337078
0.036271
-0.482364
-0.633762
-0.234060
-0.017126
-0.138743
-0.483292
0.404710
0.346275
-0.034869
0.263263
-0.198499
0.336475
0.103576
-0.261577
-0.053205
-0.082277
0.199512
0.364855
0.399870
-0.699648
-0.164599
-0.219162
0.036970
-0.410484
-0.062067
-0.496017
0.037305
-0.344341
-0.056418
0.432869
-0.183738
0.262116
-0.508823
-0.381965
0.325422
-0.492010
0.112619
0.469813
0.301453
-0.248210
0.317892
-0.276603
0.498671
-0.077901
-0.306366
-0.157070
0.421979
0.447246
0.100995
-0.346235
-0.557095
0.007533
-0.355380
-0.311759
0.050467
0.162499
-0.136634
-0.137730
-0.338833
-0.333246
-0.500789
0.153017
0.519476
-0.407819
-0.098651
0.487343
0.037287
0.197727
-0.142139
-0.096373
0.068644
-0.579403
-0.153201
0.299578
-0.213788
-0.095495
-0.001078
-0.023327
-0.170751
-0.029875
0.264127
0.260956
-0.166751
0.242267
-0.194902
0.194333
-0.485515
-0.439958
-0.421654
0.338397
-0.228549
-0.241789
-0.324450
-0.383303
0.261972
0.411271
-0.093195
0.193281
0.438675
-0.596477
-0.389842
0.353012
0.209356
0.213091
0.301780
0.335636
-0.220407
0.048342
0.184522
0.108751
0.649944
-0.649800
-0.354859
-0.034224
0.270310
0.063907
-0.480099
-0.364863
-0.398217
0.632018
-1.005133
0.157481
0.260570
-0.252326
-0.105832
-0.097411
0.565385
0.434585
0.086169
0.172436
0.405894
0.081894
0.078798
-0.263204
-0.313036
0.319135
-0.310102
-0.395734
0.473800
-0.276175
-0.286923
0.360890
-0.190688
0.052693
-0.532143
-0.789865
-0.445986
0.407208
0.098451
-0.469017
0.523401
-0.373252
0.532598
-0.054169
0.312621
-0.194142
0.068186
0.525931
-0.037740
0.274859
-0.012287
-0.281090
-0.006542
0.384103
0.077762
-0.306145
0.150571
-0.273046
-0.279796
0.168515
0.408121
0.347600
-0.291521
0.132797
-0.274265
0.386447
-0.447675
-0.120701
-0.036331
0.538280
-0.197488
-0.138319
-0.499420
-0.177662
0.444037
-0.558227
0.415098
-0.098799
0.574311
-0.090441
0.021684
0.254646
-0.094112
0.183335
0.031807
-0.380203
-0.162145
-0.196144
-0.073536
0.172201
0.246610
0.051040
-0.196004
0.310872
0.567949
0.092115
0.342285
0.296456
-0.283997
0.334892
-0.130313
0.156297
-0.369956
0.199202
0.304230
-0.130353
0.274984
0.579164
-0.016560
0.220339
-0.492411
0.056667
0.044596
-0.488640
-0.187558
-0.286031
0.040300
-0.028778
-0.491894
-0.337991
0.030125
0.086900
-0.198416
-0.424694
0.101859
-0.001250
-0.099910
-0.261942
-0.045453
0.228865
0.289776
0.165582
-0.003770
-0.378868
0.173267
-0.019288
-0.420744
-0.526563
0.079774
-0.320357
0.484694
0.479951
-0.122539
-0.228065
-0.115578
0.394658
-0.381153
0.412910
0.404625
-0.051184
0.319790
-0.549272
-0.165360
0.539095
0.610391
0.380795
0.301228
-0.659060
-0.169379
-0.135685
0.464015
0.107237
0.130759
0.243918
0.047435
-0.022694
0.016815
0.168023
-0.696360
0.247751
0.328560
0.434482
0.209757
-0.395473
-0.609784
0.023037
0.181082
0.229998
0.350157
-0.322861
-0.329706
0.116802
-0.140291
-0.447893
-0.121281
0.278629
0.362235
0.181449
0.464196
0.367919
