-2.507192
1.914216
-1.828331
-1.234352
1.087986
-0.313008
-0.467017
-2.025036
2.001834
0.709357
0.688910
-1.805978
-4.725824
-2.154413
2.738732
-2.924684
0.471678
-1.642181
1.416713
2.070279
-0.865978
2.490691
1.748255
-1.682952
-2.009942
1.427727
3.077002
3.977907
0.603188
1.974268
1.031753
2.934951
-2.076264
-1.908658
1.662450
-1.318880
-4.481543
-2.034976
1.063422
0.438219
-0.554748
1.094609
1.820534
-1.513867
-3.828653
-2.322250
0.889285
-0.165009
-1.491366
-0.701059
0.944715
-0.721162
3.770714
2.517204
-2.329048
-0.872870
-0.347503
-0.774823
-2.697012
-1.687190
-2.016722
0.997115
1.461072
2.634115
1.602700
1.036157
3.937397
-0.244558
-3.938557
1.500422
2.298991
-0.009501
3.016184
-0.250232
-0.704093
-1.998960
0.427626
0.923326
1.208662
-1.502308
1.197029
0.379107
-0.951559
-1.131031
1.115089
3.811752
-1.720598
1.400521
-0.504311
-2.863376
-0.391938
1.800897
-0.969243
-1.938341
-0.495355
0.558266
0.993742
2.355915
-0.193488
1.025484
-2.178299
-2.240475
2.339780
0.073926
-1.783041
-1.199103
1.612117
-0.540557
1.911479
3.403358
-3.115094
-2.955483
-0.614255
0.881171
-2.523058
-1.333308
1.496123
-2.947447
2.044895
-1.953419
-2.009667
-3.731702
-0.647280
1.239119
0.296100
0.260419
-2.028691
-2.417986
-1.794055
-1.645504
1.725509
-0.470114
2.140532
5.279758
-0.673232
-2.175360
-0.223182
-0.857023
-1.383547
2.298396
1.753762
-2.500353
0.352226
1.681099
-0.347172
0.990709
5.255938
-0.728940
0.004703
-2.119348
-0.725561
-0.097670
-0.938999
3.143637
-4.134808
-0.926956
1.262805
2.345137
1.308876
-0.372905
-1.745960
-1.071898
-0.880294
1.566594
-0.962463
4.101106
4.032196
-3.925597
0.759978
4.154029
-0.551011
-0.911536
-1.377732
0.568353
-0.009382
0.914873
0.592630
0.066928
-0.867546
0.451908
-1.407186
0.742937
-0.446440
2.464227
-1.676907
2.243266
-3.736860
3.578500
-2.621953
-0.517022
-0.522458
0.845078
1.935291
1.072648
-1.078289
1.392433
-3.806860
1.155717
-2.358715
-2.833973
0.507811
2.560772
-0.215666
-0.876090
-4.736349
-1.340943
2.813170
3.125367
0.722998
-1.278293
1.568673
-0.760117
-2.705234
-0.108675
-1.070037
-0.367145
1.384447
-0.419295
2.322567
-1.807565
-0.898885
-4.285554
3.704496
-1.394756
-0.526899
-0.363176
-4.774346
0.504657
-2.692798
-2.007458
-3.733325
0.613647
1.697663
0.109206
-0.360869
0.180487
-0.617312
-0.134203
-2.918314
0.896398
-0.667005
0.817274
0.375513
0.456513
-0.117955
2.140178
3.750719
-5.102560
3.939076
0.235388
-1.863690
-0.106146
-1.960528
1.598969
-1.822287
-1.632446
0.442236
1.509363
-2.111127
-2.400467
-1.980389
-1.280884
0.448617
-0.457193
5.045900
-1.276973
-0.406757
1.322336
0.793751
3.319287
-3.065193
0.116355
-2.239827
-1.831880
2.914874
-1.133505
-0.543045
3.805838
-1.454550
-0.059681
0.533443
-0.888004
0.231076
1.066850
1.249875
0.474237
2.402881
-1.456086
1.643035
0.239897
-0.346661
-2.739432
1.431606
3.556301
3.222963
1.208901
0.612739
-5.271963
-4.305153
1.912850
-0.301064
-0.980874
0.956160
0.451366
3.182198
-1.733181
-3.272003
-1.215034
-0.336721
-0.686945
5.569694
-3.852234
-2.755003
-0.767745
3.496053
2.984179
0.047640
-5.932706
4.814262
-4.171362
-1.748855
-0.314180
0.260188
-1.095763
1.135358
-0.062960
-0.173184
2.291667
-3.149363
1.330142
-3.203600
-3.755053
-1.671502
-2.256296
0.789236
0.549379
0.079940
-5.311474
-0.299021
-2.704739
-0.596346
-1.255925
0.215795
0.841919
4.699438
1.471072
0.145786
0.958203
-1.076770
-1.829268
1.464392
1.850829
-3.438791
-1.577814
-0.837650
2.759285
-0.455638
-3.878671
-1.927166
-0.532453
0.382775
-1.249197
-2.712912
3.137782
0.141981
3.342016
0.548913
0.537502
6.135875
-0.301904
-0.728409
-0.559627
-1.251743
1.082653
-0.325815
2.963791
0.159950
-2.008527
1.306063
-0.171211
2.244100
-0.367501
-0.957551
-1.519561
-2.017078
-0.280600
5.817782
2.149941
2.474980
0.217885
-0.931898
3.128839
0.683774
3.052235
2.673246
-0.042497
-3.949447
-0.053002
2.216586
3.925439
-1.933685
-0.787688
2.607566
-1.821076
1.760838
-2.789062
-0.065511
1.351676
4.107875
1.185222
-2.158149
0.158661
-0.601740
-2.808091
-1.507774
0.593550
1.533008
-3.047631
0.579011
1.429281
-0.148539
-4.482018
0.503131
2.081151
0.157278
0.022344
1.830072
-1.768008
-1.167872
-0.865856
-2.336582
1.891684
1.958385
-0.508962
-2.960422
2.626803
4.637844
2.057989
0.041391
-3.736070
3.178495
0.878098
-0.606433
0.194653
0.987963
-2.033135
-1.807271
-1.426537
0.005582
3.454532
-2.057041
1.360737
-0.855582
2.941228
1.592888
-0.461791
0.672133
0.004940
-2.553430
1.461801
0.656919
-3.608149
-1.474367
-0.004754
0.475730
1.183477
-0.728998
1.151494
3.202743
0.149392
1.478423
-2.509088
-0.363699
-0.179732
1.599346
1.310977
-1.727185
1.137739
1.000731
-0.187660
1.238023
-0.043932
2.066957
-1.938970
1.273574
-2.400735
-1.446968
-2.511375
-2.394205
-2.376643
-0.962160
-2.075814
-0.684447
-1.339236
1.138259
-0.870184
2.808381
2.385770
0.285462
-0.323925
1.247260
-1.036976
-0.296291
1.016730
1.296022
1.559239
-2.299041
0.579282
1.689051
0.668073
1.108662
-1.217373
-3.367024
-1.287742
-1.102146
1.363545
1.922569
0.437316
1.485343
1.217664
-1.789491
0.293629
3.025851
-0.936714
1.103344
2.120801
0.020002
-0.399163
-1.335427
3.353307
-3.929325
1.513400
0.769269
-1.245054
-0.252070
-1.466819
-2.487734
-3.783248
1.544366
1.195232
1.066318
2.537171
0.042593
2.176658
-2.083052
2.219349
-1.016488
-3.148544
1.123710
-0.484001
-1.615692
-1.048268
-2.079171
1.172444
0.155495
-2.584712
0.326442
-1.021703
-0.436848
1.337383
1.854491
-3.686349
-1.058880
1.565817
1.074697
-1.873345
-2.233673
-0.451029
-0.469964
-1.129889
-1.164947
-0.137706
1.908265
-1.888961
1.345392
2.004633
1.036227
-1.007235
2.287398
2.429955
-1.681491
0.991102
1.351205
-1.403566
2.412791
1.362749
-1.710059
-1.136852
1.941662
1.057091
-1.885011
-2.262401
-0.542229
2.671436
-1.095597
0.737563
1.263010
-3.902186
-0.291848
1.596373
3.354908
-0.539614
-0.316812
3.254625
-1.726241
-0.257136
3.221333
1.041625
2.490976
1.868087
0.180061
4.466847
-1.394032
-2.596058
0.867955
-0.897857
0.296317
3.267981
2.467966
0.003871
2.831675
4.432276
2.409362
-0.601397
1.312064
1.675612
-0.973860
-3.621988
-0.595543
-0.759409
-1.744414
-1.715692
-2.398959
3.002908
3.043948
1.940545
1.600456
-3.324375
0.292871
-0.380338
-0.021325
-1.695236
-0.546282
-0.579447
-1.057951
0.303508
1.250659
-1.815636
1.418063
-2.336226
0.567040
-1.297707
-1.273152
-0.543399
0.065137
-0.676803
-3.939086
4.501019
-0.307850
0.578590
-0.671827
1.172590
0.987622
0.892759
0.148871
-3.150862
0.846894
0.169423
-2.194166
3.873159
1.063586
1.592084
0.713377
-3.819203
1.397236
-0.980694
-1.818057
1.012921
-0.666433
-0.183184
3.701354
1.647830
-0.033674
1.660173
0.559735
-1.942986
1.559104
-0.335241
-0.745707
0.075424
-0.851219
-0.306619
0.669738
0.372720
1.467328
2.158873
0.270158
-1.795304
-1.832583
-2.824731
0.065528
-3.108851
1.759000
0.004798
1.441010
-1.847834
0.284173
-2.485418
0.807587
0.747415
-0.878205
-2.777314
-1.540048
0.765901
-0.007917
-0.273341
0.045846
-1.412194
-0.202096
-2.154488
-1.406913
3.951162
1.738361
-0.190321
-0.360433
-0.700491
-0.090697
1.014016
-1.782246
-1.715402
0.464053
2.361089
-0.930633
1.748196
2.396787
-0.031972
1.010877
-0.517752
-2.848684
0.083820
-2.335614
-1.440622
0.093491
-0.298408
-0.340099
-1.268737
-1.254663
-0.237368
0.379967
-0.062600
1.706210
-1.517264
-2.014121
2.869664
2.744618
0.357144
1.340144
0.555303
0.607289
-1.104844
-1.796181
-1.874696
-1.506732
-0.506561
-1.730408
0.684900
-3.291797
0.014771
3.332799
0.852989
-1.153245
