-0.247618
0.006180
-0.000659
-0.003788
-0.225069
-0.064155
-0.142932
0.567346
-0.075262
-0.012767
0.200985
0.358057
-0.339720
-0.334479
-0.526158
0.266495
0.432947
0.336449
0.294167
0.458568
0.213605
-0.153301
-0.260865
0.234604
0.236839
-0.377433
0.016460
-0.364436
0.021354
-0.045389
0.419264
-0.138980
0.308060
-0.027832
0.700037
0.261649
-0.002318
0.211333
0.016772
0.304949
-0.610915
-0.427136
-0.035334
0.448109
-0.286018
0.380837
0.239556
-0.328932
-0.083468
0.385145
-0.159401
0.074391
-0.256920
0.144002
-0.105442
0.530888
0.047217
-0.184856
-0.359333
-0.330791
0.338436
0.113415
-0.192837
0.391553
0.396721
0.312764
0.407493
-0.457196
0.245777
-0.455473
0.043469
0.158522
0.177166
-0.551413
-0.014159
-0.287075
-0.245152
-0.247367
0.189715
-0.600412
0.490741
0.286229
-0.331215
-0.467578
-0.091946
-0.124102
0.449662
0.516930
0.319866
0.121844
-0.033329
-0.280453
-0.372256
0.261492
-0.031913
0.079504
0.222286
0.164311
-0.469036
-0.119751
-0.281341
0.265087
0.290669
-0.159926
0.490242
-0.383067
-0.332080
-0.078774
0.602626
-0.019940
0.378833
-0.022460
0.316126
-0.159450
0.213755
-0.000009
0.409613
-0.259121
0.119555
-0.246372
0.505801
0.540652
-0.050398
-0.304577
0.257721
-0.340913
-0.433639
0.622100
-0.376194
0.199685
-0.198269
-0.405037
0.127723
0.203299
-0.340607
-0.225866
0.028147
0.272988
0.301826
0.683664
0.197632
-0.267874
-0.593040
-0.716742
-0.328091
0.234770
0.368267
0.493600
-0.192116
0.461482
0.266518
-0.096638
0.057382
-0.252076
-0.259447
0.484273
-0.368037
0.399588
0.355757
-0.558343
-0.497754
-0.127751
0.228766
-0.186297
0.131752
-0.068616
0.469363
0.223253
-0.042889
0.015425
-0.121798
0.341576
0.124491
-0.250339
0.525986
-0.675235
-0.764643
0.325752
0.346871
-0.303411
-0.088366
-0.622502
-0.575514
-0.478508
-0.197401
0.335351
0.133555
0.623575
0.059915
-0.306742
0.528116
0.132581
-0.141416
-0.113482
0.025902
-0.323136
-0.323161
-0.601359
-0.263518
-0.215689
-0.100017
-0.362402
-0.511575
0.274212
-0.257055
0.290602
0.216663
-0.616044
-0.119160
-0.129248
0.360662
0.395342
-0.746962
0.025739
0.035271
-0.594341
0.182827
-0.019616
-0.139241
-0.046466
0.517212
0.063140
-0.538933
0.202295
-0.268473
0.120832
0.098506
-0.110330
-0.246690
-0.164924
0.670240
0.297677
0.257896
-0.166007
0.513625
0.009771
-0.118040
-0.456433
-0.438473
-0.244078
0.629354
-0.445348
0.618902
0.265403
0.504440
0.283345
0.502878
-0.294833
0.213603
0.173313
0.207431
0.489872
-0.450493
-0.457577
0.493191
-0.541325
0.115959
0.582458
0.069490
0.404676
0.451092
0.266900
-0.233971
-0.259506
-0.283665
-0.391163
0.105895
0.213992
-0.188674
-0.070951
-0.165279
-0.139127
0.206382
0.259815
0.324413
-0.358822
0.141987
0.202561
-0.015325
0.190490
0.526883
0.316424
0.235933
-0.018510
-0.304554
0.174702
-0.428137
-0.116233
-0.611292
-0.294203
-0.200857
-0.080803
0.429926
0.339082
-0.566124
0.029442
-0.084825
0.002635
-0.112944
0.055698
0.293011
-0.479397
-0.225999
-0.091445
-0.165271
0.432967
-0.183261
0.612822
-0.605017
-0.690045
-0.107379
0.044372
0.245304
0.239922
-0.313750
-0.611613
-0.291149
-0.320999
0.323012
0.166972
0.156090
0.024193
-0.352899
0.681831
-0.334533
-0.289500
0.112402
-0.421761
0.050197
-0.400156
0.039606
0.141120
-0.142550
-0.325788
-0.010903
-0.669671
-0.399546
-0.038099
-0.328044
-0.151361
0.321110
-0.386858
0.165239
0.463479
-0.116546
0.295372
-0.098647
-0.221774
-0.518878
-0.150292
-0.069600
0.023481
-0.604760
-0.151190
0.042067
0.546267
-0.445921
0.111940
0.175968
0.134736
-0.034043
-0.177049
0.603408
-0.265503
-0.581862
-0.126711
0.155560
-0.169917
-0.016002
-0.209978
-0.106405
0.173580
-0.343271
0.143313
0.596871
0.126242
-0.426861
-0.050444
0.013225
-0.032326
0.039011
0.331357
-0.063751
-0.423793
0.318809
0.124020
0.180047
-0.457484
-0.501372
0.088807
0.276615
-0.510026
-0.530392
0.183615
-0.220519
-0.142851
0.277027
-0.497655
-0.229325
0.502172
-0.496815
-0.234230
-0.514919
-0.454190
0.368957
-0.114010
0.115011
-0.040106
0.306165
0.288517
0.000382
-0.101282
0.034860
0.293471
-0.133427
-0.403273
0.097825
-0.165674
-0.338088
-0.545312
0.048122
-0.079489
0.109498
0.132994
0.663158
-0.243570
0.544961
-0.034735
-0.206186
-0.177891
0.240485
-0.020934
-0.325013
0.493738
-0.121235
0.027487
0.366874
-0.118222
-0.079037
0.073195
-0.265716
0.364595
-0.471769
-0.584036
-0.159457
0.044409
-0.033319
-0.580445
-0.592563
0.183423
0.326376
0.012933
-0.137206
0.118766
-0.014440
0.254081
-0.385505
0.282649
0.150419
-0.148365
0.371222
0.067826
0.484356
-0.368673
-0.576452
0.504532
-0.071341
-0.372882
0.359464
-0.289133
0.364348
0.191272
-0.276170
-0.076781
-0.002227
0.161698
0.176021
0.101284
-0.090680
-0.314026
0.036051
-0.053459
-0.245043
0.238359
0.440273
-0.333717
0.057635
-0.427183
-0.225177
0.030266
-0.490889
0.134707
0.676273
-0.084201
0.077992
0.702201
-0.185098
-0.257566
-0.543839
-0.189310
-0.469377
-0.079717
0.010054
0.567190
0.331948
0.604507
-0.242165
-0.102556
0.160911
-0.090907
-0.323908
-0.427655
-0.515615
-0.043739
-0.465328
-0.026655
0.211010
-0.102145
0.140173
0.325399
0.295707
0.087545
0.246113
0.017013
0.488718
0.251895
0.867361
0.119934
-0.217003
0.100537
0.212651
-0.297055
-0.498335
0.138863
0.072920
-0.345696
-0.207779
-0.382233
0.339242
-0.266827
-0.315922
0.233891
0.096609
-0.144840
-0.209469
-0.463361
-0.200766
0.113423
0.114108
-0.272631
0.340954
-0.357661
0.140341
-0.645909
0.291169
-0.019765
0.434316
-0.150184
-0.144954
0.217981
-0.470853
0.009336
0.123816
0.083950
-0.581519
0.468863
0.150600
0.014202
-0.749549
-0.166706
-0.004590
0.025389
0.175443
0.067353
-0.094428
-0.044136
0.198224
-0.365453
-0.168582
-0.092494
0.271589
-0.006460
-0.025106
0.325730
0.629991
-0.624356
-0.006525
-0.394505
0.668103
0.008075
0.405900
-0.301022
0.100025
0.437624
0.290012
-0.655793
0.351550
0.300783
-0.255931
0.198517
-0.305897
0.327031
-0.211442
0.450072
-0.428383
-0.103809
-0.134523
0.369095
0.102188
0.443595
-0.098634
0.227615
0.304097
-0.050768
0.165767
-0.087904
-0.311165
0.294242
0.235220
0.479057
0.472441
0.142116
-0.023802
-0.009643
-0.561827
0.009296
0.282839
0.470165
0.527825
-0.097220
-0.460980
0.521041
0.199572
-0.045265
-0.450549
0.420802
0.494239
-0.029699
-0.456062
-0.126132
0.057014
0.143768
-0.281006
-0.105831
0.357873
-0.249984
-0.018413
0.169321
-0.496040
0.145170
0.240038
-0.235685
0.427742
-0.459792
0.464269
0.535964
0.201744
0.335216
0.032734
0.810068
0.320638
-0.621828
-0.280577
-0.313608
-0.047601
-0.260491
-0.623023
0.060588
0.444847
-0.498436
0.097807
0.037808
-0.134685
0.708083
0.611065
0.289964
0.025666
0.031509
0.266338
0.358905
-0.386446
-0.149133
-0.205058
0.424573
-0.044376
-0.025915
-0.530985
-0.477671
0.257433
0.414658
-0.307668
-0.157657
0.127245
-0.099338
-0.086938
0.433408
-0.390461
-0.252704
0.253726
-0.410451
0.588504
0.102844
-0.106731
0.286918
-0.520948
-0.028552
-0.199260
-0.413374
0.660577
-0.193292
-0.207223
0.193581
0.434756
0.130437
-0.773843
0.031439
0.400521
-0.445782
0.646375
0.410728
-0.156856
0.078167
0.256372
0.326559
-0.195055
-0.256646
0.294870
-0.718735
-0.327531
-0.094569
0.512773
0.438305
-0.339957
0.264941
-0.162951
-0.238094
-0.402050
-0.212747
-0.263334
-0.180567
-0.357213
-0.179773
-0.438074
-0.576109
-0.341456
-0.345163
-0.113240
-0.186674
-0.530667
0.202945
-0.410232
0.415049
-0.172781
-0.409400
-0.198553
0.091473
-0.447077
-0.041558
-0.017952
-0.348136
0.149330
0.110557
0.213848
0.216646
-0.246061
-0.035163
0.253919
0.193017
0.106577
0.299262
0.358613
0.085706
0.144691
0.408790
-0.300213
-0.308016
0.246929
0.321487
-0.298988
-0.442510
-0.170120
0.260179
0.331276
0.306256
-0.611656
0.637497
0.432568
0.242847
0.387909
-0.206529
-0.116421
0.350903
0.134341
0.379750
0.190895
-0.289297
0.236951
0.220897
0.250715
-0.355543
0.187175
0.369154
-0.403464
-0.340857
-0.491486
0.520454
-0.363484
-0.038663
-0.343021
-0.449242
0.033824
0.381672
0.429667
-0.446598
-0.090402
0.472984
