0.377256
0.141395
-0.004422
-0.050111
-0.378252
0.229074
-0.020865
0.086970
-0.138333
-0.342018
0.104814
0.088487
0.195582
-0.555895
0.274555
0.489569
-0.271532
-0.728007
0.204123
0.171304
0.249344
-0.177593
-0.311557
0.311779
-0.034145
0.110082
0.465540
-0.013338
0.086119
0.179327
-0.056365
-0.486525
-0.255676
-0.270131
0.143387
0.113244
0.027035
-0.123001
0.230370
0.239947
0.102730
0.062111
-0.191326
0.094277
-0.030826
0.142772
-0.078429
0.578678
-0.006882
-0.057327
-0.064154
-0.136747
-0.096637
-0.381492
0.313520
-0.264030
0.198755
0.098445
0.050617
-0.456243
0.119430
-0.363050
-0.133760
-0.155102
-0.401351
0.253168
-0.133540
-0.210138
0.113941
0.538138
-0.196662
-0.597963
0.227331
0.166242
0.253415
-0.361090
-0.405297
0.445799
-0.347124
-0.496510
0.214442
-0.274042
-0.430422
-0.234862
-0.250702
0.026929
-0.046603
0.466500
-0.015417
-0.486567
-0.319809
-0.296019
-0.257113
0.061687
-0.046993
0.165695
0.123423
-0.391892
-0.525307
0.305847
-0.309277
-0.207056
0.268093
0.216484
0.346037
-0.453456
-0.131594
0.041366
0.353856
-0.108044
0.575351
-0.259120
-0.437576
0.201592
-0.107659
0.070637
0.205032
0.376923
-0.076275
-0.180761
0.280193
-0.577466
0.454085
-0.510128
-0.168475
-0.358652
-0.209894
0.295601
0.200874
0.259948
-0.070359
0.251716
0.097489
-0.072227
-0.253900
0.246172
-0.048310
0.174765
0.210211
-0.137337
0.251366
-0.179784
0.276055
0.348528
-0.003757
0.319734
-0.041507
-0.494812
0.316545
0.244205
-0.199727
-0.133276
-0.430715
-0.185526
0.042696
0.001850
-0.119492
-0.236544
-0.210677
0.320809
0.282294
0.183676
0.592085
0.293043
-0.368028
-0.589537
-0.597679
-0.489398
-0.092540
-0.234629
-0.171216
-0.129204
0.017120
-0.222867
0.041003
0.138251
0.238096
-0.651687
-0.086667
0.222808
-0.108100
-0.131840
0.095613
-0.470740
0.363503
-0.252905
-0.546008
0.535064
-0.389671
-0.361965
0.532725
-0.435769
-0.242401
-0.113482
-0.495458
-0.108975
-0.387374
-0.528995
-0.292970
-0.001136
-0.488307
-0.060089
-0.095127
-0.209910
-0.463535
0.400402
0.105700
-0.031214
0.309167
0.238166
0.514502
-0.133149
-0.094952
0.388796
-0.276238
0.360209
-0.498588
-0.158096
-0.325198
0.245344
0.273779
0.402481
0.528928
-0.593157
0.027787
0.543248
-0.216295
0.161226
0.191055
-0.254069
0.674044
-0.420184
-0.499842
-0.043385
-0.342452
-0.371961
0.259580
-0.065131
-0.259538
0.766554
-0.400036
-0.390119
-0.461438
-0.079740
0.154140
0.528088
0.113727
0.041248
-0.558707
0.391542
-0.143923
0.028246
0.192628
-0.202934
0.273106
-0.341790
0.028432
0.507632
0.360369
0.226731
0.360764
0.350041
0.638969
0.516578
-0.672920
-0.322419
-0.457038
0.694641
0.292373
-0.372846
-0.033202
-0.417924
-0.269168
0.273938
0.571387
-0.462514
-0.002455
0.386664
0.515506
-0.437378
0.301068
-0.106308
0.574078
-0.102325
0.603237
0.614660
0.271851
-0.401409
-0.278628
0.288638
-0.025497
0.217558
0.245758
-0.321392
0.451479
-0.060477
-0.063102
0.039076
-0.103844
-0.673961
0.308174
-0.334578
0.390181
-0.417162
-0.077349
-0.451256
0.613504
0.222015
-0.411680
0.696311
-0.265450
-0.181665
-0.470332
-0.104947
0.479869
0.380787
-0.343996
-0.239745
-0.321254
-0.273279
-0.152057
-0.007672
-0.177487
-0.544118
-0.624897
-0.208957
-0.179962
-0.157465
0.201119
0.284058
-0.409406
0.158544
0.015122
-0.488025
-0.175398
-0.072775
-0.019008
-0.085844
0.235503
-0.273504
-0.562607
0.416745
0.441341
-0.253199
-0.463067
-0.682103
0.539554
-0.432172
-0.692371
-0.341577
0.465407
-0.257368
-0.099485
-0.096886
0.266801
-0.131587
-0.690559
0.119556
-0.437498
-0.126185
-0.334456
0.066579
0.136737
-0.152693
0.158176
-0.095982
0.217579
-0.345888
0.408367
-0.206964
0.538135
-0.467259
-0.372342
-0.399822
0.719044
0.041467
-0.691087
-0.411630
-0.065566
0.052026
0.003802
-0.306199
0.063915
-0.169472
0.414801
0.405762
0.639528
-0.310414
-0.508395
-0.021095
-0.066257
-0.476241
-0.407953
-0.238623
0.035400
-0.328849
0.225249
-0.104160
-0.255139
-0.203168
-0.057200
0.330792
-0.363349
0.193204
0.642307
0.386961
0.842636
-0.289634
0.140915
0.309461
0.055571
0.601388
0.039171
-0.046319
-0.211735
-0.255650
0.224795
0.566838
0.456480
-0.229493
-0.137927
-0.419210
-0.207988
0.053218
0.229046
0.099199
-0.118099
-0.297145
-0.180268
-0.321365
0.046032
0.295758
0.248715
-0.240020
-0.344305
-0.047387
-0.483392
-0.057746
-0.052674
0.275436
0.190037
0.292596
0.097484
-0.342624
-0.415511
0.299684
-0.093731
-0.285254
-0.213230
0.252746
0.311362
0.425391
0.275635
0.268479
-0.157296
0.163744
0.111873
-0.371728
-0.046101
0.329776
0.223821
-0.212563
-0.310738
-0.276090
0.322106
0.135780
-0.109666
-0.560533
0.204535
-0.605107
-0.002887
-0.134338
0.033011
0.124145
0.704790
-0.184362
-0.266214
0.439080
-0.127616
-0.203920
-0.657511
-0.357096
0.053577
0.062601
0.506999
-0.546017
0.030575
-0.145737
-0.572476
-0.371435
-0.386280
-0.119269
0.619020
-0.347236
0.173841
0.136219
-0.209193
0.025551
-0.219031
-0.470096
-0.504882
0.194305
0.139107
-0.100481
-0.320225
-0.280336
-0.106434
0.228052
0.240694
0.326975
-0.433184
-0.321193
-0.630099
-0.284631
-0.490905
-0.208641
0.416590
-0.506055
0.114180
0.265243
0.358983
0.040162
0.690959
-0.244207
0.119330
0.428176
-0.268008
0.127226
0.147471
-0.414981
0.450430
0.149295
-0.303558
0.037303
0.354544
0.285857
-0.178560
0.038323
0.392457
0.016944
0.449943
0.352193
-0.236742
-0.739885
0.246415
0.095180
0.480826
-0.526859
0.060579
0.291290
-0.240483
0.610331
0.328511
-0.306689
-0.136637
-0.100807
-0.276290
-0.305953
0.546604
0.200262
0.173851
0.322119
0.062661
0.206652
-0.477695
0.584147
-0.386511
-0.108372
-0.011913
-0.393789
-0.191062
0.412941
-0.333723
0.037145
-0.059076
-0.395239
-0.425240
-0.089467
-0.111313
-0.000745
0.207624
0.565918
0.226117
0.499341
-0.419236
0.214172
0.072130
0.244365
0.277288
0.441171
0.214119
0.387829
0.622951
0.578727
-0.574845
-0.569143
0.168692
0.327137
-0.599173
0.269137
0.263991
0.345788
-0.490750
0.112846
-0.661152
0.462197
-0.670890
-0.087093
0.425889
0.364641
-0.477852
0.410327
0.188865
0.469557
-0.079057
-0.563169
-0.271153
0.245212
-0.522063
0.874833
0.432940
0.507964
0.065320
0.141746
0.072476
0.364242
0.146051
-0.224541
-0.130913
-0.020065
-0.502729
0.046009
-0.169205
-0.351475
0.311376
-0.225158
-0.521672
0.511335
0.283488
0.725113
0.364788
-0.163985
0.012174
-0.106613
0.476320
0.030960
0.170529
0.420325
0.383679
0.322756
0.078822
0.517081
0.408433
-0.527092
-0.429525
0.390505
-0.312901
-0.122480
-0.706372
-0.146401
0.225365
0.749278
-0.199862
0.287662
0.230997
0.295663
0.210085
0.161620
0.139307
-0.364621
-0.068882
-0.145614
-0.104317
0.455131
-0.071092
-0.302620
-0.101388
-0.287226
0.002215
0.311828
-0.374838
-0.378913
0.166798
-0.487924
-0.075407
-0.395286
-0.063639
-0.428217
-0.203448
0.322237
-0.186375
0.111429
0.731404
0.159297
0.075077
-0.599061
0.003159
-0.169501
-0.082679
-0.454530
0.644745
0.035104
-0.406457
0.310680
0.222073
0.138288
-0.344932
0.073623
-0.230230
0.454505
0.402272
-0.310549
0.410821
0.001422
-0.711923
-0.309228
0.300682
-0.009082
0.409354
0.381150
0.019251
0.270114
-0.306803
0.274297
-0.165447
-0.333413
-0.151146
-0.360597
0.277723
0.394729
0.037543
0.590542
0.301368
-0.091000
0.090640
-0.245073
0.100844
0.235898
0.483051
-0.271271
-0.187246
0.127492
0.043026
-0.488625
-0.644298
0.617010
-0.154956
0.468910
0.459571
-0.120825
-0.626535
-0.294574
-0.531354
-0.075463
0.151185
0.140853
0.272358
-0.032341
0.046535
0.031295
0.299878
-0.307543
0.610546
-0.307551
0.030123
0.054392
-0.191149
0.443111
0.485542
-0.122595
-0.205947
0.373918
-0.364975
-0.369605
-0.000117
-0.272577
0.352230
-0.528203
-0.047716
0.297752
0.347213
0.371870
0.158553
-0.133207
0.200152
0.425876
-0.097582
0.355891
-0.037396
-0.330743
-0.132817
-0.676396
0.268412
-0.069293
-0.524859
-0.427831
-0.053331
0.154755
-0.059339
0.523597
-0.307484
0.139286
0.492808
-0.375466
-0.095465
-0.061876
-0.414232
-0.048516
0.018320
-0.343856
-0.109473
0.259080
-0.208974
0.450186
0.000861
0.485236
