0.189656
-0.133043
0.025093
0.037416
-0.331357
-0.077658
-0.117684
0.139263
-0.077678
0.192022
-0.372699
0.195831
-0.332616
-0.244081
-0.323993
-0.495418
-0.190267
-0.618394
-0.569948
0.500093
0.177714
0.124098
0.024149
0.515353
0.179813
-0.351708
0.056188
0.198599
0.088138
-0.121032
0.146829
-0.117274
-0.433408
-0.061681
-0.298858
-0.668823
-0.215335
-0.508663
0.417083
-0.632079
-0.344277
-0.085038
-0.553418
-0.297330
0.256563
0.460096
0.474177
-0.291522
0.017762
0.495323
0.061877
-0.048559
0.333556
-0.289769
0.368692
-0.321031
-0.516190
0.068854
-0.429398
-0.228703
0.095574
-0.408113
0.342543
-0.278953
-0.251159
-0.299831
-0.268866
0.075517
0.224498
-0.451093
0.300450
-0.635278
0.460262
0.196904
-0.575773
0.249286
-0.218371
0.006015
0.272827
-0.253008
0.155166
0.215226
-0.374092
-0.472143
-0.319978
0.274854
-0.225990
-0.300033
-0.389247
0.184068
-0.135219
-0.042894
-0.407885
-0.086654
0.223118
-0.195411
0.260824
-0.403747
-0.483132
0.272729
0.647170
0.345487
-0.372689
0.283086
-0.391579
-0.350000
0.420804
-0.603976
0.044882
0.186992
0.233451
0.047814
-0.284981
-0.052358
-0.354925
0.064846
-0.022448
0.175421
-0.037593
0.410001
0.445331
0.014332
-0.077002
-0.154179
0.002937
0.316056
-0.093314
-0.009872
0.488617
0.230933
0.416500
0.243698
0.353854
0.344699
-0.520566
0.540549
0.078466
0.313712
-0.031720
-0.268507
-0.542790
0.138011
-0.275716
-0.131386
0.533989
0.228977
-0.142302
0.151015
0.401158
-0.095119
0.231970
0.496096
0.298702
0.196765
0.246637
0.596286
0.168110
0.746732
-0.571671
-0.347993
0.454740
-0.534601
0.832484
-0.483290
0.137859
-0.063708
0.103671
-0.206065
-0.276556
-0.155877
0.260317
-0.334569
0.081728
0.481789
-0.398805
-0.173344
0.480657
0.106196
0.330810
0.205354
-0.122963
0.708361
0.032114
0.510635
0.272014
0.335411
0.547571
-0.224028
-0.089400
-0.228878
0.522165
-0.139922
-0.205666
-0.133500
-0.265790
-0.066323
0.338611
-0.277386
-0.272464
-0.243737
0.214263
0.299262
0.271830
-0.058679
0.193777
0.570695
0.174379
-0.337114
-0.184670
0.374216
-0.065506
-0.113798
0.097246
0.248250
0.109514
-0.518135
-0.125656
-0.176582
0.393208
-0.176933
-0.556785
0.470623
0.648482
0.094510
-0.296494
-0.054736
0.074059
0.418114
0.069199
0.117075
-0.146301
-0.516882
0.683618
0.134298
-0.442838
0.078135
0.029534
0.028747
-0.335711
-0.515225
-0.433751
0.194613
-0.464114
-0.119206
-0.562235
0.105357
-0.581557
-0.023218
-0.172763
-0.207902
-0.173674
-0.300366
0.124521
0.264443
-0.204949
0.643448
-0.733092
0.008234
0.106080
-0.099999
0.323653
0.062518
-0.292826
-0.363414
0.033184
0.145614
-0.535888
0.701033
-0.189136
-0.197198
-0.270403
-0.336010
0.471909
-0.109012
0.215284
0.531928
0.081863
0.478521
-0.515001
0.239629
0.116244
-0.273559
0.484811
-0.365530
-0.373669
0.360595
0.102342
-0.267096
0.324120
0.638859
-0.338676
0.371228
0.243135
-0.235224
0.074047
-0.067683
-0.273130
0.091790
0.491207
-0.246995
0.099024
-0.268631
0.266384
-0.134799
-0.120318
0.158662
-0.424308
0.402837
-0.323701
-0.774070
-0.186695
-0.088137
0.124474
0.491801
-0.470945
0.289364
0.047656
0.117779
-0.434172
-0.427091
-0.005947
0.627682
0.078857
0.768234
-0.510446
0.235639
0.173017
-0.552669
-0.405293
0.619326
0.094945
-0.173957
-0.026210
-0.164049
0.311335
0.337886
0.110391
0.288708
0.724497
0.029456
-0.109531
-0.324622
-0.657672
0.223157
-0.114009
-0.464718
0.328401
0.002938
-0.516903
0.579244
-0.287201
-0.177741
-0.427136
0.526557
-0.075862
-0.414522
0.041536
0.441172
-0.230904
0.289673
-0.220390
0.303736
-0.268822
-0.390175
0.105805
-0.524662
-0.328737
-0.254630
0.026353
-0.826069
0.019979
0.082327
0.395853
0.016222
0.446685
-0.445468
-0.097890
0.187448
-0.252097
0.125851
-0.275618
-0.189256
0.319362
-0.622929
-0.569414
-0.248682
0.009524
-0.337199
-0.031625
-0.015769
0.015788
-0.165458
0.261931
0.153458
0.113858
0.346932
-0.177804
0.350182
-0.444037
-0.085868
-0.257079
-0.210344
-0.064663
0.315204
-0.128592
0.174591
0.105755
-0.157405
0.181041
0.191956
-0.471915
-0.462270
-0.179435
0.482861
-0.322758
-0.158761
0.253980
0.458910
-0.345843
0.274990
-0.084372
-0.257842
0.027078
0.386429
0.348828
-0.253682
0.223839
-0.179580
0.259371
0.277196
0.073679
-0.407826
-0.016673
0.107776
0.114190
-0.098983
0.492726
-0.550423
0.391512
0.256911
0.460093
0.453246
0.129012
0.332900
-0.009509
-0.185668
0.366603
-0.429315
0.398349
-0.310389
0.514230
-0.393449
0.078353
-0.109069
-0.221244
-0.582885
-0.052693
0.189290
0.428374
-0.051956
0.174961
-0.413280
0.426280
-0.057287
0.236267
-0.215819
-0.214389
-0.228645
0.238184
-0.665689
-0.075355
0.383958
0.288076
-0.092262
-0.233609
-0.116597
0.084154
0.467974
-0.179913
0.338755
0.413181
0.357746
-0.194711
0.413331
0.013257
-0.667613
0.341161
0.161213
-0.200778
-0.078715
-0.498630
0.260753
-0.374798
0.043717
0.042366
-0.372738
0.095181
-0.537841
-0.457636
0.046991
-0.429692
-0.084926
-0.052106
-0.246130
-0.052798
-0.281476
-0.559986
-0.020161
0.324211
-0.141997
0.294840
-0.041883
-0.401808
0.042345
-0.198231
-0.154335
-0.571010
0.230230
-0.033470
0.333998
0.491977
-0.479072
0.028930
0.424884
0.339084
-0.303146
-0.128790
0.326356
-0.568619
0.302531
-0.369570
-0.227353
-0.049082
0.051140
0.370597
-0.329381
-0.402730
0.353210
0.036549
-0.504024
-0.342921
0.326239
0.239609
-0.325325
0.295128
-0.112092
0.031997
-0.139658
-0.041549
0.336455
0.361034
0.410006
0.243441
-0.304180
-0.087989
-0.002129
0.028695
0.775660
-0.494088
-0.143958
0.489095
-0.001389
-0.068718
0.018554
-0.460689
0.231931
0.304938
0.326285
0.532812
0.403324
-0.283550
0.163931
-0.472193
0.103326
0.296891
0.509197
-0.113234
0.377245
-0.318031
0.494332
0.476622
0.464648
-0.034397
-0.164078
-0.264917
-0.285166
-0.226581
-0.248028
-0.588677
0.437724
0.143624
0.364780
0.638772
0.084526
-0.389668
-0.486433
0.263221
-0.415775
-0.632173
-0.100455
-0.245161
0.386551
0.050046
0.069335
-0.166984
-0.378267
0.320472
-0.224999
-0.453440
0.058882
-0.098054
0.349196
0.188161
-0.028737
0.263868
-0.422769
-0.471715
-0.227440
0.148574
0.371454
-0.632759
0.406702
0.489672
-0.280492
-0.428853
0.198022
-0.426858
-0.038839
-0.340975
0.151138
-0.195411
-0.093390
0.335295
-0.351048
-0.487452
0.089938
-0.546414
-0.440180
-0.429982
0.115803
0.318653
-0.202442
0.004086
-0.297929
-0.031028
-0.163921
0.491230
-0.024937
0.118533
-0.001506
-0.100042
0.591469
-0.090225
-0.035405
-0.411303
0.484535
-0.286923
0.486437
-0.371535
0.405841
0.240508
-0.159899
0.214573
-0.190422
0.187175
-0.089839
-0.811282
-0.007972
-0.087351
-0.301825
0.430878
0.387720
-0.209801
0.157642
0.094069
-0.057817
-0.006442
0.166206
-0.012454
0.247925
-0.098868
0.270864
-0.686698
0.327165
0.007823
0.194120
-0.301333
-0.472652
-0.332309
0.271124
-0.306936
-0.671826
-0.213200
0.430348
0.133516
0.287781
-0.273346
0.416593
0.141857
-0.220374
0.266394
0.639492
-0.072061
0.365768
-0.630783
0.036985
0.371537
-0.575794
0.271432
0.164434
0.365908
0.248209
-0.041213
-0.202239
-0.102547
0.377431
-0.239411
0.133021
0.284452
0.383433
-0.416544
-0.561250
0.324451
-0.087755
0.156669
0.233184
0.186078
-0.352532
-0.302598
0.032398
-0.421924
-0.325390
-0.092678
0.209531
0.072187
0.220339
-0.267153
-0.341690
-0.382108
-0.571519
-0.251320
0.076219
-0.170157
-0.077392
0.195997
-0.158278
0.563839
-0.278759
0.342730
-0.419187
-0.480508
-0.561116
-0.133968
-0.221017
-0.212192
0.380650
0.018422
-0.339436
-0.433325
-0.240554
0.155781
-0.562730
-0.421582
0.035530
0.293965
-0.066864
-0.329210
0.382728
-0.075517
-0.187725
0.241485
0.136836
-0.037937
0.372351
0.186058
-0.640002
-0.410165
0.555371
-0.530519
0.092514
0.032956
-0.308338
0.160143
-0.131288
-0.127883
-0.236981
0.306699
0.243837
0.191126
-0.087391
0.703093
0.305976
0.152256
0.050344
-0.039515
0.330185
0.363456
0.233907
0.427174
-0.529051
-0.027641
-0.155932
-0.521475
-0.718692
-0.503121
0.350758
-0.235170
-0.142322
-0.588547
-0.030874
0.095815
-0.093394
0.147534
-0.042320
0.119326
-0.257588
