0.271355
0.074708
-0.469760
0.091988
0.042611
-0.234901
0.139038
0.408926
-0.240694
-0.017108
-0.611378
-0.278775
0.016791
0.562559
0.069859
0.692353
0.001147
0.316372
0.305630
0.493750
0.475890
0.113974
-0.076151
-0.002151
0.418897
-0.331488
0.538996
0.006487
-0.440505
-0.572755
-0.293009
-0.219468
-0.409203
-0.552610
-0.073126
-0.020246
-0.126106
-0.164717
-0.121842
-0.451099
0.493338
-0.030511
-0.213637
-0.330876
-0.571203
-0.055030
-0.055455
-0.102766
-0.364782
-0.448505
-0.113090
0.066783
0.035999
-0.470616
0.145645
-0.535767
0.308701
0.089532
-0.254567
-0.421601
0.100568
-0.367689
0.417646
-0.277276
-0.029255
0.383648
-0.163966
0.245947
-0.106953
-0.130787
0.021925
-0.328879
0.137650
-0.408066
0.352877
0.239296
0.269655
0.278059
-0.048256
-0.485275
-0.144720
-0.740698
0.518325
0.409192
-0.355766
-0.018916
-0.046364
-0.144820
0.245078
-0.022925
-0.276908
0.152058
-0.083214
-0.465397
0.214847
-0.151891
-0.593471
-0.421750
0.408008
0.150367
0.272867
0.081213
-0.079232
0.295460
0.073614
0.060544
-0.064391
-0.530279
-0.128691
0.235772
-0.034399
0.031377
-0.238606
-0.098913
-0.347876
-0.030791
0.243607
-0.571827
0.415138
-0.476402
-0.466560
-0.236030
-0.151281
-0.196271
0.288477
0.576706
0.232786
0.050017
-0.262958
0.138647
-0.583714
-0.241839
-0.030905
0.113636
0.058980
0.025992
-0.429343
0.146441
-0.480999
0.198760
0.217611
-0.156409
-0.282563
0.444397
0.223309
0.018743
-0.392698
-0.530202
-0.109318
0.334235
-0.047004
-0.552874
0.471529
0.061119
-0.128753
0.332209
-0.387034
0.164486
0.225632
-0.239292
-0.220277
-0.064601
0.474876
-0.323188
-0.433764
0.416297
0.246545
-0.241344
-0.286905
-0.073135
-0.353537
-0.147335
-0.131348
-0.050109
0.195317
-0.086521
0.280998
-0.384717
-0.026688
-0.086543
-0.168713
0.550744
-0.054528
-0.505046
0.370827
0.183346
0.013530
-0.080552
-0.001050
-0.367596
-0.236121
-0.232701
-0.115012
0.403697
0.240007
-0.375742
0.169969
0.167582
-0.304012
0.220633
0.300408
0.428267
-0.712159
-0.648300
-0.262067
0.002624
0.333790
-0.300683
0.185712
0.463086
0.038303
0.122871
-0.111212
0.301160
0.399687
0.096659
-0.358593
0.243912
0.641698
-0.202185
-0.144182
0.024770
-0.535305
-0.637973
0.301804
0.285586
0.219171
-0.400963
0.023019
-0.355491
0.293203
-0.459344
0.233705
-0.375450
-0.461925
-0.664670
0.172731
-0.371219
0.133136
-0.181309
-0.416210
0.104477
0.284337
-0.050809
-0.547342
0.413642
0.245734
-0.106626
0.414208
0.207384
0.185675
-0.317250
0.577916
0.360250
-0.517459
-0.050154
0.149829
0.400160
-0.209226
0.160178
0.098533
0.106966
-0.118058
-0.274759
-0.283665
0.323337
-0.323710
0.485028
-0.077184
-0.282604
-0.399729
-0.139079
0.489607
0.127887
-0.415533
-0.141511
0.097617
-0.127290
-0.355355
-0.037611
0.358544
0.367867
-0.230323
0.120800
-0.426758
-0.378037
-0.384749
-0.177534
-0.571372
0.054878
-0.749495
0.442871
-0.189328
0.304388
0.531488
-0.087243
0.036894
-0.063539
-0.021171
-0.567133
-0.296617
0.013572
0.445931
0.114180
-0.231811
0.675309
0.186160
-0.034623
-0.085493
0.294957
-0.165304
-0.176849
0.113388
-0.183275
0.135761
0.169402
0.015517
0.515183
0.358463
0.026395
-0.119285
0.502555
0.513415
0.541376
-0.475960
-0.078498
-0.214268
0.189858
-0.354002
-0.176206
0.376437
-0.048878
0.390760
0.869599
0.119310
0.035215
-0.436391
-0.235554
-0.416688
0.370081
-0.451392
-0.392690
-0.087563
0.288013
0.418046
0.350286
-0.133809
-0.206633
-0.258624
0.136051
-0.331157
0.740361
-0.501223
-0.096886
0.227373
0.195324
-0.093081
0.255066
-0.203428
0.416180
-0.244797
0.008903
0.028643
0.577726
0.099370
-0.567896
-0.440031
-0.109217
0.375811
0.085742
0.407875
-0.448699
-0.088445
-0.388385
0.245679
-0.455989
-0.600229
-0.428592
0.035583
0.353247
0.021284
-0.449361
-0.624983
0.524535
-0.183740
-0.170483
-0.174544
0.065897
-0.335292
0.581988
-0.281899
-0.091474
-0.155319
0.378847
0.421819
0.206655
-0.352238
0.253422
-0.170781
-0.360486
0.238677
-0.038959
-0.243168
0.093125
-0.346703
0.188073
0.018656
-0.157725
0.038439
-0.425345
0.055571
-0.538303
-0.551664
0.152775
-0.065928
-0.040919
-0.686893
-0.143259
-0.610118
0.166683
0.112848
0.102312
-0.099720
0.156796
0.396486
0.014986
0.399685
-0.525628
0.344406
0.309954
0.094905
-0.382013
-0.237608
-0.441595
-0.146679
0.364465
-0.270371
-0.035587
0.139119
-0.017955
0.468619
-0.190296
-0.212482
-0.410098
0.241361
-0.070398
-0.109078
0.243629
0.371808
-0.643930
0.587269
-0.012470
-0.209182
0.553881
0.144941
-0.125676
-0.401594
-0.067171
-0.145030
-0.246676
-0.607805
-0.156792
-0.418210
-0.069167
-0.547026
-0.539858
-0.494061
-0.003365
-0.821648
-0.439801
0.301692
0.153693
-0.718579
0.298350
-0.029639
0.263855
-0.133700
-0.065330
-0.216793
0.527248
-0.216636
-0.262211
-0.475145
-0.207277
-0.260468
0.616336
0.425328
-0.252174
0.522267
0.310878
-0.025478
-0.035151
0.551513
-0.130144
-0.116841
0.170724
0.010815
0.071639
0.441866
-0.407963
-0.586329
0.458741
-0.012588
-0.390568
-0.552532
0.086121
-0.203177
-0.126534
0.076452
0.590142
0.191794
-0.248700
0.102190
-0.399766
0.317719
0.115831
0.167499
-0.102260
0.393498
-0.494439
-0.407203
0.012807
-0.185192
0.585217
-0.620909
0.600248
0.113690
0.082054
-0.171464
-0.518612
-0.012170
-0.198526
0.013739
0.315025
-0.550418
-0.288180
0.095445
0.160467
-0.032462
-0.309941
0.455570
0.302678
0.256005
0.110176
0.051531
-0.367111
-0.574053
-0.022827
0.258297
0.223738
0.165546
-0.516781
-0.463304
0.089282
-0.118026
0.002150
0.370649
0.003418
-0.322303
-0.170510
-0.072419
-0.248322
-0.706055
-0.046492
-0.508849
-0.033546
0.049326
-0.191913
0.046362
-0.538786
0.653386
0.410006
0.212562
-0.081610
0.167708
0.389638
0.152192
-0.449048
-0.070396
-0.238362
-0.175870
-0.303274
-0.173031
-0.235726
-0.198587
-0.257025
0.432478
-0.230569
-0.280313
0.464589
-0.204607
-0.272456
-0.451488
-0.126739
-0.049788
-0.300681
0.458146
-0.072438
0.528902
-0.226797
-0.253650
-0.098478
-0.297085
0.524520
0.108386
-0.128140
-0.632166
0.018010
0.211213
0.514475
-0.440026
0.070727
0.156245
-0.241315
0.317681
-0.105644
0.483368
-0.504778
0.224973
0.673181
0.235591
0.078526
-0.489118
0.064639
0.390997
0.134959
0.506314
-0.229954
-0.215395
0.249151
-0.296254
-0.237083
-0.079654
-0.251130
0.330108
0.082077
-0.622698
0.266276
0.286865
0.288530
-0.232766
0.056768
-0.038891
0.608924
-0.170267
0.646332
-0.222787
0.034910
-0.291914
0.241837
0.243296
0.088808
0.561089
0.608669
0.177961
0.410876
-0.008326
-0.302629
0.108760
0.307813
-0.315109
-0.790343
0.100714
-0.152627
0.229557
0.143016
0.539053
0.215293
-0.272553
0.390916
0.103594
0.063273
-0.210638
0.005308
0.001113
-0.089694
-0.120402
0.114754
0.121890
-0.157469
0.005430
0.676222
-0.028231
-0.617872
-0.549875
-0.144667
0.505583
-0.076849
-0.144187
-0.288690
-0.084832
-0.219696
0.330384
-0.086632
-0.296699
-0.262635
0.110408
-0.412696
0.106476
0.565160
0.237308
-0.556855
-0.092146
0.036472
0.380619
-0.334501
-0.219358
0.143540
0.286671
0.506661
0.127329
-0.029001
0.362703
-0.467569
0.328458
0.650376
0.240534
-0.272180
-0.522129
0.285826
0.158454
-0.220876
-0.251815
0.286591
-0.408574
0.034788
0.456763
-0.199950
-0.249972
-0.226439
0.431206
-0.313573
-0.374672
-0.340012
-0.199365
-0.270408
0.373741
-0.376888
0.342037
0.497890
-0.200070
-0.605221
0.342380
-0.079905
-0.117725
0.576336
-0.154956
0.379269
0.529149
-0.379768
0.304654
0.147950
0.132713
0.331260
-0.355116
0.277322
-0.485284
-0.254215
-0.253739
-0.378789
-0.229177
0.301492
-0.374213
-0.162588
-0.245293
0.240514
-0.369954
-0.218840
-0.054185
-0.281160
-0.402224
-0.157966
-0.521957
0.400937
-0.286307
-0.368318
0.253378
-0.247335
-0.054186
0.412468
0.611409
-0.022586
0.166145
-0.175003
0.105627
0.536647
0.512412
-0.057186
-0.564286
-0.598439
-0.119011
-0.190760
-0.117409
-0.372196
0.048559
-0.404330
0.318697
-0.016915
-0.142443
-0.310127
-0.277936
-0.519527
0.232368
0.124052
0.158854
0.302497
-0.288924
-0.584344
-0.274665
-0.364430
-0.009119
0.252484
-0.658863
0.186726
0.372282
0.126717
