0.220050
-0.568200
-0.178226
0.511410
0.550438
0.254452
0.149366
0.155915
-0.297639
0.484452
-0.193523
0.220235
0.660829
0.345566
-0.176643
0.350688
0.055347
0.318034
-0.503644
0.193716
0.093081
-0.338087
0.227469
-0.203122
0.418897
-0.030803
0.189615
0.121234
-0.117296
-0.024967
0.666615
0.012023
-0.496690
-0.100169
0.585113
0.497724
-0.086277
-0.116901
0.387199
0.423124
0.295371
0.094580
-0.335941
0.489606
-0.410835
0.076957
0.048829
0.333626
0.512738
-0.335136
0.240592
-0.273542
-0.224490
0.447746
0.329351
0.430097
0.285929
-0.402493
0.366192
-0.260061
-0.227748
0.148555
0.133441
0.229156
0.140296
-0.556952
-0.577415
0.420434
0.235567
-0.603889
0.099198
0.108661
0.282583
-0.005976
0.383931
0.008747
-0.282616
-0.222265
0.001486
-0.544744
0.230617
0.072608
-0.405401
0.402413
0.429311
0.153581
-0.170595
-0.039409
-0.031226
-0.191051
-0.037548
0.250037
-0.361757
-0.136444
-0.031113
0.071821
0.206382
-0.068933
0.202443
-0.253124
-0.079228
-0.081506
-0.120524
-0.322053
0.675863
-0.074499
0.250723
-0.353168
-0.166362
-0.026205
0.019244
-0.190450
-0.303961
-0.042001
0.122904
0.208469
-0.085000
0.100317
-0.105877
0.440379
0.108777
-0.319220
-0.263864
-0.213663
-0.428041
-0.113619
-0.388754
0.595426
-0.119243
0.016568
-0.019515
-0.405117
0.202537
0.262817
-0.289049
-0.614195
-0.062985
-0.550489
-0.482361
0.483298
-0.606205
0.041609
-0.626395
-0.081694
-0.213195
0.549669
0.342580
0.279587
-0.363965
0.170403
-0.246665
-0.552874
0.210312
-0.180964
-0.124190
0.590711
-0.399276
0.268710
-0.087810
-0.467265
-0.488817
0.352715
0.206006
-0.109206
-0.217556
0.424963
-0.319072
0.149956
-0.123558
-0.420228
0.497734
0.223699
0.073879
-0.410790
-0.338127
-0.288795
-0.143580
0.053811
-0.094229
-0.235913
0.401301
-0.313256
-0.450264
0.120690
-0.390894
-0.557427
-0.028295
0.544089
0.091995
-0.414363
0.423617
-0.570679
-0.137337
0.303928
0.403793
-0.368031
0.213570
0.195862
0.384247
-0.421254
0.577272
-0.448994
0.360567
-0.075440
-0.347355
-0.050478
-0.528766
-0.140663
-0.125273
-0.035643
-0.258511
-0.191199
-0.063814
0.223028
0.342826
-0.029234
-0.049636
0.117152
-0.234874
-0.001989
-0.217342
0.196994
0.023082
0.201447
0.160318
0.404285
0.237290
-0.296042
0.055928
-0.211922
0.198926
0.431840
0.237582
0.105042
-0.432515
0.232182
-0.459151
-0.084983
-0.575617
0.275364
-0.346242
-0.195798
0.053307
-0.041781
-0.525165
0.002665
0.482943
0.533082
0.189963
0.078311
-0.196829
-0.257356
-0.035752
0.168321
-0.102024
-0.058989
-0.250592
0.452801
0.262260
0.021479
0.257426
0.248074
-0.341074
-0.257725
0.159048
0.187364
-0.228472
-0.323397
0.136529
-0.622035
0.004340
0.605711
0.435899
-0.491635
-0.152437
0.006300
0.102737
-0.030329
-0.037612
-0.330455
0.396956
0.291302
0.450384
0.459988
-0.106812
0.011451
-0.427399
-0.336369
0.017880
0.454822
0.485076
-0.764134
0.230965
-0.811685
0.119694
-0.223646
-0.321539
-0.016577
-0.354674
0.045334
0.308174
-0.597696
0.605998
0.019547
-0.656036
-0.461050
0.571392
0.150379
-0.394136
-0.170632
-0.269473
0.088306
-0.236263
0.112767
0.203301
-0.454148
-0.336243
0.055021
0.480585
0.331827
0.212226
-0.028420
-0.410878
0.181752
-0.108572
0.532685
-0.223618
-0.434217
0.076785
-0.281460
0.149214
0.493248
0.275837
0.366261
-0.091265
-0.035568
0.331159
0.262687
-0.310584
0.111174
-0.149292
0.544429
-0.412585
0.507657
0.488403
-0.142058
0.136735
-0.261866
-0.564782
-0.020841
0.161366
-0.474933
0.184799
-0.504306
-0.134865
0.106200
0.204448
0.146958
-0.262594
0.118573
-0.289071
-0.361515
0.058864
0.591685
0.241418
0.016710
0.220959
-0.214022
0.089459
0.113377
0.417115
0.610507
-0.088937
0.326105
0.558563
-0.253127
-0.374508
0.222510
-0.007677
0.478390
0.021594
-0.049493
-0.289564
-0.307556
-0.204245
0.515088
-0.016491
0.047858
0.246137
0.495326
0.431541
-0.269953
0.271287
0.013263
0.454485
-0.475870
-0.338343
0.057661
-0.055380
-0.257273
-0.007826
-0.537422
-0.032662
-0.065136
-0.319283
0.316598
0.415355
-0.155884
-0.032689
0.415930
-0.254416
0.167417
-0.282697
0.419046
-0.252310
0.060458
0.175428
0.308273
0.497698
0.310675
0.462182
-0.334802
0.414757
0.279419
-0.360760
-0.209143
0.489146
-0.560807
-0.224543
-0.536765
0.255619
-0.257749
-0.417741
-0.578195
-0.069725
-0.135199
-0.150919
0.416884
0.567277
-0.096312
-0.302122
0.489890
-0.214513
-0.407394
-0.121647
-0.393861
-0.370014
0.437859
0.272644
-0.244464
-0.295619
-0.037135
0.439451
0.039507
-0.521479
-0.030490
0.105230
0.216052
-0.653149
0.292731
0.086426
0.419606
0.033781
-0.326801
-0.157373
0.551035
-0.403405
-0.207970
0.449928
-0.208073
-0.334386
-0.289361
0.240389
0.283083
0.021515
-0.065141
0.338747
-0.220997
0.055853
-0.287243
0.227733
0.094342
-0.185102
0.347081
-0.028374
-0.045027
-0.199496
0.042731
-0.578199
-0.326620
0.063116
0.336059
0.763897
-0.267881
0.031325
0.048168
-0.519512
0.315761
-0.369313
-0.206352
0.215336
0.269875
0.195481
0.460431
-0.473742
-0.343840
-0.131811
-0.515238
0.495273
-0.182119
0.695243
0.299386
-0.272575
-0.537931
-0.458477
-0.386480
-0.355323
-0.383599
0.493772
-0.344065
-0.084567
0.678830
-0.459140
0.399734
0.199571
0.270638
-0.149236
0.182615
-0.057326
-0.396199
-0.402243
0.028798
0.406019
-0.121373
0.249432
-0.423670
-0.394103
-0.023359
-0.080871
0.156378
0.176177
0.452417
-0.250001
-0.599572
-0.207889
-0.101049
-0.440912
0.381100
0.087068
0.481378
-0.131902
-0.345622
0.046230
-0.361744
0.562723
-0.327166
0.201888
0.157677
0.046560
-0.022498
0.191002
0.138953
-0.344623
0.591679
-0.333208
-0.173902
-0.364568
0.330769
0.153153
-0.655316
0.036885
0.523368
0.285128
-0.288898
0.054687
-0.627954
-0.139974
0.377245
0.855616
0.409338
0.285133
-0.136125
0.593318
0.502251
-0.340588
-0.298721
-0.058237
-0.377309
-0.524760
0.371284
-0.098823
-0.133380
0.030603
-0.343626
-0.430183
-0.722761
0.199348
-0.173012
-0.354327
-0.329381
-0.115255
0.320751
0.154688
0.358335
0.504265
0.079116
0.518425
0.468804
0.032712
0.068976
0.218345
0.440417
0.322270
-0.038599
-0.033633
-0.191076
-0.254244
-0.150304
0.381574
-0.371712
-0.318852
-0.010783
0.665588
0.060798
0.144845
0.394262
-0.423747
0.045339
0.524040
0.179271
-0.276017
-0.110327
-0.094092
0.364199
-0.279520
0.323510
-0.336113
-0.041734
0.082311
0.573745
-0.540231
0.358601
0.544860
0.424746
0.299804
-0.181843
-0.096111
0.345440
0.132887
0.048644
0.360872
0.431228
0.012631
-0.287882
-0.405188
0.502227
0.439424
0.432894
-0.420725
0.144800
0.021609
-0.012181
0.254510
0.618957
0.438507
0.127645
0.376502
0.041447
0.086731
0.481894
0.096920
-0.448856
-0.020567
0.633178
0.311231
0.168065
-0.342684
-0.054723
-0.175716
0.286101
-0.339910
0.067376
-0.372803
0.397839
-0.524243
-0.185040
0.241100
0.628936
0.010081
0.414559
-0.257928
-0.049174
-0.261166
-0.030821
0.521225
-0.078232
0.063909
-0.367798
0.163455
0.485343
0.676700
-0.269850
0.010682
0.662962
0.287241
-0.194709
0.076967
0.026500
0.018238
0.619782
-0.008396
-0.287772
-0.187569
-0.479228
-0.089796
0.396443
-0.527375
0.220520
0.233073
-0.046910
-0.162363
0.000925
-0.595354
0.171972
0.449063
0.103704
-0.038908
0.218138
-0.007190
0.538950
0.074119
-0.155692
-0.195213
0.057009
-0.516995
-0.313958
-0.128711
-0.284767
-0.367741
-0.457348
-0.163612
0.590066
-0.639469
0.078108
-0.263526
0.133030
-0.163877
0.225088
-0.737797
-0.220842
-0.474343
0.196757
-0.451628
0.412755
-0.614561
0.048946
-0.457423
0.044226
-0.085510
-0.103363
0.658128
-0.301490
0.382239
0.402234
0.340044
-0.104007
0.146332
-0.134798
-0.157599
-0.257371
0.241009
-0.367302
-0.158327
0.003274
0.047660
0.169719
0.250708
-0.000701
-0.093435
0.102265
0.092845
0.333092
0.451176
-0.243160
0.051316
0.013661
-0.292756
0.033894
-0.285730
-0.078495
0.054390
0.051707
-0.257688
0.305750
-0.136090
0.097077
0.441109
0.512304
0.463129
-0.239021
0.305200
-0.230235
0.210695
-0.258642
-0.236501
0.085212
-0.419219
0.637491
0.411366
0.432542
0.460743
0.127359
0.697667
0.447259
0.312280
-0.267011
