-0.176457
-0.376897
0.308159
-0.042908
-0.077694
0.157483
-0.037667
-0.197624
0.167883
-0.054888
-0.133259
-0.156367
0.112291
-0.074639
-0.381780
-0.042646
-0.143189
-0.138693
-0.039463
0.219484
-0.378032
0.227418
-0.322850
0.440815
0.067384
0.463949
0.717182
-0.196948
0.195021
-0.131421
-0.036709
-0.125672
-0.493723
-0.069880
0.287031
0.288408
-0.436167
0.081885
0.018409
0.065263
-0.177831
-0.368268
-0.197879
0.685915
-0.348460
0.053504
-0.362160
0.065275
0.272620
0.568498
0.485960
0.080073
-0.124171
-0.336438
0.594209
-0.384879
-0.407935
0.018767
-0.053164
0.596062
-0.047280
-0.444697
0.546882
-0.259246
0.575040
-0.646272
-0.133540
-0.350042
0.129162
0.379064
-0.074315
0.375871
0.131677
0.299190
0.386769
0.540542
0.026388
-0.527665
0.407128
-0.159569
-0.042325
0.099736
-0.333959
-0.152622
0.480692
0.160759
0.151235
0.357067
-0.182420
0.275722
0.414524
-0.285840
-0.068138
0.246992
0.130922
-0.210137
0.254312
-0.342384
-0.263664
0.265766
-0.056238
0.044632
0.055136
-0.112395
-0.212967
-0.496093
-0.261968
0.169441
0.330401
-0.262473
0.474213
0.200689
-0.129779
-0.441593
-0.301212
-0.484690
0.010096
-0.323177
0.076033
0.552363
-0.411581
0.408134
-0.203456
-0.386960
0.193413
0.475457
-0.285076
-0.040091
0.243567
0.221329
0.480271
0.320703
0.399214
-0.119872
-0.323374
0.468801
-0.140174
-0.080906
-0.154715
-0.210946
0.003845
-0.074100
-0.183812
0.441110
-0.310684
-0.438946
-0.309079
-0.252563
-0.358112
-0.354803
0.125544
0.007669
0.080758
-0.377513
0.034018
0.288355
-0.347149
0.298801
-0.012418
-0.414799
0.454274
-0.118715
0.353503
-0.521167
-0.368028
0.604840
-0.535439
-0.404938
0.255099
0.314107
0.441007
-0.022544
0.206496
-0.174415
-0.481393
-0.565700
-0.215344
-0.444120
-0.262198
-0.435925
-0.517873
-0.250122
0.200319
0.374575
-0.262738
-0.274724
-0.154334
0.162014
0.088534
0.349276
0.083440
0.203354
-0.141051
-0.164624
0.095058
-0.469938
0.604740
-0.559027
-0.302045
0.539652
0.167755
0.333346
0.732955
-0.492990
-0.401542
-0.179528
0.449090
-0.028014
-0.107601
-0.070328
-0.043443
0.273545
-0.089245
-0.402342
0.367729
-0.142732
0.126105
0.259563
-0.031492
-0.094082
-0.370620
0.292311
0.614746
-0.379967
-0.186520
0.294730
0.684068
-0.399117
-0.315060
-0.344218
0.076563
0.108955
-0.394150
-0.248581
-0.061897
0.296589
-0.307902
-0.214701
-0.511697
-0.350820
0.541857
-0.065684
-0.798844
-0.416235
0.177717
0.080086
-0.245420
-0.207468
0.458536
-0.643933
0.066874
-0.153010
-0.043371
0.224455
0.558648
-0.084974
0.100216
0.525535
-0.202330
-0.432905
0.015471
-0.119135
0.476152
-0.526706
-0.182296
-0.072344
-0.223701
0.236325
0.537890
0.370114
-0.319027
-0.018943
0.047907
0.438074
0.041515
0.193215
0.052831
0.021639
0.299374
0.016895
0.286162
0.498951
0.073651
0.397264
0.211260
-0.065968
-0.438754
-0.228662
0.285084
0.300154
0.470072
-0.506872
0.340661
0.076158
-0.252155
-0.060052
0.522439
-0.046546
0.265341
0.004751
0.249987
-0.103608
0.406997
-0.366881
-0.464697
-0.395945
-0.024512
0.254373
-0.071685
-0.606935
0.086174
-0.033147
-0.392702
-0.109109
-0.445986
0.149861
0.488069
-0.264723
0.005772
-0.280041
-0.462353
0.043806
-0.441900
-0.137375
-0.300911
-0.073854
0.317595
-0.336629
0.143882
-0.366528
0.333838
-0.407905
-0.602652
-0.554919
-0.006849
-0.373454
-0.573775
0.025110
-0.477645
0.521268
-0.519669
-0.044094
-0.156379
-0.455276
0.303386
-0.077703
0.012765
0.406166
-0.529760
0.168537
0.204579
-0.170421
-0.520359
-0.476618
-0.125587
-0.235337
-0.452044
0.469406
0.580852
0.202466
-0.113334
0.390165
-0.291181
0.198746
-0.494455
0.015911
0.237532
0.369717
0.127874
-0.259520
-0.028097
0.240169
0.367242
0.179978
0.317068
-0.045384
0.312137
-0.131491
-0.386285
0.216163
-0.349342
-0.092261
-0.197306
-0.184011
-0.324982
0.430419
0.372843
0.158306
0.496514
-0.003480
0.070959
-0.035642
0.323745
-0.166678
-0.075032
0.447608
0.022304
-0.318740
0.034559
0.350809
0.036811
-0.241174
0.036112
-0.211741
0.018338
0.005253
-0.123735
0.081500
-0.268314
0.361244
0.100582
0.144172
0.513810
0.769879
-0.065512
-0.321443
0.344441
-0.107848
-0.367315
-0.392997
0.516074
-0.218555
0.145942
-0.450510
-0.109423
0.115846
-0.112525
-0.184024
0.418493
-0.342696
0.238565
0.265547
-0.380207
-0.547253
0.281497
-0.367451
-0.123640
0.498651
0.068286
0.246141
-0.431187
0.390263
0.059110
-0.458358
0.318269
-0.120967
-0.152457
0.083198
0.440684
0.606179
0.739850
0.357043
0.040930
-0.229893
0.081220
0.348396
-0.383001
0.103479
-0.434622
-0.220668
0.221349
-0.046089
0.343685
0.225242
0.491773
0.340671
0.061960
-0.115697
0.050964
-0.722889
-0.456331
-0.316451
0.207590
0.046202
0.524246
0.311302
-0.067321
0.239534
0.243420
-0.644841
0.374185
0.276337
0.015235
-0.047848
0.286609
-0.074048
-0.522133
-0.249843
-0.015505
0.055999
-0.222878
-0.714392
-0.296070
-0.165973
-0.082096
0.212239
-0.357064
-0.413529
-0.462049
-0.272478
-0.350521
0.251514
0.005918
-0.500212
0.548457
-0.657048
-0.365097
0.301255
0.053369
0.104364
-0.015709
-0.283311
-0.122229
-0.453036
-0.545417
-0.420777
-0.027579
0.042198
-0.586987
0.298649
0.314618
-0.059244
-0.145303
0.113690
-0.504186
0.585383
0.116241
-0.220431
0.275520
0.276190
0.224436
-0.526576
0.454738
-0.574467
0.452858
0.203142
0.430688
0.336360
0.119601
-0.303704
0.078371
-0.143986
-0.355515
0.155280
0.233396
-0.069941
0.261346
0.086724
0.202375
-0.562209
0.179541
0.436418
0.470277
0.587245
-0.183557
-0.000727
-0.100221
-0.191775
-0.243133
-0.087939
-0.204616
-0.567345
-0.153730
0.205171
-0.300702
-0.324207
0.375456
-0.129846
-0.427575
-0.439598
-0.032354
0.414222
-0.525833
0.229333
0.315922
0.037077
0.405641
0.268294
0.387479
-0.478098
0.302128
-0.390376
0.186239
0.332065
-0.230352
0.159156
0.112987
0.916990
-0.327341
0.301287
0.441404
-0.061337
0.032191
-0.067765
0.521516
0.490004
0.379015
0.187903
0.385200
-0.154080
-0.172764
0.282762
0.628062
0.475526
-0.418608
-0.320913
-0.532777
-0.314483
-0.176508
0.175005
0.384130
0.117307
0.280217
0.358403
-0.074567
-0.471494
0.726178
0.101564
0.083328
0.316143
-0.233761
-0.191394
0.297928
-0.022023
-0.267704
-0.051693
-0.151566
0.209451
0.215049
-0.475307
0.219012
-0.036157
0.157758
-0.554270
-0.275373
-0.370589
0.426264
0.259033
0.458802
0.319828
-0.515238
-0.244778
-0.382524
-0.451785
0.215209
-0.298178
-0.416258
0.054099
0.200603
0.025871
0.627708
-0.166239
0.504471
-0.384166
-0.013362
0.423111
0.340833
0.372271
-0.479223
0.026196
-0.415525
-0.347274
0.046701
-0.591054
0.321556
-0.078983
-0.626665
-0.110545
-0.032881
-0.017624
-0.174394
-0.080757
0.020659
0.504575
0.297010
0.690526
-0.159912
-0.589958
0.191936
0.260959
-0.061771
0.292260
0.018805
-0.079460
0.419652
0.031047
-0.069665
0.676060
-0.101158
-0.508157
-0.548671
-0.062403
0.758811
-0.600877
0.315584
-0.401132
-0.750362
0.411405
0.587283
-0.091109
0.185694
0.239006
0.292217
-0.265166
0.278629
0.116620
-0.391034
-0.360766
0.084226
-0.231843
-0.041034
0.062043
0.128913
-0.131587
0.451033
0.503855
0.155980
-0.692123
0.138738
0.301777
0.057615
0.325920
-0.026225
0.259501
-0.376444
0.202634
0.168996
0.078924
-0.161725
-0.370414
0.082773
0.425316
-0.021052
0.291689
-0.030077
-0.114151
-0.438751
0.038610
0.248894
-0.350521
0.441935
0.519368
-0.505092
-0.066175
-0.108183
-0.252313
-0.017853
0.631537
-0.575352
-0.177293
-0.556657
-0.342391
0.528258
0.534368
0.266429
-0.102544
-0.543026
-0.123824
-0.302777
-0.351354
-0.294904
-0.274401
-0.107309
0.304144
0.170113
0.029853
0.205775
-0.180855
-0.071555
-0.180607
-0.238813
-0.435983
0.823199
0.441607
-0.023291
-0.617076
0.410880
-0.528203
-0.054439
-0.669670
0.403147
-0.206829
0.121641
-0.355770
-0.220914
0.092999
0.286248
-0.473309
0.057431
0.748243
0.381452
-0.404850
0.100734
0.104081
0.020376
-0.467209
0.318697
-0.295865
-0.003187
0.191306
-0.164948
0.114192
-0.545320
-0.432270
-0.104517
0.108780
-0.502789
-0.119285
-0.104350
0.417004
0.396740
0.254721
-0.011147
0.047179
-0.090402
-0.173587
