0.092270
0.100943
0.078309
0.385987
-0.050475
-0.524186
0.089094
0.045771
0.099699
0.426129
-0.075644
0.259344
-0.236725
0.481204
0.012781
0.188531
-0.582061
-0.310630
-0.149309
-0.430659
-0.089004
0.431247
-0.052653
0.498030
0.381446
0.244014
0.240004
0.408605
0.268084
0.252100
-0.111791
-0.222429
-0.319591
0.666485
-0.246997
-0.038422
0.631188
-0.273585
0.042897
-0.269286
-0.253412
0.245806
0.248737
-0.186347
0.682085
-0.191644
0.338909
-0.059647
-0.084639
0.434796
0.226799
0.027942
-0.119418
0.592737
-0.478558
0.484486
0.067186
0.007184
-0.332730
0.397426
0.049669
0.081949
-0.004758
0.353469
-0.014829
-0.311588
0.128848
-0.022378
-0.352305
-0.224685
-0.085119
-0.252972
0.261942
-0.528189
0.152342
0.110430
-0.109934
-0.091301
0.213801
0.136379
-0.266496
-0.222495
0.617722
0.121821
-0.035227
0.534477
-0.143350
0.584819
0.302656
-0.104854
0.229847
-0.695673
-0.214504
-0.260290
-0.121449
-0.243045
0.418662
-0.547742
-0.577476
0.331262
-0.262628
0.224964
-0.445727
0.121135
-0.115292
0.135503
0.612976
0.207938
-0.041714
-0.120913
-0.206843
0.337401
-0.462362
-0.225928
-0.473015
0.537989
-0.028630
-0.119175
0.012460
-0.385055
-0.125951
-0.197611
0.413482
0.548982
-0.237784
0.201192
-0.571304
0.450966
0.099090
-0.318961
0.401940
0.176822
0.407221
0.093273
-0.438301
-0.027713
0.722313
-0.383364
0.363939
0.511452
0.053464
0.298244
0.200368
-0.148774
-0.295099
0.082978
-0.525961
0.134727
0.364799
0.121640
-0.098338
-0.454794
0.588094
-0.046204
-0.188849
0.495527
-0.141129
-0.112009
-0.289676
0.286233
-0.497857
0.568293
0.600933
-0.145764
0.311310
0.272899
-0.200104
-0.536891
0.110219
-0.136826
-0.091295
0.464422
0.186636
-0.023168
-0.461023
0.069609
0.202826
0.398790
0.382014
-0.144435
-0.114339
-0.456783
-0.397976
-0.347722
0.003413
0.000881
0.407095
-0.136602
0.183241
0.242730
0.450903
0.073859
-0.066353
-0.151830
0.007542
0.658522
-0.356359
-0.621508
-0.349323
-0.401620
0.168617
0.337097
0.243114
-0.506109
0.084876
-0.344381
0.252898
0.167250
-0.121985
-0.546453
0.272546
0.532949
-0.123161
0.296335
0.004064
-0.210732
-0.498588
-0.283100
-0.065256
0.468575
-0.139072
0.543400
0.631603
-0.352917
0.411930
-0.153270
0.525339
-0.121708
-0.001941
0.183485
-0.228371
0.534806
0.030791
-0.272064
-0.378952
0.398227
-0.207243
-0.357504
0.033928
0.691416
0.550393
-0.128918
0.216375
0.308232
-0.268185
0.444804
-0.140672
0.174360
0.193957
0.094388
-0.534975
0.002436
0.198244
-0.460862
-0.072593
-0.028978
0.229696
0.582301
0.277881
-0.200716
-0.145438
-0.164803
0.493441
-0.566046
0.102375
0.125450
-0.112786
-0.105006
0.145547
-0.558621
-0.314312
-0.264634
0.761100
0.499471
0.615199
0.423363
-0.228215
-0.075477
-0.348279
-0.148234
0.099789
0.110279
0.511978
-0.159505
0.487454
0.482673
0.163543
0.415768
0.545050
-0.156942
-0.495936
-0.026590
0.237473
-0.605666
-0.354968
-0.093511
0.373119
-0.605249
0.318905
-0.457988
-0.419963
-0.229650
-0.315163
-0.134044
0.128725
0.332905
0.199625
0.232180
0.217766
0.463528
0.465717
-0.328276
0.387046
-0.449321
-0.223315
-0.168004
-0.073400
-0.003776
-0.046397
0.270641
-0.387200
0.457903
-0.076660
0.258543
-0.477004
0.542981
-0.594136
-0.220219
0.219706
0.427900
0.043865
-0.078371
0.008512
0.617802
0.048802
-0.016263
-0.333318
0.597970
0.212702
-0.441310
0.047621
0.056880
0.547597
0.397219
0.135195
0.288620
-0.094747
-0.232902
0.578609
-0.544477
0.116921
-0.230538
0.517939
-0.150366
-0.353757
0.394986
-0.263875
0.304570
-0.508238
0.074551
0.160596
0.533203
-0.352793
-0.060258
0.519942
0.362926
0.158852
-0.009725
0.427395
0.107559
0.078898
-0.690227
-0.288678
-0.193019
-0.213521
-0.352457
0.061030
-0.181521
-0.202350
-0.003729
0.105559
-0.029672
0.413357
0.330973
-0.361518
0.290241
0.292230
0.175070
-0.000965
0.525028
-0.034987
-0.245411
0.226542
-0.690051
-0.391342
0.451865
0.197298
-0.380547
-0.446371
-0.136520
0.341299
-0.355882
-0.003061
-0.006317
-0.081086
0.528138
-0.205434
-0.559049
-0.293595
0.491180
-0.238193
-0.012182
-0.825973
-0.055879
-0.303399
0.079316
-0.123055
-0.279110
0.463844
-0.427497
0.172588
0.104158
0.191686
0.072011
0.423197
-0.109975
-0.340097
-0.037804
-0.423068
0.300037
-0.176287
0.112663
-0.331140
0.138856
0.413869
-0.275626
0.023346
0.087349
-0.058780
0.239159
-0.359528
0.460748
-0.338439
0.212160
0.688465
0.372764
0.118848
-0.120946
0.397405
0.150410
0.155412
-0.058486
0.061104
0.362383
0.251515
0.295207
-0.027821
0.176788
-0.295552
-0.249704
-0.130733
0.116438
0.074654
-0.376672
0.359641
0.185684
0.026201
0.113628
-0.329944
0.168655
-0.169181
0.592348
-0.061761
-0.212292
-0.025689
0.332522
-0.087218
-0.131985
0.269947
-0.342390
-0.056797
0.346908
-0.348925
0.331595
-0.283428
0.394602
-0.208407
0.069529
-0.015505
-0.154612
-0.555994
0.665178
0.673434
-0.235467
0.198784
0.089930
0.087157
-0.108086
0.367485
0.294863
0.367197
-0.399719
0.273237
0.111924
-0.248611
-0.440880
0.398294
-0.181177
0.095005
-0.068393
-0.094787
-0.465179
0.371524
0.228489
-0.282638
-0.248667
-0.529337
-0.316050
-0.010515
0.497237
0.126096
0.008373
0.642309
0.248382
-0.111783
0.095897
0.188921
0.260297
0.321415
0.204034
0.072228
-0.032870
0.149111
0.447560
0.199097
0.287478
-0.217881
-0.205800
-0.045572
-0.202523
-0.182809
-0.063308
-0.341387
0.036224
0.120657
0.150637
0.480826
-0.332085
0.412297
0.585618
0.034846
0.452429
0.261213
-0.054985
0.019746
0.234591
0.223700
-0.169621
-0.372226
-0.280092
-0.274085
-0.031613
0.278293
0.009492
-0.507756
0.270346
0.277852
0.005081
-0.116967
-0.188827
0.581880
0.129968
0.232381
0.590145
-0.059076
-0.303176
-0.275970
-0.288822
-0.022575
-0.230513
0.625970
-0.180662
0.146227
0.492007
-0.296049
0.440801
-0.479011
-0.063953
0.289071
-0.360142
0.014651
-0.471952
-0.035361
0.147698
-0.086743
-0.281984
0.399700
-0.178684
-0.094100
0.280626
0.253883
0.226012
-0.202238
0.273293
-0.214421
0.009863
-0.467707
-0.372342
-0.506310
0.583862
-0.294897
0.303799
0.037061
0.346632
-0.431959
-0.268214
0.309098
-0.350294
-0.360652
0.447382
-0.283844
-0.508340
0.494274
-0.146385
-0.640314
0.109747
-0.090463
-0.699218
-0.378651
0.278294
-0.007755
0.091129
0.229609
0.258794
-0.450440
0.043510
-0.065358
-0.159251
0.396036
0.483588
-0.614724
-0.079823
-0.450658
0.275854
0.282684
-0.276926
-0.034223
0.316721
0.073191
0.054879
0.245614
-0.493056
-0.017532
-0.603937
-0.392335
0.241235
-0.259721
0.327134
-0.103982
0.382697
-0.304651
0.178406
-0.444159
0.291508
-0.094415
0.151292
0.687619
0.016626
-0.104224
0.321858
-0.360396
0.205320
0.042345
-0.397318
0.141726
0.698686
0.401704
0.418934
-0.278026
0.094351
-0.422159
0.085653
-0.273619
-0.265829
-0.426949
-0.363713
-0.063639
-0.401868
-0.101158
0.007814
-0.173313
0.247579
-0.486554
-0.311989
0.030726
-0.357850
-0.132718
-0.121175
0.455806
-0.454530
0.333033
-0.437666
0.123290
0.721741
0.352835
-0.007767
-0.378576
-0.529699
0.245299
-0.418529
-0.387538
0.134711
-0.283886
-0.331877
-0.025700
-0.112322
-0.643588
0.221066
0.163948
-0.578765
-0.160941
0.242922
-0.560611
0.067663
-0.100180
-0.249237
0.188798
0.273513
0.268273
-0.098909
-0.376533
-0.317901
-0.140861
0.404577
-0.419011
0.378087
0.132943
0.034002
-0.071858
-0.144709
0.229203
-0.424157
0.001313
0.476388
0.106083
0.037137
-0.092695
-0.372425
0.419326
-0.140378
0.177915
0.177459
-0.236653
0.679541
0.397629
-0.031277
-0.642402
-0.029308
-0.449702
0.356362
-0.149415
-0.162500
-0.091807
0.154294
-0.383516
0.264107
-0.093117
-0.032086
-0.399992
0.258157
-0.030279
-0.334932
-0.098764
0.496380
0.396557
-0.349334
-0.350725
0.289368
-0.076800
-0.295931
-0.127772
-0.157651
0.255582
0.485929
-0.264189
-0.055924
-0.158869
0.099464
0.507857
-0.418307
0.054684
-0.042818
-0.200161
-0.135813
-0.000606
0.109878
0.235931
0.432031
0.400640
0.078212
0.345366
0.185356
0.691648
-0.811367
-0.598042
-0.018972
0.205602
0.076979
-0.133718
-0.479326
-0.235933
-0.169233
-0.488100
0.176005
-0.034978
-0.060955
