-0.019341
3.270448
-4.355175
-2.739306
-2.893516
1.624140
-3.914302
0.910970
-1.749695
0.709892
-1.160675
-1.213258
-1.322064
-2.552748
-3.047668
-0.367552
5.467607
-1.195436
-0.905831
-1.002943
2.399263
1.176059
-0.190575
-0.868974
-3.123788
4.854530
-2.233514
2.784935
-0.425740
2.165003
-4.880115
-5.722689
-0.032133
0.667568
0.235604
0.367345
-1.076975
0.043175
-3.736706
-0.274376
-3.834321
-0.677822
2.792112
-0.782120
-1.445808
-0.539372
-11.507700
0.166975
12.537931
-0.564770
0.384481
-0.106785
-0.335326
-0.048426
0.027344
-0.134241
-6.127696
0.350552
2.749175
-2.618350
0.695610
0.171136
-2.466340
4.354444
2.800681
0.833878
-3.775253
-1.173097
-1.399992
3.766710
0.925887
-0.926499
-1.431389
-1.754061
-0.916264
-0.270258
-2.334040
-0.699154
0.926830
0.321566
-1.146254
-2.995179
-3.858571
-0.528680
-5.653999
-2.002445
-9.265641
-1.021589
2.926146
-2.805724
0.074916
-1.738758
1.620488
0.196492
-1.454890
6.339240
-6.736817
-2.749486
-2.760696
-1.783878
-2.935621
-1.499564
3.832761
0.235861
-0.328242
-0.844484
-0.043185
2.609628
-0.215150
-3.394587
-2.210886
2.063240
1.569308
-3.164061
0.456162
-6.181430
0.480646
0.956402
1.886803
0.811155
7.324144
2.429673
-2.190504
0.856668
7.666968
1.690765
0.572928
1.868568
-2.446759
-1.458557
-2.555064
-2.705149
-0.476491
0.932116
2.802152
0.765769
-2.537147
-0.900197
-2.985395
-0.485703
4.117268
1.366519
-2.778829
-3.054136
2.426304
3.277061
-3.412390
-0.544230
2.736626
6.112739
3.324669
-0.470435
2.291625
-0.522484
3.461802
1.896618
1.015080
1.658978
7.736093
3.032458
-0.012889
-3.451539
5.397507
-2.971953
-0.930596
-0.961772
0.999533
4.244209
-1.975505
1.088929
0.805446
-0.849119
3.287644
6.505842
-2.059821
-1.980068
2.515440
-1.886112
2.087817
4.496664
-1.902646
3.129741
0.347297
1.723966
-2.480028
0.911916
1.165574
-1.148139
-0.433769
0.962425
1.525819
1.811272
3.343187
-0.660022
-6.009563
-0.699246
3.724375
0.775894
-4.242569
1.023080
4.607243
-2.818189
-2.996540
-2.865630
-4.255086
1.839792
-2.477981
-2.780159
-0.169739
2.326114
0.715215
4.212850
2.547082
4.982091
-3.257547
-5.153251
-3.051665
1.940147
-3.288425
0.034981
4.949663
-1.373517
-4.513580
-3.584246
-0.847434
-7.265007
4.034997
-5.485455
-2.863005
0.301770
-3.684166
4.941002
-7.401762
-0.761849
-5.503562
-2.690876
1.342872
2.783548
-2.259564
4.071908
-1.775181
-0.458164
-0.587565
-0.556326
-4.545698
4.265946
1.856466
-10.113171
-2.052884
-2.415917
2.696747
3.077691
-0.580758
0.017141
4.482827
2.963890
1.825459
0.487605
-2.257182
-0.816671
2.783936
-1.138844
6.869005
2.481589
-8.134413
0.270330
-5.389736
5.705922
0.229811
-2.844684
-4.516830
0.460224
1.727808
4.398726
3.447327
4.841830
-4.780108
-1.130997
-3.960793
-5.067720
-2.960508
-3.987911
6.784930
0.004084
-0.078629
-3.487315
4.018460
0.510271
1.136483
-0.289769
-3.307929
3.743522
1.611165
5.416625
2.346319
2.943042
-1.075970
1.685377
-0.093245
3.284546
14.372635
2.407018
3.281778
-0.104960
1.010234
-0.833481
-2.061994
2.688868
-3.051143
-0.004961
0.492826
2.813181
-5.259201
-0.872380
0.377876
-1.739751
2.238459
-1.972819
0.604163
2.005659
0.455212
0.782043
-1.425607
-2.719461
-6.600399
1.558811
-6.019705
3.684012
-2.590368
0.587311
0.670617
-1.213075
-8.876605
5.402898
4.668236
-0.796048
-2.523420
-3.250423
-1.741878
-2.869682
2.262106
-1.687388
0.783877
1.761274
-1.306896
4.081112
0.685307
1.546841
0.473436
4.219766
-4.520248
-0.075668
-1.829101
-5.773669
-2.420767
-0.885475
4.957081
3.194823
4.056063
-4.821634
-1.402237
-2.477689
1.528330
-2.141590
2.979575
1.352935
1.629387
6.149864
-4.820810
1.355204
1.698814
-2.597502
0.743937
3.144364
5.052083
-2.305281
0.067193
-3.179717
-1.868712
-2.322412
3.225091
1.251450
1.677338
-4.021337
-1.960803
2.505993
-1.098368
1.577182
-0.888731
-2.151590
-5.037461
-0.707992
0.280641
0.583887
-7.335136
1.390470
-0.740551
1.078658
-5.781464
-3.015557
0.454501
3.244979
-3.498794
-3.557917
1.972920
0.566336
-6.812461
-1.674880
1.822152
-1.431110
-1.153442
-0.136621
-0.675947
-3.002217
-7.973749
4.790071
5.484043
4.695365
-0.816611
2.029193
1.032353
5.619573
2.098966
-1.098641
-4.715610
-5.971872
-8.258186
-3.142303
-6.845983
-1.411321
1.969754
0.815083
-4.488490
9.230485
3.107273
-9.217043
-0.177577
-2.651860
-2.154882
2.636011
2.957409
-1.797602
0.847602
3.849705
1.846967
0.247008
5.448906
-2.490878
1.328712
-2.226712
2.672284
0.693984
4.399259
0.482763
-3.016099
-1.265985
4.080159
-3.350218
-0.073587
1.112127
2.922217
-3.174218
4.314436
-4.469827
-2.468238
-2.773642
5.865184
-4.425709
0.213931
-2.177135
-1.552595
-3.774875
-4.655992
-1.130272
-0.976731
1.156317
-1.762034
-1.852595
4.992253
-2.531436
-0.348418
-1.509512
5.534469
0.014187
-7.046513
3.076074
-1.601239
5.507310
-0.683891
1.427403
-0.442147
3.787824
1.935509
-1.112624
-5.831598
1.528639
1.608022
0.207468
2.777893
-0.532428
-3.353717
1.813638
0.392169
2.732454
0.410637
-3.093381
-1.185394
4.606607
3.555467
2.145831
1.265283
-0.247229
-0.245836
2.251827
6.672326
-1.081808
1.133731
1.424792
1.866633
4.840197
1.430140
3.200256
2.974540
-0.391736
-3.988121
-0.922137
-3.850408
-2.563579
3.342701
5.149243
-1.048585
1.640548
4.815096
-2.068931
7.351910
2.053838
-5.793992
-2.400892
-4.743603
1.567541
-4.078335
-1.387201
-8.480423
-4.581899
-1.531364
0.676759
-5.002590
3.179227
5.183805
-1.864573
-5.813825
2.372379
-4.865503
-9.708477
2.470964
4.879293
-6.080405
-0.869951
2.123077
-1.125488
5.244586
-0.129406
-2.907855
4.262654
-1.142503
2.623794
-3.831372
2.147855
2.104059
0.387231
-0.772562
3.659813
2.187084
-5.816835
4.151844
-0.890479
1.231740
-3.233334
-0.016630
-0.904990
-0.779327
2.339256
-0.852428
-0.548964
2.143252
-1.785097
-9.816991
-0.887227
-3.910018
-3.609307
-5.990098
-0.939824
-2.470321
4.740149
0.592232
4.073517
-4.681310
0.916367
-0.282132
1.525073
-5.770098
1.250259
0.367534
0.436454
-1.774917
3.074572
3.490916
2.262730
-1.407633
1.894707
2.274289
1.367557
0.820653
0.953203
-0.017215
0.080453
-0.320289
-0.026837
-2.947887
-5.693582
-4.491510
-2.403551
2.377588
4.283026
-1.458329
1.301353
-0.641966
-1.714208
-2.747770
-0.256334
2.742674
-0.354023
4.603064
-3.212992
-4.796511
1.955138
0.005798
-2.056371
-0.970143
-1.738977
0.500294
-0.522368
-0.455226
7.821953
-2.651606
-1.106920
3.567047
-1.933505
0.873054
-2.707128
-2.035163
4.997960
0.362978
3.176517
0.076988
0.590131
-1.261717
-2.649769
-1.098371
1.783741
9.516654
-0.246195
2.400060
-1.439972
-1.859330
-0.323717
-2.449563
-0.825987
-0.517075
-1.532557
2.192292
4.636811
-2.986097
3.272544
3.136044
2.727587
4.332450
5.222767
-2.804633
-6.359633
2.349114
2.111396
-1.309657
-3.499007
-2.171093
4.057686
-4.086306
-3.443830
3.167538
2.119777
-8.238576
0.748614
1.673677
-1.025463
2.047051
3.430508
5.257872
2.076117
5.925202
3.115918
-3.581927
5.040511
-0.042759
-6.651309
3.361500
-1.521363
-1.253783
-2.333014
-4.744229
-1.987479
1.937367
-0.783851
-4.211903
3.935851
1.617565
2.530010
-3.248182
-7.408155
7.553212
-0.739382
-3.413338
3.318575
4.442502
2.670024
-0.710759
-3.504740
4.165922
-4.099956
-4.883624
2.758091
-1.135570
-7.767500
0.248206
-0.283616
0.298490
-1.090240
11.156694
-0.597401
2.334805
4.232150
-1.498121
-0.764995
1.869537
-3.364867
-2.063900
2.869315
-4.315833
-3.255327
-2.837745
-1.225046
5.362418
6.247584
2.574455
-2.664849
-1.120661
-0.098695
0.778815
2.053137
-3.319018
0.287612
4.369317
-0.718159
2.581080
2.667154
-2.372086
-5.058143
2.222824
2.026937
-1.491438
-1.002817
-5.257693
