0.203459
0.375711
-0.010135
-0.097096
0.234038
-0.463371
0.037104
-0.121409
-0.202314
0.508898
-0.183683
-0.066545
-0.179871
-0.548075
0.413160
0.093051
-0.150477
0.638349
-0.221365
0.368282
-0.252887
0.233285
-0.483148
-0.299150
0.304614
0.275388
0.104951
-0.329588
-0.149689
0.061798
-0.372443
-0.122911
-0.320036
0.005462
0.109945
0.150463
0.435925
-0.251852
0.402697
0.057277
0.285062
0.165909
0.087736
-0.216698
0.379593
0.416843
-0.039925
-0.238181
-0.182606
0.385145
-0.013460
0.024026
0.596549
0.592737
-0.137494
0.245149
0.054788
-0.118155
0.233228
-0.349780
-0.174926
-0.055310
-0.420288
-0.307397
-0.022027
-0.330804
0.269878
-0.268262
0.178572
-0.269045
-0.116392
-0.332087
-0.452580
0.443476
0.325722
-0.403554
-0.203344
0.228152
0.281420
-0.376591
0.646433
-0.622347
-0.204459
-0.381910
0.529330
0.188094
-0.333181
0.521412
-0.251099
-0.046930
-0.133487
-0.172371
0.199876
-0.063036
0.078107
-0.021513
0.420958
-0.603604
-0.077140
0.434974
0.661200
0.290787
0.187299
-0.114726
-0.588782
0.657004
0.252277
-0.566406
-0.017510
0.228067
-0.059444
0.494031
0.290073
0.277465
-0.030159
-0.013928
0.261247
-0.080229
0.550783
0.297401
0.161249
-0.117026
-0.095651
-0.034516
-0.229280
0.206102
-0.185500
0.433166
0.106764
-0.340856
0.299438
0.351514
0.296845
0.370697
0.145095
-0.581410
-0.540930
0.174765
0.499743
0.253905
-0.321592
0.245054
0.049784
0.176290
-0.698109
0.091589
-0.123751
-0.437466
0.514405
0.360522
-0.429630
-0.269251
-0.021304
0.442222
0.058579
0.602410
-0.101081
-0.137083
0.200354
-0.252701
-0.448119
-0.043351
0.711645
0.015757
0.286687
0.523432
0.061640
-0.280763
-0.437059
-0.328907
-0.208879
0.431607
0.329500
0.454368
0.337852
-0.172768
0.434307
0.220609
-0.106640
0.115093
0.236329
0.021074
0.078861
0.178668
-0.101820
-0.402978
0.113538
-0.345837
-0.116123
-0.188813
-0.245112
-0.514287
-0.133631
-0.572764
0.500306
0.436468
-0.124332
0.130452
-0.184700
-0.314447
0.397260
-0.562525
-0.504009
0.027362
-0.478331
-0.390868
-0.228294
-0.477307
-0.071483
0.380477
0.112928
0.403981
-0.233356
-0.223907
0.457668
-0.180144
-0.410461
0.023580
0.006560
0.538654
0.251327
-0.296425
-0.459491
0.378273
0.158838
-0.045319
0.283688
-0.227090
-0.182646
0.488692
-0.119181
-0.409520
0.163636
0.295224
-0.262568
-0.128948
-0.142248
-0.418493
0.075746
0.412391
-0.469271
-0.358860
-0.100512
0.223800
-0.250814
0.372055
0.115039
-0.290815
0.384767
-0.080792
-0.312632
-0.216971
0.035395
-0.400561
0.184587
0.410948
0.139259
-0.282877
0.253828
-0.290762
0.351162
-0.241398
-0.266349
-0.565182
-0.243048
0.121790
0.168489
0.507461
0.343742
-0.196016
-0.396953
0.053145
0.352707
-0.447805
0.406269
-0.082530
-0.036573
0.155906
0.005608
0.133879
-0.258320
-0.234550
-0.056885
0.326828
-0.279583
-0.296180
-0.097276
0.198612
-0.042540
0.081462
-0.535673
-0.090520
-0.449254
-0.343453
0.390503
0.003493
0.280033
-0.067885
-0.273392
-0.107932
0.169562
0.162981
-0.125452
-0.027084
0.099827
-0.229401
-0.524271
0.222015
0.530569
-0.588775
0.354133
-0.229040
0.078600
-0.549044
0.236577
-0.178981
0.454358
0.467009
-0.248422
-0.045585
-0.000515
0.509627
0.475279
0.086147
-0.657193
0.242324
0.077564
-0.579952
0.099907
-0.428043
0.097451
-0.296732
0.047566
-0.304154
-0.319582
-0.468376
-0.060730
-0.370564
-0.036260
-0.376984
0.343615
-0.013149
0.591606
0.271561
0.015816
-0.638539
0.131920
-0.138271
-0.688334
-0.455157
-0.347950
-0.619101
0.443224
-0.216850
0.075955
0.634073
0.284230
0.083278
-0.309962
-0.010942
0.027637
0.173094
-0.368959
0.093973
-0.346483
-0.165737
0.089668
-0.219763
0.414725
-0.034268
0.065911
-0.602851
-0.171970
0.551097
0.549605
-0.297158
0.345244
-0.129416
-0.144540
0.189684
0.183147
0.592408
-0.131644
0.605711
-0.415219
0.454546
-0.235139
-0.262505
0.386402
0.651404
-0.063461
-0.070786
0.280883
-0.674053
0.499235
0.211348
0.309471
0.588738
0.185835
-0.073329
-0.196306
-0.321601
0.176282
0.049460
-0.232847
0.162223
0.294904
-0.271486
0.306165
0.436360
0.139207
0.001110
0.390145
0.560883
0.189407
-0.278213
-0.064596
-0.244748
-0.178572
-0.423789
0.285425
-0.137718
-0.280709
0.053218
0.120872
0.530905
0.552823
0.039335
0.302039
-0.146506
0.326001
0.112663
-0.396749
0.070759
0.252235
-0.038923
-0.022303
0.425916
0.044418
0.207256
0.020665
0.350057
0.310394
-0.184958
-0.264109
-0.140169
0.278885
-0.484459
0.155985
-0.501407
-0.373267
0.136346
-0.305195
0.474505
0.211786
0.391029
0.044836
-0.004389
-0.665901
0.225104
-0.025084
0.288668
0.421174
0.517350
-0.143849
-0.215528
-0.079459
0.182546
0.263556
-0.450332
-0.093474
-0.320612
-0.170830
-0.024075
0.297966
-0.028948
0.128683
-0.337800
0.269947
-0.090633
0.161482
0.284144
-0.177470
0.176523
0.361887
0.508203
0.355095
0.085650
-0.084466
-0.310574
0.263240
0.111811
-0.250655
-0.305362
-0.225459
0.143187
-0.414983
-0.438924
0.289318
-0.249394
-0.503315
0.172101
0.573817
-0.134385
0.726666
-0.421323
0.415677
-0.381647
0.154848
0.537949
0.052509
0.050316
-0.166811
0.336296
-0.418717
-0.514341
0.516489
-0.066721
-0.639946
0.170497
0.506126
-0.138876
-0.354714
0.052082
0.248607
0.415790
-0.106256
0.119388
0.191674
-0.397209
0.387154
-0.120973
-0.424172
0.140547
0.315986
-0.239858
0.406610
-0.364623
0.049731
-0.555615
0.160355
0.344131
-0.245452
0.369320
0.467010
-0.012067
-0.608757
-0.127962
-0.217144
0.641779
-0.616569
-0.276297
0.307563
-0.348636
-0.555161
-0.133869
0.263336
0.077074
-0.385971
-0.272758
-0.212274
0.055937
0.234283
0.441299
0.418424
0.206950
-0.180113
0.351575
0.210651
-0.208829
0.522997
0.387838
0.344316
0.063486
0.015292
0.198759
-0.141868
-0.091006
-0.398283
-0.531202
0.146779
-0.087727
0.511724
0.077886
-0.393203
-0.407150
-0.044553
0.321198
-0.357595
-0.220769
0.038281
-0.539322
-0.316599
-0.417929
0.379055
-0.101805
0.268688
-0.470771
-0.094100
0.027791
-0.072058
0.291653
0.078446
0.332741
0.257233
0.148104
0.431467
-0.280072
0.464429
-0.371594
-0.391003
-0.302170
-0.065924
0.077338
0.401527
-0.351673
-0.136736
-0.021960
-0.301281
-0.551169
-0.388775
0.065406
0.199045
-0.184433
-0.212080
0.058465
-0.074434
-0.052563
-0.193087
0.091310
-0.010722
0.228522
0.043143
-0.088067
-0.428530
-0.410146
-0.045034
0.540974
-0.178955
0.266030
-0.691997
0.317110
-0.639006
0.053735
0.478891
-0.376589
0.530944
-0.348080
0.030736
0.178708
0.217941
-0.130727
-0.102680
-0.622123
0.013356
-0.384465
0.286690
0.232681
-0.362104
0.085934
-0.280999
0.207465
-0.358743
-0.243858
-0.330233
-0.371593
0.744847
0.079573
0.090429
0.146213
-0.602556
-0.543853
0.127144
-0.269994
0.372766
0.072912
0.042996
0.147428
0.084379
-0.015259
-0.147224
0.058243
-0.383056
0.457703
-0.496848
-0.436081
-0.411206
0.001516
0.356311
-0.082053
-0.339624
-0.062780
-0.612163
-0.272263
-0.011692
0.291348
-0.114782
-0.355796
0.430125
0.300431
0.346670
-0.295959
0.375990
0.143655
0.452608
-0.510931
-0.120169
-0.253854
0.466246
0.163616
-0.060630
0.246348
-0.270339
-0.157380
0.077901
0.021286
-0.573283
-0.447141
0.371667
-0.521882
-0.374875
0.041940
0.010735
0.350371
-0.044376
-0.220191
-0.171639
-0.568191
-0.023380
0.578780
-0.037805
-0.300862
0.292365
0.034737
0.496827
0.478666
0.049078
0.054868
0.098644
0.104993
-0.048551
-0.020617
-0.603581
-0.128711
0.522219
-0.110905
0.351347
-0.095541
-0.366707
-0.090955
-0.306616
0.045100
-0.629815
0.493163
0.075017
-0.059163
-0.289492
-0.389765
0.503425
0.422223
0.550453
0.147699
-0.297514
0.383228
-0.392095
0.226313
0.113262
-0.281418
-0.075044
-0.116850
0.392279
-0.014357
0.261583
-0.378295
-0.000117
-0.235129
-0.440498
-0.403463
-0.493115
-0.356486
-0.152866
-0.296538
-0.380369
0.539798
-0.169379
0.083377
-0.130645
0.495220
-0.229945
0.224117
-0.155468
-0.377950
-0.070856
-0.150339
-0.531271
0.398448
0.237641
0.736974
0.124378
0.532075
0.106548
0.520735
-0.319001
-0.744893
0.255435
0.340713
-0.191539
0.455571
-0.273711
-0.248294
0.169943
-0.067677
-0.089020
0.286675
-0.152198
0.333365
