0.038194
-0.244326
-0.424699
0.119223
0.002146
-0.222490
-0.078239
0.380696
-0.004985
0.079086
-0.410825
-0.462059
0.077946
-0.085882
0.158760
-0.066674
0.370895
-0.674160
0.290683
0.461634
-0.590221
-0.209320
-0.051488
0.454891
-0.269293
-0.156891
0.737370
0.526403
-0.048353
0.280800
-0.121813
0.144611
-0.272172
-0.472395
-0.222034
0.379711
0.288341
0.081186
0.531395
-0.576714
-0.309893
-0.145760
0.133979
-0.081837
-0.385869
0.178794
-0.183112
0.206729
-0.300568
0.489587
-0.395180
-0.009604
0.099292
0.029084
-0.107510
-0.371313
0.140687
-0.385561
-0.042583
-0.419878
-0.053619
0.656745
0.238992
0.450657
0.312194
0.247556
-0.500852
-0.088872
0.257826
-0.310093
-0.006900
-0.429868
0.108523
-0.138061
0.218348
0.128525
-0.249910
0.060069
-0.205220
-0.131471
-0.248411
-0.417891
-0.131445
0.524473
0.451879
0.729315
0.395212
0.449757
-0.634502
-0.180318
-0.099831
-0.226496
0.257228
0.304651
0.055975
-0.156578
-0.156426
-0.258614
0.493650
0.402461
-0.262628
0.154031
0.167441
-0.087035
0.487953
-0.308837
-0.014821
0.309881
-0.139180
-0.211082
-0.075250
0.511151
-0.474653
-0.032189
0.165697
0.011355
0.350675
-0.106029
-0.228460
-0.441879
-0.463597
0.098989
-0.258254
-0.309100
-0.490896
-0.309709
0.082022
0.212740
0.644626
0.504714
-0.329854
-0.238949
0.176388
-0.213056
-0.308609
0.207095
-0.026833
0.060923
0.383074
0.123186
-0.465715
-0.096158
-0.480420
-0.381023
0.298864
0.285499
-0.272627
-0.282125
-0.348689
-0.220211
0.209323
-0.128379
0.427019
-0.281364
-0.507556
0.525053
-0.000531
-0.458548
0.214117
-0.428222
-0.536059
-0.008888
-0.372915
-0.440066
-0.109726
0.267585
-0.434676
0.175660
-0.184007
0.038328
0.322970
0.304067
-0.092619
-0.159521
0.225538
-0.387004
-0.309330
0.101047
0.202958
0.006223
0.522960
-0.026878
-0.390944
-0.233643
0.085814
-0.167203
0.130075
-0.146878
0.560113
0.040412
0.336277
0.078937
-0.159654
-0.190894
-0.371249
-0.012951
0.438071
0.183111
0.406867
-0.611936
0.441649
0.082261
-0.064230
0.375090
-0.277502
0.383619
-0.166365
-0.541668
0.167784
0.357663
0.056228
-0.210487
-0.119409
0.339634
-0.032969
0.148068
0.391349
-0.376807
-0.139668
-0.401803
-0.121452
0.278752
0.168420
0.247455
-0.074363
0.461315
-0.216295
0.192908
0.505468
-0.351166
-0.313990
0.074356
-0.363503
0.531008
-0.193132
0.280339
-0.023715
-0.157681
-0.603272
-0.353699
-0.452904
0.275620
0.207092
0.040990
-0.376379
0.241361
-0.393275
-0.127965
-0.265794
0.440957
0.420334
0.018699
0.143505
0.264031
0.217208
-0.500641
0.307797
0.179111
0.141793
-0.200716
0.445953
-0.302340
-0.024183
-0.416954
-0.174610
0.162124
-0.261777
0.566281
0.199209
0.307542
-0.109405
-0.416823
-0.277083
0.579594
-0.440192
0.300163
0.458386
-0.070546
0.457474
-0.033913
0.342265
0.181292
0.576964
0.267219
-0.375092
0.316284
-0.303223
-0.501413
-0.449055
-0.273192
-0.797128
-0.210850
0.164084
0.376218
-0.000296
-0.108414
-0.439848
-0.082239
-0.133653
-0.208245
0.236675
-0.658623
0.373410
0.245682
-0.136598
-0.108944
-0.241969
-0.048640
0.110044
-0.439893
-0.619992
-0.070926
-0.307104
0.021061
0.062551
-0.299401
-0.562529
-0.077841
0.120289
0.260864
0.201104
-0.132122
-0.584938
-0.437950
0.346953
0.655609
0.163849
-0.645117
-0.208202
0.196687
0.029124
-0.366502
0.320727
-0.010581
-0.261708
0.037460
-0.550959
-0.131876
0.107496
0.042420
0.331699
0.530398
-0.227019
0.091448
-0.601833
-0.723036
0.068705
0.504647
-0.420148
0.230103
-0.254989
0.369635
-0.031086
0.094180
0.179471
-0.017480
0.229294
-0.186265
0.461582
-0.044452
0.160596
0.235573
0.098503
-0.455636
-0.615626
-0.494103
0.161978
-0.629029
-0.044154
-0.215230
0.714371
0.353287
-0.326274
-0.455286
-0.269445
-0.065710
-0.593642
-0.367248
-0.194868
-0.163729
0.033266
-0.308163
0.031201
0.306432
-0.159633
0.263299
-0.348243
0.088162
-0.162521
0.180911
0.420763
-0.451485
0.562994
0.507905
0.429901
0.641652
-0.219432
0.188652
0.203975
-0.604347
-0.282211
-0.428289
0.036112
0.394112
-0.272327
-0.207388
0.200437
0.119289
-0.093568
-0.470557
0.481264
-0.063018
-0.242317
-0.329756
0.232285
0.120303
-0.294005
0.116702
-0.241564
0.150218
-0.066662
-0.110886
-0.171735
0.280948
0.566530
0.002191
0.462947
-0.462034
-0.423068
-0.104484
0.246223
-0.289997
-0.470609
0.214805
-0.293281
-0.100463
0.458923
-0.193458
0.037460
-0.576769
-0.283853
0.326629
-0.155452
0.804315
-0.187934
-0.121052
0.256425
-0.371531
0.286236
-0.213908
-0.285861
0.140769
0.109376
0.084529
-0.180503
0.424942
-0.469046
-0.635998
-0.075549
-0.014132
-0.100781
-0.184441
-0.155681
0.281545
-0.482111
-0.084569
-0.231672
-0.399302
0.081252
-0.463668
0.358523
0.166474
-0.368019
-0.283971
0.228296
-0.200943
0.254678
0.297427
0.043219
0.090750
-0.564698
-0.029848
0.053577
0.500495
-0.129439
-0.497235
0.472634
0.130357
-0.019282
-0.203563
-0.601443
-0.574476
0.463514
0.273697
0.731602
0.000829
-0.100351
0.246206
-0.473629
-0.126981
-0.461934
0.008318
-0.077628
-0.227926
-0.520918
0.535825
-0.490483
-0.431972
0.380739
0.034329
0.718119
0.205376
0.046509
0.216032
-0.228829
-0.156885
-0.074580
0.046671
-0.335118
0.197382
0.078047
0.380944
0.396544
0.155430
-0.468194
0.307356
-0.422006
0.160570
-0.468702
0.121521
0.254347
0.119127
0.288741
-0.134846
0.435515
0.358038
-0.200511
-0.091001
0.035163
-0.093370
-0.533751
-0.219792
-0.020926
0.387393
-0.227608
-0.373061
-0.499932
0.366755
-0.365982
-0.384534
-0.440790
-0.736216
-0.500130
0.418317
-0.320771
-0.303957
-0.295889
-0.394848
-0.035214
0.034495
0.204413
0.213418
0.145606
-0.345343
-0.426678
0.136375
-0.336657
-0.308302
-0.078007
0.311778
-0.503929
0.165843
0.300761
-0.297224
-0.131162
0.168884
-0.338737
-0.276683
0.116004
-0.169099
0.327754
0.551256
-0.235627
0.629596
-0.205906
0.302230
0.242827
-0.296290
0.375186
-0.027342
0.561022
0.369494
-0.100251
0.334114
0.265499
-0.245443
0.160395
0.310763
0.445822
0.254464
0.153724
0.052532
-0.208918
0.286321
-0.070167
0.491771
-0.248983
0.311090
0.856663
-0.414705
-0.495268
0.573391
0.600437
-0.186015
0.101422
-0.373167
-0.077292
-0.279282
-0.218327
0.249321
0.013358
-0.393460
-0.295159
-0.008052
0.187348
0.398781
0.487800
-0.092915
-0.436539
-0.549589
-0.446695
0.461555
0.534559
-0.398807
-0.559492
0.330011
0.116900
-0.044413
0.327267
0.128153
-0.151769
-0.274193
0.064524
0.557261
0.077947
0.150149
0.424479
-0.216683
0.183912
0.416158
0.075077
0.678171
0.059083
-0.082132
0.026703
0.343997
0.286665
0.550267
-0.581578
0.057359
0.744884
0.285253
0.012726
0.513938
-0.383069
0.214374
0.534612
-0.009839
0.055382
0.726579
0.485629
-0.111388
-0.334112
-0.323926
-0.118265
0.113481
0.014313
0.430295
-0.497870
-0.091937
-0.260834
0.055146
-0.412331
0.240364
0.418489
-0.674113
-0.282571
-0.199148
0.125600
0.031941
-0.291076
0.341129
0.800049
0.155941
-0.189748
0.252409
-0.298458
-0.102698
0.374038
-0.070145
0.403234
0.514276
-0.476635
0.256191
-0.284672
-0.323786
-0.888589
0.274205
0.236189
0.456464
0.056180
0.409383
-0.265596
-0.377177
-0.237912
-0.027032
0.410192
0.207552
-0.310764
0.265719
-0.062414
-0.002067
-0.230748
0.033851
-0.079517
-0.326735
-0.269061
-0.537095
-0.573938
-0.527504
0.142503
-0.149538
0.237996
-0.262775
-0.534105
0.393247
-0.026388
-0.575878
0.453400
-0.158418
-0.119836
-0.492447
-0.356378
0.295964
-0.317038
0.080684
-0.158276
0.039797
0.191403
0.682710
0.048508
0.239234
-0.197805
-0.332146
-0.309724
-0.275597
0.350732
-0.661402
-0.382148
0.002760
0.581379
0.083474
-0.432968
0.038649
0.242218
0.672458
0.268368
0.311682
0.201473
-0.384984
-0.333012
-0.294868
-0.214189
0.221459
-0.116157
0.219930
0.322107
0.009446
-0.346739
-0.377403
0.106927
0.006990
-0.763393
-0.642641
-0.040956
0.544230
-0.393593
0.230018
-0.090200
0.486004
0.350678
-0.452265
-0.050007
0.076818
-0.146523
-0.466527
0.141125
0.246185
-0.079758
-0.192570
0.399413
0.458929
0.492808
-0.206596
0.122146
0.183785
0.466184
-0.176790
-0.159109
0.035363
-0.625600
0.560070
0.155017
0.080311
0.263708
0.231494
