-0.253827
0.104927
-0.511259
-0.192092
-0.359007
-0.154689
0.135251
0.585110
-0.131317
0.288794
0.308388
-0.258136
-0.559690
0.169902
0.239585
0.436758
0.188590
-0.209244
0.044791
-0.593024
-0.590221
-0.088884
-0.088412
-0.203079
-0.766593
0.111160
0.546507
-0.388000
0.334838
0.166822
-0.056365
0.005301
0.265488
0.615959
0.153410
-0.104377
-0.234302
0.194889
0.115983
0.172986
0.174170
-0.433110
-0.106279
0.413319
0.009718
-0.497575
-0.078429
0.028266
0.267373
0.216316
-0.267859
-0.209954
0.250252
-0.073718
0.491559
-0.319031
-0.244097
-0.004100
0.029524
0.560275
0.119430
-0.418851
0.231000
-0.173697
-0.233600
0.477906
-0.016185
0.109184
0.188192
-0.142339
0.112966
-0.412366
-0.021112
0.413709
0.324681
-0.046664
0.386053
-0.005900
0.101255
-0.052986
-0.207113
-0.196739
-0.167801
-0.132072
-0.216994
-0.235887
0.218899
0.085672
-0.095381
0.318629
0.031643
-0.045320
-0.211336
-0.143480
0.297559
0.026416
0.070207
-0.371754
0.647080
-0.557097
0.761570
0.090878
0.285118
0.236278
0.004653
-0.540155
-0.099081
-0.566406
0.353856
-0.144398
0.313507
0.427441
0.007953
-0.176907
0.284923
-0.113101
0.287409
-0.245175
0.071759
-0.240307
-0.221754
0.229344
0.004933
0.094226
0.215023
0.240535
-0.417880
0.308943
0.108539
0.190779
-0.070359
0.721966
0.358156
-0.230919
0.082063
-0.727443
-0.228490
-0.626339
0.376383
-0.137337
0.181258
0.217765
0.067099
0.047471
-0.595711
-0.168227
-0.326894
-0.065483
0.316545
0.228060
-0.109536
-0.413395
-0.470580
-0.022592
-0.440286
0.687962
-0.294535
-0.405264
0.000428
-0.195073
-0.201132
0.425175
0.526161
0.278680
0.453642
0.604840
0.031443
0.622144
-0.378647
-0.436298
-0.060778
0.352639
-0.145310
-0.516073
0.671075
-0.315051
-0.606507
0.415655
-0.229916
-0.068069
0.010785
-0.237061
0.135346
0.662138
-0.212605
-0.268805
0.253438
0.510467
0.426473
0.187649
0.395587
-0.224354
-0.612429
-0.222536
0.425948
0.308486
-0.387374
0.239504
-0.299133
-0.600035
0.050123
0.150891
-0.142486
0.090434
-0.345372
0.273855
0.420134
-0.557712
-0.146341
-0.035643
0.562737
-0.118415
-0.105993
-0.285922
-0.308326
-0.119401
-0.012262
-0.093899
0.516390
-0.247596
0.368739
0.448296
0.651616
-0.599755
0.010325
0.148819
0.664130
-0.307247
-0.056818
-0.194393
0.203794
0.309687
-0.204958
0.061881
-0.480810
-0.371961
0.370762
0.087197
-0.451103
0.053558
-0.033759
-0.390119
-0.610987
0.090033
0.386350
0.509391
0.102358
0.245574
0.341450
0.310941
-0.081470
0.564866
0.210399
-0.173624
0.385878
-0.172282
-0.022101
-0.260745
0.625736
0.408487
0.360764
0.033683
0.257496
0.123454
0.536105
0.477229
-0.075477
0.175026
-0.101813
0.238599
-0.033202
-0.261739
0.462053
-0.316921
0.364729
-0.462514
0.194226
-0.163596
0.013618
-0.381015
0.012078
0.229348
0.547477
0.248712
0.647167
-0.065968
-0.215468
-0.258567
0.449044
0.202117
-0.756733
-0.271419
0.517663
-0.509781
-0.030477
-0.157742
-0.317873
0.064871
-0.354810
0.281680
-0.629902
-0.334578
-0.037667
0.031130
-0.268627
-0.274630
0.336314
0.153449
-0.397675
0.409213
-0.261856
-0.202641
-0.289447
-0.057340
0.000584
0.380787
-0.522542
0.023271
0.580609
0.296373
0.127597
-0.007672
-0.177487
0.172247
-0.404544
0.301183
0.232579
0.646064
0.071615
-0.211772
0.275204
0.047034
0.087179
0.597681
-0.044079
0.306503
0.026613
0.408426
0.653274
0.122771
-0.339338
-0.259308
0.424004
0.419436
-0.639164
0.200752
-0.014348
-0.432172
-0.524535
0.187472
-0.259324
0.350418
0.109521
0.106033
-0.451501
-0.129877
0.318027
0.201181
-0.229389
0.254710
0.348917
0.390165
-0.412834
-0.163202
0.158176
-0.078705
0.169233
-0.230400
0.083858
0.140646
0.078898
-0.619674
-0.053036
0.186133
0.349135
0.157215
-0.039962
-0.411630
0.464513
0.307375
-0.058399
0.379465
-0.169306
-0.119203
0.306495
0.405762
0.637724
0.314946
-0.508395
0.575189
-0.176691
-0.177731
-0.439141
0.078178
0.299328
-0.400686
0.129019
0.480624
-0.073412
0.340937
0.044274
0.255003
-0.290680
0.042574
0.728568
-0.487486
0.030215
0.107043
0.213691
0.280237
-0.145644
0.195492
-0.038248
0.256997
0.239999
-0.255650
0.181912
0.566838
-0.166921
-0.474043
0.093258
-0.056172
-0.336539
0.272245
0.196729
-0.500344
-0.138924
-0.297145
-0.211616
-0.546823
-0.044725
-0.213760
0.355501
-0.220701
-0.346674
-0.156057
-0.498898
0.352386
0.023121
-0.832542
0.149548
0.203992
-0.008542
-0.394702
-0.391900
0.373687
-0.384348
0.181937
-0.063105
-0.452023
-0.067352
0.133333
0.293905
-0.146445
-0.447568
-0.022190
0.082347
0.308400
-0.217124
0.140358
0.466624
-0.169574
0.395601
0.315351
-0.558874
-0.127238
-0.145035
0.284923
0.308582
0.003736
-0.651953
-0.095779
-0.417213
0.042805
0.195947
-0.387048
0.131370
0.407807
-0.030679
-0.203920
-0.547253
-0.127699
0.323095
-0.034006
0.506999
-0.134232
0.353545
-0.054865
0.050017
0.284453
0.096620
-0.216545
-0.166412
-0.051536
0.201737
0.341351
-0.370690
-0.449839
-0.047004
0.761850
-0.487630
0.212405
0.559440
-0.077752
-0.474811
-0.158116
-0.070914
0.139245
-0.365623
-0.348377
-0.500824
0.153725
-0.159934
-0.434798
-0.132413
0.271796
-0.326025
-0.151844
-0.001409
-0.288748
-0.221787
0.300830
0.264934
0.250159
-0.022100
0.075648
-0.211987
0.071765
0.127020
0.199790
0.274489
-0.133886
-0.532614
-0.052417
0.233467
-0.532848
-0.649508
0.050916
0.046458
-0.062713
0.138777
-0.344849
-0.255699
0.344778
-0.326318
-0.072240
-0.141374
-0.126674
-0.076643
0.644164
-0.155532
0.038654
0.222889
-0.170346
-0.311999
-0.006747
-0.276290
-0.530958
-0.301869
-0.122369
0.544244
0.384085
-0.066221
-0.195320
0.304156
0.130861
0.016044
-0.108372
-0.348240
-0.023288
-0.135222
0.414222
-0.025587
-0.067466
0.118575
-0.460971
0.069385
-0.044037
0.127306
-0.420435
0.113978
0.047124
0.060069
0.028549
0.147680
0.546487
-0.208387
-0.401786
0.136567
0.443042
0.040099
0.376767
0.512075
0.142779
-0.502072
0.035837
0.120222
0.026202
0.132431
0.217712
-0.198297
0.366230
-0.552996
-0.227645
0.182510
-0.549354
-0.174311
-0.203178
0.419691
0.317570
0.813287
0.442536
-0.177176
-0.074442
0.407888
-0.284840
-0.051019
0.245212
-0.614552
0.378968
-0.519130
-0.189204
-0.108380
0.260410
-0.428853
0.316791
-0.269238
-0.297740
-0.130913
0.089040
-0.080942
0.291598
-0.203446
-0.141580
-0.275529
-0.225158
0.126580
0.348315
-0.563576
-0.154658
0.375277
-0.238976
-0.095094
0.018059
0.297501
-0.031076
-0.019844
0.385309
0.524472
-0.015706
0.260752
0.071782
-0.238821
-0.003666
-0.302983
-0.184135
0.204383
-0.283476
-0.235582
-0.216087
0.310216
0.229951
-0.057356
-0.203188
0.233626
0.077814
-0.311583
-0.020167
-0.311773
-0.516601
-0.227653
-0.057478
-0.148651
-0.010438
-0.088034
-0.213173
-0.052672
0.041289
-0.013172
0.020252
-0.332701
0.459304
-0.399766
0.374463
-0.010247
0.333171
0.467376
-0.365534
-0.451752
0.212328
-0.063886
-0.148425
0.215687
0.050602
0.117376
-0.401132
0.051409
-0.185105
0.196422
-0.413705
0.729654
0.519139
-0.298170
-0.175873
0.506817
0.448324
-0.584630
0.220918
0.066773
0.235120
0.066052
-0.720247
0.383568
-0.048804
0.453798
0.551370
0.010654
-0.349414
0.178850
0.581353
-0.024539
0.031935
-0.095041
-0.034032
0.066409
-0.004012
-0.271393
0.144097
-0.120770
0.504813
-0.171121
-0.037119
0.038506
-0.455830
-0.443882
-0.661669
0.192853
0.357191
-0.610202
0.253851
-0.083967
-0.027356
-0.015842
-0.491307
-0.199924
-0.474564
-0.024780
0.277920
-0.489400
-0.242052
-0.572767
-0.291379
-0.595999
0.124062
0.029082
-0.411542
0.238437
0.288650
-0.050847
-0.203067
0.581379
0.350238
-0.256001
-0.008751
-0.369330
-0.822012
-0.191149
0.375533
0.365140
-0.106797
-0.466679
0.373918
0.245330
-0.399491
-0.259170
-0.293250
-0.347565
0.216118
-0.149206
-0.413819
0.891974
-0.293465
0.176672
-0.654688
0.119006
0.082824
0.348711
0.189427
-0.065690
0.111447
0.322653
0.288269
-0.155797
0.369006
0.076176
-0.628963
-0.097079
-0.006295
-0.145959
-0.251344
0.549663
-0.188315
-0.047525
-0.091630
-0.710476
0.340651
-0.427462
-0.048516
0.499340
0.221875
0.453937
-0.011484
0.030202
-0.116939
-0.156597
0.317803
