-2.632659
1.893012
-1.686409
-1.360550
1.388907
-0.299341
0.050192
-2.300327
2.013639
1.129544
0.696581
-1.876177
-4.477151
-2.197059
2.738732
-3.019486
0.613763
-2.117146
1.524558
2.058798
-0.697542
2.426050
1.673273
-1.259418
-2.209108
1.394398
3.333587
4.107049
0.752985
2.127799
1.008306
3.284148
-1.876519
-1.865992
1.790585
-0.604109
-4.621020
-1.926971
0.998272
0.795145
-0.542135
0.936684
2.151541
-1.957154
-4.036542
-2.117836
0.581181
-0.003963
-1.377549
-0.133725
0.731912
-1.139592
3.740722
2.441960
-2.521698
-0.781587
-0.325039
-0.768762
-2.844190
-1.389559
-2.096946
1.118717
2.009250
2.214731
1.593947
1.321776
3.976838
-0.229690
-3.851277
1.365117
2.281916
0.627550
2.818490
0.198786
-0.981421
-2.267181
0.572466
0.452328
1.452706
-1.436246
0.942760
0.636918
-0.811942
-1.169669
0.997504
4.229575
-1.440809
1.010398
-0.584623
-2.714908
-0.546778
1.334134
-0.969243
-2.012233
-0.621486
0.657019
0.726374
2.391830
-0.252307
0.888864
-1.898793
-2.242322
2.718070
-0.094658
-1.276942
-1.766524
1.613924
-0.557700
2.005410
3.921588
-3.221628
-2.858650
-0.368618
1.036329
-2.864872
-1.159010
1.121280
-3.465760
2.237116
-2.020837
-1.981051
-3.731702
-0.679833
1.561973
0.085321
-0.530639
-2.166143
-2.508727
-1.782424
-1.876373
1.918954
-0.444643
2.156254
5.218788
-0.673232
-2.270087
-0.238218
-0.868295
-1.380003
2.132679
2.365925
-2.300000
0.115917
1.851116
-0.518316
0.792103
5.147128
-0.760199
0.112311
-2.098231
-0.921131
-0.258733
-0.882977
3.387213
-4.094430
-0.909153
0.691377
2.282495
1.426657
-0.541307
-1.958188
-1.376670
-0.880196
1.566594
-0.593141
4.090747
3.960321
-3.636920
0.794220
3.793627
-0.551011
-0.383147
-1.344962
0.153086
-0.559527
-0.021563
0.650241
0.640723
-0.554159
0.438001
-1.704474
0.732841
-0.397827
2.409381
-1.786357
2.217727
-4.012116
3.634930
-2.744563
-0.309991
-1.202988
0.723754
1.980118
1.201291
-1.053406
1.081747
-3.981959
1.101829
-2.253018
-2.833606
0.468703
2.458359
-0.160894
-0.904433
-4.603048
-1.316026
2.624587
3.162763
0.560754
-1.137196
1.676892
-0.849104
-2.779352
-0.034383
-0.972465
-0.430151
1.844152
0.747967
2.273749
-2.007584
-0.676063
-4.198683
3.568790
-1.264749
-0.643727
-0.224183
-4.801888
0.358025
-2.826268
-1.876981
-3.821762
0.437821
1.993854
0.116940
-0.100877
0.169132
-0.981110
0.096583
-3.056337
0.895392
-0.600944
0.764681
0.394926
0.977337
-0.352471
2.134992
4.274509
-5.150367
4.057349
0.266750
-1.812070
-0.131014
-1.876998
1.230385
-2.029028
-1.517689
0.448143
1.908801
-2.122245
-2.445537
-2.054791
-1.508932
0.351299
-0.719310
5.012679
-1.264074
-0.517346
1.124887
0.288025
3.085916
-3.093163
0.257948
-2.064735
-1.348461
2.838016
-1.231587
-0.446424
3.854162
-1.501657
-0.205528
0.405515
-0.901003
0.281943
1.086943
1.211191
0.300940
2.004507
-1.305797
1.540530
0.531179
-0.287433
-2.246336
1.296723
3.640570
3.234037
1.089268
0.489139
-5.075745
-4.552780
2.173332
-0.181872
-1.257341
0.765887
0.303318
3.326300
-1.772862
-3.305983
-1.466353
-0.444008
-0.739946
5.821221
-4.096253
-3.014409
-0.765023
3.541762
3.206664
0.265720
-5.989571
4.087544
-4.261612
-1.496958
-0.440763
0.055534
-1.424393
1.526074
-0.194333
0.116024
2.274816
-3.245916
1.957742
-3.240095
-3.550816
-1.416414
-2.009812
0.813151
0.752806
-0.136397
-5.469063
-0.642143
-2.646787
-0.623274
-1.360309
0.167919
0.742827
4.614938
1.558169
0.014656
0.940423
-0.724656
-2.101533
1.135906
1.856951
-3.135726
-1.788805
-0.781722
2.610022
-0.736967
-4.220458
-1.960753
-0.684455
-0.085863
-1.102076
-2.795767
3.171123
0.204091
3.164113
0.470511
0.505473
6.226335
-0.168911
-0.918631
-0.377708
-0.672759
1.000684
-0.306042
2.925812
0.211682
-2.301174
1.101740
-0.549585
2.279103
-0.594992
-0.811322
-1.388604
-1.812882
-0.310168
5.863166
2.149941
2.432833
0.168653
-0.970098
3.242610
0.666139
2.777898
2.685812
-0.535641
-3.840874
-0.053002
2.458302
3.862414
-1.898944
-0.685688
2.489919
-1.560754
1.935044
-2.250051
-0.553495
1.470951
4.049906
1.027077
-2.088115
0.064449
-0.430376
-2.788088
-1.513978
0.650858
2.132015
-2.923572
0.499996
1.532553
-0.025657
-4.393296
0.735549
2.093236
1.007208
-0.105986
2.035938
-1.908960
-1.011921
-0.710543
-2.347969
2.149732
2.122976
-0.610333
-2.960422
2.754085
4.607964
1.566455
0.227891
-3.633397
3.188858
0.714246
-0.616059
0.530295
1.245300
-2.318127
-2.037501
-1.673732
-0.116859
3.456065
-1.895650
1.450186
-0.662035
3.009939
0.641222
-0.377980
0.551052
-0.580431
-2.689319
1.578572
0.500688
-3.635894
-1.364659
-0.004754
0.325232
1.369517
-0.596015
1.179036
3.145480
0.025558
1.468156
-2.537973
-0.471994
-0.030053
1.636425
1.403981
-1.840870
0.974432
1.014055
0.153165
0.997031
0.244165
2.227497
-1.970198
1.225387
-2.304217
-1.486241
-2.807442
-2.488879
-2.603845
-1.231650
-1.716192
-0.830091
-1.351469
1.148025
-0.998567
2.806884
2.385678
0.323515
-0.295808
1.178806
-1.147340
0.025816
0.959750
0.730718
1.527750
-2.469369
0.140264
1.589915
0.771259
0.982474
-1.217373
-3.294209
-1.191070
-1.407331
1.393929
1.597669
1.128553
1.443014
1.185834
-1.763622
0.146761
3.022342
-0.694262
0.677852
2.169057
-0.005363
-0.286756
-1.335427
3.366688
-3.594461
1.277234
0.661143
-1.025643
-0.155825
-1.534430
-2.509485
-3.867935
1.304004
1.207208
0.706548
2.625077
0.104722
2.071092
-1.340049
2.219349
-1.147563
-2.981996
1.158872
-0.969870
-1.471409
-0.792762
-2.313600
1.130784
-0.039953
-2.656365
0.111751
-1.126933
-0.536808
1.293746
1.792761
-3.655725
-1.358068
1.515469
1.431844
-1.637692
-1.940490
-0.827360
-0.655285
-1.011042
-0.943331
-0.441850
2.099633
-1.541447
0.982169
1.443080
0.961979
-0.916157
2.201059
2.204560
-0.919070
0.991102
1.230083
-1.323885
2.374489
1.313412
-1.681128
-1.114586
1.594916
1.088344
-1.965773
-2.262988
-0.771319
2.750647
-1.114119
0.658477
1.348505
-3.458638
0.055395
1.667648
2.961627
-0.419208
-0.194631
3.189158
-1.858897
0.612094
2.978793
1.098635
2.523504
2.048479
0.443604
4.021897
-1.340865
-2.596058
0.760660
-0.687725
0.358312
3.182119
2.817506
0.191228
2.812069
4.688894
2.544331
-0.605747
1.305304
1.768625
-0.976063
-3.597144
-0.595076
-0.857680
-1.717365
-1.541760
-2.270453
3.324158
2.965569
1.895541
1.831419
-3.044878
0.144206
-0.259392
0.233293
-2.285946
-0.597816
-0.315324
-0.993112
0.904225
1.290817
-1.786239
1.651092
-2.396284
0.397803
-1.251953
-1.265931
-0.451859
0.094514
-0.820149
-4.059554
4.592637
-0.088642
0.626717
-0.690704
1.358104
0.937830
0.396586
-0.053090
-3.197930
1.327778
0.172947
-2.112080
3.607971
1.157301
1.513481
1.102970
-2.907817
1.811815
-1.106402
-1.727432
0.912279
-0.435943
-0.440263
3.797418
1.492534
-0.053383
1.478016
0.543254
-1.949831
1.038776
-0.194126
-0.838135
0.412456
-0.797702
-0.241908
0.722216
0.414460
1.232211
2.281676
0.319193
-2.127828
-1.997094
-3.291268
-0.192647
-2.998973
1.961974
0.313785
1.285253
-1.717662
0.336845
-2.536337
0.343874
0.909031
-0.911687
-3.545916
-1.445358
0.666963
-0.117078
-0.379523
0.133701
-1.292643
-0.203798
-2.398454
-1.367552
3.898901
0.822340
-0.379408
-0.314307
-0.773274
-0.024128
0.997366
-1.975653
-1.695375
0.191818
2.416015
-0.760951
1.764933
2.302607
0.112107
-0.165223
-0.476239
-2.655174
0.038758
-2.430158
-1.420345
-0.053494
-0.354139
-0.308797
-1.301532
-0.939754
-0.190903
0.239994
-0.284331
2.007652
-1.410052
-2.277692
2.781145
2.690790
0.321290
1.226143
0.550228
0.583520
-0.907607
-1.714158
-1.783566
-1.521821
-0.461724
-1.672387
0.846960
-3.325500
-0.080386
3.327489
0.571209
-0.958168
