-0.254066
0.152349
-0.114449
0.038965
-0.304593
-0.235918
0.162373
0.354441
0.400794
0.439461
-0.307842
0.105255
0.034443
-0.393663
-0.437187
0.485958
-0.048620
0.127298
0.195949
-0.302708
0.169064
-0.418157
-0.047487
-0.129764
0.193412
-0.327908
-0.213670
-0.351716
-0.334196
0.020999
0.336038
0.222766
-0.413976
0.120449
0.352033
-0.057232
-0.336763
0.489595
-0.201001
-0.137601
-0.576825
0.061877
-0.304941
0.449537
-0.060117
-0.565537
-0.363281
0.185697
-0.308694
0.497471
-0.309217
-0.063528
-0.037593
-0.476616
-0.141674
0.458787
-0.311668
-0.389177
0.113413
0.117129
-0.164946
0.468864
0.584771
0.033203
0.448123
-0.315330
-0.662921
-0.099916
0.069708
-0.216507
0.076180
0.355704
0.261707
-0.045413
0.111115
-0.135753
-0.299057
-0.535770
0.499567
0.134862
0.230617
-0.217947
-0.341476
-0.270680
0.134965
0.157406
0.418530
-0.458743
-0.096242
0.309511
0.253610
0.344597
0.417421
0.460786
0.110584
-0.234848
0.289993
-0.312263
-0.424672
-0.193637
0.357133
0.129033
-0.537646
-0.041716
-0.032486
-0.567031
-0.042227
0.681084
0.234939
-0.064443
0.423758
0.095182
0.133180
0.154282
0.193746
0.112440
0.255687
-0.187474
0.098792
-0.303367
-0.193099
0.540890
-0.022471
0.356933
-0.587716
-0.393301
-0.074897
0.297336
-0.380214
-0.492743
0.521580
0.454145
0.296845
0.163226
-0.245452
0.607787
0.200679
-0.567049
0.321165
-0.307300
0.070473
-0.340733
0.192739
-0.408883
-0.101530
0.277699
-0.253873
0.157892
0.274410
-0.271152
-0.398308
-0.274554
0.299485
-0.199978
-0.259447
-0.178918
0.028400
0.070560
-0.069476
-0.188080
0.168982
0.342723
0.342794
-0.062005
-0.077371
0.142091
-0.218099
-0.482565
-0.317004
-0.628775
-0.168018
-0.031261
0.132449
0.738597
0.414333
0.491690
0.387778
-0.163386
-0.350947
-0.280223
0.256907
-0.197230
-0.393451
0.622542
-0.046647
0.051153
0.568818
0.700282
-0.389671
0.242764
0.531023
-0.114362
-0.231314
-0.151830
-0.237145
-0.415214
-0.295561
-0.330687
-0.060164
-0.447994
0.510541
-0.162674
-0.180850
0.185858
-0.400230
0.290602
0.095110
-0.553894
0.013378
-0.180137
0.308344
-0.333215
-0.056555
0.229384
0.499174
0.253511
0.120717
-0.366877
-0.106176
0.497128
0.589935
-0.061170
0.328155
0.003873
-0.103594
0.319198
0.188294
-0.399117
-0.290036
-0.289470
0.135480
0.074862
0.257896
0.186837
0.648099
-0.029373
0.000322
0.145692
-0.481482
-0.020164
-0.242018
-0.158273
-0.607386
0.141281
0.272850
0.518371
0.559830
-0.057959
0.703572
0.429382
0.163898
0.240891
0.209862
0.221572
0.253691
0.022785
-0.345887
0.284670
-0.177569
-0.434409
0.705412
-0.573416
0.024768
-0.314144
0.446298
0.233325
-0.014246
-0.020053
-0.298784
-0.377974
0.320718
-0.337559
0.556561
-0.323248
0.322191
-0.253658
0.103669
0.191731
-0.049197
0.072238
0.502986
-0.332265
0.020765
-0.259474
-0.198428
-0.262060
-0.001632
0.198393
-0.551645
0.147100
-0.719587
-0.046948
0.002764
0.225013
-0.477907
-0.435019
-0.398226
-0.110925
-0.314522
0.570361
-0.184583
-0.011734
-0.032387
0.006162
-0.231811
-0.142385
-0.037582
-0.326918
-0.010618
-0.607115
0.151293
0.331826
-0.286000
-0.183275
-0.412778
-0.533895
-0.136869
0.231171
0.480585
-0.092313
0.339201
0.306836
-0.121486
0.146952
-0.300754
0.454535
0.138349
0.538259
-0.493815
-0.228921
0.173061
-0.367522
0.320727
0.228490
0.198621
0.134947
-0.104006
-0.060096
-0.036788
0.182704
0.143396
-0.386858
-0.136007
0.463479
-0.190600
-0.361916
0.121849
-0.165418
-0.415629
-0.219273
-0.071378
0.110657
0.107154
-0.088953
0.037467
0.339724
0.325980
0.466627
-0.168002
0.649911
-0.115111
0.213301
0.491165
0.222210
-0.183463
0.108759
-0.290395
-0.290704
0.269745
-0.216336
-0.165250
-0.036312
-0.393608
-0.623647
0.538374
0.208899
-0.313106
-0.027654
0.013225
0.210132
0.043947
0.479388
-0.226098
-0.076313
-0.594949
0.021410
0.096674
-0.366605
-0.444261
0.413249
0.361072
-0.145119
-0.498686
-0.071964
-0.150544
-0.273898
0.112613
-0.231459
-0.040335
0.669711
0.128855
0.143195
-0.663913
-0.393898
0.269284
0.142471
-0.036931
-0.074817
-0.352268
-0.420654
0.000723
-0.067516
0.037033
0.773081
-0.071685
-0.412241
0.175434
0.353157
0.598784
0.014398
0.242453
-0.097145
0.093588
-0.255211
0.208064
0.156670
0.456634
-0.425269
-0.113195
0.023238
0.170156
0.066674
-0.400917
0.435365
-0.237378
-0.188916
0.056317
-0.025823
-0.128672
0.382392
0.338127
0.291301
-0.280989
0.337750
-0.219554
-0.117492
-0.077136
-0.087034
0.178653
0.167766
-0.102257
-0.081494
-0.525024
0.096962
-0.219026
0.399151
-0.381956
0.088777
-0.235989
-0.067698
0.236841
-0.248640
0.402787
0.215846
-0.576462
0.337449
-0.094650
-0.447116
0.507290
-0.348518
0.188097
-0.463364
-0.609868
-0.148124
-0.202916
0.149573
0.379622
0.390988
-0.165601
-0.250415
0.199463
-0.471391
0.015235
0.491234
0.440273
-0.227752
0.408759
0.080582
0.195244
-0.051876
-0.490889
0.095601
0.558920
-0.166915
0.282390
0.188199
0.056636
0.294209
0.253948
-0.189310
-0.524297
-0.005649
0.273237
0.372649
0.526653
0.115594
-0.158507
-0.215543
0.160911
-0.295178
-0.683017
0.055171
-0.435270
-0.754799
-0.127898
0.229637
0.219955
-0.378752
0.559780
0.550523
0.264811
-0.006099
0.187742
0.002241
-0.292749
0.747971
0.903054
0.274919
-0.016131
-0.365471
-0.145501
-0.212396
-0.476440
-0.399367
0.267398
0.186970
-0.273509
0.038323
0.177154
-0.295677
-0.305565
-0.448009
0.513590
-0.274457
-0.134162
0.079692
-0.112110
0.063710
0.050257
-0.063445
0.213663
0.520375
-0.074931
-0.046229
0.414825
-0.253552
-0.276290
-0.131281
0.397102
-0.307489
0.260802
0.194743
-0.315499
0.619414
-0.546226
-0.276919
-0.220902
0.367424
-0.098838
-0.436199
-0.040653
0.364607
0.184550
-0.192679
-0.057244
-0.410953
-0.122423
-0.199181
-0.344191
-0.156155
0.150675
0.687750
-0.547105
-0.496426
-0.518937
-0.347947
-0.357622
-0.196728
-0.053884
-0.097454
-0.151602
0.240394
-0.130370
-0.023327
0.320243
0.351860
-0.251964
-0.014839
-0.211629
-0.365165
0.430787
-0.347701
-0.241047
-0.464197
0.382275
0.359409
-0.674710
-0.413155
-0.079947
-0.199450
-0.088354
0.251047
0.234070
0.897074
-0.200353
-0.167935
-0.305685
0.231455
0.469002
0.265466
0.568467
-0.335035
-0.174112
-0.481409
0.376386
-0.167754
-0.238576
0.657012
0.428271
-0.283788
-0.357978
-0.419361
0.004890
0.150685
-0.625291
-0.435031
-0.186945
0.144848
-0.457191
-0.082868
-0.026361
0.128023
-0.228471
-0.321029
0.487476
0.143728
0.174305
-0.287355
0.421717
0.102761
0.280855
-0.445187
-0.142594
-0.553768
0.157676
-0.634127
-0.243909
0.528002
0.414163
0.533911
0.205295
-0.518196
0.369233
0.377516
-0.010972
0.398553
-0.652798
-0.101600
-0.005816
-0.525992
-0.132789
0.074056
-0.049575
0.288884
0.053881
0.424093
-0.493883
0.454779
-0.449516
0.260959
-0.456614
-0.041869
-0.565431
0.274855
-0.465880
-0.331254
-0.176209
0.634217
0.013131
-0.217110
-0.548671
0.494811
0.109205
-0.200059
-0.410839
0.038696
-0.066241
-0.381984
-0.342470
-0.177247
0.621793
0.131121
-0.137484
-0.128088
0.007402
0.070813
0.474785
-0.088479
-0.233151
0.486744
0.729216
-0.720247
-0.127660
0.533556
0.455000
0.381822
0.567787
-0.254663
0.200208
0.431267
0.291598
0.543603
-0.026225
0.180299
-0.061430
-0.256646
-0.243657
-0.270186
0.348190
-0.094569
-0.361863
-0.308765
0.252965
0.219746
-0.462649
-0.306423
0.178808
-0.400610
-0.574542
-0.652479
0.100195
-0.055555
-0.438074
0.564210
0.372604
-0.183538
-0.204276
0.234303
0.121473
-0.495032
-0.503382
0.081286
-0.228788
0.523725
-0.325409
-0.293500
0.108340
-0.192098
-0.121927
-0.442602
-0.034573
0.205466
-0.085216
0.237225
0.170113
0.227207
0.110186
-0.224107
0.117594
-0.018200
0.606788
-0.045247
-0.180528
-0.355355
-0.225406
-0.095982
0.478473
-0.160604
-0.556807
0.199872
0.503215
-0.398309
-0.050370
0.347841
-0.599993
-0.217717
-0.281376
0.205923
0.260455
-0.426149
-0.154519
-0.310597
-0.032545
-0.270098
0.190895
0.161909
-0.489540
0.535363
0.198187
-0.484308
0.202102
0.153195
-0.392811
-0.313822
0.122146
0.291661
-0.281415
0.275616
-0.393058
-0.431852
-0.008037
0.118303
0.404843
0.238179
-0.010237
0.078304
