-0.078612
-0.066186
-0.006348
-0.610442
-0.371746
0.680072
-0.015129
0.301693
-0.299886
-0.237552
0.265425
0.026010
-0.023880
-0.167949
0.440659
-0.126368
-0.494256
-0.184156
-0.208975
-0.393772
-0.302664
-0.293604
-0.465882
-0.104358
-0.619313
0.058157
-0.346052
-0.342391
-0.400960
0.644129
0.095803
0.334767
0.105060
-0.150608
-0.271610
0.287990
0.252906
-0.185088
-0.166769
0.102724
0.133416
-0.346019
-0.262331
-0.264549
0.729743
0.350444
0.452390
0.346754
0.229225
0.114953
0.300971
0.000576
0.446095
0.535147
0.074212
0.067697
0.113491
-0.649740
0.235541
0.117129
0.563113
0.474088
0.285859
-0.263411
0.419401
-0.233905
0.546879
-0.516332
-0.274919
-0.256895
-0.644892
-0.395252
0.087587
-0.126731
0.620889
0.065456
0.086044
-0.316134
0.489420
-0.173178
-0.113260
-0.298396
0.629200
-0.105369
-0.463252
0.306541
-0.118208
0.389209
-0.540491
-0.525671
0.104098
0.342680
0.415141
-0.063979
0.150472
-0.551291
0.067804
-0.251253
-0.366856
-0.667045
0.402442
-0.419890
-0.001957
0.039913
-0.118243
-0.252696
0.316041
0.366239
-0.389342
-0.342958
-0.126991
-0.799266
-0.063606
-0.151102
0.429963
0.112440
0.051471
-0.084669
0.005423
-0.253357
0.354494
0.142028
0.054116
-0.388753
-0.203448
0.456021
0.129760
-0.483510
-0.055608
-0.207424
0.166495
0.608648
0.352963
0.052578
0.064609
-0.455821
0.181105
-0.586176
0.242888
-0.305584
0.660291
-0.074100
-0.209323
0.151779
0.344359
0.095247
0.026487
0.137746
-0.109318
0.231128
0.206639
-0.314031
0.192197
0.004099
0.088017
0.430243
-0.508907
0.099117
-0.736464
0.346013
-0.398942
-0.094916
0.504843
0.336493
0.388651
0.501990
-0.193533
-0.192553
-0.102030
-0.197205
-0.079162
0.292042
-0.251183
-0.087807
0.193232
-0.029621
0.287102
0.474459
0.455259
0.005122
-0.401335
0.686678
0.249579
0.439147
-0.523901
0.233859
-0.450398
-0.793049
0.343679
-0.486064
-0.075064
-0.162744
-0.007458
-0.545045
0.466462
0.116608
0.399195
0.791465
0.067015
0.160308
-0.299498
0.772940
-0.474535
0.199569
0.598954
0.259246
-0.451961
-0.359665
-0.148074
0.098228
0.178804
-0.175059
0.154761
0.064016
-0.032969
-0.133215
-0.510704
-0.024588
0.041571
-0.063300
-0.177079
-0.172134
0.291240
0.285594
0.325621
0.378081
-0.429304
-0.329795
-0.290171
-0.365816
-0.183672
0.466746
0.239564
0.287130
-0.529072
0.383980
-0.155990
0.311208
-0.055251
-0.077268
-0.371022
-0.403893
-0.544171
-0.192167
0.418970
0.486898
-0.454377
-0.542083
-0.360681
0.082815
0.484614
0.009372
0.198244
0.326535
0.304885
-0.111633
-0.235532
0.535936
0.349965
-0.083496
-0.240390
-0.151464
-0.248126
0.553037
0.051311
0.072921
-0.484334
-0.122735
-0.122659
0.711785
0.114515
-0.538061
0.378702
-0.386737
-0.443150
0.013870
0.188961
0.405182
-0.669472
0.164910
0.140889
0.398874
-0.104957
-0.018678
-0.209195
0.090777
0.144095
-0.224264
0.613238
-0.419191
-0.431230
0.334982
-0.039713
-0.221896
0.350700
-0.068061
0.409321
-0.447421
-0.179274
0.225206
0.115116
-0.268974
0.191804
0.358288
-0.532221
0.443441
-0.118801
0.323671
0.036018
0.476699
-0.192351
-0.411408
-0.316453
0.246731
-0.039920
-0.232300
-0.652254
0.203136
-0.231676
-0.012747
0.331223
-0.078578
-0.746494
0.432832
-0.129600
-0.252524
-0.212778
0.057138
0.225547
0.417664
0.148691
-0.330020
0.294222
-0.153342
0.063960
0.352232
-0.219116
-0.096428
-0.219309
0.181707
-0.419784
0.486373
-0.103650
-0.160959
-0.097990
0.288207
0.372107
-0.391390
-0.373796
0.086032
0.116669
-0.219001
0.068384
-0.151190
0.257623
0.245799
-0.549991
-0.192734
0.401279
0.198555
-0.393826
-0.021109
-0.413565
0.119247
0.284616
-0.371197
0.353197
-0.261507
-0.032793
-0.451464
0.014414
0.366040
0.244800
-0.322752
0.464154
-0.211331
0.057157
-0.596504
0.060089
-0.000931
-0.112799
0.079482
-0.058077
-0.283496
-0.382552
-0.246271
0.040419
0.251288
0.381979
0.297997
-0.116625
-0.045502
-0.088552
-0.312254
0.456999
-0.519580
-0.176651
0.605188
-0.213432
-0.023550
0.328313
-0.135454
-0.352022
0.112566
-0.391326
-0.713807
-0.147257
-0.406583
0.001406
0.371779
-0.116980
-0.038788
-0.426340
0.349682
-0.398202
-0.297103
-0.162022
0.036352
-0.346446
0.045359
0.018326
0.207293
0.364674
-0.112561
-0.270572
-0.130203
0.249288
0.151916
0.381151
0.207681
0.115236
-0.021992
-0.503602
0.171965
0.331185
-0.195799
0.056317
0.186516
-0.301756
0.652473
-0.036001
0.263091
0.369227
0.497702
-0.125567
-0.126412
0.142669
-0.111889
0.155985
0.009921
-0.390838
-0.200868
0.003453
0.367132
0.260388
0.165438
0.243033
0.041324
-0.382339
-0.296118
-0.218556
-0.441966
0.222289
0.329424
0.339538
0.082037
0.374938
-0.114628
0.107327
0.329875
0.242284
0.243206
-0.219345
-0.183563
-0.335075
0.375120
-0.339390
0.393447
-0.016377
-0.041020
-0.253172
0.309766
0.395660
0.093025
0.482649
-0.203192
0.110566
-0.100688
0.153162
-0.065162
-0.515596
0.320533
-0.223223
-0.659355
-0.602875
0.079622
-0.133035
-0.203226
-0.170538
0.492802
-0.390948
-0.385314
0.177604
-0.224887
0.301455
-0.349118
-0.507160
-0.030602
-0.418163
0.405720
-0.353727
0.259760
-0.109222
0.149333
-0.088440
-0.514341
0.214220
-0.643784
0.117618
-0.460790
0.078047
0.281436
0.510654
-0.259153
-0.029012
0.416444
0.331257
0.315848
0.204709
0.279314
-0.154513
0.485357
0.370674
0.477990
-0.020935
0.466020
0.333174
-0.364623
-0.205445
0.699410
-0.025818
0.247426
-0.130560
0.344574
-0.422494
-0.056296
-0.151245
-0.072694
0.415413
-0.063445
0.265236
-0.490197
0.484549
0.029004
0.148133
-0.325862
-0.414130
-0.330725
0.282140
0.105079
0.188285
0.625581
-0.029753
0.542092
-0.495364
0.306050
0.145428
-0.211123
0.121200
0.209529
-0.107509
-0.022971
-0.240293
0.089067
-0.418341
0.448285
-0.190478
-0.216362
-0.453844
0.495804
-0.070467
-0.286232
0.060069
0.535219
-0.424889
0.065308
-0.479011
-0.113324
-0.164935
0.074968
0.145904
-0.202497
-0.077680
-0.104677
-0.264822
-0.780196
0.458146
0.520547
-0.185574
-0.088547
0.515673
0.357573
0.132569
0.282277
-0.529309
-0.313051
-0.687929
-0.101475
0.122782
0.404474
-0.517662
0.176458
-0.415541
0.099843
0.329145
-0.621404
-0.325564
-0.307265
-0.041444
0.064631
0.280250
0.571911
0.111454
-0.321452
0.243737
0.173835
0.057774
0.050294
-0.383619
0.157075
0.275082
-0.113330
-0.553098
0.001639
-0.594409
0.674204
-0.122470
0.144289
-0.026866
0.474127
-0.609847
-0.235693
0.245865
0.420293
0.021764
0.127562
-0.015805
-0.242328
0.013270
0.289822
0.119518
-0.441662
-0.215456
0.453064
-0.066011
-0.301502
0.223281
-0.053496
-0.341125
0.842387
-0.529248
-0.302811
0.192009
0.179399
-0.141061
0.496382
0.625040
0.282693
0.273733
0.728483
0.278221
-0.501797
-0.382732
-0.381797
0.449408
0.329547
-0.068037
-0.060187
0.154067
0.070547
-0.179837
0.239191
-0.377172
0.240364
0.495445
0.168515
-0.027140
0.136696
0.245278
-0.508157
-0.171010
0.173402
-0.376556
-0.424176
0.182285
-0.068660
0.329341
0.187814
0.373877
-0.042166
0.377314
0.016335
0.465063
0.136673
0.342407
-0.047065
0.411295
0.460566
0.073659
0.274832
-0.131085
0.291876
0.386257
0.306249
0.565330
0.369427
0.663752
-0.113786
0.271709
0.023592
-0.348053
-0.228661
-0.004719
-0.042449
-0.027869
-0.378027
0.172237
-0.791427
-0.146629
-0.222338
-0.523179
-0.317901
0.326621
-0.093277
0.041131
-0.142610
-0.097885
0.291814
0.568142
-0.158418
-0.105829
0.024673
-0.306955
0.487176
0.521813
0.531648
0.030125
0.209598
0.467723
-0.379768
0.244713
0.268363
-0.182631
0.342456
-0.498952
-0.216957
0.331118
0.258110
0.603487
-0.082451
-0.326042
-0.527456
-0.401468
-0.450481
0.067783
0.112670
0.555510
0.561704
-0.209561
-0.288098
0.486094
0.634774
-0.201046
-0.355355
-0.209453
-0.315328
-0.250803
-0.765362
-0.221295
-0.240267
0.535709
-0.369821
0.085448
-0.701403
-0.484887
-0.091647
-0.080334
0.424356
0.227864
-0.303266
-0.052831
0.131921
-0.303438
0.239321
0.067642
-0.155277
0.234886
-0.078961
0.067994
-0.250788
-0.130476
-0.208938
-0.334979
0.078772
-0.433045
0.196061
0.374597
-0.672936
0.546103
0.178359
-0.469505
0.177781
0.332423
0.320475
-0.305982
0.560445
