-0.114943
-0.050868
-0.234412
-0.042030
-0.457570
0.276270
-0.005876
-0.197304
-0.118455
0.249001
-0.312324
0.052619
-0.353693
-0.119122
0.303427
0.204931
0.139358
-0.179443
0.517695
-0.606711
0.317375
0.113974
-0.088412
-0.228746
-0.428609
0.435226
-0.275451
-0.462316
0.470095
-0.099796
0.460741
-0.595155
-0.236800
-0.135641
0.264141
0.379711
-0.147372
-0.508663
0.092200
-0.229166
0.122101
-0.370410
-0.394433
-0.386502
-0.385869
-0.314597
0.300423
0.188575
0.408513
0.754340
0.332643
-0.409543
0.312399
0.169640
0.291733
0.133535
0.336254
-0.428697
-0.088593
0.331086
0.048395
0.327417
0.420456
-0.208735
-0.220035
-0.241862
-0.079174
-0.077672
0.177877
0.121597
-0.052146
-0.033430
0.239973
0.418622
0.012553
0.057170
-0.347842
-0.316134
-0.328667
-0.356229
-0.375375
-0.393552
-0.694287
-0.103358
-0.077888
-0.116743
-0.235777
0.231847
-0.015417
-0.625463
-0.254494
-0.334653
-0.214121
-0.408089
0.212497
-0.698949
0.097739
-0.413068
-0.530259
0.354853
-0.362997
-0.389572
0.372135
0.023331
-0.559869
0.145312
0.439118
0.154036
0.660923
-0.206228
0.028714
0.071160
0.278625
0.180266
-0.367103
-0.365330
0.528545
-0.163948
-0.228460
-0.407515
-0.490161
0.474613
0.043204
-0.213663
0.302233
-0.133619
0.040342
-0.094514
0.187489
0.388606
-0.049967
0.167332
-0.160672
-0.158196
-0.336964
0.087812
0.382801
0.170152
-0.201487
0.662446
-0.121481
0.180188
-0.162222
-0.194552
0.037025
0.348811
0.587434
-0.737511
-0.074768
0.468912
-0.148061
-0.275313
-0.073225
0.170032
0.413293
0.260556
0.032844
0.031048
0.028584
-0.186937
-0.380656
0.119267
0.028374
-0.440066
-0.111440
-0.585580
-0.202446
0.070671
-0.215913
0.403313
-0.076526
0.253741
0.645776
0.096870
0.260276
-0.033449
0.704737
-0.385157
0.349847
0.048769
-0.038560
0.478830
-0.214933
0.129087
0.235421
0.338878
0.050761
-0.072246
-0.107761
0.292419
0.272476
0.494647
-0.606537
0.091544
0.133677
-0.171655
-0.136030
-0.465873
0.053898
0.560236
0.478181
-0.698788
-0.517518
-0.451204
-0.478092
0.015886
0.106132
-0.281636
0.525794
-0.028691
-0.029656
-0.056680
0.110853
0.339634
0.321979
0.130048
0.005716
0.181809
0.092136
0.080237
-0.559835
-0.078574
0.348887
0.175660
-0.341585
0.393074
0.302270
0.282161
-0.062276
0.010424
0.293203
-0.233454
-0.858181
-0.380170
0.189698
0.202357
-0.171182
-0.092841
-0.085771
-0.354992
0.073672
-0.454507
-0.464114
0.100587
0.136027
0.503276
0.672683
-0.321520
0.009437
0.138772
-0.096843
0.489377
0.428046
-0.140915
-0.161135
-0.650405
0.128797
0.238688
0.332499
-0.351987
0.068302
-0.438980
-0.378391
0.621923
0.586912
0.208356
-0.074490
0.546351
-0.122659
0.068536
-0.474896
-0.158991
0.443835
0.642217
0.506918
-0.362588
0.122879
-0.028312
0.357129
0.225355
0.104463
0.069878
-0.359796
-0.018678
-0.304554
0.524941
-0.101772
0.124055
-0.015498
0.134535
-0.869556
-0.155954
0.195220
-0.521156
0.482572
-0.093511
0.125570
0.135846
-0.254500
0.077798
-0.553259
0.081649
0.331956
-0.448316
0.080557
-0.048503
-0.327473
0.237830
0.087267
0.106410
-0.619992
-0.066428
0.178084
0.102277
0.302384
-0.454208
-0.173105
-0.018100
0.151390
0.350584
0.417017
0.132110
-0.121993
-0.187679
-0.067024
0.447101
0.219651
0.563201
0.146914
0.018268
0.036168
-0.066952
-0.200125
-0.614289
0.109795
-0.487154
0.495045
-0.443592
0.133049
0.042420
-0.005955
-0.313367
-0.167862
0.182819
-0.155350
0.327294
0.372107
0.145678
-0.415629
-0.345207
-0.169284
-0.257368
-0.244119
-0.065482
0.214925
0.156548
-0.033851
-0.309236
0.392980
0.362486
-0.248510
0.523524
-0.467132
0.442365
0.496311
0.548577
-0.204143
0.198231
-0.044154
0.161382
0.036726
0.413019
0.214930
-0.078070
0.366551
0.140820
-0.230617
-0.219756
0.020428
0.297277
-0.197229
0.465591
0.139527
0.024164
-0.437783
-0.075843
-0.289448
-0.398499
-0.419588
0.111231
0.052011
0.258415
0.031774
0.099598
0.444405
0.480355
-0.171777
-0.138482
0.164796
-0.259631
-0.266622
-0.537422
-0.203642
-0.128725
0.081660
-0.531669
0.671410
-0.354345
0.003155
0.479109
-0.233288
-0.642100
-0.075579
0.836515
-0.375893
0.161782
0.203944
-0.217224
-0.351852
0.382347
0.032793
0.674275
-0.206106
0.360649
-0.409153
0.050540
0.526218
-0.071854
0.194231
-0.699934
0.459045
-0.289997
-0.173277
-0.216508
0.236089
-0.395734
-0.163339
0.413599
-0.153237
0.310681
0.325887
0.031913
0.135885
-0.567884
-0.187934
-0.007645
0.341965
-0.048366
0.037328
-0.234329
0.179013
0.146052
0.144931
0.224535
0.170808
0.063823
-0.145021
0.235434
-0.268098
0.033587
-0.157778
-0.682381
0.314404
-0.168404
-0.748313
-0.170605
-0.091438
-0.399302
-0.419749
-0.605878
-0.070124
-0.016823
-0.219345
-0.188852
0.627340
-0.165988
0.507355
0.149847
-0.164611
0.202829
0.276785
-0.252030
-0.109521
0.129482
0.603013
-0.491669
0.189194
-0.140965
-0.610281
0.014109
0.417269
-0.351522
0.455701
-0.088100
-0.515268
0.155727
-0.395271
-0.389349
0.274414
-0.285992
0.419615
0.461177
-0.175521
0.145205
0.553150
-0.143131
-0.529778
-0.274272
0.281543
0.347182
-0.334741
-0.649432
0.174147
0.527586
-0.105594
0.285080
0.167499
0.038424
0.553396
-0.157233
0.395445
-0.029019
0.335028
0.501959
-0.502087
0.266607
0.239882
0.281526
0.668247
0.097096
0.126968
0.217921
-0.399544
0.267005
0.454867
0.040575
0.135516
-0.161977
0.363895
-0.295663
0.281170
0.382316
-0.450707
0.459518
0.040681
-0.270439
0.399246
0.116265
0.190761
-0.291889
-0.083648
-0.423183
-0.564327
-0.647104
0.388486
-0.262941
-0.071666
-0.229595
0.546604
0.084660
0.247789
0.369818
-0.000177
-0.205169
0.296622
0.543236
0.112393
0.421622
0.295381
-0.429956
-0.390280
-0.196538
0.228600
-0.119521
0.306897
0.400261
0.102168
0.153017
0.232252
0.325484
0.471655
0.143662
0.080573
-0.067607
-0.124932
-0.350917
0.242827
0.458293
-0.191299
0.516048
-0.044751
-0.373651
-0.351872
0.226176
0.238676
-0.039926
0.524798
0.245966
-0.150165
-0.127515
0.314008
0.007016
-0.856186
0.387952
-0.134442
-0.436980
-0.598992
0.016771
0.122782
0.434677
-0.377195
-0.074607
0.102510
0.011264
0.309496
-0.261384
0.077688
-0.404803
-0.035060
0.406799
0.650332
-0.392230
0.563263
-0.408762
0.602131
0.126893
0.099273
0.245395
0.270938
-0.158037
-0.068462
-0.110665
0.225104
-0.482106
0.474673
0.209834
0.283637
-0.415128
0.570698
0.022325
0.039920
0.224657
0.328905
-0.095430
-0.499604
-0.118806
-0.042587
-0.148713
-0.354475
0.029924
0.334706
0.053043
0.524365
-0.572938
-0.084295
0.151967
-0.244361
0.412123
-0.060113
-0.134863
0.160812
-0.165639
0.334542
0.250869
0.313648
0.268006
0.727210
0.070711
-0.005337
0.577818
0.022625
0.307208
0.007013
-0.413772
0.420215
-0.248740
-0.068037
-0.046454
-0.170661
-0.090967
-0.024143
-0.137276
0.175169
0.355421
-0.139950
-0.305289
0.179718
-0.182305
-0.024004
0.055419
-0.508978
-0.383879
-0.168813
-0.491095
-0.063549
0.001381
0.485172
0.048080
0.207956
-0.222055
0.445178
0.401491
-0.543706
-0.098799
0.370647
-0.040521
0.021684
-0.575133
-0.344417
0.366350
-0.039107
-0.366845
-0.232538
-0.111633
0.276584
0.461181
0.392062
0.222379
-0.081130
0.250911
-0.216066
-0.577178
0.129485
-0.029112
0.167916
-0.337769
0.440161
0.487155
0.408117
0.043023
-0.061251
-0.170914
-0.429863
-0.265520
-0.219220
0.039141
0.263540
0.400821
-0.593783
0.519046
-0.426678
-0.716273
-0.338959
0.133143
-0.260135
0.080684
0.475153
0.209598
0.076798
-0.490055
-0.620155
-0.436052
-0.216592
0.243835
-0.185178
-0.275597
0.196852
0.516899
0.012742
0.343521
0.667822
-0.031268
-0.407552
-0.526902
-0.219588
0.245008
-0.060340
0.370999
0.006337
-0.160073
0.375662
0.057882
-0.020093
-0.331822
-0.169121
-0.187710
0.440063
0.328528
-0.139855
0.188703
0.419905
-0.651525
-0.763393
0.138938
0.268545
-0.098393
-0.092125
-0.176313
0.571364
-0.411673
-0.135336
0.330172
-0.053464
0.209008
-0.162475
-0.265652
-0.215885
0.291365
0.005811
-0.342138
0.026592
0.438358
0.589926
-0.219996
-0.338188
0.142499
-0.788237
0.192004
0.459723
0.126810
-0.121281
0.119860
0.217329
0.407091
0.162671
0.526802
