0.296780
-0.365243
-0.381743
0.003219
-0.212394
-0.072556
0.139407
-0.136518
0.488286
0.294340
0.004604
0.196524
0.044512
-0.130851
0.293144
0.068524
-0.514575
0.465445
0.006503
-0.200455
0.512477
-0.157284
-0.088412
0.338397
0.418897
0.269757
0.016460
-0.349696
-0.539793
0.511861
0.306002
-0.633420
-0.581295
-0.150608
-0.616042
0.128912
-0.285865
0.108917
0.372566
0.304949
-0.195451
-0.357628
0.377453
-0.309722
-0.654507
0.037142
0.058948
-0.157861
0.318511
0.327683
-0.022155
-0.113264
0.378917
0.148638
0.225293
0.714265
-0.407935
0.056403
0.329086
0.547803
-0.243603
0.327417
0.205736
0.174960
0.619333
-0.439712
-0.521669
-0.046576
0.170799
-0.560450
-0.231575
-0.434988
0.131677
0.558588
0.437997
0.222121
-0.301732
0.296202
0.513070
-0.552501
-0.146785
-0.366376
-0.165403
-0.148913
0.275126
0.110709
0.249857
-0.286033
-0.621326
0.048747
-0.293569
0.281719
0.205107
-0.284376
-0.356086
-0.036645
-0.432345
-0.478101
-0.362037
0.174357
-0.174274
-0.158373
0.460585
-0.050270
-0.262471
-0.340450
0.218587
0.178996
0.390372
-0.396229
0.332693
-0.207581
0.402319
-0.176847
-0.210702
-0.078680
0.038966
-0.200030
-0.381105
-0.316806
0.289402
-0.004348
0.116999
-0.475695
-0.023210
0.265056
0.125599
0.018193
0.079993
0.192115
0.394429
-0.513981
0.294784
0.223066
-0.242165
-0.581410
-0.072881
-0.362690
-0.203000
-0.214287
0.015532
-0.499476
0.519702
0.363522
-0.176905
0.024252
0.504195
-0.196306
0.434477
0.072543
0.205990
-0.331825
0.295310
0.178185
0.604627
0.745206
0.048847
-0.693076
-0.537298
-0.370306
-0.046067
0.282259
0.313257
-0.048140
0.029100
0.006558
-0.467923
-0.148694
0.238159
-0.598041
0.520155
0.296107
-0.395196
0.129680
-0.648073
-0.500957
0.483910
0.160362
-0.536970
0.032373
-0.159387
0.792454
0.265921
0.183238
-0.104022
-0.483112
0.595325
-0.493516
-0.132224
0.158772
0.233208
-0.576489
-0.126966
0.272361
0.334395
-0.584302
0.286927
-0.329107
-0.170071
-0.600035
0.216454
0.352117
-0.250470
-0.481705
-0.452100
-0.407815
0.193742
0.031815
-0.090173
-0.558799
0.298359
-0.114112
-0.230929
-0.303044
0.486269
0.227915
0.284681
0.019541
0.018684
-0.114476
-0.216976
0.274724
-0.487589
-0.280496
0.450967
0.285613
-0.495044
-0.157995
0.015763
0.115695
-0.081225
0.039944
-0.312174
-0.181091
0.176031
0.286918
-0.272601
0.086908
0.354849
-0.187823
0.529615
-0.382871
0.226334
-0.041389
0.389339
-0.418439
-0.258993
-0.281660
0.071297
-0.547413
0.183327
0.319245
0.369977
0.451939
0.253691
-0.541325
0.059545
0.023302
0.401055
-0.083224
0.546695
-0.286941
0.325722
-0.335845
0.446298
-0.062836
0.155184
0.247010
-0.494280
-0.386581
-0.313957
0.554254
0.365050
-0.317007
-0.328934
0.373940
-0.166961
0.555219
0.235139
0.211053
0.512173
-0.280856
-0.422674
0.125770
-0.254321
-0.403998
0.643839
0.327105
0.613238
-0.254059
0.500311
-0.080803
-0.145454
-0.051217
-0.030477
-0.224089
0.455678
0.322901
0.291741
0.174104
0.513351
-0.539109
0.375186
0.283541
-0.511878
0.085663
0.602091
0.710857
-0.468822
0.299530
-0.175563
0.067007
-0.686421
0.084146
0.000584
0.299054
0.083621
0.063434
0.259350
0.350584
-0.106488
0.108259
-0.219356
-0.532990
0.398638
0.193776
-0.055774
0.403934
-0.211801
-0.543713
0.148691
-0.206143
-0.122890
0.004552
0.063960
0.403357
-0.697593
0.007933
0.309808
0.122771
-0.440940
-0.029799
0.381412
0.473295
0.312834
-0.478455
0.630854
0.024035
-0.415901
0.363245
-0.653796
-0.004183
0.107154
0.378110
0.095973
0.457398
-0.216875
-0.205558
0.003927
-0.417906
-0.196191
-0.250396
0.506849
0.648746
0.537937
-0.096117
0.512635
0.090505
-0.032437
-0.450713
0.323117
-0.257623
0.047400
-0.563571
0.401753
-0.402593
-0.028942
0.351483
-0.280115
-0.053417
0.011970
-0.059731
0.239365
0.431085
0.270849
0.038094
-0.106387
-0.103902
-0.244588
-0.240259
-0.168912
-0.155630
0.150868
0.243676
0.162069
-0.007107
0.030815
0.423378
0.316350
-0.136471
0.016881
-0.251375
0.453593
-0.502571
-0.165429
0.341673
0.473438
-0.194282
0.082132
-0.420654
-0.284685
0.064668
-0.282248
-0.207327
0.036000
-0.269762
-0.214423
-0.054245
0.221185
-0.442755
-0.135068
0.442368
0.029029
0.413873
0.083032
0.315165
0.483286
0.138951
0.209529
0.384649
0.478678
-0.084615
-0.645960
-0.376020
-0.035580
0.106605
-0.300879
-0.021436
-0.394118
0.449978
-0.309787
0.660940
0.308157
-0.788837
-0.199601
-0.050323
0.025730
-0.330805
0.456107
0.668484
0.206952
0.116131
0.459367
0.208986
0.000386
0.254081
0.347451
0.167235
-0.059704
0.279116
-0.412243
0.067826
0.365974
0.773574
-0.432718
-0.599296
-0.161329
-0.040922
0.359464
-0.646274
-0.124865
0.243206
0.479046
-0.204710
-0.626603
-0.008020
0.470177
-0.552634
-0.102764
0.477107
0.345587
0.244036
0.066623
0.186287
-0.264167
-0.111819
-0.075474
-0.100688
0.420475
-0.519004
0.242743
0.018715
-0.216329
-0.398671
-0.615931
-0.152401
-0.615997
-0.078157
0.138158
-0.225492
0.035464
0.302308
0.480388
0.410911
0.726666
0.163037
0.266478
0.194123
0.444716
0.477172
0.078861
0.272825
-0.657740
-0.426818
-0.079090
-0.018835
0.174966
-0.019257
0.427727
-0.273397
-0.240728
0.041223
0.054410
0.057470
0.019925
-0.055954
0.588150
0.112700
0.364187
-0.780084
0.202780
0.507184
-0.451473
0.477666
0.152842
-0.177877
0.297362
0.323833
-0.089683
-0.170297
-0.067628
-0.645135
0.524596
-0.739885
0.242409
0.496515
-0.231281
-0.246428
-0.022606
-0.571517
0.277558
-0.251178
-0.046984
-0.211784
-0.157683
-0.050593
-0.276290
-0.563065
-0.296539
-0.300713
-0.131011
0.221766
0.205941
-0.167148
-0.354297
-0.075524
-0.102484
-0.157620
-0.174278
0.165372
0.181189
0.459696
0.150069
0.015056
-0.418341
0.237023
-0.177040
0.643518
-0.481075
-0.199848
0.465398
0.047124
0.128806
0.625058
0.214918
-0.183466
-0.237968
-0.836257
-0.133183
-0.010203
0.219291
0.417496
-0.197102
0.195583
0.339146
-0.679783
-0.200136
0.261288
-0.244765
0.381875
-0.236420
0.326846
0.086254
0.639358
0.251500
-0.518259
-0.524984
-0.387241
0.572804
0.465248
0.783820
-0.248173
0.476022
0.271305
-0.256664
-0.186253
-0.366777
0.156997
-0.041444
-0.364753
-0.743094
-0.134246
-0.166976
0.432327
-0.167808
0.032442
-0.012084
0.158110
-0.395404
-0.097220
-0.184212
0.377956
-0.195658
0.038676
-0.908559
0.158124
-0.579337
0.105295
-0.525366
-0.881649
0.375277
0.495015
-0.649515
0.510028
0.394446
-0.321051
0.123683
0.309791
-0.496040
-0.317246
0.211272
-0.395714
-0.100925
-0.052109
-0.231400
-0.198336
-0.762879
-0.154190
-0.300911
0.716464
0.399666
0.334404
0.253312
0.189128
0.105437
-0.288990
0.421870
0.172331
-0.001693
-0.690942
0.171417
-0.699413
-0.429963
-0.462598
-0.031161
0.507743
0.274009
-0.181979
0.127127
0.078544
-0.406467
-0.264662
0.021355
0.301500
-0.314420
0.762433
-0.530985
-0.387772
0.060676
0.225620
-0.613095
0.111487
0.311413
0.478115
-0.075020
-0.540408
0.178970
-0.156359
-0.020825
-0.459109
0.575503
0.140613
0.472035
0.319128
-0.134878
0.381816
0.021684
-0.033423
-0.005074
-0.384254
-0.131085
-0.519600
0.290411
0.489410
0.145485
0.139832
0.410867
-0.019935
0.562814
0.065771
-0.087633
0.232994
-0.303407
0.136262
-0.560210
-0.213712
-0.084202
-0.607947
-0.202605
-0.640009
0.284756
0.397696
0.041561
-0.377386
-0.080393
0.077478
-0.023865
0.269308
-0.366818
-0.377462
0.537129
-0.244856
-0.434229
-0.576109
-0.564916
-0.161503
-0.183961
0.458009
0.502476
0.394970
-0.410232
0.315197
-0.049110
-0.421545
-0.147165
0.323801
-0.021798
-0.075845
-0.150380
-0.208532
0.789857
0.250520
-0.225668
-0.476020
0.037467
-0.243916
0.177829
-0.150953
-0.124257
-0.347541
0.239404
0.418700
-0.260740
0.415871
-0.112619
-0.281476
0.231037
-0.579675
0.098000
-0.192203
0.663162
-0.398309
-0.432965
-0.088284
-0.429221
-0.348030
-0.229694
-0.057390
-0.293981
0.465150
-0.159887
-0.264424
-0.162207
0.210669
-0.237508
0.286829
0.218347
0.202355
-0.025115
-0.070750
0.213002
-0.630400
0.376755
-0.503137
-0.411798
-0.376438
-0.151310
0.597360
-0.013265
-0.004092
-0.203140
0.000421
-0.217440
-0.446598
0.192644
0.203870
