0.370873
0.104927
-0.004422
-0.192092
-0.363533
-0.463371
0.194864
-0.069706
0.400095
0.299254
0.219378
-0.396257
-0.474833
0.169902
0.239585
0.505412
-0.014007
-0.117016
-0.241948
0.018402
-0.240711
-0.215064
-0.432046
-0.151006
-0.420831
0.111160
0.453909
-0.002105
0.252426
0.271252
-0.056365
0.005301
0.265488
0.639597
-0.179692
-0.052822
-0.169952
0.194889
-0.110721
0.167215
-0.346367
-0.471131
-0.106279
0.007597
-0.166764
-0.329681
-0.175235
0.028266
0.192268
-0.081949
-0.194260
-0.131133
0.250252
-0.251464
0.524177
-0.319031
-0.244097
-0.004100
0.029524
-0.014393
0.119430
-0.418851
0.320522
-0.131933
0.399324
0.211606
-0.016185
-0.501998
-0.417413
-0.567543
0.071389
-0.412366
-0.021112
0.413709
0.324681
-0.027592
0.386053
0.120050
-0.289675
-0.069167
-0.273349
-0.262049
-0.146467
-0.171446
-0.020201
-0.036175
0.444398
0.558673
-0.041587
0.146245
-0.036485
0.230511
-0.211336
-0.185683
0.274326
-0.055733
0.254312
-0.371754
-0.085966
0.511884
-0.046208
0.090878
0.350736
0.236278
0.317763
-0.548094
-0.099081
0.233167
-0.187059
-0.217247
0.255323
0.394685
0.007953
-0.137368
0.318182
-0.113101
0.153461
-0.226959
-0.277353
-0.202839
-0.125951
0.288846
0.427885
0.027945
0.684947
0.311600
-0.443124
-0.341023
0.678059
0.231587
-0.070359
0.692503
0.296845
-0.153729
-0.455139
0.736375
-0.153627
-0.622802
0.424662
-0.031748
0.151464
-0.171651
0.067099
0.047471
-0.618469
0.460083
-0.368885
-0.165079
0.316545
-0.455881
-0.109536
-0.117979
-0.431783
-0.310391
-0.440286
0.702585
-0.309423
-0.337998
0.018533
-0.223155
0.182426
0.425175
0.526161
0.154303
0.498595
-0.716399
0.031443
0.622144
-0.384219
-0.498677
-0.049773
0.432612
-0.537718
-0.516073
0.671075
0.197144
-0.611686
0.372575
-0.376561
-0.068069
-0.057027
-0.237061
0.135346
-0.313007
-0.115817
-0.636249
0.729172
0.494686
0.426473
-0.408786
-0.142706
-0.072825
0.134283
-0.222536
0.464483
-0.342338
-0.045146
-0.606502
-0.238036
0.004877
0.012862
0.150891
0.571052
0.133236
-0.345372
0.509325
0.338833
-0.557712
-0.146341
-0.035643
0.562737
-0.177399
0.011996
0.242630
-0.278751
0.214252
0.015905
-0.037339
0.016524
-0.247596
-0.366796
0.239460
0.666869
-0.445650
0.039481
0.526071
-0.402494
-0.307247
0.036186
0.082182
0.227701
-0.319327
-0.252029
0.061881
-0.480810
-0.321948
0.246104
0.087197
-0.451103
-0.257859
-0.553785
-0.459061
-0.610987
0.460904
0.383500
0.509391
0.113727
0.280976
0.341450
0.310941
0.363366
-0.167705
0.210399
-0.173624
0.119784
-0.489742
-0.029004
0.274753
0.625736
0.408487
0.360764
0.023691
0.132208
-0.320552
0.581607
0.610627
-0.018012
0.175026
-0.101813
0.097985
-0.033202
-0.281779
-0.140292
-0.158565
0.568599
0.206432
0.218468
-0.163596
0.013618
-0.381015
-0.091769
0.229348
0.508944
0.435649
-0.157377
-0.065968
0.288670
-0.184691
0.449044
0.202117
-0.756733
-0.512538
0.519388
-0.561055
0.201130
-0.157742
-0.162369
0.004612
-0.098228
0.281680
-0.629902
0.064356
-0.296924
-0.417162
-0.268627
-0.274630
0.404817
0.037983
-0.411680
0.409213
-0.261856
-0.233518
-0.214992
-0.057340
-0.303354
0.380787
-0.429693
-0.143990
0.131362
-0.030513
-0.114439
-0.057532
-0.177487
0.243881
-0.326951
0.262776
0.232579
0.138133
-0.416258
0.284058
0.276290
-0.048878
0.206289
-0.544034
0.370855
-0.121093
0.026613
0.318997
0.251529
0.578924
-0.476556
-0.259308
0.471019
-0.348958
-0.639164
0.143319
-0.155919
0.052981
-0.524535
0.187472
-0.363290
-0.204851
-0.627614
0.106033
-0.425784
-0.337009
0.307732
0.201181
-0.267723
0.219680
-0.416257
0.479145
0.452338
-0.163202
0.160467
-0.078705
0.256042
-0.324975
0.083858
0.140646
0.078898
-0.619674
-0.053036
0.173883
0.349135
0.157215
0.295689
-0.411630
-0.030192
0.238943
0.033266
0.346094
-0.384455
-0.401980
0.218526
0.397826
0.556169
-0.225772
-0.528621
0.575189
-0.077289
-0.149447
-0.420277
0.163944
0.402164
0.204387
0.494154
-0.542311
0.082288
0.180822
0.044203
0.255003
-0.222149
0.234242
0.728568
-0.440202
0.152710
0.050859
0.213691
0.083393
-0.145644
0.388484
-0.038248
0.254908
0.239999
-0.255650
0.142446
-0.031884
0.374811
-0.386000
0.101565
-0.111390
-0.275438
-0.443812
0.196729
-0.508863
-0.138924
-0.280675
-0.211616
-0.637412
0.061523
-0.213760
0.355501
-0.665026
-0.432107
-0.156057
-0.483392
-0.550405
0.549904
0.363095
0.141417
0.381412
0.270033
-0.343958
-0.327766
0.373687
-0.084298
0.181937
0.523978
-0.524089
0.022394
0.133333
-0.111628
0.381525
-0.447568
0.400808
-0.299252
0.308400
-0.217124
0.140358
0.437277
-0.246520
-0.264511
-0.276090
-0.618021
-0.127238
-0.223837
0.336425
0.388030
-0.316332
-0.651953
-0.197780
-0.188237
0.097833
-0.036267
-0.141513
0.206277
0.500466
0.058794
-0.214363
-0.547253
-0.127699
-0.529678
-0.034006
0.110234
-0.134232
0.348074
-0.040618
0.066201
0.324832
0.096620
-0.216545
-0.136881
0.038172
0.266221
0.522672
0.127709
-0.385933
-0.056875
0.019526
-0.487630
0.212405
0.559440
-0.077752
0.052338
-0.225571
-0.106434
-0.236328
0.053369
0.391937
-0.480781
-0.106460
-0.159934
0.442346
-0.151926
0.271796
-0.354870
-0.506055
-0.001409
0.356457
-0.221787
0.300830
0.264934
-0.105146
0.300277
-0.290464
-0.211987
0.071765
0.127020
-0.846295
0.274489
-0.068176
-0.442436
-0.052417
0.066934
0.019338
-0.557872
0.246841
0.297863
-0.199689
-0.446692
-0.344849
-0.251636
0.424021
-0.305349
-0.072240
-0.237158
-0.090531
0.381723
0.313067
0.310508
0.027861
0.308542
-0.115424
-0.311999
-0.272501
0.201888
0.044278
-0.301869
-0.181236
0.175262
0.384085
0.023157
-0.195320
-0.372755
0.152665
0.016044
-0.108372
0.276589
-0.023288
-0.135222
0.414222
-0.119581
-0.067466
0.442631
-0.460971
0.128414
0.050254
-0.450162
-0.420435
0.207624
0.142754
0.439616
0.029791
0.147680
0.546487
-0.208387
0.876415
0.373932
0.519644
-0.204607
0.387829
-0.412666
0.182013
-0.574845
-0.262693
0.110284
0.026202
-0.353663
0.217712
0.187285
0.366230
-0.374201
0.436157
0.183316
0.084514
0.069562
-0.203178
0.386068
0.317570
0.218345
0.254520
-0.158181
-0.074442
0.407888
-0.421153
-0.060746
0.245212
-0.522063
-0.438361
0.401442
0.272714
0.281320
0.060798
-0.157161
0.216282
-0.269238
-0.129093
-0.493502
0.089040
-0.400936
0.236472
-0.203446
-0.141580
-0.301012
-0.157493
0.017771
0.362378
-0.563576
-0.064856
-0.187940
0.441622
-0.307634
0.018059
0.297501
-0.031076
-0.062311
0.354565
-0.163338
-0.109175
0.263777
-0.121083
-0.327399
0.041064
-0.302983
-0.184135
0.270170
0.008526
-0.706372
-0.216087
0.256959
-0.701925
-0.108436
-0.203188
0.233626
-0.336214
-0.284935
0.123926
-0.351225
-0.314234
-0.262540
-0.057478
-0.172805
0.471444
-0.056870
-0.226852
-0.052672
0.051983
-0.142543
0.035528
-0.332701
0.188518
-0.498938
0.218017
-0.066127
0.333171
0.467376
-0.365534
-0.004914
0.235441
-0.324434
-0.148425
0.215687
0.107014
0.348464
-0.401132
0.051409
-0.242874
0.196422
-0.413705
0.645840
0.378462
-0.398635
0.286918
0.526144
0.406456
0.325414
0.255299
0.066773
0.163945
0.066052
-0.720247
0.383568
-0.071814
0.453798
0.285569
0.010654
-0.349414
-0.151519
-0.014490
0.012130
-0.791294
0.150180
-0.145793
-0.000409
-0.004012
-0.271393
-0.277887
0.218107
0.519670
-0.308910
0.522403
0.038506
-0.439211
-0.477147
-0.678756
0.251348
-0.252745
-0.599611
-0.235462
0.004678
-0.027356
-0.066511
-0.125268
-0.199924
-0.490329
0.037072
0.185786
-0.489400
-0.242052
-0.572767
-0.291379
-0.595999
-0.269623
0.029082
-0.411542
-0.386194
-0.041558
-0.282078
-0.223659
0.581379
0.350238
-0.371850
-0.007162
0.338371
-0.226859
-0.191149
-0.250723
0.365140
-0.329985
-0.478020
0.373918
0.245330
-0.336067
-0.259170
-0.079608
0.332267
0.487932
-0.149206
-0.413819
0.591888
-0.293465
0.235894
0.206815
0.170004
-0.494470
0.442809
0.189427
-0.389960
0.249378
0.410272
0.288269
0.307002
0.451700
-0.604915
-0.628963
-0.097079
0.260974
0.122326
-0.579640
0.515314
0.132452
0.431660
-0.576032
-0.710476
-0.361294
-0.427462
0.130382
-0.339173
0.221875
0.408739
0.047223
0.078982
-0.116939
0.289063
0.317803
