-0.156025
-0.305950
-0.070433
0.498766
-0.623985
-0.179443
-0.035937
-0.074022
-0.101420
0.050617
0.248810
-0.204608
0.147510
0.228483
0.362950
-0.367331
0.244274
0.327337
0.156428
0.124147
-0.634825
0.305624
-0.491757
0.680910
0.381300
-0.212170
-0.065169
-0.526408
0.498998
0.536457
0.255828
-0.836713
0.297702
0.005346
-0.079126
-0.201597
0.248677
-0.169354
-0.204682
-0.521337
-0.270065
0.168541
-0.330391
-0.094313
-0.135554
-0.456835
0.279640
-0.374102
-0.174817
0.390368
-0.279545
0.443053
0.776527
0.600118
0.378618
0.062833
0.193004
-0.142010
-0.514950
-0.456243
0.488007
-0.186469
0.154660
-0.443059
0.325807
0.312340
0.363441
-0.175512
0.224498
-0.281471
0.010932
0.586329
-0.148826
0.006428
0.262270
-0.146114
-0.198094
0.004277
-0.430719
-0.279383
-0.491903
0.591932
-0.358216
-0.105369
-0.435907
-0.055389
0.026267
-0.576373
-0.490765
0.488556
0.388967
-0.076125
0.325703
-0.067926
0.029364
-0.241399
0.263852
0.596292
0.493650
0.275311
0.184768
0.064157
0.063196
0.177050
-0.089862
-0.497673
-0.029318
0.191243
-0.337237
-0.271189
-0.055686
0.013334
0.064505
0.073576
-0.045786
0.253612
0.249899
-0.077861
-0.027431
0.533790
0.426157
0.559679
0.668761
0.069798
0.156352
0.240535
0.387519
0.418423
0.673878
0.428594
0.311252
-0.082570
0.180865
0.288385
0.113308
-0.555907
-0.058184
0.379428
0.509780
-0.182813
0.129769
-0.373421
-0.009639
-0.222690
-0.143584
0.456767
0.574176
0.465935
0.337872
0.235644
-0.167094
-0.345856
-0.245783
-0.275467
0.228153
0.056083
-0.189964
-0.136838
-0.081462
-0.414899
-0.564838
0.425175
0.353004
0.504970
0.437748
0.185215
-0.017430
-0.195572
-0.234627
-0.420787
0.372721
0.287134
0.017120
-0.398869
0.267617
-0.209588
0.310020
0.760331
-0.209717
-0.287284
-0.305306
0.562011
0.135376
0.229438
-0.515896
-0.255592
0.509165
0.481813
-0.111773
0.125190
-0.424554
-0.390187
0.375701
-0.222536
0.241430
-0.310991
-0.458538
0.382093
0.289971
-0.243737
0.382832
0.229217
0.134097
0.351048
0.522008
0.559048
-0.262665
-0.241996
-0.311398
0.098228
0.399265
0.282114
-0.115198
-0.150180
0.441698
0.068843
-0.478413
-0.086220
0.098568
0.318231
-0.201705
-0.683796
0.233766
0.175266
0.325621
0.345234
0.140672
-0.290033
0.243139
0.062551
0.189987
-0.183140
0.303435
0.054637
-0.158098
0.182528
0.242768
0.071634
0.195155
-0.128177
-0.474817
0.141028
0.510109
-0.116295
-0.456889
0.169187
-0.119306
-0.293564
0.556832
0.318691
0.404229
-0.362773
0.091832
-0.125140
-0.212195
0.169322
0.229635
-0.000869
0.450602
0.322564
0.401077
-0.544452
-0.267566
0.227408
-0.391693
0.048977
-0.449664
0.635558
-0.122659
-0.162848
0.573010
0.368966
0.499068
-0.050121
0.319325
0.492357
-0.025035
0.381739
0.349715
0.440292
0.016448
-0.284530
0.550447
0.031826
-0.387475
0.249867
0.146950
-0.044378
-0.430864
-0.301371
-0.234046
-0.454269
-0.614392
0.019675
0.391084
0.564785
-0.042940
-0.363762
0.424887
-0.143035
0.327547
-0.186119
-0.199830
0.118917
0.569469
-0.354117
-0.378379
-0.237150
-0.103651
0.124409
0.464548
0.017477
-0.374182
0.084106
-0.530838
0.561700
0.214368
-0.058362
-0.316517
0.076355
-0.055763
-0.069369
-0.427724
0.465844
-0.561003
-0.108266
0.485505
0.569676
-0.434659
0.361764
0.053146
-0.125489
-0.119680
-0.466230
-0.000259
-0.391518
-0.259462
0.049548
0.191465
0.398826
0.329758
0.099204
-0.677615
0.488403
-0.167421
-0.455351
0.258723
-0.438027
-0.240749
-0.109465
-0.590926
0.667456
-0.697000
0.235461
0.098398
0.274355
0.014559
-0.211157
0.283696
0.040465
-0.326757
-0.284353
0.224663
0.514763
0.313235
0.100535
0.208889
-0.288674
0.073067
-0.022016
-0.598820
0.334802
-0.028380
-0.258976
-0.084974
-0.176805
0.296907
-0.197608
-0.172579
0.227061
0.106709
-0.099927
0.053203
0.386399
-0.035819
-0.014388
0.254319
-0.248252
0.125651
0.129558
0.291686
-0.676677
0.745368
0.553578
0.302936
0.064560
-0.143290
0.544225
-0.718937
0.477212
0.039157
-0.177471
0.271840
-0.095756
0.218702
0.178484
0.175256
0.140110
0.192847
-0.504510
0.191505
0.086391
-0.017483
0.593317
0.046911
-0.479560
-0.159757
0.364242
-0.280527
0.099055
-0.065193
-0.139845
-0.366414
-0.062342
-0.217768
-0.253682
0.307568
-0.476649
-0.439531
-0.132188
0.270433
0.078496
-0.035496
-0.000743
-0.435607
-0.238672
-0.142575
-0.394001
0.058448
0.205645
-0.104628
0.063479
-0.122945
0.570743
0.131768
0.499544
0.173559
0.190295
0.323453
-0.108073
0.177222
-0.251950
0.538454
0.192138
-0.305284
-0.025834
-0.443240
0.514930
0.673613
0.342560
-0.076446
-0.094774
0.369621
-0.147541
0.017955
0.370381
-0.045338
-0.402751
0.160014
-0.642949
-0.130976
-0.095779
-0.308199
-0.071559
0.195947
-0.309214
-0.319143
0.304318
-0.219671
-0.041020
0.317769
0.354565
0.053577
-0.028877
0.030732
-0.487086
0.454680
-0.265121
0.276810
-0.491538
-0.459398
0.440707
-0.078034
-0.073522
-0.316973
-0.516406
-0.171979
0.021800
0.156838
-0.160459
-0.470342
0.484132
-0.302797
-0.224318
-0.191333
-0.158116
-0.677935
-0.406656
0.602579
0.104364
0.286475
0.410481
-0.076798
-0.066249
-0.466318
-0.057494
0.107387
-0.061912
0.000767
0.594920
0.007494
0.422787
0.582097
0.477996
0.222083
0.261222
0.033870
0.071765
0.200472
0.267212
-0.259838
0.610824
-0.042183
0.199194
0.269762
0.348930
0.416558
-0.339725
0.274106
-0.252057
-0.565254
0.575023
0.540226
-0.231199
0.143937
-0.109340
-0.222875
-0.287644
-0.022606
-0.020284
0.334589
0.614795
0.498348
-0.208201
0.596243
0.338581
0.263506
-0.413253
0.237664
-0.056200
-0.399841
0.509265
-0.608302
0.413164
-0.017501
0.171040
-0.674696
0.190982
-0.664509
0.467680
-0.040997
0.196999
-0.189274
-0.041608
0.586537
0.479385
-0.084649
0.408333
-0.005819
-0.205113
-0.003148
-0.091119
-0.693770
0.255830
-0.602612
-0.350224
-0.445121
-0.428366
-0.164935
0.519644
-0.025783
0.022193
0.245157
0.674541
-0.194010
-0.151437
0.250166
-0.091581
0.096649
0.217712
0.321169
0.060370
-0.209777
-0.495135
-0.494867
0.402522
0.406548
-0.087093
-0.145907
0.058882
0.887601
0.091388
0.134655
-0.097244
0.145500
-0.196800
0.091681
0.224131
0.152571
0.458023
0.447273
-0.350355
-0.217993
0.048342
-0.362221
0.161616
-0.310080
-0.233125
0.575015
-0.176597
0.352156
-0.113330
-0.131089
0.390082
-0.056736
-0.474942
0.075119
0.428306
0.227177
-0.356346
0.003444
0.317110
0.265390
-0.351971
0.003881
-0.354341
-0.019844
0.141636
-0.458076
0.148858
-0.118650
0.334841
0.479518
0.118796
-0.407153
-0.247167
0.096945
-0.058827
0.339571
-0.080741
0.255310
0.036369
0.342287
-0.190422
0.249957
0.308624
-0.230127
-0.018485
0.035424
-0.194948
-0.083752
-0.217304
-0.168565
0.422309
0.405551
-0.180592
0.182721
0.065851
-0.066146
-0.028986
-0.207607
0.192178
0.042544
0.127191
-0.436014
-0.322641
-0.142245
-0.405524
-0.124217
0.214579
-0.662857
-0.196941
0.721450
0.095699
0.220498
0.434691
0.250785
0.009585
0.196422
-0.413705
-0.141326
-0.558227
0.062035
0.240030
0.556678
-0.135150
-0.021938
0.249632
-0.356619
0.108122
-0.027562
-0.392426
-0.286847
-0.433623
-0.677415
-0.569827
-0.541543
-0.213911
0.224839
0.338831
-0.323145
-0.455369
-0.288332
0.142046
-0.201263
-0.299251
-0.301421
-0.557387
-0.269225
0.007082
-0.020916
0.172732
0.516957
-0.026129
0.425395
-0.160089
0.329505
-0.477696
-0.697309
0.090731
0.223807
0.558950
-0.096802
0.001850
0.209685
-0.296075
0.146517
0.320516
-0.288470
-0.390833
-0.311421
-0.346801
0.625668
0.342022
-0.269927
-0.377250
0.113308
-0.028522
-0.370912
-0.135707
-0.393858
-0.460467
-0.024990
-0.656733
-0.380512
0.008322
0.815345
0.488093
0.033848
-0.296954
-0.030279
-0.480495
-0.362214
-0.355355
-0.201167
-0.271745
-0.421751
-0.112474
0.101071
-0.054306
-0.081517
0.516409
0.411072
-0.125439
-0.607281
-0.275664
-0.103261
0.356857
0.055801
-0.318935
0.385329
-0.452715
-0.237862
-0.179569
-0.129258
-0.555570
0.236951
-0.230197
-0.390650
-0.676733
0.005508
0.123231
0.350118
0.256086
0.114054
0.087513
-0.056183
-0.510267
-0.807496
-0.343856
-0.502300
-0.277426
0.485013
0.541545
0.000861
0.367415
