0.011600
0.397620
-0.265768
0.459008
-0.647307
-0.216077
0.127151
-0.001720
-0.131317
0.403001
-0.184947
-0.232290
0.010901
-0.231937
0.433025
0.157781
-0.101115
0.649946
0.420855
-0.472566
0.320110
0.259330
-0.031254
0.131127
-0.416574
0.298997
0.134261
0.047184
-0.013707
0.010271
-0.033208
-0.288652
-0.275037
-0.220699
0.348480
0.160842
0.120410
0.397654
-0.099062
-0.555256
-0.334572
0.112042
0.230792
-0.357702
0.414359
0.310930
-0.529960
0.309388
0.047054
0.373958
0.592881
0.471205
-0.306786
-0.422977
0.291733
-0.325501
-0.000387
-0.475350
-0.118307
0.496797
-0.390000
-0.521997
-0.063314
-0.293204
-0.138916
-0.285429
0.150055
-0.243816
-0.081561
-0.230598
-0.133559
-0.410713
0.123247
-0.327083
-0.711410
0.122187
-0.079952
0.378440
0.297883
-0.195036
0.067074
0.369375
-0.195254
-0.071157
-0.359274
-0.247845
-0.028764
0.764843
-0.495618
0.045139
0.131536
-0.421064
0.401005
-0.254429
0.150472
0.566455
-0.024649
0.147574
-0.280092
0.237271
-0.431413
0.244859
-0.267943
-0.049732
0.049349
0.212884
-0.230207
0.461399
0.159866
0.152344
0.105093
0.242375
0.038424
0.360220
-0.292023
-0.356768
-0.169766
-0.050024
-0.062166
-0.410291
0.669713
-0.577466
-0.485078
0.216055
0.123784
-0.112170
-0.207038
-0.094745
0.510217
-0.475145
0.717324
0.154779
-0.001535
-0.530287
-0.583060
-0.208208
0.264563
-0.288479
0.221434
0.134188
0.144743
-0.244164
0.438823
-0.320684
-0.127839
-0.348083
-0.053313
-0.372674
0.529593
0.231128
-0.032973
-0.115280
0.267615
-0.072967
-0.261008
0.318901
-0.337483
-0.231779
-0.279426
0.439461
0.019620
-0.223495
0.683028
0.362333
-0.088790
-0.653398
-0.002039
-0.275388
0.395517
-0.104854
-0.079162
-0.379520
0.112427
0.107457
0.114737
-0.079142
-0.254844
0.475461
-0.222444
-0.377441
-0.344791
0.268854
0.409124
-0.492324
0.034859
-0.213912
-0.056986
-0.415869
-0.193841
0.187649
-0.411626
-0.133599
0.142201
0.314775
0.039510
0.514758
0.170815
-0.604800
-0.311205
0.403167
-0.056989
-0.178813
0.498611
0.379602
-0.463535
-0.294515
-0.076622
-0.176074
-0.281282
-0.105208
0.334252
0.322514
0.611628
-0.042919
-0.132045
0.233453
0.278456
-0.304172
-0.025152
-0.070147
0.152700
-0.135824
0.256499
-0.693688
0.090694
0.027803
0.348161
-0.126133
-0.259960
-0.276077
-0.396063
-0.344943
-0.450096
0.016187
-0.478721
-0.258303
-0.105485
-0.060588
-0.489105
-0.027510
-0.406039
0.113020
-0.669358
0.045473
-0.550044
-0.279870
-0.211193
-0.386429
-0.237315
-0.099990
-0.122242
-0.148114
-0.200012
0.189585
-0.080507
0.430391
-0.027891
-0.148656
0.338932
0.421467
-0.432362
0.106966
-0.446157
0.524338
0.122860
-0.009731
-0.464186
-0.001242
0.121720
-0.026415
-0.312473
-0.416823
0.233288
-0.320863
0.322775
0.651321
0.044638
-0.445924
-0.215978
-0.501023
0.351195
-0.080217
-0.354745
0.036246
-0.383008
0.398485
0.076234
0.195924
0.286135
-0.167481
-0.397521
-0.272079
-0.211199
0.246227
0.574918
-0.134924
0.068045
-0.117409
0.709534
0.067999
0.448280
-0.366164
0.436796
0.047513
-0.481365
0.236120
-0.031915
-0.018043
-0.071685
0.294456
-0.264358
-0.121190
0.521107
0.349420
0.310771
0.193918
0.540016
-0.402979
-0.275958
0.386123
0.051062
-0.453463
-0.432244
0.201778
-0.058969
0.367063
-0.273439
0.314706
0.319616
-0.023302
0.291673
0.083165
0.363938
-0.171293
-0.202861
0.007907
-0.474164
0.462667
0.183929
-0.159468
-0.400771
-0.107745
-0.347193
0.182102
0.094016
-0.449546
-0.014867
0.367191
-0.558100
-0.255892
0.015187
-0.319912
0.009878
0.152701
-0.494867
-0.119001
0.243309
0.236590
-0.448941
0.074546
0.385380
0.230824
0.178094
0.629562
-0.219577
0.400661
0.315628
0.179139
0.375608
-0.252021
0.078898
0.173580
-0.372342
0.393737
0.117492
0.102317
-0.428291
0.248396
0.474894
-0.000589
0.024965
-0.039603
-0.058039
-0.226767
0.207718
0.405762
0.304532
0.397554
0.085128
-0.464462
0.248075
0.246474
0.382694
0.002227
-0.030578
-0.328849
0.189640
-0.464212
0.336815
-0.561497
0.025967
-0.515216
-0.686392
0.020406
0.738198
-0.480992
-0.030828
-0.264354
-0.420357
0.277316
-0.233589
0.458406
-0.444629
-0.062077
-0.173440
-0.034811
0.089659
0.456125
0.214520
-0.258996
0.021753
0.002164
-0.190083
0.296050
0.007327
-0.082149
0.451983
-0.108694
-0.117060
-0.335644
-0.081136
-0.357531
0.212117
-0.006040
-0.171321
-0.250312
0.000492
0.370416
-0.598049
0.310137
0.560875
0.243740
0.465891
-0.499779
0.086777
0.374593
0.185816
0.065817
-0.515030
-0.696465
-0.410099
-0.012172
-0.247490
-0.130471
-0.153976
-0.705829
-0.174823
0.144459
-0.605416
-0.128689
0.504535
-0.104447
0.261546
-0.112483
-0.204174
0.443119
0.287184
-0.292831
0.300734
-0.276697
-0.073885
0.192147
0.418127
-0.341086
0.290955
-0.143986
0.170740
0.439080
0.247859
0.198119
-0.149627
0.215049
0.339682
-0.035145
-0.587947
0.397623
0.371044
0.051650
0.457707
0.200162
0.365081
0.243623
-0.120782
-0.024972
0.180056
-0.051969
-0.475901
-0.509568
0.302333
0.378999
-0.303522
0.458741
0.539577
-0.162960
0.477525
-0.310400
-0.082417
-0.170209
-0.390065
-0.199756
0.116697
0.055762
0.080476
0.097891
0.437472
-0.395948
-0.481105
-0.517659
-0.492491
-0.288748
-0.199548
-0.388096
0.164028
-0.180514
-0.034869
-0.131349
-0.084420
0.526584
0.471393
-0.219761
0.218461
0.428143
-0.354697
0.536566
0.182211
0.308070
0.194018
-0.434606
0.216718
-0.311979
-0.346024
0.393604
0.145555
0.192124
0.065921
-0.264568
0.382160
-0.484128
0.259855
0.309423
0.319139
0.468650
0.170718
-0.182067
-0.262498
-0.071673
0.218970
0.047560
0.084818
0.200262
-0.110168
0.199293
-0.345165
-0.106864
-0.249255
-0.402727
-0.223887
-0.345548
0.534989
-0.450777
0.514576
-0.166742
-0.397005
-0.498962
0.105458
0.452379
-0.073070
-0.522793
-0.104554
-0.238362
-0.088568
0.481822
-0.018848
-0.025267
0.300685
-0.242047
0.213189
-0.307613
0.073223
0.007000
0.428457
-0.655099
0.119970
0.645245
0.347834
0.698016
0.125275
-0.429966
0.347933
-0.455631
-0.202312
0.347988
-0.457039
-0.448253
-0.581900
-0.275869
0.042754
-0.394592
-0.262480
0.364641
-0.427097
0.120714
0.261388
-0.450673
-0.415655
-0.269630
-0.356578
0.237812
0.492355
0.220195
-0.441625
0.486666
-0.563569
0.215828
-0.556606
-0.238374
0.057774
0.226663
-0.113913
-0.297567
-0.694624
0.402204
-0.306875
0.318998
0.401858
-0.527050
0.204872
0.411848
0.228225
0.340643
-0.502527
-0.078073
-0.504472
0.503929
0.545204
0.254935
-0.075367
-0.058074
0.256510
-0.037073
-0.358887
0.552114
0.440156
-0.614679
0.367486
-0.203366
0.080714
-0.017488
0.043568
-0.146401
-0.243152
-0.197636
0.619193
-0.249585
0.040935
-0.233966
-0.585084
-0.587844
0.076275
0.435953
0.083979
-0.571457
-0.377556
0.101937
0.549095
0.045953
-0.477312
-0.287226
-0.068988
0.464574
-0.424707
0.471735
-0.397193
-0.550751
0.555717
-0.200263
-0.131089
-0.490894
0.406272
0.012161
-0.204217
0.263015
0.708922
-0.559950
0.064431
0.147638
0.312102
-0.235736
0.600488
-0.316337
0.244317
0.509024
-0.102453
-0.307800
0.377494
0.862400
0.296122
-0.514009
-0.556231
0.278871
-0.129484
0.251696
0.630972
-0.122713
-0.566124
0.031466
0.436052
-0.500751
0.319488
-0.509026
0.351069
0.521801
0.257984
0.175699
0.098842
-0.225827
-0.082377
0.283742
0.132164
0.504813
-0.027345
-0.281445
0.588835
0.268937
0.342271
0.100788
0.167201
0.589546
0.484443
0.210888
-0.317808
0.743682
-0.087161
-0.184168
-0.010894
0.559613
-0.363115
0.285153
-0.174589
0.141824
-0.554563
0.067241
-0.582204
0.230513
0.159456
-0.154004
-0.412144
0.288650
0.038216
-0.169702
0.696571
-0.243292
-0.402631
0.192257
-0.328029
-0.951043
-0.330336
0.274168
0.527205
-0.332733
0.439394
-0.709719
-0.336654
0.290173
-0.052500
0.294705
-0.263829
-0.234093
0.424877
-0.534322
0.606059
-0.486806
-0.304255
-0.589620
-0.048271
0.100704
-0.555757
0.632250
0.360980
0.025017
-0.038887
-0.232534
-0.193438
-0.357688
0.150954
0.208573
0.227682
0.314335
-0.145959
-0.366538
-0.289268
-0.237792
0.375387
-0.130652
-0.226400
-0.061876
-0.279840
0.214539
-0.242754
-0.395679
-0.555322
0.256354
-0.129973
0.407091
-0.029037
-0.389563
