-1.946768
1.760517
-1.602828
-1.273439
1.137992
-0.144551
-0.017179
-2.262582
2.182123
1.399636
0.862864
-2.076739
-4.555435
-2.424958
2.636890
-2.968371
0.563767
-2.104793
1.398833
2.076968
-0.726110
2.500305
1.735860
-1.688240
-2.099550
1.419818
3.191000
3.961228
0.677327
2.002074
1.129412
3.335715
-1.812825
-1.825170
1.935117
-0.561438
-4.511144
-2.125764
1.077383
0.535589
-1.085283
0.968751
1.825166
-1.979170
-4.235934
-2.124968
0.401332
-0.494975
-1.491366
-0.735612
0.232828
-0.999303
3.822970
2.485251
-2.327045
-0.948879
-0.504983
-0.352717
-2.753512
-1.829449
-2.095326
0.997115
2.005036
2.137678
1.622944
0.899014
3.948839
-0.372589
-4.149364
1.233429
2.464517
-0.019081
3.016184
0.294433
-1.072067
-2.427743
0.214536
0.261465
1.362314
-1.061389
1.322207
0.325347
-0.734457
-1.449069
1.245706
4.039369
-1.742478
0.674804
-0.504311
-2.712124
-0.466423
2.001549
-0.969243
-2.289189
-0.513527
0.542640
0.846313
2.426550
-0.517617
1.069852
-1.891839
-2.240797
2.573403
0.043840
-1.373583
-1.419894
1.719078
-0.538790
1.838375
3.582899
-2.917621
-3.012042
-0.497455
0.981018
-3.452837
-1.159010
1.454146
-2.953869
2.333706
-1.843536
-1.943760
-3.729610
-0.633504
1.432474
0.143192
0.460241
-2.166143
-2.546559
-1.928389
-1.645459
1.694261
-0.511575
2.156254
4.898038
-0.673232
-2.442104
-0.238218
-0.857787
-1.332649
2.304983
2.241897
-2.518047
-0.028171
2.314793
-0.491664
1.024750
5.248150
-0.929252
0.051499
-2.087734
-0.852086
-0.224743
-0.958851
2.750002
-4.209107
-0.966208
0.889239
2.172970
1.328472
-0.245144
-1.799711
-0.828256
-0.863044
1.726536
-0.668408
4.005925
4.077728
-4.007398
0.572750
3.875379
-0.401563
-0.634451
-1.344962
0.323650
-0.553248
0.487976
0.604877
0.584795
-0.867546
0.523561
-1.569138
0.580917
-0.320982
2.351727
-1.651447
2.410576
-4.049325
4.019009
-2.744563
-0.309991
-0.596069
1.321292
1.689196
1.273461
-1.034008
1.239714
-4.010372
1.199090
-1.982441
-2.580141
0.599730
2.491507
-0.221108
-0.723333
-4.599559
-1.336673
2.826468
2.876946
0.722998
-1.231392
1.614941
-0.740764
-2.486355
-0.306845
-1.087250
-0.340314
1.471037
0.418633
2.431641
-1.669533
-0.977767
-3.928443
3.595784
-1.429549
-0.629108
-0.386942
-4.788105
0.267108
-2.959944
-1.932547
-3.759436
0.702932
2.028293
0.101051
-0.143390
0.269480
-0.981110
0.088197
-2.918314
0.961242
-0.522727
0.843154
0.619294
0.700995
-0.321752
2.565535
3.694865
-5.167307
3.933939
0.380168
-2.062860
-0.237731
-1.712869
1.537943
-1.938939
-1.601406
0.556334
1.547326
-2.176772
-2.387096
-2.256305
-1.458849
0.630930
-0.737424
5.120799
-0.887898
-0.398197
1.403326
0.472680
3.493664
-3.667567
0.124402
-2.064242
-1.265083
2.815738
-0.949555
-0.493364
3.960177
-1.401039
-0.091111
0.308132
-0.654010
0.225902
1.159048
1.246873
0.511880
2.060556
-1.548603
1.828458
0.147313
-0.999560
-2.739432
1.416952
3.356978
3.876339
1.112275
0.823757
-5.069402
-4.431407
2.211274
-0.556129
-1.242690
1.095514
0.401402
3.087774
-1.780882
-3.109066
-1.284911
-0.347886
-0.739946
5.474808
-3.827885
-2.964282
-0.734526
3.521885
2.984179
0.255803
-5.544823
4.253464
-4.609339
-1.820809
-0.261029
0.265126
-1.076066
1.320710
-0.276355
-0.030328
2.419926
-3.148719
1.927000
-3.151925
-3.415272
-1.416414
-2.078842
0.821420
1.566389
0.312458
-5.195922
0.018649
-2.646787
-0.712146
-1.368285
0.130982
0.715108
4.809431
1.687238
0.084480
1.262711
-0.809663
-2.172603
1.393258
1.954085
-3.327942
-1.486812
-1.158132
2.610022
-0.879830
-4.028397
-2.200802
-0.586020
-0.133084
-1.369255
-2.712912
2.928165
0.294476
3.419877
0.788549
0.726415
6.082556
-0.505227
-0.728409
-0.473448
-1.126908
0.967003
-0.325815
3.242758
0.362963
-2.125756
1.216284
-0.217234
2.114715
-0.307809
-0.670802
-1.692479
-1.384081
-0.363798
5.778655
2.149941
2.539204
0.083184
-0.929022
3.242791
0.809506
2.802176
2.490872
-0.319372
-3.917310
-0.030953
2.405544
3.878254
-1.933685
-0.685688
2.729368
-1.671436
1.928646
-2.679058
-0.455339
1.470951
4.226614
1.446052
-2.397183
-0.062349
-0.249799
-2.895365
-1.518467
0.613799
2.164052
-3.268128
0.892365
1.609773
-0.232298
-4.482018
0.913077
2.214421
1.007208
-0.275029
2.128720
-1.816073
-1.037879
-0.907529
-2.464467
2.172860
2.279025
-0.772322
-3.031553
2.475571
4.079317
1.888984
0.276767
-3.579835
3.383864
0.652470
-0.502086
0.542620
0.987963
-2.184558
-1.829117
-1.484650
-0.078442
3.030216
-2.483688
1.437784
-0.664619
3.103661
1.589533
-0.444251
0.623645
-0.317149
-2.689319
0.924866
0.537766
-3.920967
-1.448068
0.075029
-0.081445
1.310663
-0.521619
1.180100
3.203556
0.149392
1.334124
-2.140851
-0.327625
0.125879
1.557932
1.366183
-1.837003
1.209235
1.018796
-0.150912
1.235008
0.097580
2.265125
-2.032296
0.911647
-2.304217
-1.524590
-2.913815
-2.686956
-2.538874
-1.184854
-1.609418
-0.848928
-1.347666
0.937975
-1.037098
2.569253
2.435991
0.265669
-0.407698
1.401988
-1.316863
-0.245900
0.893742
1.132100
1.745769
-2.661820
0.832873
1.471177
0.667159
0.687655
-1.058614
-3.458004
-1.182725
-1.343755
0.584059
1.811823
0.944074
1.343926
1.267557
-1.899846
0.130840
2.861635
-0.991479
1.122742
2.157209
-0.038380
-0.604755
-1.416747
3.336466
-3.521992
1.218101
1.044204
-0.888515
-0.143972
-1.534459
-2.386651
-3.802575
1.651852
1.225911
1.278163
2.341445
0.196642
2.133887
-2.159396
1.939657
-0.867745
-3.183807
1.229404
-0.579480
-1.550632
-0.916237
-2.300740
1.135052
0.137545
-2.909496
0.333546
-1.061108
-0.441104
1.218783
1.930740
-3.655725
-1.400481
1.194085
1.099747
-1.840356
-1.959091
-0.504734
-0.401993
-0.843652
-0.925782
-0.556682
2.047305
-1.737013
1.068590
1.750520
1.028400
-1.040900
2.221114
2.393527
-1.475374
1.315473
1.375660
-0.994575
2.421116
1.313412
-1.681128
-1.266116
1.941662
1.176483
-2.022603
-2.316051
-0.502971
2.696831
-1.216359
0.750596
1.270935
-3.845139
0.115404
1.425052
3.230074
-0.512595
-0.683446
3.138736
-1.928352
-0.162181
3.045857
1.269086
2.419011
2.019811
0.196030
3.979732
-1.467129
-2.777757
0.718515
-0.950962
0.307242
3.662088
2.318678
-0.086518
2.967628
4.593968
2.819251
-0.853907
1.297034
1.755106
-1.496403
-3.471904
-0.699228
-1.038617
-1.650963
-1.470796
-2.321220
3.431005
3.141510
2.004168
1.923429
-3.163819
0.231281
-0.252249
0.196620
-2.238149
-0.387230
-0.053268
-0.888498
0.750406
1.140441
-1.848016
1.339461
-2.482965
0.483225
-1.090520
-1.236997
-0.448423
0.072338
-0.857031
-4.059554
4.585552
-0.183420
0.294633
-0.642491
1.322395
1.145352
0.427743
-0.036799
-3.212906
1.032495
0.642235
-1.817118
3.811438
1.068449
1.530245
1.279281
-2.907817
1.602966
-0.980694
-1.802847
0.954467
-0.461685
-0.251803
3.522029
1.343222
0.296837
1.409835
0.539180
-1.835758
1.240815
-0.165767
-1.000201
0.481634
-0.758573
-0.310935
0.755267
0.317994
1.377038
2.006076
0.476786
-1.847608
-1.898543
-3.191503
-0.231356
-3.385252
1.956174
0.036031
1.454640
-1.585787
0.182795
-2.479156
0.554625
0.962801
-0.824841
-3.049649
-1.380424
0.680675
-0.168762
-0.474754
0.458775
-1.469870
-0.326444
-2.275920
-1.532867
3.951162
1.176950
-0.318734
-0.627330
-0.545479
0.089456
0.983135
-1.701225
-1.757956
0.440794
2.337670
-0.819159
1.751974
2.337636
0.019561
0.294100
-0.556643
-1.929613
0.094282
-2.328356
-1.366037
0.037072
-0.739661
-0.504066
-1.601632
-1.327135
-0.160227
-0.013666
-0.449039
1.616551
-1.467540
-2.292482
2.839529
2.703645
0.524376
1.361409
0.407514
0.369257
-0.856900
-1.405940
-2.017063
-1.411638
0.146002
-1.661677
1.016210
-3.406517
-0.601569
3.492366
0.681005
-0.989775
