0.335432
-0.125533
-0.510250
0.028550
-0.309746
-0.377940
0.110145
0.194745
-0.143355
0.426129
0.100233
-0.308926
0.126286
-0.633026
-0.036162
-0.198659
-0.346568
-0.352486
0.296398
0.622682
-0.007078
0.121179
-0.487553
0.102546
-0.208934
0.471626
0.017283
0.352938
-0.302865
0.133234
-0.377918
0.291282
-0.272568
-0.277291
-0.361471
0.243630
0.092957
-0.302339
-0.251075
0.455135
0.289153
-0.641768
-0.292696
0.234841
-0.387450
0.333368
0.530914
-0.089883
-0.088796
-0.469918
0.409066
-0.120248
0.382761
-0.291815
0.122566
0.452229
-0.066950
-0.123911
0.681317
0.459798
0.119699
-0.192591
-0.437124
-0.389645
0.407042
0.602881
0.546879
-0.426479
-0.046837
-0.366862
-0.510771
-0.496458
0.107713
-0.110643
0.065821
0.232583
0.341763
0.231262
0.486355
-0.199996
0.005766
-0.208631
-0.594758
-0.082841
-0.678976
0.624746
-0.162834
-0.165822
0.130032
0.147235
-0.016971
0.232192
0.034017
-0.287953
-0.487224
-0.082532
-0.152830
-0.337513
0.245766
0.382472
0.030175
-0.025813
-0.074683
-0.058777
-0.105717
0.517099
-0.150853
-0.572431
-0.017755
0.181628
-0.156056
0.461040
0.173919
-0.113978
-0.029339
-0.428161
-0.175469
-0.240832
0.219775
0.155584
0.108777
0.693787
-0.481230
-0.480784
-0.337829
0.276285
-0.271003
0.248318
0.670019
-0.440948
-0.105830
0.538903
0.208478
0.311989
-0.390072
0.433059
-0.445898
-0.637680
-0.047856
0.056114
-0.072687
-0.090076
-0.141864
0.233107
-0.253137
-0.348083
-0.396681
-0.368952
-0.131954
-0.389734
-0.377258
-0.567784
0.200003
0.182811
0.003582
0.793363
-0.257535
-0.317044
-0.239028
-0.233573
0.283388
0.404350
0.395950
0.247592
0.302852
0.518438
0.078522
-0.452095
-0.242322
-0.230193
0.465527
-0.129204
-0.098534
0.071978
0.128691
-0.302925
-0.261445
0.047074
0.213690
0.467343
-0.164400
-0.419630
-0.450264
-0.019394
-0.197401
0.397138
-0.547925
0.259736
0.086655
0.324362
-0.201847
-0.495134
0.269937
-0.087295
0.437027
-0.176518
0.351653
-0.135956
0.196195
0.312427
0.527476
0.175434
0.195020
-0.174796
-0.140423
-0.281884
0.217717
-0.319514
-0.169771
0.003306
-0.014144
-0.056572
-0.201802
-0.144666
0.370323
0.180480
0.139044
-0.546505
-0.247431
-0.319380
-0.232158
0.285826
0.126882
-0.019735
0.263348
0.155015
0.221797
0.111963
-0.049624
-0.102093
-0.085228
-0.034943
0.277106
-0.261429
-0.410874
-0.375888
-0.105485
-0.257606
-0.265149
-0.445305
0.085526
0.157690
-0.416913
-0.133020
-0.388201
0.341479
0.268563
-0.327265
-0.395316
0.093151
0.276616
0.337468
0.481465
0.348919
0.333705
0.454667
-0.169470
0.397289
0.069490
-0.460722
0.015471
0.079250
-0.340253
0.007155
0.430940
-0.096795
-0.165994
0.051764
0.168626
-0.111485
-0.173718
-0.468875
0.488305
-0.118655
0.392828
0.421846
0.172894
-0.180756
-0.083985
0.033865
0.488134
-0.602684
-0.073961
0.349128
-0.281789
-0.101356
-0.059538
-0.192102
0.564355
-0.418477
-0.263462
-0.492567
0.388438
-0.383414
-0.050327
-0.051403
-0.495410
0.060456
0.621113
0.004751
0.071781
-0.186119
0.223570
-0.250470
-0.072140
-0.061995
0.163285
0.080156
0.095055
0.418702
-0.107620
0.403909
0.494300
0.027094
0.436640
-0.438219
-0.448851
-0.094959
-0.311023
0.325856
0.265378
-0.273043
-0.085988
0.735618
-0.559762
0.532685
-0.134712
0.477884
-0.137311
-0.408346
-0.244132
-0.382769
0.236831
0.299684
-0.006297
-0.329929
-0.408734
-0.717828
0.284011
0.040303
0.132442
0.061619
-0.109281
0.501070
-0.276002
0.352718
0.030742
0.054074
0.307927
0.187472
-0.070087
0.207745
-0.282710
0.190347
-0.178771
0.419918
0.152452
0.196197
0.243905
0.220343
-0.120248
0.419533
-0.165494
-0.336875
0.181703
-0.424969
0.351082
0.305431
0.127989
-0.405374
0.527790
0.385502
-0.089977
0.399372
0.525713
0.002020
-0.361545
0.041143
-0.161037
0.408443
0.001241
-0.520067
-0.421107
0.331004
-0.194241
0.283843
-0.598215
-0.560544
-0.107913
-0.204484
-0.012140
0.035830
0.151882
-0.253242
-0.021142
0.013817
-0.376372
0.245624
0.403491
0.073553
0.049254
-0.322225
-0.286691
0.018280
0.287398
-0.502461
0.439818
-0.338213
-0.071236
0.276208
0.015335
-0.752693
0.300349
-0.062077
-0.108552
-0.226712
-0.025820
0.116094
0.388957
-0.595290
-0.045952
-0.360359
0.300499
0.154823
0.656506
-0.204806
-0.057432
-0.319099
-0.224436
-0.110153
0.478678
0.176683
-0.832649
0.100866
-0.390882
-0.366914
-0.002231
-0.613910
-0.148072
0.075062
0.058323
0.203992
0.321938
0.722893
0.384858
0.100133
-0.278960
-0.580445
0.342811
-0.671797
-0.095437
-0.196363
0.014568
-0.113106
0.107490
-0.186698
0.059880
0.013965
-0.217124
0.273489
0.422945
0.158750
-0.722335
0.078167
0.424348
0.023834
0.287273
0.158620
0.143901
0.043322
-0.123729
0.214082
-0.693832
0.543048
0.173110
-0.254591
-0.097560
0.553828
-0.265851
-0.446299
-0.160717
0.130420
-0.468760
0.126925
-0.276962
-0.285917
0.588072
-0.152604
-0.440330
-0.138067
0.227626
-0.117129
-0.326512
-0.140156
0.025062
-0.573372
-0.565718
0.232824
0.312232
0.388513
-0.358145
0.026164
0.261550
-0.218102
-0.496462
-0.530461
-0.161854
0.250388
-0.390065
0.449160
0.000157
0.162053
0.013027
-0.372877
-0.559767
-0.307068
0.419915
-0.331751
0.493772
0.487539
-0.099660
0.458063
-0.299753
0.410863
0.013628
0.258280
-0.304720
0.315848
-0.590087
-0.410424
-0.496272
0.207612
-0.358961
0.522409
0.429109
-0.521121
0.199438
0.253057
-0.209532
-0.358415
-0.085266
0.305703
-0.208617
-0.690274
0.637314
-0.139959
-0.190454
0.320692
-0.292251
-0.172309
0.013573
0.320880
0.140013
-0.124899
-0.166559
0.038760
0.188840
0.043906
-0.178798
-0.241592
0.341214
0.560589
0.424812
0.078534
-0.557659
0.310641
-0.094140
-0.258393
0.203221
-0.089761
-0.386728
-0.037089
0.409064
0.089067
-0.344224
-0.009610
-0.122423
-0.689406
0.387479
0.397960
-0.023687
-0.667820
-0.204337
0.027076
0.095212
-0.151739
0.391341
-0.385737
-0.524760
0.165454
-0.134062
0.361669
0.516615
0.243855
-0.286696
-0.444776
0.201024
-0.375975
0.445822
-0.290498
0.182565
-0.381071
0.409635
0.302103
-0.529249
-0.279604
0.002209
-0.387241
0.032712
0.063953
-0.522319
-0.012946
0.305461
0.169933
0.033281
-0.649578
-0.406307
0.215614
-0.590741
0.439616
0.461829
-0.071174
-0.213706
0.102513
0.183713
-0.238374
-0.463087
-0.573261
0.171483
-0.179252
0.211536
0.401622
-0.056162
0.321756
0.562652
-0.525422
-0.306216
0.329229
0.132045
-0.644587
0.624183
-0.319806
-0.453542
-0.138112
0.719346
-0.099517
0.268702
0.115675
0.088258
-0.329000
0.161982
-0.277696
0.064600
0.033414
0.410949
0.277644
-0.562657
0.373453
0.013323
0.332135
-0.316972
0.388033
0.067113
0.479874
0.085019
-0.146229
0.637082
-0.336530
0.266081
0.533008
0.190629
-0.223834
0.003171
-0.382994
0.310033
0.407860
0.012807
-0.028247
-0.094732
-0.171229
0.479500
0.067376
0.062937
-0.603335
-0.123262
-0.347705
-0.241602
-0.154573
-0.141941
0.155937
0.458592
-0.054248
-0.315216
0.073601
-0.274118
-0.492299
0.338476
-0.229688
0.175755
-0.438743
-0.438764
-0.083872
0.091446
0.652452
-0.413031
0.318307
-0.255871
-0.376990
0.038589
0.651768
0.003437
0.208889
-0.140008
0.088125
-0.036938
-0.204529
-0.429539
-0.159543
0.332403
-0.130556
0.205099
0.023092
-0.560611
0.880348
0.149355
0.093679
0.219450
0.318124
-0.216257
-0.002736
-0.042840
0.338162
-0.137284
0.457575
-0.444082
0.013471
-0.420032
0.332932
-0.599611
-0.331774
0.545915
0.317278
0.043554
0.486489
0.498634
-0.327623
0.030125
0.090457
-0.737797
0.556370
-0.599230
-0.115869
-0.009553
0.274632
-0.186385
-0.082711
-0.389609
0.029319
-0.117752
0.382917
-0.171211
0.075110
0.483798
0.132824
0.281450
0.077035
-0.009584
0.108928
0.426756
-0.386358
0.171252
0.373918
0.009977
-0.139607
-0.276505
-0.337860
0.477368
-0.317293
-0.574310
-0.262439
0.847413
-0.188796
0.137336
0.478207
-0.322340
0.130635
0.151266
-0.000113
0.159903
-0.193820
-0.153902
-0.337420
-0.077131
0.344569
0.075914
0.345521
0.318697
0.520953
-0.103262
-0.052280
0.383572
0.222583
0.389076
-0.166549
-0.226400
-0.025173
-0.414132
0.218518
-0.113921
-0.234306
-0.062251
-0.090478
-0.202816
-0.242710
0.427941
0.240798
