0.421381
-0.098079
-0.052367
0.034480
-0.594167
-0.019907
-0.082574
0.182827
0.370490
0.301248
-0.182961
-0.384114
0.176470
-0.499407
0.344981
0.492242
0.140592
0.169209
0.391721
-0.137591
0.097450
-0.152764
-0.203563
-0.407731
-0.169924
-0.212170
0.026984
-0.090078
-0.376449
-0.077613
0.255828
0.487941
-0.286941
-0.296411
0.037503
0.297108
0.202888
-0.211206
-0.007478
0.226316
0.227262
0.186710
-0.236129
-0.124252
0.119693
-0.083086
0.357981
-0.058889
-0.185734
-0.172788
0.378697
0.443053
0.050080
0.095405
0.019387
0.606054
0.106592
-0.123911
-0.012620
-0.324711
-0.164946
0.108211
0.064165
-0.077618
-0.499299
0.411297
-0.134790
-0.071257
0.224498
0.199978
-0.159339
-0.612404
0.260409
0.006428
-0.575773
0.204454
-0.297047
0.156011
0.313589
-0.485275
-0.387541
-0.100340
-0.226789
0.076798
0.394549
-0.055389
0.444398
0.226928
0.106361
0.000124
-0.079050
0.153457
0.259353
-0.184921
0.029364
-0.083790
0.263852
0.553394
-0.424672
0.444968
0.672190
0.018751
0.170031
0.156693
0.425826
0.217910
-0.443969
-0.402608
-0.243998
0.097491
-0.055686
-0.398655
0.316126
0.348134
0.384183
-0.186336
0.079759
-0.510104
0.319574
0.438932
-0.529998
0.594660
0.011495
0.154432
0.228700
0.148809
0.085796
0.150982
0.428156
-0.259076
-0.723404
-0.138273
0.180865
0.089640
0.263684
0.589279
-0.357801
-0.151845
-0.379846
0.174109
-0.556613
-0.210533
-0.256327
-0.211318
0.241739
0.277699
0.476856
0.465935
0.146817
0.346570
0.268844
-0.180083
0.338628
0.048369
0.630710
0.541266
-0.256846
0.894502
-0.284658
-0.190090
0.265234
-0.353904
0.294471
-0.291761
-0.050968
-0.407000
-0.111336
-0.151257
-0.545485
0.158813
0.195204
-0.155412
-0.547872
-0.286287
0.238077
-0.113335
0.350653
-0.041035
0.084203
-0.010274
0.138145
0.502125
-0.149178
0.542604
0.242528
0.041125
0.509165
-0.506840
-0.180238
-0.479211
-0.424554
-0.043216
-0.400332
0.147470
0.501683
0.360816
-0.230330
-0.623804
-0.147175
0.619834
0.382832
0.349238
-0.183648
-0.037088
0.136916
0.559048
0.117102
-0.180461
-0.121519
-0.021641
0.279173
-0.115335
0.135464
-0.214496
0.416705
-0.228494
0.116243
-0.410405
-0.440474
0.069011
0.292650
-0.107301
0.144477
0.202295
-0.183576
0.238595
0.139914
-0.176655
-0.154884
0.162772
0.405922
0.455959
-0.302288
-0.055167
-0.395461
0.182528
-0.043363
-0.230305
-0.579941
-0.346729
-0.497660
0.169767
-0.493948
0.009494
-0.525203
0.105357
-0.581557
0.016942
0.574443
0.112197
-0.388128
0.251740
-0.060614
-0.485033
-0.318231
0.212063
0.150200
0.332252
0.450602
-0.099999
0.705412
-0.344752
-0.214459
-0.369111
0.807289
-0.103866
0.299765
0.635558
-0.347166
0.154809
-0.165279
-0.258719
0.612728
-0.109012
0.315796
0.475373
-0.025035
-0.055916
-0.380499
0.415485
0.168386
-0.389433
0.484811
-0.041119
-0.118456
0.053589
0.373461
-0.044378
0.156594
0.398588
0.166946
0.147551
0.015531
-0.408555
0.074047
0.322209
0.215289
-0.009930
0.378962
-0.538126
0.250487
-0.186119
0.416205
-0.096491
0.322160
0.013496
0.087936
0.307995
-0.139189
0.124409
-0.210089
0.119523
-0.374182
-0.183275
-0.225229
0.506743
-0.596256
0.152002
-0.226918
-0.228485
0.317258
-0.351652
-0.494560
-0.369243
-0.561003
-0.005443
-0.057259
-0.311884
-0.493815
0.083727
0.063759
-0.456638
0.222045
0.040124
0.168090
-0.475762
-0.319728
0.369823
0.386846
0.197558
-0.269807
0.705546
-0.314644
0.006046
0.396780
0.231235
0.328401
0.054548
-0.405356
-0.424434
-0.267333
-0.232695
0.428654
-0.408609
-0.193763
-0.414522
0.178573
0.131668
0.374271
-0.468705
-0.149564
-0.363922
0.107908
0.535316
0.313235
-0.207594
-0.277252
0.236276
0.025740
-0.568823
-0.005414
-0.016960
0.444638
0.068092
-0.033524
0.461312
0.385148
-0.050444
0.281660
0.215911
0.513109
-0.065121
0.613883
0.147893
-0.509037
-0.587741
-0.489477
-0.277081
0.103870
-0.173488
-0.222907
0.376463
0.239171
0.553578
0.583665
-0.530353
-0.086171
0.116744
0.170503
-0.237774
-0.038305
-0.224576
-0.320941
0.178723
0.029946
0.164451
0.385905
-0.448727
0.084368
0.284297
0.405029
-0.196441
0.465531
0.593317
0.259998
-0.074605
-0.206328
0.427208
0.105344
0.018633
-0.065193
-0.305277
-0.147229
-0.048158
0.567601
0.277293
0.460504
-0.429077
-0.082323
0.142065
0.545836
-0.305007
-0.035496
-0.177491
-0.009413
0.154093
0.008590
0.148450
0.046473
0.769820
0.573299
0.360757
-0.353540
-0.353399
0.221198
-0.166796
-0.035718
0.530218
0.191892
0.282611
-0.423381
-0.453422
0.102163
0.024174
-0.335228
0.374779
0.215533
-0.001958
0.644996
0.186187
-0.151485
-0.832655
0.098174
0.605338
0.296983
-0.441786
-0.135823
0.146411
-0.505506
-0.186431
-0.063905
-0.198773
-0.618700
0.019958
0.416528
-0.058533
-0.144945
0.145343
0.087968
0.244528
0.317769
0.122827
-0.215644
-0.183824
0.233497
-0.490802
0.103153
-0.758091
0.195244
0.056662
0.156340
0.425280
-0.374798
0.089254
0.282390
0.110121
-0.193942
0.240040
0.314509
0.646964
-0.303522
0.081961
0.408836
-0.480147
-0.538342
0.018329
-0.706204
0.014475
0.274416
0.590142
0.584842
-0.041883
0.162087
-0.463357
-0.115906
-0.241360
-0.485722
-0.253915
-0.109226
0.447633
0.511584
-0.269598
0.611078
-0.128229
0.362647
-0.456745
-0.245648
0.011638
-0.522790
0.223688
-0.143313
0.294362
-0.125000
-0.013830
0.341561
-0.407462
-0.479867
0.353210
-0.081756
0.183624
-0.072381
0.196189
-0.263764
0.069498
0.500582
-0.098647
-0.621377
-0.224650
0.332584
0.369115
0.334589
0.140541
0.326804
-0.142650
0.556212
0.199637
0.417185
-0.028374
0.173274
-0.079597
0.130605
0.240091
0.076121
0.205253
0.564963
0.221342
-0.721389
0.071469
-0.742118
0.372908
-0.019900
-0.182570
-0.189274
-0.439915
0.080296
-0.202099
0.026739
0.303844
0.541215
-0.456348
0.241069
0.478876
-0.474646
0.036992
-0.469693
0.224287
0.047037
-0.384516
-0.653087
-0.089954
0.172740
0.430910
0.232254
-0.039231
-0.354042
0.364213
-0.044025
-0.484854
0.096649
0.225977
-0.301365
-0.282870
0.300899
-0.415983
0.024379
0.422491
-0.870877
-0.224999
0.343554
0.348645
-0.094944
0.341859
0.594815
0.897074
0.129534
0.465492
0.091681
0.182864
0.014738
0.437735
0.465037
0.173847
0.563263
-0.343396
-0.824579
0.086348
-0.211489
-0.635526
-0.197965
0.299371
-0.339421
-0.561945
-0.020844
0.511503
0.152401
0.147741
-0.581526
-0.204929
0.268675
0.170255
-0.584725
0.421224
0.473387
-0.083402
0.088577
-0.398380
-0.071397
-0.259366
0.570085
0.115210
0.193865
-0.149281
-0.415031
0.492511
-0.241800
0.592058
-0.312901
-0.085339
0.377439
0.503401
-0.365549
-0.845807
-0.024314
-0.190422
0.503278
0.352000
-0.330517
-0.271567
-0.017059
-0.758308
-0.439705
0.138936
-0.300359
-0.470081
0.114641
0.475446
-0.094601
0.002853
0.259718
0.314048
0.067567
0.138668
-0.269976
0.118260
-0.051606
0.504715
-0.142069
0.714197
-0.063072
0.340850
-0.113440
0.311164
0.155639
0.342911
-0.182183
0.230029
-0.414177
-0.058679
0.484462
-0.423453
-0.270249
-0.558227
-0.404906
-0.647954
0.014792
0.318307
0.233801
-0.182889
-0.502003
-0.216660
-0.085341
0.002908
-0.365718
0.369379
-0.211650
-0.377283
0.072571
-0.053845
0.274302
0.477172
-0.249021
0.233559
0.037696
-0.301070
0.215088
-0.361744
0.628624
-0.270186
-0.198195
-0.002744
-0.439471
0.008135
-0.372586
-0.328782
0.019196
0.053076
0.068673
-0.008174
0.133623
-0.161723
-0.203362
0.737084
-0.120461
0.001850
-0.306245
0.009947
0.400328
0.607605
0.492147
-0.856083
-0.504378
0.233567
0.155647
0.192486
-0.325822
-0.318837
-0.514015
-0.018270
0.116833
-0.236229
-0.200231
0.268211
-0.422089
-0.577409
-0.363712
0.006625
0.028433
0.473112
0.117515
-0.310799
-0.084150
0.235682
0.684192
-0.186025
-0.119861
-0.209131
0.510025
0.069327
0.101071
0.170534
-0.209968
-0.537104
-0.264574
-0.178114
-0.395361
0.484950
0.130671
0.366815
-0.164691
0.537435
-0.371590
0.064697
-0.131418
0.421307
-0.084323
0.552812
-0.080421
0.423130
-0.103060
-0.452666
0.071870
0.123231
-0.112555
-0.069460
0.114054
0.300830
-0.273589
0.097458
0.038149
0.220414
0.339377
-0.096589
0.097601
0.070151
-0.148777
0.116589
