0.163699
0.404931
-0.045606
0.023766
-0.069840
-0.055057
-0.354016
-0.211758
-0.604940
-0.053544
0.135870
-0.001107
-0.458726
0.620143
-0.106512
0.079718
-0.495423
-0.087636
-0.077341
-0.123732
0.380709
-0.286257
-0.293263
0.442184
0.169604
-0.047538
-0.193118
0.143829
0.553317
0.693019
-0.078229
-0.222429
0.169431
-0.098899
0.352033
0.237440
-0.225010
-0.231558
0.042897
0.248566
0.087487
0.398529
-0.002291
0.202783
-0.098468
0.345436
0.338909
0.325893
-0.031333
0.311918
-0.076612
-0.033690
0.552075
-0.218696
-0.365170
0.489395
0.185184
-0.025982
-0.278649
-0.310764
0.301976
-0.324743
0.204421
0.353469
0.189070
-0.435767
0.094380
0.473297
0.286190
-0.474431
-0.248741
0.286593
0.097993
-0.391417
-0.203977
-0.021894
-0.024422
0.043350
0.302155
0.163185
0.060939
-0.337440
-0.286345
0.451256
-0.297158
0.534477
0.249857
0.525375
0.302656
0.300924
-0.227543
0.216103
-0.390959
-0.339235
-0.509585
0.006804
0.418662
0.399043
-0.564525
0.268845
0.006450
-0.432127
-0.001217
-0.131124
-0.219115
-0.327935
-0.171310
-0.647742
0.049321
0.213868
-0.210267
-0.576443
-0.462362
0.105295
-0.210702
-0.108430
0.247261
0.358800
-0.296016
-0.467622
-0.125951
-0.314667
-0.009438
-0.217405
0.186428
0.086579
0.386285
-0.126064
0.471315
-0.310073
0.319329
0.363192
0.179345
0.147904
-0.649577
0.307691
-0.121104
-0.004845
-0.350166
0.226601
0.201504
-0.556748
-0.167055
0.083334
0.358816
-0.152498
0.488487
-0.413555
0.482652
0.118408
-0.316394
0.572648
-0.419496
-0.074755
0.284880
0.264207
0.032844
-0.248141
-0.001925
-0.040540
-0.423260
-0.146810
0.674963
0.267851
0.287215
-0.407000
0.012999
0.465370
-0.230916
0.448192
-0.023708
-0.237013
0.028451
-0.411437
-0.550516
-0.299692
0.332604
-0.589148
0.407403
-0.373611
0.071898
-0.238243
0.237068
0.534786
-0.046647
-0.233793
-0.307059
-0.493716
-0.201080
-0.230369
0.215979
-0.207280
0.263285
-0.477142
-0.056342
0.498665
0.493266
-0.027592
-0.381691
0.276976
0.048800
0.182369
-0.491418
-0.200286
0.159566
-0.234968
0.239548
-0.438534
0.321632
0.045046
0.326609
0.329072
-0.144938
0.464559
-0.206083
0.172021
0.346584
-0.467546
0.233619
-0.072661
0.204200
-0.605883
0.569069
0.061955
0.310620
0.646191
-0.125212
-0.042748
-0.393714
0.132575
-0.331856
0.122723
0.340615
-0.313230
0.593092
-0.411738
-0.368322
-0.281039
-0.370139
0.013146
0.409497
0.210586
0.216375
-0.032825
-0.475431
0.361688
0.048551
-0.124425
0.337953
-0.017811
-0.446168
0.301569
-0.460885
0.352587
0.124367
-0.028978
-0.151332
0.257849
-0.546549
0.100392
0.367696
-0.144338
0.378300
-0.037961
-0.544184
0.047314
-0.090203
0.001901
-0.096468
-0.305230
-0.259848
0.059841
0.367137
-0.067855
0.124402
0.423363
0.230624
-0.366797
-0.348279
-0.316077
0.583966
0.446890
0.441062
-0.135162
-0.383296
0.005247
0.232544
0.415768
0.330738
-0.407974
0.158025
0.149751
0.147823
-0.798659
0.619962
-0.253762
-0.387024
0.094401
-0.385639
-0.457988
0.360368
-0.270947
-0.233602
-0.640253
0.418845
0.685007
0.451271
0.139010
-0.157721
0.065642
-0.159252
-0.334986
-0.478956
0.017840
-0.567430
-0.411246
-0.244575
0.427947
-0.198309
-0.036612
0.041263
-0.059905
-0.276427
-0.035382
-0.434258
-0.355041
0.405645
-0.223312
-0.468210
-0.274475
0.189898
0.240774
-0.102876
0.157079
-0.184078
0.056256
-0.134742
0.420908
0.315124
0.243094
-0.345041
0.705546
-0.688925
0.387392
-0.187692
0.141418
-0.156571
-0.374059
-0.258379
-0.437188
-0.552165
-0.230538
0.392189
0.467613
-0.025289
0.463373
-0.121479
0.377849
0.387634
-0.508129
-0.284694
-0.168619
-0.155047
-0.120034
0.136786
-0.650348
0.098251
-0.208020
0.142873
-0.096621
0.000844
-0.690227
-0.536618
0.335377
0.442131
0.081060
0.452161
0.238840
-0.202350
0.410549
-0.310022
-0.254829
-0.180050
-0.730385
-0.345953
0.498487
0.036609
0.326086
0.119756
-0.214518
-0.074976
0.148429
0.084343
-0.044707
0.473758
-0.148235
-0.239135
0.202814
0.192704
0.240118
0.257131
0.330675
-0.195021
0.023345
-0.486773
-0.508184
0.657756
-0.259066
-0.144559
0.018470
-0.075996
-0.291568
-0.107141
0.333010
-0.570869
0.080584
0.187380
-0.210684
0.379133
0.028884
0.536040
0.065402
0.252133
0.701077
0.387247
-0.452051
0.267681
-0.513390
-0.426725
-0.313732
0.317766
0.112663
-0.249313
-0.457972
-0.126468
0.020912
0.472806
0.527585
0.111075
0.256545
-0.200174
-0.051045
0.301726
0.175420
0.224153
-0.392302
0.268645
-0.000667
0.351584
-0.299896
-0.155179
0.332311
-0.250615
0.143319
0.420237
-0.320293
-0.470089
-0.096633
0.198937
-0.249704
0.008263
-0.166409
0.197740
0.371530
-0.573734
0.082037
-0.004625
-0.383279
0.262804
-0.343160
-0.051730
0.486584
-0.229813
-0.385761
0.115862
0.080379
-0.152609
0.403960
0.269947
0.599077
-0.218476
0.346908
0.006599
-0.223140
-0.067053
0.394602
-0.173333
0.080582
-0.451205
-0.141953
0.198547
-0.181750
0.151636
-0.357758
0.234089
0.120089
0.332974
-0.222314
0.121263
-0.452031
0.276103
0.362943
0.054921
-0.211555
-0.496462
0.162414
-0.090894
0.294852
0.294079
-0.368354
0.017694
0.157638
-0.212546
0.301836
-0.283415
-0.228357
0.516489
0.073694
0.027250
0.456101
0.013328
0.535919
0.122134
0.221950
0.310658
0.688791
-0.328331
0.180608
-0.389505
0.204034
0.278348
-0.032870
0.397410
0.309321
-0.271059
0.461334
0.484004
0.269531
-0.088414
-0.381709
-0.346981
-0.525489
-0.345534
-0.029183
0.181440
0.058486
0.382160
-0.216006
0.258848
-0.417832
0.316593
-0.250419
0.261213
0.324759
-0.181159
-0.313794
0.005770
-0.169621
-0.315848
0.066491
0.284907
-0.382797
-0.464315
0.407194
0.031314
-0.382117
-0.523438
-0.244055
0.184740
0.046868
-0.491500
0.429335
0.115428
-0.063636
0.318762
0.078767
-0.275970
-0.217172
-0.288652
0.316648
0.645890
0.535386
-0.366814
0.508454
-0.597775
0.052233
0.225528
-0.711501
-0.060511
0.247096
-0.110619
-0.410941
0.289318
0.200161
0.087734
0.178223
0.065124
-0.350954
0.281932
0.329650
-0.051524
0.405683
-0.175944
0.571684
-0.427743
-0.285197
-0.744877
-0.265119
0.170259
0.078068
0.474529
0.604375
-0.171324
0.290414
-0.300440
-0.304900
-0.305685
-0.420464
0.121364
0.213091
0.062333
-0.170517
-0.174112
0.045621
0.376386
0.276368
0.071393
0.394916
-0.395404
-0.275135
0.098380
0.150173
0.211784
0.330018
0.210817
-0.290726
-0.468914
-0.159251
-0.374998
0.340643
0.135633
-0.289521
-0.137763
0.594657
0.314696
-0.487149
0.055662
0.169321
0.360592
-0.129114
0.276063
-0.297971
0.006920
-0.303183
-0.200628
0.022435
0.236998
0.327134
-0.342188
-0.056888
0.010105
-0.445319
0.426195
0.407208
0.172112
0.151292
-0.547341
-0.039091
0.242965
-0.580199
-0.201392
-0.124010
-0.385050
0.029097
0.184255
0.667405
0.386512
-0.181924
-0.123991
0.048009
0.146310
-0.306192
0.047330
-0.571564
0.058513
-0.522857
-0.326986
0.497866
0.458528
0.200551
-0.280797
0.552741
0.837618
0.247400
0.031326
-0.011240
-0.385106
-0.005449
-0.499420
-0.636021
0.473832
0.193246
-0.064296
0.414270
0.371676
-0.037658
-0.290576
-0.375380
0.108288
0.354057
0.181027
0.053796
0.422345
-0.295000
-0.451999
0.563687
-0.643588
0.062012
-0.436835
0.583250
-0.045754
-0.256316
-0.326737
-0.294689
-0.367763
-0.259891
-0.275975
-0.042569
-0.058319
-0.079697
-0.064826
0.001712
0.057541
0.075759
0.026743
0.371392
0.481958
0.430092
-0.101871
-0.282496
-0.131909
-0.208673
0.294022
-0.306551
-0.589259
-0.188998
-0.465236
0.418557
-0.530253
-0.641423
0.177915
-0.178282
-0.112330
0.608718
-0.416134
-0.237875
0.092827
-0.090674
-0.449899
-0.286325
-0.099597
-0.040593
-0.265919
0.086843
-0.383516
-0.255488
-0.419030
-0.334105
-0.131230
-0.531648
0.183839
0.093235
-0.052426
-0.181540
0.217688
-0.438045
-0.255026
0.068231
-0.353467
-0.116223
0.543855
-0.078167
0.020277
0.485929
-0.475840
-0.349039
-0.158869
0.114612
0.202933
-0.183124
0.245713
-0.050556
-0.213506
0.183921
-0.839628
0.084098
-0.081540
0.800311
-0.100247
0.386753
0.351264
-0.220440
-0.390942
-0.692281
-0.458119
0.013342
-0.398130
-0.557530
0.584461
-0.378230
-0.157238
-0.202407
-0.198454
-0.497989
-0.034978
0.230985
