-0.117287
3.441521
-4.448675
-2.771335
-2.949760
1.310747
-3.675350
1.043350
-1.754017
0.776966
-1.197532
-1.045433
-1.312316
-2.323760
-3.136265
-0.482338
5.494578
-1.178622
-0.833904
-0.849121
2.471138
0.867389
-0.097614
-0.904457
-3.172554
4.891617
-2.139677
2.758112
-0.499739
2.317847
-4.880115
-5.678931
0.059578
0.365838
0.275593
0.603387
-1.180520
-0.028153
-3.639319
-0.125753
-4.138473
-0.933658
2.618836
-0.742930
-1.438881
-0.492373
-11.626738
0.253423
12.476671
-0.495475
0.416848
-0.106785
-0.364290
0.074641
-0.002418
-0.272991
-6.006343
0.255518
2.749175
-2.529214
0.629009
0.328727
-2.611852
4.297998
2.660272
1.164012
-3.775253
-0.887517
-1.399992
3.661844
0.837513
-0.876818
-1.293313
-1.641343
-0.753210
-0.181475
-2.359909
-0.860760
0.879211
0.159650
-1.133076
-2.294651
-3.848863
-0.347231
-5.423985
-1.778563
-9.275135
-1.189965
3.015169
-2.724992
-0.009356
-1.879100
1.552424
0.193282
-1.373514
6.185805
-6.851595
-2.781647
-2.571692
-1.919979
-2.983502
-1.499564
3.674808
0.289249
-0.148764
-0.919553
-0.254920
2.612516
-0.112390
-3.066831
-2.202653
1.994816
1.900658
-3.325140
0.565994
-6.219752
0.417593
1.115357
1.925634
0.811155
7.406681
2.368398
-2.067460
0.888364
7.754097
1.799321
0.546960
1.849657
-2.600063
-1.391430
-2.591764
-2.561722
-0.391012
0.932116
3.243820
0.667419
-2.665710
-0.735287
-3.003185
-0.438943
3.813193
1.597209
-2.773831
-2.821647
2.493563
3.327677
-3.235328
-0.322865
2.823727
6.168454
3.244933
-0.634306
2.242960
-0.549771
3.443585
1.939727
1.131231
1.657648
7.955392
2.963994
-0.021676
-3.347191
5.353535
-2.971953
-1.014996
-0.956650
0.784340
4.369767
-2.048265
1.210163
1.174361
-0.621051
3.161410
6.579213
-2.059821
-1.845660
2.422427
-1.811248
2.037587
4.593417
-1.119221
3.083939
0.560262
1.723966
-2.046711
1.468635
1.018093
-1.066105
-0.445994
1.112040
1.479304
1.901205
3.406488
-0.640924
-5.915616
-0.616201
3.648115
0.712952
-4.451738
1.203630
4.796914
-2.820000
-3.071465
-2.710099
-4.137119
1.867519
-2.562246
-2.846754
-0.384766
2.363915
0.794346
4.261414
2.523489
5.136215
-3.350718
-5.287048
-2.715505
2.037043
-3.119800
0.034981
4.889268
-1.305781
-4.747127
-3.680289
-0.984240
-7.267404
3.899680
-5.374770
-2.895194
0.286149
-3.680493
4.976203
-7.500527
-0.816618
-5.665297
-2.853184
1.153753
2.824157
-2.540849
4.664127
-1.917256
-0.642618
-0.615890
-0.512780
-4.553653
4.042497
1.856466
-10.153558
-2.133449
-2.163412
2.600054
3.009144
-0.392849
0.051637
4.436095
3.095073
2.289485
0.394258
-2.281692
-0.746789
2.934445
-1.009853
7.216509
2.626915
-8.587438
0.270330
-5.469667
5.682813
0.203088
-2.927787
-4.684324
0.475708
1.745995
4.795936
3.447327
4.773148
-4.711823
-1.206367
-3.448786
-4.814475
-2.592104
-4.047993
6.866929
-0.080808
-0.191684
-3.687289
4.198841
0.137860
1.186780
-0.223362
-3.307929
3.894669
2.180812
5.416625
2.499775
2.850388
-1.010398
1.793620
-0.114782
3.203974
14.566110
2.281774
3.580334
-0.306356
1.154417
-0.886145
-2.218394
2.576272
-3.256627
0.098298
0.403970
2.781292
-5.308848
-0.701390
0.310599
-1.718892
2.119012
-2.265589
0.364543
1.960549
0.370042
0.665004
-1.380586
-3.017252
-6.675813
1.286990
-6.019705
3.684012
-2.715060
0.779288
0.598641
-1.277479
-8.842227
5.366728
4.513533
-0.882237
-2.421991
-3.179690
-1.879068
-2.687303
2.245552
-1.687388
0.976484
1.485797
-1.240354
4.243196
0.828300
1.571910
0.330637
3.989527
-4.530285
-0.010854
-1.559594
-5.297610
-2.422337
-0.674273
4.971597
3.307136
4.122354
-4.727489
-1.445351
-2.525058
1.528330
-2.119000
3.025985
1.006008
1.892505
6.280123
-4.863278
1.789480
1.643622
-2.566118
0.711700
3.324426
5.102619
-2.364170
0.479521
-3.195346
-1.791075
-2.389762
3.327307
1.522877
2.005301
-3.919570
-2.083490
2.288220
-1.239937
1.588951
-0.733471
-2.188540
-4.913013
-0.746213
0.165321
0.478470
-7.443532
1.168917
-0.713612
1.212234
-5.856454
-2.893223
0.630547
3.244979
-3.365266
-3.551263
1.926440
0.426001
-6.692407
-1.674880
1.644145
-1.391774
-1.242362
-0.109105
-0.562560
-3.080759
-8.198700
4.861387
5.268141
4.606208
-0.877480
1.876194
0.933239
5.538415
2.310989
-1.051429
-4.614948
-5.947165
-7.930676
-3.090287
-6.786921
-1.531472
2.377504
0.904378
-4.293992
9.349592
2.763174
-9.187848
-0.203420
-2.651860
-2.263299
2.602353
3.082547
-1.679398
1.071469
4.018274
1.887043
0.162176
5.470848
-2.461720
1.046636
-2.382134
3.033497
0.548502
4.510968
0.505195
-2.625493
-1.740548
3.960056
-3.350218
0.002773
1.348395
3.021164
-3.327315
4.472754
-4.653872
-2.400914
-2.907925
5.923794
-4.344396
0.045697
-2.241614
-1.886693
-3.786577
-4.103057
-1.130272
-1.155934
1.151621
-1.533090
-1.837143
5.005771
-2.237157
-0.296628
-1.840798
5.320675
0.083191
-7.039680
3.103561
-1.511436
5.584869
-0.948145
1.292699
-0.402540
3.752655
1.885562
-0.994724
-5.852850
1.731635
1.455525
-0.023252
2.738251
-0.383908
-3.353717
1.883509
0.275133
2.701895
0.655531
-2.752818
-1.170404
4.725504
3.548126
2.129655
0.968929
-0.232803
-0.323672
2.198513
6.672326
-1.081808
1.248649
1.458797
1.871920
4.827871
1.467344
3.078735
3.012147
-0.269747
-3.904286
-0.850563
-3.695023
-2.649285
3.748747
5.187425
-1.428745
1.517018
4.773536
-2.105478
7.340518
2.049553
-5.868361
-2.400892
-4.728123
1.567541
-4.001118
-1.442163
-8.575828
-4.645342
-1.658538
0.964393
-4.856583
3.176268
5.183155
-1.825774
-5.846460
2.395946
-4.925171
-9.590670
2.439045
4.834868
-6.046019
-0.894167
2.229378
-0.935947
5.400528
-0.289583
-2.751675
4.262654
-1.114046
2.481974
-3.563773
2.204548
2.171277
0.460252
-0.851353
3.432208
2.139557
-5.904019
4.139095
-1.019186
1.362650
-3.353453
0.128476
-0.947457
-0.701804
2.354288
-0.676488
-0.541688
2.121504
-1.957613
-9.752870
-0.902616
-3.561677
-3.643611
-6.004422
-0.878241
-2.375065
4.898125
0.617094
4.164628
-4.607053
1.146671
-0.268811
1.395749
-5.760117
1.292099
0.478541
0.430935
-1.978815
3.074572
3.527814
2.305233
-1.355620
1.838669
2.211053
1.091924
0.944302
0.752871
-0.155044
0.004337
-0.481204
0.030449
-2.962279
-5.867461
-4.607847
-2.275304
2.397929
4.455276
-1.505049
1.318872
-0.617393
-1.867023
-2.858623
-0.379270
2.892017
-0.354023
4.524209
-3.588810
-4.898740
1.908676
-0.064564
-1.935030
-1.192632
-1.730249
0.366375
-0.573708
-0.219321
7.739695
-2.834674
-1.295079
3.524734
-1.828527
1.007570
-2.585260
-1.934286
4.921503
0.553685
3.176517
-0.058459
0.343328
-1.457758
-2.607231
-1.247780
1.817071
9.563802
-0.208516
2.083422
-1.177138
-1.965093
-0.137692
-2.349251
-0.607459
-0.700328
-1.572903
2.195981
4.522603
-2.845225
3.214659
3.128291
2.717407
4.325961
5.255259
-2.714440
-6.505850
2.312481
2.100130
-1.196281
-3.583018
-2.198815
4.061581
-4.109130
-3.540285
3.342608
2.119777
-8.276743
0.828460
1.959363
-0.984689
2.040435
3.510438
5.337050
2.183656
6.136897
3.033174
-3.511423
5.053853
-0.042759
-6.588291
3.410482
-1.276805
-1.210096
-2.187338
-4.923499
-2.051098
1.999710
-0.785238
-4.796541
3.951447
1.756560
2.612317
-3.330617
-7.360882
7.579406
-0.798052
-3.429056
3.252599
4.328337
2.866036
-0.453661
-3.419087
4.171967
-4.046195
-4.695598
2.758091
-1.017049
-7.722134
0.226702
-0.159929
0.273382
-0.908718
11.233542
-0.797748
2.252152
4.304836
-1.565637
-1.037729
1.916513
-3.457917
-1.937951
2.940841
-4.033995
-3.231323
-2.855198
-1.313264
5.741635
6.247584
2.416951
-2.666035
-1.107057
-0.098695
0.954037
2.097878
-3.079911
0.232328
4.432108
-0.445998
2.595547
2.667154
-2.425612
-5.028619
2.074004
2.016136
-1.452857
-1.002817
-5.228404
