0.461717
-0.281381
-0.493240
0.294525
-0.405879
-0.218339
0.142715
0.021998
-0.066125
0.335991
0.123763
-0.411292
0.112291
0.395817
0.282757
-0.307428
-0.234798
-0.213391
0.066337
0.179250
0.240761
-0.043822
-0.006713
0.219983
-0.023800
0.375503
0.751172
0.131386
0.036974
-0.270433
0.022778
0.477874
-0.581295
0.180258
-0.715009
0.094690
0.039302
0.282610
-0.047676
0.239947
-0.242733
-0.689930
-0.270541
0.317903
-0.311442
-0.468311
-0.305783
-0.106380
-0.114167
0.031610
0.243025
-0.086484
0.443321
0.478976
-0.115683
0.503039
0.067216
-0.406399
-0.347698
0.459798
0.205129
-0.359252
0.186900
-0.128362
-0.485141
0.233370
-0.678846
-0.088448
0.064615
-0.436432
0.355164
0.422227
0.166686
-0.576213
0.096191
0.152347
-0.110107
0.447175
-0.066406
-0.609275
0.262596
-0.286218
-0.414425
0.264821
-0.411611
0.131247
-0.285931
-0.151249
-0.132298
-0.069367
0.204251
-0.458056
0.411563
0.355010
0.150472
-0.583391
-0.020179
-0.367304
0.572215
0.220227
-0.482232
0.188358
-0.269065
0.264241
0.298175
0.517099
0.524245
-0.429260
-0.040827
0.262136
0.197456
-0.374134
-0.301245
0.348134
0.210136
-0.164349
0.209201
-0.443161
0.219116
0.453179
0.669713
0.769372
-0.592376
0.044966
0.242315
0.505345
0.181170
0.109880
0.627660
0.116779
-0.683571
0.298458
0.091408
-0.401001
-0.343047
-0.551298
0.083734
0.218946
0.540898
0.415272
0.082120
-0.133237
-0.196911
-0.607891
-0.092068
0.071970
0.014509
0.094358
-0.117996
-0.099478
0.146390
-0.193285
0.636821
-0.185526
0.601434
-0.127645
0.005673
0.898688
-0.298175
-0.277064
0.040169
0.425175
0.758743
0.308166
-0.328951
0.346845
-0.407214
-0.406540
-0.223594
0.378040
0.275097
-0.043083
-0.036341
-0.406796
0.315090
0.141712
0.341513
0.407991
0.071350
-0.369971
0.122673
0.022332
0.082168
0.258095
0.203982
0.124293
-0.629089
0.339001
0.294575
0.052414
0.508573
-0.609539
-0.150064
-0.185695
0.400924
-0.336150
0.293918
-0.309306
-0.131447
-0.486445
0.081096
0.552172
-0.566423
-0.531485
0.373375
0.035319
-0.510460
-0.221424
0.354778
-0.190838
0.065164
0.046620
0.071785
-0.305999
0.079024
-0.172197
0.315734
-0.076497
-0.109786
0.479071
-0.395338
-0.080157
0.186410
0.168442
0.362510
0.384190
0.672267
0.079276
0.055928
0.082772
0.493782
0.419209
0.211059
0.127754
-0.392146
-0.033589
-0.014431
-0.204329
-0.649240
-0.440769
-0.252392
0.131921
0.143139
-0.029465
-0.174653
0.201394
0.381818
0.381223
0.187461
0.249426
0.112260
0.184517
0.125134
0.186484
0.042985
0.032503
-0.273895
0.436645
-0.123279
0.050045
0.613415
0.073804
0.251386
0.290496
0.437085
-0.331552
-0.055801
0.548227
0.216184
0.114287
0.070743
0.361922
0.485780
-0.535084
0.324413
0.017176
0.081863
-0.411679
0.339567
-0.065634
0.143659
-0.390652
-0.058151
-0.345678
0.485984
-0.484098
0.242559
-0.075638
0.351962
-0.294111
-0.463982
-0.446627
0.067677
-0.118730
-0.389946
0.038367
-0.337536
0.084911
0.298913
-0.538126
0.200843
-0.142849
0.001914
0.082404
-0.088640
0.013496
0.238172
0.222015
0.139555
0.052618
0.562343
0.095771
-0.007235
-0.116831
0.003140
0.062836
0.252799
0.003320
0.245468
0.287122
-0.162003
-0.066542
-0.370187
0.141776
-0.465636
-0.110974
-0.079077
-0.434217
-0.069777
-0.452256
0.221170
-0.366502
0.266830
0.533079
-0.271426
0.045137
0.416183
-0.133259
-0.334702
0.150890
-0.196308
-0.030389
0.438168
0.114770
-0.431309
-0.358392
-0.472575
-0.036304
0.284262
-0.076213
-0.438365
0.809864
0.073225
-0.611381
-0.634557
0.374578
0.196475
-0.201244
-0.224727
0.237802
-0.297455
0.242788
-0.023740
-0.387310
0.550586
0.500395
0.089699
0.267804
0.220775
-0.133503
0.020517
0.505848
0.449358
-0.311619
-0.079193
0.174989
-0.203350
0.079021
-0.085423
0.210398
0.024568
0.314060
-0.180417
0.104589
-0.576717
0.029889
-0.013843
-0.171655
0.202146
-0.547237
-0.323184
0.045202
-0.059993
0.322138
0.455134
0.058429
0.423836
0.207174
-0.045506
-0.441185
-0.032776
-0.224445
-0.350484
0.234242
0.429081
0.126904
0.017921
-0.417610
-0.420357
0.489686
0.191505
0.380160
0.525133
0.689027
-0.040492
-0.362933
-0.021919
-0.165674
0.484151
-0.299806
-0.045952
-0.103670
-0.220779
0.279523
0.034945
-0.023113
0.515422
0.023926
-0.531933
0.198842
0.325565
0.091198
-0.409851
0.347965
-0.468065
0.046488
-0.192301
0.044949
-0.034955
0.371835
-0.265994
0.552178
-0.438201
0.469051
0.483769
0.044409
0.286242
0.127118
0.321916
-0.507528
0.192028
0.222843
0.182494
0.464247
-0.335228
0.218304
0.404854
0.322303
-0.129875
0.466602
-0.243849
0.421500
0.292371
0.220981
-0.528371
0.082601
-0.138035
-0.190291
0.449928
-0.369557
-0.076841
-0.265460
0.534973
0.134700
0.435946
0.420575
0.328961
0.200320
0.131872
-0.307135
-0.237078
-0.142703
-0.097653
-0.290773
0.394450
-0.263110
-0.285603
0.090634
-0.590489
0.121592
0.096262
0.272260
-0.223223
0.038585
-0.212518
-0.186069
0.036984
-0.097413
0.290243
-0.189903
-0.342278
0.032515
0.423045
-0.418765
-0.532176
-0.428082
-0.415508
0.188865
0.118426
0.691041
-0.023583
0.154818
0.283133
0.627753
-0.105594
-0.425351
-0.486934
-0.369820
-0.121933
-0.353873
0.708189
-0.743353
0.578827
-0.388474
-0.502998
0.270138
0.609111
0.119644
-0.050496
-0.503068
0.169621
-0.138927
0.048169
-0.145003
0.391381
-0.091616
0.175528
-0.341409
-0.088316
-0.232535
-0.165890
0.120235
0.368278
0.202203
0.704768
-0.203256
-0.394584
0.078754
-0.199977
-0.322283
0.010177
-0.438397
0.146387
-0.469487
0.546526
0.279095
-0.514234
0.108770
0.094867
-0.269038
-0.127747
0.109806
0.170892
0.276318
-0.254941
-0.337043
0.155995
-0.212566
-0.169698
0.524414
0.538078
-0.001743
0.098422
-0.069749
0.079002
-0.372935
0.042314
-0.330061
0.192296
0.457696
-0.251565
-0.401999
-0.381467
0.318704
-0.384741
0.453678
-0.004625
-0.287067
0.035615
0.168829
0.425060
0.324110
0.273183
0.191716
0.179745
0.358449
0.175133
0.013858
0.241647
0.034275
0.166599
0.265200
-0.599714
0.098510
-0.066144
-0.365889
-0.253698
-0.446601
0.809992
-0.518494
-0.473897
-0.225394
-0.168062
0.897074
0.046782
-0.445668
-0.208772
0.179070
0.016891
-0.536289
0.188651
-0.019925
-0.157747
0.071620
0.244283
0.228753
-0.057585
0.218069
0.164397
-0.136879
0.108821
0.015263
0.159754
0.646831
0.476780
-0.023240
-0.147192
-0.082511
-0.027860
0.390443
-0.040275
0.044179
-0.086816
-0.516598
0.147570
-0.136253
0.442640
0.389052
-0.030360
0.110300
0.046953
0.029175
0.535226
-0.030036
-0.261958
0.438578
-0.166572
-0.158169
-0.436132
0.369369
-0.159669
-0.381280
0.328594
-0.339362
-0.259064
-0.135072
0.637082
-0.049243
-0.087189
-0.319286
0.190629
0.345248
0.099234
-0.437005
0.053881
0.503036
0.127743
-0.010204
0.163330
-0.287000
-0.325626
0.157844
-0.688355
-0.174847
-0.340819
-0.361341
0.421144
-0.379459
0.420638
0.340850
-0.130998
0.135325
-0.424335
-0.432514
-0.136869
-0.191208
-0.458339
-0.111336
0.576228
0.528132
0.503448
-0.452931
-0.451947
0.468854
0.365986
0.318307
-0.541152
-0.409217
-0.431161
0.519008
0.098031
0.225451
-0.168265
-0.134968
-0.003611
-0.740230
0.183850
0.198981
-0.136464
0.691128
-0.587427
0.218523
0.160888
0.331892
-0.075093
-0.186227
0.586731
-0.482865
0.419629
0.048338
0.080217
0.352756
0.411264
0.412535
-0.332976
-0.296401
0.046865
0.160688
-0.290091
-0.585366
0.369946
-0.055555
-0.057233
-0.023056
-0.000342
0.080684
0.271522
-0.369860
-0.001605
-0.501636
-0.503382
-0.347100
-0.397148
0.405750
-0.435702
-0.093428
-0.505125
0.022357
-0.096804
-0.597550
-0.363050
0.265878
0.480996
-0.576662
-0.263337
-0.132525
-0.023523
-0.289407
0.426756
-0.259624
0.228540
0.019383
-0.165086
0.605506
-0.043116
-0.806911
-0.175274
0.509610
-0.697355
-0.256673
0.015698
0.547479
0.545699
0.157048
0.285277
0.000726
-0.359711
0.128409
-0.277319
0.028972
-0.371590
0.115885
0.723616
-0.059834
0.081229
0.295579
0.242617
0.466658
-0.022403
-0.433377
0.616644
-0.278771
0.283360
0.462603
-0.326280
-0.068465
0.146771
-0.159465
-0.017630
-0.538093
0.000534
-0.297777
0.154669
-0.512277
-0.034978
0.319616
