-0.299957
-0.164043
-0.229145
0.022605
-0.198431
-0.276465
-0.252146
0.503356
-0.676379
-0.017108
-0.163388
-0.011014
0.016791
-0.581477
0.274457
-0.367331
0.522221
-0.104494
-0.515015
-0.059893
0.267055
0.052970
0.032235
0.366012
-0.169924
-0.535038
0.226518
-0.201397
-0.169561
0.456199
0.098186
-0.151814
-0.108286
0.271902
0.218063
0.214664
0.225364
0.361866
0.080473
0.282316
0.001627
0.570940
-0.250046
0.182503
-0.654507
-0.401312
0.303791
-0.000172
-0.050318
0.042834
-0.149706
0.443053
-0.076602
-0.092546
0.166408
-0.367547
0.506580
0.003061
0.188263
-0.416416
-0.216854
0.273269
0.181898
0.137271
0.499928
-0.434819
-0.060085
-0.117083
-0.292856
-0.582275
-0.311897
0.049385
0.179663
-0.106191
0.696668
-0.340708
-0.096389
0.240211
-0.461716
-0.451406
0.578021
0.303972
-0.328800
0.496629
0.065391
0.364845
0.421535
0.392475
-0.015417
0.179046
-0.109183
0.448887
-0.238098
-0.301760
-0.372984
-0.121957
0.028800
-0.166976
0.880008
0.408837
0.628807
-0.305286
-0.284214
0.281355
-0.443831
-0.541544
0.319293
0.397978
0.334438
0.221774
-0.103571
0.159851
0.038905
-0.111872
-0.298417
-0.106638
0.590372
-0.142043
-0.156282
-0.625644
0.226530
0.197250
-0.502167
-0.181195
-0.495459
-0.311670
0.338747
0.395156
-0.369656
-0.362728
-0.544637
-0.364093
0.008560
0.036914
-0.366875
-0.018644
-0.058184
-0.105138
0.331378
0.172414
-0.137667
-0.287326
0.040730
-0.596991
-0.331191
-0.182388
-0.390326
0.535072
0.611408
-0.380979
0.151699
-0.133122
-0.089152
0.090078
0.590560
0.653187
-0.481294
0.181205
0.049207
-0.462217
-0.375326
0.119267
0.175563
0.262441
-0.099851
-0.068616
0.156936
-0.342410
-0.248081
0.065718
-0.084892
0.347439
0.055908
-0.278670
0.095303
-0.295741
0.600586
-0.057357
0.394008
0.085581
-0.187547
-0.153305
-0.160326
-0.331219
0.085659
0.316470
-0.163346
0.287877
-0.375144
-0.020627
0.487648
0.489032
-0.584902
0.106894
0.228559
0.056975
-0.230330
-0.707175
-0.304012
-0.337791
-0.100017
-0.078964
0.543122
0.208902
0.167122
-0.032650
0.276789
-0.301666
0.055260
0.491895
0.360662
-0.021089
0.630011
-0.410500
-0.537572
-0.162387
-0.050439
-0.282170
0.107356
-0.173169
-0.138221
0.048526
-0.409888
0.015571
-0.574605
-0.316074
0.474113
0.233927
0.023019
0.433640
0.561113
0.399480
-0.205919
-0.210652
0.609061
-0.529018
-0.171182
-0.151560
-0.544966
0.053558
0.125425
-0.497229
-0.258852
-0.076740
-0.525203
-0.196061
-0.045123
-0.420266
0.530684
-0.025273
0.570122
0.126624
-0.231668
0.301070
0.723034
0.126731
0.286881
0.182625
-0.150954
0.106727
0.516422
-0.339990
-0.324786
0.580662
0.013584
0.116986
-0.365000
-0.258472
-0.043810
-0.342598
-0.268679
-0.051959
0.589673
0.541882
0.324413
-0.344320
0.023320
0.177084
0.472968
0.614862
-0.214521
0.146292
-0.369488
0.024580
-0.075884
0.515848
-0.670908
-0.116233
-0.440018
-0.171480
-0.009402
0.020656
0.184820
0.328002
0.387647
0.322209
0.493778
0.132543
0.145940
-0.538126
0.251956
0.356086
0.105057
0.064008
-0.072140
-0.314991
0.474284
0.439934
0.277179
0.495743
-0.113550
0.216128
-0.630474
-0.346510
-0.018590
0.165883
0.333889
0.489087
0.251722
-0.228485
-0.357614
0.142783
-0.029906
-0.031761
-0.098310
-0.585261
0.219651
-0.664753
-0.312480
-0.142737
0.077937
-0.301024
-0.338780
-0.440626
-0.265260
0.314310
-0.128445
-0.017171
-0.257730
-0.042954
-0.374064
-0.012884
0.665342
0.365736
-0.011430
0.251661
0.221787
0.054548
0.266758
-0.482629
0.017726
-0.178069
0.176138
0.402563
-0.018738
-0.016973
0.143789
-0.301439
-0.525483
0.132000
-0.149564
-0.363922
-0.306506
-0.187408
0.280270
-0.067012
-0.350319
0.331786
0.168680
0.161382
-0.074601
-0.448699
0.407463
0.348533
-0.101968
0.002020
-0.332508
0.310021
0.061094
-0.223624
-0.080396
-0.262856
-0.309789
-0.131065
-0.472544
-0.587741
0.610788
0.173062
-0.470108
-0.167646
-0.046517
-0.248367
-0.028875
0.484743
0.459381
-0.157644
0.063403
0.116744
0.178413
-0.393931
-0.196803
-0.345182
-0.457410
-0.164040
0.237246
-0.443438
-0.054266
-0.404010
-0.014042
0.055933
-0.282088
0.409937
0.506601
0.558806
-0.325116
0.056918
-0.067643
-0.185218
-0.126099
-0.108683
-0.037521
0.704048
0.344782
0.251484
0.153041
0.328658
-0.620395
0.074086
0.253442
-0.608235
0.038237
-0.289997
-0.346593
0.550614
0.167191
-0.364206
-0.162143
0.423990
-0.398505
0.316379
0.399643
0.529273
0.100151
-0.629535
0.384858
-0.035546
0.013048
-0.081274
0.054685
-0.520450
0.349946
-0.611457
-0.330951
0.086125
0.170808
0.240472
-0.207411
0.281885
-0.023852
0.368552
-0.407109
0.452486
-0.328822
-0.098163
0.296983
-0.145204
-0.327544
0.191911
-0.402476
-0.208837
0.268455
-0.144415
-0.698550
-0.481124
-0.021902
-0.328786
-0.286085
0.934079
-0.439766
-0.284800
0.167725
0.272504
0.267692
-0.048850
0.388144
-0.490802
-0.365681
-0.464745
0.195244
-0.081925
0.185085
-0.411614
0.417901
-0.141465
-0.101871
-0.309931
-0.242584
-0.064122
0.219573
0.600981
-0.512536
0.259194
-0.093079
0.021352
-0.464829
0.265971
-0.122218
-0.235121
0.039695
0.198459
-0.375946
-0.575015
-0.489922
0.679656
-0.430927
0.445281
0.473439
-0.251288
0.501295
0.161324
0.517519
0.041055
0.201010
0.052082
0.402038
0.108767
-0.245648
0.038938
-0.522790
0.223688
-0.652611
-0.225765
-0.351464
0.436605
0.430475
0.192343
0.135516
-0.173502
0.380280
-0.256823
-0.235650
0.217735
0.257861
0.674608
0.066561
0.037883
0.175168
0.162095
0.017744
-0.323277
0.186184
0.434115
0.288572
0.468921
-0.054057
-0.316335
0.188840
0.525413
0.288402
-0.048082
-0.328063
-0.251269
0.402488
-0.095515
-0.451516
-0.324806
0.619982
-0.303134
-0.028701
-0.401468
-0.524373
-0.156707
0.227458
0.055454
-0.092621
0.238923
-0.322629
0.414439
-0.198941
0.620403
-0.548891
0.230333
-0.727859
0.568456
0.371819
-0.226654
0.201406
-0.433005
-0.059411
-0.207183
0.265015
-0.462870
0.124836
-0.336823
-0.511623
-0.762402
0.458146
-0.407446
0.351582
-0.221697
0.169301
-0.548145
0.132569
0.358335
-0.186656
-0.066700
-0.413726
-0.374020
-0.473350
0.390191
-0.279730
0.016268
0.647627
0.723051
0.164193
-0.532995
-0.330725
-0.081963
-0.055344
0.416406
0.310188
-0.418892
0.100857
-0.172877
0.124979
0.100185
0.386138
0.536117
-0.628713
0.249223
-0.144019
-0.030922
0.188125
-0.130330
-0.483233
0.455338
0.611467
-0.338460
0.560484
0.538806
0.107844
0.163279
0.043929
-0.065470
0.687428
-0.303825
0.392205
-0.190530
0.110144
-0.494682
0.225880
0.360125
0.662772
-0.505622
-0.203876
0.327436
0.104850
-0.229019
0.255220
-0.062529
0.375376
-0.650918
0.272121
0.038817
0.288319
-0.286642
0.129295
0.381663
0.192125
0.577818
0.606626
-0.522382
-0.313544
-0.078512
0.322419
0.050858
-0.257449
0.002853
0.326268
-0.042823
0.391447
0.466349
-0.356271
-0.517511
-0.220953
-0.304127
-0.589528
-0.168686
-0.202556
0.457022
0.173353
0.099941
0.193811
0.342911
0.479779
-0.528613
0.098805
0.461554
0.054979
-0.029089
-0.270249
0.401491
-0.404906
0.275304
-0.073206
0.318307
-0.514129
0.410762
0.153070
-0.358845
-0.124600
-0.710489
0.260326
-0.157380
-0.289790
-0.771776
-0.432825
-0.423240
0.099174
0.225729
-0.062942
0.073779
0.185070
-0.426144
0.318865
-0.148827
-0.143627
-0.540096
0.316610
-0.154042
-0.274025
-0.280339
0.331226
0.392610
0.513933
0.114889
0.371914
-0.010897
-0.432929
-0.300795
-0.211554
-0.609004
-0.104492
-0.355194
0.445259
0.576235
-0.162615
-0.198897
0.502674
0.652965
0.247593
0.386499
0.097045
0.387370
0.356958
-0.366146
0.163170
-0.680415
0.116833
-0.236229
-0.328070
0.173928
0.326416
-0.572118
-0.224299
0.010989
0.072464
0.162360
0.527205
-0.252638
0.363832
0.435056
-0.027806
-0.252424
-0.061726
0.346519
0.509148
0.357441
0.101071
0.552476
0.889310
-0.263446
-0.177453
-0.602376
0.038430
-0.250437
-0.408091
0.284799
0.082944
0.474805
-0.218289
-0.413384
-0.035536
-0.018910
-0.596445
0.228534
0.629941
0.018825
0.526467
-0.420364
-0.483917
0.451768
-0.215307
0.348605
0.072349
0.204628
-0.702339
-0.578142
0.005292
-0.008212
-0.415141
-0.044936
0.240344
-0.262660
-0.009672
0.530706
