-2.446087
1.760517
-1.820258
-1.209789
0.856759
-0.295038
-0.436494
-2.270312
2.031494
1.130646
1.276561
-2.093894
-4.778243
-2.314097
2.747707
-3.009874
0.390041
-2.014730
1.545460
2.057983
-0.707612
2.420359
1.679559
-1.836494
-2.040864
1.491841
3.510571
3.961228
0.570799
2.291346
1.025003
3.263489
-1.878103
-1.701158
2.027932
-0.949115
-4.471541
-1.915347
1.236770
0.835718
-0.357568
0.825928
2.041881
-2.035986
-3.852538
-2.083985
0.778242
-0.229930
-1.733337
-0.524400
0.427150
-0.718389
3.931053
2.455605
-2.354439
-0.872870
-0.504983
-0.546074
-2.719504
-1.197869
-2.005249
1.042248
1.506885
2.470716
1.700184
1.081117
3.907226
-0.406404
-4.003651
1.591273
2.389884
0.685346
2.629168
-0.220546
-1.021671
-1.994722
0.670759
0.568038
1.144487
-1.489674
0.800333
0.623814
-0.627515
-1.405326
1.245706
4.227457
-1.960460
0.657351
-0.599101
-2.684009
-0.575912
1.167761
-0.697599
-2.138672
-0.653645
0.655828
0.839902
2.265871
-0.589558
0.789629
-2.003441
-2.261218
2.205237
0.068635
-1.627138
-1.766524
1.653964
-0.658021
1.816405
3.838842
-2.959113
-3.313090
-0.318356
0.865336
-2.827874
-1.285172
1.188761
-2.950609
2.169003
-1.963741
-2.038363
-3.463809
-0.672062
1.432474
0.100801
-0.045837
-2.042173
-2.705534
-1.903268
-1.761148
1.712847
-0.546523
2.082484
5.380883
-0.749681
-2.399308
-0.188902
-1.502915
-0.925768
2.168109
2.274903
-2.532987
-0.093446
1.910071
-0.486664
1.182521
5.197088
-1.010176
-0.112153
-2.062018
-0.892917
-0.370761
-0.963534
3.012514
-4.028589
-0.781752
0.683317
1.829800
1.353331
-0.591593
-1.958188
-1.064143
-0.901767
1.551461
-0.748750
3.955668
3.803680
-3.834099
0.758274
4.159415
-0.210453
-0.783702
-1.299089
0.051917
-0.413762
0.459889
0.815373
0.494373
-0.843901
0.321450
-1.414830
0.568838
-0.623988
2.467495
-1.544437
2.268669
-4.021131
3.722137
-2.409136
-0.489495
-0.696164
0.723754
1.708081
1.201291
-1.114845
1.265222
-3.793796
1.171499
-2.031317
-2.661980
0.655149
2.397312
-0.253431
-0.867537
-4.483284
-1.275681
2.650559
2.965483
0.419179
-1.278293
1.728373
-0.589039
-2.701093
0.012634
-1.171956
-0.524389
1.757793
-0.411137
2.662649
-1.777398
-0.887332
-4.100963
3.673467
-1.528159
-0.515093
-0.054483
-4.875207
0.647131
-2.934432
-1.833467
-3.766874
0.582886
1.993854
0.035212
-0.214001
0.270585
-0.970981
0.108483
-3.013214
0.853041
-0.484452
0.916687
0.704662
0.502101
-0.159033
2.402004
3.792877
-5.026120
3.729674
0.136171
-1.723034
-0.065862
-1.876998
1.479122
-1.829260
-1.540663
0.407724
1.428658
-2.122245
-2.368859
-2.279293
-1.385396
0.570010
-0.444259
4.974725
-0.799567
-0.414780
1.214491
0.253365
3.085916
-3.240474
0.419351
-2.103455
-1.256966
2.815738
-1.231587
0.009334
4.139090
-1.302773
-0.052433
0.491835
-0.791717
0.329790
0.879256
1.121304
0.369522
2.230935
-1.470799
1.530917
0.128012
-0.521514
-2.398347
1.318970
3.640570
3.546855
1.195639
0.701717
-5.346082
-4.514079
2.084321
-0.254314
-1.141408
1.073981
0.534068
3.164755
-1.575380
-2.988512
-1.381294
-0.461868
-0.587826
5.540915
-3.822566
-2.883238
-0.869922
3.441325
2.922580
0.353574
-5.844757
4.571464
-4.157051
-1.748855
-0.284075
0.137725
-1.650296
1.506428
-0.242696
-0.083184
2.277288
-3.182110
1.863690
-3.080946
-3.456887
-1.536722
-2.137204
1.161470
0.724014
0.079940
-5.216908
-0.052627
-2.620207
-0.578177
-1.260000
0.256081
0.784405
4.693496
1.680078
0.076509
0.604729
-0.994200
-1.774987
1.678912
1.871013
-3.370358
-1.791167
-0.780444
2.598726
-0.907003
-3.879634
-2.370016
-0.545629
0.382047
-1.182784
-2.629542
2.954156
0.082740
3.271580
0.526175
0.437580
6.048325
-0.266962
-0.827803
-0.152609
-1.132060
1.015268
-0.216005
3.242758
0.099078
-2.610791
1.204307
-0.077087
2.224164
-0.594992
-0.265425
-1.479818
-1.397241
-0.311478
5.775724
1.998582
2.563576
0.116652
-0.833757
2.879067
0.509245
3.020936
2.685812
-0.101723
-3.698355
-0.003297
2.402908
3.955738
-1.896096
-0.799354
2.207260
-1.821076
1.643750
-3.226821
-0.192557
1.583944
4.090007
1.036804
-2.203092
0.128534
-0.725652
-2.761052
-1.461153
0.615965
1.814804
-3.149799
0.604671
1.390829
-0.185968
-4.350846
0.864055
2.635463
1.049566
-0.237932
1.764026
-1.959174
-1.240971
-0.808313
-2.400746
2.125463
2.040169
-0.570750
-3.058866
2.914778
4.596886
1.966832
0.163901
-3.562868
3.463417
0.702829
-0.552553
0.629548
1.054235
-2.152576
-1.818244
-1.542172
-0.004080
3.331050
-1.999973
1.043969
-0.702775
3.019646
1.354404
-0.842262
0.699753
-0.030476
-2.412399
1.154263
0.489914
-3.819859
-1.970460
0.034421
0.625032
1.174044
-0.395391
1.137891
3.203556
0.303836
1.602828
-2.362342
-0.375974
-0.030080
1.479855
1.256581
-1.987286
1.047197
0.607540
-0.223325
0.930356
-0.019722
2.041280
-2.047225
1.302516
-2.351444
-1.735594
-2.388025
-2.623456
-2.348907
-1.087303
-2.048803
-0.958968
-0.852904
0.921567
-1.134476
2.975810
2.467201
0.404768
-0.333730
1.387729
-1.389436
-0.344788
0.935978
1.137710
1.581171
-2.433279
0.653044
1.541056
0.877494
1.122101
-1.130833
-3.379400
-1.191070
-1.501383
0.669537
1.756341
1.040543
1.278709
1.245432
-1.690674
-0.190130
2.964687
-0.594055
1.122742
2.091536
-0.204604
-0.413812
-1.204925
3.638271
-3.952838
1.349481
0.993598
-0.923154
-0.029041
-1.400092
-2.486410
-3.867935
1.659533
0.946886
0.736830
2.374107
-0.062478
2.213364
-2.156853
2.063428
-0.933016
-3.271009
1.123710
-0.700644
-1.637097
-0.766032
-2.421551
1.076197
-0.210620
-2.598167
0.355027
-1.363577
-0.454978
1.380517
1.798339
-4.047159
-1.160678
1.623808
1.422099
-1.846951
-1.562907
-0.466416
-0.480744
-1.277503
-1.153295
-0.423246
2.147612
-1.805551
1.123441
1.477804
1.036227
-0.768979
2.295199
2.200457
-1.290565
1.250825
1.285484
-1.400805
2.437439
1.140575
-1.677750
-1.420190
2.132782
1.017398
-2.046076
-2.437310
-0.549446
2.873567
-1.047157
0.658477
1.150612
-3.493051
0.115404
1.551673
3.225240
-0.758348
-0.408995
3.171903
-1.498434
-0.178861
2.996629
1.248137
2.790172
1.879103
0.460386
3.990831
-1.319278
-2.715011
0.718515
-0.822039
0.568817
3.037526
2.802051
0.107313
2.725123
4.281630
2.631231
-0.587970
1.216732
1.768625
-1.016423
-3.439672
-0.595076
-1.392638
-1.789400
-1.696881
-2.253671
3.394317
3.164906
2.193382
1.918809
-3.163819
0.126609
-0.257472
0.233293
-2.091458
-0.211272
-0.524948
-1.041533
0.431568
1.221014
-1.657594
1.651092
-2.219323
0.450449
-1.046587
-1.343706
-0.429496
0.558580
-0.687876
-4.165704
4.482552
-0.289233
0.613710
-0.660319
1.257818
0.945763
0.941472
-0.223635
-3.264611
1.032495
0.156584
-2.053747
3.955460
0.935261
1.461628
0.839262
-3.041470
1.404509
-1.294283
-1.739327
0.593501
-0.790041
-0.347637
3.828999
1.458839
0.159595
1.202140
0.532059
-1.745592
1.187555
-0.073103
-0.868792
0.375564
-0.730766
-0.309573
0.892243
0.545971
1.305368
1.922390
0.413525
-1.883469
-1.898543
-2.715193
-0.129034
-3.059637
1.867438
0.109737
1.381606
-1.689366
0.270292
-2.467487
0.673463
0.866466
-1.141230
-2.980945
-1.268731
0.589902
0.052817
-0.648800
0.356202
-1.376501
-0.188701
-2.423739
-1.566530
3.968334
0.822340
-0.067633
-0.574119
-0.895810
0.158190
0.861174
-1.714196
-1.752617
0.237672
2.527610
-0.806674
1.764933
2.549657
-0.108625
0.321745
-0.681631
-1.767316
-0.047080
-2.309661
-1.400901
-0.145500
-0.726114
0.077797
-1.375526
-1.291517
-0.392838
0.104085
-0.175081
2.130797
-1.510868
-2.237771
2.909693
2.688347
0.350300
1.403158
0.633666
0.450618
-0.923137
-1.698696
-1.451147
-1.506732
0.126612
-1.371822
1.221318
-3.098853
-0.086049
3.273760
0.595342
-1.024935
