-0.186665
-0.165284
-0.224720
-0.470097
-0.187692
0.205714
0.390547
-0.014658
-0.299080
0.395729
-0.029531
0.118777
0.371119
-0.138708
-0.035220
0.211654
0.334108
-0.637935
0.000824
0.566979
0.243961
-0.467104
0.047374
-0.037606
0.227760
0.342970
0.113598
0.135076
-0.559173
0.013990
-0.113311
-0.192880
-0.219135
-0.254185
0.382266
0.090525
-0.159292
0.100786
0.046103
-0.412386
-0.498936
-0.291320
-0.077340
-0.277648
-0.041186
-0.306532
0.445867
-0.509425
0.179602
0.016904
0.014550
-0.286372
0.119812
-0.001227
0.084320
0.490997
-0.465762
0.051133
0.386784
0.386435
0.436997
-0.344357
0.120466
0.485956
-0.034495
0.373750
-0.500883
-0.237766
0.232877
0.178205
0.099198
0.026652
0.288452
0.565478
0.253415
0.116222
-0.126600
0.020233
0.233492
-0.443308
0.164374
-0.313155
-0.571379
-0.273820
-0.479480
-0.237748
-0.226049
-0.038991
0.462440
-0.046055
-0.060579
0.262123
-0.809922
-0.370806
0.202393
-0.618768
-0.393104
-0.140131
0.188198
0.559053
-0.025916
0.194948
0.346447
0.611444
0.400824
0.654431
-0.331900
-0.428850
0.015199
-0.496213
0.204079
0.589970
0.375902
0.057706
-0.318460
0.339714
0.310674
-0.189329
0.067471
0.140865
-0.183502
0.062756
0.021591
-0.429963
-0.017147
-0.317365
0.191624
-0.208654
-0.042538
-0.260834
-0.428586
0.526984
-0.199204
0.159471
-0.325052
-0.307074
0.030709
0.314626
-0.416734
-0.353329
-0.174244
-0.273956
0.109779
-0.136386
-0.648640
-0.227335
0.119086
-0.468565
0.386749
0.072543
0.271939
0.163912
0.057308
-0.109311
0.252880
-0.421551
0.518035
0.295404
0.143710
-0.311581
-0.574690
-0.005480
0.337251
-0.884898
0.217446
0.264068
0.239109
-0.136704
-0.573294
0.200280
0.134234
0.532106
0.350043
-0.320115
-0.190566
-0.677950
0.535514
-0.130521
-0.042792
0.038271
-0.409948
-0.148794
0.254547
-0.335246
-0.210748
0.018860
-0.084811
0.662910
-0.037107
0.022468
0.594292
0.478493
-0.329875
-0.186757
0.007069
-0.371377
0.068427
0.124745
-0.483212
-0.549279
-0.194493
0.224930
-0.356904
-0.588016
0.193777
0.155399
0.140164
-0.025181
0.499201
-0.107763
0.505381
0.305797
-0.212775
-0.240321
0.004064
0.199502
0.226589
0.284219
0.393208
0.355533
-0.133456
0.428243
0.180919
-0.356923
-0.498293
-0.532415
0.167273
-0.511440
0.208066
-0.489808
0.138452
-0.357525
-0.104108
0.127754
0.681656
-0.260339
0.270946
0.216500
0.205967
-0.341237
0.402283
-0.524704
0.391433
-0.191557
-0.583592
-0.006575
-0.240659
0.134667
-0.140438
-0.085507
-0.022922
-0.199628
0.576658
0.408715
0.217208
-0.325540
-0.144162
-0.213537
-0.124977
-0.246324
0.199221
0.148674
-0.367988
-0.249453
-0.280371
0.335602
-0.530882
-0.055589
-0.108804
-0.024356
-0.218925
-0.205876
0.188972
-0.496659
-0.350559
-0.711459
-0.084839
0.176725
-0.223360
0.485294
-0.206748
-0.023054
-0.054732
0.335677
-0.031328
-0.403998
-0.620305
-0.111627
-0.435024
0.084558
-0.036145
0.438374
-0.131093
-0.447143
-0.560692
0.427776
0.350285
-0.069510
0.207287
0.314922
0.293011
-0.533344
-0.470596
-0.284912
0.228753
-0.134724
-0.394679
-0.735742
0.166826
-0.257538
-0.042911
-0.189211
0.073289
-0.086997
0.233084
-0.431053
-0.481796
0.309463
-0.411600
-0.123335
-0.022529
0.414899
-0.207682
0.017017
-0.298176
-0.238871
0.118619
-0.304790
0.009438
-0.123701
0.080695
-0.658684
-0.013260
0.262021
0.164427
-0.041042
-0.355503
-0.158238
0.268067
-0.159654
-0.414472
-0.110345
0.035340
0.056917
-0.123263
0.536077
-0.156571
-0.084048
-0.355355
-0.150292
-0.157045
-0.711957
-0.113830
0.193365
-0.271338
0.168523
0.046291
0.074347
0.339189
-0.072162
0.478881
0.385043
-0.064869
0.615272
-0.039768
-0.045280
0.062252
-0.719408
0.375811
-0.469152
0.345904
-0.015713
-0.058631
0.340162
-0.193258
0.043038
0.031463
-0.145777
0.279833
0.069425
-0.208817
0.083424
-0.413660
-0.045311
-0.073937
0.404778
0.278628
-0.270869
0.157269
-0.459569
0.046404
-0.401136
0.331833
-0.195763
0.620271
-0.135024
0.339972
-0.064425
0.283281
-0.193949
-0.359250
-0.414088
-0.203642
0.522506
-0.239896
0.500941
0.145676
-0.513361
-0.211509
0.288480
0.090309
0.394488
-0.500780
0.548889
-0.333114
0.085171
-0.095530
0.312330
-0.257630
0.019815
0.314564
0.262266
0.270550
0.568121
0.335869
0.335829
0.295983
-0.128444
-0.186134
-0.479253
0.015363
0.087356
0.434974
-0.360503
-0.292192
0.200910
0.069269
0.061402
0.139119
0.806099
0.276179
0.199474
0.401372
-0.284694
0.357281
0.411871
0.188597
-0.578650
-0.645240
-0.377611
-0.381130
0.069739
0.071874
0.376385
0.394078
0.106457
-0.126972
-0.662420
0.529115
0.280581
0.423002
-0.133066
-0.592093
-0.021948
-0.316258
-0.011094
-0.029326
-0.359884
0.008644
-0.477476
0.219151
-0.538737
0.357625
0.536900
-0.559984
0.292968
0.456561
0.109823
0.154247
-0.210470
0.745707
0.274662
-0.408770
0.145254
-0.026894
0.109393
-0.245255
-0.086333
-0.023643
0.084343
0.451022
0.391377
0.184716
0.473548
0.180688
0.201946
-0.349020
-0.056443
-0.151502
-0.095304
0.017421
0.382029
-0.301527
0.429574
-0.255147
0.169160
0.459731
-0.561602
-0.534092
-0.194455
-0.496131
0.248041
0.250020
-0.477796
0.339217
0.649091
0.348807
-0.038532
-0.256205
0.154553
0.256207
0.330319
0.179415
0.065564
0.369979
0.258432
0.064249
-0.036591
-0.438030
0.146157
-0.434292
-0.223219
0.052670
0.264469
0.269762
0.318532
-0.235260
-0.261229
-0.362127
-0.593321
0.055240
-0.601475
0.338636
-0.410637
-0.085582
0.477089
0.001158
0.034733
-0.195685
0.059198
0.394609
-0.397002
-0.358763
-0.261021
-0.162671
0.103743
-0.196983
-0.220337
-0.435868
-0.227593
-0.215800
0.377838
0.270705
0.076874
0.306445
-0.281934
-0.244504
-0.306118
-0.193143
0.298560
-0.111852
0.585357
0.133911
0.153335
-0.213641
-0.509035
-0.510918
0.238723
-0.412690
0.413961
0.239785
-0.094505
-0.196608
0.478700
-0.865363
0.029856
-0.439936
0.399289
0.471304
0.243932
-0.159183
-0.268786
-0.251300
0.200161
0.270570
-0.154847
0.345612
-0.166406
0.294240
0.311436
0.461480
-0.751361
0.409635
0.813903
-0.601789
-0.305226
-0.061705
0.104648
-0.123757
0.503939
-0.280951
0.028296
0.188808
-0.716719
0.180232
-0.141522
0.500655
0.175577
0.492979
0.246601
0.432940
-0.125268
-0.389489
0.212060
-0.127467
0.131211
-0.002019
-0.077684
0.512638
-0.230940
-0.246378
-0.234506
0.377617
0.475904
0.469776
-0.109077
0.442837
0.096702
0.561009
0.154363
0.154008
0.008627
-0.228471
0.474643
-0.045512
0.091574
0.216513
-0.514258
0.411818
0.333064
-0.298420
-0.145392
0.033478
-0.194408
-0.391332
-0.570354
-0.317708
0.128776
0.164970
-0.293180
0.061721
-0.131688
0.167704
0.391619
-0.256631
0.209237
-0.583216
-0.271472
-0.174353
-0.548906
-0.211525
-0.358010
0.270736
-0.051454
0.265755
-0.009729
0.330130
-0.448289
0.266338
0.113635
-0.282001
0.114282
-0.402483
-0.238566
-0.387480
-0.062401
-0.305714
-0.320456
0.074269
-0.007514
-0.033307
-0.294437
-0.025015
0.007855
-0.140550
-0.070026
0.237451
-0.183613
0.196254
0.137881
0.042617
-0.740555
0.186550
0.207354
-0.169397
0.539240
0.085177
-0.032013
0.591583
0.285160
0.100315
0.103816
0.111720
-0.003225
0.143136
0.377431
0.196287
0.101805
0.087791
0.030872
0.109401
-0.544346
0.174017
0.152506
-0.064165
0.348358
-0.530404
0.128628
-0.208017
-0.003812
-0.517554
-0.181782
0.005802
0.492821
0.196918
-0.085706
-0.408925
-0.294877
-0.328827
-0.185847
0.152539
-0.095365
-0.035314
0.339986
-0.644298
0.641277
0.221217
0.182397
0.288488
-0.093688
-0.378253
-0.085609
-0.539795
0.409285
-0.411036
-0.236680
-0.670639
-0.371478
-0.037732
-0.085496
-0.304604
-0.044043
-0.242589
-0.042204
0.153852
-0.602082
-0.428821
-0.040897
-0.114582
-0.040680
0.373224
0.320228
0.118761
0.292150
-0.098392
-0.235496
-0.182168
0.238477
-0.391648
-0.296373
0.491509
-0.235990
-0.218760
-0.219144
-0.134436
-0.238635
-0.139413
0.198275
-0.284318
-0.391395
-0.097506
0.169503
-0.212695
0.536000
0.020402
-0.137884
0.485702
-0.448864
0.470944
0.357839
0.054765
-0.085281
0.473797
0.212429
-0.220651
-0.451167
0.343160
-0.907392
0.394443
0.528579
0.045711
0.072899
-0.190395
0.165714
0.434074
0.395819
