-0.505537
0.404736
-0.102467
0.236080
-0.376038
-0.258508
0.080921
-0.161667
0.211994
0.417316
-0.016090
-0.350387
0.731315
-0.085812
-0.381780
0.365780
-0.173352
-0.058997
-0.328667
0.004066
-0.173911
-0.288079
0.245015
0.498017
0.245450
0.054614
0.751172
0.070227
-0.075497
0.249560
0.293742
-0.323316
0.214982
-0.247557
-0.101894
0.164066
0.525531
-0.508663
-0.207137
0.314447
0.114166
-0.074439
0.197735
-0.071275
-0.311442
-0.149170
0.411481
-0.125065
-0.143279
-0.294237
-0.013460
-0.156938
0.171086
-0.318498
0.093806
0.184742
0.302637
0.081416
-0.347698
0.419765
-0.359617
-0.316205
0.057473
0.282888
-0.056176
0.151870
-0.490568
0.025933
0.146145
-0.552403
0.434329
-0.359570
0.174457
0.475331
0.496805
0.451301
0.474141
-0.295355
0.526944
-0.516879
0.248860
-0.367132
0.460605
-0.529959
-0.284703
0.268268
-0.415946
0.210003
-0.277634
-0.578754
0.289589
0.625606
0.006840
-0.054612
0.090093
-0.653851
0.084057
-0.054604
-0.632775
0.450021
-0.340145
0.239496
-0.029028
0.151208
0.461324
0.022630
0.469879
-0.910993
0.063288
0.197200
-0.089634
0.459773
0.319825
-0.231230
0.367490
0.405166
0.074489
-0.140522
-0.132681
-0.329775
-0.458133
-0.248235
-0.066202
-0.526469
0.520277
0.344732
-0.193364
0.157133
0.023936
-0.179597
0.549158
-0.288062
0.240418
0.167748
-0.271339
-0.686065
0.486625
-0.313205
0.566373
-0.641529
-0.330273
0.107939
-0.179642
0.009964
-0.074593
0.572288
-0.264118
-0.582517
0.514405
0.380014
0.089944
0.296882
0.044566
-0.076744
0.058579
-0.494594
-0.127557
0.099117
0.306943
-0.531712
-0.435627
-0.042524
0.292985
-0.213311
0.302931
0.523432
-0.337881
-0.158000
-0.279394
0.223417
0.049093
0.018579
0.008039
-0.308783
0.310570
-0.151401
-0.252672
0.217452
-0.057630
0.261994
-0.139185
0.028079
-0.375046
-0.350580
-0.418703
-0.197794
0.376691
0.294555
-0.176945
0.303229
-0.337169
0.449041
0.007469
-0.312627
0.245705
-0.551366
-0.088472
-0.008762
-0.286055
-0.315822
0.346730
-0.413162
0.468836
-0.217889
-0.349144
0.395436
-0.194495
-0.090816
0.416820
-0.066948
0.131951
0.238219
0.102760
0.100699
0.200810
0.326048
0.208436
0.157592
-0.109786
0.611914
0.362744
0.487618
0.604071
0.257148
-0.096220
0.855354
-0.071935
-0.158427
0.138220
-0.199188
-0.382108
-0.631108
0.196930
-0.152164
0.164547
-0.321948
-0.183626
-0.438486
-0.026264
-0.453648
0.428105
-0.445348
-0.325020
0.207854
-0.296773
0.428107
-0.321440
0.566746
-0.226282
-0.138817
-0.115066
-0.011912
0.156270
0.006952
-0.014254
0.273078
-0.186778
-0.137392
-0.484415
-0.414135
0.435242
0.106966
0.346174
-0.565182
0.176706
-0.212703
0.186540
0.515406
-0.073313
-0.402570
0.566661
-0.018943
0.433262
0.476015
0.324413
0.508995
-0.420476
0.135447
-0.300255
-0.185080
0.556485
-0.442621
-0.439569
0.326828
0.264301
-0.488457
-0.097276
-0.306915
0.368593
0.079864
-0.092456
0.117864
0.060062
0.378803
-0.495438
-0.008727
0.643217
0.086731
0.545382
-0.041886
0.340474
0.103037
0.308571
0.300419
0.415390
-0.342369
0.380093
-0.023540
-0.532471
0.421783
-0.671391
-0.137062
0.205101
-0.052317
0.283707
-0.821461
-0.062001
0.234305
0.369091
-0.161923
0.440314
0.056339
-0.410878
-0.127175
-0.110852
-0.116207
-0.417845
-0.382120
0.168846
0.226334
0.070594
-0.058332
0.201138
0.436828
-0.099053
0.228053
-0.248859
0.441430
-0.211014
-0.151834
-0.296628
-0.708306
0.586987
0.233041
-0.059662
0.315081
0.070478
0.487495
-0.443440
-0.280660
-0.383777
-0.259000
-0.077813
-0.136727
0.247930
-0.207852
-0.328522
-0.019414
-0.434200
0.196830
-0.178446
0.061562
0.483607
0.429615
0.486509
-0.069851
-0.798303
0.350771
0.453561
0.042230
-0.603613
-0.620653
-0.034240
0.475471
0.024929
-0.158194
-0.485160
-0.095430
-0.349289
0.081356
0.181439
-0.113368
-0.179033
-0.278588
-0.420199
0.449311
-0.131848
-0.240045
0.196034
0.237218
0.248018
0.176012
-0.263180
0.415527
0.542822
0.619574
0.237106
0.444763
0.185835
0.228031
0.047889
-0.065681
0.179130
-0.007918
-0.232847
-0.391193
0.200885
-0.144594
0.329741
-0.266696
-0.408725
-0.364878
-0.154341
0.398444
-0.287923
-0.295281
0.173123
0.402424
0.073193
-0.710016
0.357574
-0.541958
0.390191
0.030091
-0.498498
0.011247
0.047795
-0.280729
-0.406355
-0.055924
0.265113
0.384941
-0.589650
-0.437259
0.220548
0.082140
-0.111547
0.446668
0.384518
0.267366
-0.186446
0.461742
-0.614603
-0.380441
0.405343
-0.014166
0.113025
0.519628
0.052025
0.505366
0.215616
-0.044715
0.387901
-0.478930
0.481612
-0.068579
0.082347
-0.426208
0.073281
0.225104
0.207848
0.048187
0.183310
0.552709
-0.149477
-0.357834
0.361099
0.190855
0.601633
-0.230456
0.009177
0.140992
0.546738
0.172886
-0.113313
-0.389856
0.123749
0.321010
0.355208
-0.114196
-0.002679
-0.642704
-0.189651
0.033333
-0.188793
-0.496191
0.026567
-0.029414
0.402815
-0.411151
-0.319263
-0.380274
-0.148556
-0.166915
0.081806
0.691530
0.284031
0.246341
0.300833
-0.255596
0.511331
-0.529413
0.271647
-0.038412
0.310160
-0.156381
-0.583552
0.094127
-0.243404
0.034896
0.656134
-0.154163
-0.222085
-0.007483
-0.249466
0.539937
0.164084
0.095067
-0.419526
0.034493
0.258081
-0.137911
-0.338696
0.568184
0.279820
0.768447
0.419194
0.098662
-0.515834
-0.278270
-0.046121
-0.008859
-0.032764
-0.295527
0.303886
0.496172
0.138748
0.364577
-0.105442
-0.000978
0.160355
0.468543
0.508275
0.454810
0.076727
0.045273
-0.525399
-0.317331
-0.151246
0.569000
0.316593
-0.341860
0.322199
-0.542919
0.176118
-0.572649
0.345420
0.550428
-0.315848
-0.117854
0.356726
0.422938
-0.417159
0.219969
-0.534790
0.169760
-0.307874
0.327016
-0.280561
0.539665
-0.474333
0.378400
-0.513744
-0.165963
0.250691
-0.123093
0.257675
-0.438387
-0.539518
0.284313
0.667079
0.565918
0.362440
-0.074738
-0.441619
0.309457
-0.368889
-0.618545
-0.140857
0.534994
0.250180
0.315491
-0.095556
0.193166
-0.005290
0.070360
0.234885
-0.102099
-0.103970
-0.322297
-0.230466
0.300830
-0.325114
0.240761
-0.177901
0.521016
0.480515
0.117082
-0.201705
0.159113
-0.468643
0.219701
-0.392653
0.071041
0.351246
-0.147206
-0.384106
-0.015954
0.451434
-0.283570
-0.228503
-0.181941
-0.139876
0.074477
-0.210721
0.354650
-0.110501
-0.051095
-0.527463
-0.123691
-0.129427
0.062592
0.208392
0.138937
-0.114181
0.200991
0.318295
-0.063575
-0.210165
0.220476
-0.702746
0.126543
-0.376244
-0.113297
0.081440
-0.280194
0.055662
-0.032106
-0.378818
-0.341469
0.303803
-0.230018
-0.197658
0.332217
-0.241800
-0.611603
-0.144745
0.503204
-0.538869
-0.264250
-0.505453
-0.758052
-0.365427
-0.552559
0.489444
-0.435495
0.599524
-0.479021
-0.432448
-0.147238
-0.644002
-0.053518
0.127144
-0.101951
-0.116119
-0.128768
-0.213998
0.276819
0.294002
0.372220
-0.262383
0.265109
-0.512426
0.330982
-0.018872
-0.572676
0.172894
0.004252
-0.182304
-0.388478
0.031832
-0.339898
-0.224445
-0.328168
-0.477397
-0.275299
-0.619155
-0.290433
0.029007
0.592426
-0.100851
0.176137
0.396429
-0.528146
-0.530501
0.388599
-0.365018
0.291663
-0.425581
0.233929
-0.166153
0.454552
0.165786
-0.122713
-0.113482
-0.252190
0.512413
-0.350866
0.371667
-0.521882
-0.644297
-0.214257
-0.483666
0.274373
-0.130871
-0.226122
0.234295
-0.093162
0.107529
-0.680131
-0.417291
-0.397050
-0.403636
-0.071928
0.135271
0.371392
0.096073
-0.032087
-0.351119
-0.069699
-0.453929
0.231241
0.051351
0.260317
-0.137329
0.640725
-0.204276
-0.095541
0.613815
-0.183634
0.308206
0.485626
-0.167400
-0.467900
-0.123692
-0.062481
-0.445606
-0.220230
-0.269565
0.079074
0.254682
-0.102615
0.509904
0.003458
0.356841
-0.265637
0.123138
0.437782
0.677299
-0.004932
0.139271
-0.365546
-0.316926
-0.107191
-0.100438
0.729289
0.050982
-0.319114
-0.493115
0.213319
0.461577
-0.482486
0.151458
-0.441492
-0.129620
-0.227472
0.314860
-0.449540
-0.184331
-0.655069
0.510529
-0.332906
-0.298289
-0.019035
-0.266367
0.116479
0.302545
0.116159
-0.075778
0.271345
-0.284943
-0.179761
0.034781
-0.380533
-0.629531
0.083048
-0.191539
0.065268
0.076641
0.085582
-0.182593
0.252273
0.254672
-0.059407
0.266094
0.169450
