0.543635
0.185244
-0.230790
0.119223
0.175506
0.145416
0.195315
-0.416612
0.447472
0.146608
0.134889
-0.462059
0.238117
-0.188399
0.158954
0.042675
0.188590
0.456925
-0.411698
0.087684
0.311844
-0.287838
-0.390043
0.454891
0.084100
0.247324
-0.163943
-0.495167
-0.026862
0.111414
0.158871
-0.351539
0.269413
-0.394612
0.320122
0.549195
0.379187
-0.148586
-0.514201
-0.337646
-0.603502
0.433215
-0.166482
0.200929
-0.314821
-0.021407
0.029204
-0.165680
-0.007663
0.523029
0.000297
-0.095623
0.144374
0.509436
0.213458
-0.314328
0.140687
0.843701
-0.425718
0.335058
-0.021637
-0.054297
0.612976
0.272380
0.022913
-0.360770
0.469184
0.370407
-0.337380
-0.198272
0.124914
0.279701
0.200503
0.204517
0.225510
-0.176944
-0.049110
-0.006519
-0.045780
-0.612503
-0.390438
0.284985
-0.559130
0.360408
-0.195639
0.001649
0.214589
0.510805
-0.089784
-0.043362
-0.102194
0.277374
0.411563
0.039844
0.427389
-0.028481
0.294441
0.732807
-0.082770
0.381238
0.090485
0.018751
-0.094363
-0.057006
-0.128388
0.144856
0.012149
-0.360956
-0.041688
-0.171066
0.349366
0.275422
-0.380637
0.428102
-0.095660
-0.039887
0.225161
0.037904
0.435493
0.262496
-0.353884
0.572962
0.163626
-0.190827
-0.300635
-0.037475
-0.193364
-0.424854
0.359767
-0.118705
-0.329854
-0.400762
-0.035964
0.353926
0.119006
-0.247605
0.298727
-0.350620
0.383074
-0.349601
-0.679412
-0.120236
0.093225
0.104874
0.015327
0.071970
-0.393373
-0.161335
-0.111041
-0.342360
-0.274020
-0.146641
-0.029774
0.190509
-0.123206
0.026824
-0.297399
0.551245
0.032673
0.205795
-0.393457
0.340980
0.726119
0.389601
0.307340
-0.411336
0.308951
-0.292363
-0.184007
0.046855
-0.168589
-0.043647
-0.613774
-0.154116
-0.260644
-0.637522
0.151549
-0.537509
0.373122
0.208403
-0.188950
-0.026878
-0.066133
0.504741
-0.165409
-0.395089
0.055838
-0.105695
-0.077208
-0.379672
0.168531
-0.029751
0.140514
-0.113574
-0.378894
0.116608
0.286216
-0.358475
-0.197994
-0.128737
0.570396
0.082261
-0.205425
-0.193394
-0.277502
0.288029
0.358113
-0.169025
0.499201
-0.023668
0.260509
-0.071441
0.154753
-0.335991
-0.507124
0.449276
0.063220
-0.289918
-0.077881
0.054981
-0.329609
-0.161453
0.062647
-0.537334
-0.509549
0.104020
0.527517
0.098613
-0.365782
0.082772
-0.313990
-0.610007
0.318133
0.331454
-0.629722
0.228781
-0.017018
-0.512838
-0.603272
-0.277217
-0.389065
-0.163630
0.035144
-0.209544
0.309046
0.426255
-0.092499
-0.106626
0.306557
-0.053081
0.640659
-0.260062
-0.295549
-0.141873
-0.219371
0.391146
-0.467675
-0.388127
0.242953
-0.309058
0.061204
-0.417766
-0.321656
-0.271833
0.055074
-0.069041
0.437842
0.389729
-0.070647
0.079484
-0.170472
-0.563312
0.477638
0.387546
0.487245
0.324571
0.127070
0.429651
0.457474
-0.075917
0.519316
-0.395258
-0.349966
-0.111761
0.519893
-0.154078
-0.209329
-0.270562
0.461642
-0.312932
0.122011
0.323555
0.013730
0.032187
-0.301976
-0.010303
-0.034999
-0.477269
-0.385639
0.418308
0.416725
-0.142460
0.515361
-0.367102
0.156059
-0.415714
0.283986
0.366262
-0.059045
-0.160891
-0.171508
-0.147881
0.130195
0.132642
0.159557
0.405456
0.070811
-0.024259
-0.006542
0.324145
-0.504286
-0.074499
-0.114966
-0.058514
-0.403506
-0.542005
-0.272689
0.152992
-0.208202
-0.412760
0.029124
-0.041561
-0.022808
0.335297
-0.261708
0.281219
-0.376380
0.257691
-0.454185
0.052121
0.052250
-0.192883
0.259786
-0.460222
0.311399
0.584704
0.312048
0.386113
0.250684
0.377309
-0.420355
0.296698
0.084268
0.680240
0.229512
0.722945
0.061669
-0.269784
0.420188
-0.094259
0.467052
0.451130
0.425728
-0.177696
0.424753
0.215417
0.459210
-0.281201
-0.017879
0.012421
-0.474569
0.323693
-0.342060
0.392398
-0.353469
0.125279
0.327001
-0.439936
-0.134950
0.382351
0.114198
-0.323675
-0.086685
-0.059790
-0.499642
-0.217566
0.135496
0.799273
0.051991
0.180911
0.142277
0.046267
-0.319130
0.251217
0.087627
0.538469
-0.214871
0.526978
0.203975
-0.421514
-0.371243
0.330792
-0.021796
-0.466354
0.188394
-0.540450
-0.007777
-0.182988
-0.168946
0.528272
-0.543553
0.662690
0.147385
0.733866
0.103332
0.224106
-0.309254
-0.389998
0.382109
-0.105659
-0.054935
0.019940
0.281903
-0.555009
-0.029449
0.369258
-0.282251
-0.510040
-0.145540
0.212443
0.262471
-0.398568
-0.210548
0.270384
0.402476
-0.377402
-0.054315
0.585249
0.988016
0.258135
0.417493
0.265456
-0.775358
0.657123
-0.279933
0.014519
-0.119973
-0.371531
0.204851
0.183807
0.293690
0.491024
-0.233551
0.000148
-0.368884
0.054197
0.088696
-0.568420
-0.558711
0.100333
0.748001
-0.184441
0.181710
-0.041550
-0.245097
-0.433037
-0.152373
-0.186366
-0.257007
-0.569559
0.297717
0.047823
-0.016552
-0.240143
0.385702
0.340830
-0.169991
0.351995
-0.207753
0.131817
-0.564698
-0.199429
0.383088
0.364904
0.087987
0.326518
-0.065608
-0.082267
0.070420
-0.203563
-0.447054
-0.453128
-0.020743
-0.275109
0.627204
-0.108627
-0.079047
-0.018357
0.104043
-0.126981
0.022823
0.360683
-0.087896
0.775959
0.399080
-0.263921
-0.143762
0.186451
0.380739
0.167505
0.077604
0.140388
-0.280023
-0.365413
-0.381606
0.353526
-0.344660
-0.358075
0.110670
-0.141674
0.358983
-0.485831
0.396544
-0.416078
-0.043000
-0.506225
-0.189218
-0.351007
-0.155228
0.343451
-0.392680
0.040822
-0.261279
0.494185
0.173816
0.134354
0.265805
-0.215354
-0.070280
-0.281713
-0.158552
0.431019
0.286094
0.448603
0.466788
0.251378
-0.129538
-0.003842
-0.168000
-0.124858
0.295638
-0.507586
0.133752
-0.226498
-0.309128
-0.299568
0.145135
0.760393
-0.409634
-0.469261
-0.559882
0.481994
0.318956
-0.148577
0.505566
-0.143775
-0.121419
-0.039213
0.523484
0.529836
0.085698
0.407710
0.098422
0.023254
-0.416117
0.423786
-0.135310
-0.276683
0.376581
-0.055967
0.743053
-0.137049
-0.021414
0.463112
-0.443093
-0.132984
0.346903
-0.275992
-0.096864
0.550923
0.620325
-0.320135
-0.152884
-0.459459
-0.425718
-0.005495
0.113848
-0.313335
0.445822
0.294728
-0.281585
0.536418
0.351506
0.286321
-0.295517
-0.192879
0.252413
0.169135
-0.235563
-0.408293
-0.567180
0.284852
-0.483468
0.050840
0.101422
-0.589976
-0.088013
-0.254464
-0.094684
-0.371449
0.325149
-0.303721
0.138166
-0.424675
0.144597
0.165043
0.615838
0.697748
-0.055367
-0.425694
-0.223892
-0.078821
0.220346
-0.394801
-0.100569
-0.178974
0.133861
0.466972
0.635761
-0.246345
-0.575449
-0.286112
0.051336
0.344594
-0.420435
-0.530699
0.510192
0.313779
0.252329
-0.058976
0.093050
-0.073395
-0.109092
-0.043537
-0.066011
0.455706
0.350262
0.364255
-0.418094
-0.247386
0.290432
-0.710628
-0.523761
-0.552559
0.626340
0.533643
0.645705
-0.009839
0.032947
0.443210
-0.316803
-0.098412
-0.233537
0.279316
0.109998
0.042017
-0.185301
-0.033095
-0.172669
-0.098903
-0.257298
0.280656
0.627242
-0.463543
-0.323878
-0.318724
-0.158026
0.702319
0.100643
0.181640
0.290756
0.033306
-0.616687
-0.412417
0.358763
-0.290190
0.049909
-0.430522
0.323620
-0.328230
0.217973
0.478728
-0.663411
0.366695
0.201955
0.019613
0.117938
-0.481410
0.292981
-0.408786
0.379195
-0.255751
0.184317
-0.062933
0.211702
-0.085393
0.261143
-0.094444
0.888814
-0.260551
0.581864
0.282591
-0.217073
0.338637
0.327906
0.310754
-0.269061
-0.018811
0.246390
-0.009340
-0.068440
0.028601
-0.453980
-0.083435
0.351752
-0.214964
0.262539
0.248353
-0.367741
0.580603
0.093376
0.570372
-0.231165
0.321712
-0.134429
-0.154331
-0.167019
-0.060123
0.373000
-0.550718
-0.562072
-0.313669
-0.197805
-0.426809
0.151185
-0.046372
0.273058
-0.239297
-0.182166
-0.057161
-0.435732
0.144554
0.356881
-0.081711
0.100424
0.467791
0.331031
-0.019230
-0.190586
-0.403640
-0.397545
-0.282594
-0.173780
0.221459
-0.061241
0.157546
-0.242661
-0.520322
-0.309587
0.170534
-0.309204
0.185136
-0.201351
-0.071006
-0.591529
-0.133111
-0.334810
-0.279968
0.132410
0.833613
0.372253
0.458284
-0.321059
0.036493
-0.129348
0.282387
-0.019131
-0.568863
0.081229
0.375008
0.185326
0.192884
0.503476
-0.380533
-0.547408
-0.155766
-0.363484
0.597754
0.547400
-0.662525
-0.100808
0.058731
-0.515839
-0.166717
0.480987
0.189283
