-1.665668
1.367671
-1.729196
-1.280893
1.084149
-0.129155
-0.117629
-2.141525
2.171350
1.180730
0.995688
-2.076739
-4.826115
-2.245986
2.689458
-3.161827
0.543831
-2.054598
1.432384
1.994293
-0.706498
2.300546
0.978437
-1.344957
-2.101926
1.287657
3.443274
3.999939
0.824419
1.993841
1.118539
3.060909
-2.229454
-1.738582
1.662450
-1.266634
-4.524060
-1.824357
1.063422
0.545431
-0.594225
1.014874
1.825166
-1.593681
-3.764449
-2.132614
0.578800
-0.177718
-1.398900
-0.524400
0.761565
-1.231085
4.074794
2.245575
-2.329048
-0.516162
-0.388498
-0.979702
-2.786010
-1.330820
-2.321155
1.089283
1.482349
2.075316
1.602700
1.107219
3.614544
-0.068065
-3.986067
1.661063
2.216961
0.023167
2.750778
0.305271
-0.704093
-2.015698
0.325798
0.511953
1.328853
-1.060220
1.198606
0.393544
-0.957699
-1.131031
1.024350
3.913392
-1.758284
1.033644
-0.892100
-2.591747
-0.546778
1.269495
-0.922951
-2.289189
-0.582919
0.646816
0.918191
2.342254
-0.447333
0.784943
-1.848802
-2.088830
2.339780
0.011847
-1.627138
-1.420609
1.780819
-0.637308
1.816405
3.818719
-2.971006
-2.839379
-0.437689
0.763114
-2.858163
-1.139513
1.472427
-3.163199
2.376475
-1.778607
-1.674269
-3.626641
-0.695266
1.418841
0.065583
0.244680
-2.171747
-2.325574
-1.794055
-1.634341
1.579663
-0.546523
2.156254
4.799092
-0.634399
-2.175360
-0.141517
-0.881561
-1.480141
2.453576
2.299916
-2.518047
0.373033
1.854842
-0.359516
0.776415
5.015508
-0.727808
0.043086
-2.241919
-0.803446
-0.064641
-0.995791
2.917331
-4.179471
-0.959250
0.914479
2.282495
1.236882
-0.366266
-1.667373
-0.709570
-0.708197
1.637864
-0.748750
4.140729
3.904035
-3.889103
0.805962
4.086933
-0.232148
-0.836133
-1.593776
0.128252
-0.122573
0.063735
0.631880
0.465765
-0.771725
0.242709
-1.504621
0.664072
-0.442246
2.244064
-1.623967
2.442150
-3.819310
3.787763
-2.600062
-0.366401
-0.522458
1.578599
1.899684
1.035935
-1.161046
1.260291
-3.958396
1.148331
-2.485674
-2.845604
0.654758
2.491507
-0.342559
-0.778735
-4.584844
-1.222516
2.835544
3.000386
0.722998
-1.050392
1.614941
-0.768480
-2.757699
-0.034383
-0.750584
-0.362133
1.801278
-0.419295
2.378626
-1.676233
-0.790000
-4.270954
3.356146
-1.407740
-0.593760
-0.386942
-4.843961
0.294361
-2.868818
-2.108938
-3.471350
0.606808
2.028293
0.101051
-0.176462
0.046902
-0.892101
-0.042492
-2.967172
0.968253
-0.648908
0.758428
0.224516
0.645609
-0.223398
2.189000
4.213477
-5.039404
4.157248
0.175144
-1.645815
-0.351478
-1.806682
1.611808
-1.902684
-1.328797
0.385584
1.813176
-2.118772
-2.494703
-1.967085
-1.390875
0.570010
-0.787518
5.045900
-1.287385
-0.426362
1.401488
0.690927
3.209819
-3.057344
0.419351
-2.229855
-1.284159
2.745545
-1.323795
-0.606030
3.854162
-1.398018
-0.108922
0.450556
-0.731070
0.218227
1.067736
1.115708
0.389330
2.345000
-1.548603
1.321953
0.215140
-0.389567
-2.285585
1.315065
3.603287
3.389485
0.752772
0.614421
-5.208509
-4.267241
2.165822
-0.245335
-0.956255
1.012109
0.487737
3.164755
-1.806819
-3.464902
-1.312753
-0.461868
-0.822505
5.756236
-3.839400
-3.071855
-0.829388
3.548352
2.949562
0.118034
-5.785298
4.195404
-4.157051
-1.709013
-0.261029
0.331543
-1.220018
1.351597
-0.276355
0.220447
2.230714
-3.148719
1.707253
-3.108290
-3.733236
-1.348636
-2.256296
0.755090
1.566389
-0.125036
-5.410255
-0.178299
-2.646787
-0.608339
-1.243044
0.063701
0.459286
4.691226
1.558169
0.179809
1.285735
-0.765285
-1.647399
1.422721
1.851685
-3.248510
-1.486812
-0.993637
2.531008
-1.058912
-3.942107
-2.451075
-0.638728
-0.104528
-1.379642
-2.555699
3.142246
0.244740
3.296666
0.449469
0.354153
6.062357
-0.381205
-0.728409
-0.535339
-1.185755
1.089599
-0.313684
3.145312
0.362963
-2.598987
1.708380
-0.155977
2.315648
-0.499439
-0.875590
-1.430695
-1.331553
-0.393209
5.824459
2.075352
2.504390
0.165968
-0.816462
3.228284
0.575705
2.986847
2.611104
-0.197430
-4.054994
0.215389
2.418387
3.887190
-1.748942
-0.766076
2.411088
-1.760619
1.838244
-2.809666
-0.075402
1.403887
4.129660
1.254100
-2.203092
-0.129590
-0.345095
-2.991843
-1.498311
0.640900
1.955803
-3.282619
0.037666
1.487215
-0.218703
-4.392111
0.590628
2.143095
0.636754
0.041269
1.850692
-2.008401
-1.087940
-1.004613
-2.276308
1.970157
2.015445
-0.530463
-3.063761
2.935241
4.637732
2.112828
0.126949
-3.579835
3.328977
0.702829
-0.547672
0.391795
0.869593
-2.199344
-1.796878
-1.499158
0.220823
2.964692
-2.213198
1.221422
-0.569727
3.165815
1.390098
-0.454660
0.623645
-0.362651
-2.646481
1.434765
0.552083
-3.817336
-2.020072
0.098064
0.150324
1.645616
-0.607258
1.405584
3.020518
0.323155
1.399597
-2.313445
-0.379897
-0.115617
1.623353
1.256581
-1.937844
1.209235
0.815690
-0.195960
1.140306
0.116966
1.959011
-2.010784
0.819046
-2.304217
-1.412757
-2.924118
-2.281115
-2.478536
-1.176099
-2.114321
-0.685739
-1.297087
1.191917
-0.775329
2.569253
2.435991
0.285462
-0.485693
1.285878
-0.989671
-0.245900
0.959750
0.963008
1.488024
-2.288385
0.653044
1.574154
0.599756
0.545787
-1.117187
-3.206609
-1.752147
-1.166836
1.421168
1.811823
0.875514
1.325589
1.353450
-1.853564
0.077955
3.025851
-0.942370
1.153787
1.823109
0.024368
-0.463026
-1.266735
3.301348
-3.520053
1.431910
0.964949
-1.142256
-0.295661
-1.319059
-2.802059
-4.282752
1.570420
0.939379
0.706548
2.381030
-0.009660
2.213364
-1.226504
2.123075
-1.014506
-2.968889
1.096583
-0.483018
-1.695430
-0.996778
-2.029778
1.135052
-0.020577
-2.773345
0.321072
-1.080258
-0.441104
0.535309
2.004334
-4.018575
-1.790623
1.541657
1.088327
-1.842909
-2.289344
-0.504734
-0.403624
-1.234936
-1.370384
-0.556682
2.047509
-1.601905
1.066607
2.040875
0.979230
-0.658202
2.284727
2.200457
-1.621974
1.300514
1.244033
-1.418905
2.152232
1.437912
-1.710059
-1.364560
1.594916
0.962288
-2.114094
-2.355233
-0.529582
2.757298
-1.095597
0.573091
0.854494
-3.734844
0.002453
1.566623
3.323333
-0.521633
-0.342251
3.025695
-1.895550
-0.336787
2.814835
1.284596
2.610052
2.028685
0.542336
4.267844
-1.295567
-2.696121
0.718515
-0.950962
0.307242
3.382723
2.664830
0.354542
2.881258
4.432276
2.548777
-0.601397
1.220742
1.769702
-0.899522
-3.568253
-0.505174
-1.087935
-1.650963
-1.855747
-2.732826
3.539896
3.091191
2.097948
1.949536
-3.261260
0.132729
-0.281890
-0.191880
-1.648109
-0.621626
-0.057686
-1.045966
0.729001
1.136366
-1.623955
1.323612
-2.461580
0.446791
-1.533305
-1.265931
-0.185925
0.023128
-0.886844
-4.059554
4.433453
-0.187831
0.635636
-0.644898
1.257818
1.024917
0.941472
0.300414
-3.212906
1.326280
0.149730
-1.976071
3.628450
1.063586
1.519725
0.838491
-2.907817
1.827522
-1.206334
-1.792840
0.841024
-0.755788
-0.056723
3.522029
1.343222
0.199679
1.190748
0.455423
-1.942986
1.147104
-0.194126
-1.320507
0.375564
-0.681714
-0.261454
0.459507
0.428048
1.342547
2.253500
0.487556
-2.043551
-1.889577
-3.178236
-0.170986
-3.135688
1.743054
0.279564
1.201308
-1.831778
0.170566
-2.435229
0.600149
0.628066
-0.883078
-2.980945
-1.244509
0.531052
0.033173
-0.648800
0.133701
-1.462460
-0.071865
-2.369491
-1.406913
3.951162
1.176950
-0.376544
-0.406174
-0.671218
-0.006464
1.014016
-1.975653
-1.751365
0.442665
2.331661
-0.859572
1.867527
2.331803
0.009389
0.342699
-0.368672
-1.901302
0.299953
-2.368800
-1.387136
-0.012378
-0.829170
-0.349218
-1.585875
-1.417181
0.145007
0.034932
-0.483067
1.759545
-1.454899
-1.911385
2.909757
2.703645
0.348141
1.657441
0.555303
0.399170
-1.104844
-1.796181
-2.003413
-1.283494
-0.506561
-1.672387
0.997409
-3.359177
-0.080386
3.353922
0.681005
-1.024935
