0.039205
-0.349135
-0.162890
0.308090
-0.050475
0.129884
0.089094
0.231487
0.059522
0.421735
-0.065906
-0.278775
-0.164921
0.419778
0.271401
0.188531
-0.582061
-0.425095
-0.194042
-0.104381
-0.661810
-0.147658
0.042908
0.501057
0.578284
0.323379
-0.195559
0.086456
-0.559173
0.252100
-0.223518
-0.396679
0.169918
-0.138888
0.051253
-0.038422
0.632746
-0.259896
0.379260
-0.070611
-0.268135
0.239281
-0.207867
0.245211
0.188166
-0.060609
-0.178087
0.030397
-0.275483
0.047383
0.246946
0.006049
0.671581
-0.344120
-0.478558
0.402330
0.178580
0.081416
-0.463017
-0.321109
-0.112656
0.041442
-0.426996
0.386670
-0.134296
-0.350881
0.262295
-0.326530
-0.267785
-0.327840
0.404676
-0.375801
0.261942
-0.204908
0.253415
0.163440
-0.109934
-0.019065
0.488288
-0.221979
-0.354913
-0.222495
-0.403491
-0.083985
-0.239082
0.534477
-0.079780
-0.382793
0.302656
-0.122359
-0.134894
0.239174
0.199876
0.086928
0.009214
-0.618768
-0.182825
-0.281054
-0.167731
0.528075
-0.323078
0.224964
-0.445727
0.044070
-0.197878
0.083673
0.390807
0.217247
-0.002117
-0.228392
-0.063686
0.337401
-0.448733
-0.147690
-0.121491
-0.137557
0.192735
-0.119175
0.086816
-0.192313
0.375838
-0.382156
-0.095668
0.555406
-0.168475
-0.099425
-0.588859
0.450966
0.099090
-0.022978
0.460276
-0.414997
0.431765
0.449509
0.080205
-0.460504
0.569416
-0.404589
0.395994
0.085190
-0.348839
-0.254748
-0.005166
-0.224466
-0.451948
-0.044486
-0.242217
0.136164
0.427736
0.109369
-0.230304
-0.454794
0.311532
-0.282471
-0.252180
0.795489
-0.267989
-0.161720
0.223422
-0.499241
-0.537740
0.661742
0.055202
-0.398852
0.311310
0.264068
0.019887
-0.232680
-0.264243
-0.136826
0.395937
0.452138
0.186636
-0.499537
-0.194298
0.168477
0.007253
0.330261
-0.106640
-0.061857
-0.073928
-0.456783
0.412495
0.203446
0.291992
0.124293
0.376691
0.285185
-0.152844
0.050489
0.119636
0.023514
-0.584902
-0.222536
0.107060
0.258131
-0.178773
-0.493586
0.046877
0.032305
-0.194493
-0.184016
0.159860
-0.022438
0.476319
0.501348
-0.107556
-0.089268
-0.011738
0.554282
0.309288
-0.177767
0.290851
0.384276
0.004064
-0.210732
-0.498588
-0.151667
-0.202255
-0.202185
-0.117613
0.543400
0.135652
-0.402503
-0.386344
0.679560
0.332530
0.162115
0.105554
-0.295307
0.061584
0.419209
0.030791
-0.204007
0.605327
-0.619154
-0.207243
-0.357504
-0.366237
0.691416
0.291814
-0.217174
0.029716
-0.163508
0.393265
0.338389
0.413877
-0.507104
-0.371085
0.127218
0.589044
0.713819
0.198244
-0.159684
-0.052602
-0.116794
0.139259
0.582301
-0.266978
0.343903
0.037157
0.125281
-0.433769
-0.519948
0.167275
0.057989
0.332682
-0.281102
0.623092
-0.042833
-0.343983
-0.300438
0.211332
0.474364
0.563428
0.307608
-0.236083
-0.075477
0.497882
0.408746
0.040144
-0.405508
-0.382882
-0.084613
-0.094959
0.482673
-0.283439
0.415768
0.449044
-0.209051
-0.011411
-0.397035
0.545755
-0.317904
0.134500
-0.014386
0.150339
-0.668092
-0.216607
-0.322490
-0.486911
0.161235
-0.315163
-0.361624
0.128725
0.332905
0.028323
-0.203510
0.211115
-0.056547
0.431387
-0.559926
0.325962
-0.138489
-0.180423
-0.326407
0.509804
0.197658
0.082525
0.091102
0.020249
0.457903
-0.178009
0.258543
-0.372662
-0.529050
-0.553013
-0.018604
0.251684
-0.352923
-0.158674
-0.078430
0.018129
0.636422
0.041517
-0.066201
-0.134742
0.328650
0.212702
-0.359754
-0.013945
0.154775
0.547597
-0.253199
0.193754
0.295372
-0.094747
0.356637
-0.470646
-0.358852
0.055801
-0.230538
0.517939
-0.149576
0.143419
0.394986
0.252729
0.415309
-0.434036
-0.227625
0.077003
0.428365
0.305787
-0.121002
-0.313827
-0.282915
0.174293
-0.092747
-0.049056
0.015389
0.017803
-0.688004
-0.288678
-0.193019
0.009125
-0.252174
0.102738
-0.123650
-0.148956
-0.113438
-0.392672
-0.334072
0.453658
0.248571
-0.559891
-0.158498
0.325414
0.182229
-0.012386
0.513444
-0.012140
-0.252601
0.395262
0.465949
0.100008
0.447635
-0.238517
0.420456
-0.446371
-0.068623
-0.073125
-0.611857
-0.117974
0.361213
-0.023636
-0.546447
-0.008905
-0.503519
0.306165
0.491180
-0.251842
-0.706755
-0.842396
0.301718
-0.455156
-0.305290
0.191589
-0.191380
-0.179901
-0.489657
0.099837
0.013824
0.171838
0.654869
0.521651
0.202329
-0.348625
0.267223
0.351928
0.265482
0.162329
0.173030
-0.832649
-0.345169
0.087494
-0.309061
0.028295
0.370818
-0.045696
0.420508
-0.290911
0.493571
-0.338439
0.212160
0.688465
0.372764
0.040462
-0.156551
0.215639
-0.497179
0.246507
-0.075560
0.543030
-0.489409
-0.530173
-0.119294
-0.016607
-0.079247
-0.295552
0.305646
0.361413
0.166780
0.286447
-0.377504
-0.126575
-0.119563
-0.196780
0.113628
-0.361744
0.225494
-0.289531
0.059676
-0.148805
-0.069560
0.242150
0.332522
-0.087218
0.721454
0.269947
0.170457
0.838312
0.346908
-0.264079
0.131672
-0.025836
0.394602
0.037713
0.081576
-0.015505
-0.290001
-0.048818
-0.201562
0.707511
-0.220715
-0.176861
0.156826
0.221557
0.217969
-0.179172
-0.232418
0.367197
-0.329500
-0.251686
-0.236982
0.631732
-0.459202
-0.065806
-0.460840
-0.174899
-0.068393
0.777412
0.246784
-0.042583
-0.433327
-0.332362
0.359720
-0.018014
-0.364677
-0.511669
-0.226475
0.400109
-0.069224
0.144139
0.585217
-0.137323
-0.018097
-0.232321
0.073637
-0.579024
0.204034
0.192130
-0.141001
-0.059149
-0.171228
0.268466
0.285857
-0.193781
0.048342
-0.045572
-0.570084
-0.235650
-0.050579
0.087131
-0.311648
0.266935
0.134058
0.480826
-0.231734
0.060579
-0.459024
0.316593
0.362137
-0.449955
0.658498
-0.275768
0.529797
-0.252279
0.023323
-0.472461
-0.288895
0.110181
0.062837
0.379190
0.187026
0.204538
0.270346
0.277596
0.009874
-0.116967
-0.208829
0.581880
0.129968
-0.507222
-0.049406
-0.139447
0.446177
-0.275970
-0.323023
-0.365728
0.299096
0.652605
-0.180662
-0.342869
0.442427
-0.344914
0.102845
-0.522000
-0.094669
-0.095680
-0.162431
0.305899
-0.487490
0.214459
0.139110
-0.044748
-0.325432
0.123952
-0.216976
-0.013960
0.034275
0.193215
-0.037227
-0.293362
0.374421
-0.220654
0.324068
-0.154236
-0.372342
0.068271
0.542281
-0.269618
0.254520
0.060368
0.173834
-0.354150
-0.268214
0.238789
0.226639
-0.107732
0.375995
-0.293138
0.272714
0.549187
-0.012060
0.376204
0.103500
0.402550
0.346966
-0.405771
-0.093793
-0.007755
0.150173
0.229609
-0.485249
0.445731
-0.240387
-0.155476
-0.344807
0.405273
-0.074860
-0.035978
0.131233
-0.327010
-0.063751
0.725015
-0.276926
0.055455
0.389306
0.114095
0.026481
0.289434
-0.493056
0.520805
-0.603937
-0.392335
-0.352283
-0.185864
-0.016737
0.277600
0.101683
0.331786
0.220434
-0.444159
0.304003
-0.152217
0.499400
0.746278
0.114991
-0.029090
-0.243818
-0.360396
-0.358010
0.007235
-0.397318
0.322419
-0.087498
0.007439
0.070485
0.255269
0.397243
-0.007588
0.087515
-0.273619
0.457703
-0.454359
-0.348426
-0.063639
-0.577478
-0.109120
0.121640
-0.068972
-0.024009
-0.333944
-0.491095
-0.205704
-0.453190
-0.230278
-0.371473
-0.302413
0.702364
0.333033
0.232779
0.126226
0.721741
0.416955
-0.046956
-0.061642
-0.529699
0.204267
-0.418529
-0.428447
-0.442662
0.302438
-0.211191
0.466176
0.016531
-0.604998
0.042443
0.469983
-0.464737
-0.271559
0.020275
-0.530935
0.067663
-0.100180
-0.246663
-0.077432
-0.581169
-0.266046
0.428333
-0.061251
-0.285094
0.423340
-0.249243
-0.477147
0.355264
-0.276818
-0.359686
-0.105855
-0.388923
-0.403377
-0.468340
-0.071600
0.455521
0.598826
0.099870
-0.028600
-0.329154
0.503889
-0.598931
0.177915
0.221947
-0.236653
0.590966
0.081644
0.270732
-0.642402
-0.488270
0.243304
0.356362
-0.131186
0.097920
-0.154626
0.476433
-0.441972
0.226688
0.082879
0.434906
-0.399992
-0.217426
-0.030279
0.411899
-0.052426
0.496380
0.396557
0.706908
-0.334467
0.221156
-0.683817
-0.207165
0.350607
0.475123
0.210249
-0.769750
-0.169379
-0.129833
-0.113841
0.390424
-0.146550
-0.418307
-0.226955
-0.111329
-0.118683
-0.190521
-0.613646
-0.344388
0.145066
0.281578
-0.243836
-0.477963
0.442554
0.009324
0.576746
-0.657216
-0.499280
0.047325
0.271391
0.297583
-0.142717
0.513935
-0.124512
0.462553
0.204129
-0.262660
-0.034978
0.319085
