-0.037952
-0.267401
-0.080058
0.084141
0.250853
0.082281
0.460487
-0.174619
-0.021131
0.288794
0.028561
0.100581
-0.497481
-0.209683
-0.049945
-0.144311
-0.073050
-0.170012
0.105251
0.123555
0.517757
-0.315270
-0.070547
-0.464273
0.220634
-0.156480
-0.157285
0.036923
0.080678
-0.019595
0.309536
0.154361
-0.581295
-0.472395
-0.313358
0.272064
0.257235
0.295290
-0.318967
-0.412386
-0.490264
0.161371
-0.675185
0.330845
0.473925
-0.497575
0.471900
-0.262598
-0.382743
-0.261448
-0.048340
-0.005394
-0.199278
-0.499988
-0.056486
0.140630
-0.131537
0.364503
-0.363515
-0.226152
-0.332532
-0.014161
0.240851
-0.182796
0.357328
0.352637
0.308276
-0.299619
0.333981
0.125948
-0.270306
0.465138
-0.498130
0.121411
0.322339
0.182931
-0.013371
0.419447
0.206766
-0.016847
0.650063
-0.408553
-0.467174
-0.244688
-0.197393
-0.419289
-0.002584
0.509951
-0.291214
0.258009
-0.029069
0.216103
-0.182477
0.048932
-0.006088
-0.279793
0.330356
-0.549686
0.262022
0.345594
0.435270
-0.407186
-0.116007
0.204472
0.004225
-0.111387
-0.217071
-0.415896
0.089583
0.055228
0.483062
0.291967
0.319825
0.517505
0.398311
0.143211
0.130872
0.004830
0.258350
-0.195870
0.301852
0.104685
0.134636
0.583210
-0.239034
-0.099428
-0.261998
-0.213438
0.198880
0.320697
0.216069
0.102167
0.097141
-0.370485
-0.255997
0.020787
0.192138
0.428214
0.203896
-0.381273
0.767751
-0.709337
-0.250736
-0.703674
-0.084802
0.163651
-0.019265
0.013664
0.463653
0.445163
-0.306189
-0.414655
0.328011
-0.374955
-0.226179
0.649710
0.289319
0.020195
-0.466877
0.102558
-0.565838
-0.534815
-0.027099
-0.187143
-0.091273
-0.200685
0.012999
-0.106251
-0.197919
0.240469
-0.088550
0.200100
-0.357733
0.004565
0.307126
-0.167533
-0.033191
0.233075
0.293494
0.205354
-0.246041
0.380995
-0.220893
0.216486
-0.549043
-0.078312
0.440716
-0.240709
0.357950
-0.076930
0.149355
0.041651
-0.357957
-0.147649
0.136254
-0.020327
0.546732
0.135982
-0.092594
-0.023335
0.350878
0.141262
-0.518926
0.351048
-0.321876
-0.149088
0.500885
-0.042163
-0.119160
0.265583
0.040616
0.122215
0.326329
-0.511560
-0.441104
-0.250513
-0.106990
0.192184
0.338029
0.177102
-0.487983
0.543244
0.089909
-0.154094
-0.136845
-0.054424
-0.216295
-0.219032
-0.125184
-0.383174
-0.250724
0.607265
0.386955
0.403167
-0.483876
0.192331
-0.260872
-0.467760
0.524423
0.003725
0.113282
0.397435
0.265715
0.127970
0.398355
0.497739
-0.201380
-0.070409
0.257019
-0.261014
-0.110488
-0.114276
0.285392
0.145492
0.346651
0.202512
0.147572
0.330637
0.262420
-0.290762
0.101475
-0.483864
0.450818
0.379776
-0.506489
-0.140343
0.098370
-0.375743
0.220612
0.594697
-0.170912
0.295813
-0.032185
0.522793
0.353408
0.084689
-0.367293
0.053761
-0.015325
-0.071011
0.376445
-0.366585
0.574077
-0.135162
-0.307683
0.144950
-0.569773
-0.215626
-0.493942
-0.303453
-0.669990
0.042829
0.026051
0.321892
0.432232
-0.148880
-0.583600
-0.061509
0.069414
0.270667
0.256003
-0.268974
0.191804
-0.161580
-0.648430
0.351093
0.021952
0.055523
-0.197680
-0.424236
-0.116956
-0.229195
-0.316453
0.585132
-0.491106
-0.592173
0.303717
0.436489
-0.433267
-0.064593
-0.286712
0.103414
-0.172713
-0.090728
-0.500294
-0.410028
0.301598
0.053633
0.178286
0.409393
0.131530
-0.101377
-0.035441
0.350038
0.131536
0.363714
-0.058706
0.313065
-0.170730
-0.299381
0.192296
0.640364
0.007963
-0.512228
-0.012684
0.231235
-0.541192
-0.327139
-0.067361
0.264101
0.116669
-0.304366
0.335128
0.286666
0.233723
0.190664
0.299357
0.422697
-0.178450
-0.119277
-0.070653
0.231978
0.470538
0.506699
0.300146
-0.162465
0.063748
0.034853
0.451015
-0.182775
0.001994
0.263379
-0.626873
-0.406861
-0.055679
0.290090
-0.595092
0.417755
0.212384
-0.065184
-0.408228
0.626132
-0.058077
0.431085
-0.214552
0.094976
-0.005533
0.200176
0.113583
0.150289
-0.012140
0.058848
0.202346
0.517949
0.312642
0.000235
-0.176651
0.038271
-0.315680
-0.082345
-0.195826
0.237677
-0.091456
0.272663
-0.027273
-0.540450
0.881323
-0.330040
0.315380
0.410516
0.121049
-0.036099
-0.191781
0.106477
-0.440134
-0.297103
0.052800
0.154149
-0.241564
-0.129391
-0.393782
0.014343
-0.082522
-0.532262
0.322001
-0.181613
0.479777
-0.096003
0.029871
0.300533
0.129228
0.247037
0.024995
-0.390530
-0.028338
-0.395734
0.152659
0.339567
-0.066244
-0.130585
-0.313011
0.462166
0.369227
0.528973
0.315383
-0.415672
0.090020
-0.652803
0.359343
0.154689
0.219965
-0.238618
-0.181464
0.167387
0.271453
0.016300
0.181073
0.135170
-0.085363
0.269496
-0.108363
-0.413280
0.066825
-0.379032
-0.476420
0.495566
-0.248549
-0.073545
-0.512037
0.242512
-0.161152
-0.115255
-0.298108
-0.354419
-0.036267
-0.048496
-0.577304
0.316058
-0.280523
-0.095200
0.384262
-0.096094
0.261407
0.188504
0.282592
-0.174578
-0.082723
-0.187299
-0.133875
-0.498211
0.477346
0.506978
-0.017467
-0.409954
0.334008
0.080158
0.057288
-0.171428
0.349305
0.629064
-0.025557
0.104082
0.065213
-0.412427
-0.389054
-0.401566
-0.017094
-0.469519
-0.137692
0.292977
-0.512104
0.048134
-0.152268
0.657145
-0.438448
-0.465268
0.392233
0.221484
0.120818
0.318644
-0.370404
-0.359004
-0.463853
0.530459
-0.576252
-0.266090
0.419194
0.200578
0.643492
-0.747091
0.026881
-0.204427
-0.588164
-0.415719
0.122042
-0.203534
-0.138734
-0.195956
0.307553
-0.137514
-0.559668
-0.522013
0.639516
-0.513176
0.366250
-0.108278
-0.362960
-0.008739
-0.362400
0.382917
-0.065735
0.200949
0.238839
0.387806
0.447188
-0.462371
0.434955
0.137570
-0.294183
-0.100009
-0.105400
0.054418
0.046375
-0.050250
0.648130
-0.019814
0.203117
-0.049114
0.236436
0.133760
-0.353401
0.510000
0.242218
-0.137209
-0.481135
0.469717
-0.339316
0.361852
-0.365299
-0.296482
0.613032
-0.345379
-0.143321
0.271258
-0.263589
-0.350224
0.077666
0.530926
-0.044234
-0.146355
0.360887
0.141360
0.289498
-0.376257
-0.256452
-0.182489
0.206695
-0.456317
-0.106165
-0.094713
0.515673
0.423024
0.379652
-0.448253
-0.513633
-0.255003
-0.473592
0.158389
-0.162509
0.590772
-0.473897
-0.213849
0.250206
0.401376
-0.310930
0.465492
-0.364481
0.283933
-0.193698
0.272986
-0.459818
-0.569406
0.401547
0.095294
-0.546853
0.289900
-0.459456
0.511245
0.369250
0.229748
-0.642436
-0.178242
0.007984
-0.180215
-0.262266
-0.070141
0.213000
-0.029699
0.029405
0.283946
0.135633
0.023768
0.152607
-0.091705
0.493995
0.192320
0.068904
-0.074238
-0.040980
-0.118841
0.644839
0.732247
0.553673
0.443969
-0.295565
-0.634127
0.235544
-0.015041
0.145223
0.495631
0.034266
-0.045044
-0.264786
0.294469
-0.322020
-0.435495
0.583493
-0.015009
-0.345966
-0.149862
-0.221289
-0.249956
-0.241222
0.104211
0.020122
0.042017
0.101259
-0.058189
-0.333720
0.250316
-0.283033
-0.300499
-0.080573
-0.573802
0.085822
-0.522857
0.368509
0.371681
-0.155374
-0.500221
-0.300354
0.013181
0.377947
0.276773
0.112223
0.264319
0.241465
0.485689
0.013258
0.601964
0.431055
-0.463929
-0.271233
0.287724
-0.195937
-0.047065
0.458440
-0.165463
0.350093
0.297221
0.563334
-0.336406
-0.233928
0.394661
0.183732
0.067495
0.178511
-0.364409
0.321553
0.023592
0.340545
-0.027151
0.207210
0.261366
-0.647373
-0.197568
-0.026231
-0.641365
0.375881
0.436265
0.284482
0.471236
-0.148377
-0.286619
0.168935
-0.068744
-0.097885
0.118949
-0.366818
-0.111250
-0.370327
0.541451
-0.324136
-0.314979
0.521813
0.129599
-0.316677
0.347197
0.560771
-0.583665
0.207491
-0.263252
-0.049110
0.373658
-0.621240
-0.236963
0.089520
0.051231
-0.057786
-0.082451
-0.236049
0.073216
0.274402
0.429332
0.315618
0.140247
-0.023523
0.232749
0.251319
0.174335
0.456228
-0.176491
-0.165086
0.034915
-0.209453
0.043729
0.205825
-0.263516
-0.262407
-0.168881
0.380188
-0.163024
0.256635
0.539482
-0.497879
0.637497
-0.811901
0.813660
0.510650
-0.232825
-0.042386
0.069943
-0.287589
0.433971
-0.263857
-0.155277
0.229201
0.314335
-0.109954
-0.152869
-0.368998
-0.204889
0.181082
-0.707965
-0.414227
0.010863
-0.298239
0.481150
-0.064448
0.081385
0.530515
-0.115027
0.092634
-0.376249
-0.305982
0.373215
