-0.007246
-0.174849
-0.078894
0.122130
0.185907
-0.230149
-0.084265
0.460531
0.536670
-0.049820
0.316700
0.116952
0.040111
-0.291062
-0.086056
-0.061551
-0.264165
0.013439
0.227579
0.113521
-0.308597
-0.268278
0.180184
0.557376
0.527279
0.241930
0.319592
-0.319527
-0.093753
0.303814
0.270809
-0.091788
-0.325508
-0.030428
0.141766
0.175604
0.174030
-0.026696
-0.524362
0.085704
-0.172050
-0.462706
0.074718
0.151058
0.104291
-0.012032
-0.116997
-0.165680
0.104500
-0.172059
0.357163
0.528894
-0.024511
0.121451
-0.036184
-0.375688
0.159849
-0.018207
-0.015919
-0.343471
0.332987
0.425082
0.319993
-0.164159
-0.115626
0.410369
-0.578154
-0.118366
0.390782
-0.230598
-0.389511
-0.460935
0.161836
-0.324298
-0.008376
0.291999
0.211768
-0.271698
0.209504
-0.449887
0.150331
0.304231
-0.226789
-0.423116
-0.331211
0.099754
-0.410920
-0.162256
0.081301
0.354237
-0.195159
0.325120
-0.135471
-0.136444
-0.000093
0.121190
-0.040249
-0.280676
0.550505
0.473610
-0.151628
0.622756
0.262821
0.008673
0.350251
-0.089132
0.310676
0.307155
-0.160122
0.526455
-0.072435
-0.347031
0.054820
0.042590
-0.413498
-0.117844
0.370682
0.011732
-0.131211
-0.170251
-0.610401
-0.068306
-0.556002
-0.175055
0.302233
-0.153554
-0.272619
0.258369
0.118747
0.203102
0.159240
-0.687440
0.221630
-0.401001
-0.562607
-0.161431
0.265132
-0.350620
-0.038494
0.030945
-0.012644
-0.329208
-0.663285
0.143699
-0.018244
-0.186579
0.413613
-0.120347
-0.243229
-0.355205
0.301402
-0.024600
0.191368
-0.398473
0.092204
0.500901
-0.282564
-0.623385
0.634909
0.449217
-0.497078
0.257542
0.586383
-0.491269
0.322602
0.024403
-0.240620
-0.263832
-0.194600
0.221574
-0.287832
-0.023017
-0.196492
-0.452204
0.442126
-0.189169
-0.353894
0.198047
0.339182
0.085581
-0.159387
0.021005
0.083149
-0.478508
0.177506
0.151939
-0.551079
-0.408739
0.157189
0.111439
0.499423
-0.522982
-0.492804
-0.215159
0.576022
-0.371212
-0.403093
-0.290991
-0.188005
-0.522402
0.073989
0.035895
0.498611
-0.120574
0.179430
0.195556
-0.455161
-0.175414
-0.528329
-0.661997
0.439734
-0.202218
0.136930
-0.615455
0.342826
-0.605357
-0.137166
-0.453472
0.092136
-0.084324
0.496139
0.073328
-0.442965
-0.059264
-0.412200
0.170848
0.760480
-0.478306
-0.307038
-0.028089
0.539745
-0.475928
0.307133
-0.166007
0.461806
0.089293
0.212810
0.066323
-0.370139
0.110869
-0.469271
-0.347468
-0.500745
0.291470
-0.567474
0.091831
-0.244822
0.402894
-0.625699
0.165552
0.316756
0.468377
-0.489426
-0.159684
0.493191
-0.442695
0.269588
0.096284
0.481411
0.112908
0.360818
-0.306311
0.427262
-0.342687
-0.225281
0.132702
-0.198376
0.452088
0.160157
-0.373231
-0.000116
-0.538473
-0.188534
0.263339
0.144105
0.583802
-0.030726
-0.094322
-0.000393
0.399250
0.322180
-0.384942
-0.329105
0.366496
-0.210196
0.497160
-0.324222
-0.082539
-0.346249
0.000963
-0.537308
-0.285013
-0.563712
-0.707996
0.127709
-0.209427
0.579072
0.067558
-0.096210
0.342747
0.215926
-0.104625
0.024996
-0.166016
-0.072140
-0.343948
0.095055
-0.061579
0.047085
0.424743
0.237903
0.331826
-0.041348
-0.072080
0.445741
0.009204
-0.071323
0.152002
-0.268371
0.323205
-0.478802
0.374115
-0.121993
0.286506
-0.136356
0.193970
-0.134712
-0.197952
0.121561
-0.436773
0.154517
-0.192498
0.034427
-0.291366
-0.073148
0.248015
0.040902
-0.564550
-0.405324
0.453058
0.378464
-0.285451
0.328837
0.531099
-0.325171
0.363550
-0.052555
0.054754
-0.405356
-0.260446
-0.285123
0.649543
-0.592847
-0.133482
0.415948
-0.128414
-0.100813
0.541705
0.119138
-0.151074
0.155489
0.123115
0.372888
-0.120034
-0.607818
-0.055000
-0.184794
-0.109875
0.112357
-0.069829
-0.007482
0.265258
-0.197991
-0.201420
0.542363
-0.031202
0.188512
-0.301204
-0.504849
0.221528
-0.279577
-0.145237
-0.190942
0.306006
-0.483417
-0.055610
-0.084681
-0.267543
0.059714
0.080411
0.038386
-0.065326
0.084766
0.274355
0.372450
-0.179971
0.439051
-0.453725
0.437173
0.564015
-0.149307
-0.414088
-0.286691
-0.072696
0.424461
-0.538749
0.676289
-0.303398
0.034275
0.309078
-0.375058
0.601388
0.357574
0.300110
-0.831734
0.175664
0.216102
-0.312821
-0.137735
0.386143
0.176029
-0.015002
-0.322281
0.622030
0.715543
-0.005082
-0.479595
0.005637
-0.181391
-0.206015
-0.164424
-0.117088
0.224001
-0.240020
-0.053188
0.059193
-0.027007
-0.352175
-0.398505
0.737992
0.545547
0.257337
-0.428326
-0.339788
-0.182546
-0.242350
-0.223421
-0.393131
-0.338424
0.311985
-0.235029
0.242423
-0.026935
-0.162994
-0.521583
-0.212827
0.402295
0.264595
0.063312
-0.209245
0.584957
-0.262318
0.204839
0.605338
-0.201939
-0.170605
-0.154904
-0.378461
-0.135204
-0.023362
-0.353162
-0.144415
0.269016
0.118668
0.113602
-0.383741
-0.388943
0.149847
-0.655081
-0.357531
-0.524366
0.257405
0.480749
-0.047623
-0.297603
-0.490802
-0.251185
0.063318
-0.051712
0.554275
0.331607
-0.322460
-0.184750
-0.051717
-0.208773
-0.267440
-0.270727
-0.556352
-0.133791
-0.303032
-0.414216
0.435107
-0.071770
-0.289904
-0.108605
-0.250355
-0.529778
-0.125587
0.442855
-0.069672
-0.491836
0.192137
-0.168396
-0.082708
-0.195619
-0.502453
-0.562911
0.053678
-0.251007
-0.472429
-0.235131
-0.099895
0.109722
-0.503266
0.129982
0.480370
-0.245648
0.082054
-0.579024
0.039745
0.505112
0.037048
0.557535
-0.336101
-0.246462
0.354421
0.135516
-0.416995
-0.092060
-0.170092
0.192574
0.283196
0.528570
-0.391364
0.399593
-0.038201
-0.191660
-0.287644
-0.090911
0.254770
-0.427691
-0.322924
0.256116
0.409511
-0.192912
-0.053756
-0.369191
-0.159365
0.317889
-0.264826
0.220434
0.288152
0.100431
0.499951
0.252935
-0.321479
-0.272767
0.034284
-0.506085
0.143744
-0.019900
0.256894
0.155485
-0.416050
0.155587
0.494155
-0.078678
-0.453249
-0.113468
-0.222208
0.819326
0.149839
-0.486926
0.016502
-0.440760
0.295962
-0.595476
-0.522044
0.075939
0.117138
0.296463
0.056521
-0.352463
0.536302
-0.354042
0.364213
0.263166
-0.392663
-0.121422
0.244745
-0.307868
0.001971
-0.259238
0.293722
-0.300174
-0.452691
-0.751379
-0.160454
0.085695
-0.450703
0.495669
-0.122829
0.095683
0.484284
0.237608
-0.576401
0.476510
-0.054468
0.070038
0.212334
0.617412
0.070938
0.563263
-0.517437
0.256404
0.364242
0.749175
-0.410220
-0.197965
0.108626
-0.086121
-0.414995
0.163140
0.348352
-0.487452
-0.047601
-0.089036
0.606185
-0.356298
0.077628
0.207089
-0.366749
0.473387
-0.247150
-0.198519
0.427183
0.285341
0.199446
0.292983
-0.127388
0.334635
0.295686
-0.129806
-0.555702
0.089979
-0.731849
0.330703
-0.056078
0.173433
0.016243
-0.024828
-0.021897
0.018792
0.483218
0.118054
-0.214531
-0.035059
-0.349082
0.127426
0.048047
-0.178137
0.341229
-0.294720
0.009625
0.052707
0.295371
0.012257
0.611765
0.201616
0.091061
-0.334591
-0.174933
-0.196451
-0.216029
0.230490
0.074392
-0.270771
0.569620
-0.158979
0.281153
0.215008
-0.189950
-0.303877
0.191174
0.095358
0.183454
0.497042
-0.097447
-0.052858
0.250126
0.499470
0.120496
0.081614
-0.304507
0.683888
0.012858
0.009178
-0.210045
0.119791
-0.247695
-0.061427
-0.155749
-0.365718
0.130437
-0.445709
0.164939
0.404651
0.083834
0.308470
0.357282
-0.121423
0.024166
0.257984
-0.295454
0.118714
-0.035925
0.216826
-0.587228
-0.360189
0.349919
0.142392
0.438305
0.440880
-0.006682
-0.399093
-0.363761
0.141034
0.500378
-0.392681
-0.402202
-0.075587
-0.071202
-0.056353
0.164880
0.299732
0.602700
-0.008761
0.156010
-0.021475
-0.497270
-0.684657
0.235644
-0.181598
0.632898
-0.378869
0.370431
0.164518
-0.462981
-0.465503
0.277512
-0.163461
-0.044965
-0.139235
0.234036
0.508872
0.029853
-0.119462
0.085153
0.638755
-0.126007
-0.177420
0.042586
-0.358010
0.400937
-0.049824
-0.243326
-0.246477
-0.449254
0.437493
-0.587915
-0.272156
0.345859
-0.006050
-0.058270
-0.179420
-0.291650
0.623524
-0.120841
0.408733
-0.206529
-0.129112
0.180469
-0.066212
-0.018910
-0.366038
-0.521037
0.236951
0.372688
0.471177
-0.497393
-0.010302
-0.627724
-0.189849
-0.692281
0.166299
-0.082995
0.339979
0.475555
-0.316293
0.106818
-0.598716
0.622079
0.434511
-0.181755
-0.193684
-0.286590
