0.163699
0.404931
-0.045606
0.123300
-0.069840
-0.055057
-0.354016
-0.310973
-0.604940
-0.053544
0.119489
-0.001107
-0.458726
0.481204
-0.106512
-0.013691
-0.495423
-0.087636
-0.077341
-0.402676
0.391178
-0.286257
-0.293263
0.442184
0.289962
-0.047538
-0.444881
0.143829
0.553317
0.139287
-0.078229
-0.222429
0.289422
-0.098899
-0.016792
0.186746
-0.225010
-0.231558
0.042897
0.248566
0.146035
0.460171
-0.002291
-0.350610
-0.036070
0.345436
0.338909
0.325893
0.173650
0.311918
-0.076612
-0.033690
0.552075
-0.218696
-0.365170
0.489395
0.185184
-0.025982
-0.278649
-0.361257
0.301976
-0.324743
0.502026
0.353469
0.189070
0.392894
0.094380
-0.522506
0.286190
-0.224685
-0.248741
0.016576
-0.008954
0.327415
0.478186
-0.021894
-0.205899
0.109942
0.302155
0.255104
0.102587
-0.337440
-0.631754
0.451256
-0.343108
0.534477
0.327470
0.556871
0.302656
0.397091
-0.227543
0.216103
-0.390959
-0.339235
-0.509585
0.006804
0.418662
0.399043
-0.564525
0.198692
0.006450
-0.436773
-0.001217
-0.131124
-0.219115
-0.206039
-0.171310
-0.647742
0.049321
0.255104
-0.210267
-0.576443
-0.462362
0.105295
-0.210702
-0.108430
0.343275
0.358800
-0.296016
0.225080
-0.125951
0.333945
-0.009438
-0.217405
0.186428
0.086579
0.386285
-0.082395
0.477453
-0.377356
0.319329
-0.076497
0.179345
0.093273
0.046481
0.307691
-0.121104
-0.004845
-0.281242
0.226601
0.201504
-0.556748
-0.167055
0.158832
0.358816
-0.152498
0.488487
-0.413555
0.482652
0.118408
-0.316394
0.524047
-0.419496
-0.074755
0.199824
0.533498
0.032844
-0.343066
0.077504
-0.040540
-0.423260
0.361302
0.600933
0.267851
0.287215
-0.407000
0.012999
0.465370
-0.230916
0.448192
0.069729
-0.237013
0.187960
-0.411437
-0.550516
-0.299692
0.332604
-0.589148
0.407403
-0.373611
0.071898
0.250970
0.211298
0.645864
-0.590964
-0.233793
-0.269769
-0.493716
-0.201080
-0.512324
0.215979
-0.207280
0.263285
-0.147649
-0.056342
0.498665
0.444498
-0.027592
-0.241667
0.276976
0.048800
0.182369
-0.491418
-0.185413
0.159566
-0.234968
0.154235
-0.438534
0.321632
-0.113536
0.326609
0.329072
-0.144938
0.043336
-0.206083
0.075052
0.346584
-0.108710
0.233619
-0.072661
0.204200
-0.605883
0.569069
0.057214
0.310620
0.580879
-0.125212
-0.042748
-0.393714
0.132575
-0.331856
0.205552
0.340615
-0.394594
0.593092
-0.485721
-0.368322
-0.281039
-0.370139
0.013146
0.409497
0.624597
0.216375
-0.376032
-0.536628
0.361688
0.048551
-0.124425
0.337953
-0.017811
-0.534975
-0.157778
-0.527650
0.352587
0.136896
-0.432258
-0.151332
0.257849
-0.546549
0.629113
-0.039893
-0.144338
0.378300
-0.037961
-0.544184
0.047314
-0.090203
0.427999
-0.096468
-0.324178
-0.314312
0.059841
0.366163
-0.067855
0.124402
0.423363
0.230624
-0.366797
-0.348279
-0.077470
0.188410
0.446890
0.441062
-0.135162
-0.383296
0.005247
0.232544
0.415768
0.330738
-0.407974
0.158025
-0.026590
0.147823
0.273720
0.426315
-0.253762
-0.288599
0.094401
-0.374499
-0.457988
-0.419963
-0.270947
-0.168806
-0.640253
0.418845
0.685007
0.451271
0.139010
-0.123312
-0.658824
-0.159252
-0.281450
-0.514164
0.017840
-0.625138
0.228387
0.362896
0.427947
-0.198309
0.281575
0.041263
-0.102627
-0.276427
-0.035382
-0.434258
-0.355041
0.405645
-0.223312
-0.562397
0.259002
0.189898
0.240774
-0.102876
0.157079
-0.184078
0.103170
-0.134742
0.420908
0.315124
0.284001
-0.345041
0.705546
0.694564
0.387392
-0.127277
0.141418
0.284100
-0.374059
-0.258379
-0.112347
-0.552165
-0.230538
-0.357233
0.467613
-0.025289
0.463373
-0.214913
0.515536
0.335444
-0.508129
-0.284694
-0.168619
-0.059017
-0.120034
0.165861
0.130245
-0.048732
-0.221919
0.142873
-0.096621
0.000844
-0.690227
-0.536618
0.353981
-0.101033
0.081060
0.452161
0.238840
-0.202350
0.192498
-0.214124
-0.218831
-0.180050
-0.176704
-0.345953
-0.189981
0.036609
0.326086
0.028608
-0.666896
-0.074976
-0.223478
0.084343
-0.044707
0.473758
-0.148235
-0.239135
0.202814
0.192704
0.133178
0.326535
0.330675
-0.195021
0.023345
-0.447685
-0.508184
0.155456
-0.318707
-0.144559
0.018470
-0.294535
-0.291568
-0.107141
0.333010
-0.435065
0.080584
0.187380
-0.210684
0.379133
0.098369
0.536040
0.065402
0.252133
0.701077
0.427084
-0.389844
0.267681
-0.513390
0.032458
-0.313732
0.317766
0.112663
-0.838084
-0.457972
-0.126468
0.000970
0.472806
0.527585
0.204848
0.256375
-0.200174
-0.051045
0.401372
0.142769
0.384858
-0.405943
0.268645
-0.000667
0.351584
-0.299896
-0.155179
0.332311
-0.250615
0.328371
0.503170
-0.407407
-0.479385
-0.096633
0.117577
-0.249704
0.008263
-0.166409
0.294925
0.371530
-0.654675
0.082037
-0.004625
-0.383279
0.262804
-0.361600
-0.051730
0.486584
-0.229813
-0.385761
0.276445
-0.309214
-0.152609
0.403960
0.269947
0.599077
-0.218476
0.346908
-0.365476
0.331595
-0.067053
0.394602
-0.208977
0.080582
-0.451205
-0.141953
0.198547
-0.181750
0.159293
-0.357758
0.234089
0.231632
-0.378085
-0.222314
0.121263
-0.452031
0.276103
0.362943
0.054921
-0.211555
-0.496462
0.193896
-0.090894
0.294852
0.386561
0.354321
0.072429
0.157638
-0.303749
0.301836
-0.283415
-0.228357
0.516489
0.073694
0.027250
0.456101
0.275080
0.535919
0.122134
0.221950
0.310658
0.183524
-0.259241
0.152793
-0.389505
0.204034
0.278348
-0.032870
0.397410
0.309321
-0.271059
0.461334
0.484004
0.269531
-0.129642
-0.381709
-0.315922
0.115844
-0.345534
-0.029183
0.181440
0.058486
0.426526
-0.216006
0.258848
-0.417832
0.316593
-0.250419
0.243475
0.387806
-0.180135
-0.307239
-0.000262
-0.031768
-0.315848
0.066491
0.355207
-0.061742
-0.464315
0.094061
0.031314
-0.382117
-0.523438
-0.244055
0.184740
0.046868
-0.424901
0.429335
0.115428
-0.063636
0.318762
0.077541
-0.275970
-0.217172
0.440292
0.316648
0.645890
0.535386
-0.366814
0.508454
-0.590493
-0.483816
0.225528
-0.732107
-0.060511
0.247096
-0.110619
-0.410941
0.313147
0.200161
0.049709
0.178223
0.065124
-0.350954
0.281932
0.305865
-0.055295
0.405683
-0.263271
0.571684
-0.427743
-0.285197
-0.744877
-0.265119
-0.506310
0.235837
-0.211603
0.604375
0.155074
0.290414
-0.320166
-0.304900
-0.305685
-0.428788
0.121364
0.244489
0.062333
-0.170517
0.494274
0.045621
0.151193
0.276368
0.071393
0.394916
-0.395404
-0.111895
0.098380
0.150173
0.121027
-0.181704
0.098347
-0.413329
-0.468914
-0.159251
-0.374998
0.340643
0.135633
-0.289521
-0.137763
0.594657
0.262064
-0.487149
0.055662
0.169321
0.285773
-0.129114
0.206643
-0.576407
0.006920
-0.303183
-0.299519
0.022435
-0.588473
0.292052
-0.300082
-0.685393
0.010105
-0.473628
0.426195
0.407208
0.172112
0.151292
-0.547341
-0.039091
0.242965
-0.514609
-0.236182
-0.124010
-0.409235
0.078961
0.184255
0.667405
-0.254614
0.057517
-0.123991
0.048009
0.146310
-0.381956
0.047330
-0.571564
0.058513
-0.522857
-0.326986
0.497866
0.458528
0.237894
-0.280797
0.552741
0.469766
0.247400
0.031326
-0.011240
-0.385106
-0.005449
-0.100309
-0.636021
0.485488
0.193246
-0.064296
0.414270
0.314571
-0.037658
-0.290576
-0.485834
0.108288
0.337274
0.181027
0.053796
0.489215
-0.295000
-0.451999
0.563687
-0.643588
0.062012
-0.436835
0.047376
0.264648
-0.203331
-0.326737
-0.325617
-0.558252
-0.080331
-0.275975
-0.042569
-0.046909
-0.079697
-0.106738
0.001712
0.057541
0.075759
-0.356284
0.390824
0.013134
0.430092
-0.101871
-0.282496
-0.131909
-0.208673
0.294022
-0.306551
-0.589259
-0.188998
-0.423791
0.418557
-0.530253
-0.641423
0.177915
-0.178282
-0.236653
0.608718
-0.494788
-0.237875
0.092827
-0.090674
-0.449899
-0.286325
-0.149415
-0.018729
-0.288524
0.154294
-0.284641
-0.255488
-0.419030
0.249772
-0.131230
-0.531648
0.183839
0.093235
-0.052426
-0.181540
0.291540
0.346347
-0.255026
0.068231
-0.353467
-0.116223
-0.306203
-0.381147
0.404938
0.485929
-0.475840
-0.496945
-0.158869
0.193213
0.202933
-0.137942
0.245713
-0.050556
-0.213506
0.183921
-0.839628
0.084098
-0.081540
0.800311
-0.100247
0.480896
0.351264
-0.220440
-0.325235
-0.692281
-0.458119
0.013342
0.271391
-0.557530
-0.143788
0.310783
-0.088706
-0.150437
-0.240705
-0.497989
-0.034978
-0.214657
