0.049174
-0.267401
-0.049595
0.169154
-0.235531
-0.052534
0.462527
0.567346
0.316627
0.288794
-0.050255
0.152468
0.147510
-0.209683
-0.532626
-0.144311
-0.318310
0.069199
-0.322638
0.542145
0.093081
-0.315270
-0.047041
-0.464273
0.250401
-0.056892
-0.157285
0.067116
0.080678
-0.441044
0.309536
0.107694
0.329142
-0.472395
0.033653
0.124803
0.257235
0.295290
-0.318967
-0.504299
-0.490264
0.251721
-0.265507
-0.113450
0.025076
0.042467
0.452390
-0.411707
-0.383341
0.131192
-0.048340
0.000576
-0.114196
-0.388839
-0.027700
0.140630
-0.131537
0.176494
-0.363515
-0.213368
-0.356102
-0.029243
0.459662
-0.378162
0.351715
0.352637
0.308276
-0.299619
0.379827
0.125948
0.083612
0.465138
-0.128248
0.106103
0.346931
0.036172
-0.010652
0.486052
-0.240326
0.063891
-0.241960
0.146211
-0.467174
-0.260958
-0.309818
-0.459643
-0.002584
0.509951
-0.291214
0.258009
0.067325
-0.412985
-0.138213
0.216242
0.150472
-0.425445
0.294459
-0.516874
-0.039007
0.459453
0.577562
-0.407186
-0.224398
0.204472
0.004225
-0.111387
0.270108
-0.357217
0.089583
0.055228
-0.085150
0.332657
0.253979
0.517505
0.469612
-0.293866
0.130872
-0.084669
0.173328
-0.195870
0.301852
-0.294497
0.134636
-0.265512
-0.240757
-0.006032
-0.261998
-0.208654
0.198880
0.320697
0.136985
0.102167
0.105041
-0.370485
-0.250501
0.020787
0.664552
0.201573
0.203896
-0.381273
0.233384
-0.237383
-0.244914
-0.668015
-0.648640
0.163651
-0.418460
0.033851
-0.296814
0.380890
0.024286
0.475186
0.236188
-0.374955
0.830872
0.649710
0.245243
0.085894
-0.466877
-0.477334
0.146997
-0.534815
0.438804
0.405240
-0.116005
0.319412
-0.031752
-0.063523
-0.369199
-0.485079
0.032213
0.532106
-0.357733
0.088468
0.227358
-0.195229
0.018002
-0.371781
0.293494
0.205354
-0.225040
-0.271829
-0.220893
0.274431
-0.549043
0.345409
0.029082
-0.291762
-0.071680
0.067303
0.053295
-0.306897
-0.357957
-0.150085
-0.088037
-0.042408
-0.323339
-0.008445
-0.092594
0.446864
0.099195
0.119430
-0.539193
0.351048
-0.321876
0.422801
-0.001503
-0.183029
-0.119160
0.230994
0.040616
0.122215
-0.148943
-0.511560
0.049148
-0.250513
-0.106990
-0.287873
0.249847
-0.275193
-0.487983
-0.721152
0.139358
0.424132
-0.136845
-0.093575
-0.081370
-0.271356
0.382929
0.040900
-0.516425
0.525370
0.327124
0.342066
-0.483876
0.192331
-0.260872
-0.264195
-0.638117
0.077786
0.113282
0.397435
-0.636873
0.127970
0.380857
0.292016
-0.524438
-0.070409
0.257019
-0.261014
-0.110488
-0.114276
0.222224
0.085909
-0.455513
0.202512
0.105750
0.337207
0.313866
0.224468
0.607609
-0.483864
-0.389980
0.379776
0.289531
0.048608
-0.502400
-0.341822
0.220612
0.594697
-0.589448
0.295813
0.462053
-0.421032
0.353408
-0.173818
0.089503
-0.163596
-0.015325
-0.195982
0.376445
-0.310677
0.574077
-0.101451
-0.307683
0.090777
-0.569773
-0.273104
-0.493942
-0.236297
-0.669990
0.042829
0.371506
0.321892
0.432232
-0.041568
-0.583600
0.022626
0.082065
0.270667
0.202396
-0.329464
-0.263440
-0.011655
-0.248410
0.236120
0.367647
-0.026978
-0.197680
-0.456234
-0.041869
-0.229195
-0.316453
0.585132
0.401908
-0.592173
0.303717
-0.011973
-0.433267
-0.064593
0.009616
0.011458
-0.172713
-0.114764
-0.561003
-0.419544
0.438255
-0.275733
0.256943
-0.359762
0.131530
-0.101377
-0.538775
0.250418
-0.203316
0.275892
-0.396232
0.539883
-0.266195
0.365018
0.192296
0.726857
-0.000410
-0.066369
-0.390584
0.231235
-0.459109
-0.240707
0.025015
0.186469
0.116669
-0.180372
-0.170992
-0.220348
0.233723
0.280836
0.299357
0.363277
0.588403
0.006087
-0.127242
0.231978
0.114151
0.198179
0.305613
-0.162465
0.138169
0.518627
0.451015
-0.014925
0.001994
0.276843
-0.088741
0.289027
-0.205437
-0.180345
-0.595092
-0.241979
0.230817
-0.311476
-0.268652
0.626132
-0.326019
0.431085
-0.288925
-0.001833
-0.005533
0.200176
0.206136
0.150289
0.271951
0.108095
0.127429
0.438208
0.493046
0.092298
0.049033
0.295835
-0.315680
-0.054934
-0.126097
-0.675188
-0.091456
0.272663
-0.072364
-0.608072
0.879219
-0.171024
0.365004
0.419275
-0.189128
0.356254
-0.191781
0.575476
-0.132220
-0.297103
-0.020420
0.521745
0.373441
-0.059255
-0.393782
-0.005348
-0.082522
0.510895
0.376561
-0.237970
0.138772
-0.030253
-0.304681
0.210081
-0.220544
0.475988
0.024995
-0.384537
-0.028338
-0.709641
0.132923
0.523197
0.068527
0.211739
-0.313011
0.462166
0.369227
0.497702
0.022567
-0.415672
-0.123132
0.482161
0.272401
0.219060
0.219965
0.102445
-0.166035
-0.698706
-0.157296
0.016300
0.347451
0.135170
-0.138806
-0.628895
-0.253643
-0.413280
-0.002081
-0.379032
-0.476420
0.560047
-0.014023
0.135475
0.281290
0.242512
-0.161849
-0.115255
-0.219345
-0.354419
-0.212461
0.140827
-0.577304
0.316058
-0.286456
-0.041020
-0.563161
-0.200422
0.261407
0.131286
0.527308
0.260689
-0.082723
-0.037100
-0.190713
0.056662
-0.216972
0.237737
0.047046
0.281946
0.364567
0.054314
-0.030151
-0.246389
0.349305
-0.319933
-0.046313
0.164150
0.065213
-0.174312
-0.509306
0.197323
0.036620
-0.469519
-0.137692
0.292977
-0.253970
0.301029
-0.152268
0.664857
-0.438448
-0.018835
0.228878
0.221484
0.120818
0.359752
-0.368927
0.292390
-0.463853
0.530459
-0.576252
-0.344653
0.255395
0.200578
0.643492
0.202621
-0.338670
-0.204427
0.034507
0.445895
0.122042
-0.134034
-0.367466
-0.009784
0.325340
-0.137514
-0.133039
0.406862
-0.136025
0.238447
0.355098
-0.056296
-0.362960
-0.017174
0.400490
0.382917
0.028913
0.259100
0.231636
-0.111655
-0.079134
-0.462371
0.346610
0.560098
-0.294183
-0.243434
-0.105400
0.052206
0.022526
0.170496
-0.409858
0.038554
0.203117
-0.101884
0.257705
-0.525407
-0.332699
0.464340
0.044184
0.175012
-0.481135
0.469717
-0.100712
-0.375659
-0.365299
0.441738
-0.380861
-0.222088
0.029126
0.293219
-0.112207
0.591501
0.122367
0.538553
-0.044234
-0.146355
0.541185
-0.429935
-0.135533
0.626030
-0.256452
-0.261597
0.210935
-0.470771
-0.211629
0.125889
0.515673
-0.037227
0.379652
-0.448253
-0.607063
-0.512456
-0.499728
0.158389
-0.449131
0.123615
-0.443804
0.179867
-0.293968
0.897074
-0.310930
-0.193820
-0.303057
0.334267
-0.179883
0.541191
-0.487077
-0.431632
0.401547
0.095294
-0.450658
0.197970
-0.459456
0.610331
0.457079
0.229748
-0.642436
-0.178242
0.052247
-0.056363
-0.284741
-0.070141
0.508758
0.351392
-0.003582
0.293283
-0.455812
0.023768
0.108552
-0.152004
-0.532434
0.192320
0.068904
0.441997
-0.681491
-0.065926
0.624136
0.732247
-0.270975
0.443969
-0.315743
0.360658
-0.225926
-0.015041
-0.280888
0.759625
0.143908
0.332869
0.621587
0.366722
0.228602
0.257960
0.620884
-0.040424
0.071054
-0.092220
-0.221289
-0.089655
-0.175044
0.104211
0.020122
0.042017
0.152287
0.177724
-0.497870
0.250316
-0.298413
-0.342827
-0.030615
0.405723
0.085822
-0.485807
-0.142245
0.638602
-0.074817
-0.500221
-0.221969
0.013181
0.377947
0.239921
0.231086
-0.016181
0.241465
0.458636
0.259841
0.601964
0.431055
-0.520957
-0.271233
0.373318
-0.134878
0.857746
0.502313
-0.099680
-0.615738
0.274832
0.553324
-0.259854
-0.160902
-0.183860
0.183732
0.391271
-0.375433
-0.364409
0.321553
0.005588
-0.307497
0.434196
0.004988
0.197379
-0.647373
0.257914
0.060672
-0.638171
0.295666
-0.065742
0.284482
-0.042865
0.051716
-0.342035
-0.027429
-0.068744
-0.105211
0.118949
-0.600491
-0.196149
-0.211554
0.541451
0.436567
-0.314979
-0.149573
0.227257
0.215040
0.334588
0.216441
-0.421647
0.207491
-0.263252
0.195173
0.373658
-0.621240
-0.255954
0.142768
0.119875
0.038216
-0.074416
-0.236049
0.257454
0.274402
0.429332
-0.380507
0.140247
0.259708
0.029726
-0.272769
0.333544
0.510605
-0.176491
-0.214189
-0.024636
0.527965
0.043729
0.205825
-0.354326
-0.325467
-0.090601
0.380188
-0.163024
0.256635
-0.428277
-0.315703
0.714793
-0.428980
0.739189
0.510650
-0.232825
-0.042386
0.021000
-0.217724
0.437617
-0.577714
0.308519
0.229201
0.813649
0.306850
-0.142994
-0.368998
-0.543717
0.181082
-0.591627
-0.414227
-0.024552
-0.226547
0.504594
-0.064448
0.126810
-0.329126
0.501318
0.092634
0.151914
-0.324670
0.331759
