0.041650
-0.133990
-0.438654
0.530192
-0.077694
-0.420906
-0.152157
-0.184348
-0.134297
0.426129
0.305635
-0.237925
0.144804
-0.241709
-0.381780
0.258048
0.125674
-0.138693
0.389227
-0.060968
0.368905
-0.000685
-0.462568
0.311779
0.067384
0.317165
0.081995
0.318049
-0.190528
0.603952
-0.316854
-0.276083
0.389129
-0.473758
0.336579
-0.004253
-0.436167
-0.438010
0.023232
0.402453
-0.236171
0.019489
-0.667185
-0.215489
-0.258396
-0.497575
0.347328
0.065275
-0.271648
-0.083393
-0.095176
-0.083051
-0.143810
-0.395131
0.693647
0.516925
0.164914
-0.191633
0.205082
0.531719
-0.218850
0.608865
-0.142558
-0.377509
-0.446327
-0.576184
-0.133540
-0.082472
0.148082
-0.224906
-0.039931
0.460348
0.281235
0.299190
-0.026578
0.225558
0.211768
-0.533961
0.407128
-0.471695
-0.042325
0.325198
-0.536870
0.487146
0.279429
-0.341349
-0.079780
0.768937
0.474022
0.275722
-0.108629
0.136912
-0.393202
-0.155512
-0.040844
0.188616
0.254312
-0.399624
-0.144031
0.368835
0.642065
-0.329251
-0.013304
-0.327442
-0.212967
-0.074499
0.817502
0.035030
0.330401
-0.234288
-0.107388
0.149166
-0.446553
-0.439798
-0.225089
-0.128394
0.141417
-0.231700
0.076033
0.313992
0.692383
0.200577
0.340730
-0.246870
-0.193542
0.394583
0.138225
-0.539515
-0.035244
-0.318961
-0.968321
0.556039
0.122063
0.279213
0.805225
0.043564
-0.140174
-0.308261
-0.154715
-0.018073
-0.458891
-0.041441
-0.112337
-0.093877
0.362863
0.133904
-0.390146
0.168341
0.074101
0.040415
-0.148061
-0.236226
-0.109130
0.025115
0.256994
0.118769
-0.483476
-0.312001
-0.215664
-0.389288
0.126166
0.067384
0.353503
0.482480
0.282736
0.024403
-0.341256
-0.511789
0.422054
-0.260555
0.170954
-0.091012
-0.487330
-0.188042
-0.460802
0.453382
0.232227
0.310121
-0.157985
-0.484158
0.326734
-0.156894
-0.238541
-0.456056
0.390944
0.193477
-0.268671
-0.543221
-0.005152
-0.209378
0.477840
0.469754
-0.400452
-0.040556
0.381792
-0.161978
0.172839
-0.625480
0.211953
0.481116
0.530077
0.141262
0.223232
0.021593
-0.139937
-0.295093
-0.340679
0.138680
0.019010
0.196748
0.211945
0.329072
0.003416
-0.313664
0.415499
0.180480
-0.481103
0.157592
0.071920
0.071116
-0.217342
0.155277
-0.089996
-0.163116
0.428807
0.358353
-0.414554
0.469457
-0.328223
0.563217
0.022993
0.182197
0.005019
-0.278528
-0.432214
0.049203
-0.019727
-0.257606
-0.227395
-0.350820
0.436475
0.113020
-0.296657
0.059664
0.215145
0.060754
-0.172507
-0.106626
0.293845
-0.513109
0.041322
-0.012203
0.649191
-0.229175
-0.178291
-0.179071
-0.153361
0.535936
-0.202330
0.405295
0.502583
-0.298997
-0.292023
-0.460535
0.175448
-0.072344
-0.104457
-0.546730
-0.061295
0.452078
-0.178681
-0.450755
0.286021
0.522793
0.041515
0.069692
-0.002660
0.433033
0.487325
-0.024498
0.295180
-0.109381
-0.168278
0.036246
-0.301196
-0.524910
-0.774231
-0.143436
0.403119
-0.168332
-0.387292
-0.535620
-0.335332
0.306294
0.574918
-0.120436
-0.055821
-0.667493
-0.166624
-0.276028
0.395448
0.231066
0.184015
0.564069
-0.563226
0.118436
0.110626
0.139010
0.158030
0.385544
-0.090539
-0.033147
0.173451
-0.051235
0.426693
-0.191295
-0.644533
0.078923
-0.311023
0.479227
-0.370465
0.056458
-0.344961
-0.284339
-0.520446
0.407941
-0.459241
0.293455
-0.318812
-0.359762
-0.096085
-0.229031
-0.059704
-0.180820
0.022117
0.507897
-0.492700
-0.522365
0.277237
-0.148522
-0.777497
-0.171335
0.702913
-0.325897
0.517427
0.352718
0.165796
0.338410
-0.520586
-0.524616
0.237093
0.242221
0.571008
-0.368403
-0.458847
0.017818
-0.376919
0.346917
0.240572
0.187083
-0.074925
0.135349
-0.278970
0.121344
0.318222
-0.123786
0.565027
-0.338071
0.025103
-0.091274
0.356948
0.343879
0.204203
0.200020
0.354848
0.100645
-0.293144
0.287981
-0.194868
0.136716
0.089077
-0.735623
-0.363635
-0.111233
-0.222389
-0.367568
-0.016491
0.325353
0.268134
-0.003480
-0.077339
-0.086639
0.172128
0.113091
0.424715
-0.170342
0.068245
0.012271
0.034559
-0.457299
0.031538
-0.424937
0.176282
-0.047882
0.443022
0.066397
0.261654
-0.106699
-0.003319
0.366189
-0.419524
0.038600
-0.282697
0.769879
-0.183462
-0.145830
-0.000735
0.553183
0.200174
0.134317
-0.069057
0.558544
0.349272
-0.322674
0.741592
-0.187605
-0.185027
0.107342
0.219525
-0.298672
0.343102
-0.029530
-0.186267
-0.390530
-0.431157
-0.370189
-0.135099
-0.291894
0.352282
-0.134503
0.059476
-0.106430
-0.243509
-0.286676
-0.140118
0.050586
-0.254913
-0.669522
-0.591262
-0.654381
0.144604
-0.245812
0.195176
0.177387
0.010380
0.348396
0.037369
0.144459
-0.653149
0.246927
0.221349
-0.389770
0.284375
-0.196709
-0.559719
-0.441786
0.274821
-0.228623
0.355212
-0.439354
-0.244800
-0.262891
0.593855
0.291083
-0.139642
0.222282
-0.695074
0.123146
0.014004
-0.152185
0.374185
0.221499
-0.312999
0.153509
-0.514237
-0.018375
0.312774
0.125292
-0.345217
0.283160
-0.516309
-0.534707
0.763897
0.069027
0.086035
-0.072565
-0.464074
0.385365
0.150642
0.101918
0.063549
0.293435
0.209029
-0.500212
-0.118920
-0.659554
-0.055801
0.196883
0.076452
0.519868
-0.023583
0.158324
-0.122229
0.316624
-0.545417
0.400462
-0.587189
0.042198
0.191380
0.390002
0.414562
0.280334
-0.232646
0.026518
-0.347093
-0.417929
0.213047
0.152793
0.625038
-0.393746
-0.191908
0.190832
-0.393573
0.474693
0.146833
-0.627807
0.265805
0.340512
0.056210
0.003877
0.078371
0.473911
-0.564893
-0.672666
0.313912
0.168313
0.325365
0.086724
-0.406967
0.343617
0.524948
-0.402065
0.684886
0.446426
0.291688
-0.064517
0.358768
-0.191775
-0.405842
-0.149769
0.464805
0.481994
-0.153730
0.094880
0.276044
0.292263
0.125055
-0.028186
-0.642969
0.209529
-0.134037
0.449224
-0.370378
-0.274121
0.024106
-0.355540
-0.251956
0.377245
0.236051
-0.032093
0.056307
-0.095524
0.065696
0.570329
-0.132599
-0.242047
-0.031182
-0.229911
-0.327341
0.378161
0.086479
0.073032
-0.153757
0.265974
-0.574845
-0.721272
-0.210947
-0.453439
0.281932
-0.393123
0.166599
0.077347
0.535705
0.367968
-0.235529
-0.104370
-0.643837
0.291027
-0.234107
0.175005
0.384130
0.002755
0.240076
0.128413
0.401527
-0.142188
0.726178
-0.055013
0.268609
-0.194773
0.461829
0.078551
0.269658
-0.013407
-0.031214
-0.242489
-0.430132
0.498097
0.379392
0.090745
-0.443008
0.174570
-0.002273
-0.351048
0.330108
0.329936
0.473650
-0.148633
0.068796
-0.538840
-0.725726
0.361763
0.158211
0.467366
-0.530665
-0.020275
0.193006
0.221681
0.082599
0.149815
-0.410167
0.130358
0.504471
0.243170
0.379685
0.249558
0.340833
0.255120
-0.235582
0.548263
-0.504407
-0.265756
0.024784
-0.182294
0.050710
-0.336214
0.625040
0.144318
-0.230211
0.481894
0.506412
-0.489598
-0.161435
-0.478012
0.025281
0.406514
-0.046670
0.057517
-0.019074
-0.015259
-0.358062
0.266405
-0.688355
0.151845
-0.390157
-0.522857
0.241100
0.628936
0.233953
0.189503
0.194240
-0.062403
-0.291821
-0.624691
0.315584
-0.072333
0.515270
-0.274929
0.551582
0.250126
-0.378930
-0.588141
0.196996
0.485284
0.368556
-0.452204
0.182948
0.176426
-0.032803
0.528363
0.629156
0.150740
0.188294
-0.023151
0.113299
-0.461716
-0.527375
-0.080061
0.359233
0.301777
0.136435
0.426069
0.307739
0.274859
-0.012605
0.064405
0.266561
0.025125
-0.297622
-0.370414
-0.369596
0.037735
0.405299
0.352187
0.012686
0.138342
0.070458
0.173171
0.248894
-0.047683
-0.077414
-0.263544
-0.543159
0.123896
-0.063697
0.576235
-0.120823
-0.026719
0.544765
0.203823
-0.203416
-0.115869
-0.508205
0.612231
0.100560
-0.205478
-0.543026
-0.261428
-0.465503
-0.376762
-0.097899
-0.267505
0.082725
-0.527783
0.264656
-0.145713
-0.257939
0.556987
-0.071555
-0.274044
0.599164
0.134462
-0.256740
-0.336067
-0.072633
-0.185706
0.237985
-0.366533
-0.117054
-0.232343
-0.223403
0.261384
0.404938
-0.538829
0.054783
-0.346793
-0.180748
0.325108
0.141359
0.200996
-0.253028
-0.070865
0.100734
-0.185245
0.022555
0.121056
0.176604
0.096244
0.267744
0.106043
0.153907
0.283521
0.508340
-0.172641
0.617303
-0.085590
-0.399563
-0.125436
-0.159178
-0.395679
0.381968
0.127359
0.203338
0.228340
0.342051
0.215036
