0.183590
-0.374654
-0.438654
0.020410
0.082978
0.266674
0.459611
-0.360022
0.396185
-0.254165
-0.228021
-0.364163
-0.100627
0.053666
0.234333
0.512144
-0.430594
-0.188533
0.189230
-0.156135
0.261627
0.308212
0.020342
0.485659
0.351007
0.246527
0.166447
0.696722
-0.274286
0.500728
0.293742
0.338318
0.153388
0.209970
0.180174
-0.141175
0.595738
-0.161032
0.405123
0.167215
0.569027
-0.335881
0.104343
0.049831
-0.040929
-0.545074
-0.292140
-0.065799
0.263299
-0.026191
0.519129
-0.107345
0.274416
-0.346919
-0.055691
0.467662
0.071000
-0.142229
0.360384
-0.485936
0.258312
0.130288
0.231000
0.054078
-0.446327
0.147514
0.246962
0.058551
0.453377
-0.224906
0.261737
-0.434988
0.427750
0.196052
0.428571
0.125304
-0.458187
-0.249958
0.020937
-0.375520
0.254833
0.325198
-0.359950
-0.356394
0.374595
-0.341349
-0.175521
-0.162256
0.319866
-0.063904
-0.221287
0.316819
-0.010264
-0.162260
0.043087
0.188616
0.326032
-0.338769
-0.603562
0.348306
0.031321
0.078019
-0.198346
0.281355
-0.178741
0.079777
0.737486
0.231228
0.853258
0.282257
-0.035729
0.260810
-0.115478
0.040323
0.054607
-0.128394
0.242592
0.300452
-0.131211
0.244754
0.301852
0.399493
-0.053671
0.533806
-0.342016
0.069841
0.043580
-0.200704
0.271062
0.282767
0.152149
0.233773
0.113009
0.002546
-0.575964
-0.277022
0.044581
-0.391850
-0.363355
0.029640
-0.432412
-0.419407
-0.198252
0.034196
0.402285
0.168690
-0.390146
0.466967
-0.160485
0.472896
-0.542898
-0.341180
0.299054
-0.334815
-0.281645
-0.351453
-0.070335
0.126301
0.268240
-0.453004
0.142244
0.376573
0.632194
0.482480
0.295481
-0.171676
-0.446968
-0.242136
0.046739
0.299275
0.066445
-0.059792
-0.097780
-0.026906
0.125465
0.453382
-0.382203
0.242928
-0.136567
0.337691
0.010785
0.078280
-0.353134
-0.139780
-0.152052
0.194273
0.006877
0.426357
-0.028950
-0.117502
0.515717
-0.162744
0.208290
-0.259136
-0.147627
-0.014397
-0.472439
-0.127502
0.211953
-0.513392
0.227623
-0.508312
-0.375358
-0.359110
0.371278
-0.292784
-0.276625
-0.121539
-0.333642
0.138165
-0.332318
0.398262
-0.540664
-0.500105
-0.507590
0.464434
-0.176297
0.186435
0.100200
0.018113
0.686309
0.128774
-0.392225
0.028902
-0.371126
0.377807
0.875812
-0.280897
-0.396271
0.062551
0.256254
-0.420184
-0.123799
-0.178255
0.562528
0.036024
-0.019727
0.072501
-0.605324
0.195811
0.152123
-0.029267
-0.482286
-0.147069
-0.418088
0.443928
0.556549
-0.263254
-0.625699
0.235239
0.235692
0.329147
-0.420253
-0.085614
-0.213910
-0.227589
-0.520391
0.575942
0.325810
0.402171
-0.115319
-0.483864
-0.403467
0.606206
0.048788
0.534996
-0.011182
0.125731
0.070142
0.403923
-0.045509
0.207758
0.435321
-0.118655
-0.215303
0.069692
0.094351
0.446027
-0.596888
0.347346
0.169455
-0.149672
-0.470865
-0.008781
0.193880
0.467930
-0.381878
-0.143436
-0.335279
-0.177847
-0.051928
-0.251848
-0.335332
0.292561
0.541226
-0.141653
-0.209754
-0.255747
-0.273643
0.342747
-0.375493
0.049387
0.260474
-0.113384
-0.350745
0.077317
-0.377717
0.044145
0.056740
-0.605842
0.156891
0.045678
0.232744
-0.068481
0.324244
-0.267000
0.222263
-0.425899
0.528553
-0.112927
0.038333
0.644534
-0.153396
0.322605
-0.479494
-0.218933
0.349572
-0.071063
0.039052
0.213344
-0.010483
-0.024110
0.061290
0.341463
0.339145
0.248015
-0.356224
0.406254
-0.449791
-0.148522
0.380272
-0.403587
-0.231242
0.396172
0.048127
0.040239
-0.052033
-0.584001
-0.511744
0.130692
-0.490243
-0.178069
-0.471399
-0.151190
0.460305
-0.265324
-0.708157
-0.026378
0.637132
-0.302036
0.087149
0.135349
-0.485440
-0.064645
-0.458370
-0.172849
-0.001393
-0.163249
0.491560
0.160157
-0.106947
0.226868
-0.442756
0.375742
-0.150614
-0.345892
-0.217152
-0.129341
0.061075
0.225236
0.433107
-0.126768
-0.017085
-0.200575
-0.337675
-0.012247
0.112526
-0.360632
0.049076
0.618181
-0.154743
-0.516447
-0.470792
0.500453
0.344586
0.543110
0.588850
-0.192663
-0.168975
-0.023940
0.250682
-0.423436
0.106271
0.232217
0.661959
0.066414
0.057132
-0.306696
-0.184150
0.056002
-0.438418
-0.107529
0.156503
-0.062077
-0.439410
-0.009224
-0.159792
-0.309650
-0.161020
-0.098063
-0.470127
0.426619
0.065298
-0.322674
0.741592
-0.037697
0.245438
0.226437
0.305834
-0.251972
0.427136
-0.280627
-0.462324
0.345140
-0.137985
0.137058
-0.192368
-0.381292
0.364554
-0.293933
-0.122754
0.197554
-0.243509
-0.289970
-0.187934
-0.433333
0.003809
-0.669522
-0.178260
-0.605954
0.650732
0.218694
-0.222970
0.211802
0.388859
0.615861
0.252947
0.123906
0.450993
0.016149
0.090995
-0.002687
-0.274688
0.085090
-0.140153
0.513538
-0.147370
-0.228623
-0.510304
-0.297826
-0.722538
-0.262891
-0.103348
0.476532
-0.241121
0.040229
-0.154174
-0.257332
-0.161407
-0.189290
-0.021005
-0.271821
0.331576
0.317080
-0.035627
-0.467205
-0.035209
0.103895
0.418117
0.488493
0.107425
-0.301425
-0.040967
0.069027
-0.175654
-0.323804
0.473979
-0.061360
0.107322
-0.334406
-0.441657
0.283651
0.542106
0.462327
0.288041
-0.461120
-0.055801
0.205903
0.370990
0.549525
-0.124778
-0.034051
-0.343595
-0.056005
0.723380
0.400462
0.045325
0.200155
0.141266
0.517051
-0.048311
-0.768807
0.023490
0.026518
-0.347093
0.239838
-0.455524
0.532719
0.599011
-0.393746
0.064964
-0.195004
-0.023079
0.051469
0.169197
0.200330
0.405054
-0.191346
-0.003403
0.003877
-0.085251
0.352563
0.005122
-0.672666
0.313912
0.123600
0.325365
0.113423
0.185395
-0.333451
0.406991
-0.615729
0.153746
-0.064611
-0.018260
-0.064517
0.379496
0.436166
-0.336146
-0.358609
-0.449927
-0.241269
-0.019976
0.634544
0.252935
0.403209
0.193200
0.422804
-0.720536
-0.053067
-0.208166
-0.215657
0.310959
0.101307
0.063663
0.120644
0.352610
-0.357769
0.456559
-0.470940
0.214690
-0.070490
-0.486926
0.570329
-0.075361
0.241258
-0.031182
0.180017
-0.105411
0.145422
-0.221185
-0.319195
-0.153757
-0.540143
0.290012
0.281275
0.327466
0.356956
0.404075
0.401059
0.288177
0.486916
-0.398443
0.279309
-0.164880
0.249914
-0.722227
0.304653
-0.037640
0.147792
-0.361527
0.532905
-0.322252
-0.115792
0.184600
-0.304900
0.544061
-0.300795
0.268147
-0.194773
-0.247018
0.070938
0.480220
0.361860
-0.031214
0.364242
0.530821
-0.129093
-0.197965
-0.484170
0.201485
-0.414995
-0.278562
0.501398
-0.301056
-0.289401
-0.492793
-0.148633
0.068796
-0.616933
0.391907
0.111505
0.570138
-0.378842
-0.530665
0.350379
0.508393
-0.364688
0.372795
-0.030636
0.358137
0.333758
-0.058323
-0.493397
-0.347572
-0.384715
0.342810
0.068410
0.065792
0.533911
0.286971
-0.140452
0.106300
-0.393005
0.481616
0.248279
0.033756
-0.020167
0.066368
-0.031753
-0.078403
-0.398003
0.193550
-0.247481
0.047689
0.406514
-0.221826
-0.400313
-0.068988
-0.293166
-0.308265
0.273607
0.727690
-0.561541
-0.138917
-0.289832
0.163412
-0.156499
0.233953
0.502221
-0.152068
-0.205352
-0.610806
0.127104
0.308334
0.303294
-0.074155
0.529378
0.259841
0.250126
-0.067438
-0.109065
0.050740
0.287724
0.273731
-0.102246
-0.456765
0.264279
-0.032803
0.455095
-0.060630
0.315860
0.055773
-0.526740
0.113299
-0.069917
0.136874
-0.192348
0.690063
-0.556677
-0.156856
0.083377
-0.233982
0.023231
0.183481
-0.011049
0.010385
0.379182
-0.265719
-0.098493
0.115528
0.438477
0.476407
-0.006682
-0.175952
0.151806
-0.426456
-0.093982
0.212522
0.297522
-0.166989
-0.221255
0.044894
0.031334
-0.515820
-0.209232
-0.368997
0.084824
0.476381
0.586829
0.466526
0.060410
-0.238664
0.612231
-0.321253
0.244155
0.205733
0.201833
-0.408936
0.331442
-0.169649
-0.465578
-0.103658
0.109479
0.264656
0.533429
0.189847
0.029726
-0.252832
-0.328223
0.113102
-0.495759
-0.513946
0.044679
-0.345330
0.155290
0.352418
-0.464221
-0.091187
0.170534
-0.154818
0.261384
-0.251786
-0.556344
0.132113
-0.164789
-0.056645
0.295625
-0.348041
-0.713321
0.336288
0.089718
-0.227208
0.326286
-0.636365
-0.201281
0.236951
0.081488
-0.174616
-0.358412
-0.358829
-0.666434
0.516601
0.200419
-0.210342
0.156874
-0.732142
-0.207027
-0.223268
0.109013
-0.013968
-0.051168
-0.278209
-0.090213
0.309889
0.431512
