0.522281
-0.218525
0.126712
-0.602201
-0.118829
-0.352670
0.309817
-0.197304
-0.009809
0.070850
0.313134
-0.278775
-0.012754
0.535811
0.398331
0.199737
-0.485603
-0.213391
-0.359138
0.123268
0.060763
-0.293604
0.000058
-0.118748
0.158034
0.080956
0.805314
-0.348476
0.286110
-0.081487
0.047508
-0.115113
-0.062664
-0.266698
-0.176925
0.119710
0.434842
0.044393
-0.081453
0.230132
-0.008468
0.294368
-0.408236
-0.035981
-0.660248
0.484112
0.538610
-0.170419
-0.252079
0.107817
-0.038533
-0.300771
0.091913
0.568265
-0.102419
-0.271619
0.158957
0.198089
-0.347698
-0.377397
-0.260746
0.510837
0.409552
-0.452856
-0.156055
-0.432813
-0.669773
-0.156725
-0.387125
-0.366862
-0.101376
-0.476387
0.179923
-0.303477
0.428896
0.183156
-0.452093
-0.321690
0.203608
-0.045179
0.163227
0.283263
-0.557212
-0.425158
-0.071427
-0.084554
-0.285200
-0.233852
0.142405
0.242918
-0.095250
0.136912
-0.157591
-0.260290
0.009214
-0.673753
0.097739
-0.332230
0.486277
0.198692
-0.389032
0.094736
-0.013304
-0.160333
0.331062
0.010622
-0.230207
-0.323106
0.413641
-0.257449
0.230185
0.356125
-0.405202
0.057502
-0.434777
0.096801
0.228437
-0.276915
-0.093798
-0.437883
-0.436296
0.200577
0.110612
-0.159164
-0.412521
0.410380
0.078074
0.115858
-0.092076
0.471681
-0.629637
-0.288062
0.233025
-0.087826
0.805225
-0.238789
0.378560
-0.089789
-0.383023
-0.464065
0.082120
-0.117176
0.447536
-0.518027
-0.374184
0.261654
0.123778
0.155690
-0.140048
-0.455881
-0.428950
-0.368371
0.567640
-0.230057
-0.145304
0.377483
-0.406966
-0.194611
-0.339828
-0.285868
-0.619628
0.376573
0.348104
-0.191073
0.056798
-0.274817
-0.242429
-0.340164
-0.329783
-0.311713
0.219788
-0.343484
0.135419
0.469977
0.419241
-0.099720
0.157722
0.300428
-0.248702
-0.160644
-0.443136
0.065592
-0.249996
0.216486
-0.109842
0.305042
0.016785
-0.559665
0.348469
0.090455
0.508573
0.448801
-0.624262
-0.259136
-0.024918
0.009188
0.240321
0.695494
0.127627
0.551160
-0.126705
0.422208
0.304066
-0.215430
-0.158421
0.007099
-0.241893
0.163295
-0.212200
-0.016629
0.295168
-0.196888
0.467667
-0.301680
0.309608
0.429499
-0.097368
-0.386630
-0.064413
0.059620
-0.217342
0.498142
-0.453629
0.147926
-0.261660
-0.116100
0.296121
-0.352722
-0.043262
-0.220039
0.652797
-0.117178
-0.260778
0.257222
-0.114299
0.036168
-0.219220
0.030020
-0.208314
-0.656677
-0.506292
-0.105228
0.247607
0.157540
0.296860
-0.257403
0.548573
-0.047731
0.311165
0.080968
0.195965
-0.429656
0.136342
-0.187536
-0.391224
-0.124819
0.047263
-0.149336
0.325810
0.067068
0.792329
-0.299953
-0.371737
-0.040911
0.146201
-0.191454
0.191669
0.481935
0.021439
-0.113076
-0.314312
-0.508358
0.047907
0.174980
-0.200640
0.302951
0.129412
0.433033
0.487325
-0.101784
-0.416550
0.448554
0.118704
0.156484
-0.281789
-0.498224
-0.473180
-0.079064
-0.492177
0.458910
-0.370930
-0.292884
0.290832
0.285457
0.384171
-0.044011
-0.197328
-0.472704
-0.357091
0.413516
0.420479
0.492948
-0.068680
0.562645
-0.425411
0.036588
-0.133477
-0.388389
-0.136601
0.475269
-0.192351
-0.534028
0.216781
0.023351
0.428182
0.200097
-0.068463
0.142571
0.108108
-0.039096
-0.373687
0.056458
-0.120031
0.015604
-0.034259
0.640312
0.254203
-0.211901
-0.615035
-0.282596
0.148691
-0.136620
-0.564774
0.457712
0.079024
-0.219081
0.384666
0.155767
-0.277209
0.498189
-0.494114
0.325911
0.007044
0.178024
0.022741
-0.066576
0.206349
-0.478985
-0.529760
-0.100181
0.237093
-0.190057
-0.415492
-0.151190
0.161600
-0.070011
-0.297447
-0.176565
0.548934
0.118573
-0.120248
-0.162896
0.243691
0.011566
0.140312
0.275775
0.107137
-0.362815
0.126464
-0.049125
0.474523
0.372984
-0.368932
0.380978
0.059262
0.088460
-0.649051
0.186251
-0.420913
0.498637
0.089077
-0.101436
-0.017085
-0.372804
0.101078
-0.313187
0.509147
0.088443
0.209672
0.038591
0.276535
-0.240894
-0.288169
0.018123
0.363383
-0.058855
0.276038
-0.026955
0.403135
-0.247501
0.299694
-0.022204
-0.432596
-0.563318
-0.112151
0.066397
0.683012
0.132017
-0.000030
0.317704
-0.419524
-0.152306
0.637539
0.356816
-0.233653
-0.319713
-0.246840
0.239522
-0.027407
-0.354758
0.444983
0.555893
-0.340018
-0.619494
-0.178266
0.180131
0.073440
0.107342
-0.223482
0.062545
0.311585
0.401626
-0.037109
0.094113
0.272145
0.003574
-0.012027
-0.230604
0.073203
0.310552
-0.029682
0.362610
-0.405163
0.610000
0.038329
-0.226502
0.119639
-0.111889
0.141623
0.221640
0.650732
0.447799
-0.477961
-0.130471
0.118816
0.199933
0.353762
0.248365
-0.141730
-0.147395
0.108800
-0.039941
0.077012
-0.240527
-0.286972
0.446763
-0.126068
-0.320256
0.298657
0.275188
0.134921
0.012803
-0.646646
-0.134217
0.136619
0.001711
-0.122055
0.279515
-0.567923
0.489046
-0.551903
0.221499
0.395660
0.199574
-0.257043
-0.728456
-0.007911
-0.166671
0.137223
-0.206801
0.194061
-0.600827
-0.211397
-0.089948
0.384240
0.084552
0.061709
-0.213732
0.150642
-0.350053
0.139160
0.453617
0.410081
-0.357214
0.267432
-0.240598
-0.646946
0.598475
0.085682
-0.262027
-0.023583
0.046325
-0.198930
0.530503
0.650084
0.314503
0.155472
-0.408688
0.193920
-0.346187
0.464014
-0.573898
0.154547
-0.037973
0.140359
0.056362
-0.554318
-0.204869
-0.174551
0.465507
0.083783
0.057847
0.383624
0.230578
0.345797
-0.166573
0.339821
-0.439595
0.122297
-0.093370
0.394829
-0.394888
-0.376321
-0.191118
-0.277880
0.023662
-0.099534
-0.012127
0.303015
0.498050
0.524948
-0.347633
0.167809
0.654818
0.182321
-0.053756
0.405040
-0.191775
-0.406136
-0.216726
-0.449927
0.481994
-0.262074
0.402276
-0.083367
0.169760
0.213771
0.279374
-0.666227
0.535768
-0.384910
0.143540
-0.188665
-0.228654
-0.044160
0.304565
-0.255173
-0.175024
-0.136838
0.091895
-0.050403
0.088310
0.319476
0.021536
-0.443093
0.405528
0.527998
-0.370793
-0.325460
0.415683
0.201967
0.154835
-0.237422
0.140603
-0.182780
0.330669
-0.200136
0.516644
0.537007
-0.170895
0.467347
0.486916
0.132569
0.309042
-0.247943
0.492339
0.467296
0.066042
0.115251
0.147792
-0.451660
-0.033923
-0.188787
0.278783
-0.428194
-0.692153
-0.148098
-0.108474
-0.700890
-0.115325
-0.024056
0.428670
0.308668
0.071620
-0.313708
0.190131
-0.047937
0.366950
0.664568
-0.093891
0.340334
-0.037569
0.313132
-0.485249
-0.561941
-0.134055
0.126429
0.461653
-0.456062
0.295698
0.364788
-0.134022
-0.145882
0.404413
0.044966
-0.020275
0.638339
0.254453
0.082599
-0.367193
0.603816
-0.218599
0.695571
-0.511105
0.011437
-0.352283
0.301905
-0.289462
-0.268077
0.817367
-0.152613
-0.081182
0.328594
-0.411850
0.003685
0.212475
0.372472
0.380994
-0.502551
-0.624192
-0.438111
-0.641791
-0.161435
0.110808
-0.057993
0.406514
0.083984
0.057517
0.184036
-0.141076
-0.262383
-0.245552
-0.360748
0.250545
-0.140023
-0.296666
-0.352780
-0.423186
0.341817
-0.078706
-0.144554
0.094298
-0.025233
-0.543898
0.407773
0.478395
-0.033090
-0.223981
0.029007
-0.179422
-0.042192
-0.710734
0.015213
0.703987
0.342407
0.094996
0.219938
0.371880
-0.246595
0.467359
0.344207
0.342774
0.059358
-0.023151
0.099356
0.701424
0.317447
-0.118280
-0.009801
-0.147369
-0.323145
0.083555
0.145094
0.101905
0.183847
-0.063549
-0.406134
0.225576
-0.297622
0.104706
0.586179
0.297646
0.343826
-0.142968
0.123359
-0.251734
-0.100676
-0.359686
0.212522
0.640481
-0.289816
-0.162315
-0.364133
0.148871
-0.423626
-0.252313
-0.199986
0.316106
0.157312
0.264166
-0.248833
0.129721
0.432787
-0.410621
-0.321253
-0.437857
-0.436377
-0.362872
-0.176622
-0.374876
0.020488
-0.402840
0.094250
-0.428716
-0.094951
0.151904
0.002775
-0.255025
-0.106736
-0.274044
-0.358565
0.241700
-0.202562
0.527159
0.438740
0.006477
0.490971
0.023751
-0.090457
-0.138136
-0.278355
-0.319106
0.619152
0.088147
-0.593879
-0.117792
0.343172
0.317970
0.299853
0.590990
0.171051
0.460327
0.013770
0.046613
-0.069718
-0.083637
0.034119
-0.141325
-0.054471
-0.479988
-0.366212
-0.126540
-0.233607
0.063399
0.452823
0.295366
-0.732142
-0.250983
0.416115
0.092078
-0.175545
0.318131
0.688520
-0.480398
0.349597
0.283832
