-0.078612
-0.606120
-0.492598
-0.093766
-0.221002
-0.377704
-0.078738
-0.301541
0.079647
0.389791
-0.002395
-0.034778
0.102697
0.561825
-0.086056
-0.623547
0.116000
-0.043654
-0.503644
-0.098593
0.416727
-0.287838
0.042908
-0.076395
0.291025
0.251266
-0.216682
-0.078499
0.457921
-0.395992
0.041141
0.384763
0.101532
0.095070
-0.062569
-0.014999
-0.028913
-0.284435
0.000059
0.155660
0.255213
0.554520
-0.251568
0.056594
0.078263
-0.328442
-0.409096
0.676294
-0.202528
-0.260846
-0.194656
0.000576
0.391449
-0.174045
0.024154
-0.390148
0.440970
0.047698
0.175408
0.203319
-0.186696
-0.116903
-0.522736
-0.369047
-0.290632
-0.527029
-0.503620
0.003608
-0.495491
-0.569722
0.157612
0.049385
0.063690
-0.015158
0.325722
0.029827
0.324336
-0.111029
-0.187296
-0.558021
-0.384841
0.290313
-0.344785
-0.105369
-0.005448
0.346661
-0.313470
0.439864
0.307837
0.564370
0.292020
0.217882
-0.254155
0.272947
-0.281394
0.477455
-0.041972
0.059164
-0.351157
0.030563
-0.376911
0.168405
-0.472739
0.026761
-0.197878
-0.207164
0.570580
0.227021
-0.078025
-0.114474
-0.139062
0.242249
0.237950
0.176998
0.132432
-0.106772
0.452231
-0.490714
-0.399734
0.244754
0.481670
-0.047139
0.343198
-0.208469
0.251706
-0.309693
-0.055106
0.246198
0.510217
0.077476
0.062996
0.267841
0.439546
0.052578
0.758113
-0.058023
0.065874
-0.219001
0.251043
0.183023
-0.006949
-0.158480
-0.241290
0.186503
-0.038930
-0.239141
-0.221475
-0.472586
-0.171355
-0.204543
-0.427289
-0.200547
-0.151242
0.222706
-0.221265
-0.286435
0.343844
-0.090179
-0.139278
-0.497707
0.599718
0.119267
0.124068
0.392273
-0.471829
-0.081088
0.154961
0.038591
0.192406
-0.597052
0.297806
0.228372
0.136750
-0.177528
0.237108
-0.082728
0.615065
-0.109370
-0.076630
-0.182030
-0.193170
-0.352649
0.065743
-0.408468
-0.080229
0.233354
0.001405
-0.106385
0.111278
0.032806
0.017112
-0.092726
-0.363912
0.252179
0.191390
0.530472
-0.387374
-0.707175
-0.259761
0.242273
0.615839
-0.026673
-0.555422
0.031783
-0.255757
-0.125267
0.275880
-0.301666
0.124325
0.098228
0.249941
-0.099490
-0.124201
-0.071634
0.550437
-0.297058
-0.036377
-0.286500
-0.114103
0.298130
-0.440353
-0.565038
0.089338
-0.011445
-0.426332
0.312551
-0.234178
-0.299633
-0.294900
-0.394498
0.002762
-0.180452
0.069979
-0.220487
-0.306620
-0.307338
0.148982
-0.363545
-0.305980
0.625282
0.406527
-0.426792
-0.253035
-0.289723
0.332701
0.065438
-0.453967
-0.414822
0.319153
0.129507
0.008341
0.593972
0.220558
0.194965
0.105689
0.246755
-0.054272
0.667165
-0.145509
-0.235447
0.114031
0.676700
0.452806
0.659335
-0.521886
0.255403
-0.634052
0.611850
0.256910
0.729922
-0.147016
0.110037
-0.098640
-0.219629
0.383286
0.225179
0.335093
0.535916
-0.059317
-0.055806
0.241796
-0.277115
-0.369488
0.378715
-0.247384
-0.444373
-0.613235
-0.407892
0.613238
0.424565
-0.756733
-0.351849
-0.082298
-0.306399
0.384171
0.346654
0.559298
0.115916
0.201445
-0.224140
0.179387
0.177179
0.328951
0.038103
0.284397
0.160274
-0.331645
-0.119831
0.201938
-0.046660
0.061333
-0.171058
-0.436321
0.434218
-0.283984
-0.307110
0.113461
-0.509492
-0.168550
0.291874
-0.182131
-0.650150
-0.069132
0.327084
-0.416253
0.036149
-0.292241
-0.526059
0.229115
-0.188487
0.204604
-0.105363
-0.065796
-0.341295
0.032612
0.213790
-0.082981
0.246727
0.048403
-0.345498
-0.269807
-0.090307
-0.037919
0.478269
0.066728
0.432146
-0.147900
-0.141129
-0.595188
-0.027623
-0.317976
-0.179502
0.506690
-0.215526
-0.131044
0.095255
-0.230792
-0.205721
0.074973
-0.151074
0.382937
0.280739
0.012385
0.065335
0.336953
-0.603252
0.578524
-0.146036
-0.108062
0.066429
0.023877
0.233220
-0.493075
-0.078070
0.146384
-0.132852
-0.226226
-0.089911
-0.020859
0.336569
-0.045120
0.287766
0.333803
-0.361326
-0.376650
0.396433
0.665475
0.296428
0.049076
0.226514
0.126165
0.045202
0.372403
0.412086
0.474816
-0.615325
0.374234
0.397761
-0.014512
-0.087221
0.044274
-0.314858
-0.005407
-0.194930
-0.239096
0.570737
-0.071437
-0.450769
-0.106426
0.019267
-0.070756
0.506250
0.171170
0.072877
-0.797374
0.115181
0.249254
0.184724
0.326093
-0.315473
-0.043208
0.021771
-0.340018
0.692836
-0.049464
0.102259
-0.419787
0.039335
0.469969
-0.138168
0.213635
-0.303825
-0.394293
-0.416646
0.240653
-0.108789
-0.108752
0.516037
0.067126
0.743768
-0.497040
0.050924
0.149981
-0.411615
0.310800
0.429790
0.398371
-0.557792
0.283927
-0.505529
0.035822
-0.404757
0.056372
-0.704984
0.217181
0.295207
-0.412038
0.127375
-0.605416
0.324414
0.317902
-0.071991
0.297326
0.016302
-0.765695
-0.623184
-0.149847
-0.186366
0.209975
-0.471553
0.052703
-0.288377
0.592990
-0.137016
0.239079
-0.321241
-0.319061
0.181099
-0.005729
0.025644
0.095117
-0.370125
0.299434
-0.207277
0.404969
-0.441843
-0.233721
0.077693
-0.670270
-0.445955
0.094406
0.495517
-0.204818
-0.020123
-0.555350
-0.086463
0.147224
-0.572711
0.384923
-0.439100
-0.407776
0.314518
0.344721
-0.264949
-0.204365
-0.278030
0.378703
-0.182338
0.160485
0.144462
-0.227566
0.100993
-0.668880
0.507098
-0.213904
-0.437869
0.332595
-0.262283
-0.067586
-0.195555
0.266222
0.451666
0.209757
-0.118077
0.039438
0.616421
-0.267446
-0.092074
-0.105651
0.080877
0.136948
-0.207800
0.011682
0.191909
0.283795
-0.022217
-0.273085
0.123749
0.406788
-0.314678
0.153087
0.020783
-0.027883
0.362356
-0.302804
-0.169867
0.075005
-0.111641
-0.485293
0.522520
0.368713
0.215508
0.288759
0.127456
-0.344824
-0.003452
0.228833
-0.282199
0.404133
-0.251817
-0.388653
0.081203
-0.506468
0.542092
0.130753
0.249982
-0.568371
0.279374
-0.192503
0.232768
0.564582
-0.315810
-0.335642
-0.092170
0.115176
-0.081181
-0.092881
-0.178546
-0.014310
0.055438
-0.007244
0.174289
-0.286898
0.138101
-0.010880
0.253946
0.135896
0.296864
-0.033851
0.516048
0.210529
0.240394
-0.144873
0.258438
0.025765
-0.003097
0.065124
-0.470771
-0.044056
-0.349576
-0.169058
0.208079
-0.374832
0.588314
0.160000
-0.478119
-0.285736
0.460242
-0.117410
-0.170440
-0.406139
-0.197203
-0.016954
-0.368422
0.062312
-0.312496
0.020509
-0.390605
-0.301281
-0.524582
0.593420
0.000435
0.132722
-0.130359
0.311462
0.092453
-0.296660
0.263195
-0.375889
-0.151701
0.713034
0.539341
-0.556416
-0.406117
0.455254
0.536271
-0.525609
0.124395
-0.141001
0.514029
-0.230758
-0.252631
-0.291302
0.246576
-0.085829
0.374806
-0.062675
0.030209
0.135308
0.269187
0.249816
-0.026822
-0.232567
0.403731
-0.486304
-0.278331
0.293786
0.404165
0.079346
-0.277572
0.338509
0.436849
0.621587
-0.245984
-0.032949
0.427787
0.744847
-0.097644
0.139003
0.506802
-0.068882
-0.043699
-0.377556
-0.310075
0.295400
-0.513307
0.146870
-0.439344
0.117488
-0.062602
-0.316836
-0.062534
-0.130102
0.117634
-0.305114
-0.404258
-0.126332
-0.387048
0.284742
0.376672
-0.331171
0.117412
0.137052
0.051069
0.345135
0.296312
-0.466366
0.178694
0.254139
-0.300108
0.399394
-0.232594
0.361729
0.221823
0.376715
-0.247148
-0.416751
0.337350
0.025001
0.376747
-0.115526
0.534751
-0.339568
-0.324640
-0.071241
0.563687
0.097655
0.239811
0.409354
-0.473125
-0.302985
-0.037188
0.200315
0.335156
0.267401
0.362140
0.654708
0.497595
0.241940
0.360164
-0.100924
0.375080
0.266951
0.049373
-0.276430
-0.533135
0.094041
0.261229
-0.173281
-0.040521
-0.093980
-0.038308
-0.058559
0.505377
-0.423626
-0.394524
-0.116960
0.219054
0.431056
0.652965
-0.318838
-0.169058
-0.748629
0.261118
-0.283199
-0.412948
0.208724
-0.513784
-0.096804
-0.250179
-0.031606
-0.523126
0.329830
0.495473
0.079796
-0.785257
-0.199112
0.390742
0.558590
-0.403640
0.193342
0.262014
-0.100828
0.221476
0.400942
-0.233682
-0.398135
0.145609
-0.394276
-0.274545
0.301145
-0.431074
-0.502020
-0.769750
0.142444
0.555658
-0.307109
0.043420
0.470162
0.354715
-0.409810
-0.306389
-0.168582
-0.039859
0.500346
0.155890
0.102488
0.736974
0.183521
-0.155728
0.357003
-0.308798
-0.100615
-0.167033
0.255435
0.340713
-0.702339
-0.552378
-0.443680
0.091577
0.123063
-0.066332
0.237213
0.186349
-0.260764
0.367919
