-0.247618
0.006180
-0.000659
-0.025831
-0.161697
-0.230149
-0.084238
0.018595
-0.118455
0.024125
0.221696
0.062400
-0.261183
-0.334479
-0.526158
0.230052
-0.089699
0.284776
0.315701
0.517703
0.213605
0.194873
-0.210277
0.234604
0.118759
-0.377433
0.016460
0.079317
-0.374134
-0.035410
0.539156
-0.068982
0.308060
-0.114161
0.700037
0.256962
0.375287
-0.087973
0.023232
0.304949
-0.669706
-0.427136
0.226965
0.457036
-0.395656
0.380837
-0.053629
-0.165680
-0.083468
0.385145
0.218746
0.454180
0.605681
0.218607
0.611429
0.530888
0.286014
-0.231446
-0.359333
-0.330791
-0.254678
-0.437110
-0.649078
0.501407
0.383237
0.383153
-0.035892
-0.450954
0.288197
-0.393139
-0.032984
0.221371
0.177166
-0.551413
-0.090882
0.074478
-0.245152
-0.247367
0.007275
-0.600412
0.443076
0.286229
-0.331215
-0.395170
0.336465
0.317333
0.259023
0.034167
0.319866
0.138527
-0.009895
-0.360606
-0.471139
0.358687
-0.031913
0.079504
0.222286
0.164311
-0.368809
0.381041
-0.281341
0.265087
-0.171435
-0.159926
0.566362
0.205210
-0.332080
0.163263
-0.272068
-0.036552
0.378833
-0.022460
0.052259
-0.159450
-0.210702
-0.000009
0.409613
0.144508
0.201673
-0.246372
-0.450693
0.232172
-0.062623
-0.295945
-0.300635
-0.343173
-0.178360
0.668111
0.070325
0.199685
0.590037
-0.324553
-0.081688
0.203299
-0.340607
-0.067712
-0.230557
-0.424297
0.383074
0.577344
-0.435384
-0.267874
-0.593040
0.295014
-0.203335
0.234770
0.347228
0.493600
-0.290149
0.415645
-0.121242
-0.096638
0.057382
-0.252076
-0.461376
0.526050
-0.333473
0.198200
0.355757
-0.309547
-0.521963
0.004912
0.228766
-0.186297
-0.069072
-0.068616
0.012999
-0.137401
-0.210014
0.015425
-0.155634
-0.087725
0.184742
-0.264916
-0.464332
-0.675235
-0.764643
-0.014487
0.346871
0.224475
-0.026804
-0.057801
-0.538049
-0.478508
-0.265625
0.164462
-0.604798
0.701315
0.032444
-0.230369
0.528116
0.149370
-0.126256
-0.113482
0.424180
-0.077553
-0.387374
-0.707175
-0.037113
-0.120106
-0.228775
0.240072
-0.511575
0.359447
0.413040
0.498572
0.357465
-0.616044
-0.015320
-0.067012
0.360662
0.354578
0.479106
0.025739
0.499174
-0.594341
-0.267848
-0.019616
-0.077207
-0.391277
0.588569
-0.522600
-0.538933
-0.466904
-0.377023
0.142595
0.145975
-0.390256
-0.294900
0.352841
0.636705
0.555997
0.260440
-0.223823
-0.548108
0.154127
-0.118040
-0.456433
-0.453774
-0.309104
-0.445287
-0.445348
0.618902
-0.019089
0.564576
0.371079
0.487875
-0.022579
0.306861
0.173313
0.159088
0.249082
-0.463510
0.161368
-0.300059
-0.541325
0.154323
0.251880
0.360369
0.473612
0.433305
-0.280337
-0.168910
0.154350
-0.282956
-0.374267
0.352630
0.547493
0.224532
-0.070951
0.208438
-0.428313
-0.557930
-0.049162
0.324413
0.170877
0.076606
0.202561
-0.038693
0.322028
0.019680
-0.090714
0.235933
0.088640
-0.204952
-0.248243
-0.428137
-0.444365
0.782788
-0.299610
-0.123597
-0.080803
0.412913
0.339082
0.179946
-0.029349
-0.142265
0.041799
-0.241056
-0.583821
0.293011
-0.448399
-0.295022
-0.091445
-0.165271
-0.279675
-0.202275
-0.187193
-0.059045
-0.050671
-0.159252
-0.617170
0.178033
0.239922
-0.264062
-0.611613
-0.322600
0.313102
-0.268371
0.166972
0.045033
0.253532
-0.012548
-0.187679
-0.512974
-0.224569
0.133195
-0.366488
0.131121
-0.272057
0.288423
-0.018468
-0.395063
0.379512
-0.013821
-0.098106
-0.454512
-0.471052
-0.362653
-0.053819
0.321110
-0.378401
0.219772
0.463479
-0.260989
-0.400173
-0.080697
-0.535292
-0.518878
-0.181828
-0.034746
0.023481
0.530587
-0.151190
0.042067
0.359953
0.240579
0.341912
0.094386
0.176092
-0.195031
0.451130
0.603408
-0.262021
-0.492610
-0.126711
0.155560
-0.119836
0.057432
-0.209978
-0.059534
-0.334157
-0.343271
0.056696
-0.207708
-0.389792
-0.400274
0.111823
0.086645
-0.032326
-0.036449
0.331357
-0.090879
-0.423793
-0.499642
0.124020
-0.105872
-0.457484
-0.514327
0.088807
0.276615
-0.510026
-0.506079
0.147691
0.633262
-0.126549
0.134399
-0.497655
0.147339
0.510464
-0.569352
-0.234230
-0.463856
-0.454190
0.368957
-0.103594
0.179446
-0.040106
0.306165
0.302697
-0.009082
-0.130941
-0.006431
0.590748
-0.133427
-0.401030
-0.067643
0.486075
-0.338088
-0.545312
0.365006
0.294473
0.109498
0.044400
0.636916
-0.243570
0.532444
-0.671778
0.182249
-0.357303
0.334678
-0.117088
-0.325013
-0.117215
-0.075380
0.023977
0.366874
-0.118222
-0.079037
0.142536
-0.253833
-0.288514
-0.471769
-0.508788
-0.159457
-0.234388
0.013048
-0.580445
-0.497879
0.183423
0.326376
0.165125
0.470085
-0.758441
0.000090
0.322257
-0.404841
0.268996
-0.242060
-0.123038
0.371222
-0.036612
-0.163619
0.371530
-0.064939
-0.527792
-0.334787
-0.372882
-0.187811
-0.072213
0.364348
0.191272
-0.016552
-0.138547
-0.002227
0.220166
-0.251370
0.328940
-0.125851
-0.115868
0.036051
-0.170518
-0.245043
0.218156
0.480808
-0.333717
0.378459
-0.427183
-0.176231
0.113235
-0.490889
0.379531
0.160497
0.284102
0.077992
0.702201
-0.175678
0.000181
-0.543839
-0.189310
-0.469377
-0.140984
0.039338
0.494023
0.297775
0.585482
-0.242165
0.024810
0.200417
0.387389
-0.590209
0.065759
-0.393768
-0.023241
0.384263
0.436635
0.211010
-0.188924
-0.368268
0.325399
0.506126
0.044055
0.143697
0.066319
-0.434519
0.098956
-0.639154
0.119934
-0.217003
0.100537
0.212651
0.001611
0.081069
-0.039176
0.072920
-0.345696
-0.207779
-0.382233
-0.041664
-0.242689
-0.315922
0.403607
0.096609
-0.215696
0.095273
-0.041388
-0.200766
0.113423
0.114108
0.543852
0.261881
-0.545074
0.140341
-0.587825
0.291169
-0.019765
-0.201687
0.760393
-0.144954
0.217981
0.320755
0.332317
0.236363
0.083950
-0.520179
0.545509
0.079643
0.014202
-0.690803
-0.111801
-0.146003
0.456457
0.340439
0.177021
0.251559
-0.101991
-0.072408
-0.276683
-0.305214
0.270656
0.364006
-0.045961
-0.179341
0.150579
0.543047
-0.624356
0.031538
-0.394505
0.577367
-0.041344
0.034471
-0.501276
0.100025
0.261324
0.291783
-0.653192
0.257000
0.300783
0.331253
0.346099
-0.305897
0.382580
0.133505
0.450072
-0.479069
-0.191384
-0.134523
0.244067
0.572804
0.443595
-0.428564
0.227615
0.403308
-0.050768
0.096390
-0.222126
-0.198765
0.294242
0.026930
0.479057
0.410116
-0.346635
-0.044088
0.043036
-0.642977
0.364242
0.302179
0.413806
0.503843
-0.097220
0.278867
0.456552
0.243155
-0.045265
0.268437
0.400534
0.433432
-0.022752
-0.175269
-0.126132
0.105889
0.074803
0.158793
0.018059
0.267399
-0.288129
0.039801
-0.213491
0.110144
0.145170
0.169586
-0.235685
-0.299031
-0.459792
0.464269
0.438114
-0.331115
0.335216
0.032734
0.529891
0.351121
-0.677831
-0.510790
-0.313608
0.097214
-0.260491
0.370179
0.060588
-0.036922
-0.517429
0.097807
0.037808
-0.147594
0.737433
0.611065
0.006412
0.025666
0.031509
-0.418404
0.429570
-0.462914
0.008025
-0.042298
0.488955
-0.240912
0.080169
-0.530985
-0.477671
0.142015
0.414658
0.290756
-0.102823
0.112433
-0.312989
-0.227454
0.341598
-0.416528
-0.003185
0.475211
0.574891
0.630630
0.340770
-0.019086
-0.325524
-0.582620
0.027031
-0.199260
-0.458010
0.732585
-0.193292
-0.110316
0.136585
0.434756
-0.147325
-0.802053
0.018264
0.410867
-0.363917
0.646375
-0.610776
-0.205416
0.078167
-0.128443
0.326559
-0.242511
0.498720
0.294870
-0.718735
-0.297088
-0.094569
0.376198
0.374308
-0.339957
0.264941
-0.387760
-0.176331
-0.402050
-0.212747
-0.263334
0.155615
-0.114034
-0.231631
-0.345083
-0.576109
0.393050
-0.255698
-0.177039
-0.198897
-0.538727
0.202945
-0.447033
0.311615
-0.363672
0.619823
0.168983
0.265108
-0.543329
-0.464089
-0.017952
-0.408835
0.149330
0.275637
-0.463432
0.216646
-0.149733
-0.680298
-0.210516
0.193017
0.094315
0.299262
-0.397545
-0.305973
0.178688
0.208135
-0.226330
-0.828292
0.251692
-0.467865
-0.410245
-0.456372
-0.170120
0.449374
-0.107759
0.306256
-0.611656
-0.028075
0.417347
0.242847
0.520841
-0.206529
-0.217622
0.089718
0.120342
0.062505
-0.497277
-0.347566
0.231501
0.220897
0.250715
-0.547929
0.137230
-0.067290
-0.189788
-0.340857
0.106589
0.199602
-0.539057
-0.038663
-0.343021
-0.449242
0.033824
0.339812
0.119420
-0.446598
0.033793
0.472984
