0.234654
-0.151957
-0.117369
0.416101
-0.384118
0.186437
0.401575
0.408926
-0.241880
0.378799
-0.531884
0.170662
0.176904
-0.460206
-0.217077
0.079696
-0.335980
0.134809
-0.169702
0.524983
-0.447932
0.155645
-0.542537
-0.374158
-0.690630
-0.210012
-0.400915
0.168527
0.582386
-0.058889
0.095803
0.164212
-0.165840
0.033131
0.245221
0.119710
-0.072346
0.285686
0.073390
0.160825
0.230823
-0.405998
-0.300625
-0.340713
-0.632915
-0.149170
-0.173557
0.346754
0.487798
0.415678
-0.196576
-0.008227
0.690043
-0.434301
0.012141
-0.151144
0.029918
-0.152949
0.020663
-0.346054
-0.261263
-0.316205
0.454482
0.399681
0.029555
-0.341723
0.041260
-0.477105
-0.161672
-0.421573
-0.407891
-0.305088
0.244639
0.006224
0.439280
-0.276053
0.280022
-0.407900
0.410942
-0.516879
-0.576561
-0.549750
0.369736
-0.105369
-0.271927
0.305529
-0.118208
-0.193173
0.130456
-0.076469
-0.033329
0.195606
-0.064506
-0.064963
-0.231104
-0.571049
-0.312794
-0.283949
0.356619
0.397224
-0.029932
-0.086743
-0.081664
-0.013268
-0.327816
-0.146176
-0.288975
-0.336849
0.211062
0.161596
-0.223544
-0.580908
0.334265
-0.016233
-0.134869
-0.076560
0.287011
-0.084669
0.058582
-0.181476
0.076165
-0.633976
0.163626
-0.057951
-0.023210
-0.406773
-0.188783
0.240570
-0.262958
0.259057
0.273700
-0.443999
-0.240081
0.066550
0.805985
-0.184544
-0.179811
-0.385018
-0.315069
-0.259111
0.122350
-0.619117
-0.193451
-0.404359
-0.367899
0.049725
0.602484
0.167863
0.380477
0.163694
0.123864
-0.336868
0.035078
-0.075098
-0.693093
0.430243
-0.344901
0.167312
0.312441
0.041071
-0.406082
-0.411041
0.100998
-0.244773
-0.298259
-0.340224
-0.335043
-0.051093
-0.203137
-0.141133
0.300226
0.469901
0.285930
-0.230714
0.145633
-0.266226
0.309110
0.265906
0.105368
-0.496479
-0.103774
-0.659942
-0.330847
0.216486
-0.344994
-0.146183
0.740139
-0.493419
-0.130823
0.081295
0.416273
0.050302
-0.058226
-0.432819
0.175257
-0.009489
0.359289
-0.455305
0.230004
0.743470
-0.080082
0.104739
-0.321508
-0.172998
0.388105
0.815140
-0.446553
-0.130378
-0.385754
-0.307171
0.456216
0.238219
0.371378
-0.180311
0.196527
-0.045791
0.290681
-0.240966
0.023861
0.038715
-0.092277
-0.532682
0.381036
0.205795
0.037184
0.320352
0.443791
-0.363507
0.159884
0.247118
0.131377
0.270799
0.327889
-0.533093
0.607985
0.272572
0.202040
-0.092243
0.460290
-0.129278
0.014689
-0.026350
-0.610987
-0.372325
-0.296347
0.424229
-0.769243
0.172138
-0.359072
-0.195178
-0.284247
-0.468102
0.403405
-0.545427
0.186183
-0.024639
0.145578
0.257908
0.306125
-0.535109
-0.387133
0.402910
0.405785
-0.138583
0.109737
0.079103
0.358375
0.405398
0.395053
-0.304738
0.097473
-0.018943
-0.278134
0.367626
0.249070
-0.749812
0.134973
-0.257644
0.276691
-0.047676
0.329806
-0.002710
-0.521141
-0.259474
0.048690
0.090777
-0.664257
-0.224264
0.453455
-0.214932
0.439290
-0.046948
0.214571
-0.980038
0.113315
0.009689
-0.476443
0.103137
0.233334
0.124635
0.254609
-0.327072
-0.248980
0.026931
0.086106
0.340158
-0.386453
0.660811
0.432396
0.059452
0.104423
-0.025380
-0.096237
-0.065932
-0.129078
-0.434991
-0.148056
-0.102867
0.046698
-0.029797
-0.309406
-0.024684
0.430522
0.017017
-0.219313
-0.331075
-0.291170
-0.093313
0.154897
0.282891
0.157423
-0.254425
0.000203
-0.010581
-0.148971
-0.486225
-0.265916
-0.041670
-0.467811
0.051995
0.376847
-0.029799
-0.317235
0.172925
0.041465
0.394737
0.577831
0.366232
-0.404257
-0.424665
-0.133392
-0.597401
0.389978
0.220633
0.033156
-0.295792
0.128834
0.222321
-0.507301
0.319194
-0.285358
0.493054
0.296950
0.116106
0.218347
-0.559071
-0.403749
-0.398131
-0.150195
-0.080748
0.652563
-0.016960
-0.021688
0.353981
0.050606
-0.274941
0.492201
0.183084
-0.036129
0.339523
0.000606
-0.031473
-0.142701
-0.372804
-0.236171
-0.079471
-0.104397
-0.325275
0.024718
0.137517
-0.328899
0.085514
0.298688
-0.058710
0.198833
-0.070073
-0.108553
0.338339
-0.509736
-0.540107
0.640686
0.356238
0.350837
0.330827
-0.037696
0.473265
0.031834
-0.297006
-0.328508
0.142096
-0.161569
0.596540
-0.317059
0.592012
0.099362
0.208639
0.203944
0.030866
-0.252405
-0.536349
-0.037729
0.398407
0.146232
-0.313820
0.436354
0.011247
0.257852
-0.453286
-0.447441
-0.203466
-0.032929
-0.127771
-0.764063
-0.485680
0.123606
-0.038923
0.366874
0.678208
-0.336804
-0.244327
0.212947
0.233939
-0.158742
-0.268933
-0.163178
0.419963
0.387028
-0.558974
0.286066
-0.548110
0.248122
-0.246569
0.395666
0.431291
0.426653
-0.800926
-0.258654
-0.095205
0.386182
0.304287
-0.214721
-0.005214
0.178571
0.712732
0.135754
-0.050958
0.529537
0.074280
0.309934
-0.335696
-0.335923
-0.025742
0.372009
-0.356653
0.735576
0.299590
-0.043654
-0.017983
-0.032581
0.232887
0.081487
-0.423294
-0.364366
0.416437
0.482649
-0.062378
-0.005117
0.535632
-0.117095
-0.520275
-0.461440
-0.270954
0.512465
-0.121220
0.500798
-0.172355
-0.453983
-0.192615
0.094267
0.571899
-0.325520
0.361905
-0.475606
-0.328034
-0.492480
-0.428082
0.234564
0.003125
-0.484894
0.339893
0.455516
-0.196476
-0.143165
0.040442
-0.377921
-0.213353
0.414535
-0.093677
0.117618
-0.247603
0.169064
-0.434084
-0.169734
-0.559365
0.411734
0.243678
-0.144614
0.262628
0.319613
-0.747091
-0.426181
-0.082277
0.332233
0.364518
0.133293
-0.073165
0.355309
0.357132
0.285500
0.479717
0.130093
-0.462302
0.377124
0.286231
0.478875
0.251378
-0.264591
0.262116
0.023963
-0.465615
0.372477
0.439677
0.705896
0.165465
0.055944
-0.382404
0.429281
-0.626049
-0.227986
-0.100009
0.445869
0.272410
-0.513582
0.327247
0.100995
0.136375
0.183945
-0.074890
0.449210
0.186452
-0.023774
0.200032
0.273758
-0.240821
-0.425168
-0.194913
0.113448
0.050873
-0.401293
0.055451
0.148917
-0.024172
-0.417336
0.544950
-0.490691
-0.570004
-0.422052
0.729168
-0.644982
-0.010203
0.609363
-0.222482
-0.517264
0.498111
0.164295
-0.407866
-0.369908
-0.306281
-0.117385
0.187185
-0.079305
0.372458
-0.098221
0.300491
-0.468945
0.080481
-0.263384
-0.227273
0.153257
0.184735
-0.289205
-0.146156
-0.306987
0.485083
-0.200127
-0.313193
-0.039428
-0.279282
0.134976
0.338283
-0.150219
-0.163110
-0.220407
0.287286
-0.547139
-0.270878
-0.556679
0.420660
0.102143
-0.046240
-0.492604
0.424787
-0.204060
-0.057796
0.006871
-0.497300
0.149579
0.339898
0.133198
-0.262054
-0.623369
-0.069099
0.015147
-0.114063
-0.173501
0.192320
-0.005223
0.070110
0.134513
0.368252
0.054005
-0.163281
0.346792
0.339058
-0.211027
-0.505195
-0.349823
0.135967
-0.538869
0.505174
0.160812
-0.096179
-0.082181
-0.117873
0.233503
0.415644
0.425751
-0.373252
-0.230496
-0.008219
0.037352
0.274136
0.411261
0.373162
0.493607
0.248992
0.115606
0.436844
0.190255
0.378295
0.146310
0.091165
-0.602641
0.332925
-0.060597
-0.293512
0.008630
0.171830
0.203086
0.342983
-0.631572
0.468765
0.143824
0.073148
-0.152730
0.142155
-0.689863
-0.471744
0.105444
-0.270993
0.051294
-0.556855
-0.595807
-0.191000
0.342407
-0.012537
0.063875
-0.134826
-0.447967
-0.288537
0.226409
0.312248
-0.120748
0.423831
0.150707
-0.492991
0.025703
0.123264
-0.226954
0.373028
-0.386648
0.727187
0.255176
-0.081446
0.569191
-0.441518
-0.076974
-0.284567
0.111224
0.199202
-0.434206
-0.293250
0.292060
-0.080692
0.393937
0.185727
-0.219113
0.580880
-0.072942
0.490009
0.152794
-0.569851
-0.250726
0.476746
0.495500
0.182588
0.030125
-0.212841
0.608629
0.343464
-0.225482
0.177459
-0.003188
-0.150824
-0.499971
0.047814
-0.535529
-0.706535
-0.003770
-0.113587
-0.195579
-0.213704
-0.292530
-0.245172
0.057256
-0.966070
0.287749
0.470190
0.106577
-0.161979
0.296346
-0.614511
-0.173194
0.523983
0.343044
0.294705
0.412261
-0.075963
0.527631
-0.284219
0.031449
0.310954
0.185876
0.453797
-0.046677
-0.084002
0.271692
0.017950
-0.296762
-0.243421
0.047435
0.151582
-0.321059
0.002419
-0.229517
0.386931
0.414963
0.436972
-0.128092
-0.434646
-0.299427
-0.115442
-0.417608
0.311342
-0.350135
-0.259640
-0.702339
0.116802
0.019197
-0.221348
0.124195
0.318494
0.243452
0.142183
0.147295
-0.250862
