-0.283279
0.529728
0.077857
0.217843
0.454187
-0.035972
-0.022541
0.182833
-0.604940
-0.219217
-0.299047
-0.034009
-0.458726
0.454024
-0.051359
0.257027
-0.002335
0.317377
-0.084535
0.002050
0.362133
-0.050430
-0.283063
-0.264703
-0.171043
0.251544
-0.193118
0.121234
-0.091418
0.004771
-0.092793
0.046504
0.169431
0.217478
0.109945
-0.142676
-0.014775
0.154263
-0.050219
0.334049
0.123325
-0.251628
0.274105
-0.213639
0.608827
-0.401312
0.097822
0.165634
-0.030463
0.311918
0.485184
0.000576
0.116689
-0.422977
-0.018856
0.489395
0.112689
-0.076747
-0.027697
0.224314
-0.339241
-0.195115
0.581519
0.416067
-0.474701
0.358180
-0.566114
0.322959
0.483362
-0.258423
0.083612
0.160544
-0.118320
-0.290179
-0.203977
0.025754
0.165032
0.200904
-0.147211
-0.339250
-0.126604
0.446624
0.422153
0.560103
-0.160015
0.112056
-0.423329
0.516279
0.316247
0.403380
-0.227543
-0.248759
0.229547
-0.156115
-0.632185
-0.407661
-0.131039
-0.466566
-0.536073
0.381238
-0.163585
-0.239125
0.198727
0.062186
0.509495
0.136050
0.444036
-0.344837
-0.093567
-0.423620
-0.180880
-0.196011
0.153123
0.160778
-0.297921
-0.036523
0.247723
-0.108718
0.103253
0.004474
-0.709394
0.559679
-0.424484
-0.307975
-0.023210
-0.395016
0.059894
-0.189992
-0.157375
-0.415960
-0.083010
0.475584
0.179345
0.386303
0.012332
-0.390788
-0.555387
0.458800
-0.148151
0.483957
0.217611
-0.582803
-0.108531
0.099850
0.012993
0.134514
0.097383
0.358159
0.514521
0.414140
-0.260353
0.499776
0.330701
-0.166328
0.000774
0.568386
-0.294535
-0.304918
-0.179187
-0.353634
-0.423260
0.295581
0.462298
0.515686
0.155757
-0.454126
0.012999
0.201113
0.189966
0.546512
-0.045187
0.050875
0.159690
-0.035544
0.283810
-0.210595
0.429444
-0.000380
-0.411221
0.225832
0.433216
0.548747
0.194381
-0.359359
-0.590964
-0.222249
-0.116272
0.556286
-0.201080
-0.410347
0.471918
-0.430507
-0.184105
-0.078637
-0.101536
-0.393708
0.412310
-0.354948
-0.100539
-0.498033
0.165781
-0.082444
0.251054
-0.097780
-0.351250
-0.437377
0.382342
-0.500865
-0.528329
-0.489095
0.298613
-0.120504
-0.144938
-0.676664
0.419581
0.179134
0.118566
-0.335054
0.126155
-0.240363
-0.154017
-0.464549
0.117907
0.209840
0.260500
0.646191
-0.087418
0.090569
-0.219882
0.037924
-0.115750
-0.056435
0.285687
0.353657
0.557366
0.058052
-0.294038
0.262926
-0.575875
0.560310
0.117622
0.104156
-0.534941
-0.008834
-0.300554
0.116191
-0.463334
-0.338081
-0.395316
0.296298
0.382634
-0.283068
-0.068343
0.184900
0.233599
-0.154880
0.516139
0.519850
-0.420389
-0.513914
0.371578
0.102219
0.431853
0.641091
0.132442
-0.379560
-0.609617
0.476942
-0.132054
0.671394
-0.470650
-0.332997
0.317395
-0.320410
-0.339063
-0.034457
0.098811
-0.221437
-0.117865
-0.293940
0.523498
-0.077380
0.071796
-0.135162
0.075136
0.005247
-0.153883
-0.132011
0.449811
0.416995
-0.232079
-0.339689
0.326198
0.468111
0.201130
0.287642
-0.264994
-0.038754
-0.385639
0.418308
-0.505926
-0.102865
-0.510767
-0.495623
-0.264033
0.584156
-0.074015
0.371076
0.065992
0.472368
-0.047300
-0.351398
0.126860
-0.053625
0.155289
-0.533895
0.572561
-0.164907
0.023232
-0.014140
0.188918
0.315682
-0.276427
0.423486
-0.434258
0.121938
0.405645
-0.620704
0.206684
-0.359762
0.327778
-0.450310
-0.018516
0.019874
-0.089135
-0.068116
-0.326234
-0.082174
-0.266195
0.337349
-0.401445
-0.445935
-0.493067
0.058149
-0.537766
0.141418
-0.127189
-0.126123
-0.437912
0.413885
0.221456
0.799682
0.481020
-0.429259
-0.200268
-0.411227
0.217635
0.145093
0.335444
-0.446019
0.160596
0.770264
-0.131067
0.486585
0.375566
-0.043529
-0.737910
-0.106044
-0.203064
-0.096621
0.228850
0.255271
0.279004
0.117456
-0.256682
0.081060
0.329737
0.238840
0.259279
0.313080
0.017430
-0.138529
-0.315287
0.754788
-0.390228
-0.139752
0.034183
0.296428
0.400125
-0.065876
0.410086
0.148429
0.340595
-0.052791
0.342731
-0.071734
0.030127
0.488755
0.082288
-0.299706
-0.495925
-0.188545
-0.195021
0.238960
-0.131575
0.536493
0.223352
-0.182568
0.283516
0.362508
0.055571
0.076211
0.608894
0.549446
-0.435065
-0.108905
-0.146694
0.459082
-0.295321
-0.132279
0.060435
0.113514
0.272331
0.571868
0.023767
0.352587
-0.198628
0.253328
0.254679
0.364856
0.063691
-0.331454
-0.186267
-0.362416
0.111936
0.086033
-0.234231
0.522999
0.068527
0.421648
0.212598
-0.051045
-0.040744
-0.410098
0.483769
-0.005248
-0.284176
-0.149290
0.062234
-0.292716
-0.216136
0.332311
-0.018449
0.219183
0.319465
0.041828
0.017266
0.167045
-0.122859
0.442000
0.008263
0.088866
-0.336470
0.332445
0.226182
0.142650
-0.004625
-0.116375
0.476188
-0.362264
0.294966
0.020814
-0.539549
-0.299957
0.115862
0.398665
0.374847
0.247635
-0.263032
0.599077
-0.126196
-0.128170
0.135864
0.041058
0.527308
-0.061417
0.222552
-0.299783
-0.527102
-0.396312
-0.190819
0.462304
0.114256
0.084404
-0.304691
-0.007370
-0.266849
-0.222314
-0.374754
-0.154387
-0.590133
-0.341365
0.143649
-0.224887
-0.123463
0.230819
-0.090894
-0.274272
-0.212437
-0.478702
0.052509
0.178679
-0.462962
-0.067884
-0.089472
-0.284904
-0.459052
-0.350234
0.263483
0.456101
-0.245576
0.112415
0.122134
0.158424
-0.345072
0.061898
-0.519884
0.185632
-0.590087
0.226954
-0.011393
-0.215881
0.147202
0.114292
0.181116
-0.040695
-0.025394
0.337835
0.371217
0.033369
0.390662
-0.444772
-0.198710
-0.269757
0.181440
-0.077789
-0.389813
-0.216006
0.400490
0.608742
-0.510525
-0.472599
-0.523306
0.451318
-0.150297
-0.223336
-0.287287
0.108770
0.519214
-0.416756
-0.731876
0.384978
-0.082446
0.275124
0.031314
-0.232783
0.225482
-0.130235
0.279699
0.046868
0.000936
0.350466
0.332430
0.373764
-0.418341
0.077541
0.095397
-0.333197
-0.433064
-0.055967
0.379385
-0.484885
-0.414409
0.444714
0.092425
-0.227970
0.209119
0.556722
-0.060511
-0.089994
-0.116069
0.152381
0.075814
0.246755
-0.022927
-0.003097
-0.472572
-0.350954
0.092542
0.191394
0.065329
0.405683
0.523290
0.112961
-0.427743
-0.063604
-0.220396
-0.301318
0.128062
0.168284
0.886394
-0.009515
0.238409
-0.340291
-0.300440
-0.291447
-0.451855
0.039424
-0.071851
0.237607
-0.034745
0.126280
-0.007968
0.274067
-0.502824
-0.008336
-0.329306
-0.446610
0.379392
-0.235635
-0.423683
0.032729
0.249050
-0.161281
-0.247001
0.340978
-0.538249
0.439064
0.108443
-0.083569
-0.595868
-0.027291
0.468526
0.467366
0.085753
-0.487149
0.514890
0.288005
0.361997
0.329393
-0.184464
-0.415335
-0.074522
-0.207901
-0.226999
0.579855
0.219508
-0.225301
-0.124194
-0.062144
-0.404029
-0.377309
-0.284042
-0.265645
0.228602
0.087161
0.431727
0.047560
-0.127738
-0.429493
0.506412
0.252660
0.034988
-0.447179
0.184255
0.407860
0.637636
-0.013013
-0.034546
-0.345872
0.156183
-0.227084
-0.126942
0.046319
0.024163
-0.331254
0.332872
0.672724
0.458528
0.031767
-0.280797
-0.050411
0.238493
0.155944
0.505232
-0.141349
-0.221831
-0.079207
0.289868
-0.047872
0.549453
0.193246
0.212143
0.142901
0.929646
0.319410
-0.149653
0.247041
-0.267617
-0.247919
0.407565
0.340857
0.186891
-0.204359
-0.701047
-0.365290
0.346648
-0.040166
0.076375
-0.412347
0.086779
-0.228929
0.149997
0.596189
-0.527047
-0.402606
-0.233763
-0.545949
-0.026266
0.316399
0.284756
0.570190
0.326120
-0.661920
0.080876
0.220339
-0.223976
-0.008015
0.091877
-0.272845
-0.191188
-0.231729
-0.156665
0.485632
0.522219
-0.188998
-0.166985
-0.173454
-0.539831
0.284766
-0.115769
-0.301520
0.050689
0.417189
-0.271247
0.054342
0.158902
-0.058779
-0.003678
-0.274452
-0.388812
0.534467
-0.148930
-0.398102
-0.268288
-0.255488
-0.103161
0.410693
-0.407620
0.175952
0.486094
0.093235
-0.433634
0.533221
-0.142591
0.544266
-0.377715
-0.457488
-0.273677
-0.255199
0.192458
-0.360548
0.730379
0.393318
-0.456526
-0.346793
-0.358274
0.261737
-0.069874
-0.278025
-0.162847
-0.431676
0.005849
-0.372471
-0.178505
-0.544397
-0.285408
-0.145499
0.507316
0.480896
0.047818
-0.168470
0.275445
0.355257
0.021786
0.340713
-0.566823
-0.557530
-0.098353
-0.234306
-0.567551
0.215214
0.226070
-0.012482
-0.643545
0.244721
