-0.260173
-0.513634
-0.489444
0.311846
-0.216644
-0.482060
-0.148553
0.152919
-0.252407
0.399037
0.076712
-0.176678
-0.044288
-0.431358
0.357243
0.254926
-0.547779
-0.511039
-0.328846
-0.044719
0.012888
-0.050430
-0.059282
0.431482
0.270045
0.316106
0.513780
-0.523274
-0.366558
-0.024051
0.394471
-0.109927
-0.597843
0.042464
0.425442
-0.569522
0.449056
0.201679
-0.038413
0.339940
-0.479970
-0.191614
-0.296324
-0.128344
0.150647
-0.147076
0.273727
0.188239
-0.171599
0.657998
-0.192650
-0.168012
-0.182483
-0.083363
0.323238
-0.328343
0.199950
-0.406399
-0.083194
-0.416416
0.049669
-0.470901
0.449462
-0.217691
-0.354720
0.315633
-0.767820
0.298377
0.257826
-0.334679
-0.033981
0.378277
-0.068891
-0.211086
-0.080119
0.104439
-0.271397
0.139561
0.282488
-0.443156
-0.080224
0.599620
-0.458819
0.683344
0.339490
-0.315247
-0.039606
0.195240
0.316247
-0.052915
-0.079683
0.135070
0.316925
-0.156115
0.330413
0.554938
0.081136
-0.148062
0.442598
0.007266
-0.234329
-0.546704
-0.150523
-0.112423
-0.168082
0.258820
0.547743
-0.365168
0.367283
-0.278217
0.247687
0.364664
0.388016
-0.186336
-0.297921
-0.465612
0.355943
-0.610900
-0.456342
0.240443
-0.431552
0.755959
-0.286902
-0.595337
0.199892
0.398069
0.312433
-0.399320
-0.210888
0.400526
0.461477
-0.742907
0.209750
0.160312
0.729616
0.266934
-0.021797
-0.341783
-0.160054
0.634776
0.284794
0.712923
-0.029266
0.250236
-0.160700
-0.404924
-0.274696
-0.582517
0.562583
-0.440568
0.302387
-0.153420
0.295673
-0.407352
-0.307339
-0.062750
-0.191360
-0.012452
0.551510
0.292252
-0.521963
0.058744
0.537448
0.207987
-0.119906
0.052221
0.045602
-0.409195
-0.259537
-0.150166
0.023119
-0.414024
0.224998
-0.365779
0.519023
-0.260294
0.307869
-0.135771
0.019067
0.278417
0.331225
-0.157682
0.005801
0.478605
-0.086229
-0.116311
-0.156458
-0.337834
-0.167758
0.353121
-0.323820
-0.186020
0.187631
0.288998
-0.010918
-0.101427
-0.293034
-0.746964
-0.100539
0.427835
-0.071091
0.160235
-0.673584
0.202910
-0.481202
-0.377907
0.391301
-0.375134
0.219468
-0.107641
0.182693
-0.299360
0.582352
0.126111
-0.340092
0.233145
-0.424797
0.091388
0.109182
0.201917
-0.119660
-0.049068
0.105122
-0.558133
0.536966
0.578452
0.390025
-0.175713
0.165825
0.247118
-0.168280
0.332505
0.339098
0.319012
-0.114299
0.149892
0.015459
-0.101352
0.193959
0.053558
-0.526415
0.005761
0.333353
0.073780
-0.513006
0.550259
-0.292803
0.041248
-0.084499
-0.403835
0.138661
0.002436
-0.693632
-0.087480
-0.244085
-0.067595
0.365629
0.621151
-0.061178
0.606633
0.155119
-0.375562
0.497621
-0.027653
0.453419
0.178738
-0.549768
0.511949
0.139611
-0.056789
0.362547
-0.008168
0.353731
-0.010501
0.267089
0.231139
0.075590
-0.144905
0.147707
-0.383474
0.290884
0.214565
0.458121
-0.036368
0.602688
0.600560
-0.100192
-0.071468
-0.181986
-0.518870
-0.251017
0.231626
0.361897
0.557170
0.464243
-0.276412
0.618769
-0.117409
0.164282
-0.218331
0.224186
-0.320941
-0.578049
-0.512341
-0.037162
0.157353
0.072651
0.406954
-0.219115
-0.246058
0.059914
-0.131147
0.180518
-0.136287
0.344008
-0.337791
-0.609022
0.313102
-0.234152
0.050914
0.435403
0.339828
-0.108836
0.336622
-0.638214
0.105706
-0.303609
0.043887
0.114370
-0.062694
0.166394
0.038716
-0.198459
-0.340459
-0.034625
-0.187107
0.302161
0.330681
-0.339740
-0.146592
-0.401445
-0.023725
-0.052450
0.157938
0.003482
0.352718
0.120623
0.326630
-0.417861
0.352694
-0.234902
-0.327650
0.511994
-0.150054
0.159820
-0.173519
-0.416120
0.057716
-0.434036
-0.127321
-0.143025
-0.201371
-0.103125
-0.048184
-0.518263
-0.289228
0.037643
-0.406956
0.008073
-0.082680
-0.245544
0.238265
0.382396
-0.581972
-0.367531
-0.459633
-0.691065
-0.394035
0.078239
0.170299
0.296011
-0.445383
-0.439219
0.609274
0.063783
-0.032671
-0.106915
0.612321
0.407186
-0.023182
-0.076490
-0.039916
0.063909
-0.052791
-0.260582
-0.024495
-0.091624
0.394750
-0.284601
-0.474310
-0.529149
-0.080662
-0.289875
-0.116228
-0.055638
0.519817
0.295295
-0.326502
-0.328264
0.489237
-0.537927
0.316723
0.012867
0.393387
-0.198007
-0.305290
0.007529
-0.219019
-0.272014
0.053389
0.421687
-0.346215
-0.089998
0.424500
0.256839
-0.166611
-0.017019
-0.312257
-0.067434
0.178456
0.128472
-0.331995
-0.129438
0.025693
0.414150
-0.037531
-0.393820
-0.065920
0.232747
0.167302
-0.431743
0.246135
-0.287133
-0.097186
-0.086719
-0.042896
0.247396
0.084346
0.032643
-0.351758
-0.221966
-0.251950
0.307217
-0.033523
0.107557
0.016300
-0.192129
-0.511356
0.308679
-0.264158
0.186791
-0.080122
0.286048
-0.251432
0.174389
-0.276562
-0.076278
0.319206
0.059971
-0.267216
-0.422934
0.364668
-0.287000
0.246767
0.281156
0.434880
0.449694
0.513860
-0.200559
-0.576202
0.413019
-0.128170
-0.389590
-0.109469
0.254601
-0.018375
0.149166
0.071298
-0.521758
-0.284857
0.076404
-0.032613
0.114256
0.201873
0.234882
-0.072565
0.026367
0.137852
-0.271843
-0.330637
-0.555435
0.091888
0.539577
-0.296289
0.130293
-0.674125
0.376444
-0.002110
-0.381449
0.236711
-0.159811
0.069969
-0.343049
-0.014505
-0.211425
0.055499
0.538223
0.316193
-0.131308
0.519958
0.278257
-0.428266
-0.209182
-0.242442
0.310535
0.070080
0.003097
0.554485
-0.418505
0.270266
-0.426795
0.329847
-0.003882
0.224755
0.214997
-0.124467
-0.002964
-0.319889
0.034036
0.132876
-0.279210
0.478771
-0.245990
0.498137
0.554180
0.098120
-0.417903
-0.297447
-0.216525
-0.404663
0.350114
-0.337409
-0.439430
-0.343859
0.126702
0.389370
0.415223
-0.255664
-0.424122
-0.120408
0.370821
0.248386
0.311219
0.366009
-0.369694
-0.426432
-0.306692
-0.370512
-0.326927
0.377808
-0.149089
0.195490
0.019695
-0.360030
-0.280010
-0.403023
0.211268
0.129466
0.346544
-0.210731
0.200703
0.206008
-0.094405
0.465489
-0.227790
-0.331677
0.240890
-0.056357
0.137479
-0.211442
0.353824
-0.172967
-0.195566
0.058213
0.252179
-0.120743
0.249011
0.351461
0.209420
0.112817
0.200950
-0.185418
-0.404947
-0.259275
0.202841
-0.160607
-0.601033
0.350593
-0.008464
0.402553
-0.314029
0.560765
0.057469
0.380244
0.160513
-0.286675
-0.428253
0.036143
-0.091418
-0.031374
0.347648
0.158664
-0.018875
0.238746
-0.011949
-0.207042
-0.240461
0.230260
-0.152973
-0.189272
0.344807
-0.037569
-0.208544
0.290142
-0.289456
0.232919
-0.610350
0.344500
0.066308
-0.026893
0.154853
-0.233907
0.390283
0.642573
-0.047894
-0.335023
0.513376
0.132288
0.314370
-0.097796
-0.339688
-0.163916
-0.224221
-0.499374
-0.339198
-0.217787
-0.417675
-0.033362
-0.101183
0.334546
-0.323875
0.083269
0.142462
-0.313311
-0.029593
-0.595462
-0.008468
0.071389
0.071517
-0.249029
-0.048813
-0.045557
0.090628
-0.227324
0.164168
-0.432633
0.673710
-0.104881
0.682302
0.276019
0.048962
-0.302807
-0.338327
0.145525
-0.279796
-0.489143
0.338652
-0.661894
-0.024004
0.135084
-0.174667
0.195807
0.060578
-0.164739
0.273090
-0.253521
-0.377039
-0.003185
0.174220
0.462233
0.044766
-0.029558
-0.024117
0.654757
0.204283
0.117236
-0.514678
0.144423
0.429409
-0.187083
-0.037678
-0.078414
0.436681
-0.001065
-0.306945
-0.077364
0.259070
-0.061560
-0.049825
-0.478546
0.369321
-0.068673
0.284369
0.604801
-0.021342
0.281665
-0.067921
-0.466910
0.117252
0.519670
-0.361863
-0.244053
-0.227663
0.517645
-0.041378
0.226862
0.184339
0.528582
0.369314
0.210888
-0.292186
-0.123072
-0.156665
0.419082
0.172204
0.131904
0.315194
0.445734
-0.452792
-0.174407
-0.039634
0.026848
0.142847
0.256571
-0.197533
0.122686
-0.449069
-0.124411
-0.358998
0.267065
0.508423
-0.243292
0.224516
0.200901
0.396393
0.482892
-0.460310
0.440663
-0.407620
0.120334
0.395452
-0.319998
-0.335528
-0.176654
0.302585
0.344701
0.129661
-0.236391
-0.010882
-0.365239
-0.060125
0.288643
0.411072
0.576802
-0.517143
-0.257422
0.182039
0.445703
0.217981
-0.093557
-0.209401
-0.337420
0.141920
0.150198
-0.696360
-0.197469
-0.485793
0.005349
0.117451
0.789191
0.297748
0.074849
-0.224114
0.137170
-0.303044
0.345227
-0.738232
0.234565
-0.519765
-0.301404
-0.257323
0.357245
-0.543040
0.402303
0.312280
-0.269076
