0.261181
-0.136057
-0.025031
-0.135206
0.179544
0.011608
-0.152157
-0.099266
0.488747
0.357798
-0.308649
-0.600003
-0.147726
-0.462867
0.228556
-0.316919
-0.220071
0.039265
0.170633
-0.039625
-0.221071
-0.229461
0.212342
0.449997
-0.072871
-0.031291
0.480644
0.430805
-0.121255
0.503523
-0.092793
-0.208453
0.472588
0.499468
0.142323
0.124803
0.145204
0.127606
-0.633862
0.402453
0.228857
0.232591
-0.303522
-0.113450
-0.389800
-0.589146
-0.292140
0.067347
-0.103331
-0.018387
-0.095176
-0.119685
0.225764
0.189843
-0.018856
-0.297000
0.079515
0.021758
-0.124696
0.383166
0.426609
-0.195115
0.204421
-0.370844
0.557525
0.341596
-0.133540
-0.378494
0.374245
0.232683
0.083612
-0.154769
-0.166681
-0.264034
0.268429
-0.139372
0.137004
0.158626
-0.240326
-0.291289
-0.330557
0.339432
-0.206515
-0.260958
-0.246036
-0.099806
-0.092965
0.572335
-0.138931
-0.019546
0.204251
0.038949
0.009942
-0.260290
0.273687
-0.661000
0.167210
0.788994
0.658596
0.381238
-0.253190
-0.444999
-0.158541
0.230220
-0.013867
-0.496093
-0.232605
0.035030
-0.013822
-0.101064
-0.235368
0.248600
-0.149981
-0.225802
-0.165846
-0.430600
0.223739
-0.011644
0.161234
-0.111131
-0.276455
0.510118
0.375236
-0.265512
0.169825
0.323400
-0.129075
-0.208654
-0.482142
-0.354992
-0.968321
0.317867
0.287201
0.111567
0.314811
-0.289009
0.244072
0.380944
0.403359
0.241758
0.329773
0.248278
-0.133692
0.244621
0.065485
0.275352
-0.221475
-0.628651
0.558927
0.415764
-0.444407
-0.016386
-0.190433
-0.328843
-0.191047
-0.015895
-0.220005
0.194422
-0.152345
-0.453478
-0.129615
0.199755
-0.158695
0.389800
-0.364991
-0.246430
-0.031752
0.539095
-0.506879
-0.315730
-0.045187
0.395476
0.083321
-0.222867
0.176030
-0.295741
0.307869
-0.307766
-0.248769
0.145846
-0.373347
0.751665
0.077030
-0.231297
-0.080229
-0.357594
-0.201020
0.183766
0.229645
-0.566325
-0.144082
-0.317471
-0.159654
-0.441085
-0.255815
-0.373675
-0.387374
-0.354948
-0.330132
-0.545512
-0.098043
0.175248
-0.201557
0.021593
-0.351250
0.583032
0.436435
-0.135226
-0.545618
0.491895
0.289076
-0.120504
0.489739
-0.176953
-0.037191
-0.277887
0.440131
-0.178196
0.055056
-0.044188
-0.286581
-0.050186
0.117907
-0.079324
0.260500
0.611689
0.190462
-0.200760
0.094516
-0.383238
-0.083586
-0.489416
-0.250596
-0.278528
-0.578974
0.212629
-0.443051
-0.189252
-0.166899
0.032698
0.181799
-0.368408
-0.636723
-0.050489
-0.253117
-0.005446
-0.087240
-0.420266
0.187031
-0.513109
-0.230208
-0.428709
0.307206
0.172755
0.161268
-0.205657
-0.018488
0.575942
0.421032
0.224468
0.101475
0.017264
0.043004
-0.651893
-0.114167
-0.231065
-0.483853
0.559557
0.160157
0.715361
-0.343983
-0.220675
0.061904
-0.320410
0.041515
0.418925
0.115309
-0.075477
0.487325
-0.366950
0.197705
-0.351534
0.147796
-0.159505
0.554111
-0.516992
0.359905
-0.355800
0.659900
-0.197446
-0.356739
0.151566
0.326198
0.381606
0.094209
0.038440
0.376922
0.132543
-0.385128
0.281680
-0.538583
0.004458
-0.265155
0.401976
-0.194089
-0.191919
-0.161870
-0.276469
-0.192575
0.435126
0.112045
0.331826
-0.470332
0.004301
-0.295741
-0.278760
-0.532584
0.042319
-0.346661
-0.030513
0.105349
-0.075376
0.103589
0.050453
-0.172816
0.121938
-0.199898
-0.265879
0.265712
-0.359762
0.327778
-0.109100
-0.119680
-0.445213
-0.027766
-0.064600
-0.361568
-0.017472
-0.266195
0.181707
0.036405
0.425831
0.631221
0.301997
-0.433847
-0.547742
0.204161
-0.301589
0.098966
-0.365705
-0.036243
-0.239703
-0.515218
0.051181
0.204374
-0.337009
-0.289114
0.324770
0.588403
-0.173082
-0.127242
0.263777
0.528837
-0.119883
0.305613
-0.078705
-0.137540
0.072043
0.307109
-0.014925
-0.133073
-0.463959
-0.374607
0.345314
-0.288889
-0.145360
-0.293144
-0.130780
-0.227130
-0.185732
-0.050177
-0.262856
0.020060
-0.111233
-0.509940
0.375908
-0.431326
-0.252798
-0.143681
-0.083037
0.052928
-0.114926
0.197516
0.045796
0.259042
-0.365520
0.030127
0.525478
-0.368171
-0.394012
-0.033620
-0.253161
-0.227131
0.170839
-0.077657
-0.033107
0.125210
-0.450769
0.231277
0.196290
-0.465729
0.423956
-0.038248
0.333555
0.273602
-0.075963
0.080836
0.570814
-0.208420
-0.481792
0.512788
0.320373
0.059269
0.571868
-0.401230
-0.030202
-0.198628
-0.749619
0.243414
-0.108675
0.311585
-0.331454
0.527913
-0.723298
0.509581
0.103767
-0.254495
-0.059592
0.068527
-0.481721
0.140848
0.425925
-0.091290
0.774922
-0.309307
0.447261
0.132669
-0.492223
0.502180
0.087402
-0.353920
0.252514
0.242077
0.006528
-0.125721
-0.289920
-0.009013
-0.610506
0.049852
-0.469346
0.251154
-0.837054
0.498134
0.044989
0.310240
-0.492528
-0.194445
-0.472125
0.210544
-0.690049
-0.064306
-0.144415
0.186507
0.291083
-0.537756
0.303907
-0.695074
0.157666
0.225961
-0.043917
-0.476508
-0.646121
0.039109
0.153509
0.585252
0.260689
0.456592
-0.237084
0.183734
-0.066371
-0.189809
0.237737
0.328138
-0.013685
0.310707
-0.044316
-0.266849
-0.546749
-0.024495
0.398995
-0.401759
0.212405
0.322105
0.304309
-0.564513
-0.158116
-0.118061
-0.495859
0.342345
0.327550
-0.023583
-0.186502
-0.462962
-0.389482
-0.209706
-0.105354
0.495190
-0.438087
0.129109
-0.569486
0.345696
0.292390
0.259065
-0.329808
-0.331572
0.368776
-0.333753
0.577934
0.157333
0.198746
0.292981
-0.049459
0.479535
-0.232386
0.146833
0.414210
0.370368
-0.361007
-0.045686
0.492655
0.312355
-0.171627
0.201509
0.428728
-0.178604
0.046667
0.999987
-0.297405
0.400490
0.608742
0.524948
-0.013115
-0.106909
-0.111655
0.002355
-0.055496
0.405040
-0.371487
0.375181
-0.164152
-0.531122
0.041604
-0.344623
0.170496
0.378130
0.281464
0.125055
-0.030182
0.009308
0.262830
0.073098
-0.160677
0.298664
-0.144566
-0.521910
-0.337863
0.106905
-0.272755
0.335989
-0.055967
0.819071
-0.222088
0.161589
-0.193317
-0.075361
0.146466
-0.327833
-0.311774
-0.162341
0.354784
0.145429
-0.489473
-0.305998
-0.456718
0.158273
-0.242425
0.254720
-0.515094
0.281932
0.217712
-0.171259
-0.450356
0.461495
-0.090723
-0.175969
-0.145551
-0.205985
-0.142340
0.125232
0.175005
0.787799
0.369349
0.202268
-0.074442
-0.079057
-0.214598
-0.302449
-0.423367
0.043336
0.459979
-0.245991
0.038505
-0.048556
-0.022042
-0.457742
-0.043772
0.636600
-0.279208
-0.499029
0.242349
-0.076737
0.174570
0.105614
-0.407871
0.474673
0.301655
-0.112398
0.283405
-0.082562
0.174484
0.474907
0.349749
-0.183845
-0.215264
0.084477
0.385514
0.425778
0.211052
0.082599
0.096243
0.070757
-0.071962
0.425674
0.194736
0.379685
0.413660
0.290172
-0.719914
-0.407088
-0.300171
0.127410
-0.119428
-0.493795
-0.446732
0.106983
-0.170506
0.371341
0.318602
0.080293
-0.092220
0.688524
-0.195321
-0.088042
-0.545784
-0.051551
-0.242600
0.152287
-0.068921
-0.034546
0.209317
-0.559486
-0.323111
-0.611738
0.050062
-0.312526
-0.361341
-0.100560
0.545413
-0.076519
0.247506
-0.082663
-0.201642
0.195874
0.320408
0.064736
-0.468134
0.147865
0.458636
0.181831
-0.443877
0.321348
0.352547
-0.603385
-0.376139
-0.236236
-0.552976
0.313606
-0.445158
-0.595324
0.519008
0.133444
-0.720247
-0.101266
0.439099
0.448384
0.178767
-0.375433
-0.132765
0.346236
-0.029232
-0.383770
0.290341
0.009895
-0.079501
0.100782
-0.076553
-0.155924
0.379646
-0.204397
0.525157
-0.118697
-0.051081
0.232907
-0.426109
0.209130
0.573077
0.186588
0.175392
-0.568890
-0.388456
-0.211554
0.570372
0.343488
0.559727
-0.301844
0.578024
0.476501
-0.026719
0.463329
-0.136018
-0.231047
-0.115869
-0.595999
0.215104
-0.271247
-0.370472
0.142768
0.119875
0.255560
0.263264
0.092062
-0.012070
0.157702
-0.643330
-0.130553
0.083169
0.298790
0.193017
-0.431084
-0.108880
-0.473674
0.111103
0.122343
-0.336067
-0.060368
0.544266
-0.296472
-0.102888
-0.155523
0.205894
-0.088375
0.241910
0.584995
-0.333955
-0.214126
-0.346793
-0.088867
0.262580
0.217981
-0.282848
0.363336
-0.326252
0.005849
0.475743
-0.570698
0.121550
0.241883
0.031140
0.010414
-0.609818
0.655265
-0.660902
-0.187789
-0.747732
-0.506461
0.093818
-0.279840
0.164304
0.477289
-0.363910
0.392973
0.652512
0.243452
0.346721
-0.090402
-0.333938
