-2.528142
1.501279
-1.660847
-1.209565
1.322052
-0.217643
-0.436494
-2.024012
2.075291
1.325003
0.791596
-1.894515
-4.547052
-2.116415
2.500443
-3.161827
0.490129
-2.125498
1.674003
1.670750
-0.700855
2.460095
1.518995
-1.688240
-2.100847
1.205434
3.275100
4.222854
0.625144
2.003547
0.922252
2.934951
-1.969159
-1.632913
1.440490
-1.343485
-4.488869
-2.038166
1.116248
0.774141
-0.836398
0.903295
1.927328
-1.939491
-3.789184
-1.970561
0.780286
0.090034
-1.202638
-0.531282
0.900498
-0.847807
3.847701
2.519168
-2.329048
-0.781587
-0.504983
-0.607363
-2.797570
-1.865624
-2.335027
1.071514
1.617574
2.470716
1.602700
0.918808
3.859888
-0.354693
-4.037247
1.291340
2.182346
0.623838
2.762843
-0.335361
-1.171628
-2.269858
0.390913
0.557074
1.329300
-1.398176
0.732785
0.138508
-1.061225
-1.146580
1.045818
4.321618
-1.740964
1.437157
-0.463228
-2.630892
-0.452068
2.067004
-1.080501
-2.167094
-0.589665
0.568265
0.978153
2.078966
-0.216457
0.856027
-1.638895
-2.289732
2.631847
-0.014652
-1.697823
-1.906442
1.700088
-0.561991
1.810449
3.309768
-3.014790
-3.075517
-0.244257
1.055062
-2.768881
-1.273921
1.430200
-2.953869
2.393007
-1.987144
-1.943760
-3.531542
-0.207128
1.316570
0.210749
-0.204445
-2.153355
-2.508727
-1.912781
-1.717969
1.668976
-0.444643
1.996721
5.246020
-0.969018
-2.293947
-0.321271
-0.637411
-1.383547
2.338200
1.971568
-2.530417
0.067172
1.851116
-0.347172
0.754877
5.130052
-0.812390
0.073775
-2.098231
-0.760200
-0.258733
-0.816252
2.750002
-4.168228
-0.877585
1.076266
2.027746
1.046989
0.234328
-1.741626
-0.976071
-0.745505
1.645771
-0.783788
3.967290
4.039851
-3.827194
0.920686
3.734570
-0.275668
-0.535899
-1.214198
0.170807
-0.619370
0.522183
0.876626
0.617188
-0.618092
0.394217
-1.407186
0.204258
-0.503005
2.366945
-1.532391
2.450502
-3.726140
3.722320
-2.516171
-0.422644
-0.568718
0.650306
1.784307
1.468912
-1.098326
1.361119
-3.826358
1.006679
-2.428941
-2.637828
0.481564
2.397372
-0.160894
-1.125446
-4.446738
-0.844673
2.742816
3.246570
0.786347
-1.136243
1.614941
-0.867439
-2.701093
-0.034383
-1.110859
-0.458705
1.668521
0.328052
2.450554
-1.680853
-0.853834
-4.307990
3.675541
-1.481846
-0.808557
-0.239935
-4.803019
0.754359
-2.872466
-1.987057
-3.483984
0.069916
1.923762
0.061713
0.054834
0.094102
-0.984035
0.262952
-2.917554
0.957210
-0.552639
0.757761
0.533362
0.726363
-0.091134
2.245088
3.792877
-5.020671
4.395129
0.222836
-1.983720
-0.159250
-1.756115
1.482052
-1.829260
-1.249009
0.516492
1.527807
-1.970421
-2.368859
-2.116435
-1.508991
0.558832
-0.455166
5.035976
-1.336309
-0.130722
1.306734
0.359916
3.012297
-3.126809
0.257948
-2.160871
-1.256966
2.781701
-1.485320
-0.053387
3.962297
-1.449555
-0.024198
0.529782
-0.825425
0.312042
0.979995
1.298175
0.519584
1.941168
-1.454709
1.852118
0.429279
-0.411082
-2.698440
1.380386
3.621001
3.262757
0.713117
0.614421
-5.037889
-4.514079
2.049557
-0.234564
-1.287515
1.294376
0.481511
3.040928
-1.576297
-3.076800
-1.359799
-0.278592
-0.526693
5.837500
-4.037308
-2.628963
-0.177090
3.441325
3.029998
0.502089
-5.785298
4.571464
-4.624116
-1.842506
-0.357287
0.099424
-1.426695
1.426677
-0.194333
-0.093471
2.295738
-3.155519
1.598819
-2.947764
-3.818507
-1.729044
-2.111058
0.504398
0.751500
0.198729
-5.172685
-0.140873
-2.626478
-0.553988
-1.465268
-0.086422
0.734229
4.630423
1.827294
0.016338
0.986560
-0.849612
-1.732723
1.514614
1.773522
-3.231472
-1.787627
-0.780444
2.545163
-0.816414
-3.412159
-2.370016
-0.586020
-0.252501
-1.122256
-2.823743
2.856167
0.164200
3.253242
0.755172
0.457543
6.110813
-0.455066
-0.797842
-0.591826
-1.027125
1.136625
-0.330836
2.376950
0.100382
-2.568790
1.367815
-0.099274
2.246871
-0.405929
-0.792997
-1.510558
-1.858453
-0.091527
5.735916
2.103747
2.482684
0.018840
-0.911714
3.242791
0.596976
2.717117
2.658122
-0.524370
-3.832537
0.166257
2.204558
4.068504
-1.766814
-0.799354
2.565422
-1.863370
1.661404
-2.205020
-0.239167
1.483912
4.195150
1.224632
-2.666747
-0.062349
-0.345160
-2.769081
-1.444578
0.690208
1.999763
-2.884497
0.604671
1.545558
-0.046603
-4.290760
0.643470
2.193824
0.291481
-0.199771
1.997874
-1.824418
-1.146172
-0.917116
-2.420260
2.064708
2.238262
-0.659116
-3.012106
2.789670
4.586869
2.156468
0.054514
-3.553380
3.245496
0.661333
-0.458095
0.498070
1.001288
-2.191444
-1.848015
-1.699675
-0.000837
3.452772
-1.813068
1.360737
-0.665730
3.029558
1.297754
-0.571034
0.394027
-0.057395
-2.438663
1.510026
1.000234
-3.673679
-1.920724
0.061300
0.503761
0.980197
-0.452932
1.061885
3.203556
0.070499
1.034728
-2.408429
-0.375673
-0.034753
1.506675
1.393071
-1.962349
1.035369
0.877869
-0.187660
1.226751
0.145294
2.305040
-1.933350
1.260484
-3.316402
-1.635406
-2.856586
-2.638808
-2.524627
-1.262916
-2.069030
-0.725720
-1.202450
1.023619
-1.108934
2.956022
2.385678
0.373464
-0.259652
1.357809
-1.477996
-0.221434
0.401835
1.103610
1.484149
-2.385698
0.922481
1.567446
0.588819
0.552295
-1.097946
-3.346284
-0.985926
-1.221962
1.297029
1.699877
0.437316
1.398046
1.058083
-1.863010
0.028806
3.024117
-0.664159
1.144482
2.120801
-0.023542
-0.418127
-1.249558
3.336466
-3.655923
1.252728
0.956122
-0.856049
-0.123157
-1.386966
-2.692265
-4.158626
1.544366
0.726869
1.024689
2.610970
-0.153072
2.140799
-1.429849
1.926940
-0.716801
-3.080546
0.820394
-0.834533
-1.538545
-0.733166
-2.038213
1.129939
-0.111530
-2.584712
0.109429
-1.435268
-0.352559
1.161520
1.886709
-4.092009
-1.358068
1.248633
1.465604
-1.754227
-1.918172
-0.634750
-0.155283
-1.159769
-1.205394
-0.567721
1.958840
-1.938548
1.012636
1.549287
1.087004
-1.100697
1.988930
2.428971
-1.536319
0.909150
1.505686
-1.395976
2.374489
1.356117
-1.896498
-1.136852
2.069935
1.208474
-2.017707
-2.336207
-0.824037
2.700198
-1.280002
0.849709
1.052352
-3.499314
0.033792
1.894485
3.301581
-0.514878
-0.369903
3.536682
-2.018979
0.034201
3.221333
1.081694
2.540050
1.667153
0.129638
3.964204
-1.430416
-2.604129
0.685942
-0.611843
0.136008
3.405538
2.848891
-0.009991
2.661302
4.646638
2.593846
-0.536239
1.211474
1.678339
-0.993300
-3.658815
-0.520501
-0.716798
-1.687275
-2.018108
-2.707262
3.391935
3.133183
1.724154
2.013018
-3.109675
0.135771
-0.231365
-0.188494
-2.303749
-0.281348
-0.601064
-1.070781
0.717503
1.290817
-1.366157
0.813623
-2.512457
0.590334
-1.579196
-1.086411
-0.585767
0.173645
-0.945568
-4.157391
4.531808
-0.209719
0.497614
-0.653046
1.435038
1.149843
0.971081
-0.203304
-3.240185
1.208801
0.669826
-2.089374
3.811438
0.940158
1.536198
1.043544
-2.801234
1.330571
-0.947972
-1.818057
0.767542
-0.960938
-0.158977
4.055903
1.504211
-0.021012
1.460732
0.674817
-1.597588
1.222021
-0.259650
-0.717753
0.121764
-0.867231
-0.235069
0.766247
0.584201
1.377038
2.149434
0.449058
-1.995196
-1.816684
-3.010501
-0.130280
-3.059637
1.944021
0.191547
1.429629
-1.847834
0.444733
-2.510543
0.559805
0.646379
-0.882614
-3.061951
-1.326727
0.824723
-0.007917
-0.382569
0.342991
-1.361080
-0.032729
-2.667342
-1.471063
3.790928
1.622887
-0.379408
-0.675811
-0.976290
0.258108
0.929280
-1.649022
-1.767061
0.333192
2.478247
-0.765407
1.680372
2.334734
-0.108625
0.440415
-0.544292
-2.055449
0.108920
-2.480369
-1.290324
0.022835
-0.697443
-0.014955
-1.496740
-1.295690
-0.182927
0.217583
-0.357115
2.074475
-1.410052
-2.222205
2.955342
2.703463
0.397175
1.360707
0.448000
0.454126
-0.992050
-1.428401
-1.451147
-1.453013
-0.519324
-1.501266
0.939642
-3.347101
-0.248134
3.364860
0.661824
-0.963237
