-0.097452
0.563965
0.148210
0.625703
-0.366411
-0.357411
-0.343815
0.508789
-0.011252
-0.056222
0.119489
0.268275
-0.067411
-0.547522
0.348887
0.602756
-0.220071
-0.169409
-0.124891
-0.230525
0.428434
0.045159
0.171412
0.274290
-0.042926
0.459326
-0.127031
0.136665
0.470095
0.077319
0.095114
0.200914
-0.483562
0.124736
0.153410
-0.278954
0.678942
0.350818
-0.171395
0.102258
0.090093
-0.357628
0.001931
-0.212716
-0.658602
-0.394431
0.327525
-0.527514
-0.406441
0.017467
0.421146
-0.209954
0.199611
0.031838
0.225293
-0.312942
0.292496
-0.017132
0.249478
0.535556
-0.048457
0.327417
0.148430
-0.394346
-0.608884
0.571823
-0.317618
-0.599748
0.221886
-0.567543
0.016135
0.338055
0.341990
-0.296779
0.330393
-0.374918
0.121586
-0.102557
0.643874
-0.552501
-0.020397
0.369375
-0.694287
0.177380
-0.411611
0.107908
0.218899
0.014934
-0.162243
0.050206
-0.148842
-0.045320
-0.030512
0.086928
-0.405869
-0.127835
-0.215657
-0.352406
0.325038
0.424327
-0.474160
-0.075433
0.372231
-0.350122
-0.028920
-0.394697
0.623050
0.175264
0.277910
0.223419
0.034676
0.105055
0.185329
-0.264541
0.315296
-0.646992
-0.311343
0.004517
0.355687
-0.187273
-0.269569
0.229344
0.352734
-0.181195
0.164479
-0.174983
0.098490
0.162219
0.095138
-0.096040
-0.009714
-0.668817
0.175971
0.221206
-0.526680
0.364253
-0.000992
-0.310634
-0.548475
-0.193892
-0.335537
-0.604590
-0.042064
0.331028
-0.102768
-0.142849
0.498640
-0.316103
0.034116
-0.409928
0.122002
-0.191340
0.029775
0.273116
-0.300287
-0.392633
0.048847
-0.130905
-0.273545
-0.453478
-0.095095
0.045161
-0.361741
0.475238
-0.362059
-0.141950
-0.083240
-0.561383
-0.215913
-0.297110
-0.140490
0.256785
0.221524
-0.523637
0.256811
0.057197
-0.201894
0.021661
-0.275964
-0.105539
-0.159387
-0.239168
0.294562
-0.439079
0.465118
0.233262
0.681939
0.119916
0.031836
-0.068589
-0.245112
-0.018910
-0.649563
0.660975
-0.171756
0.028379
0.555106
-0.468707
-0.112942
-0.600035
-0.089049
0.374587
-0.556696
-0.313394
-0.283938
-0.120669
0.357358
0.065306
-0.006271
-0.552880
-0.153626
0.427242
0.128975
-0.297619
-0.618722
0.070721
0.020000
-0.265249
0.488777
0.122190
0.232260
-0.005603
0.081569
-0.599755
0.329372
0.763971
-0.380800
-0.400730
0.464229
-0.277120
-0.049847
-0.224981
-0.264270
-0.469541
0.088577
0.278168
0.035252
-0.124395
0.321718
0.499227
0.084487
-0.340283
-0.151744
-0.351830
-0.129485
-0.292721
0.122488
-0.258831
0.596522
0.360747
0.541290
-0.359143
0.273052
0.220734
-0.075655
0.273978
-0.402954
0.202718
0.243372
0.067068
0.716974
-0.720260
-0.045782
-0.380526
0.002104
0.076558
0.072932
0.172338
-0.015221
-0.012736
-0.249246
0.104240
0.533997
-0.212850
0.145056
0.459596
-0.066191
0.161328
0.504326
-0.161563
-0.184870
0.289976
0.193923
0.178558
-0.055794
-0.660789
0.310602
0.436293
0.369759
-0.168332
0.611909
-0.076487
-0.073866
-0.259725
0.578418
-0.286108
0.493778
0.015207
-0.354810
0.190959
0.548676
-0.135460
-0.286757
-0.389169
-0.085710
0.723730
0.424355
-0.101091
-0.149053
-0.298761
-0.127012
0.032884
0.232744
-0.194055
0.162099
0.319900
0.432257
-0.015525
0.113483
0.350584
0.107744
0.185985
-0.104717
0.284188
-0.172683
0.035444
-0.373036
0.403934
0.071615
0.164474
0.267073
-0.342292
0.000203
0.116451
0.293636
-0.614631
0.110333
-0.099598
-0.206512
0.231518
-0.590576
0.336128
0.244491
0.041376
-0.367447
0.320052
0.372107
-0.131446
-0.337907
-0.425333
-0.210940
-0.112634
0.109521
-0.408609
-0.319463
0.337015
0.055688
0.105354
0.635901
-0.091687
0.608619
0.282479
-0.045568
-0.382721
0.385558
-0.054890
0.470471
0.167708
0.196323
-0.049022
0.000506
-0.126095
-0.105097
0.072526
-0.251178
-0.191869
-0.039962
0.210085
0.396937
-0.177039
-0.205365
-0.743355
-0.202368
0.394316
0.339031
0.065133
0.186778
0.062378
0.231690
0.486915
-0.205236
0.116459
0.547799
0.417925
0.411407
0.023768
0.525111
0.407590
0.062390
0.561080
-0.357956
-0.679067
-0.177689
0.298343
-0.319002
-0.589322
0.276210
-0.120036
-0.373234
0.151233
-0.275210
0.182589
-0.188481
0.176347
-0.594436
0.065944
-0.487066
-0.126960
-0.610118
-0.005852
0.073832
0.142421
0.009921
0.479897
-0.127517
-0.166611
-0.217682
0.037309
0.209529
0.145859
-0.044725
0.076096
0.221339
-0.550572
-0.158965
0.135521
0.007877
0.085890
0.507513
0.449978
-0.309787
-0.004910
-0.008542
0.179493
-0.359638
-0.136718
0.070277
-0.023831
0.300827
-0.272174
0.553468
0.278525
0.094620
-0.122918
-0.511860
-0.196374
0.082347
-0.588264
0.880214
0.280924
0.310291
-0.007259
0.188030
-0.059074
-0.517471
0.169462
-0.484554
0.285561
0.040708
0.003736
0.172917
-0.155216
0.686552
0.399551
0.115469
0.056465
0.373213
0.083533
-0.079438
-0.024335
-0.132965
-0.539119
0.093949
0.219582
0.117134
-0.288773
0.299978
0.294472
0.420475
-0.570558
0.198547
0.092316
-0.013757
-0.496734
-0.615931
0.320810
-0.088215
-0.073495
-0.153189
-0.069186
0.249350
-0.417815
0.505036
-0.457096
-0.562196
-0.141122
-0.361141
-0.391129
-0.021615
-0.048837
0.280850
0.183399
-0.164618
-0.056005
-0.044574
-0.196455
0.150904
0.008352
0.244297
0.636575
-0.412386
0.550901
0.264934
-0.199966
0.283907
0.334889
-0.267446
0.249482
0.535355
-0.354224
0.217407
-0.124170
-0.110575
-0.061357
0.152842
-0.492679
-0.071487
0.132345
-0.066516
-0.456781
0.138777
0.481749
-0.136025
0.256616
0.231003
-0.446650
-0.821350
0.157178
-0.352719
-0.390826
-0.034437
0.395505
0.060396
-0.556480
-0.118026
-0.450968
-0.204709
-0.310803
0.213258
-0.403011
0.513102
0.540242
0.019755
-0.012034
0.115809
-0.419738
-0.634947
-0.312030
-0.286773
0.105206
-0.038749
0.195490
-0.138996
-0.106964
0.404579
0.247491
-0.078678
0.153017
-0.248619
0.586631
0.128487
-0.274827
0.300332
-0.132831
-0.539123
-0.198610
0.232379
-0.482720
0.506019
0.476721
0.174157
-0.226857
0.631641
0.117022
-0.540123
-0.315967
-0.403786
-0.407446
-0.208108
-0.127515
0.053850
0.341454
0.207244
0.413894
-0.142558
0.496597
-0.261741
-0.175100
-0.294941
0.196323
-0.640726
0.286870
-0.009875
0.397521
-0.383416
-0.127154
-0.337191
0.043656
-0.138475
-0.193588
0.263159
-0.392230
0.470707
-0.472685
-0.573833
-0.129505
-0.123076
0.276260
0.068964
0.072211
-0.267392
0.405691
0.074675
-0.179200
0.553818
0.104738
-0.129496
0.369848
0.565079
-0.566776
0.375277
0.029581
-0.092933
0.481810
0.081641
0.541791
0.123683
0.439356
0.093289
0.309785
0.074084
-0.217713
-0.299031
0.492511
-0.021404
0.526433
-0.393271
0.024721
0.412129
-0.358618
0.269357
-0.700036
-0.267486
0.223344
0.234473
0.299747
0.303096
-0.034390
-0.378308
-0.507484
0.226128
-0.132035
0.204501
0.470183
-0.237855
0.019539
0.207248
-0.103061
-0.165102
0.421911
-0.027469
0.337851
0.243674
-0.068958
-0.104530
0.080169
-0.669828
-0.570808
-0.197934
0.436670
-0.073841
0.461316
0.158371
0.256651
-0.573091
0.568780
0.061100
0.702994
-0.180861
-0.473959
-0.027472
0.622269
0.112203
-0.098799
0.238374
-0.083677
-0.039847
-0.220709
-0.326958
0.127675
-0.077773
-0.609198
0.416464
-0.402907
-0.071320
-0.461716
0.087769
-0.274620
0.178850
-0.027739
-0.511376
0.288579
-0.190394
0.136262
-0.156416
0.207237
0.164218
0.456941
-0.189295
-0.017454
-0.111860
0.037735
-0.015443
0.013988
-0.345137
0.380450
-0.142865
0.405454
0.060105
-0.363952
-0.114034
-0.337752
0.037052
-0.026883
0.477023
0.508031
-0.203611
0.446992
0.112814
-0.491141
0.715688
0.403777
-0.448094
-0.293705
-0.109724
0.177719
0.175261
0.078334
-0.050847
0.016973
0.603448
0.379938
-0.582252
0.398801
-0.027806
-0.243916
-0.375022
-0.279239
-0.343133
-0.106797
0.239404
-0.514219
-0.061104
0.210629
-0.149570
-0.021714
-0.483507
-0.469950
-0.078328
-0.197250
-0.155531
0.445203
0.176672
0.144127
-0.421395
-0.234817
0.472578
0.262580
-0.049784
0.209428
0.622117
0.314750
-0.237197
-0.418244
-0.047742
-0.458787
-0.183503
0.255381
-0.055062
-0.377105
0.126231
-0.031255
0.348605
-0.243351
0.262208
-0.322861
-0.326140
0.260672
-0.316293
0.169747
0.306580
-0.011484
0.168577
0.555188
0.192644
0.427890
