0.421381
-0.098079
-0.113448
-0.570109
-0.359007
-0.019907
-0.017489
0.116171
0.370490
-0.134946
-0.182961
0.195831
0.112291
-0.499407
0.274457
-0.367331
-0.028508
-0.087636
0.357780
0.123555
0.179126
-0.209033
-0.203563
-0.407731
-0.169924
-0.212170
-0.070468
-0.090078
-0.376449
-0.136024
0.187247
0.513698
-0.286941
-0.296411
-0.186586
0.344508
0.174030
-0.211206
-0.562163
0.226316
-0.531050
0.118399
-0.320673
-0.124252
-0.232299
-0.083086
0.357981
0.068459
-0.117469
0.112105
0.146076
0.443053
0.032278
0.029473
0.019387
0.169395
0.106592
-0.041927
0.408507
-0.417702
-0.164946
0.273269
-0.098372
-0.077618
-0.499299
0.411297
-0.297618
-0.090358
0.224498
0.021601
-0.159339
-0.635278
0.208437
0.006428
-0.483766
0.204454
-0.250615
-0.116324
0.313589
-0.485275
-0.387541
-0.169266
-0.226789
0.076798
0.394549
-0.055389
0.444398
0.258908
0.151395
0.049852
-0.114132
0.079992
0.411563
0.402659
0.107899
0.007744
0.374631
0.553394
-0.451864
0.475791
0.627273
-0.099794
0.179752
0.435873
0.350251
-0.387064
-0.443969
-0.402608
-0.243998
0.221774
-0.055686
-0.374033
-0.199945
-0.120027
0.384183
-0.186336
-0.115361
0.037904
0.319574
0.438932
-0.529998
-0.097012
0.011495
0.219440
-0.753522
0.676263
0.363215
0.291971
0.037386
0.143564
-0.735353
0.311107
0.180865
0.130379
-0.466295
0.567075
0.258365
-0.279587
-0.379846
0.122591
0.049081
0.259947
-0.451739
-0.211318
0.160827
0.277699
0.534281
0.465935
0.092865
0.346570
0.195646
-0.180083
0.427171
0.048369
-0.259690
0.541266
-0.256846
-0.152381
-0.284658
-0.190090
0.265234
-0.353904
0.353004
-0.291761
-0.050968
-0.407000
-0.111336
-0.169710
-0.530494
0.198832
0.195204
-0.129204
-0.547872
-0.286287
0.238077
-0.058034
-0.118601
0.245778
-0.222444
-0.088897
0.138145
0.592317
-0.195439
-0.102886
0.162177
0.363178
0.566433
0.182939
-0.208146
-0.479211
-0.424554
-0.043216
-0.424425
-0.282469
0.536918
0.360816
0.630575
-0.329725
-0.147175
-0.355399
0.382832
0.300947
-0.201178
-0.037088
0.136916
0.559048
0.300344
-0.243147
-0.077795
0.278278
0.040337
-0.115335
0.135464
-0.214496
0.416705
-0.283469
0.028791
-0.410405
-0.362204
0.044323
-0.455801
-0.237102
0.144477
0.202295
-0.278658
0.238595
0.095569
-0.176655
-0.154884
0.162772
0.338502
0.455959
0.277106
-0.049723
-0.395461
0.182528
-0.163259
-0.230305
-0.579941
0.127189
-0.497660
0.169767
-0.493948
0.082799
-0.525203
0.105357
-0.581557
-0.375720
0.593957
0.112197
-0.388128
0.339462
-0.060614
-0.545427
-0.318231
0.148194
0.150200
0.332252
0.450602
-0.099999
0.705412
-0.433656
0.479078
-0.369111
0.807289
0.008003
0.299765
0.635558
-0.396317
0.613447
-0.267100
0.486927
0.659756
-0.307396
0.319325
-0.318841
-0.025035
-0.055916
-0.380499
-0.024498
0.130403
-0.406960
0.484811
0.142809
-0.111573
-0.013740
0.373461
-0.044378
0.156594
-0.245729
0.166946
0.066498
0.015531
-0.447143
0.074047
0.322209
0.215289
0.046049
0.378962
-0.538126
0.250487
-0.253843
-0.455548
-0.128746
-0.266967
0.013496
0.087936
0.307995
0.441929
0.124409
-0.210089
-0.426325
-0.322488
-0.181105
0.384674
0.416469
-0.596256
0.152002
-0.184376
-0.182687
0.317258
0.159137
-0.494560
0.011344
-0.561003
-0.040117
-0.057259
-0.124996
-0.493815
0.039843
0.279335
-0.456638
0.222045
-0.000374
-0.265260
0.206592
-0.319728
0.369823
-0.292429
0.011844
0.326783
0.705546
-0.314644
0.008388
0.301836
0.394737
0.328401
0.054548
-0.573369
-0.424434
-0.267333
-0.257368
-0.038698
-0.408609
-0.090021
-0.414522
-0.112233
-0.228350
0.374271
-0.178986
0.513614
-0.355544
0.493049
0.465654
0.459780
-0.236163
0.138804
0.236276
0.025740
-0.674609
-0.077965
-0.016960
0.452285
0.068092
0.096365
0.073691
0.324471
-0.047301
0.216531
0.462231
0.054793
-0.232294
0.468296
0.147893
-0.569414
-0.627616
-0.489477
-0.383197
-0.244588
-0.173488
0.038386
0.355071
0.331833
0.553578
0.541929
-0.441064
0.063403
0.541616
0.314914
-0.183897
-0.038305
-0.675476
0.346809
0.121653
0.015447
0.164451
0.385905
-0.448727
-0.004471
0.284297
-0.290859
-0.196441
0.465554
0.593317
-0.453407
-0.258320
-0.652157
0.637692
0.105344
0.020225
-0.065193
-0.305277
0.209450
-0.111305
0.567601
0.278550
0.400247
-0.119373
-0.006061
-0.467328
0.545836
-0.305007
-0.035496
-0.096494
-0.090291
0.194971
-0.079711
-0.344406
0.046473
-0.212508
-0.066511
-0.096022
-0.353540
-0.353399
0.380425
-0.166796
-0.035718
-0.502882
0.191892
-0.108073
0.118766
-0.453422
-0.421285
-0.026732
-0.335228
-0.164762
-0.373986
0.225919
-0.001602
0.186187
-0.076446
-0.832655
0.098174
-0.150337
-0.491884
-0.441786
-0.688348
0.146411
-0.539050
-0.186431
-0.130976
-0.216443
-0.586485
-0.024075
0.416528
-0.058533
-0.116842
0.138549
0.087968
0.244528
0.317769
0.122827
-0.215644
-0.163275
0.233497
-0.538997
0.025588
-0.709773
0.168702
0.056662
0.156340
0.333605
-0.374798
0.089254
0.343823
0.110121
-0.172307
-0.064122
0.402489
-0.126742
-0.303522
0.171182
0.408836
0.369577
-0.530570
-0.009518
-0.385264
0.049490
-0.208771
0.590142
0.651433
0.014892
-0.022361
-0.485395
-0.327321
0.488920
-0.514215
-0.478839
-0.109226
0.375103
0.511584
-0.269598
0.659544
-0.128229
0.362647
-0.360735
-0.245648
0.011638
-0.434945
-0.014656
0.267825
0.294362
-0.042183
-0.013830
0.341561
-0.395377
-0.411527
0.353210
-0.081756
-0.520410
-0.072381
0.196189
-0.263764
0.069498
0.411076
-0.049329
-0.619635
0.187209
-0.313681
0.365438
0.334589
0.146771
0.412689
-0.220994
0.384022
-0.336152
0.449917
-0.028374
0.195985
-0.079597
0.130605
0.240091
0.076121
0.205253
0.656639
-0.019814
-0.674696
0.071469
0.006287
0.372908
-0.019900
-0.182570
-0.189274
-0.343053
0.080296
-0.301938
0.026739
0.303844
0.541215
-0.453647
0.241069
0.478876
-0.662300
0.286596
-0.469693
0.200477
0.047037
-0.384516
-0.732159
0.502497
0.172740
0.517620
0.155477
-0.039231
-0.354042
-0.139669
-0.044025
-0.084165
0.098783
0.225977
0.321169
-0.282870
-0.354027
-0.415983
-0.421654
0.403098
-0.870877
-0.224999
0.343554
0.440935
-0.094944
0.081187
0.594815
0.897074
0.129534
0.465492
0.091681
0.182864
0.014738
0.437735
0.435308
0.173847
0.563263
-0.628529
0.072287
0.170648
0.136564
-0.635526
-0.197965
-0.387941
-0.339421
0.025333
0.040761
-0.544252
0.100039
0.105070
-0.562654
-0.057272
0.729022
-0.162593
0.554801
0.421224
0.473387
-0.083402
0.088577
-0.398380
-0.071397
-0.259366
0.570085
0.115210
-0.380390
-0.149281
-0.365787
0.492511
-0.241800
0.558015
0.158224
-0.085339
-0.289596
0.503401
-0.418713
0.035580
-0.024314
-0.190422
0.456587
-0.472565
-0.314073
-0.271567
-0.017059
-0.758308
-0.396157
0.113135
-0.300359
-0.462598
0.036927
0.475446
0.003631
-0.008204
0.162438
0.314048
0.067567
0.138668
0.084493
0.118260
-0.051606
-0.059571
-0.241602
-0.099552
0.083773
0.418504
-0.063883
0.311164
0.084528
0.326303
-0.182183
0.277473
0.241465
-0.058679
0.484462
-0.220374
-0.305666
-0.558227
-0.404906
0.161343
0.014792
0.318307
-0.201557
0.412190
-0.502003
0.144449
-0.018702
0.002908
-0.430609
0.369379
-0.144673
-0.377283
0.072571
-0.146107
0.339315
0.477172
0.157684
0.144210
0.037696
0.399857
0.150286
-0.361744
0.651918
0.479241
0.291270
0.002051
-0.439471
-0.304620
-0.372586
-0.387797
0.190990
0.053076
0.230014
-0.008174
0.101508
-0.228545
-0.203362
0.692836
-0.142003
0.001850
-0.460406
0.009947
0.142792
0.607605
0.346585
-0.856083
-0.504378
0.233567
0.068950
0.192486
-0.340130
-0.437857
-0.514015
0.022357
0.116833
-0.236229
-0.200231
0.167656
-0.422089
-0.004330
0.357073
0.006625
0.500856
0.414611
0.140147
-0.324006
-0.084150
0.235682
0.684192
0.389824
-0.175750
-0.252980
0.510025
-0.112474
0.101071
0.170534
-0.209968
-0.513484
-0.543340
-0.178114
-0.414469
0.484950
-0.235169
0.243837
-0.164691
0.537435
-0.272353
0.095372
-0.131418
0.421307
-0.084323
0.455397
-0.080421
0.423130
-0.103060
-0.360572
0.071870
0.231827
0.353674
0.096749
0.114054
0.023774
-0.273589
0.097458
0.029411
0.160555
0.287001
-0.096589
0.223366
0.190453
-0.088746
0.317161
