-1.946768
1.969233
-1.602828
-1.261023
1.372802
-0.299830
0.118009
-2.529381
2.117881
1.430382
0.702555
-2.093894
-4.826115
-2.246602
2.596407
-2.787373
0.600374
-2.130332
1.463736
1.892941
-0.706498
2.391649
1.679559
-1.688240
-2.099550
1.473007
3.289601
3.963065
0.744118
2.113650
1.081178
3.335715
-1.803046
-1.656330
1.512607
-1.017096
-4.450208
-2.149921
1.063422
0.790057
-1.028979
0.948143
2.003040
-1.962042
-4.180084
-2.164896
0.499285
-0.427894
-1.491366
-0.312912
0.394420
-1.087880
3.700937
2.496624
-2.444434
-1.005872
-0.495139
-0.352717
-2.697012
-1.735414
-2.095326
0.983278
1.482063
2.567417
1.639869
1.321776
3.948839
-0.372589
-4.086899
1.331653
2.382718
0.100534
2.997470
0.354467
-1.077279
-2.250320
0.072104
0.315276
1.426324
-0.987321
1.373831
0.294830
-0.830846
-1.404595
0.973373
4.137096
-1.691012
1.138497
-1.014899
-2.744995
-0.546778
2.047142
-1.099894
-2.289189
-0.715890
0.646816
0.889029
2.246980
-0.193488
1.041288
-2.138699
-2.088830
2.631847
-0.007963
-1.665868
-1.199103
1.800502
-0.712431
1.834643
3.401566
-2.917621
-3.012042
-0.497455
0.836569
-2.844974
-1.159010
1.454146
-2.999474
2.333706
-1.902266
-1.943760
-3.729610
-0.509777
1.536489
0.254886
0.585187
-2.160433
-2.534602
-1.928389
-1.860552
1.694261
-0.332641
2.156254
4.898038
-0.673232
-2.442104
-0.119023
-0.693952
-1.412093
2.177727
2.349486
-2.449062
-0.028171
1.909724
-0.460864
1.034723
5.255938
-0.823241
0.155534
-2.087734
-0.723620
-0.224743
-0.958851
2.838224
-4.209107
-0.966208
0.889239
2.282495
1.342796
-0.245144
-1.799711
-0.864396
-0.804400
1.726536
-1.016200
4.048918
4.035992
-3.875238
0.703333
3.732112
-0.551011
-0.570522
-1.344962
0.323650
-0.353021
0.224733
0.592630
0.066928
-0.811453
0.523561
-1.564450
0.712103
-0.307832
2.360118
-2.018191
2.442150
-4.031145
4.019009
-2.621953
-0.382245
-0.523277
1.298063
1.765077
1.323640
-0.997943
1.336602
-3.940681
1.045651
-2.358715
-2.833606
0.535326
2.122238
-0.070698
-0.840536
-4.699219
-1.336673
2.866620
3.269766
0.786347
-1.075700
1.713311
-0.740764
-2.779352
-0.306845
-1.079008
-0.362133
1.421254
-0.296612
2.369112
-1.676233
-0.987847
-4.070534
3.577403
-1.515243
-0.629108
-0.386942
-4.801888
0.305359
-2.872466
-1.932547
-3.572089
0.733329
2.271864
0.101051
-0.143390
0.263691
-0.981110
0.262952
-2.841208
0.961242
-0.522727
0.777888
0.224516
0.784932
-0.188041
2.272117
3.661174
-5.093615
3.975571
0.235108
-2.099236
-0.257966
-1.635312
1.545428
-1.938939
-1.652891
0.448143
1.571661
-2.118772
-2.363668
-2.392298
-1.205673
0.623843
-0.753620
5.120799
-1.281534
-0.419892
1.403326
0.800049
3.446111
-3.391574
0.031661
-2.045326
-1.284159
2.771300
-1.322612
-0.190224
3.960177
-1.449665
-0.065130
0.460298
-0.706385
0.258182
1.072542
1.195805
0.389330
2.333340
-1.561867
1.826403
0.591382
-1.010341
-2.351386
1.315065
3.568865
3.399241
0.821902
0.777132
-5.069402
-4.337640
2.095811
-0.496896
-1.321428
1.095514
0.401402
3.087774
-1.726762
-3.054699
-1.299707
-0.264265
-0.824860
5.585120
-3.827885
-2.964282
-0.767745
3.453665
2.963978
0.255803
-5.523942
4.781575
-4.303851
-1.756461
-0.295143
0.259927
-1.138986
1.320710
-0.276355
0.116024
2.291667
-3.148719
1.963508
-3.040508
-3.772502
-1.416414
-2.078842
0.755090
1.566389
0.246368
-5.269177
-0.559831
-2.546465
-0.712146
-1.368285
0.130982
0.715108
4.764430
1.558169
0.050409
1.245577
-0.815997
-1.884364
1.420566
1.983978
-3.248510
-1.834797
-0.780444
2.619539
-0.879830
-3.789518
-2.217311
-0.616714
-0.107707
-1.379642
-2.786742
3.017536
0.113381
3.327699
0.657903
0.783431
6.078086
-0.475662
-0.489432
-0.553982
-1.251743
1.082653
-0.313684
3.009651
0.225006
-2.568790
1.216284
-0.099274
2.017563
-0.267937
-0.670802
-1.375789
-1.294602
-0.380429
5.793302
2.045169
2.905401
0.132139
-0.880525
3.281349
0.809506
2.879889
2.445477
-0.294857
-3.917310
0.305181
2.261244
3.887190
-1.620325
-0.873051
2.411088
-1.671436
1.826655
-2.447548
-0.506898
1.470951
4.136903
1.468468
-2.254772
-0.062349
-0.545987
-2.895365
-1.610055
0.681585
1.999763
-2.556005
0.121107
1.462848
-0.232298
-4.401501
0.850608
2.359384
0.590015
-0.249153
2.104542
-1.747772
-1.167872
-0.872715
-2.365258
1.976698
2.279025
-0.564820
-2.833868
2.407154
4.637844
1.501945
0.444731
-3.515138
3.179585
0.620517
-0.635132
0.542620
0.947309
-2.184558
-1.829117
-1.714721
-0.078442
3.540132
-2.057041
1.331440
-0.664619
3.011905
1.520622
-0.444251
0.626244
-0.126011
-2.600559
0.988186
0.537766
-3.920967
-2.057145
-0.022937
0.364151
1.182071
-0.389552
1.151494
3.285334
-0.154196
1.414300
-2.078096
-0.321013
-0.030053
1.633833
1.272553
-2.131165
1.231231
0.887735
-0.150912
1.235008
0.134527
2.227497
-1.938961
1.212138
-2.246329
-1.524590
-2.574595
-2.722021
-2.469084
-1.243450
-1.609418
-0.893673
-1.351469
0.896921
-1.037098
2.569253
2.508013
0.280521
-0.387827
1.239972
-1.258446
-0.155632
0.931045
1.132100
1.603780
-2.698455
0.832873
1.471177
0.195109
0.687655
-1.223234
-3.378037
-1.670477
-1.471797
1.427627
1.670855
0.986315
1.292414
1.267557
-1.899846
0.172062
2.787167
-0.906866
1.123938
2.120801
-0.038380
-0.175217
-1.139724
3.475376
-3.521992
1.305730
1.016210
-0.888515
-0.354654
-1.534459
-2.444823
-3.802575
1.736455
0.898210
1.278163
2.222419
0.196642
2.146674
-2.166907
1.939657
-0.910785
-3.183807
1.231886
-0.579480
-1.502999
-0.916237
-2.228055
1.135052
-0.039953
-2.809698
0.310560
-0.976192
-0.441104
1.320470
1.930740
-3.834815
-1.308247
1.305685
1.088327
-1.828841
-1.940490
-0.507711
-0.397744
-0.760694
-1.223952
-0.321238
2.047509
-1.888659
1.357723
2.015486
0.977338
-1.129174
2.164964
2.195618
-1.028336
1.077761
1.371078
-1.018796
2.421116
1.313412
-1.681128
-1.339202
1.893814
1.079057
-1.976637
-2.444301
-0.502971
2.696831
-1.095597
0.750596
1.323572
-3.847376
0.115404
1.551673
3.312654
-0.512595
-0.683446
3.138736
-1.901475
-0.214750
3.045857
1.271113
2.617510
2.019811
0.196030
4.171650
-1.438522
-2.537120
0.877903
-0.950962
0.636100
3.630166
2.817506
0.003243
2.967628
4.593968
2.466657
-0.588831
1.226862
1.546628
-0.885695
-3.409797
-0.529876
-0.852995
-1.650963
-1.416524
-2.410009
3.235798
2.964101
2.004168
1.845336
-3.177568
0.095332
-0.281890
-0.177883
-2.294843
-0.525772
-0.057686
-1.080681
0.393884
1.290817
-1.707137
0.918989
-2.512582
0.481398
-1.500409
-1.324664
-0.458098
0.065531
-0.631977
-4.059554
4.585552
-0.106901
0.678486
-0.725483
1.365288
1.177693
0.483092
-0.036799
-3.180947
1.131853
0.231093
-1.884494
3.811438
1.068449
1.454759
0.882355
-2.907817
1.767353
-0.904417
-1.767208
0.714856
-0.748585
-0.236742
3.564332
1.343222
0.021375
1.336278
0.429096
-1.935834
1.175324
-0.263386
-0.954214
0.481634
-0.709527
-0.310935
0.726702
0.562190
1.446306
2.006076
0.115536
-1.812611
-1.997094
-3.119261
-0.170986
-3.385252
2.036761
0.067091
1.454640
-1.585787
0.333291
-2.536337
0.614015
0.967646
-0.883078
-2.980945
-1.380424
0.734070
0.273179
-0.678261
0.402508
-1.308509
-0.370852
-2.264906
-1.532867
3.971196
1.187836
-0.245340
-0.406174
-0.616963
0.089456
1.014016
-1.985949
-1.706458
0.464053
2.373475
-0.741279
1.764933
2.329057
0.048766
0.964243
-0.585873
-1.969245
0.293232
-2.399802
-1.387136
0.097351
-0.773577
-0.308797
-1.569020
-1.201634
0.145007
-0.090864
-0.308585
1.808930
-1.420576
-2.380206
2.839529
2.703645
0.307626
1.352185
0.456487
0.323503
-0.856900
-1.698696
-2.079369
-1.411638
0.224990
-1.672387
0.997409
-3.291291
0.004740
3.492366
0.681005
-0.929551
