0.208900
-0.337692
0.101762
-0.563292
0.301558
-0.347948
0.141699
0.380696
-0.334364
0.027902
0.020400
-0.287765
-0.258324
-0.369742
0.289932
-0.006833
-0.495423
-0.351934
-0.185237
-0.225626
-0.148790
-0.344240
0.050978
0.331351
-0.419075
-0.156891
-0.129964
0.191384
0.446475
-0.342705
-0.121813
0.317169
-0.391620
-0.237212
0.289994
-0.038422
0.091645
0.103443
-0.095000
-0.160953
0.390800
-0.455728
-0.067003
-0.234806
0.506784
0.592826
-0.218380
0.346181
-0.326227
0.422744
-0.038533
-0.140019
0.017696
0.328012
-0.018856
-0.196149
-0.025781
-0.032635
-0.347698
0.274520
-0.023095
0.656745
-0.265203
0.092874
0.415116
0.352212
-0.676047
0.464770
0.257826
-0.424505
0.072127
-0.400967
0.013149
0.258349
0.496805
0.057209
0.396915
-0.003298
0.572382
-0.070459
0.090971
-0.178867
-0.270187
0.233315
0.351923
-0.015860
-0.147812
0.523351
-0.221193
-0.016920
0.184748
-0.067324
0.338596
0.218810
0.055975
-0.156578
-0.150197
0.174088
-0.115353
0.181432
-0.389032
0.357478
-0.239450
-0.231498
-0.126151
-0.289488
-0.251700
0.227021
0.289022
-0.238869
-0.072635
0.440320
-0.536667
0.177626
-0.406248
-0.105006
0.010096
-0.105409
-0.052287
-0.321600
-0.227107
0.399735
0.189798
-0.193095
0.186807
0.624883
0.378074
0.365552
0.095025
0.504714
-0.499749
0.306566
0.227389
0.198749
0.379394
0.801881
-0.165711
0.312961
-0.340296
0.058225
-0.023986
-0.174866
-0.203925
-0.310598
-0.576975
0.519746
-0.405509
0.111682
-0.083803
0.015675
-0.252586
-0.484700
0.002172
-0.193481
0.165653
0.797925
0.314397
0.783044
0.101166
-0.428222
-0.161305
0.320232
0.796012
0.457753
-0.732490
0.557433
0.377950
-0.211239
0.348944
0.421445
0.127635
0.304067
0.253468
-0.053806
0.268333
0.197144
-0.309330
-0.391278
0.202958
-0.055934
-0.071216
0.227827
0.173522
-0.468823
-0.097125
-0.167203
-0.109540
-0.310759
-0.090661
0.117773
0.424180
0.544038
-0.232417
-0.507717
-0.052147
0.009188
-0.231432
-0.054546
0.028656
0.671654
0.034521
0.106236
-0.640215
-0.205457
-0.336888
-0.021479
0.536968
-0.488835
-0.466333
0.358341
0.189890
-0.096987
0.181767
-0.166623
0.528614
-0.445239
-0.060187
-0.394759
-0.114517
-0.322628
-0.328000
0.159985
0.077500
0.290065
0.175988
-0.059271
0.531697
-0.283159
0.092996
0.338869
0.089326
-0.051753
0.431892
0.257222
-0.298702
-0.293210
-0.023715
-0.013365
-0.433658
0.371226
-0.486342
0.005761
0.284016
0.152751
0.771518
0.048132
0.474941
0.128640
-0.044949
-0.456942
0.008341
0.876316
0.128492
0.216354
-0.150993
-0.096577
0.029772
0.014393
0.500652
-0.371748
-0.004623
0.412364
0.247507
0.007881
-0.226165
-0.191454
-0.197929
0.066134
0.671931
-0.014805
-0.175376
-0.412292
0.703828
0.489878
-0.542903
-0.459320
0.213173
-0.167370
-0.530942
-0.101784
0.279900
0.453112
-0.342213
0.407524
0.716758
0.090777
0.430836
0.030757
-0.449055
-0.169355
-0.398133
-0.507018
0.253659
0.186453
0.352668
0.495048
0.352476
-0.076460
-0.317200
0.132555
-0.127638
-0.051482
0.246753
0.026346
-0.325540
-0.330593
-0.409147
-0.006035
0.106376
0.509265
0.496717
-0.485474
0.063228
-0.575190
-0.305842
-0.089146
-0.544532
-0.087957
-0.394182
-0.167111
-0.286957
0.000074
-0.072615
0.374540
-0.418314
0.664126
-0.057259
0.233161
-0.468210
0.011327
0.008637
0.458101
0.090636
-0.200199
-0.458164
-0.213695
-0.356341
0.321757
0.197464
0.181164
-0.744898
-0.695046
0.634104
0.431250
-0.040493
-0.159549
0.375150
0.145739
-0.430724
-0.423726
-0.254989
-0.313819
-0.013160
0.186218
0.255992
-0.215435
0.229294
0.045062
-0.338220
-0.248250
0.298439
0.341504
0.390016
0.072507
0.240241
-0.494103
0.107137
-0.345571
-0.093747
-0.035697
0.714371
0.179645
-0.368932
-0.007018
0.009125
0.009136
-0.453891
-0.291302
-0.194868
0.051044
-0.087787
0.098679
0.347099
0.299853
-0.526273
-0.504808
0.318344
0.077274
0.136502
-0.487625
0.368649
-0.451485
0.340751
0.377000
0.267318
-0.520506
0.637387
-0.464212
0.045602
-0.422718
-0.418504
-0.206644
0.134316
0.029037
-0.089174
-0.338838
0.197587
0.119289
0.052050
-0.470557
-0.013443
0.196256
0.540663
0.251932
-0.233653
-0.239615
-0.115660
0.080837
0.452119
0.148935
0.139892
0.297927
-0.139680
0.169106
-0.175283
0.276949
-0.044498
0.300820
0.549017
-0.094642
0.319072
0.054009
-0.456639
-0.367219
-0.376942
-0.315903
0.076648
0.881664
0.061233
-0.152209
-0.283853
0.127315
-0.382325
-0.300751
0.384858
-0.404050
0.308008
-0.131973
0.299285
0.150410
0.650732
0.140769
0.157644
-0.098028
-0.363694
-0.194405
-0.106308
0.098036
0.191117
-0.037700
-0.100781
-0.404088
0.160011
-0.240527
-0.449803
-0.182099
0.274821
-0.418562
0.020495
-0.700994
0.231298
0.642107
0.207590
-0.277907
0.206791
-0.200943
0.090134
0.425776
-0.382502
-0.306008
0.137573
0.048399
0.034035
0.446912
0.008303
-0.457086
0.443665
-0.345273
-0.555122
-0.109270
0.335291
-0.233326
-0.315163
0.445282
0.281599
-0.520753
-0.097557
-0.175433
0.044167
0.379556
-0.076048
0.064465
0.049935
0.094028
-0.519262
0.535825
-0.017007
-0.457606
-0.390065
-0.347282
-0.067788
0.046325
0.046509
-0.195455
-0.415117
0.257556
-0.379308
-0.445991
0.400554
0.384915
0.533306
0.292975
0.059687
0.177505
0.013628
0.183981
-0.412106
0.181840
0.458999
-0.397209
-0.364177
0.420369
0.095880
-0.112680
0.435515
-0.543354
0.277508
-0.115742
0.043440
-0.093370
-0.008574
-0.449884
0.464140
0.366003
-0.135941
0.108443
-0.295905
-0.216144
0.240375
-0.676699
-0.440790
-0.688713
-0.160500
-0.050386
0.469443
-0.066403
0.210815
-0.329827
-0.296488
-0.244289
0.188285
0.443943
-0.193161
-0.291436
-0.426678
-0.330955
0.066871
-0.358183
-0.378316
-0.031488
-0.430370
0.609138
0.320014
-0.208191
-0.050268
0.168884
-0.083966
-0.343363
0.047725
0.119308
0.089993
0.002612
-0.106323
0.601968
0.325500
0.405528
-0.217484
-0.512995
0.321470
-0.010203
0.208298
0.163094
0.314572
0.334114
0.726250
-0.308047
-0.007292
0.079509
0.038741
-0.026593
0.512568
-0.641848
0.304465
-0.670249
-0.660805
0.067861
-0.227411
0.244105
0.295067
-0.352825
-0.540633
0.242128
-0.212136
0.434911
-0.287616
-0.457114
-0.343023
0.184400
-0.154490
0.327566
-0.353724
-0.317167
-0.176396
0.116636
0.518152
0.021917
-0.048767
0.209456
-0.493057
-0.350330
-0.411569
0.461555
-0.299239
0.067362
0.382102
0.373204
0.724252
0.193880
-0.290855
0.388639
-0.630480
-0.287647
-0.086816
0.230185
0.160274
-0.577336
0.424479
-0.154002
-0.056957
0.269944
0.473500
-0.646864
0.522232
-0.082132
0.534154
-0.352283
-0.384633
0.334015
-0.298812
-0.564411
-0.205203
-0.567499
-0.013962
0.407208
0.001638
0.357559
0.625040
0.405084
-0.577383
-0.585346
0.667752
0.008405
-0.332350
0.643705
0.535958
0.301282
-0.084745
-0.049109
0.353374
-0.532955
-0.356652
-0.266739
-0.469122
0.147754
-0.244815
-0.329568
-0.139306
-0.199148
0.513173
-0.303918
-0.283166
-0.196826
-0.594047
-0.443580
-0.070794
0.128987
-0.591814
-0.129954
-0.557585
-0.306107
0.403234
0.077597
0.066023
-0.260327
0.306636
0.087181
-0.411109
-0.438136
0.278432
-0.498762
-0.007535
-0.229188
-0.087086
0.081902
0.324956
-0.231794
0.317732
0.876591
0.455082
0.256858
-0.517619
0.450743
0.026628
-0.038588
-0.466962
-0.326735
0.178501
-0.198959
-0.116616
-0.370579
-0.166610
0.621988
-0.356390
0.196525
0.178040
-0.054762
0.436950
0.152542
0.606778
-0.128303
-0.363052
0.385559
0.365490
-0.515025
-0.277032
0.022298
0.193633
0.043408
-0.651646
-0.180313
-0.097227
0.085839
-0.337255
0.233600
-0.015625
0.353198
-0.418292
0.093630
0.116833
-0.374876
-0.097264
-0.038547
0.256872
0.555583
-0.363386
0.118921
0.101635
0.615766
-0.558052
-0.105079
0.296346
-0.573098
0.202108
0.537768
-0.369985
-0.263595
-0.323192
-0.127614
-0.021375
-0.055786
0.334618
-0.455361
0.600748
0.088147
-0.392164
-0.306347
-0.393593
0.313549
0.049455
-0.351950
-0.013308
-0.070865
-0.024088
0.534523
-0.146523
-0.349421
0.431328
0.520444
-0.165123
-0.045649
0.278658
0.142639
-0.292704
-0.206596
-0.332309
0.296239
0.395274
0.256600
-0.097778
-0.331586
-0.483855
0.405046
0.529269
0.080311
0.263708
0.274626
