0.097133
-0.118895
-0.073295
0.277687
-0.389868
0.031820
-0.339152
-0.072617
-0.189699
0.288794
-0.010520
-0.137170
0.051215
-0.317477
-0.509102
0.209860
0.297879
0.081680
-0.330857
-0.010482
-0.061840
-0.457305
-0.383394
0.469330
-0.340369
-0.570061
0.071129
0.021542
-0.268749
0.048690
0.532775
0.005301
-0.311841
0.615959
0.361789
0.157864
0.168718
-0.160536
0.122436
0.219276
-0.272191
-0.183367
-0.249445
-0.113715
0.364175
-0.367827
-0.422006
0.236617
0.350824
0.216316
-0.193094
-0.358093
-0.012180
0.327902
0.081193
0.374955
-0.163422
-0.344613
-0.058566
-0.363444
0.015173
-0.193844
0.090090
-0.183422
-0.451342
0.235946
-0.665638
-0.354707
0.181031
-0.502528
0.342144
-0.446760
-0.021112
0.104660
-0.144235
0.162550
0.195124
0.493868
0.592479
-0.402664
0.016288
-0.326539
0.325540
-0.385469
0.474165
-0.029049
-0.380245
-0.402688
0.153907
0.277295
0.032012
-0.104188
-0.364420
-0.143480
-0.006536
-0.559981
0.259292
-0.610041
-0.156873
0.341546
-0.172853
-0.156869
0.088287
0.236278
0.317763
-0.243177
0.444036
-0.344837
0.724294
0.063509
0.461056
-0.321619
0.007738
-0.098322
0.369020
0.342515
0.375180
-0.570342
-0.563462
-0.549804
0.378724
-0.253166
0.004933
0.233040
0.132633
-0.303972
-0.417880
0.210823
-0.518363
0.201025
-0.239630
0.262920
0.177640
0.314356
0.215390
0.091424
-0.023074
-0.317937
-0.370496
0.204433
0.211582
0.034465
-0.241290
-0.042219
-0.699131
0.267096
-0.380724
-0.210616
0.520025
0.228060
0.170899
-0.214803
0.235836
-0.098415
-0.213684
-0.062750
0.576501
-0.296631
0.269565
-0.249116
-0.435627
-0.223495
0.059075
0.308166
0.281470
-0.635299
-0.128430
-0.360138
-0.458851
-0.029482
0.058958
0.340257
0.084447
0.431488
0.671075
-0.258386
0.063862
-0.139473
0.095284
-0.382699
0.183467
-0.157619
-0.271971
-0.349082
0.259440
0.425633
-0.237061
-0.025646
0.260273
0.187649
0.173876
0.527215
-0.252499
0.172649
0.425948
-0.362897
-0.403093
0.179206
-0.157188
0.312427
0.368640
0.013709
0.326371
0.165465
-0.157531
-0.437377
0.393348
0.194195
-0.239064
-0.324935
0.360164
-0.163195
0.169457
0.319731
0.514958
0.096659
0.082215
-0.289896
-0.527952
0.006379
-0.097120
-0.022946
-0.336811
0.581219
-0.323881
0.384190
0.397663
0.082078
0.224014
-0.463013
-0.467361
0.264360
0.020237
-0.216828
-0.324525
-0.391781
0.642494
-0.397987
-0.003798
-0.389906
0.123058
-0.147453
-0.342142
-0.379950
0.603553
0.326992
-0.496090
0.245574
-0.084499
0.154717
-0.030344
-0.216971
0.288643
0.222895
-0.135955
-0.346598
-0.626352
0.096284
0.625736
0.121616
0.371578
0.260855
-0.300586
0.659335
0.003084
-0.363925
0.309576
0.566281
0.625262
-0.212912
-0.258785
-0.281779
0.169727
0.112026
-0.117528
-0.044844
0.098811
-0.010365
-0.009267
-0.004819
0.059633
0.247581
0.336629
0.036246
0.078433
0.316284
-0.428137
-0.282617
-0.518438
-0.147243
0.157686
-0.556575
0.508614
-0.163427
0.397967
0.103898
0.187332
-0.643349
-0.294775
-0.187191
0.043488
-0.305997
-0.037667
0.007841
0.043657
-0.330019
-0.443026
0.386690
-0.391570
0.409213
0.067078
-0.644590
0.123289
-0.062065
-0.194660
-0.184322
-0.126976
0.240763
0.020316
0.412485
-0.487119
0.420627
-0.134872
-0.004289
-0.292162
-0.583145
0.193996
-0.145186
-0.173537
0.343790
0.496246
-0.347511
0.206289
-0.087793
-0.119388
0.034752
-0.394140
0.408426
0.592461
0.389719
0.152207
0.187109
-0.123747
0.531099
0.332924
-0.643758
-0.014348
0.285695
-0.354951
-0.268316
-0.272158
0.399960
0.184799
-0.131629
-0.011408
0.203827
0.360805
0.037653
0.067799
0.363292
0.068879
-0.279025
-0.412834
0.033410
0.490946
-0.031151
0.156671
-0.105938
-0.064987
0.131327
-0.045999
0.471403
-0.087477
0.489062
0.480222
-0.335704
0.295689
-0.321699
-0.030192
-0.012719
-0.233580
-0.371775
-0.145053
0.542753
-0.721693
-0.044649
0.035263
-0.171453
-0.156653
0.394952
-0.120135
-0.066461
0.082572
0.037887
0.532424
-0.021756
-0.036063
0.227885
-0.073412
0.103093
-0.146614
-0.114555
0.284343
0.244795
-0.129718
-0.262528
0.030215
-0.450769
0.044791
0.208112
0.531907
0.399061
-0.410813
-0.065944
0.130379
-0.252233
0.004174
-0.248966
-0.346446
-0.216193
0.247312
-0.434543
0.018771
0.169469
0.575254
-0.044298
-0.306619
-0.297145
-0.052025
-0.307159
0.164352
-0.251777
-0.304118
-0.047866
0.069680
-0.004361
0.061303
-0.133816
-0.014734
-0.829159
-0.342184
0.349450
-0.264301
0.722893
-0.042843
-0.325915
0.230206
-0.630275
-0.144478
0.102075
0.150012
0.070751
-0.023336
-0.630401
-0.298635
0.424942
-0.256916
0.117567
-0.122859
0.477159
0.466624
0.360843
0.241484
0.072568
0.071708
0.102737
-0.043747
0.336425
0.308582
-0.038740
0.367080
0.250811
0.141086
-0.176167
0.611335
-0.320477
0.131370
0.256938
0.136099
-0.476306
-0.647940
-0.291612
0.043659
0.051627
-0.295350
0.444552
0.096638
-0.508898
0.051447
-0.200136
0.113438
0.084383
-0.297775
-0.182468
-0.101080
0.128872
-0.170851
-0.475797
0.074019
0.111755
-0.550395
0.260299
0.451458
-0.060999
0.443826
-0.067501
-0.062255
0.183114
0.318836
-0.235732
0.171980
0.029516
-0.714788
0.494169
-0.458477
0.445281
-0.499800
-0.009437
-0.439635
0.256364
0.327526
-0.332975
-0.298251
-0.140998
-0.070752
0.208384
0.188921
0.020679
-0.664430
-0.157004
0.274489
0.028798
-0.484304
0.033920
0.392044
0.371129
-0.508152
-0.325646
0.046458
-0.489050
-0.690490
-0.586229
-0.273571
-0.353633
-0.150359
0.080393
-0.243477
-0.090531
-0.485293
-0.524180
0.018505
0.517750
0.115566
-0.091150
-0.268783
-0.309956
-0.418887
-0.448803
-0.237713
0.200262
-0.230849
0.147221
-0.036134
0.290838
-0.133628
0.144763
-0.294030
0.337403
-0.483109
-0.411922
-0.037859
0.450885
-0.025587
0.037145
-0.433864
-0.021068
-0.463920
-0.132972
0.713276
-0.419852
0.207624
0.142754
0.636159
-0.570439
-0.409056
-0.227970
-0.569232
-0.200285
-0.626697
0.480192
0.456618
-0.381226
0.229312
0.554348
-0.491335
-0.168456
-0.380605
0.310763
-0.486188
-0.212305
-0.025623
0.258761
0.422343
-0.553376
0.103733
0.315998
-0.080599
-0.080534
0.223643
0.365464
-0.783083
0.126035
0.282256
-0.418521
-0.093128
-0.390981
-0.283171
0.165624
-0.669570
0.363522
0.456750
0.224904
-0.107154
0.260410
-0.486734
0.316791
-0.017952
0.498097
-0.300601
0.282921
-0.127857
0.291598
0.161630
-0.475599
0.613997
0.262524
-0.474952
-0.354776
-0.529097
0.124298
0.087860
0.126543
-0.352850
0.283841
-0.593005
0.474868
-0.082844
0.120437
0.150646
-0.475556
0.333519
-0.170965
-0.252179
-0.026384
-0.048771
-0.372803
0.422094
-0.286349
-0.330557
0.057359
-0.247577
-0.120966
0.712875
-0.240084
0.096138
0.220159
0.402624
0.337204
-0.149151
-0.283526
0.200943
0.120951
-0.271680
0.634984
0.247679
-0.496020
-0.052672
-0.028306
-0.180064
0.021715
-0.101241
0.415287
0.078932
0.114593
0.306959
-0.030283
-0.371063
0.706387
-0.160250
0.235441
-0.069413
-0.104176
-0.062839
0.149754
-0.347691
-0.401132
0.051409
-0.242822
0.158717
0.250660
0.469911
0.023182
-0.018917
0.093076
0.454212
-0.273944
-0.607561
-0.394591
-0.299532
-0.187083
-0.028736
0.079421
-0.027162
-0.238737
0.219673
0.000233
-0.343296
-0.625748
-0.204365
-0.046910
-0.301290
0.141167
0.149997
0.081788
-0.505593
0.563672
0.326974
-0.545949
0.241940
0.102962
-0.098491
-0.230647
0.038506
-0.182776
-0.477147
0.436402
-0.416530
0.022121
0.432726
-0.272845
-0.083967
-0.031243
0.572947
0.148871
0.334821
0.525095
0.495441
0.321654
0.385069
0.722961
-0.601146
0.315782
0.083818
-0.149279
-0.300940
-0.533138
-0.576456
-0.382713
-0.034269
0.311954
-0.058436
-0.120155
0.547758
-0.159005
-0.445217
-0.040550
0.172974
0.060755
-0.465981
-0.312371
-0.656815
-0.184298
0.024409
-0.390470
0.419882
-0.156869
-0.443357
-0.467140
-0.049222
-0.177905
-0.188382
-0.597164
-0.288444
-0.058270
0.170004
-0.241590
-0.525163
0.237719
0.311215
-0.143077
-0.122583
0.121083
-0.026119
-0.609056
-0.100710
-0.628963
-0.013825
0.679218
-0.042134
-0.587681
0.213412
-0.168470
0.597705
-0.035666
-0.151479
-0.053106
-0.466827
-0.048516
-0.183081
0.091755
0.460743
-0.109827
-0.614577
-0.181755
0.142659
0.317803
