-0.317999
-0.309154
-0.515315
-0.024828
-0.090656
0.031660
0.066765
0.380695
-0.247988
0.214448
-0.040014
-0.267870
0.134914
-0.132791
-0.172801
0.569788
-0.067795
-0.515758
0.217329
0.230537
0.414632
-0.269559
0.018042
0.014002
-0.595617
0.342970
-0.061282
-0.158268
0.090772
-0.234596
0.361983
-0.002603
-0.443013
-0.272663
-0.271610
0.120470
-0.159118
-0.566284
-0.453836
0.313313
0.127609
-0.455728
0.133266
-0.308567
0.478738
0.101130
0.239156
-0.212196
0.224057
0.359556
0.432810
-0.132174
0.401018
0.494872
-0.560583
-0.145178
-0.336461
-0.162962
0.060168
0.247232
-0.155491
-0.214775
-0.175057
-0.397243
-0.440649
-0.530988
0.323491
0.297300
0.509670
-0.288444
0.005909
0.253044
0.414641
0.415384
0.301510
0.027548
0.208230
-0.441992
0.431253
-0.584421
0.418411
0.328578
-0.050196
-0.153862
-0.160015
0.408086
-0.287184
-0.085388
-0.110132
-0.028193
-0.361925
0.296474
-0.174846
-0.188533
-0.034126
-0.121061
0.206311
-0.291628
-0.466523
0.217527
-0.041087
-0.210259
0.009201
0.408309
-0.161741
-0.110337
0.452316
-0.403886
-0.206146
0.242844
0.014602
0.472908
-0.424709
-0.530560
0.246736
0.171456
0.349750
-0.406671
-0.377750
-0.476002
0.256401
0.559679
0.668761
-0.129951
-0.229280
-0.382929
-0.620433
0.162219
0.355973
0.599677
-0.679726
0.270812
-0.352491
0.269536
-0.318385
-0.367276
0.190987
0.115586
0.138223
0.145026
0.210484
-0.228708
0.171827
0.000891
-0.083062
0.561822
-0.273577
0.380086
-0.165957
-0.557994
-0.444407
-0.191340
0.496050
-0.045059
0.399069
0.469586
-0.371970
0.252328
-0.354442
-0.395309
0.114264
0.504019
-0.406886
0.275848
0.160850
0.024900
0.173944
0.539095
-0.090875
-0.366913
0.292128
0.394651
0.200224
-0.042505
0.209190
-0.166738
0.695532
0.252002
-0.384039
0.295152
-0.182108
0.512725
0.281854
-0.471468
0.319376
-0.475542
0.146202
0.565289
0.294162
-0.367596
0.472689
-0.178924
0.263285
0.122754
-0.006535
-0.066945
-0.546434
0.433776
-0.537945
-0.671674
0.260122
-0.444995
-0.361079
-0.107981
-0.246808
-0.206020
-0.047579
-0.464754
-0.177242
-0.507858
-0.301183
-0.171803
-0.058328
0.281522
0.373105
-0.335101
0.264095
0.196787
0.176761
0.010743
-0.373235
-0.267005
-0.353371
0.378273
-0.088034
0.532327
0.390025
-0.009150
-0.329928
-0.210537
0.129696
-0.091915
0.403488
0.228605
-0.354740
0.377039
0.488108
0.096549
-0.125495
-0.032027
0.124049
-0.277137
-0.477039
0.225134
-0.341929
0.025636
-0.372675
-0.335390
0.492285
-0.563750
0.124826
0.904417
-0.370007
0.168321
-0.212195
0.302180
0.351433
0.583240
0.080453
-0.493815
0.309467
-0.431180
0.468414
0.046833
0.480684
0.098672
-0.106737
0.129368
-0.478141
-0.197198
-0.130038
-0.216044
0.469318
-0.013118
0.027824
-0.441461
0.160745
0.351178
-0.542636
-0.056010
-0.504883
-0.321562
0.471976
0.555016
0.602920
0.090777
-0.203082
-0.006702
0.387657
0.178848
-0.686500
0.068321
0.042716
0.321892
-0.063508
-0.140557
0.093335
-0.109310
0.375827
-0.179404
0.152340
0.057677
-0.280872
-0.094605
0.479889
-0.211199
-0.270382
0.023597
-0.263129
0.431185
0.065705
-0.013198
0.152763
-0.392662
0.633985
-0.019409
-0.270674
-0.274419
-0.014649
-0.410129
0.283965
0.056230
-0.126896
0.069182
-0.443127
-0.394165
-0.027174
0.311288
-0.115513
0.387729
0.459132
0.210801
-0.037386
0.563005
0.260758
-0.429812
-0.135731
-0.093001
-0.564347
-0.184442
-0.100620
-0.579117
-0.432847
-0.445963
-0.162959
-0.417628
0.202988
0.391359
-0.587353
-0.185641
-0.393639
0.396511
-0.179715
-0.611381
-0.007555
0.242004
-0.112947
-0.278889
0.120938
-0.030552
0.334399
0.246843
0.167207
0.433189
-0.119863
-0.603252
0.016726
0.461508
-0.137138
-0.070208
0.353724
0.264402
0.425871
0.108374
0.340184
0.167230
-0.630122
0.192387
-0.037525
0.291588
-0.186200
0.245818
-0.107632
-0.055168
-0.388208
0.252535
-0.396386
0.036762
0.484682
0.189724
0.464289
0.149147
0.177328
-0.304669
-0.310857
-0.564802
0.107347
0.206640
-0.058412
0.388390
0.592617
0.478131
-0.274561
0.180180
-0.398814
0.107735
0.172717
-0.294854
-0.375462
-0.396212
0.064534
-0.100535
0.668945
0.597147
-0.455156
0.496030
0.135768
-0.093495
-0.178572
-0.354758
-0.074301
0.537984
-0.393441
0.571868
0.798509
0.369258
0.345353
-0.171713
-0.253690
-0.520687
0.331738
0.447195
-0.413384
-0.376020
0.316106
-0.451741
0.068945
0.547989
0.139119
0.182090
-0.327098
0.468342
0.180611
-0.479190
0.046668
-0.045148
0.074987
-0.022030
0.404500
-0.179859
-0.020382
-0.151802
0.421791
0.416495
-0.203162
0.218953
0.197128
0.163245
-0.244944
-0.482832
0.322192
-0.240693
-0.153051
0.600479
0.257878
-0.127874
-0.050162
-0.330663
0.221964
-0.410384
0.235870
-0.319719
-0.068897
-0.224486
-0.050571
0.156184
-0.068940
0.287940
-0.663176
0.570777
0.081487
-0.002737
0.098956
-0.312807
-0.517464
-0.606302
-0.175582
0.014619
-0.019377
0.036684
-0.776647
0.023278
-0.008672
-0.055997
0.875600
0.155727
-0.658183
-0.203057
-0.062144
-0.377606
-0.354472
0.484132
0.084668
-0.093179
-0.194217
-0.321091
-0.025558
0.613155
-0.108110
0.096450
-0.005980
-0.377841
0.542865
-0.195455
-0.203399
0.351352
-0.466848
-0.066721
-0.141152
0.128465
0.375960
-0.145607
-0.668938
0.339013
-0.105605
-0.213261
-0.349054
0.231800
0.100799
0.270486
0.428893
-0.462983
0.369141
-0.039267
-0.362705
-0.266916
-0.164599
0.193102
-0.213946
-0.321792
0.032773
0.370798
0.315715
-0.330152
-0.273258
-0.033645
-0.274035
0.321781
-0.505313
-0.427161
0.178364
-0.587069
0.287148
-0.405325
0.291644
0.514173
-0.047386
0.286438
0.377379
-0.244289
-0.443583
-0.246873
-0.011149
0.086123
0.614738
0.143463
-0.232989
-0.080229
0.236436
0.262830
-0.521801
0.308834
0.203597
-0.178919
-0.144860
-0.036033
0.445732
-0.315369
0.373756
-0.344351
0.695887
0.551074
-0.297115
-0.647223
0.292926
-0.351652
-0.217484
-0.114217
-0.162564
0.046847
-0.431468
0.109422
0.084118
-0.219814
0.438790
-0.124523
0.155801
-0.141458
0.475994
0.281402
-0.105840
0.260816
0.393462
0.612324
0.148537
0.139874
-0.013363
-0.387241
0.802217
0.434677
-0.492278
0.199038
0.284584
-0.113652
0.232152
0.041520
-0.207402
-0.303377
0.163019
0.125098
-0.217415
-0.429347
0.470970
0.397737
0.336915
-0.038740
-0.392465
-0.530655
-0.341524
0.006062
0.404139
0.044175
0.124483
0.525047
0.402169
-0.351788
-0.407529
-0.283491
-0.203266
0.023691
0.520134
0.313644
-0.643860
0.519426
0.096619
0.391531
-0.299231
-0.348080
0.313879
0.369088
0.121667
0.542009
-0.020800
-0.305869
-0.393393
0.750684
-0.505389
-0.302557
-0.319329
-0.304099
0.314167
-0.615616
-0.401761
0.222288
-0.162456
0.268701
0.253892
0.492698
-0.361257
0.016747
-0.497404
-0.229179
-0.285524
-0.598201
0.401073
-0.413696
-0.037076
-0.126890
-0.056690
0.091061
-0.279155
0.228193
0.083674
0.147992
-0.254498
-0.200420
0.350549
0.148894
-0.090361
-0.500221
0.255481
-0.088139
-0.273501
-0.185874
-0.226120
-0.062516
-0.005024
-0.005255
0.009547
-0.554992
-0.064378
0.185809
-0.041564
-0.058012
-0.110575
-0.024633
0.019804
-0.038584
-0.341470
-0.328850
-0.180671
-0.257728
0.134777
-0.130825
0.281942
0.296862
0.200563
-0.213805
0.469983
-0.194131
-0.318242
-0.546703
-0.172838
0.066913
0.103090
-0.154472
0.489141
-0.590034
0.267236
0.329716
-0.440288
-0.325048
0.446740
0.152554
-0.110495
-0.115690
0.141034
0.211091
0.178475
-0.376046
0.461592
-0.396426
0.204177
-0.513947
-0.194374
-0.489980
0.344659
-0.364915
-0.567453
-0.290037
0.343628
-0.444119
-0.164965
0.373107
0.451378
0.218004
-0.357460
-0.565620
0.075104
-0.120548
0.074405
-0.689905
-0.476486
0.436524
0.107342
0.593890
0.278032
0.367876
0.517708
0.162173
0.171252
-0.321513
0.747190
0.247755
-0.247435
-0.634861
0.359067
-0.263059
0.099218
0.427983
-0.167170
-0.019795
-0.148170
-0.477753
-0.224433
-0.566071
-0.664452
0.239685
-0.307248
-0.389901
0.650456
0.440141
0.127990
-0.307963
-0.135362
0.450142
0.458926
0.077287
0.434365
-0.218417
0.278658
0.341820
0.325046
-0.230172
0.149357
0.103140
-0.223889
0.244684
-0.211827
0.446284
0.543224
0.047223
0.187444
0.191982
0.349597
-0.552552
