-0.493783
-0.227009
-0.362078
-0.029714
0.130130
-0.276465
-0.079826
-0.053217
-0.142376
-0.017108
-0.123730
-0.381272
0.016791
-0.020543
0.008568
-0.147908
0.043361
-0.104494
-0.515015
-0.059893
0.337865
-0.218500
0.032235
0.410511
-0.258606
-0.535038
0.226518
-0.196948
-0.046044
0.506091
0.098186
0.278285
0.546142
0.231575
0.218063
0.238299
0.255890
0.380215
0.087744
0.282316
-0.527489
0.560534
0.210144
0.182503
-0.431094
-0.319656
0.303791
-0.002671
-0.078777
0.071487
-0.302898
-0.075863
0.153241
-0.012726
0.166408
-0.441915
-0.215772
0.003061
-0.406282
-0.375967
-0.285049
-0.500865
-0.007932
-0.351648
0.499928
0.103680
0.094380
-0.194124
-0.314871
-0.164488
-0.166433
0.142484
-0.168057
-0.106191
0.364631
-0.303755
0.259505
-0.361390
-0.464134
-0.415229
-0.126604
0.324004
0.238049
0.461438
-0.443873
0.294161
-0.245601
-0.453498
-0.015417
0.147235
-0.159371
0.017068
-0.238098
0.188605
-0.354212
-0.063006
-0.130010
-0.407889
0.821007
0.257488
-0.064935
-0.081506
-0.375663
0.170030
-0.560418
-0.541544
0.319293
0.397978
0.397457
0.007857
-0.055832
0.159851
0.153123
-0.111872
-0.214095
0.204872
0.565905
-0.355721
-0.156282
-0.407515
0.010613
-0.329234
-0.529121
-0.213179
-0.199123
-0.408837
0.398020
-0.211463
0.101027
0.466169
-0.544637
-0.617973
0.271976
0.108818
-0.331047
-0.018644
-0.014037
0.130848
0.331378
0.085190
-0.077885
-0.209338
0.063546
-0.596991
-0.253137
-0.190012
-0.390326
0.148030
0.611408
0.303321
0.141107
-0.096638
-0.089152
-0.154665
0.000774
0.592187
-0.633883
0.181205
0.302180
-0.414899
0.243501
0.082952
0.086427
-0.364316
-0.099851
-0.068616
0.246030
0.038591
-0.248081
-0.026447
0.388761
0.347439
0.345176
-0.464375
0.225538
-0.295839
0.595600
-0.061850
-0.005548
0.137598
-0.006260
0.078131
-0.450264
-0.354158
0.245390
0.338878
-0.655000
0.240930
-0.296739
0.198374
0.487648
0.525542
-0.428454
-0.558724
0.261313
-0.006399
0.213570
-0.544946
-0.547223
0.399344
0.092895
-0.078964
0.490091
-0.424398
0.408612
0.299831
-0.014333
-0.301666
0.039565
-0.156463
-0.221572
0.238219
0.630011
-0.451200
-0.453779
-0.492800
-0.054574
0.243912
0.107204
-0.050066
-0.223411
0.048526
0.076592
0.029673
-0.574605
-0.133059
0.527038
0.112721
0.023019
-0.431267
0.484946
0.399480
-0.637902
0.087986
0.609061
0.271006
-0.171182
-0.129383
-0.405801
-0.020164
-0.513054
0.028545
-0.258852
0.021734
-0.442923
0.112310
-0.028060
-0.153170
-0.489655
-0.540562
-0.053290
0.243460
0.009722
-0.051012
-0.199228
0.335661
0.286881
0.000551
0.316246
0.109271
0.516422
0.695558
-0.278885
0.698153
0.013584
0.282027
0.150849
0.557876
-0.010050
0.539892
-0.469897
0.304245
0.703828
-0.043929
0.369505
0.246959
-0.320866
0.094618
0.472968
-0.337185
-0.084935
0.143143
-0.369488
0.024580
0.221442
0.119557
-0.670908
-0.138992
-0.107082
0.366361
-0.263462
-0.033892
0.184820
-0.380180
0.353948
0.418170
0.493778
0.076384
-0.188602
-0.574039
-0.016572
0.103037
0.441734
0.058389
-0.072140
-0.314991
0.039333
-0.067536
0.277179
-0.651416
0.047397
0.387331
-0.595815
0.434218
0.014703
0.259757
-0.173047
0.088466
0.480585
-0.199555
0.371129
0.178084
-0.105026
-0.031761
-0.142262
-0.584874
0.219651
-0.645117
-0.408002
-0.147559
0.233403
0.137694
-0.422723
-0.440626
0.102524
0.403357
-0.037603
0.025110
-0.389386
0.111174
-0.263728
-0.482140
-0.412585
0.365736
-0.093678
0.350026
0.364486
-0.050472
-0.528907
-0.482629
-0.453911
-0.347011
0.091972
0.435867
-0.018738
0.106200
-0.209530
-0.301439
0.412280
0.132000
0.027637
-0.245892
0.280923
0.465353
0.280270
0.487599
0.565032
-0.263693
-0.056453
-0.219883
0.278686
-0.448699
0.322236
0.545400
-0.119117
0.040339
-0.230617
0.037100
-0.060993
-0.223624
-0.120401
-0.288093
-0.364327
0.202477
-0.472544
-0.333826
0.560956
0.173062
-0.534346
0.043988
-0.322322
-0.248367
-0.028875
0.484743
-0.139717
-0.157644
0.035946
0.151518
-0.444227
-0.393931
-0.196803
-0.333348
-0.245144
-0.164040
0.138711
0.184093
-0.054266
0.098989
-0.290277
0.415930
-0.282088
0.587712
0.423448
0.620309
-0.325116
0.181522
-0.067643
0.321851
-0.381417
-0.018742
-0.043208
0.668978
0.228112
0.314813
0.153041
0.520699
-0.662941
0.117679
-0.184345
-0.216159
0.138406
-0.289997
-0.422138
0.614117
-0.255615
0.047610
-0.209732
0.423990
-0.393729
-0.117795
0.327803
0.153639
0.247187
-0.190522
0.308019
-0.149781
0.178438
-0.580445
0.102019
0.172975
0.413710
0.632998
-0.379774
0.367132
0.199562
-0.037935
-0.173280
0.281885
-0.012492
0.368552
-0.492632
-0.256020
-0.276387
-0.126982
0.296917
-0.161770
0.233607
0.191911
-0.402476
-0.554348
0.358080
-0.109773
0.373654
-0.477290
0.403924
-0.280746
-0.669330
0.847264
-0.250974
-0.057680
0.167725
0.230617
0.308749
-0.121350
0.482649
-0.061417
-0.184049
0.151625
0.284376
-0.081925
0.185085
-0.068933
0.492851
0.063747
0.025062
-0.309931
-0.227082
-0.572711
-0.360067
0.571899
-0.502863
0.026164
-0.131856
-0.033015
0.516259
0.265971
-0.122218
-0.587170
-0.289412
0.267489
-0.427306
-0.596654
-0.403825
0.613116
-0.555724
-0.127371
0.473439
0.146524
-0.341641
0.178795
0.510228
0.355841
0.058577
-0.041766
0.402038
0.157753
-0.229364
0.087287
-0.228265
-0.810661
-0.022657
-0.225765
-0.344025
0.530163
0.431797
0.348930
0.363207
-0.246411
-0.080871
-0.284064
0.078371
0.217735
-0.017400
0.377170
0.207351
0.037883
-0.166230
0.162095
-0.324531
-0.501148
0.305268
0.545997
0.420292
0.468921
-0.041977
-0.316335
0.188840
0.525413
0.373180
-0.340569
0.053236
-0.164623
0.365970
0.028371
0.014156
0.614154
0.079694
-0.082268
-0.247234
-0.465055
-0.557719
-0.156707
0.341968
0.147974
-0.174268
0.121760
0.195366
-0.068592
0.507632
0.380098
0.257261
0.132730
-0.813513
0.580272
0.371819
-0.226654
0.193790
-0.433005
-0.117694
-0.207183
0.058159
-0.456362
0.223973
-0.500274
0.430939
-0.166260
0.406100
-0.283145
-0.278952
-0.329381
0.366947
-0.548145
-0.302524
0.358335
-0.468557
0.266854
-0.622930
0.320215
-0.170533
0.376194
0.946783
0.183420
0.537009
0.267626
-0.390470
-0.480285
0.653511
-0.081963
-0.055344
0.481642
0.241231
-0.418892
0.262461
0.108510
0.625116
0.100185
-0.392465
-0.673206
0.105948
-0.107122
-0.021662
-0.050876
0.188125
0.396577
0.116112
0.240771
-0.325377
-0.411394
-0.512717
-0.579656
0.189593
0.258877
-0.018440
-0.026951
0.687428
-0.303825
0.347960
-0.190530
0.110144
-0.494682
0.225880
-0.218599
-0.209490
0.205518
0.684088
-0.402998
0.133259
0.333512
0.255220
-0.062529
0.479146
-0.725405
-0.281683
0.536185
0.121336
-0.402325
0.149855
0.133749
-0.090699
0.256668
0.606626
0.257760
-0.313544
-0.078512
0.436381
0.155008
-0.106489
-0.046454
-0.143734
-0.042823
-0.163822
0.214721
-0.410156
-0.515882
-0.133419
-0.043058
-0.194677
-0.273302
0.010081
0.254151
-0.061209
0.041121
-0.168813
-0.538976
0.459264
0.227905
0.167707
0.047909
-0.239248
-0.111156
-0.062500
-0.037990
0.077537
0.221823
-0.073206
0.097702
0.412736
-0.510976
0.153070
0.396895
-0.124600
-0.566692
0.269759
-0.032155
-0.268391
-0.182240
-0.290887
0.122299
0.594738
0.610276
0.215048
-0.228929
0.185070
0.925521
-0.356922
-0.099382
0.124130
-0.619549
0.316610
-0.054117
-0.304424
-0.174262
0.318490
0.071018
0.558548
0.114889
-0.256226
0.165072
-0.225302
-0.333747
-0.211554
-0.635138
0.471801
0.459709
0.075192
0.576235
-0.242811
0.146904
-0.653644
-0.220842
0.308206
0.436133
0.120165
0.412755
-0.233804
-0.426279
0.089520
-0.680415
-0.061200
0.343521
-0.168738
0.173928
0.326039
-0.487231
0.077330
0.035684
0.251081
0.162360
0.527205
0.360615
0.390520
-0.003489
-0.027806
0.377557
-0.061726
0.323704
0.199722
-0.419335
-0.537215
0.135120
0.889310
-0.341601
-0.166513
0.143269
0.038430
0.024086
-0.266305
0.284799
0.239793
-0.221335
-0.218289
-0.413384
-0.118683
-0.018910
-0.162475
0.576190
0.002110
0.018825
-0.068857
0.312853
0.304018
0.153886
-0.396169
0.396440
0.074965
0.208228
-0.495873
-0.538407
0.419765
0.273616
-0.424453
-0.067677
0.352178
-0.262660
0.228624
-0.420940
