0.233302
-0.556818
-0.280005
-0.164375
0.075157
0.229074
-0.074665
0.145581
-0.252407
0.112632
0.104814
0.195831
-0.044288
-0.427741
-0.121517
0.376494
-0.465029
-0.511039
-0.530180
-0.543071
-0.389490
-0.072156
0.138467
0.211707
-0.498827
-0.126120
-0.129660
0.101635
0.582386
0.179327
-0.306813
0.017454
-0.170925
0.192845
-0.227454
0.342310
0.366959
0.466298
-0.444557
-0.625777
0.135044
0.255570
-0.355709
-0.205576
-0.619601
-0.083876
-0.201393
0.667016
-0.077953
-0.345446
-0.246964
-0.369438
0.187028
-0.729787
-0.239675
0.529206
0.100001
-0.515121
0.295908
-0.436715
-0.136783
0.419259
0.397447
-0.319861
0.300748
0.253168
-0.167237
-0.314857
0.288197
-0.337215
0.183054
-0.279991
0.173989
-0.386793
-0.048718
0.037182
-0.058977
-0.290308
-0.343319
-0.778579
0.080339
0.565183
0.190965
0.191037
0.339490
-0.023980
-0.092965
-0.142221
-0.251356
-0.745752
-0.186453
-0.012309
-0.013680
-0.245178
-0.644201
0.165695
0.343080
0.489442
-0.156873
0.309433
0.647170
0.201413
0.268093
0.275157
0.054470
-0.453456
-0.037726
0.237862
0.724294
-0.245441
-0.352336
0.445299
-0.593083
0.201592
0.074948
-0.119779
0.111228
-0.246249
0.234354
-0.504150
-0.195348
-0.577610
-0.304795
0.579033
0.309420
-0.345238
-0.053843
0.025971
-0.452852
0.026785
0.556971
0.070760
0.187804
0.242721
0.316665
-0.077352
-0.172383
-0.356884
-0.455384
-0.485437
0.106241
0.034465
0.184216
0.400406
-0.305676
0.075001
-0.053313
-0.508636
-0.133471
-0.553916
-0.338427
-0.416919
0.067212
-0.185526
0.363509
-0.351453
-0.089308
0.215830
0.467464
0.020730
0.386962
-0.056424
0.870954
-0.265044
-0.098733
-0.326369
-0.597679
-0.383864
0.271881
0.133528
-0.136896
-0.129204
0.242787
0.342677
0.301263
0.014150
0.238096
0.387724
-0.024345
-0.241445
-0.134642
-0.073119
0.070067
0.575996
0.266778
-0.301576
-0.164042
0.246459
-0.099140
0.100033
-0.423991
-0.368854
-0.162309
-0.030620
0.101746
0.514758
-0.248993
-0.532784
0.149478
0.452360
0.450898
0.240493
-0.549608
-0.531485
-0.578000
0.264566
0.391301
0.057730
0.255997
0.035581
0.226841
-0.227304
0.288524
0.421310
0.362565
0.096102
0.184997
0.310398
-0.527234
0.494215
-0.119660
-0.101210
0.556952
0.110844
0.027787
0.485981
0.300610
-0.092242
0.306771
-0.341101
-0.050143
0.487939
-0.094505
0.076346
-0.354238
0.256444
-0.017111
-0.258918
0.047197
-0.337711
0.061082
0.040597
0.103786
0.223573
0.154140
0.118724
0.061192
0.082688
0.045307
-0.564244
0.101666
0.287622
0.302458
-0.640484
0.217208
-0.124819
-0.552894
-0.387067
-0.288644
0.244097
0.155119
0.161563
0.497621
0.062888
-0.024042
0.758379
-0.114969
0.678777
0.127281
0.015352
-0.219275
0.182406
0.109869
0.273938
0.098373
-0.462514
-0.019760
0.528507
0.453822
0.277121
-0.138952
-0.312025
0.458121
0.298428
0.159011
-0.443422
-0.185753
0.401782
0.329539
-0.136001
-0.461787
-0.584779
0.396944
-0.273009
0.332749
-0.012773
0.349263
-0.117409
0.016058
0.507305
-0.014685
-0.275241
0.445931
-0.209197
0.005879
0.144223
-0.149449
0.423897
0.037245
0.294456
0.048092
-0.106329
-0.561421
0.016015
-0.268932
-0.329660
0.119129
-0.132373
0.618115
0.431619
-0.122027
0.132110
-0.030126
-0.544118
-0.638214
0.221167
-0.303609
-0.267769
0.068654
-0.359469
0.097957
-0.313663
0.134376
0.363620
0.273988
-0.153925
-0.405949
-0.110766
0.189941
-0.273504
-0.225331
-0.319469
-0.240806
0.157938
0.600393
-0.682103
0.047258
-0.276979
-0.589406
-0.364863
-0.282207
0.301002
-0.713291
0.044761
-0.463903
-0.041077
-0.480809
0.049281
-0.489608
-0.127321
0.487423
0.694528
0.470538
0.117480
-0.156657
0.423416
0.150410
-0.390087
0.012598
0.125864
0.373321
0.327290
0.274833
0.453918
0.021517
0.096950
-0.353748
-0.394035
0.084784
0.178130
0.180056
-0.098567
0.246752
-0.132378
-0.457635
0.479693
0.040419
-0.227153
-0.508395
0.430337
-0.273292
-0.329938
0.201993
-0.802770
0.312642
0.538113
-0.128271
0.462680
-0.216375
-0.550430
0.027040
-0.161738
-0.228092
-0.116228
0.342691
-0.262528
0.842636
0.679791
-0.379963
0.238861
-0.399670
-0.101145
-0.231779
0.486656
-0.191910
-0.225757
0.181630
0.298642
0.243573
-0.687758
0.293432
-0.165320
0.181957
-0.194286
0.131573
-0.129952
-0.118099
-0.297145
-0.461560
-0.147040
0.149480
0.247037
-0.220469
-0.167683
-0.082323
-0.116229
0.265565
-0.177022
0.380839
-0.228858
-0.604592
0.299014
0.109250
-0.356002
-0.181716
-0.157225
0.242102
0.141813
0.238364
-0.040634
0.724434
0.159934
-0.426561
0.443446
-0.665260
0.232336
0.111873
-0.039329
-0.664745
-0.094289
0.317123
0.016930
0.235211
-0.306033
0.322106
-0.032676
0.374725
0.003838
0.117082
-0.605107
-0.002887
0.063862
0.267079
0.165453
0.184820
0.004832
0.038915
0.393447
-0.277067
0.571712
-0.655939
0.414167
-0.447641
0.332335
-0.181341
-0.647080
-0.028274
-0.217250
0.114010
0.318700
0.085661
-0.073743
0.425086
-0.099080
0.187493
-0.363667
-0.209193
-0.099644
0.085687
-0.222484
-0.584694
0.255589
0.174564
0.014752
-0.188587
-0.280336
-0.427168
0.068481
-0.599615
-0.050317
0.695243
0.027743
-0.006161
-0.347060
-0.211425
0.351352
0.291057
0.316193
-0.375025
0.364772
0.278257
0.280864
-0.122022
-0.244207
0.295091
-0.098356
-0.437717
0.504284
-0.592319
0.150035
0.162850
-0.027949
-0.289787
0.175152
0.438561
-0.346837
-0.284494
-0.457975
0.392457
-0.191340
0.431963
0.272203
-0.236742
-0.037791
0.090479
0.098120
0.317580
-0.003842
-0.356732
-0.558570
0.146809
-0.716324
0.289666
0.396769
0.301453
-0.314156
0.029875
0.666856
0.546604
0.380360
0.151778
0.197267
0.400924
0.438908
-0.489457
0.143463
-0.289854
-0.303376
0.081977
0.505862
-0.126051
0.412941
0.294028
0.030082
-0.014274
0.440198
0.019010
-0.568973
-0.500273
-0.129531
-0.232338
-0.050843
-0.000430
0.565289
-0.451975
-0.420007
-0.430203
-0.056357
-0.010029
0.441171
0.214119
-0.254434
-0.153201
0.578727
0.618751
-0.569143
0.455447
-0.312621
-0.240096
0.307027
-0.175144
0.345788
0.008752
-0.423467
-0.670110
0.063588
-0.067170
0.320215
0.425889
-0.395916
-0.409805
0.304449
0.375319
0.141559
-0.169738
-0.390981
-0.268831
-0.146583
-0.460884
0.380272
-0.325707
0.549679
0.521078
0.183715
-0.004378
-0.456756
-0.169449
-0.155035
0.077257
-0.174549
0.340334
0.329070
0.524755
-0.130597
-0.198446
-0.465170
-0.610350
-0.113646
0.257834
-0.107962
0.424755
-0.163985
0.510141
0.244859
-0.156728
-0.241589
-0.138658
0.399043
0.273643
0.126539
-0.357929
-0.267200
-0.252179
-0.645586
-0.339198
-0.254317
0.437822
-0.350496
-0.309927
0.778477
-0.175713
0.515647
0.286866
0.525713
0.481616
0.375525
-0.716535
-0.137278
-0.465564
-0.635648
0.190306
0.240146
0.228580
-0.437005
-0.273466
-0.071522
0.394581
-0.104881
0.073008
0.268465
-0.074468
-0.002508
-0.466995
-0.432362
0.123601
-0.057452
0.250189
0.547618
-0.104813
-0.473580
-0.252085
-0.236600
-0.296888
0.037400
-0.218624
0.081935
-0.273346
-0.115385
0.463209
0.537832
0.224659
-0.106092
-0.151881
-0.071993
0.372385
-0.352435
-0.548975
-0.279984
-0.230230
0.315466
-0.088613
0.215564
-0.128230
0.235925
-0.038363
0.646327
0.179286
-0.344169
0.138617
0.069929
0.340545
0.363829
0.163066
-0.333254
0.256803
0.207237
-0.145380
0.237991
-0.411286
-0.318168
0.284756
-0.232522
-0.227663
0.374292
0.645132
0.212374
-0.437370
-0.368621
0.261980
0.272221
-0.028167
-0.028217
-0.423313
-0.573418
0.028924
0.617010
-0.154956
-0.105570
-0.288470
-0.120825
0.055115
-0.203922
-0.472550
-0.106392
0.151185
0.122686
-0.372604
-0.273783
-0.358998
-0.020721
-0.323953
0.111570
-0.243943
0.159952
-0.049237
0.054392
-0.459455
0.443111
-0.033369
0.120334
0.188363
0.551023
-0.072204
-0.170782
0.369456
-0.242495
-0.242065
0.382574
-0.054560
-0.297027
0.737351
-0.658159
0.315583
-0.512698
-0.517143
0.425876
-0.127746
0.241532
-0.037396
-0.499334
0.030807
-0.076628
-0.201591
-0.279689
-0.522914
-0.048662
0.199190
-0.039695
-0.070938
0.523597
0.125268
-0.240241
0.479461
-0.561337
0.242573
0.003244
-0.369709
0.187759
0.281524
0.239727
0.059178
-0.051168
-0.543040
0.450186
0.299687
-0.226838
