0.381318
-0.214953
-0.019167
0.343012
-0.203266
-0.493843
0.274105
-0.004688
-0.192996
0.103612
-0.317731
0.166885
-0.416830
-0.117514
-0.059781
0.276672
-0.053292
-0.128989
0.124960
0.497444
0.334551
0.179296
-0.413005
0.449997
-0.470338
-0.063858
0.038657
-0.111776
-0.126285
-0.363011
0.484516
-0.134636
-0.109589
-0.265252
-0.354176
0.367250
-0.311539
-0.348366
0.104073
-0.541558
0.186191
-0.274052
-0.211525
0.290678
0.394256
-0.543204
0.338909
-0.406129
-0.456489
0.062005
0.308223
0.534543
-0.021740
-0.374892
0.091831
-0.470299
0.118566
0.356973
-0.083194
0.396412
-0.254678
-0.010888
0.036726
0.618133
-0.441960
-0.049114
-0.738307
0.298377
-0.304259
-0.337215
0.083612
-0.412366
-0.185684
-0.264034
0.459306
-0.116079
0.137004
0.103872
0.561841
-0.358644
0.133931
-0.391800
0.511676
0.246319
-0.332389
0.211997
0.467889
0.031350
-0.254155
0.297878
-0.004989
0.393263
0.205658
-0.528340
0.563295
0.211817
0.321186
-0.474556
-0.039007
0.436248
-0.007889
-0.444999
-0.133126
-0.191629
0.207294
-0.408291
-0.232605
-0.256277
0.133418
0.212798
0.401413
0.199508
0.362396
-0.011057
-0.201468
0.077048
0.290991
-0.288875
0.222004
0.552133
-0.133160
0.501202
0.205750
-0.435223
0.110102
0.468889
-0.089287
-0.082395
-0.427739
-0.464068
0.035902
-0.267369
0.263483
0.170489
-0.299248
0.292457
0.244072
0.380944
-0.330822
0.540363
0.293386
0.171198
0.552731
0.375646
-0.160700
0.015403
-0.502501
0.092509
-0.268882
0.172865
-0.444407
0.353933
0.081366
-0.347537
0.014980
0.660015
-0.368815
-0.334428
-0.539292
-0.397714
-0.495570
0.387386
0.252143
0.102014
-0.156339
0.654966
-0.410653
0.033337
-0.210627
-0.311713
0.028266
0.532106
0.150719
0.548759
0.016428
0.079175
0.307869
-0.051694
-0.209717
-0.077173
-0.043820
-0.135813
-0.049102
-0.319483
0.064500
-0.285147
0.085471
0.006043
0.370993
0.111439
-0.422777
0.589583
-0.162309
-0.110774
0.112970
0.513122
-0.324186
-0.008445
-0.638524
-0.611936
0.173152
-0.141972
-0.723122
0.149622
-0.607333
0.422801
0.420134
-0.499073
0.582571
0.198487
-0.047185
-0.168214
-0.303749
0.301160
0.482866
0.336254
-0.045830
0.519781
0.126155
0.244273
0.589935
-0.001689
0.252825
0.084595
0.634788
-0.432283
0.127931
-0.242407
0.480979
0.286620
-0.350813
-0.212980
-0.482565
0.230146
-0.630679
-0.399770
0.492432
-0.362162
-0.446206
0.355029
0.439929
0.429356
-0.453750
0.162399
-0.577853
0.292016
-0.524438
-0.177834
0.410161
0.187717
0.237270
0.367312
0.279705
0.171526
0.003671
-0.196496
0.291299
0.347714
-0.285951
0.282750
0.470086
-0.211898
-0.303182
0.008521
-0.192704
0.003964
-0.540141
0.201259
0.164965
-0.153390
-0.220975
-0.301047
0.154986
0.186411
0.583894
0.062886
0.110905
-0.163596
0.013618
0.064482
0.005424
-0.419665
-0.108363
-0.102327
0.068709
0.110033
0.395545
-0.163009
0.782788
-0.170205
0.377658
0.523035
0.383138
-0.215929
0.453443
-0.276412
0.398869
-0.493625
-0.316188
0.499488
0.363027
-0.320941
0.180596
-0.024362
-0.138306
-0.327227
0.442718
0.314173
-0.160345
0.420820
0.124439
-0.102287
-0.338056
-0.080888
0.090554
-0.161792
0.283831
-0.077742
-0.205783
0.323205
-0.272719
0.011443
0.103589
0.216469
-0.219889
0.489405
0.478856
-0.321422
-0.307837
-0.338107
0.352937
0.037825
0.390760
-0.151433
-0.107955
0.006889
-0.286312
-0.017472
0.440775
0.365018
0.265917
0.098727
0.501321
-0.348958
0.042479
-0.130732
0.610242
-0.036304
-0.492757
0.127577
0.102693
-0.072089
-0.437614
0.001352
0.159820
-0.239449
0.046291
-0.226179
0.178253
0.215413
-0.201272
0.494069
0.468161
0.315817
0.305613
0.033289
0.618121
-0.391858
-0.031337
-0.149523
0.385052
0.276843
0.389651
0.255094
-0.207708
-0.180345
-0.147498
0.271906
-0.102475
0.478067
-0.268652
-0.519181
-0.290993
-0.563873
-0.288925
0.177741
0.102258
-0.295503
-0.152707
-0.023182
-0.142773
0.087842
0.244116
-0.548325
0.259042
0.597370
0.170265
-0.475316
-0.161446
-0.237139
-0.229585
-0.273959
-0.264612
0.329494
0.331833
-0.033107
0.140897
-0.270001
-0.218375
-0.176639
-0.003632
0.357424
-0.003849
0.562231
-0.198007
-0.001868
-0.676352
-0.186246
-0.396393
0.004995
-0.234338
0.080751
0.052314
0.571868
0.176263
0.400162
0.138772
0.071681
-0.348201
-0.131859
0.505925
0.475988
-0.463756
0.230143
0.408840
-0.550440
-0.254495
0.710763
0.031011
-0.514313
0.049911
0.451839
-0.368592
0.722893
0.364296
-0.114868
-0.123132
0.100527
0.399596
-0.120050
-0.291077
-0.468841
0.312575
-0.438997
0.464694
-0.492932
0.371232
-0.323122
-0.262990
-0.427110
-0.200651
-0.175995
0.197692
-0.021948
-0.379997
-0.170605
-0.148032
0.135475
0.310074
-0.169491
-0.243311
-0.120747
-0.183111
0.097833
-0.134458
-0.123506
-0.158398
0.153338
-0.167506
-0.458111
0.071341
-0.029382
-0.145760
0.713596
-0.384076
-0.647080
0.374852
0.087611
-0.190713
0.376077
-0.256880
0.072759
-0.297775
-0.058771
-0.042690
-0.057807
-0.484992
0.166674
0.232256
0.578481
0.028047
0.558398
0.353985
-0.209982
-0.488464
-0.158116
-0.365097
-0.493052
-0.062195
-0.295178
0.102825
0.301029
0.231777
0.101066
-0.280459
-0.173071
-0.115534
-0.368914
0.095511
0.320296
-0.123644
-0.049941
0.184031
-0.038882
0.150623
0.152205
0.413145
0.222060
0.170628
-0.464734
0.279203
-0.049459
0.034507
0.512449
-0.079766
-0.494198
0.280138
0.148282
-0.198519
-0.328383
-0.200291
-0.474825
0.442341
0.374214
-0.359481
0.046667
-0.246090
-0.126055
-0.499570
0.110226
0.244147
0.452429
-0.366795
0.249320
0.035834
0.031109
-0.263666
-0.544659
-0.398043
-0.007087
-0.131866
0.332317
-0.254089
0.245917
0.372099
0.490381
0.217413
0.096188
-0.030947
-0.519626
0.460069
0.456457
0.313803
-0.090274
-0.289843
0.530023
-0.482604
-0.349110
0.430121
-0.325358
-0.384238
-0.222088
-0.058886
0.465489
-0.329566
0.591501
0.089190
-0.189716
-0.498939
0.325832
-0.125959
-0.223966
0.464902
0.124359
-0.222073
-0.139335
-0.167998
-0.212250
-0.047769
0.164682
-0.273442
-0.919190
-0.568369
0.341027
-0.504764
0.147813
-0.499728
0.169135
0.088750
0.561892
-0.280951
-0.340366
-0.665536
0.387212
-0.023715
-0.222126
0.284134
-0.300795
-0.689970
-0.317789
0.026489
-0.431632
-0.092921
0.068252
-0.427438
0.366700
-0.374185
-0.049371
-0.404265
-0.045261
0.266330
0.159344
-0.000609
0.455779
-0.260119
-0.328759
0.482966
0.032228
0.029876
0.222472
-0.562469
-0.171733
0.351072
0.018059
-0.257260
0.062023
0.158659
-0.148713
0.055404
0.224393
0.334635
-0.086338
-0.357209
-0.534457
-0.013362
-0.083518
0.434127
0.106666
0.466180
0.185862
0.174578
-0.024224
0.100051
0.273141
-0.029593
0.394972
0.331068
-0.271472
0.071054
-0.349958
-0.398712
-0.610408
-0.294220
-0.411721
-0.264309
0.274859
0.152287
0.339497
-0.052945
-0.576066
0.170687
0.431124
-0.761591
-0.061010
0.048736
-0.380687
0.392185
0.638602
-0.045086
0.088088
-0.203984
-0.189708
0.248981
0.248275
-0.221963
0.057363
0.147865
0.507363
-0.164737
0.010044
0.561346
0.310661
0.083280
-0.283989
-0.236236
0.233001
0.419887
-0.489924
-0.174669
-0.421365
0.133444
-0.285098
-0.284364
-0.355775
-0.607834
0.581349
-0.375433
-0.278950
0.528484
-0.524940
-0.398196
0.239521
0.082867
-0.127925
0.100782
-0.042327
-0.234754
0.337362
0.189990
0.016591
0.120602
-0.052044
0.333113
0.556551
-0.088746
-0.308631
0.275117
0.528582
-0.647966
-0.197620
-0.584144
0.024673
-0.223469
0.427053
-0.245157
0.580620
0.328887
0.359174
0.463329
-0.208427
-0.203416
0.062440
-0.401762
0.625259
-0.478877
0.321720
0.273058
-0.290362
-0.360898
0.240371
0.470141
0.160154
0.224516
0.315462
-0.208744
0.591556
0.723030
0.410693
0.358147
-0.298295
0.696043
-0.303495
0.079061
-0.244838
-0.225406
-0.237461
-0.347565
-0.071452
-0.362490
-0.207206
0.257722
0.090031
-0.350829
-0.283016
-0.089456
0.323492
-0.195398
0.312508
-0.134915
-0.323796
-0.377633
-0.512357
-0.048279
0.538696
-0.695892
-0.197469
0.450041
0.755639
0.117451
-0.049460
0.308403
-0.639401
0.552406
-0.747732
-0.237591
-0.301964
-0.533347
0.260433
-0.380541
-0.421642
-0.064801
0.501318
0.403662
0.451868
0.561182
0.395015
