0.464952
0.242824
-0.094505
0.261357
0.094778
0.418898
0.084330
0.182827
-0.252407
-0.049820
-0.183445
-0.038416
-0.372277
-0.433201
0.344981
-0.377216
0.302178
-0.055458
-0.264429
0.501458
0.211415
-0.457305
-0.640836
0.478682
0.302005
0.038949
0.768194
0.248827
-0.093753
-0.077613
0.618687
0.487941
-0.343696
-0.058862
-0.227454
0.052419
-0.090236
0.385248
0.291538
-0.502601
0.431191
0.206660
0.074718
-0.164373
0.119693
0.114243
-0.201393
-0.058889
0.284804
-0.488703
0.351185
-0.251582
0.256677
0.295551
0.512269
0.171055
0.122622
-0.089683
-0.380509
-0.382254
0.332987
0.104499
0.064165
0.454185
0.315428
0.208111
-0.134790
-0.275170
-0.195879
-0.292910
-0.010076
0.193959
0.268630
-0.343915
0.526295
0.314980
-0.425704
-0.034470
-0.048256
-0.053912
0.150331
-0.240318
-0.226789
0.177776
0.546724
-0.189161
0.506148
-0.269702
-0.110420
0.000124
-0.392070
-0.450756
0.259353
-0.113586
0.016124
-0.320580
-0.055395
-0.120125
0.503720
0.141929
0.647170
0.230312
-0.314632
-0.474036
-0.278721
0.501431
0.710629
0.314920
0.116296
-0.262302
0.018161
-0.416922
0.105692
-0.079343
0.148640
-0.090005
0.117523
-0.199139
0.161257
-0.442842
0.393810
0.006796
-0.601596
-0.175055
-0.256617
-0.394698
0.090753
0.036350
-0.518363
-0.289671
0.276128
0.442748
-0.168718
-0.401001
-0.362544
-0.291517
-0.357801
0.313252
-0.455491
0.216962
0.185266
-0.254748
0.318732
-0.635681
-0.095214
0.346868
0.413613
-0.395622
0.523457
-0.355205
-0.013109
0.091715
0.514850
-0.328833
-0.227762
-0.014385
0.398553
0.390101
0.634909
-0.347683
-0.219395
0.237935
0.678600
-0.231189
0.437751
0.024403
-0.390353
-0.231082
0.172516
-0.134510
-0.136896
-0.175342
0.047647
-0.487875
0.266067
0.197144
-0.309330
-0.603712
-0.119026
-0.273063
-0.134642
0.050228
0.153537
0.587996
0.115526
-0.249871
-0.196193
0.295299
0.445673
0.183965
0.450903
-0.197148
-0.186902
0.147470
0.365073
-0.258854
-0.104569
-0.290991
-0.251696
0.619834
-0.125989
0.213274
-0.328660
-0.006392
0.094924
0.258907
0.192655
0.076713
-0.671322
0.288167
0.300022
-0.161421
0.504856
-0.309523
0.478633
0.172380
-0.076449
-0.113624
0.025996
-0.494376
-0.012574
0.412957
0.143112
0.068940
-0.412200
-0.492150
-0.239434
-0.306646
0.040905
-0.135629
-0.401562
-0.374425
-0.347940
0.076346
-0.359251
-0.469046
-0.043363
0.066323
0.027739
-0.346729
0.215104
0.114960
0.087295
-0.010801
-0.442923
0.163469
0.480990
-0.048604
0.016297
-0.606227
0.416190
-0.120425
0.302458
0.212892
0.299421
-0.281687
0.243284
0.329733
-0.288644
0.214990
0.360818
0.011723
-0.215085
0.260587
-0.028292
0.189769
-0.064942
-0.052895
0.274717
-0.373231
-0.452040
-0.258719
0.146983
-0.428028
-0.388089
0.583802
0.217768
0.251905
0.453822
-0.033304
0.892467
-0.248097
0.311158
-0.394262
0.324388
-0.217314
-0.616979
-0.073492
0.392510
0.000963
-0.492393
-0.285013
0.286801
0.196376
-0.052146
-0.126038
0.454415
-0.351366
0.016058
-0.224099
-0.062803
-0.436459
0.511514
0.129145
0.322160
0.055534
0.071425
-0.094567
-0.289082
0.568503
-0.313892
-0.006962
0.202264
0.145323
-0.268932
-0.414553
-0.071323
-0.134576
-0.226918
0.488396
-0.522317
0.122450
-0.121993
-0.081230
0.070013
0.608101
0.670739
0.181194
-0.668977
-0.013742
0.126038
-0.174896
0.490555
0.162871
-0.012974
0.037460
0.040902
0.289948
0.378565
0.372686
0.119216
0.475784
0.121586
0.435170
0.475446
-0.469413
0.182528
0.285695
-0.517529
-0.218719
-0.110372
-0.313819
0.428654
0.121165
-0.117787
0.203633
0.345702
0.111940
-0.371753
-0.071472
0.010759
0.207267
0.014928
0.148276
0.115530
0.258165
-0.184794
-0.622030
0.308214
-0.080078
-0.007482
0.339831
-0.399701
0.320565
0.009710
-0.221861
-0.468860
-0.032669
0.353122
0.215911
0.225330
-0.003888
0.613883
0.429936
0.342410
0.238992
0.210180
-0.379105
0.179101
0.080411
-0.219636
-0.300023
0.239171
-0.253794
-0.381620
0.538113
0.291353
-0.113463
0.437173
-0.237774
0.036351
-0.224576
0.214782
-0.442439
-0.072364
0.412086
0.130662
-0.063265
-0.149650
0.269809
0.420168
0.399061
-0.397408
0.052992
0.071791
-0.249301
-0.254725
0.427208
-0.331238
-0.001236
-0.503123
-0.122523
-0.373778
0.199086
0.042397
-0.157410
-0.159025
-0.538515
0.610419
0.005457
0.117791
-0.068529
0.063246
-0.077816
0.137594
-0.288697
-0.201430
0.409782
-0.400898
0.079945
0.205448
0.196912
0.133488
-0.339788
0.221198
-0.180024
-0.487058
-0.061404
0.230355
0.312412
0.129336
0.424299
0.062797
-0.037753
0.208235
0.277011
0.215533
-0.495945
0.564128
-0.288779
0.512404
0.000137
-0.277254
0.255157
-0.318333
-0.161136
-0.135823
0.236308
0.360598
0.308241
0.036028
-0.536651
0.269016
-0.012756
-0.205299
0.160765
-0.388943
0.132954
-0.655081
-0.173389
-0.524366
0.257405
0.083087
0.154700
-0.247822
-0.486553
-0.198023
0.202675
0.221515
-0.378157
-0.599130
0.069389
0.441824
0.079629
-0.197213
0.205370
-0.282950
-0.071322
0.264624
-0.190704
-0.287155
0.081961
0.183644
0.367291
-0.511244
-0.410121
0.295499
-0.429600
0.274416
-0.250265
0.653477
0.378643
0.162087
-0.416044
-0.195619
-0.286207
0.261343
-0.253915
0.220948
-0.497658
0.263206
-0.319486
0.251425
0.047974
0.295091
0.441631
0.039316
0.254537
0.262808
-0.039999
0.213369
0.230388
0.081151
-0.132451
0.583504
-0.128634
-0.520690
-0.357950
-0.105757
0.183624
-0.490650
0.335023
-0.164314
-0.386376
0.399593
0.365966
-0.484700
-0.170190
0.126139
0.087008
0.365632
-0.372742
0.507732
0.579745
0.355363
0.471603
0.029875
0.244311
-0.295544
-0.341463
0.272726
0.147221
0.039993
0.637844
-0.578426
-0.321479
-0.545215
0.285013
-0.506085
-0.603213
-0.082062
0.518828
0.172804
-0.049916
-0.501642
-0.197957
-0.098558
0.310099
-0.316147
-0.386075
0.436153
-0.081905
-0.231338
0.016502
-0.101143
0.224287
0.031950
0.391984
-0.081507
0.414730
0.444272
-0.263943
-0.340273
-0.416385
0.092953
-0.849365
0.157577
-0.330763
0.264733
0.175732
0.474290
0.268872
0.300899
0.509753
-0.009965
0.063434
-0.067170
-0.160454
0.751816
-0.431030
-0.385552
-0.479351
0.095683
-0.485221
0.575194
-0.072987
0.169314
0.039424
-0.577253
0.452396
0.465037
-0.142796
0.467084
0.387114
0.357133
0.086226
-0.131811
0.458210
0.481882
-0.009782
-0.160219
-0.298238
-0.100800
0.224944
0.107604
0.275635
-0.124651
0.215307
0.268675
-0.150722
-0.677533
-0.004802
0.473387
-0.211583
-0.676209
-0.009516
0.254813
0.244698
-0.600318
-0.475556
0.174228
0.295686
-0.134421
0.198556
0.113208
-0.082131
-0.001564
-0.785691
0.056081
0.691287
-0.175713
-0.540048
0.018792
0.569062
0.481616
0.394257
-0.646795
-0.271567
-0.066016
-0.186972
0.041642
0.138936
-0.124900
-0.265566
0.092624
-0.071522
0.449349
0.353503
0.113293
-0.493521
0.408594
0.150754
-0.449594
0.112261
-0.343255
-0.347705
-0.270771
-0.287823
0.181993
-0.473580
-0.391978
0.085141
-0.154750
-0.529072
0.101874
0.183454
-0.414177
-0.065991
-0.325439
-0.423453
0.499470
0.136344
0.001505
-0.530607
0.340181
-0.028285
0.324638
-0.259132
0.234716
-0.188521
-0.015834
-0.419625
0.466659
-0.497602
0.005235
0.124448
0.268895
-0.369685
0.308470
0.519402
0.198010
0.012808
0.449124
0.111585
0.118714
0.207237
-0.227876
0.473258
0.316610
0.349919
-0.118697
0.033718
-0.187545
-0.006682
0.019196
0.379211
0.068673
0.205974
-0.221381
-0.163091
-0.370101
0.484611
-0.103150
-0.065292
-0.325714
-0.147140
0.400328
0.156010
-0.325604
-0.325945
-0.145418
0.292563
-0.049009
0.123179
-0.239768
-0.508875
-0.581132
-0.250027
0.127989
-0.031581
-0.259536
-0.044965
-0.098383
-0.482773
-0.263145
-0.112568
0.230828
0.085153
0.106577
-0.126007
0.272606
-0.366593
-0.261331
0.396457
-0.299851
-0.095982
0.097701
-0.078785
0.101071
0.294766
-0.088375
-0.273997
0.173039
-0.158002
-0.290320
-0.308162
0.092739
0.366815
0.691564
0.309341
-0.248209
0.180469
0.004814
0.432444
-0.366038
0.364747
-0.358098
-0.262789
0.110645
0.579442
0.297748
0.425072
-0.112555
-0.238851
0.146983
0.361343
-0.550272
0.305409
0.402731
0.369928
-0.372125
-0.053623
0.434511
0.056250
0.338598
0.316906
