0.140694
0.356662
-0.037363
-0.114694
-0.107336
-0.345610
0.119689
-0.042087
0.099189
-0.078136
-0.020046
-0.350387
-0.338858
-0.092208
0.177645
0.403694
-0.070976
0.026640
-0.511207
-0.543071
0.231560
0.361007
-0.021426
0.199285
-0.106888
0.054614
0.064988
-0.215651
-0.179175
0.019427
0.209152
-0.315937
-0.109589
-0.273944
0.742931
0.238144
0.052077
-0.508663
-0.058707
-0.592443
0.158008
-0.350898
-0.216675
0.375634
-0.641616
-0.367215
-0.026062
-0.163180
-0.143279
0.033601
-0.183596
-0.156938
0.171086
-0.318498
0.203093
-0.014894
-0.170669
-0.025982
0.263740
0.178258
-0.223830
-0.316205
0.432256
-0.086824
0.483592
-0.479164
-0.780926
0.160714
-0.126588
-0.344384
0.409320
0.162138
-0.495207
0.575806
0.437997
-0.188224
0.479166
0.509150
0.134351
-0.431384
-0.049249
-0.374170
0.460605
0.466978
0.182367
-0.150139
0.276977
-0.128218
-0.128692
-0.027048
-0.004989
0.616052
-0.007980
-0.072256
0.488403
-0.326713
-0.079995
-0.413068
-0.037337
0.450021
0.461026
-0.400302
-0.032133
-0.308869
-0.428497
0.212107
0.336731
-0.336849
0.207240
-0.390229
0.198553
0.456266
0.361388
-0.039221
-0.292023
-0.357076
0.288885
-0.140522
0.005304
0.211690
-0.492067
-0.300969
-0.351380
-0.526469
0.228443
-0.131960
-0.234600
0.224979
-0.207310
-0.462942
0.436064
0.162900
0.159405
-0.180698
-0.440114
0.561193
0.785390
-0.377614
-0.253812
-0.517728
-0.330273
-0.569372
0.300832
0.301421
-0.197607
-0.156026
0.010980
-0.349466
-0.171355
-0.361777
-0.261200
-0.110921
-0.050425
-0.302329
0.369096
0.733663
-0.471566
-0.018930
-0.119586
-0.285623
-0.509206
-0.042524
0.142189
-0.148293
0.302931
-0.371566
-0.166923
-0.480611
-0.233799
-0.498677
0.049093
0.314365
0.269029
-0.411437
0.172574
0.013639
-0.794831
0.310581
0.253038
0.200535
0.492824
-0.250122
-0.049102
-0.412577
0.281670
-0.276133
0.016975
-0.580242
-0.447480
0.267806
0.063326
0.600412
-0.162309
-0.037427
0.422804
-0.031192
0.061683
0.085542
-0.523745
0.324511
0.559061
0.332943
-0.413438
-0.292276
-0.598870
0.914340
-0.601276
0.147886
0.321632
0.125138
0.334252
0.329072
-0.041822
-0.612492
0.494199
0.101471
0.024322
-0.206345
-0.266285
0.010743
0.202140
0.687616
0.594426
0.113434
0.083630
-0.484757
0.464820
-0.052580
-0.134893
-0.589701
-0.289442
-0.212980
0.667263
0.328324
-0.547785
-0.321948
0.559340
-0.003408
0.264550
0.742657
0.002099
0.116591
0.733521
0.066692
-0.296773
0.428107
-0.495789
0.188852
-0.452650
0.098025
0.056701
0.329147
0.347671
0.231673
-0.048128
-0.178340
0.483125
0.257849
0.325718
0.032949
0.076944
0.176016
0.629638
0.012689
-0.281884
0.132788
0.186540
0.213992
0.592204
0.068536
0.326610
0.063594
-0.360187
0.126160
0.314729
0.384049
0.114891
-0.273553
-0.060636
-0.183637
-0.165514
-0.198068
-0.086033
0.326828
-0.020592
0.274562
0.116354
-0.364647
0.312699
0.079864
-0.106634
0.117864
0.225489
0.349648
0.386173
0.139845
0.443325
0.276619
0.190498
-0.041886
0.168778
0.103037
0.315173
-0.410301
0.002115
0.034828
0.369474
-0.084241
-0.244935
-0.058765
-0.170906
-0.582659
-0.423254
0.434186
-0.575843
-0.161792
0.118135
-0.297019
-0.372544
-0.064590
-0.244468
-0.546041
0.042276
0.249515
-0.110852
-0.021582
0.112229
0.540369
0.168846
0.366459
0.238578
-0.510654
-0.353509
0.392165
-0.148971
-0.152309
-0.029359
0.278149
-0.397754
-0.223136
-0.012570
0.705546
0.093313
-0.348958
-0.242158
-0.576620
-0.065320
-0.184293
-0.088049
0.628765
-0.390469
0.718453
0.109521
-0.096886
-0.131325
-0.378015
-0.033148
0.445278
-0.396708
0.196830
-0.429971
0.123594
0.483607
0.550823
0.347907
-0.265983
-0.318217
0.305431
0.080918
-0.215230
0.486108
0.415378
-0.545310
0.335377
-0.137700
-0.473229
-0.043511
-0.121796
-0.349289
0.480596
0.137527
-0.541048
-0.314588
-0.776690
-0.333983
0.567161
-0.014900
-0.313286
0.100828
0.187477
0.532783
0.206176
0.385550
0.181281
-0.204931
0.501795
-0.113746
0.303907
-0.256626
0.102025
0.235004
-0.152960
-0.215389
-0.007918
-0.127668
0.370166
-0.620077
-0.163756
-0.003319
-0.266696
-0.033556
0.390787
-0.016765
0.203417
-0.197956
0.325560
0.334805
0.402424
-0.137735
-0.312531
0.551358
-0.103670
0.014243
-0.033628
-0.498498
0.134355
-0.139477
-0.297145
-0.312268
-0.313732
0.056656
0.475988
-0.416432
-0.437259
0.139868
-0.234504
0.161915
-0.597978
-0.032638
-0.199151
0.597843
0.446983
-0.103225
-0.737983
-0.039711
-0.142994
0.268645
0.519628
0.239430
-0.023996
-0.345187
-0.514101
0.382100
-0.626270
0.465873
-0.068579
-0.133059
-0.607650
0.248255
-0.192666
0.008263
-0.216721
0.112786
0.613896
0.494371
-0.453154
-0.161329
-0.402067
0.191556
-0.462357
0.134607
-0.135487
0.546738
0.172886
-0.341824
0.139963
-0.265580
0.360209
-0.314063
-0.458111
-0.516942
-0.047014
0.023200
-0.165750
0.482649
-0.013252
-0.184480
0.125141
-0.078592
-0.411151
-0.227067
-0.410137
0.590812
0.087347
0.237733
0.155727
-0.560561
-0.273668
0.229575
0.513826
0.156556
-0.173099
-0.409506
-0.347353
-0.415641
0.353807
0.252899
0.556558
0.266896
0.436140
0.221282
-0.260298
-0.777077
-0.064603
-0.136080
0.311448
-0.017598
0.095067
-0.062188
0.286144
-0.039089
-0.137911
0.733073
0.045040
0.193767
0.196498
0.419194
0.217174
0.014995
-0.572811
-0.045967
0.011117
-0.363479
0.364147
-0.447647
-0.494198
0.138748
0.148282
-0.088414
-0.253254
0.164722
-0.057649
-0.345534
0.419877
0.076727
0.295304
-0.419904
0.445901
-0.151246
-0.428499
-0.036580
-0.337348
-0.046819
-0.380067
0.194306
-0.285899
0.379496
-0.127533
-0.437587
-0.117854
-0.193075
0.293253
-0.701513
0.311717
-0.131794
-0.229809
-0.336657
-0.177684
0.236436
-0.419973
-0.154529
0.404419
-0.117025
-0.165963
-0.478302
0.050549
0.103074
-0.273872
-0.407790
-0.273474
0.601259
-0.400791
-0.116761
-0.069602
-0.417509
0.482057
0.179095
0.955544
-0.427504
-0.203123
-0.145264
-0.212635
-0.024024
-0.444897
-0.235059
-0.189291
0.320312
0.349661
0.460999
0.221230
-0.056933
-0.708950
0.170361
0.294397
-0.479059
0.521016
-0.263384
0.073495
-0.201705
0.202229
-0.468643
0.460131
-0.513660
0.262939
-0.349926
-0.522009
0.378346
0.142794
-0.096165
0.430542
-0.095297
-0.091327
-0.129605
-0.357441
0.200967
0.502852
-0.447628
-0.002133
-0.395404
-0.068983
-0.460980
-0.468358
0.047583
-0.112519
-0.381986
0.074777
0.063007
-0.299387
-0.278097
-0.067910
0.344650
0.126543
0.351072
-0.248801
-0.025317
-0.543957
0.604458
-0.281380
0.061327
0.174386
0.292093
-0.597935
-0.199052
-0.561811
0.019735
0.074334
0.204383
-0.250608
-0.542458
0.242899
-0.212963
-0.046394
-0.061644
-0.108792
0.489444
-0.435495
-0.547341
-0.040435
-0.309558
0.262341
0.182048
-0.046070
0.611048
0.156086
-0.069870
0.248992
-0.052672
0.353503
0.234593
-0.272508
0.133599
0.265109
0.134139
-0.654126
-0.043994
0.175010
-0.288817
-0.559024
-0.049778
-0.005994
-0.280797
-0.097561
-0.224445
-0.312501
-0.073719
0.049009
0.538523
0.016930
0.251629
-0.519115
0.213417
-0.061654
0.366615
-0.193749
0.396207
0.299724
-0.120887
-0.442126
-0.541628
-0.171834
0.165742
0.531366
-0.224365
-0.237446
0.132984
0.585638
-0.324938
-0.350866
0.387077
-0.067965
0.455132
0.307144
-0.052092
0.250096
0.096493
-0.325086
-0.100137
-0.251885
-0.263286
-0.680131
-0.140660
0.539971
-0.403636
-0.494030
0.422602
-0.368998
-0.185712
0.275401
-0.351119
0.311004
-0.024718
-0.199596
-0.578941
0.617041
-0.280993
0.576235
-0.167172
-0.433771
0.304384
0.137020
-0.503488
0.089339
-0.005503
0.325643
-0.375515
-0.121607
0.488289
-0.121392
-0.473831
0.311954
-0.428436
0.103418
-0.121760
-0.596822
-0.044779
-0.774566
0.232800
0.017832
0.509434
0.016647
0.208170
-0.246061
-0.536692
-0.588888
-0.225406
-0.321232
-0.268942
0.194628
-0.001896
0.017063
0.235951
0.179207
0.052796
-0.671010
-0.129620
-0.227472
0.453233
0.340801
-0.345534
-0.245096
-0.179775
-0.047942
0.270211
-0.019035
-0.244981
0.450142
0.241883
0.026340
-0.075778
-0.091391
-0.383651
0.310105
0.428332
-0.048014
0.258464
-0.102374
-0.483581
0.065268
-0.034604
-0.332165
-0.008303
0.068789
0.073023
-0.255863
0.514696
-0.250862
