0.329171
0.410112
-0.365935
0.028550
-0.211435
-0.318012
-0.110585
0.324453
0.023822
0.426129
0.235101
-0.373438
-0.425340
-0.623064
-0.062541
0.191909
-0.002169
-0.310630
0.073861
0.209628
0.491530
-0.264893
-0.435641
0.212545
0.145992
0.096161
0.291040
-0.049579
-0.625519
0.176009
0.361983
0.291282
-0.515259
-0.167680
-0.201160
0.064929
0.433031
0.346852
-0.246731
0.458019
-0.209635
0.091278
0.140641
0.179834
-0.068172
-0.191644
-0.132425
0.549322
0.340908
0.139850
-0.546344
-0.133524
0.432981
-0.479667
-0.019565
0.454829
-0.110643
0.002158
-0.197815
0.464720
-0.114838
0.259801
-0.573473
-0.472146
0.414354
-0.556952
0.390197
-0.176504
0.305814
0.379064
0.117815
-0.235588
0.282583
0.006224
0.153308
0.156360
-0.344761
0.195961
-0.293599
-0.489358
0.082245
-0.252406
-0.648162
-0.393502
-0.595930
0.572786
-0.193302
0.756355
0.212816
-0.503951
-0.036280
-0.277904
-0.499732
-0.117813
0.483330
-0.507435
0.243029
0.448078
-0.691572
-0.140110
-0.032811
0.305389
-0.204416
0.184127
-0.126151
-0.387064
0.455765
-0.353168
-0.075803
0.227054
0.410296
-0.582877
0.268961
-0.597231
0.318182
0.538769
-0.134761
0.068483
-0.271812
0.603428
-0.481535
0.589183
0.633309
-0.428996
0.325040
-0.359143
0.367768
0.353577
0.120460
0.459046
0.035592
0.624770
0.268736
0.228936
-0.495035
0.887345
-0.386292
0.293991
-0.081701
0.092347
-0.062442
-0.262782
-0.199353
-0.204834
0.338722
0.121699
-0.434597
-0.304239
-0.296814
0.221942
-0.148061
-0.319755
0.194879
-0.094389
0.388688
-0.178918
-0.062807
0.252328
0.356685
-0.271040
0.253269
-0.188990
0.199621
-0.050942
0.391203
0.307907
-0.559481
-0.536891
0.110219
0.387416
0.274645
0.300181
-0.437254
-0.023168
0.279337
0.173136
-0.200247
-0.071506
-0.384039
-0.450996
-0.267648
-0.456783
0.108145
0.517941
-0.613256
-0.168178
-0.328657
-0.136602
0.102679
0.104462
0.435867
-0.491906
-0.231551
-0.211707
0.381792
0.555390
-0.305725
-0.439927
-0.088691
0.508047
0.002145
0.224930
-0.099575
-0.207340
-0.327106
0.322664
-0.284289
-0.055054
0.035858
0.005408
0.309288
0.146767
-0.199095
-0.447434
0.252133
0.131978
0.266963
-0.276711
-0.127971
0.050437
-0.366796
-0.024327
0.709678
0.127892
-0.088901
0.153789
-0.370527
-0.227845
0.016460
0.493828
0.096535
-0.310575
0.580005
0.215263
0.199792
-0.507915
-0.167971
-0.252312
-0.378140
-0.440807
-0.306323
-0.525733
0.064113
0.252345
-0.162537
0.135334
0.305424
0.252910
0.273881
0.114526
-0.006910
0.251740
-0.081039
0.131339
0.465916
0.339377
-0.070246
0.239320
-0.293293
0.353134
-0.046108
0.049238
0.429115
0.172832
0.093966
0.424013
-0.160262
0.066134
0.145547
0.420195
0.338483
-0.210458
0.216250
0.286997
0.156280
-0.208145
0.110281
0.060266
-0.083985
0.364802
0.611844
-0.292925
0.385767
0.094050
0.487454
-0.037744
-0.620383
0.109846
0.038706
0.596347
-0.130282
-0.505602
0.413545
-0.526530
0.177769
-0.118400
0.280033
-0.634962
0.160198
-0.052613
0.477691
-0.011734
0.440164
-0.022056
-0.432764
-0.327227
-0.270382
-0.053894
0.139555
0.366212
0.044002
-0.202999
0.232790
0.163804
-0.010114
-0.185840
-0.047554
-0.003746
-0.311023
0.478677
0.052061
0.004081
-0.222714
0.454887
-0.520446
-0.266274
0.314112
0.241966
-0.211276
-0.471570
-0.135280
0.179648
0.085525
-0.452468
0.088469
0.275892
0.265912
-0.074240
0.588351
0.516831
-0.530509
0.266904
-0.056794
-0.273634
0.299608
0.428559
-0.079337
0.224856
0.396727
-0.615848
0.228348
0.265903
-0.088949
0.195307
-0.255859
0.577812
-0.263875
0.032173
0.419612
0.116162
0.546563
0.435649
-0.352793
-0.017307
0.003105
0.062163
-0.306762
0.177391
0.105051
-0.319266
0.182438
0.323693
-0.301509
-0.302180
-0.339190
0.130120
0.607101
-0.286556
0.204872
-0.431190
0.028937
-0.541013
-0.249757
0.322882
-0.639444
-0.279583
-0.016491
-0.382707
-0.116271
-0.018091
-0.009781
-0.516447
0.173016
-0.248177
0.066593
-0.484993
0.308319
0.126424
0.470193
-0.267676
0.324267
-0.767311
-0.482430
-0.093257
-0.023822
0.528138
0.536655
-0.265805
-0.272284
0.093249
0.139207
0.146970
0.378886
-0.125448
0.334349
0.079316
-0.082915
0.173584
0.381335
0.136880
-0.011612
0.519031
0.386636
0.190567
0.427196
-0.329476
-0.023505
-0.846238
-0.495720
-0.116640
0.296381
0.322307
-0.436886
-0.401617
-0.241683
-0.597533
0.165390
-0.391140
0.068286
0.179898
-0.080687
0.222094
-0.425077
-0.339788
0.412438
-0.196887
0.074987
0.106495
-0.529542
0.150410
-0.030081
-0.223951
-0.339146
-0.048070
0.091992
-0.186572
-0.449626
0.050169
0.096899
-0.070226
0.346559
-0.211995
0.285977
-0.242913
0.362458
-0.369630
0.322703
0.092214
0.154602
-0.517042
-0.053901
-0.249557
-0.696016
-0.544895
-0.046859
0.051742
-0.300340
0.541427
-0.226716
-0.251239
-0.420697
0.228273
-0.345553
0.388260
-0.199407
-0.026074
0.015453
-0.438207
-0.489049
-0.449681
-0.555994
-0.037778
-0.086487
0.477162
0.722462
-0.511133
0.087157
-0.042689
0.150642
-0.443111
-0.278681
0.091884
0.005918
-0.029622
0.191533
0.558951
-0.490484
0.194689
0.358244
0.075788
-0.026967
0.181982
-0.290580
0.020672
-0.088295
-0.385576
-0.574382
-0.257526
-0.010515
0.534581
0.464682
-0.458443
-0.299753
0.046403
-0.046986
0.497823
-0.340899
0.438607
-0.532280
-0.487080
0.288586
0.282999
0.199011
-0.207617
0.435591
-0.454814
0.452875
-0.023359
0.124058
-0.315025
-0.047040
0.409677
-0.212620
-0.763514
0.151080
0.088016
0.510262
-0.356191
-0.383881
-0.100738
0.350575
0.335775
0.684886
0.526872
0.290469
-0.090609
0.413527
-0.053690
0.412589
-0.011484
0.536847
0.509265
-0.221022
0.024443
0.400511
-0.385122
0.375456
-0.017310
-0.326927
0.117286
0.323541
0.604148
-0.443924
-0.208191
0.172849
0.345310
-0.057701
-0.221532
0.294784
-0.186671
0.173795
0.025878
0.358094
-0.070263
-0.207034
-0.049594
-0.079558
-0.512995
-0.610560
0.448902
-0.137029
-0.118902
-0.394557
0.192750
-0.371947
-0.805006
0.155801
0.340838
0.257858
-0.208822
0.329827
0.021147
-0.202238
0.231326
0.319502
-0.191499
-0.056604
0.135552
0.170561
0.137187
-0.599688
0.168143
0.265422
0.222203
0.225269
-0.281149
-0.343023
0.199820
-0.121760
0.267263
-0.353724
-0.482865
0.274599
0.016675
0.151728
-0.273695
-0.120089
0.017938
0.363707
-0.227675
0.422544
0.043840
0.121027
-0.479416
-0.450440
0.197246
-0.302198
0.267329
-0.157775
0.139362
0.654104
-0.204150
-0.107600
-0.378794
0.282684
-0.043225
0.268702
-0.028082
0.300496
0.256823
0.270945
0.140920
-0.283678
-0.194408
0.038431
0.241235
0.269217
0.287294
0.303383
-0.038829
-0.465623
0.065494
0.087111
0.407208
0.085019
0.191934
0.078593
0.079972
-0.016429
0.651191
-0.058648
0.325040
0.385267
-0.235276
-0.062952
0.398440
-0.036350
0.478369
-0.019074
-0.600623
-0.512277
0.675677
-0.402483
0.147754
-0.365557
-0.193823
-0.050318
-0.068131
0.093327
0.155257
-0.193282
-0.176770
-0.394347
0.073601
-0.111052
-0.247870
-0.294251
-0.229688
-0.584181
-0.372710
-0.425276
-0.437666
0.126226
0.541502
-0.083971
-0.029193
0.129338
-0.376387
-0.005053
-0.045731
-0.150165
-0.264065
-0.121220
0.130437
0.183732
0.660798
-0.551755
-0.224607
0.359233
-0.164179
-0.400562
-0.791890
-0.560611
0.405562
-0.339257
0.194475
0.266561
0.430446
-0.124019
0.007416
-0.369596
0.399403
-0.229818
0.136707
-0.312091
0.013471
-0.420032
0.141104
0.171019
-0.224869
0.538043
-0.328395
0.365490
0.483267
0.516273
-0.252313
-0.317752
-0.404160
-0.651646
-0.465224
-0.625834
-0.444119
0.004122
0.330022
-0.439584
-0.522934
-0.642597
0.121891
0.613787
0.483734
-0.097264
-0.097541
0.274402
-0.482693
0.107342
0.345289
0.022160
0.500738
-0.656998
0.195316
0.366575
-0.361045
0.189465
0.333113
0.394948
-0.153364
0.280747
-0.474909
0.090374
0.320114
0.029278
-0.075271
0.129863
-0.462931
-0.595528
-0.332559
0.127971
-0.587071
0.197112
0.219048
-0.705439
-0.136076
0.176624
-0.232146
-0.135720
-0.338759
0.241883
0.038779
-0.114211
0.078212
0.245584
-0.032262
0.251844
-0.198313
0.287926
0.613527
-0.455324
0.234463
-0.282156
-0.395679
-0.257961
0.170514
-0.214637
-0.029119
0.000063
0.105917
