-0.028546
-0.275841
-0.073295
-0.027317
-0.329065
-0.019907
0.059012
0.578817
0.488286
0.294340
0.134602
0.196524
0.044512
-0.168254
0.274457
0.045900
0.140592
0.520642
0.309594
0.054415
-0.507022
0.079368
-0.041459
0.395925
0.143742
0.342970
-0.072560
-0.068848
0.582386
0.046736
-0.124724
-0.455362
-0.496690
0.036098
-0.669311
0.151561
-0.252254
0.089059
0.372566
0.010122
0.244771
0.163164
0.328478
-0.309722
0.416690
0.037142
0.357981
0.505796
0.277250
0.327683
-0.022587
-0.113264
0.338627
0.144002
0.100952
0.714265
0.239831
0.053742
0.226630
-0.329695
-0.227748
-0.437110
-0.098372
0.592162
0.475428
0.526984
-0.521669
0.108411
0.262715
-0.372014
-0.031593
-0.130609
-0.206255
0.006224
-0.149969
0.235671
-0.217965
-0.515221
-0.126441
-0.539624
-0.161752
-0.100340
-0.165403
-0.148913
0.328694
0.284639
0.242921
-0.333981
-0.275231
-0.495465
-0.339684
0.360133
0.336997
-0.237621
-0.371547
-0.036645
-0.393969
-0.478101
-0.446260
0.174357
-0.116018
0.301773
0.015417
-0.088843
-0.212967
-0.340450
-0.443969
0.035030
0.296418
0.221774
0.378833
-0.153232
0.061901
-0.143933
-0.131595
-0.078680
0.040238
-0.147446
0.319574
0.717625
0.130447
-0.050207
0.011495
-0.530848
-0.493741
0.243861
0.019813
0.740351
0.047238
0.192115
-0.058968
-0.368263
0.075912
-0.386719
-0.275925
-0.581410
-0.174770
-0.105138
-0.379846
-0.214287
0.015532
-0.574335
-0.302491
0.140977
-0.367899
0.052594
-0.377318
0.199267
0.189916
0.346570
0.086136
-0.136821
0.629934
0.178185
0.693511
0.837549
0.059857
-0.609251
-0.188873
-0.305196
-0.002887
0.223186
0.345903
-0.335092
0.065035
-0.391918
0.369226
-0.112470
-0.210014
-0.219876
0.482370
0.263037
-0.395196
0.129680
-0.454339
-0.369066
0.483910
0.105190
-0.637105
0.016142
0.509930
0.792454
0.256251
-0.102886
0.177506
-0.261508
0.608352
-0.586581
-0.208353
0.158772
0.233208
0.248844
-0.249711
-0.036813
0.244656
-0.495845
0.217916
0.276916
0.061893
-0.454965
0.130516
0.114202
0.732955
-0.506109
-0.350868
-0.407815
-0.373858
0.031604
0.008008
0.165912
0.284231
-0.294295
0.262443
0.189337
-0.495176
0.227915
0.158862
0.262721
-0.362204
-0.293431
-0.455801
0.339861
-0.504393
0.057173
-0.183576
0.223414
-0.479768
-0.260282
-0.184753
0.008382
0.636705
0.039944
-0.402879
-0.181091
-0.395461
0.102501
-0.079928
0.155154
0.216967
-0.187823
0.629354
-0.110594
0.257233
0.009494
0.466223
-0.418439
-0.258993
-0.375720
0.071297
0.192429
0.188635
-0.445596
-0.238836
-0.394958
-0.139946
-0.541325
0.276395
0.505444
0.417998
0.067068
0.398793
-0.375124
0.032985
0.603342
-0.283665
0.060512
0.076917
0.187176
-0.347166
-0.272010
-0.313957
0.704153
0.365050
-0.231237
0.147872
-0.318841
0.091199
-0.257644
0.304823
-0.101784
0.520084
0.078504
-0.339123
-0.356351
-0.355179
0.466561
0.729051
-0.054297
0.101099
-0.211574
0.487354
-0.080803
0.361005
0.360981
0.057921
-0.224089
-0.049612
0.322901
-0.367787
0.091527
0.394777
-0.103608
0.309383
0.366793
-0.511878
0.085663
0.602091
0.307995
-0.419731
0.355183
-0.159252
0.067007
-0.196618
-0.006862
0.504695
0.038448
-0.238737
0.063704
0.259350
0.171302
-0.106488
0.018931
-0.246301
-0.192226
-0.561003
-0.173510
-0.055774
-0.131984
-0.211801
0.337124
0.148691
-0.206143
0.328421
-0.000374
-0.210788
0.052878
-0.341481
0.369823
-0.416272
-0.058368
0.121731
-0.125243
0.298492
0.473295
-0.274098
-0.428242
0.771965
-0.297871
-0.450420
0.169341
0.403808
-0.684414
0.370867
0.326654
0.113642
0.469266
-0.771537
-0.127686
0.241458
0.142289
-0.196191
-0.270799
0.603408
0.465654
0.324246
-0.761985
-0.277252
0.090505
-0.148098
-0.079841
0.255008
0.134933
0.452285
0.408373
-0.064028
-0.384031
0.326759
0.268280
-0.224879
-0.311403
0.011970
-0.067813
-0.095341
0.147893
0.270849
-0.587741
0.229919
-0.349243
0.196815
-0.240259
0.114584
-0.252449
0.150868
0.748781
0.312642
-0.007107
0.158664
-0.428233
-0.149688
-0.216250
0.016881
-0.547329
0.408944
-0.549992
-0.165429
0.196164
0.424423
-0.329533
0.106396
0.346318
-0.394067
0.279229
-0.175392
-0.207327
-0.615024
-0.269762
0.152957
-0.040198
0.221185
-0.442755
0.012592
0.442368
0.029029
0.413873
0.060139
0.011247
0.398640
0.138951
-0.019568
-0.379989
0.545836
-0.068664
-0.645960
-0.338903
-0.105774
0.149049
-0.166201
-0.118222
0.102048
0.737992
-0.174732
0.597586
-0.031525
-0.788837
-0.415511
-0.030109
-0.100451
-0.558974
-0.258969
0.134549
0.247052
0.262418
0.446061
0.237442
-0.060594
0.254081
-0.434697
0.322303
-0.221667
0.279116
-0.134846
-0.683513
0.365974
-0.189727
-0.386528
-0.206739
-0.161329
-0.136665
0.359464
-0.635044
-0.127593
-0.031959
-0.162566
-0.204710
-0.351357
0.268842
-0.121545
0.053051
-0.102764
-0.147249
0.011786
-0.283117
-0.012386
0.416437
0.233497
-0.147812
-0.034673
-0.640384
-0.176231
-0.540841
0.137966
0.298246
0.600506
-0.398671
-0.138502
-0.152401
-0.481198
-0.166686
0.138158
-0.092460
0.077325
0.361660
0.475479
0.410911
-0.115349
0.163037
0.287369
0.194123
0.282975
0.464097
0.090914
0.012380
-0.668880
-0.426818
-0.130259
0.487369
-0.489728
-0.061912
0.501843
0.195724
-0.083676
-0.014443
-0.002001
0.005673
0.545350
0.619627
-0.499753
0.112700
-0.039239
0.223688
0.202780
-0.114901
0.645709
-0.250743
0.123344
0.299546
-0.062662
0.414184
-0.135984
-0.170297
-0.410527
-0.616733
0.174619
-0.711223
0.242409
0.496515
-0.619635
-0.246428
-0.022606
-0.542409
0.277558
-0.305527
-0.046984
-0.247979
-0.157683
-0.140944
-0.619274
-0.003247
-0.306748
-0.285163
0.563548
0.213018
0.319155
0.102192
-0.459111
0.276126
-0.102484
-0.185285
-0.084263
-0.164061
0.060806
0.459696
-0.189274
-0.124417
-0.274678
0.008597
0.359078
0.725532
-0.539518
-0.591391
0.496048
-0.045961
-0.195627
0.625058
-0.280563
-0.208398
0.089368
-0.763213
0.265027
-0.351137
0.231901
0.512790
-0.243110
-0.067562
0.271612
-0.762402
-0.166181
-0.405050
0.364492
0.187185
0.293270
0.426977
-0.472801
0.570983
0.052895
-0.518259
-0.710547
-0.425095
0.572804
0.201687
0.889191
-0.201248
0.594815
-0.001602
0.238800
0.465492
0.091681
0.156997
0.403221
0.132704
0.701929
-0.069426
-0.212881
-0.436989
0.078643
0.354039
-0.012084
-0.635526
-0.395404
-0.097220
0.061485
-0.207610
0.040761
0.365749
-0.908559
-0.526964
-0.562654
0.414859
-0.525366
-0.616933
-0.059271
0.495015
0.249424
0.598275
0.169420
-0.321051
-0.071397
0.309791
-0.317901
-0.317246
0.147253
-0.069070
0.377404
-0.052109
-0.231400
0.190325
-0.746050
-0.227229
-0.300911
0.716337
0.436119
0.038250
0.195462
0.351761
-0.515822
0.125664
0.479662
0.126590
0.121191
-0.690942
0.171417
-0.696424
-0.542336
-0.462598
0.036927
0.475446
-0.121768
-0.113793
0.029648
0.078544
0.216994
-0.277627
0.126159
-0.162465
-0.075407
-0.310082
-0.142069
-0.346201
-0.063072
0.179167
-0.098299
-0.140908
0.387454
0.398652
-0.082884
-0.543018
0.178970
-0.156359
0.036917
0.518690
0.595814
0.153773
0.022535
0.373388
0.038296
0.094996
0.401322
-0.371031
0.646766
-0.331374
0.009967
0.002908
0.184317
0.074858
0.097922
0.115325
0.410867
0.124895
0.284452
0.554693
0.000913
0.232994
-0.435473
-0.272983
-0.645285
0.283120
0.452750
-0.718735
-0.199892
-0.013814
-0.174064
0.293072
0.032936
-0.722369
-0.492065
0.077478
-0.220620
0.470615
0.281228
-0.289814
0.621190
-0.286031
-0.452565
0.605864
-0.564916
-0.209398
0.190134
0.464619
0.549514
0.394970
-0.410232
0.315197
0.243774
-0.494318
-0.187819
0.291072
0.130442
-0.028130
-0.085510
-0.227349
0.611336
0.029387
-0.087858
-0.269586
0.120098
-0.025923
0.252833
-0.246431
0.434409
-0.310799
0.168030
0.418700
-0.296146
0.395679
-0.223961
-0.564034
0.231037
-0.112474
-0.238263
-0.183078
0.062390
-0.512625
-0.224549
0.300944
-0.429221
-0.348030
-0.190567
-0.057390
-0.293981
0.004105
-0.539634
-0.264424
-0.269596
0.212227
-0.074885
-0.176704
0.087886
0.266099
-0.043276
-0.360572
-0.297768
0.021905
0.414666
-0.503137
-0.326166
0.100237
-0.151310
0.536228
0.447218
0.194661
-0.453889
0.000421
-0.217440
-0.446598
0.442140
0.311807
