0.362307
-0.088874
-0.483307
-0.011325
0.332436
-0.421128
0.052747
0.116171
-0.198090
0.379809
0.197383
0.005562
0.060573
-0.682821
-0.392278
0.080778
0.001147
-0.094337
0.280981
-0.143598
0.180644
-0.264893
-0.431864
0.138251
0.409263
-0.210012
-0.179085
-0.221367
-0.454664
0.003762
0.268427
-0.145424
-0.331505
-0.592166
-0.359987
0.203541
0.149986
-0.327564
-0.145852
0.230377
-0.078670
-0.063830
-0.310651
-0.428329
0.189788
-0.401312
0.048829
0.069766
-0.127270
-0.335136
-0.283765
-0.492446
-0.131592
0.369013
0.117170
0.401892
-0.110643
-0.221167
0.256265
0.139892
0.330736
-0.193150
-0.370024
-0.095493
0.076543
-0.646272
-0.576417
-0.225375
0.293916
-0.053322
-0.322627
0.382529
0.452375
0.108312
0.453422
0.335032
-0.399840
0.519941
0.502763
-0.270171
0.149569
0.288068
-0.397501
0.670599
0.182041
-0.316880
-0.397264
0.652926
0.215047
-0.030437
-0.191367
-0.144364
0.393292
-0.250796
-0.050893
0.501878
0.249822
-0.279905
-0.375070
0.057715
-0.079228
0.284560
0.047899
-0.348650
-0.116563
-0.367066
0.645123
-0.353168
0.317366
-0.312333
-0.035397
0.217991
-0.239263
0.056662
0.012029
-0.056359
0.044808
-0.406671
0.118698
0.240528
0.357020
0.249373
-0.252691
-0.505531
-0.446035
-0.143625
-0.304072
0.199997
-0.228158
0.040728
-0.077880
0.240752
0.271976
0.221206
-0.470877
0.539612
-0.140533
-0.323653
0.191159
0.474594
0.639032
-0.259106
-0.581698
-0.063412
-0.067166
-0.160074
0.355621
-0.320929
0.001327
-0.246520
0.320726
-0.552874
0.613915
-0.176055
0.429805
0.248315
-0.497076
-0.077031
-0.164318
-0.105548
-0.434374
0.043163
0.648457
-0.306181
0.362789
0.288856
-0.510573
0.220345
-0.043407
-0.728699
0.305028
0.223699
0.073879
-0.159805
-0.435081
-0.110022
-0.318120
-0.050971
-0.024345
0.540558
-0.324850
-0.456783
-0.088886
-0.401170
0.085659
0.109345
-0.047510
-0.136602
-0.024068
-0.263090
0.522613
0.418188
-0.231314
-0.080566
0.309748
-0.469938
-0.176754
-0.209815
-0.498624
0.142445
0.577272
-0.037999
-0.267001
0.253379
-0.392193
-0.073300
0.317543
-0.052104
0.191906
-0.081425
0.226378
-0.191199
-0.125456
-0.634041
-0.071963
0.084902
-0.114854
-0.204589
-0.007822
0.204217
-0.012574
-0.128094
0.148196
0.329069
-0.020541
0.320352
-0.329943
0.007797
-0.379593
-0.000928
0.026826
-0.103295
-0.143705
-0.377182
0.008044
0.339766
0.460582
-0.084983
-0.667090
0.870942
0.434416
-0.025006
0.481195
-0.177479
-0.481978
0.001629
-0.350878
0.109167
-0.378215
0.438780
0.138661
0.251740
-0.063458
0.412307
-0.120146
-0.489742
0.070376
0.257908
-0.124097
0.353861
0.349583
0.096457
-0.214459
-0.304794
0.019549
0.003423
-0.261777
0.547649
0.248112
0.470083
-0.093961
-0.370750
0.607801
0.522793
0.217697
0.126233
-0.267683
-0.506446
-0.450782
-0.488931
-0.400459
-0.358286
-0.053403
-0.157386
-0.042429
-0.106829
-0.549721
-0.444365
0.317372
-0.027982
-0.253750
0.041235
0.230965
0.365210
0.201130
0.590516
-0.593216
-0.016577
-0.181402
-0.446913
-0.388469
-0.539819
0.605998
0.274376
0.163571
-0.097844
0.188626
0.472588
0.459284
0.103994
-0.269473
-0.048737
-0.392702
-0.160048
0.137057
-0.661702
-0.196136
-0.024259
0.014472
0.423392
-0.300664
-0.143075
0.016478
-0.023953
-0.199177
0.283856
0.325605
0.492028
-0.484590
-0.194321
0.132648
-0.033470
0.059690
0.145825
0.008649
-0.013373
0.046309
-0.235554
0.252100
0.085884
0.206730
-0.138795
-0.232629
0.444800
0.337604
-0.142058
0.066497
-0.211853
0.264441
-0.578741
-0.354487
-0.101857
-0.502572
-0.328365
0.081654
0.681484
0.253385
-0.326343
0.176646
0.165614
-0.071671
0.499053
0.129004
-0.010519
-0.039252
0.016710
0.123882
-0.686573
0.138953
-0.335832
0.340093
0.442286
0.394938
0.475388
0.228764
0.022835
-0.638441
0.286620
-0.007677
0.248585
0.051136
0.479957
0.315968
-0.309006
-0.115646
0.127454
-0.429361
-0.265835
-0.253528
0.115525
-0.076274
-0.171314
0.485520
0.131546
0.061552
0.282870
0.349268
0.303836
0.082288
-0.604517
-0.012810
-0.051664
0.179130
-0.042160
-0.319283
-0.415471
-0.177286
-0.153390
-0.290277
0.222302
-0.254416
-0.275965
-1.052337
0.018635
0.272684
0.082253
0.217532
0.217485
0.254100
0.127758
0.465214
0.565759
0.140631
-0.582605
0.462602
-0.020198
-0.449649
-0.116365
-0.505668
0.083956
-0.029450
-0.230065
-0.106908
-0.487376
0.377506
0.048827
-0.192301
-0.146577
-0.155300
-0.243936
-0.468712
0.099265
0.136588
-0.330273
-0.060973
-0.328378
0.206841
0.243629
0.485847
-0.312734
-0.527308
0.275214
-0.252918
-0.059926
-0.709176
0.400808
0.020226
0.121231
-0.266425
-0.258073
-0.073688
-0.053592
0.152199
0.242433
0.337469
0.492566
-0.403405
-0.003365
-0.821648
-0.341324
0.394732
-0.487598
-0.265125
-0.347699
-0.034334
-0.088228
0.196959
0.532650
0.104514
0.006365
0.345587
0.268266
0.103393
0.170776
0.297447
-0.524788
-0.057214
0.187604
0.382678
-0.207096
-0.025478
0.178148
-0.108754
-0.062472
-0.429761
0.151897
0.247951
0.236938
-0.098241
-0.280772
-0.343241
0.137655
-0.036782
-0.144492
0.149846
0.399893
-0.161854
-0.515238
0.161142
-0.426198
0.058323
-0.211369
-0.077190
0.525227
-0.085346
-0.386480
0.111827
-0.425325
0.133432
-0.267239
-0.030633
-0.745762
-0.299753
0.385789
-0.725141
0.568142
-0.387872
-0.268216
0.014445
-0.657793
0.099543
-0.198526
0.092181
0.149765
0.440953
-0.456815
-0.147514
-0.026463
0.021517
0.418453
-0.600312
0.387380
-0.315110
0.242183
-0.305349
0.225076
-0.000674
0.105383
0.316206
0.037326
0.261404
0.546279
-0.017299
-0.565899
-0.269133
-0.477137
0.386890
0.044278
0.412589
0.385721
0.191002
-0.053533
-0.145473
0.124709
0.337695
0.347733
-0.101560
-0.082268
0.339180
-0.006835
-0.214540
0.247734
0.197219
-0.366274
0.529660
0.466257
-0.139974
-0.162727
-0.316789
0.547035
0.021763
-0.031827
-0.381683
0.361121
-0.084270
0.110621
0.234162
-0.512995
-0.536753
0.366705
0.473864
-0.283791
-0.237006
0.029400
-0.511623
-0.722761
0.227059
-0.173012
0.446057
0.133141
-0.272151
0.328926
-0.256105
-0.327732
0.433826
-0.289315
0.503780
0.130881
-0.227118
0.426446
0.218345
0.463642
0.139211
-0.212318
0.268363
-0.716338
-0.541676
-0.184282
0.060194
-0.436127
0.235591
0.350661
-0.131793
0.102497
0.551311
0.356195
-0.377882
-0.427365
0.172215
-0.114472
0.126740
0.240551
0.217184
-0.398807
-0.075422
0.023646
-0.336113
-0.361825
0.082375
-0.099882
0.075242
0.398563
-0.113230
-0.106613
-0.088400
-0.350091
-0.096111
0.345440
0.346030
-0.028528
0.180206
-0.188338
0.698020
-0.626211
-0.327731
-0.743480
0.421921
0.161025
-0.246032
-0.371495
0.405672
0.196440
0.361029
-0.234421
-0.205466
0.126606
0.564235
-0.318638
0.002532
-0.097569
0.086423
-0.448856
-0.025702
0.633178
0.523184
0.202149
-0.148507
0.048582
-0.018706
-0.237070
-0.010207
0.616253
0.018477
-0.617872
-0.464063
-0.260795
-0.289256
-0.637362
-0.133930
-0.233490
-0.774057
-0.106988
-0.090341
0.350473
0.226852
-0.419498
-0.458339
0.128815
0.106476
0.439744
-0.020975
-0.167120
-0.134924
0.662962
0.412997
0.076607
0.056911
0.376827
-0.338712
0.163058
-0.325951
-0.368022
-0.061788
0.504444
-0.832078
-0.137759
0.068091
-0.400191
0.068348
-0.014490
-0.404083
-0.732262
0.198298
0.171972
0.284360
-0.269989
0.426369
-0.249736
-0.015315
0.030910
-0.415082
-0.064636
-0.482822
0.412535
0.307167
0.013471
0.314483
-0.211230
0.569597
0.086259
0.004678
0.436412
0.000904
-0.125268
-0.117725
0.624387
-0.017853
0.177539
0.632023
0.407019
-0.474343
0.203839
-0.640848
0.274632
0.611481
-0.437857
-0.514015
-0.025756
-0.324312
-0.175974
0.581379
0.246394
0.232692
0.674609
0.451201
0.467969
0.061832
0.256219
-0.016562
0.299262
0.258081
-0.213103
-0.268034
0.223930
-0.374349
-0.105215
0.247155
-0.152581
-0.197798
0.175513
-0.392702
-0.274227
0.179710
-0.217336
-0.343101
-0.085907
-0.143151
0.574818
0.114454
0.527831
-0.439004
0.051707
-0.209288
0.353914
-0.052095
-0.206270
0.441109
0.580401
-0.241815
-0.235232
-0.277936
0.265629
0.232368
-0.172641
-0.421071
0.162396
-0.007467
-0.108640
0.448779
-0.570620
0.058652
0.305362
-0.550230
0.447259
0.199943
0.171130
