0.352779
0.017459
-0.073196
0.294525
0.454187
0.246542
-0.073525
0.585110
-0.227374
0.053814
-0.024544
0.301103
-0.484103
-0.280575
-0.452045
0.244326
0.187929
-0.143622
0.292695
0.150811
0.060763
0.071180
0.180184
-0.234448
-0.345001
0.308568
-0.276524
-0.052309
0.344957
-0.270433
-0.128161
-0.157116
-0.424311
0.118205
0.109945
0.223387
0.057697
-0.059693
-0.269920
-0.304318
-0.243084
0.019489
-0.202255
0.151058
0.394256
-0.249062
0.242690
-0.218666
0.178640
-0.136118
-0.110123
-0.054529
-0.045838
-0.005135
0.024154
-0.271619
0.250879
-0.039419
0.397975
0.184485
0.483550
-0.427753
0.523070
-0.188696
-0.156055
0.375591
-0.288402
0.380229
-0.350649
-0.134849
-0.179916
0.387351
0.370149
-0.299805
0.298777
0.207284
-0.406009
-0.223417
-0.277571
-0.344133
0.150331
0.283263
-0.525476
-0.251068
-0.632557
0.068218
0.218899
0.476702
0.474022
0.092056
-0.108629
-0.045320
0.229534
-0.237621
0.597123
-0.217958
-0.207496
-0.061051
0.328105
0.362798
-0.358522
0.129914
-0.765155
0.110111
-0.053048
-0.547764
0.552633
-0.426682
-0.432054
-0.421607
0.252588
0.613423
-0.446553
-0.051837
-0.090850
-0.362253
-0.191436
-0.120594
-0.111521
-0.154006
-0.445168
-0.297034
0.122415
-0.271551
-0.375403
0.640397
0.023584
0.162219
0.362291
-0.264636
-0.009714
0.431463
0.234988
0.449604
0.075039
-0.035649
0.080005
0.358505
0.014869
-0.236346
-0.691391
0.488363
-0.410348
0.350975
0.215850
-0.065487
0.413613
-0.508636
-0.325267
-0.373365
-0.333204
-0.193285
0.280905
-0.303773
0.639124
-0.575575
-0.465579
0.091899
-0.202581
0.272053
0.196597
-0.044820
0.321621
-0.125248
0.307340
-0.196703
-0.238818
-0.275997
-0.329783
-0.594032
-0.117550
0.432939
0.089432
-0.406796
0.452087
-0.173383
-0.190909
0.009224
0.008765
0.505005
0.120812
-0.283198
-0.326941
-0.439079
-0.351648
-0.419183
-0.069315
-0.583346
0.111228
0.026923
-0.409050
-0.200315
-0.679597
-0.270940
-0.245580
0.053482
-0.231756
-0.284333
-0.175905
-0.672411
-0.082953
-0.058632
-0.718677
0.357747
-0.563785
0.195193
-0.455161
-0.491737
-0.079652
0.397169
0.404304
-0.219230
-0.173794
0.003529
0.504601
0.180480
0.004968
-0.274311
0.395476
-0.070603
-0.395338
0.698808
-0.391852
-0.049832
0.302002
0.295258
0.169462
-0.457592
-0.011000
0.498046
0.026826
0.498983
0.339730
-0.549935
-0.114299
0.065678
0.035252
-0.406339
-0.370139
-0.105913
-0.308442
0.040597
-0.423542
0.224124
-0.164120
0.098131
0.381818
0.429394
-0.499543
0.139536
0.009822
0.329147
0.244789
0.098365
-0.471388
-0.086901
0.071624
0.635807
-0.310140
0.656757
0.647134
-0.295820
-0.323686
-0.267995
0.355285
-0.009731
-0.055801
0.328959
-0.425008
-0.004662
0.379910
0.104240
0.043004
0.165770
0.383221
-0.271952
-0.081530
0.584605
0.190587
0.591586
0.609893
-0.481647
-0.071313
0.435649
0.211902
-0.355162
-0.471011
0.364608
-0.487620
0.619093
-0.189817
-0.452381
0.253622
-0.221433
-0.484338
-0.089277
0.493778
0.102158
-0.354810
0.365836
-0.293977
0.071534
0.018607
0.434816
-0.072140
0.021365
0.017985
-0.230448
-0.276835
0.503158
-0.583327
-0.014836
-0.813715
0.058958
-0.031375
0.328919
-0.154430
0.401451
0.269459
0.486740
-0.131057
-0.059905
-0.068668
-0.569721
-0.350123
-0.194505
0.034186
0.483181
-0.044002
-0.127537
0.295228
-0.473203
0.436055
0.362043
-0.175317
-0.199315
-0.280180
0.373109
-0.329200
0.069258
0.135629
-0.422163
-0.033462
0.054228
0.340932
0.357309
0.292573
0.079409
-0.601490
0.193321
0.221456
0.295675
0.051502
-0.061120
-0.194181
-0.215435
-0.024012
0.503219
-0.336498
0.218685
0.194847
0.682424
0.318282
-0.187803
0.385558
-0.438517
0.320881
-0.316826
0.006944
-0.226521
-0.250813
0.372984
-0.127007
-0.365169
0.538374
0.156732
-0.485160
-0.347030
-0.017508
0.431556
0.124269
-0.326804
-0.075939
-0.166986
-0.226972
-0.313187
-0.047734
0.612321
0.204704
0.101041
-0.012140
-0.784463
0.175641
0.204990
0.487657
-0.190597
0.473072
0.524838
0.460206
-0.370325
-0.285059
0.137469
0.261015
-0.077752
0.424461
0.118322
0.403361
-0.449978
0.392588
-0.374493
-0.553699
-0.189656
0.321322
0.332352
-0.233653
-0.362933
-0.246840
0.532765
-0.203985
-0.428623
-0.169384
0.294473
0.097958
0.107743
-0.086586
0.051900
0.355135
-0.258953
0.637053
-0.251972
0.423265
-0.211911
0.046493
-0.560476
0.307336
0.018039
0.330699
-0.066321
0.391512
0.275927
0.522947
-0.333061
-0.465379
0.191375
0.340608
-0.183140
0.437617
0.225180
0.087793
-0.201979
-0.099105
-0.270106
0.242942
-0.122918
-0.065410
-0.116312
-0.412038
-0.489188
0.358859
-0.309943
0.075943
-0.615884
-0.154253
0.012482
-0.397071
0.653479
-0.285927
0.121730
0.391813
0.016426
-0.076841
-0.267895
0.347945
-0.322283
0.397381
0.474783
-0.212703
0.161623
-0.166437
-0.267276
-0.132965
0.080153
0.027215
0.150694
-0.448787
-0.423043
-0.354983
-0.438207
-0.090676
0.142508
0.415492
0.131703
-0.195406
0.260141
-0.201052
0.199169
0.567887
0.395490
0.024386
-0.261032
0.122557
-0.141933
-0.089775
-0.357214
-0.164630
-0.656116
-0.161817
0.479486
0.503691
0.001726
0.331735
-0.058890
0.031893
0.404096
-0.159334
0.153791
-0.461407
0.475757
0.115871
-0.160596
0.481491
-0.152706
0.562251
0.336341
-0.369381
-0.366884
-0.416079
0.366833
0.563760
-0.109946
0.061659
0.331482
0.147202
-0.059736
-0.024354
0.360328
-0.109364
-0.494548
0.279283
-0.410484
0.392710
0.450057
-0.273571
0.878375
0.815274
-0.423467
0.223723
-0.085241
-0.079546
-0.095577
0.250316
-0.007879
-0.577890
-0.399657
0.182321
0.079949
0.378920
-0.358292
0.191028
-0.045276
-0.295349
0.564352
0.454889
-0.505064
0.014156
-0.557909
-0.370944
-0.102856
-0.326927
-0.427279
-0.078733
0.351944
-0.332616
0.087286
0.058195
0.469165
0.290353
0.277875
-0.461852
0.457696
0.755671
-0.047450
0.301516
-0.187898
-0.364878
0.339885
0.848727
0.433678
0.580586
-0.391000
0.052599
-0.817285
-0.232724
0.532258
0.780685
0.320256
0.338646
-0.197131
0.390066
0.150470
-0.153679
-0.329538
-0.290814
0.274563
-0.493456
-0.321978
-0.115179
0.066042
0.202676
0.226486
-0.342738
0.179867
0.106543
-0.542064
0.111973
-0.374073
0.495170
0.231455
-0.700890
0.338283
-0.423137
-0.012879
0.193293
-0.798153
0.575088
-0.238374
0.150722
0.453948
0.715155
-0.429721
0.221328
-0.037569
-0.046353
-0.093740
-0.559153
0.234262
-0.197522
0.635906
0.267712
-0.149348
-0.494872
-0.136533
0.473387
0.608924
-0.246562
-0.148050
0.389830
-0.032106
-0.026603
0.301631
0.418534
0.176823
-0.175292
0.415006
-0.260550
-0.352283
-0.195244
-0.206484
0.342301
-0.719721
0.349262
0.380479
-0.372395
-0.059631
0.159663
0.337525
-0.191941
0.046312
0.208202
-0.670585
0.190629
0.442913
0.025001
0.525931
-0.217623
-0.194391
0.274009
-0.018430
0.193324
0.091061
0.424384
-0.174933
-0.714542
0.355421
-0.009168
-0.324965
0.622899
-0.152966
0.167919
0.354958
-0.119461
0.271631
-0.334479
0.404618
0.016476
0.446194
-0.458339
-0.187146
-0.003705
0.470087
-0.005404
0.027516
-0.157481
0.105668
-0.442623
-0.159740
0.332212
-0.309656
0.288292
0.214012
-0.128180
0.597378
-0.233695
0.599070
-0.501187
-0.560007
0.370519
-0.231539
0.055077
0.422316
0.136435
0.299385
-0.488317
0.193055
0.167643
-0.186458
-0.388451
-0.545064
-0.470338
-0.705639
-0.267159
0.424718
-0.133372
-0.010772
0.645132
-0.380031
0.178051
-0.015912
-0.539546
0.028425
-0.256791
-0.185325
-0.005591
0.085722
-0.647458
0.602700
0.436840
-0.224033
-0.288470
-0.586576
0.045142
0.045493
-0.104094
0.712061
0.453410
0.130417
0.186222
0.355855
0.189829
-0.231032
-0.278145
0.101603
0.274402
0.364576
0.285563
0.151904
-0.375022
0.251395
0.509231
0.080113
0.216217
0.472931
-0.320691
0.210629
0.055559
-0.488759
-0.175274
-0.260003
0.093336
-0.334191
0.463703
-0.019237
0.770857
0.201615
-0.608241
-0.250437
0.343172
0.514296
0.556635
-0.245096
0.047435
0.180469
-0.125583
-0.157293
-0.107423
0.112193
0.072061
-0.262789
-0.122476
-0.700055
0.128419
0.309496
0.222889
-0.334047
0.220797
0.197050
-0.373539
0.293243
-0.246022
0.477702
0.000534
0.034957
-0.077935
0.034808
-0.622646
-0.028713
