-0.169893
-0.359559
0.069936
0.491236
-0.069840
0.418898
-0.592627
0.417195
-0.435575
0.326347
0.049119
0.103701
-0.484103
-0.241597
-0.043759
0.079718
0.366824
0.305434
-0.224653
0.083975
0.216262
0.162917
-0.011423
-0.076395
-0.595445
-0.047538
-0.193118
-0.009664
-0.249053
-0.326690
0.315802
-0.264849
-0.245700
-0.113586
-0.474498
0.270787
-0.278913
0.331922
0.041230
0.228161
0.211495
-0.668799
0.178156
0.026385
0.019360
0.074296
-0.049041
0.042440
0.347798
0.311918
0.146076
-0.323070
-0.049982
-0.083363
0.041590
0.287255
-0.135669
-0.045106
0.666922
0.315092
-0.419675
-0.296258
0.213925
-0.114853
0.357733
-0.421505
0.002254
-0.425885
0.268959
-0.587879
-0.427209
0.202606
-0.164827
-0.451199
0.325352
0.294727
-0.284802
0.043350
-0.186993
-0.205200
0.038307
0.052702
-0.449866
-0.555668
0.190271
0.001649
-0.531854
-0.291811
0.076710
0.004288
0.012715
0.216103
-0.410939
-0.116018
-0.096042
-0.112321
0.143774
-0.618598
-0.386429
-0.162620
-0.403285
-0.463802
-0.239948
0.363364
-0.032667
0.501431
0.235724
-0.450000
-0.401460
0.411690
-0.220827
0.362788
-0.305912
-0.220455
-0.052542
-0.028869
0.427575
0.542592
0.333999
-0.342038
-0.573643
0.109076
-0.291724
0.604601
-0.237784
0.570653
0.127497
0.067057
-0.189149
-0.192123
-0.160985
0.588384
0.382355
-0.186177
-0.378131
0.307691
-0.098458
-0.037987
0.540898
0.126831
0.132256
0.404996
0.200368
0.081202
-0.484516
0.234770
-0.521523
0.231376
0.125438
0.361603
-0.243007
-0.341160
0.271253
-0.188259
0.150413
0.264207
-0.241919
0.807179
-0.512725
-0.139594
-0.376065
0.050555
0.621456
-0.286786
0.232310
0.390583
0.317295
-0.211239
0.227875
-0.054288
0.279369
0.520132
0.003642
0.088468
-0.481393
-0.245907
-0.309330
0.138464
-0.392632
0.306257
-0.236130
-0.523416
-0.340860
-0.406924
-0.195118
-0.495955
-0.604798
-0.535362
-0.130732
-0.462501
-0.626309
0.449041
-0.288947
-0.034064
-0.088607
-0.329067
-0.158154
-0.623804
-0.268756
-0.295645
-0.284993
0.419689
-0.439617
0.076358
-0.386558
-0.343185
-0.219279
-0.048324
0.455520
0.004828
0.082464
-0.150354
0.598052
0.040552
-0.007906
0.797395
0.288115
-0.182872
0.075678
0.141468
-0.139072
0.467737
0.537609
0.082391
0.029200
-0.298503
-0.264721
0.130104
-0.117101
-0.207966
-0.091608
0.186937
0.277106
-0.610750
-0.199027
0.146270
-0.174810
0.174796
-0.110080
0.009495
0.638468
0.005761
-0.472933
0.340893
0.702613
0.538796
-0.148137
0.228280
-0.352221
-0.027026
-0.077753
0.318224
-0.542165
0.141429
-0.389362
0.194381
-0.407753
0.370298
-0.371677
0.032949
0.435242
-0.228891
-0.274178
-0.400465
-0.047868
0.032714
-0.520382
0.098260
0.209361
-0.160357
-0.414438
-0.414232
0.489607
-0.099831
0.276042
0.362528
0.146028
0.219894
0.479246
-0.213791
0.445236
-0.250170
-0.166003
-0.135162
-0.449288
0.024914
0.263030
-0.306915
0.662232
-0.513596
-0.398133
-0.567959
0.361244
0.407193
0.552073
-0.464031
0.355704
-0.305302
0.328086
-0.464629
0.380489
-0.270947
-0.177015
0.035817
-0.168602
0.160274
-0.169905
-0.430704
0.590205
0.329460
-0.188271
-0.232766
0.205101
-0.486741
0.122399
-0.045945
-0.687992
-0.209189
0.325889
0.464007
-0.221534
0.120443
-0.276427
-0.035382
0.434036
-0.005443
-0.303184
-0.223312
-0.621006
-0.020381
0.164224
-0.103677
0.046901
-0.137254
-0.184078
0.621644
-0.226108
0.371796
0.285982
0.034761
-0.149292
0.129561
0.293630
0.340195
-0.127277
-0.160320
-0.498006
0.245070
-0.452274
0.152736
0.262884
-0.257368
0.032768
-0.040034
0.150903
-0.344130
0.109881
-0.188662
-0.215974
0.037157
-0.151163
-0.341985
-0.019169
0.378536
0.519942
-0.556698
-0.491902
-0.225585
-0.157879
-0.263921
-0.156886
-0.374490
-0.089399
0.154594
0.018731
-0.224653
-0.203936
-0.014051
0.189608
0.040633
0.433107
-0.218831
-0.289599
-0.176704
-0.522046
-0.241183
0.036609
-0.058436
0.058995
0.383515
-0.302143
0.125016
0.477325
0.161781
-0.421746
-0.321052
0.045585
0.057661
-0.331185
-0.162423
-0.081156
-0.420057
0.369171
0.330635
-0.100511
-0.103594
0.097323
-0.114738
0.078217
0.484759
-0.341484
-0.574662
-0.703950
0.541284
0.450647
-0.360939
-0.090051
-0.223215
0.232219
-0.312531
0.413933
0.567743
-0.019204
0.386429
0.116048
-0.271897
-0.312931
-0.058974
-0.281241
0.167502
-0.126428
-0.089626
0.032492
-0.668368
-0.221845
-0.316781
0.406147
-0.159965
-0.157087
0.371835
0.228094
0.380339
-0.037880
0.617095
-0.120981
-0.144991
-0.271115
0.029088
-0.504244
-0.023996
0.150012
0.332729
0.567688
0.351204
-0.136658
0.248313
0.111873
0.017010
-0.482757
0.175414
0.434579
-0.344925
0.209479
-0.280649
-0.669617
-0.040249
-0.338150
-0.325794
-0.307477
-0.489872
0.090410
-0.547906
0.207590
-0.286971
-0.158986
-0.296194
-0.072327
0.355475
0.206950
-0.073576
-0.539106
-0.313317
-0.083978
0.070444
-0.212503
0.534896
-0.221928
0.534364
-0.324149
-0.551601
0.198547
0.393425
0.514611
-0.293166
0.281599
0.168449
0.231912
0.381676
0.264624
-0.188574
-0.093010
0.381982
-0.073145
-0.215155
0.297466
-0.127982
-0.215800
-0.397269
0.242239
-0.205125
-0.504424
-0.321193
0.154561
0.301836
-0.594072
-0.178043
0.491877
-0.019787
-0.365181
0.279306
-0.174112
0.336643
0.553452
0.624393
0.310658
0.654523
0.254882
-0.035290
0.215753
0.384255
0.278348
0.331482
-0.074534
0.407993
-0.274103
-0.398304
-0.508152
-0.212312
0.253805
-0.286005
-0.015228
0.284746
-0.087971
0.393003
0.116857
0.644889
0.059253
0.137384
-0.193224
-0.273787
0.037057
0.434115
-0.062198
0.010383
-0.051326
0.462333
0.319597
-0.137635
-0.593126
-0.369293
-0.371529
-0.118211
-0.161471
-0.229062
0.766430
0.176409
-0.584464
-0.194898
-0.305465
0.118495
-0.078733
0.181204
0.083509
0.037145
-0.481135
0.576046
0.045003
0.087606
0.226362
0.345749
-0.418416
-0.176340
0.138220
0.508320
-0.690900
-0.374482
-0.496106
0.548095
0.619100
0.248130
0.469611
0.062616
-0.588194
0.004709
-0.650630
0.423423
0.383698
-0.218945
-0.150020
0.371448
-0.172899
-0.141167
0.423316
0.725278
-0.081532
-0.052252
-0.828289
-0.038703
-0.446477
0.412233
0.060151
0.150765
0.202151
0.414264
0.376899
-0.429480
-0.037749
-0.239471
0.184831
0.213091
0.256422
0.044722
0.535550
0.234885
0.305299
0.333478
0.569863
0.082332
0.338532
-0.539152
-0.430876
-0.076006
-0.003596
0.645799
0.276754
0.090379
-0.082656
0.117884
0.597271
-0.246345
0.135633
0.288117
-0.209411
-0.097211
0.136030
-0.362994
0.604262
-0.135208
0.089497
0.431142
-0.286198
-0.032823
0.461845
-0.554419
-0.359015
-0.731780
0.155444
-0.280568
-0.292477
-0.223896
-0.042719
0.087498
-0.175634
-0.507729
-0.259064
0.093858
-0.447684
-0.040862
0.061695
0.074537
0.325576
0.122769
-0.162328
0.499817
0.089204
0.557398
-0.005810
0.176816
0.163168
0.493457
0.212874
-0.381956
-0.379212
-0.372206
-0.034338
-0.415659
0.392185
0.621591
0.503347
-0.293655
-0.280797
-0.258085
0.168150
0.111955
-0.093424
-0.168947
0.305989
-0.222562
0.302138
-0.454530
0.162851
-0.198449
0.002782
0.319128
0.410109
0.272220
0.233801
-0.546957
-0.636773
0.167266
-0.080723
0.176026
0.305564
0.044054
-0.029838
0.587450
0.092592
0.030665
0.236105
0.583250
-0.011802
-0.494824
0.114017
0.299851
-0.173340
-0.279721
0.231230
-0.078540
-0.156371
0.589023
-0.327617
0.008135
0.270514
0.040725
-0.338365
0.063027
-0.359141
0.430824
-0.555000
-0.347052
0.305781
-0.327843
0.140452
-0.244283
0.328926
-0.474564
-0.017853
-0.528703
-0.117458
-0.103345
-0.580653
0.059923
0.538534
0.679541
-0.274621
0.391492
0.362864
-0.010209
0.116833
-0.462063
-0.063376
0.205292
0.533319
-0.127351
0.389109
0.672458
0.146332
0.341185
0.454891
0.022237
0.735023
0.061894
-0.678615
0.562371
0.673631
0.328303
0.380932
-0.365721
-0.444492
-0.564732
0.423118
-0.459342
-0.070771
-0.114919
0.198165
-0.496945
-0.179618
0.687364
0.547360
-0.047278
0.341265
0.147391
-0.417941
0.357840
0.118609
-0.398855
-0.180746
0.446563
0.055201
0.383338
0.626553
0.005113
-0.292704
-0.523865
-0.458119
0.279887
-0.670546
-0.123597
-0.432212
-0.331586
-0.099393
0.058186
0.097601
0.059308
0.506723
-0.060955
