0.001703
3.535403
-4.312264
-2.668680
-2.901004
1.409926
-4.002561
1.085049
-1.711893
0.799208
-1.235048
-0.909480
-1.842267
-2.525240
-3.249368
-0.441301
5.494578
-1.130189
-0.905831
-1.003588
2.393399
0.888154
-0.182413
-0.981008
-3.201259
4.980392
-2.200393
2.842574
-0.238271
2.255086
-4.880115
-5.722021
-0.032133
0.246343
0.158399
0.515931
-1.056098
0.007022
-3.463592
-0.125753
-4.002723
-0.867899
2.562197
-0.799619
-1.418183
-0.578231
-11.665595
0.253423
12.523193
-0.326052
0.429055
-0.062291
-0.302065
0.074641
0.114493
-0.016949
-6.052812
0.120082
2.848969
-2.618350
0.532168
0.371129
-2.596768
4.358934
2.782629
1.183190
-3.752375
-1.203896
-1.528533
3.835793
0.749095
-0.998120
-1.431389
-1.641343
-0.697997
-0.290631
-2.376566
-0.881243
-0.107100
0.470740
-1.486938
-2.410726
-4.080250
-0.418372
-5.471074
-1.900650
-9.310757
-1.118036
2.807891
-2.579001
0.006648
-1.875750
1.587008
0.051121
-1.513828
6.253252
-6.555932
-2.789940
-2.571692
-1.567750
-2.956336
-1.714048
3.674808
0.289249
-0.322541
-1.154232
-0.273468
2.652726
-0.070495
-3.316730
-2.140125
2.057058
1.519262
-3.385012
0.565994
-6.232967
0.555260
1.115357
1.925634
0.555850
7.564257
2.355194
-2.234866
1.094389
7.654105
1.738106
0.518891
1.849657
-2.491235
-1.427704
-2.635111
-2.638978
-0.213215
0.870456
2.780664
0.933440
-2.775672
-0.936879
-2.915259
-0.504954
3.901268
0.988385
-2.760124
-3.000454
2.281858
3.350744
-3.376030
-0.337471
2.674710
5.984000
3.562656
-0.676718
2.201511
-0.578745
3.380567
1.794226
1.073366
1.556094
8.129030
2.918154
-0.077243
-3.331402
5.347188
-2.975658
-1.066111
-0.952834
0.832939
4.327140
-2.048265
1.148154
0.708138
-0.642876
3.115727
6.593044
-2.059821
-2.221316
2.402335
-1.811248
1.964596
4.455569
-1.235326
3.185112
0.284441
1.721038
-2.579622
1.235464
1.132490
-1.044424
-0.389170
1.105853
1.438014
1.690137
3.406549
-0.767053
-5.947080
-0.699246
3.644881
0.728571
-4.550205
0.871987
4.641780
-2.737026
-3.071465
-2.875258
-4.270512
1.839792
-2.523930
-2.918496
-0.384064
2.539699
0.834336
4.204114
2.452187
4.982091
-3.257547
-5.101623
-2.715505
2.242894
-3.057541
-0.054030
4.910759
-1.599369
-4.580601
-3.730023
-0.492480
-7.135397
3.977759
-5.474977
-2.909538
0.363709
-3.682812
5.055806
-7.226668
-0.763631
-5.675203
-2.761678
1.433413
2.783548
-2.262467
4.444251
-1.804164
-0.645895
-0.752420
-0.369537
-4.617149
4.459416
1.944630
-10.037325
-2.083600
-2.036841
2.510414
3.079268
-0.392849
-0.038678
4.446383
3.095073
1.825459
0.302869
-2.316011
-0.786290
3.115328
-1.017035
7.124558
2.610650
-8.195014
0.317010
-5.527443
5.609960
0.006191
-2.667359
-4.757594
0.475708
1.752313
4.591115
3.475918
4.728317
-4.742570
-1.206367
-3.771467
-4.931695
-2.951961
-3.930241
6.784930
-0.080808
-0.238584
-3.565108
3.974932
0.414937
1.095568
-0.310963
-3.208105
3.743522
2.180812
5.519314
2.499775
2.775987
-0.872730
1.765529
-0.035034
3.286101
14.443478
2.369668
3.318029
-0.042503
1.064034
-0.748975
-2.061994
2.733785
-3.180391
0.041143
0.542228
2.694289
-5.168274
-0.895912
0.377876
-1.809013
2.090563
-1.972819
0.397917
1.960829
0.370042
0.598477
-1.233450
-2.987099
-6.500864
1.286990
-6.355629
3.574622
-2.628465
0.579125
0.807833
-1.086852
-8.798970
5.436411
4.682670
-0.762519
-2.619312
-3.242018
-1.789015
-2.737157
2.349277
-2.149917
0.878586
1.515729
-1.306926
4.085048
0.895432
1.655472
0.432533
4.319906
-4.418925
0.009492
-1.665793
-5.557084
-2.341779
-0.885475
5.086481
3.095711
3.986057
-4.821634
-1.627168
-2.525058
1.492526
-1.991954
2.816043
1.440032
1.644018
6.016329
-4.805497
1.460216
1.726634
-2.566118
0.987618
3.318412
5.155409
-2.530515
-0.108949
-3.195346
-1.728737
-2.389762
3.225091
1.291396
1.518914
-3.982910
-2.053832
2.552247
-1.268974
1.556900
-1.015420
-2.149657
-4.860279
-0.660403
0.318496
0.534291
-7.443532
1.224846
-0.680284
1.212234
-5.757142
-2.848806
0.741196
3.244979
-3.315465
-3.490054
1.926440
0.434511
-6.532346
-1.750396
1.644145
-1.415826
-1.242362
-0.123243
-0.616484
-2.944050
-8.072874
4.676547
5.477254
4.693024
-0.831690
1.862480
0.891270
5.538415
1.969580
-1.216291
-4.708470
-5.850487
-8.166866
-3.263622
-6.912604
-1.525713
2.040361
0.909889
-4.319717
9.258896
2.969264
-9.131644
-0.177577
-2.656260
-2.253120
2.576520
3.020059
-1.626315
1.186756
4.018274
1.884762
0.264030
5.548495
-2.490878
1.338090
-2.382057
2.956390
0.500073
4.502138
0.482763
-2.579701
-1.489202
4.080159
-3.521257
-0.119111
1.136842
2.851178
-3.478186
4.314385
-4.630572
-2.351269
-2.773642
5.869300
-3.988803
0.083703
-2.361187
-1.658128
-3.777924
-4.103057
-1.130272
-1.065602
1.204450
-1.348222
-1.874973
5.030966
-2.531436
-0.328426
-1.825574
5.373269
0.118244
-6.945160
3.078017
-1.247631
5.692050
-0.896430
1.410323
-0.459383
3.695281
1.854282
-1.086868
-5.913486
1.711976
1.533819
0.117076
2.975531
-0.312703
-3.237555
1.666319
0.310462
2.681405
0.656939
-2.959443
-1.512650
4.663822
3.563057
2.157755
0.968929
-0.232803
-0.470290
2.156017
6.572050
-1.291378
1.491732
1.507702
1.850736
4.954724
1.395843
3.268516
2.984005
-0.484942
-3.939929
-0.910884
-3.961813
-2.600605
3.409570
5.271671
-1.130352
1.891020
5.098634
-2.105478
7.593373
2.223597
-5.743681
-2.600214
-4.742484
1.201060
-4.252539
-1.416665
-8.465534
-4.464241
-1.479839
0.954557
-4.890008
3.140593
5.121761
-1.970832
-5.846460
2.197000
-5.025659
-9.660885
2.305629
4.805066
-6.080405
-0.776436
2.182089
-1.016502
5.201100
-0.213041
-2.907855
4.361226
-1.097736
2.557050
-3.752115
2.170116
2.231091
0.460252
-1.101818
3.308468
2.098081
-6.003347
4.214562
-0.855295
1.393933
-3.679888
0.128476
-1.038650
-0.810476
2.292543
-0.943881
-0.548964
2.315951
-1.945599
-9.606033
-0.824688
-3.782098
-3.517619
-6.118203
-0.997401
-2.828311
4.858436
0.712184
4.073517
-4.348663
1.146671
-0.350926
1.444630
-5.889730
1.219301
0.406834
0.462286
-1.564108
3.057805
3.507520
2.333282
-1.435356
1.926038
2.331684
1.311402
0.676024
0.752871
-0.245055
-0.001507
-0.481204
-0.026837
-3.008163
-5.867461
-4.515966
-2.438975
2.452306
4.522879
-1.634824
1.089391
-0.664561
-1.882916
-2.739313
-0.379270
2.875899
-0.443513
4.677523
-3.425335
-4.795659
1.978479
-0.043102
-1.722461
-1.039865
-1.730249
0.422684
-0.461477
-0.416655
8.172609
-2.750793
-1.232871
3.508004
-1.489308
1.097753
-2.667383
-2.044720
5.047755
0.514516
3.467257
0.251867
0.380689
-1.452902
-3.104358
-1.122386
1.744463
9.695980
-0.054594
2.191228
-1.385038
-1.947612
-0.390774
-2.190482
-0.749274
-0.457623
-1.482438
1.927552
4.522603
-3.368825
3.291481
3.138173
2.569780
4.278245
5.306935
-2.756537
-6.467399
2.404297
2.100130
-1.133195
-3.679699
-2.223675
3.732216
-3.739894
-3.546668
3.167538
2.414638
-8.147933
0.841520
1.672563
-1.098021
1.995306
3.424797
5.151914
2.126935
5.912119
3.132215
-3.492466
5.136206
-0.041480
-6.780177
3.410482
-1.276805
-1.166644
-2.167698
-4.925547
-1.962921
1.952158
-0.580762
-4.578930
3.951447
1.794733
2.660620
-3.334856
-7.347691
7.567751
-0.883893
-3.326966
3.269735
4.361606
2.972706
-0.657075
-3.504740
3.921359
-4.102456
-4.900312
2.722174
-1.205673
-7.785589
0.209955
-0.345805
0.210060
-1.056617
11.333145
-0.575350
2.345335
4.263154
-1.576748
-0.947085
1.837066
-3.364867
-1.825793
2.958878
-4.007748
-3.231323
-2.829189
-1.404972
5.395709
6.507860
2.291527
-2.622887
-1.120661
-0.148182
0.663054
2.143768
-3.291067
0.386318
4.582632
-0.560047
2.242215
2.736606
-2.203248
-5.099254
2.248352
2.129279
-1.247104
-0.766239
-5.257693
