0.188786
-0.629453
0.330755
-0.549803
-0.036147
0.066043
-0.235844
-0.199544
0.360308
0.253345
0.029748
-0.001107
-0.541592
0.233383
-0.278297
-0.185533
-0.159055
0.004598
0.201802
0.006631
0.367627
-0.311491
-0.532274
-0.011195
0.137694
-0.194328
0.026817
0.039611
0.280202
-0.119072
-0.032510
-0.442694
0.413582
-0.230785
-0.065266
-0.298514
-0.329601
0.290254
-0.524362
0.266944
0.135044
0.482804
-0.259669
0.028192
-0.062741
-0.053559
0.347328
-0.170419
0.218029
0.365577
0.185370
-0.107186
0.552075
-0.218696
-0.073210
-0.102479
0.285929
0.140761
0.029524
-0.517968
0.156942
-0.316205
0.630742
-0.157386
-0.253761
0.411297
-0.051187
-0.477632
0.040878
-0.206240
-0.439264
-0.412366
-0.315823
-0.474299
-0.273948
0.074537
-0.446223
0.445799
0.199415
-0.376961
0.181545
0.514101
-0.188756
0.432376
-0.269287
0.131247
0.215010
-0.193173
0.377922
0.078257
0.320045
0.216103
0.139432
-0.112388
-0.356086
0.077866
0.355347
-0.538138
-0.391254
0.198692
-0.320963
-0.200046
-0.091912
-0.217269
-0.298398
-0.383747
-0.262782
-0.559490
-0.354392
-0.122614
0.252627
-0.595022
0.439176
-0.252857
-0.828096
-0.162923
0.060488
-0.304222
0.241346
-0.408170
0.302317
0.534912
0.157754
0.094254
0.436177
0.690290
0.386285
0.158915
-0.119243
-0.422217
-0.968321
0.251716
-0.155647
-0.132522
-0.434831
-0.029291
-0.148773
-0.264165
-0.226318
-0.087916
0.315191
-0.617785
-0.059793
-0.541265
0.019302
0.204910
0.119086
0.225224
0.212772
-0.233333
0.189895
-0.355044
0.292915
0.201718
0.242623
0.500901
-0.298232
-0.323052
0.342280
0.320809
-0.434479
0.281777
0.698741
-0.574743
0.287215
0.566375
-0.246826
-0.201745
0.216397
0.257587
-0.451689
0.440617
-0.533838
-0.132632
-0.529405
-0.186630
0.576719
0.047074
0.292705
-0.675399
-0.151656
0.797223
0.254547
-0.057575
-0.590964
-0.483112
-0.337727
-0.425755
-0.109447
0.107703
0.116646
0.559230
0.293131
-0.272568
0.404457
-0.108975
-0.170392
0.089414
-0.062429
-0.169178
0.169740
0.110607
-0.347300
-0.191888
-0.436132
0.547076
-0.389105
-0.438534
0.019010
0.176563
-0.182670
0.254370
0.560177
0.089511
0.146451
0.079391
0.346584
-0.352134
-0.380159
0.069274
-0.159224
-0.616415
-0.089996
0.131435
0.174005
-0.054424
0.674838
-0.323270
0.480979
0.185709
-0.396063
0.172882
-0.209523
-0.246352
0.589993
0.277754
-0.206780
-0.341903
0.343376
-0.460718
-0.520362
0.064880
0.261462
-0.262342
-0.273763
0.292016
-0.112058
0.263946
0.009779
-0.481251
0.119407
-0.445912
0.663100
0.517998
0.186183
0.415602
-0.476183
0.214002
0.417998
-0.020761
-0.025856
0.171461
-0.367252
-0.330615
0.654558
0.098672
0.155184
0.239182
0.012633
-0.336927
0.310744
0.307421
0.028151
0.107323
0.476829
0.332194
-0.071645
0.446773
-0.223463
-0.110160
0.463647
0.250116
-0.386776
0.215434
-0.004121
-0.409084
-0.660401
-0.307453
-0.234824
-0.250297
0.096991
-0.137935
0.179511
0.376489
0.052828
-0.091789
0.348277
0.036183
-0.446273
0.411354
0.187341
-0.479397
0.330399
0.059752
0.077198
-0.098215
-0.033779
0.321012
-0.080793
-0.257538
-0.300263
-0.495706
-0.411981
-0.152852
0.094093
-0.460119
0.286011
0.467009
-0.151392
0.349116
-0.135503
0.606504
-0.207682
-0.035629
0.425244
-0.355041
0.281958
-0.291830
-0.417482
0.116941
0.052215
0.730721
-0.035441
0.283348
-0.148971
-0.324997
0.494966
-0.480651
-0.170730
0.142982
-0.198580
0.116630
0.207825
0.017265
0.299608
-0.302088
0.508692
-0.298759
-0.640093
-0.561364
-0.372189
-0.359407
-0.264530
0.278672
0.289116
0.357722
-0.690559
0.519485
0.642838
0.064438
0.433741
0.437477
0.294416
0.302949
0.245535
-0.622588
0.071696
-0.364385
0.142873
-0.209978
0.380983
-0.016960
0.000958
0.329164
-0.055679
0.035066
-0.751352
-0.096636
0.172216
-0.029685
-0.331261
-0.033627
-0.444423
-0.111233
-0.338098
0.320304
-0.045062
0.208344
-0.129722
-0.308990
-0.373695
-0.086639
0.084343
-0.238590
-0.008051
-0.047931
-0.086171
0.151518
0.052978
-0.080684
0.757777
0.629552
-0.084544
-0.393898
0.514362
-0.131043
-0.035341
0.069263
-0.095748
0.410516
-0.393076
0.798284
-0.223505
-0.697070
-0.228744
0.095909
0.072946
0.312330
0.520644
-0.299201
0.549845
-0.124822
0.221782
0.487877
0.305156
-0.060479
0.205731
-0.431642
0.305834
-0.450674
0.084000
0.158762
-0.733425
-0.322856
0.282009
0.104431
0.455028
0.502952
-0.549069
0.424875
0.695488
0.279288
-0.338439
-0.825695
-0.010241
-0.228230
-0.089827
-0.627277
0.471996
-0.291381
0.196195
0.373308
0.551283
-0.071572
0.426653
0.434344
-0.074295
-0.525008
0.049852
0.124157
0.082287
0.005941
0.422983
0.021589
-0.798235
0.119292
-0.091635
-0.375192
-0.409351
-0.025174
-0.171710
0.342013
0.642278
-0.154988
0.256100
0.132942
-0.046728
0.351995
-0.199583
0.465917
0.819324
0.551373
0.201026
0.165051
0.319799
0.536809
-0.149988
0.211056
-0.459512
-0.178609
-0.590184
0.111811
0.064809
-0.127454
-0.349509
0.329759
-0.337370
-0.222314
-0.066175
0.629064
0.128255
-0.456545
-0.392428
0.367291
-0.518720
0.141464
-0.529778
0.791520
-0.040654
0.427361
0.397899
0.298444
0.171584
0.235148
-0.136080
-0.182867
0.516489
-0.138211
0.557197
-0.344046
-0.055051
0.059214
0.211390
0.803221
0.288818
0.032474
0.046923
0.152793
-0.117754
0.197453
0.274489
0.391479
-0.305972
0.140578
0.354544
-0.453978
0.297362
0.399776
-0.118980
-0.346271
-0.172466
0.452220
0.363330
0.779190
-0.088754
-0.133927
0.188439
-0.208435
0.147343
0.291290
-0.176223
0.439677
-0.402241
0.666405
0.533510
0.530726
0.312864
0.695280
0.184468
-0.940665
0.437405
0.226071
-0.411212
0.485540
0.282463
-0.355405
0.187020
-0.186387
-0.011913
-0.053328
0.124737
0.429335
0.416700
0.403451
0.540208
0.332878
-0.053376
0.280577
0.208249
0.236645
0.390323
0.018057
-0.254076
0.619691
-0.301622
-0.248088
0.819070
-0.711501
0.145158
0.426022
0.444343
0.327188
0.339344
0.195583
0.275052
-0.149922
0.205686
-0.039424
0.364492
0.420755
0.034371
0.370980
0.453224
0.838599
-0.595976
-0.045985
-0.188711
-0.659236
0.052939
0.211703
0.323378
-0.069047
-0.623915
0.343272
-0.332860
-0.142188
-0.724905
0.009916
0.190283
0.215425
0.369648
-0.496803
0.384754
0.158668
-0.159726
0.367778
0.513100
-0.688430
-0.455608
-0.485645
-0.354002
-0.041202
0.007984
-0.453284
0.216694
0.139596
-0.151950
-0.089590
0.415870
-0.092569
0.145208
-0.378891
-0.125233
0.541138
-0.161002
-0.644262
-0.107962
-0.424265
0.173581
0.097647
-0.329443
-0.163281
0.610891
-0.395734
0.379685
-0.291708
-0.412793
-0.225301
0.047719
-0.209963
-0.016892
0.146342
-0.319845
0.407208
0.273398
0.222644
-0.397500
-0.129650
0.086931
-0.264003
0.563028
-0.333998
-0.420861
-0.413772
0.340715
0.314943
0.274009
-0.417589
-0.064633
0.035942
0.146310
-0.493867
-0.561866
-0.532761
-0.371261
0.629365
-0.280349
0.403042
0.283042
0.354958
-0.096170
0.517613
-0.226884
0.242572
-0.070295
-0.122533
0.415205
0.043165
0.232049
0.214950
0.555186
0.106690
-0.059508
0.319128
0.169257
0.398311
-0.456765
-0.206793
0.530123
0.342835
0.216571
-0.620489
0.184317
0.074858
-0.416352
0.466217
-0.000448
0.101805
0.489054
0.500151
-0.087633
-0.510058
0.141589
-0.325617
-0.134677
-0.201639
0.267026
-0.459030
-0.022176
-0.150365
-0.356897
0.302198
0.446278
0.168901
0.029954
-0.185949
-0.220620
0.698805
-0.599134
-0.240992
0.375625
-0.716273
0.054613
-0.576109
0.066650
-0.028090
0.428174
0.027697
0.141772
-0.093688
0.377105
-0.166234
0.004122
-0.486307
-0.452499
-0.155436
-0.600862
-0.461570
0.406403
-0.333873
0.024316
-0.598654
-0.221970
0.470308
0.280911
0.105374
0.199825
-0.400211
-0.441046
-0.200556
0.374817
0.001911
-0.296146
-0.413310
-0.297656
-0.216802
-0.164749
-0.366533
-0.073528
0.076366
0.689503
0.422511
0.282012
-0.191505
-0.467764
-0.496945
-0.050948
0.024939
-0.229945
0.387667
0.183798
-0.306626
-0.244295
0.279854
-0.931129
0.364747
-0.018477
-0.418289
-0.231377
0.404258
0.152224
0.467189
-0.303786
0.007997
-0.385577
-0.170926
-0.300059
0.074963
0.518093
0.115348
-0.126133
0.217714
-0.125735
0.407091
-0.156597
-0.337948
