0.230851
-0.133043
0.030007
0.037416
-0.331357
0.082281
-0.117684
0.139263
-0.146181
0.192022
-0.372699
0.195831
0.261950
0.280553
-0.323993
-0.468342
-0.190267
-0.618394
-0.569948
0.411760
0.120048
0.124098
0.024149
0.427563
0.179813
-0.351708
0.056188
0.198599
0.085940
-0.121032
0.435338
-0.117274
-0.187931
-0.061681
-0.298858
-0.668823
0.714545
-0.508663
0.417083
-0.632079
-0.344277
-0.085038
-0.553418
-0.297330
0.394256
0.552109
0.474177
-0.291522
0.017762
0.495323
0.150234
-0.048559
-0.166723
-0.289769
0.368692
-0.321031
-0.516190
0.068854
-0.429398
-0.199364
0.095574
-0.408113
0.342543
-0.278953
-0.251159
-0.299831
0.022547
0.075517
0.224498
-0.451093
0.300450
-0.437367
0.261942
0.137554
-0.575773
0.209161
-0.218371
0.006015
0.272827
-0.253008
0.155166
0.215226
-0.415150
-0.472143
-0.310322
0.274854
-0.225990
-0.300033
-0.389247
0.184068
-0.164504
-0.042894
-0.407885
-0.086654
0.223118
-0.195411
0.180610
-0.609621
-0.483132
0.272729
0.647170
0.347077
-0.372689
0.283086
-0.149072
-0.350000
0.420804
-0.603976
0.044882
0.186992
0.227514
0.047814
-0.284981
-0.052358
-0.109879
0.064846
-0.017744
0.075509
-0.037593
0.410001
0.445331
0.014332
-0.077002
-0.154179
0.002937
0.122274
0.125274
-0.046951
0.488617
0.230933
0.416500
0.243698
0.353854
0.344699
-0.520566
-0.010132
0.078466
-0.355170
-0.031720
-0.268507
-0.414669
0.138011
-0.275716
-0.194782
0.533989
0.157982
-0.355102
-0.468476
0.401158
-0.095119
0.231970
0.457168
0.298702
-0.372866
0.246637
0.596286
0.168110
0.746732
-0.571671
-0.347993
0.536881
-0.460469
0.731770
-0.289572
0.137859
-0.063708
-0.405191
-0.206065
-0.276556
-0.155877
0.260317
-0.334569
0.081728
0.034625
-0.398805
-0.173344
0.480657
0.106196
0.330810
0.205354
0.099008
0.708361
0.032114
0.519917
0.272014
-0.026413
-0.080800
-0.224028
-0.089400
0.176748
0.522165
-0.139922
-0.194679
-0.125836
-0.245580
-0.066323
0.338611
-0.277386
-0.272464
-0.563570
0.214263
0.299262
-0.772042
-0.127630
0.193777
0.570695
0.164236
-0.239738
-0.036303
0.374216
-0.065506
-0.113798
0.288524
0.248250
-0.415899
-0.518135
-0.125656
-0.176582
0.302200
-0.116488
0.338123
0.470623
0.648482
0.094510
0.319529
-0.054736
0.017583
0.418114
-0.029661
0.117075
-0.146301
-0.516882
0.755255
0.055853
-0.361862
0.078135
-0.025968
0.028747
-0.348671
-0.515225
-0.470703
-0.336004
-0.464114
-0.027551
0.788972
0.053659
-0.577440
-0.023218
-0.172763
-0.207902
-0.173674
0.149618
0.124521
0.264405
0.147184
-0.562135
-0.733092
0.008234
0.313120
-0.099999
0.323653
0.054385
0.396051
-0.363414
0.033184
0.145614
-0.535888
0.672098
-0.233465
-0.197198
-0.389496
-0.281779
0.471909
-0.109012
0.215284
0.531928
0.081863
0.478521
0.398119
0.142235
0.116244
-0.406960
0.484811
-0.464909
-0.373669
0.360595
0.102342
0.462728
0.324120
0.638859
-0.338676
0.371228
0.243135
-0.235224
0.074047
-0.067683
-0.328153
0.091790
0.491207
-0.246995
0.099024
-0.268631
0.266384
-0.146906
-0.120318
0.158662
-0.424308
0.307520
-0.323701
-0.774070
-0.252798
-0.088137
0.130195
0.456630
-0.444474
0.289364
-0.154430
0.117779
-0.413577
0.378872
-0.113662
0.562138
0.078857
0.768234
0.422101
0.235639
0.173017
-0.583410
-0.405293
0.619326
0.145107
-0.675887
-0.087735
-0.496063
0.311335
0.337886
-0.400385
0.288708
-0.476400
0.029456
-0.109531
-0.324622
-0.657672
0.125387
-0.114009
-0.428495
0.328401
0.002938
-0.663479
0.579244
-0.196654
-0.018818
-0.028777
0.526557
-0.075862
-0.414522
0.080043
0.441172
-0.230904
0.289673
-0.220390
0.303736
-0.268822
-0.390175
0.105805
-0.524662
-0.328737
-0.254630
0.026353
-0.792044
0.038414
0.082327
0.395853
0.016222
0.446685
-0.445468
-0.152077
0.250873
-0.252097
0.468648
-0.275618
-0.175661
0.319362
-0.622929
-0.569414
-0.170483
0.009524
-0.337199
0.248442
-0.015769
0.080178
-0.230931
0.562994
0.153458
-0.129114
0.527039
-0.247016
0.350182
-0.396805
-0.340983
-0.257079
-0.210344
-0.160616
0.263141
-0.128592
0.174641
0.280101
-0.157405
0.181041
0.191956
0.304866
-0.527291
-0.179435
0.482861
-0.313314
-0.079635
0.334496
0.181637
-0.345843
0.274990
-0.084372
-0.096303
0.027078
0.386429
0.300796
-0.323577
0.223839
-0.149395
0.259371
0.277196
0.073679
-0.305007
-0.016673
0.107776
0.114190
-0.147603
0.492726
-0.550423
0.391512
0.256911
0.460093
0.453246
0.098468
-0.346590
-0.009509
-0.185668
0.366603
-0.017801
0.398349
-0.310807
0.514230
-0.393449
-0.006675
-0.109069
-0.278423
-0.662085
-0.052693
0.189290
0.428374
-0.051956
0.184741
-0.215184
0.156685
-0.371470
0.236267
-0.215819
-0.214389
-0.451039
-0.682080
-0.363838
-0.075355
-0.332336
0.257810
-0.092262
-0.233609
-0.116597
0.084154
0.467974
-0.179913
-0.074097
0.413181
0.106796
-0.194711
0.413331
0.013257
-0.638832
0.341161
-0.294920
-0.200778
-0.118066
-0.498630
0.260753
-0.374798
-0.150016
0.042366
-0.372738
0.095181
-0.482557
-0.457636
0.046991
-0.429692
-0.146328
0.126547
-0.246130
0.020258
-0.281476
0.371472
-0.020161
0.324211
-0.107049
0.390909
-0.042968
-0.370964
0.042345
-0.210801
-0.205522
-0.489468
0.160650
-0.033470
0.333998
0.481491
-0.479072
0.028930
0.408969
0.339084
-0.303146
-0.128790
0.326356
-0.568619
0.302531
-0.069577
-0.227353
-0.083338
0.051140
0.370597
-0.329381
-0.402730
0.353210
0.036549
-0.504024
-0.342921
0.326239
0.239609
-0.325325
0.340538
-0.112092
0.031997
-0.139658
-0.041549
0.336455
0.361034
0.410006
0.243441
-0.304180
0.251632
-0.002129
-0.027912
0.775660
-0.488828
-0.143958
0.795010
-0.001389
-0.068718
0.018554
-0.460689
0.543236
0.304938
0.326285
0.532812
0.403324
-0.283550
0.163931
-0.472193
0.103326
0.296891
0.509197
-0.113234
0.377245
-0.318031
0.584141
0.476622
0.478876
-0.048734
-0.164078
-0.198305
-0.285166
0.173725
-0.248028
-0.588677
0.358275
0.369950
0.062616
0.638772
0.084526
-0.389668
-0.560882
0.263221
-0.415775
-0.632173
-0.100455
-0.153679
0.528901
0.004916
0.069335
-0.166984
-0.378267
-0.108811
0.374983
-0.448467
0.289179
-0.098054
0.349196
0.188161
-0.028737
0.263868
-0.422769
-0.471715
-0.227440
0.148574
0.308479
-0.632759
0.406702
0.554456
-0.280492
-0.428853
0.198022
-0.426858
-0.038839
0.507411
0.151138
-0.195411
-0.152069
0.309993
-0.351048
-0.487452
0.089938
1.034832
-0.440180
-0.429982
0.115803
0.318653
-0.202442
0.522267
-0.314169
-0.004703
-0.163921
0.491230
-0.024937
0.118533
-0.001506
-0.100042
0.591469
-0.090225
-0.184552
-0.411303
0.484535
-0.286923
0.486437
-0.371535
0.405841
0.240508
-0.159899
-0.372395
-0.190422
0.187175
-0.089839
-0.760825
-0.007972
0.075546
-0.226771
0.430878
0.387720
-0.209801
0.157642
0.129035
-0.057817
-0.006442
0.128152
-0.012454
0.248269
-0.098868
0.270864
-0.761591
0.204454
0.128077
0.194120
-0.301333
-0.219536
-0.332309
0.076451
-0.306936
-0.671826
-0.213200
0.424726
0.133516
0.287781
-0.286895
0.416593
0.293455
-0.208510
0.266394
0.639492
0.028882
0.365768
-0.630783
0.036985
0.371537
-0.575794
0.271432
0.228724
0.365908
0.248209
0.039279
0.376123
-0.036151
0.470278
-0.239411
-0.158829
0.284452
0.383433
-0.416544
-0.609860
0.324451
-0.126134
0.149621
0.233184
0.236237
-0.285115
-0.302598
0.032398
-0.363118
-0.348690
-0.092678
0.151460
0.072187
0.447543
-0.267153
-0.246858
-0.382108
-0.571519
-0.188232
0.076219
-0.170157
-0.370961
0.195997
-0.087375
0.520013
-0.278759
0.342730
-0.251850
-0.480508
-0.561116
-0.133968
-0.221017
-0.304530
0.380650
0.018422
-0.288961
-0.433325
-0.240554
0.155781
-0.562730
-0.421582
0.035530
0.293965
-0.066864
-0.360984
0.288764
-0.075517
-0.018807
0.241485
0.216066
-0.094767
0.326764
0.186058
-0.640002
-0.410165
0.573745
-0.530519
0.092514
0.388025
-0.308338
0.160143
-0.131288
-0.127883
-0.236981
0.306699
0.243837
0.191126
-0.087391
0.650456
0.083027
0.152256
0.050344
-0.039515
0.330185
0.363456
-0.418289
0.427174
-0.529051
-0.027641
-0.220898
0.222889
-0.718692
-0.503121
0.350758
-0.235170
0.187151
-0.588547
0.454769
0.095815
-0.093394
0.147534
-0.376249
0.156601
-0.257588
