0.011600
0.445581
-0.251413
-0.093773
-0.152708
0.000473
-0.088237
0.149635
-0.185368
0.211594
-0.233760
-0.479711
0.177477
-0.209683
-0.086056
0.376494
0.294201
-0.217172
-0.132106
0.527285
-0.344355
-0.405884
-0.096130
0.360380
0.143742
0.375503
0.011637
0.498127
-0.074136
0.281999
0.601325
0.056952
-0.358172
-0.472395
0.387605
-0.241899
-0.109657
-0.139862
0.476365
0.421883
0.244771
-0.427136
0.074718
0.151058
0.170130
0.380837
-0.173557
-0.079185
0.414022
0.489587
-0.338879
-0.060998
-0.045266
0.029084
-0.115683
0.183253
0.174394
0.272912
-0.016056
-0.358952
0.385637
0.380892
0.319993
-0.531880
-0.115626
0.277446
-0.105814
0.025611
0.365496
-0.252303
-0.116779
-0.429868
0.392175
-0.144131
-0.118805
-0.146114
-0.013241
0.060069
-0.128042
-0.113129
-0.152792
-0.296665
-0.079582
0.163614
0.264144
-0.193405
0.327149
0.389899
-0.734271
0.047287
-0.244463
-0.098954
0.201471
-0.194145
0.168171
-0.461118
0.044792
-0.280676
0.493650
-0.139234
0.057455
0.214451
0.167441
0.360522
0.207726
-0.322025
0.197671
0.442530
-0.250378
0.525192
-0.096223
-0.256358
-0.453871
-0.271612
0.041228
0.088270
0.447978
0.382126
0.338199
-0.030904
-0.463597
-0.481885
-0.328829
-0.279965
-0.545066
0.286713
0.202430
-0.224300
0.655995
0.418898
-0.343877
0.031449
0.211540
0.249762
-0.308609
0.207095
0.265132
0.060923
0.049821
0.030945
-0.402040
-0.121985
-0.156366
-0.404026
0.298864
0.368504
-0.436493
-0.274300
0.347128
0.302826
0.261247
-0.133175
0.330701
-0.199827
-0.439506
0.428068
-0.000531
-0.482162
0.306499
-0.107802
-0.558215
-0.000384
-0.348350
0.236391
0.129101
-0.011363
-0.195263
-0.263832
0.193399
-0.083749
0.344870
0.425895
0.068103
-0.182286
0.128691
-0.308474
-0.740037
-0.291776
0.144244
-0.424936
0.530602
0.597543
0.247405
-0.505892
0.150905
-0.093113
0.140031
-0.083649
0.157189
-0.143886
-0.188000
0.682293
-0.170561
-0.258432
-0.279350
-0.371212
0.169969
-0.591775
0.149094
-0.582118
0.335302
-0.134038
-0.277288
0.477764
0.179430
0.519931
0.197568
-0.541668
-0.005376
0.357663
0.155729
0.347099
-0.172935
0.525492
0.441698
-0.172197
-0.137166
0.300341
-0.133329
0.429016
-0.220832
-0.149404
0.082991
0.321755
0.462933
-0.061432
-0.442293
-0.090509
0.505468
0.247994
-0.514157
-0.255427
-0.363503
-0.166007
-0.479554
-0.210828
0.043761
0.106037
-0.370139
-0.334922
-0.382418
-0.368408
-0.573649
0.040990
-0.376379
0.358921
-0.514284
-0.235676
-0.299206
-0.000623
-0.022922
-0.032222
0.145512
0.010387
0.291567
-0.535256
-0.054272
0.412922
-0.123279
-0.200716
0.380154
-0.544452
-0.378391
-0.426373
0.061466
0.107070
0.180451
0.535491
0.548023
0.257592
0.338483
-0.451634
0.165628
-0.401248
-0.520963
0.017176
0.458386
0.114353
-0.117282
0.382849
0.382772
0.181292
0.562360
0.363417
-0.388306
0.371363
0.359031
-0.349115
0.547495
-0.197348
-0.091920
-0.334418
-0.417095
0.114708
-0.027335
-0.060704
-0.403767
0.228999
0.000772
0.388831
0.316173
-0.114575
-0.217991
0.170368
-0.175844
-0.153418
0.095055
0.386690
-0.351569
-0.396251
0.237903
0.513118
-0.423254
-0.006342
0.436977
-0.299401
-0.562529
-0.272730
0.119380
0.422458
0.217819
0.218662
0.428790
-0.482585
0.346953
-0.271472
-0.229916
0.002305
-0.456484
0.243603
0.128756
-0.047423
0.399717
0.271819
-0.236674
0.037460
-0.406624
-0.131876
-0.075762
0.433972
0.456968
0.454203
0.471019
0.091448
-0.076961
-0.659891
-0.032685
0.335498
-0.466917
0.531958
0.218396
-0.383497
-0.311437
0.105827
0.354853
-0.398585
0.396397
0.541705
0.379116
-0.044452
0.111253
0.256399
0.178094
-0.171153
0.042207
-0.703518
0.167831
-0.629029
0.388737
0.117851
0.227283
-0.432909
-0.197991
0.235331
-0.217066
0.218679
-0.420267
0.153714
-0.504849
-0.176414
-0.289895
-0.278630
-0.085638
0.330106
-0.053647
0.300160
0.005836
-0.180891
0.126758
0.587401
-0.348883
-0.346929
0.174236
0.446706
0.429901
-0.403593
0.148652
0.333200
0.008856
-0.389937
-0.524019
-0.099967
0.036112
0.279352
0.614560
-0.164868
0.200437
-0.131077
0.306165
0.583371
0.419358
0.394865
0.126305
0.014967
-0.163034
0.445046
0.163001
0.173980
-0.255842
-0.368791
0.471174
0.389488
0.034534
0.622030
0.162563
-0.068153
0.462947
0.397530
-0.462002
0.257614
0.163988
0.158762
0.184554
-0.287114
-0.068976
-0.465967
0.068762
-0.133509
-0.633399
-0.638738
0.545547
0.365144
0.178760
0.344544
0.357794
-0.128116
0.185816
-0.241004
0.286236
-0.543310
-0.285861
0.128799
0.051807
-0.126204
-0.128827
-0.118767
-0.469046
0.186601
0.049852
-0.209245
0.298908
-0.273598
0.181710
0.648563
-0.577982
0.020629
-0.127804
0.125412
0.074153
-0.343068
-0.321694
0.166474
0.053372
-0.304675
0.281454
-0.419764
0.179995
0.081876
-0.034341
0.057926
0.107085
-0.044307
-0.493110
0.188882
0.480604
-0.331685
0.405983
0.119168
-0.019282
-0.001168
0.411057
-0.574476
0.405335
-0.383786
0.373515
-0.270653
0.279779
-0.207155
0.218488
-0.281364
-0.539531
0.294685
0.496722
-0.227926
0.726666
-0.109843
-0.465976
-0.499362
0.442855
0.138650
0.643949
0.233604
-0.303376
0.404721
-0.173858
-0.156885
0.382109
-0.428872
-0.251007
0.215628
0.259940
0.418106
0.476499
-0.207286
-0.468194
0.452016
-0.455524
-0.320517
0.467389
0.024031
-0.426001
-0.049459
0.584795
-0.053444
0.444711
0.112539
-0.196981
0.000099
0.526368
0.013629
-0.190026
-0.088311
0.076432
0.454045
-0.329852
-0.480460
-0.545962
-0.042916
0.143249
-0.430262
-0.037327
-0.549509
0.333175
0.508136
-0.192912
0.024668
0.413527
-0.481836
0.299166
-0.244289
-0.290954
0.377388
0.145606
0.403223
-0.101113
0.020212
-0.373782
0.019436
0.135116
0.105206
0.054384
-0.379193
0.300761
-0.297224
-0.512649
0.538445
0.128414
-0.284297
-0.113468
-0.169099
0.408189
0.626591
-0.235627
0.276496
-0.357976
-0.287340
0.165430
-0.063952
0.406785
-0.089994
0.004698
0.346086
-0.109299
-0.443290
0.189721
-0.041946
0.092621
-0.388946
-0.585413
0.244745
0.214667
0.366230
0.270083
-0.606116
-0.164880
0.369692
-0.201368
-0.541118
0.186128
-0.414705
-0.156799
0.126907
0.223239
0.073754
0.190611
-0.464609
-0.096793
0.126121
-0.318575
-0.569228
0.188651
-0.267573
-0.254333
0.251914
0.256404
0.082116
0.487800
0.438479
-0.060905
-0.630687
-0.133814
0.049270
0.128014
0.000509
-0.559492
0.330011
-0.156398
-0.041734
0.155557
-0.035437
0.213441
-0.244795
-0.228471
0.557261
0.077947
0.134397
0.442640
0.290212
0.318716
0.511173
0.014999
-0.429638
0.207608
-0.401602
0.088793
0.191945
0.290172
0.301147
0.302504
0.057359
0.382862
-0.021897
0.179764
0.410903
0.268611
-0.023789
0.401941
-0.012968
0.024926
-0.736559
0.428342
-0.162694
0.270736
-0.400526
-0.325226
0.113481
0.014313
0.521256
-0.067267
-0.637908
-0.152967
-0.174933
0.230648
-0.445722
-0.417352
-0.361341
-0.282571
0.569620
0.206695
-0.287591
-0.221212
-0.283564
0.176406
0.075487
-0.254007
-0.149411
-0.349325
-0.102698
0.154777
-0.129533
0.465016
0.381451
-0.595686
0.284840
-0.284672
-0.618423
-0.053893
0.464122
0.172251
0.647789
-0.052982
-0.435810
-0.267215
0.429962
-0.445709
0.303235
0.381528
-0.416926
0.614906
-0.483356
-0.452980
-0.643537
0.257984
-0.041726
0.118714
0.169813
-0.154607
0.089369
0.107488
-0.114866
0.197463
-0.036765
-0.528050
-0.262775
0.015407
0.393247
0.302045
0.114655
0.392225
0.530354
-0.096773
-0.432113
0.471801
0.343395
-0.087150
0.618434
-0.120823
0.196739
-0.021475
0.682710
0.429368
0.239234
0.260742
0.287191
-0.351610
0.299421
-0.261991
-0.101196
-0.283474
-0.509631
0.581379
0.091544
-0.024990
-0.140790
0.273362
-0.075367
0.377907
0.274168
0.215266
0.045050
0.364292
-0.470732
0.025273
0.346061
-0.054957
0.155144
-0.228167
0.297471
-0.627293
-0.198426
0.023158
0.310954
0.351905
-0.108619
-0.217718
-0.498712
0.410097
0.389385
0.004668
0.661208
-0.208290
-0.222125
-0.169473
-0.374427
0.050095
-0.091395
-0.270658
0.203408
0.055337
0.616112
0.399413
0.425072
-0.130972
-0.653456
0.338787
0.422508
0.374597
-0.006299
-0.238357
-0.099957
-0.008303
0.477486
0.110634
0.026167
-0.074928
0.182268
